PWM_range 0 100
pepL_range 12 21
P1_range -6 6
log_min 1e-04

nn_in_var 270 P1_-1 P1_-2 P1_-3 P1_-4 P1_-5 P1_-6 P1_0 P1_1 P1_2 P1_3 P1_4 P1_5 P1_6 PWM_log AA_-_1 AA_-_10 AA_-_11 AA_-_12 AA_-_2 AA_-_3 AA_A_1 AA_A_10 AA_A_11 AA_A_12 AA_A_2 AA_A_3 AA_A_4 AA_A_5 AA_A_6 AA_A_7 AA_A_8 AA_A_9 AA_C_1 AA_C_10 AA_C_11 AA_C_12 AA_C_2 AA_C_3 AA_C_4 AA_C_5 AA_C_6 AA_C_7 AA_C_8 AA_C_9 AA_D_1 AA_D_10 AA_D_11 AA_D_12 AA_D_2 AA_D_3 AA_D_4 AA_D_5 AA_D_6 AA_D_7 AA_D_8 AA_D_9 AA_E_1 AA_E_10 AA_E_11 AA_E_12 AA_E_2 AA_E_3 AA_E_4 AA_E_5 AA_E_6 AA_E_7 AA_E_8 AA_E_9 AA_F_1 AA_F_10 AA_F_11 AA_F_12 AA_F_2 AA_F_3 AA_F_4 AA_F_5 AA_F_6 AA_F_7 AA_F_8 AA_F_9 AA_G_1 AA_G_10 AA_G_11 AA_G_12 AA_G_2 AA_G_3 AA_G_4 AA_G_5 AA_G_6 AA_G_7 AA_G_8 AA_G_9 AA_H_1 AA_H_10 AA_H_11 AA_H_12 AA_H_2 AA_H_3 AA_H_4 AA_H_5 AA_H_6 AA_H_7 AA_H_8 AA_H_9 AA_I_1 AA_I_10 AA_I_11 AA_I_12 AA_I_2 AA_I_3 AA_I_4 AA_I_5 AA_I_6 AA_I_7 AA_I_8 AA_I_9 AA_K_1 AA_K_10 AA_K_11 AA_K_12 AA_K_2 AA_K_3 AA_K_4 AA_K_5 AA_K_6 AA_K_7 AA_K_8 AA_K_9 AA_L_1 AA_L_10 AA_L_11 AA_L_12 AA_L_2 AA_L_3 AA_L_4 AA_L_5 AA_L_6 AA_L_7 AA_L_8 AA_L_9 AA_M_1 AA_M_10 AA_M_11 AA_M_12 AA_M_2 AA_M_3 AA_M_4 AA_M_5 AA_M_6 AA_M_7 AA_M_8 AA_M_9 AA_N_1 AA_N_10 AA_N_11 AA_N_12 AA_N_2 AA_N_3 AA_N_4 AA_N_5 AA_N_6 AA_N_7 AA_N_8 AA_N_9 AA_P_1 AA_P_10 AA_P_11 AA_P_12 AA_P_2 AA_P_3 AA_P_4 AA_P_5 AA_P_6 AA_P_7 AA_P_8 AA_P_9 AA_Q_1 AA_Q_10 AA_Q_11 AA_Q_12 AA_Q_2 AA_Q_3 AA_Q_4 AA_Q_5 AA_Q_6 AA_Q_7 AA_Q_8 AA_Q_9 AA_R_1 AA_R_10 AA_R_11 AA_R_12 AA_R_2 AA_R_3 AA_R_4 AA_R_5 AA_R_6 AA_R_7 AA_R_8 AA_R_9 AA_S_1 AA_S_10 AA_S_11 AA_S_12 AA_S_2 AA_S_3 AA_S_4 AA_S_5 AA_S_6 AA_S_7 AA_S_8 AA_S_9 AA_T_1 AA_T_10 AA_T_11 AA_T_12 AA_T_2 AA_T_3 AA_T_4 AA_T_5 AA_T_6 AA_T_7 AA_T_8 AA_T_9 AA_V_1 AA_V_10 AA_V_11 AA_V_12 AA_V_2 AA_V_3 AA_V_4 AA_V_5 AA_V_6 AA_V_7 AA_V_8 AA_V_9 AA_W_1 AA_W_10 AA_W_11 AA_W_12 AA_W_2 AA_W_3 AA_W_4 AA_W_5 AA_W_6 AA_W_7 AA_W_8 AA_W_9 AA_Y_1 AA_Y_10 AA_Y_11 AA_Y_12 AA_Y_2 AA_Y_3 AA_Y_4 AA_Y_5 AA_Y_6 AA_Y_7 AA_Y_8 AA_Y_9 pepL_12 pepL_13 pepL_14 pepL_15 pepL_16 pepL_17 pepL_18 pepL_19 pepL_20 pepL_21


N_layers 2

 nnetsWeights  270   200
  -0.060312 0.061543 0.043629 0.050601 -0.040903 0.000594 0.043872 -0.041335 0.248637 0.062879 -0.041689 0.019807 0.059595 -0.101671 0.105555 -0.017572 0.003243 0.00188 0.081483 -0.155698 -0.209052 0.017009 -0.313662 0.009825 0.043277 -0.01006 -0.087385 0.064029 0.040946 -0.356896 -0.038213 0.140002 0.003638 0.192606 0.005999 -0.057315 0.097136 0.048717 -0.028845 0.077539 0.001539 -0.018135 0.01979 -0.098692 0.112185 0.032371 0.023696 -0.001084 0.078731 -0.033993 -0.067302 -0.060963 -0.040446 -0.03568 0.078672 -0.026594 -0.040411 0.020541 0.135943 -0.007432 -0.020201 0.077402 0.022651 0.07304 0.103768 -0.033936 0.054172 -0.01634 0.045925 -0.033453 0.034094 0.024811 0.04782 -0.020028 -0.010343 -0.114579 0.011676 0.080823 -0.012766 0.105188 0.055481 -0.089857 -0.102991 -0.051879 -0.008118 -0.015105 -0.090564 0.003007 -0.195721 0.061525 0.001281 -0.077402 0.151026 -0.157022 -0.010162 0.115414 -0.239225 -0.014668 0.068218 0.026534 0.026314 -0.019782 0.081903 0.022142 -0.172301 -0.046239 -0.008485 -0.224118 -0.148821 0.109253 -0.021044 -0.020372 -0.045469 -0.060509 -0.045766 -0.06157 -0.006956 -0.039524 -0.07894 -0.065862 0.0543 0.008351 0.004509 0.151446 0.041996 -0.050446 0.061006 -0.158258 -0.020569 -0.137184 -0.07187 0.028424 -0.053327 0.123488 0.088864 -0.056853 -0.061623 0.075616 0.02622 0.086546 -0.008807 -0.062465 -0.058937 0.066262 -0.075693 -0.115764 0.144247 0.003127 0.179373 -0.026104 -0.073626 -0.136269 -0.060115 0.138015 -0.172605 -0.016458 -0.073087 0.022719 -0.029263 -0.017368 0.186172 -0.002993 -0.111961 -0.063358 -0.007941 -0.026539 0.174077 0.126808 -0.043996 -0.062906 -0.131614 -0.160576 -0.022466 -0.169619 0.028118 0.107854 0.069043 0.03796 0.098563 0.079548 -0.02124 0.126465 -0.004004 0.02477 -0.104406 0.016857 -0.20412 0.098222 0.050476 0.069279 0.01467 -0.209966 -0.007447 -0.078552 0.116951 0.033766 -0.003598 -0.023664 -0.112292 -0.081207
  -0.050221 -0.061709 0.029861 0.053287 -0.136069 0.035134 -0.079689 0.002583 0.125386 -0.068106 0.039682 -0.010219 0.026201 0.009513 0.007521 -0.080479 0.043232 -0.019342 0.11897 -0.186317 0.030206 -0.170939 0.074932 0.054349 -0.010528 -0.044903 -0.119883 -0.021041 0.076621 -0.184087 -0.022448 0.127125 -0.001117 0.040198 0.164133 -0.076407 0.095596 0.009853 0.139347 -0.036455 0.005767 0.01888 0.006959 0.012542 0.123996 0.067272 0.012549 -0.098158 0.098966 0.01074 -0.025311 -0.132356 0.003694 -0.018448 0.144508 -0.014427 -0.06236 -0.183857 0.059701 0.082437 0.02729 -0.127797 -0.025714 0.177425 0.029003 -0.129039 -0.008066 -0.052654 0.049178 -0.007404 -0.018678 0.023662 0.096049 0.009118 -0.040263 -0.01549 -0.006985 0.004645 0.005784 -0.018987 0.110038 -0.17614 -0.000672 -0.248785 0.009926 -0.033964 -0.142862 -0.259998 -0.135573 -0.003224 0.032606 0.13101 0.040752 -0.194895 0.002995 -0.09288 -0.056455 -0.015967 0.031189 0.097534 0.055661 0.061771 -0.020441 0.018943 -0.017994 -0.196324 0.113339 -0.170742 -0.19476 -0.144637 -0.022789 -0.074566 -0.019651 0.05715 -0.038935 0.061319 0.031944 -0.185996 0.023807 -0.150358 -0.084021 -0.024031 -0.029376 0.081341 0.073599 -0.15674 0.072382 -0.009566 0.019199 -0.209016 -0.045628 -0.079576 -0.057993 -0.081541 0.105873 -0.123516 -0.115877 0.14687 0.038066 -0.136391 -0.132175 -0.104142 -0.106792 0.037967 -0.059152 -0.170338 -0.110358 0.004135 0.012981 0.025397 -0.132854 -0.032789 -0.012036 0.146963 -0.180572 -0.149049 -0.082565 -0.042096 -0.119694 0.049189 -0.03961 -0.140714 -0.074175 0.081389 0.145131 -0.018411 0.006509 0.003261 -0.026417 -0.036996 -0.053917 -0.09652 -0.025983 -0.157675 0.042658 0.070468 0.120434 0.04514 0.050341 -0.025383 0.004306 0.195871 -0.108545 -0.056814 -0.104009 -0.064868 -0.26162 -0.174111 0.030215 0.060155 -0.009659 -0.215306 -0.031531 -0.185181 0.107034 0.011595 -0.193631 -0.158098 -0.193127 -0.137134
  0.080909 -0.018108 0.054954 -0.121889 -0.086041 0.083425 0.030539 -0.017667 0.070081 -0.133939 -0.019851 -0.105466 0.059317 0.074366 0.123644 -0.088327 0.094611 -0.066752 0.018392 -0.058064 0.023486 0.02928 0.218973 -0.02403 0.013986 0.096079 -0.014879 -0.007547 -0.066275 -0.106043 0.094601 0.047749 0.058883 0.123139 0.0513 0.056125 0.022446 -0.001612 0.09896 -0.130598 0.019879 0.085951 -0.075867 0.031871 -0.065284 -0.034223 -0.118392 -0.119006 -0.084512 0.051739 -0.016993 -0.00392 -0.061225 0.006052 0.127036 -0.008097 -0.069159 -0.142209 0.042421 -0.041453 -0.053448 0.153906 -0.065178 0.084472 0.112317 0.036834 -0.016839 -0.086514 -0.069679 0.044004 -0.126818 -0.099007 0.088776 0.068803 -0.045225 0.08026 -0.05799 -0.091676 0.066375 0.032456 -0.027829 -0.06077 0.080643 -0.132867 -0.011092 0.05089 0.022393 -0.23757 -0.131243 -0.112399 -0.055149 0.099305 0.120655 -0.08329 -0.104771 -0.036638 -0.113392 0.056809 0.122126 0.075996 0.009826 0.054517 -0.163562 0.110539 -0.092582 -0.079115 -0.102475 -0.147446 -0.129598 -0.053971 0.01125 0.076548 0.100254 0.061155 -0.032567 0.012679 0.114767 -0.085626 -0.035785 -0.180892 0.000263 -0.018461 0.018553 0.048332 0.092096 0.005859 0.061881 0.014797 -0.036505 -0.130554 0.056701 0.025341 0.018968 -0.027769 0.059435 -0.059442 -0.090253 0.11814 -0.090862 -0.052221 -0.097125 -0.001706 -0.117717 0.053901 -0.083451 -0.171918 -0.031075 0.158881 -0.188819 -0.027761 -0.054029 -0.199081 0.015472 0.112775 -0.35793 -0.126565 -0.041251 -0.065886 -0.101944 -0.037873 -0.030394 -0.114422 -0.054374 -0.088952 -0.047702 0.017514 -0.039078 -0.025128 -0.040042 0.00751 -0.069868 -0.103738 -0.004064 -0.088423 -0.053882 0.092558 0.022986 0.002086 0.298374 0.022819 0.061612 0.018692 -0.028336 0.070446 -0.049975 0.001686 -0.228176 -0.066924 0.039205 0.033595 -0.096148 0.045354 -0.066528 -0.129401 0.15354 -0.122877 -0.154724 -0.045059 0.065011 0.040884
  0.049731 -0.039218 0.016606 0.031679 -0.063927 0.0022 0.038464 0.224908 0.001767 0.097775 0.075539 0.066087 0.019039 0.151637 -0.137396 -0.034264 -0.125261 0.010998 -0.062046 -0.063263 -0.015216 -0.102668 0.119673 0.044927 -0.008183 -0.018317 -0.048652 0.06831 -0.123401 -0.099822 -0.099838 0.019261 -0.001525 -0.164341 0.139895 -0.048255 -0.058687 -0.027261 0.035853 -0.192852 0.048653 0.079806 -0.042777 -0.022733 -0.045696 0.030951 -0.165152 -0.07065 -0.087495 0.025195 0.033564 0.054683 0.039351 -0.011082 0.089272 0.114285 0.038579 -0.061405 0.008145 0.037041 -0.020424 0.022644 -0.014394 0.011552 -0.015486 -0.090916 0.000555 0.008696 0.04287 0.000152 -0.133312 0.052064 0.162613 -0.109892 -0.048789 0.020335 -0.102315 -0.028393 0.060266 0.020524 0.0268 -0.124033 0.017834 -0.043586 -0.065471 0.021027 0.041611 -0.000915 -0.016553 -0.076405 -0.062589 -0.013487 0.08295 -0.053359 -0.077629 -0.060302 -0.090457 -0.047142 -0.026864 -0.034677 -0.034531 -0.082908 -0.06079 0.139039 0.060767 -0.077124 -0.02188 0.027193 0.067669 0.124406 -0.092421 -0.016325 0.062213 0.069932 -0.174572 -0.005856 -0.095822 0.029108 -0.029237 -0.161041 0.076373 -0.034824 0.046406 -0.047387 0.017456 0.074987 0.073165 -0.038886 0.046383 -0.064617 -0.008333 0.098017 -0.148119 -0.022397 -0.037581 0.013668 -0.048503 0.12133 -0.080963 0.082947 -0.093799 -0.013672 -0.01542 -0.045953 0.036037 -0.057322 0.001058 -0.181102 -0.178607 0.033541 -0.024284 -0.101657 -0.070933 0.051864 -0.041882 0.036668 -0.036892 -0.031654 -0.001624 -0.013345 -0.111181 0.009447 -0.071861 0.17518 -0.100963 -0.016665 0.018017 -0.038371 0.085788 0.011613 -0.057774 0.072916 -0.033688 -0.073892 0.010489 0.031193 0.089195 0.063477 0.061049 -0.052965 0.02378 0.164135 -0.003394 -0.095942 -0.008835 0.001714 0.022551 -0.064618 0.041992 -0.039939 -0.028577 -0.082147 -0.033979 -0.032471 0.02504 -0.049974 0.096988 -0.076535 0.061562 -0.123573
  0.051606 -0.047779 -0.022657 -0.050711 0.014344 -0.021385 -0.091157 -0.083912 0.013916 0.029859 -0.012439 -0.044153 -0.057572 0.056385 0.007579 -0.003079 0.064094 0.059613 -0.100408 0.044829 -0.085431 -0.052786 0.036739 0.016092 0.042316 -0.055352 -0.073456 -0.008235 -0.077075 -0.037689 -0.106895 -0.045094 -0.041064 -0.110301 -0.014148 0.008153 -0.026089 -0.043932 -0.045643 -0.064942 0.024519 -0.088213 0.014114 0.150734 0.005029 -0.02326 -0.152898 -0.064608 0.086793 -0.012813 -0.091995 0.093005 0.056536 0.043936 0.022299 0.093105 -0.024622 0.026096 0.035456 0.051498 -0.028133 0.044655 -0.013723 0.008483 0.120602 0.002561 0.013745 0.012894 0.010255 -0.004376 0.052669 0.053069 0.080253 0.043498 -0.03424 -0.024646 -0.039118 -0.043423 -0.005025 0.006509 0.014934 -0.063714 -0.053494 -0.020152 0.11252 0.068154 0.004414 0.039847 -0.052342 -0.013582 0.015171 0.015114 0.041442 0.023233 -0.00749 0.056906 -0.027831 -0.027909 0.114721 -0.115015 -0.048074 0.081434 -0.013285 0.143058 0.039922 0.038077 -0.066187 0.072652 0.042366 0.021152 0.012335 0.015168 -0.045597 -0.030718 -0.029996 -0.032537 0.054404 -0.057357 -0.022247 0.045847 0.031134 0.065131 0.071561 0.08294 -0.018673 0.088934 -0.112232 0.187807 -0.039652 -0.036987 0.0527 -0.036298 0.042377 0.049402 -0.04661 -0.031779 0.143546 -0.026016 -0.09536 -0.012344 -0.02043 -0.118803 -0.047894 0.015224 0.015383 -0.236393 -0.03642 0.005005 0.055788 0.0165 -0.041861 -0.126089 -0.027401 -0.01472 -0.016802 0.035501 0.067155 0.028487 0.04821 -0.084349 -0.030483 0.013037 0.00368 -0.057916 0.077628 0.001077 0.070697 0.032328 0.028964 -0.041519 0.032921 -0.068083 -0.025517 0.037653 -0.018992 -0.088413 0.063556 0.080706 -0.057394 -0.018131 -0.011985 -0.073781 0.009028 -0.031661 -0.017619 0.03587 0.019189 -0.019416 -0.037827 0.010616 -0.002254 -0.07077 -0.04026 0.018027 0.023659 0.071113 0.020137 0.028142 0.019141 0.014026
  -0.069787 0.039138 -0.070589 0.051156 0.068967 -0.070957 0.080343 0.143088 0.013309 0.053634 0.046885 0.00067 -0.029965 0.060785 -0.07122 -0.048086 -0.129785 0.044277 0.081185 0.06964 -0.051778 -0.000683 0.023803 0.00784 -0.033252 0.048221 0.090955 -0.01649 -0.056808 -0.026604 0.063708 -0.017111 -0.04271 -0.034474 -0.034234 0.000556 -0.014021 0.073187 0.070079 0.046575 0.020126 -0.07498 -0.003981 0.071249 0.010172 -0.00732 0.018185 0.025042 0.123154 -0.035585 -0.019748 0.005601 0.034189 -0.001676 0.043309 0.023437 0.085141 0.048231 -0.002157 0.046878 0.012783 -0.032818 -0.011407 0.044724 0.004794 -0.072177 0.087675 0.007925 0.018584 -0.043793 -0.048287 -0.07001 0.015625 -0.009843 -0.015006 -0.009017 -0.072665 0.065452 -0.02339 0.015326 0.004016 -0.002034 -0.001252 9e-05 0.00721 0.016609 -0.077219 0.0233 -0.002054 -0.014068 0.008213 0.001816 0.020306 -0.024472 -0.029023 0.025777 -0.018904 -0.013146 0.053055 0.038974 0.001811 -0.018056 0.079823 0.042381 0.058059 0.001294 -0.010789 0.04895 -0.04097 0.043002 0.039411 -0.02174 -0.030959 0.116551 0.099604 -0.014794 0.089047 -0.009849 0.032989 -0.024009 0.012125 0.024349 0.05378 0.030417 0.044146 0.099713 -0.086763 0.157377 0.025679 0.03731 0.046847 -0.068646 -0.041103 0.001229 0.022106 0.041305 0.020651 -0.042868 -0.074414 -0.017198 0.050626 -0.102004 -0.054678 0.014257 0.017608 -0.023579 0.013792 0.089572 -0.01407 -0.027408 0.036838 0.001 0.044356 0.035624 -0.0135 0.067123 0.031657 -0.00441 -0.034885 -0.048255 0.064908 0.028527 0.044518 0.011691 -0.049519 0.083564 0.033365 -0.005835 0.008275 0.061491 0.031371 -0.008521 0.005268 -0.052115 -0.049089 -0.029025 0.026121 0.010675 0.030629 0.00265 0.001086 0.025309 -0.037756 0.01792 -0.000278 0.004606 -0.085792 0.021137 -0.039022 -0.019467 0.085475 0.032496 0.01912 0.028704 -0.041612 0.064182 -0.038712 0.001579 -0.013328 -0.00415
  -0.080046 -0.026842 0.018713 -0.06413 0.051024 -0.103686 -0.039278 -0.079088 -0.102556 0.077684 -0.005814 -0.007734 0.02005 -0.086169 0.123355 0.08123 0.061064 0.138462 0.061662 0.020989 -0.063566 -0.095436 -0.05827 0.095676 -0.000592 -0.035461 -0.015013 0.046755 0.222483 -0.093842 -0.027178 0.149706 0.015209 -0.157581 0.159096 -0.121 0.012011 -0.038547 -0.084863 0.113712 0.056564 -0.019371 -0.054548 -0.053772 0.071447 0.00854 -0.060318 0.017347 -0.029463 -0.095574 0.092163 0.003594 -0.079894 -0.034883 -0.014327 0.02228 -0.012675 0.118095 0.050625 0.079534 0.005542 0.042187 -0.036327 0.01316 -0.004076 0.061741 -0.025739 0.004626 0.045615 -0.139014 0.055429 -0.154223 0.033347 -0.124488 -0.00065 -0.149236 0.021135 0.060881 -0.050367 -0.118721 0.119634 0.050934 -0.060067 -0.000232 -0.000978 -0.001622 -0.056963 0.046123 0.030784 0.035133 0.117768 -0.027539 -0.073416 -0.105173 -0.002959 0.152003 -0.093195 0.07285 0.058197 0.059271 0.075788 -0.000656 0.130044 0.113953 -0.111173 0.014444 0.083522 -0.086083 -0.173343 -0.044861 0.076086 0.057489 0.024137 -0.009847 -0.034911 -0.057771 0.002713 -0.021214 -0.139398 0.067731 0.125025 0.15899 0.063868 0.085976 0.069823 -0.087851 0.027921 -0.028515 0.003373 -0.273174 -0.131299 0.063026 -0.044304 0.119945 0.11784 -0.006475 -0.087516 0.077824 -0.095579 0.145663 -0.005913 -0.088693 0.087682 0.076408 0.069198 -0.06056 0.058562 -0.035857 0.137986 0.001892 0.11198 -0.041397 0.041167 0.163821 -0.030376 0.019351 -0.091168 -0.049948 -0.01236 0.083387 0.210077 0.006398 0.074828 -0.079833 -0.022018 0.008584 0.109696 0.067572 -0.064202 -0.028387 -0.020408 -0.098936 0.009757 0.081226 -0.012665 0.058185 0.119083 -0.062273 0.03531 -0.222708 -0.089536 0.009938 0.081766 -0.045223 -0.060762 0.045006 -0.046336 0.107724 0.024216 0.1232 0.001333 -0.112489 -0.011382 0.113232 0.079017 -0.050823 0.00845 0.002136 -0.085092 0.049582
  0.033488 0.075594 -0.077374 -0.018424 0.029476 -0.013251 0.009484 0.032088 -0.103559 0.042018 -0.013466 -0.01895 0.030052 -0.093896 0.034392 0.0375 -0.00464 0.099712 0.03199 0.003627 0.058554 0.073636 -0.234391 0.058542 -0.012276 0.023069 0.022213 0.043651 -0.01289 0.040135 0.0182 0.039741 0.013604 -0.114443 -0.022998 0.116448 0.039059 0.034517 -0.052929 0.053141 -0.015776 0.017536 0.011315 0.046472 0.039372 -0.013763 -0.07377 0.095267 0.067214 0.035803 0.076953 0.036187 -0.104311 -0.042338 0.04675 0.034209 -0.08584 0.06952 0.021185 0.030832 -0.020479 -0.014283 0.108892 -0.012349 -0.027937 0.082196 -0.044625 0.011917 0.028008 -0.124273 0.060944 0.044201 -0.075155 0.001462 -0.022504 0.049024 0.013326 0.023844 -0.045579 -0.086223 0.051896 0.020484 0.042834 0.123983 -0.006604 -0.005068 -0.056893 0.08068 0.008716 0.007068 0.030713 -0.016676 -0.10068 0.031309 0.079953 0.029919 -0.017776 0.009358 -0.016541 -0.059803 0.006979 -0.011106 0.185723 0.020939 -0.070814 0.008066 -0.070722 -0.008135 0.076295 0.006606 -0.011684 -0.06785 0.001289 -0.073172 -0.0109 -0.06386 0.051578 -0.026408 -0.084334 -0.009956 0.112337 -0.002849 -0.012829 0.09573 0.013677 -0.067197 0.001367 -0.09287 -0.000558 0.156065 0.019581 0.041564 -0.039437 0.098756 -0.126511 -0.019215 -0.0208 -0.078705 -0.044746 0.01629 0.002433 -0.045811 -0.009776 0.05303 0.0699 0.036589 0.127507 -0.046914 0.117695 0.068576 0.009495 0.086654 0.04208 -0.114468 0.093484 0.111094 -0.027263 0.070105 0.056846 -0.084442 0.139329 0.007233 0.074079 -0.068955 -0.064877 -0.010285 -0.000886 -0.064745 -0.018619 -0.075615 0.067238 0.05062 -0.015922 0.088396 -0.033011 0.078782 -0.0094 0.015559 -0.119924 0.05985 0.002009 -0.087141 0.044698 0.009918 0.023803 -0.017085 0.081437 0.002006 -0.010854 0.047025 -0.027464 -0.061203 -0.028565 0.10589 0.068339 0.057317 0.052387 0.052384 0.056325 0.026232
  -0.008467 0.071798 -0.014008 -0.041899 0.055077 -0.012736 -0.100436 -0.062593 -0.23594 0.029252 0.034154 0.008952 -0.002535 -0.066762 -0.099998 0.074329 -0.090821 -0.124779 0.105584 0.111225 0.036619 0.033991 0.160648 0.037464 -0.000504 -0.03558 0.088046 -0.004702 -0.232289 0.021988 -0.053027 -0.087749 -0.074959 0.03102 -0.136383 0.113453 -0.00704 -0.048179 0.051562 0.051627 -0.072453 0.05072 0.029081 0.051719 -0.033955 -0.014219 0.04372 -0.048375 0.05846 0.035732 -0.06103 0.022823 -0.065847 -0.030937 -0.05702 -0.084581 -0.020373 0.068223 0.012448 0.05061 -0.027498 -0.093434 0.147459 0.019993 -0.138588 0.064977 -0.035339 0.025838 0.020681 -0.043684 0.013558 0.02881 -0.003198 -0.013926 0.003664 0.007947 -0.059883 -0.00287 -0.028253 0.067504 -0.172954 -0.016855 -0.063336 0.059885 -0.033135 -0.046938 0.011373 0.062082 0.052328 0.014468 -0.011942 -0.087932 -0.022512 0.097569 -0.002821 -0.102695 0.080815 0.032637 -0.054297 -0.065895 -0.060519 0.028914 0.095 -0.103881 0.033772 0.015649 0.048204 0.091718 0.140161 -0.071583 -0.05926 -0.008478 -0.032758 -0.037408 0.058024 -0.021273 -0.047245 0.061382 0.056275 -0.025564 -0.026567 0.065605 -0.098604 -0.006174 -0.025222 -0.036288 -0.018595 -0.036909 -0.076964 0.191458 0.118928 -0.07192 0.11056 -0.07978 -0.02654 0.022267 0.061221 -0.062246 -0.00387 -0.037497 -0.031094 0.124114 0.142302 -0.033567 0.056284 0.065843 0.089814 -0.001844 -0.028736 -0.046457 0.048444 0.050583 0.068044 -0.10687 0.113247 0.005646 -0.024127 0.016193 0.093149 -0.12493 -0.225562 0.047074 -0.041613 0.071463 -0.009788 -0.030857 -0.080237 -0.076493 -0.141415 -0.082402 0.017338 0.012426 -0.018733 0.04325 -0.067634 0.023016 0.049714 -0.025938 -0.089394 -0.082273 -0.008207 -0.116044 -0.046103 -0.01106 0.0579 -0.012952 0.121656 0.013288 0.102702 0.050182 -0.02915 0.038128 0.006943 -0.008052 -0.178936 0.065771 -0.008522 0.04666 0.049504 0.018869
  0.030284 0.042522 -0.116728 0.048989 -0.001169 0.02626 -0.043685 0.052797 -0.173059 -0.128703 -0.032764 0.028566 -0.127915 -0.050002 -0.220902 0.022147 -0.155465 -0.099828 0.043086 -0.044892 -0.063635 -0.044697 0.178083 -0.003582 -0.049452 -0.146886 0.091204 -0.130777 -0.205075 0.018135 0.022709 -0.041924 -0.039027 0.12616 -0.049612 0.076729 -0.124753 0.028482 0.129716 -0.197073 -0.008096 0.135077 -0.093778 0.058204 -0.00487 0.028021 0.144084 -0.205545 -0.16502 0.034462 -0.034523 0.014756 0.064807 -0.002945 0.055403 0.009356 0.082538 -0.090072 -0.117063 0.060873 0.019725 -0.09613 0.118454 0.023935 -0.211508 -0.068949 0.078478 -0.074448 -0.097082 -0.044963 -0.127437 0.023596 0.010945 -0.066879 -0.00284 0.040658 0.005925 -0.158721 0.010007 -0.100045 -0.123345 -0.129323 0.013915 0.131867 -0.008464 -0.153783 0.051243 -0.08547 0.057474 -0.054063 -0.075789 -0.049168 -0.088492 0.059184 -0.047498 -0.090393 0.143172 -0.018701 0.000559 -0.133161 -0.046222 -0.013827 -0.159766 -0.100086 0.149486 -0.044336 -0.045751 0.085878 0.243881 0.04587 -0.0641 0.112884 -0.010054 -0.026785 0.117842 0.017891 0.051594 0.112483 0.063911 -0.048066 -0.132217 0.108603 -0.089209 -0.170752 -0.238069 0.059381 -0.066761 0.17393 -0.015457 0.056951 0.093292 -0.00935 0.103641 -0.101406 -0.135333 -0.027 0.081959 -0.093703 0.059883 -0.256808 0.086245 0.003633 -0.00474 -0.099567 -0.090488 0.200666 -0.002448 0.068049 -0.219897 0.072266 -0.061566 0.091064 -0.021317 0.010252 0.13479 0.063082 0.076176 0.006878 0.077 0.03703 -0.173123 0.080372 0.059172 -0.071033 -0.043546 -0.118265 -0.03423 -0.109339 -0.08878 -0.030907 -0.038962 -0.02553 -0.064095 0.063246 -0.110749 -0.217851 0.004406 0.075835 -0.212166 0.163715 -0.070623 -0.069337 0.024137 0.031465 0.078591 -0.060404 0.103469 0.006058 0.010228 -0.097563 -0.186728 0.119162 -0.030649 -0.044602 -0.096612 0.093444 -0.201139 0.056167 0.00053 0.134931
  0.028387 -0.025751 -0.099514 0.086717 -0.026666 0.020316 -0.00818 0.057276 -0.21028 -0.06555 0.066987 0.002387 -0.022372 0.09944 -0.193595 0.029377 -0.112755 -0.115642 -0.105482 -0.063445 -0.012826 0.229207 0.032718 -0.015435 -0.041699 -0.102234 0.113908 -0.14201 -0.152164 -0.058791 0.073716 0.010569 0.0172 -0.038299 -0.149749 0.034522 -0.141937 0.015255 0.140995 -0.197707 -0.077427 0.063088 -0.074581 0.008421 -0.166736 0.027689 0.120645 -0.150216 -0.024856 -0.041035 -0.133797 -0.001289 -0.061099 0.083123 0.015685 -0.038377 0.007051 -0.061577 -0.10957 -0.061213 0.041087 -0.134814 -0.043494 0.029374 -0.202465 0.036044 0.054897 -0.095558 0.018751 0.048304 -0.110083 0.050464 -0.086359 -0.072373 -0.027911 0.102427 -0.029635 -0.022325 -0.005703 -0.034052 -0.112311 -0.047163 -0.035569 0.063578 0.044164 -0.06736 0.103553 -0.06855 0.075354 -0.099593 -0.05724 -0.062147 -0.123557 0.119613 -0.027535 -0.154282 0.112182 -0.104764 -0.132768 -0.132223 -0.101088 0.007988 -0.141205 -0.097192 0.052839 -0.003227 -0.139622 0.075101 0.260154 -0.063263 -0.093048 0.092939 -0.069309 -0.005978 -0.014214 0.073293 -0.121754 0.013582 0.075871 -0.001183 -0.097633 -0.001649 -0.020438 0.013703 -0.104158 0.023244 -0.02014 0.118196 -0.099224 0.044565 -0.051919 -0.03751 0.097651 -0.100733 -0.138688 -0.002957 0.019987 -0.002153 0.017602 -0.176982 0.065191 -0.0997 -0.029905 -0.086187 0.086607 -0.204225 -0.035202 -0.023316 -0.248231 0.114893 0.041558 -0.044619 0.027218 0.037574 0.073404 0.015052 0.038344 0.027976 0.053607 -0.132646 -0.16519 0.004001 0.096909 -0.054664 -0.198583 -0.045755 -0.092119 -0.106339 -0.00619 0.000423 -0.036143 -0.0391 -0.08171 0.051542 -0.016666 -0.165183 -0.046247 0.04984 0.084467 0.013019 0.048532 0.009419 0.012534 -0.148584 0.045702 -0.086698 0.147812 -0.068192 -0.032018 -0.242032 -0.136628 0.159261 0.04808 -0.036451 -0.157554 0.135833 0.098214 -0.000682 0.111767 -0.026151
  0.011669 0.120982 0.026426 -0.049444 -0.146949 -0.037908 0.102155 0.050894 -0.132824 -0.006024 -0.012943 -0.049106 -0.097623 0.035462 -0.148314 0.059386 -0.119135 -0.106616 0.062777 0.026434 0.014295 0.145948 0.03453 -0.056586 0.052224 0.062214 -0.055663 0.008089 -0.045903 0.069646 0.043515 0.017702 0.014165 -0.114073 0.057684 -0.047357 -0.13332 0.0297 0.02912 -0.13341 -0.08858 0.070891 0.019635 0.134624 0.084047 0.014497 -0.086597 0.07627 -0.219096 -0.057659 -0.004283 -0.003076 0.008905 0.088687 -0.058175 -0.015473 0.043824 0.038143 -0.102744 0.00196 -0.035952 -0.007493 -0.06318 -0.027021 0.02644 0.100475 -0.062281 0.061788 -0.03492 0.0371 -0.079063 -0.008489 -0.028836 -0.08994 -0.043542 0.155239 -0.032634 -0.151328 0.003982 -0.125222 -0.154749 -0.021266 -0.049807 0.051003 -0.003974 0.061768 0.042698 0.038294 -0.008547 -0.082565 0.000203 0.119034 -0.146917 0.046082 0.05298 -0.063702 -0.001077 -0.013122 -0.005424 -0.091422 -0.053909 -0.054807 -0.119282 0.055091 0.012177 -0.030808 0.07466 0.087633 0.118157 0.093064 -0.084233 0.039084 -0.121253 0.067869 0.045808 0.004887 0.052671 0.081804 0.066222 -0.102348 -0.01343 -0.168708 -0.026449 -0.131612 -0.139593 0.017128 -0.083609 0.188179 0.00038 -0.038258 -0.062478 -0.022561 0.070316 -0.163573 -0.10664 -0.040456 0.055459 -0.113612 0.041198 -0.129576 0.027179 -0.006859 0.035984 0.005099 -0.020188 0.017918 0.044736 -0.012492 -0.150793 0.093714 0.005488 0.100064 0.00171 0.001077 0.087416 0.029071 -0.020311 -0.049459 -0.035375 -0.082347 -0.08715 0.090815 0.014766 0.10827 -0.195601 -0.067202 -0.067159 -0.067091 -0.092307 0.017388 -0.056143 0.052866 -0.081415 0.057222 0.015374 -0.08188 -0.044959 0.085084 -0.031607 0.021588 -0.000919 -0.092395 0.041905 0.011632 0.127554 -0.074055 0.053691 -0.043307 -0.023719 -0.134661 -0.040311 0.05761 0.034779 0.042844 -0.181801 -0.053253 0.013421 0.060009 0.101519 -0.046662
  -0.031486 0.028904 -0.021609 -0.003253 -0.000639 -0.059019 -0.003342 -0.103353 0.055177 0.115219 0.06322 -0.040607 0.075363 -0.024607 -0.063518 0.046966 -0.083414 0.05717 -0.052203 0.004215 -0.008489 -0.016468 0.025833 0.004803 -0.045028 0.019746 0.042514 0.06681 -0.035534 -0.067621 0.028387 -0.022879 -0.100647 -0.01281 0.010143 0.043349 -0.052526 0.003682 0.042782 -0.009079 0.077075 0.017932 -0.009708 -0.047315 -0.021763 -0.022946 -0.007474 -0.00156 -0.097059 0.043906 -0.074891 0.044376 0.064294 -0.020493 -0.045774 0.027649 -0.021024 0.051843 -0.008034 -0.035465 -0.019857 0.004387 0.115221 -0.010176 0.031768 0.007843 -0.023905 0.022611 0.02266 -0.006023 -0.043279 0.039198 -0.070444 0.001004 -0.005362 -0.012044 0.038255 0.040863 0.023528 -0.043829 0.035165 -0.052155 0.210581 0.055915 0.089643 -0.010366 0.031765 0.008092 -0.022699 0.014114 0.014624 -0.01246 0.015257 0.05274 -0.056254 0.066004 -0.063102 0.024451 0.038943 0.067356 -0.028429 0.061202 0.033585 0.022288 0.070437 0.000483 0.00357 -0.078426 0.023579 -0.087078 0.003544 -0.074511 -0.034439 0.050992 0.11231 0.01636 0.028055 -0.011823 -0.020448 -0.00869 0.024308 0.081483 -0.053459 -0.000737 0.000822 0.093792 -0.069397 0.191363 -0.043775 0.046135 -0.042022 -0.085142 0.058523 0.031718 -0.129359 0.027502 -0.009041 -0.003588 0.157002 -0.013996 0.005773 0.052493 -0.014623 0.050292 0.031056 0.099714 -0.011916 0.005178 0.070365 0.075269 0.029965 0.067405 0.018999 0.027091 -0.034639 0.05474 -0.011742 -0.003927 0.056703 -0.03861 0.019237 0.057248 0.024673 -0.029256 0.094685 0.003865 -0.001255 0.005462 0.059989 0.028566 0.020167 -0.007018 -0.117391 0.005177 -0.000654 -0.055571 0.000858 -0.031714 0.077613 -0.065049 0.003944 0.016257 0.04164 0.035387 -0.001942 0.029999 -0.03629 -0.015495 0.016569 -0.086823 -0.071531 0.015607 -0.029649 0.091446 0.023317 -0.023691 0.054889 0.025717 -0.014401 -0.094834
  -0.217769 -0.381923 -0.381389 0.295077 -0.475775 0.331719 -0.235778 0.036554 -0.055079 0.093029 -0.396165 0.504409 0.468388 0.499815 0.510298 -0.415801 0.562074 -0.277376 0.013211 -0.226499 -0.18352 0.087184 -0.370835 -0.624174 -0.55621 0.336827 0.442719 0.44186 -0.227714 -0.161421 0.318719 -0.47716 -0.311552 -0.290704 -0.248531 -0.266631 -0.450301 0.357101 0.243285 0.113488 0.450743 0.395236 -0.537108 0.068911 0.127486 -0.650101 0.056057 -0.233823 0.060661 -0.528859 0.357711 0.550293 0.363452 0.489317 -0.529305 0.190166 0.299856 -0.388916 -0.6743 -0.376994 0.444248 0.329752 0.360444 -0.648508 0.143588 0.390905 -0.346969 -0.572445 0.527809 0.382499 0.456765 -0.345473 0.212935 0.236996 0.436726 -0.236966 -0.394073 0.416469 0.431009 -0.041241 -0.082999 0.49344 -0.071575 -0.332202 0.421977 0.697425 0.349038 0.470626 -0.057908 -0.582241 -0.400821 -0.065421 -0.326336 -0.314763 -0.49039 -0.371526 -0.108794 -0.323811 -0.024769 0.418492 -0.454008 0.472425 -0.350739 0.306493 0.276284 0.548664 -0.210027 0.425398 -0.591914 -0.337971 -0.490574 -0.220204 -0.462441 0.151464 0.252168 -0.659623 0.266281 -0.480046 -0.449048 -0.115228 -0.450573 -0.256509 0.263695 -0.473489 -0.380421 0.19065 0.380564 0.057038 0.421709 -0.112953 0.3209 0.379874 0.455345 -0.463411 -0.074104 0.446862 0.321219 -0.661313 -0.030201 -0.166966 0.402014 -0.03354 -0.168997 -0.487802 -0.483796 0.060119 -0.56349 0.314251 0.230824 -0.356343 -0.438466 0.003789 0.372013 -0.538102 0.2651 -0.279279 0.48148 -0.303671 0.498735 -0.244976 -0.511187 -0.451277 -0.301202 -0.016097 0.063979 0.519891 -0.253417 -0.266634 0.286708 0.545702 -0.52274 -0.140213 0.548819 -0.456217 0.478941 0.347959 -0.435641 -0.547557 0.06022 -0.0483 -0.424685 0.209612 -0.356157 0.47363 -0.536437 0.484693 0.476628 -0.375788 -0.253424 -0.399435 0.479432 0.400385 -0.611617 -0.144325 -0.412002 -0.261554 -0.547602 -0.423176 -0.363182 0.165746
  0.022954 -0.124195 0.023132 -0.137096 -0.045402 0.014987 -0.039344 0.034103 -0.013988 -0.078821 0.065184 0.019789 0.035091 -0.054275 -0.086087 -0.108807 -0.07314 0.06758 0.054116 -0.032659 0.036939 -0.065605 -0.012435 -0.037598 -0.051012 0.044516 -0.0215 -0.192168 -0.237945 0.010644 0.082626 0.070386 -0.087861 -0.064547 0.055396 -0.009375 -0.024819 -0.001446 -0.218453 -0.043431 0.038795 -0.018578 -0.02019 0.231814 -0.183868 0.03686 0.186399 -0.049002 0.065798 -0.066357 -0.018515 0.046461 -0.103147 0.002869 0.012055 0.061597 -0.126866 -0.071767 0.006451 -0.061351 -0.01202 -0.128522 -0.121366 0.021169 -0.162517 -0.005186 0.099006 0.035671 -0.209057 -0.002457 -0.043027 0.025197 -0.075956 0.120427 -0.001067 -0.022663 -0.065955 0.054237 0.047361 0.048345 -0.072931 0.075225 -0.062626 -0.086401 -0.213897 0.018986 -0.059324 0.152256 0.051302 -0.007156 0.020281 -0.002111 0.046108 -0.103654 -0.012458 -0.093739 -0.046368 -0.107484 0.041988 0.020106 -0.084967 -0.026238 0.051723 0.066321 -0.076705 0.035869 -0.029862 0.032494 0.012428 -0.026447 -0.10475 0.046689 0.000523 -0.046656 -0.011652 -0.001547 0.083841 0.076002 -0.048216 -0.032277 0.042713 0.049328 -0.002358 -0.020336 0.020561 -0.123557 -0.111972 -0.053768 -0.139344 -0.105897 -0.049333 0.064285 0.049412 0.065537 0.136686 0.091915 0.050113 0.086176 -0.097214 -0.008391 -0.080135 -0.173882 -0.06337 -0.016147 -0.017841 -0.184225 -0.015917 0.071147 0.084073 -0.052715 0.007391 -0.065844 0.068183 -0.012167 0.024431 -0.075508 -0.150192 0.052738 -0.059241 0.063901 -0.04076 -0.016297 -0.01773 -0.019996 -0.147272 0.059655 -0.005547 -0.026637 -0.106323 0.037349 -0.020022 0.110915 0.02927 -0.075669 0.033935 -0.09201 -0.011293 0.033033 0.191463 0.015324 0.091666 -0.046715 -0.019104 -0.115267 -0.012339 0.125378 0.022562 -0.111336 0.073919 -0.108042 0.097016 -0.052511 -0.030671 -0.027928 -0.053176 -0.067439 0.037254 -0.020947 -0.061514 0.018431
  -0.138066 -0.202816 0.076212 -0.047142 0.019568 -0.12483 0.088534 0.007749 -0.176552 -0.075216 0.084515 -0.026918 -0.040028 0.010054 -0.07627 -0.0426 -0.077808 -0.144668 0.024081 0.077648 -0.120547 -0.020311 -0.137812 -0.067647 0.012335 -0.011426 -0.014833 -0.071145 -0.088733 0.235252 0.041388 0.12946 -0.165954 -0.068057 -0.20876 -0.033854 0.093572 -0.095325 0.009643 -0.054937 0.011258 -0.039651 0.06659 -0.007365 0.018015 -0.233032 0.034901 -0.163481 -0.106929 0.096316 -0.001148 -0.037405 -0.037685 -0.07958 0.002787 0.001237 0.010235 -0.12276 -0.126009 -0.043819 -0.046487 0.047011 -0.008247 0.032128 -0.063891 0.025773 0.130553 -0.146382 -0.042442 -0.083167 -0.065897 0.063484 -0.003287 0.038805 -0.076592 -0.018832 -0.046266 -0.078092 -0.05568 0.119891 -0.110419 0.020103 0.056442 0.141742 0.056466 -0.008688 -0.039746 -0.053936 -0.036558 -0.195975 -0.238258 0.029224 0.149048 -0.045713 -0.104565 -0.138071 0.188927 0.045887 0.071775 0.060984 -0.072769 -0.098619 -0.066978 -0.041957 -0.157874 -0.029293 -0.147851 0.085312 -0.11846 0.137344 -0.203713 0.110561 0.027214 -0.143055 -0.017256 -0.100161 0.084422 0.166426 0.060669 -0.269635 0.123057 0.019876 -0.044879 0.135482 0.154075 -0.109715 0.01234 0.032698 -0.075104 0.078286 -0.055866 -0.038667 0.002312 -0.010078 0.212522 -0.06159 -0.103702 0.18445 -0.085647 0.023855 -0.03625 0.030968 -0.211987 -0.078056 -0.043132 -0.048633 -0.073903 0.006307 -0.027663 0.09469 -0.060471 -0.031137 -0.04064 0.057157 -0.056249 0.103348 -0.064687 -0.025074 -0.07765 0.03792 0.039515 0.040919 0.133697 0.042318 -0.070262 -0.044351 0.041092 -0.245698 0.049192 -0.059683 -0.23264 -0.196395 -0.073201 -0.078695 -0.03878 0.004621 -0.19627 -0.017627 -0.07669 0.01794 0.120397 0.075023 0.033683 -0.077439 -0.228869 0.052705 -0.114271 0.104919 -0.097534 0.001812 0.019273 -0.147389 0.022771 -0.042728 -0.028526 0.168877 -0.016444 0.012683 0.004047 0.025584
  -0.061879 -0.1062 0.014237 -0.016856 0.032426 0.062831 -0.001585 -0.023487 0.001588 0.078708 0.024174 0.031457 -0.027329 -0.104182 -0.03623 -0.118547 0.057727 -0.039553 -0.054608 0.082702 -0.122064 -0.084448 0.067373 -0.004352 -0.015634 0.061761 -0.040704 0.045533 -0.066415 0.136537 -0.103779 0.111061 0.020456 0.108258 -0.130895 0.017315 0.059375 0.077206 -0.124545 -0.088715 -0.028428 -0.028509 0.027562 0.077097 0.040273 -0.143212 -0.170667 -0.084174 -0.022866 0.044496 0.077157 -0.0344 -0.089093 0.012416 -0.0106 -0.137657 -0.068421 -0.095028 -0.017627 -0.004591 0.022371 -0.069924 -0.024675 -0.028819 0.112235 -0.048988 -0.021538 -0.060568 0.005138 -0.022144 0.000348 -0.052635 -0.000404 -0.163461 -0.027969 -0.094096 -0.007809 -0.00909 -0.052073 0.145556 -0.114148 0.010198 0.106488 5.9e-05 -0.077817 -0.009728 -0.032643 0.040348 0.015631 0.03309 -0.124662 0.052826 0.02113 -0.066885 -0.0027 -0.086081 0.00679 0.019197 0.14847 -0.052075 -0.009988 0.058834 -0.01815 0.007064 -0.018078 -0.031143 -0.032572 -0.13037 -0.079996 0.120114 -0.027278 0.103005 -0.00846 0.071235 -0.112356 -0.029919 -0.07836 0.041528 0.024964 -0.11204 0.088989 0.04036 0.077544 0.037733 0.023494 -0.019557 -0.123951 0.01545 0.088174 -0.011576 0.002707 0.017366 -0.036088 0.063069 -0.022146 -0.041083 0.060073 0.05838 0.065009 -0.010171 -0.062335 -0.016688 -0.08704 -0.099438 0.02896 0.003247 -0.17698 -0.105343 0.1078 0.065674 -0.115398 -0.006661 0.01447 0.11524 0.019611 0.042103 -0.013972 0.020806 0.089085 -0.001866 -0.033833 -0.029487 0.017798 -0.009583 0.021768 0.037645 -0.075274 -0.107389 -0.142842 -0.000429 -0.094135 -0.055625 0.061744 0.000574 -0.023955 0.074003 -0.101829 -0.045718 0.115703 0.006189 0.116304 -0.036691 -0.09272 -0.109632 -0.114317 -0.018614 -0.00318 0.040209 -0.077595 -0.019388 -0.040847 0.049561 -0.032389 -0.061651 0.035912 0.086555 -6.9e-05 -0.035806 -0.072908 -0.065303
  -0.051508 -0.027187 0.079387 0.000252 -0.142972 0.018997 0.120609 0.031605 -0.220545 0.022097 0.104759 -0.026308 0.042887 -0.065654 0.035259 -0.028654 0.001359 -0.075325 -0.009706 -0.100596 -0.036206 -0.091968 0.06327 0.012308 -0.03917 0.037844 0.031449 0.002884 -0.01925 0.008625 0.033703 0.006308 -0.036683 -0.070249 -0.193309 0.078511 -0.005883 -0.035431 -0.096019 -0.1615 -0.054052 -0.025284 -0.063304 -0.061299 0.070515 -0.168318 -0.026096 0.012798 -0.016293 0.06146 -0.048188 0.020887 -0.071111 -0.007491 -0.038831 0.011262 -0.001401 0.038035 0.057248 -0.014282 -0.010092 0.02392 -0.085306 0.033711 0.038483 -0.067526 0.147809 -0.030358 -0.015235 -0.068501 -0.036304 -0.027996 0.049731 -0.165806 0.028166 0.106696 0.050998 0.00064 -0.042818 -0.005688 -0.039375 -0.017356 -0.052003 0.129551 -0.05486 -0.070366 0.054768 -0.040178 -0.179081 -0.141038 0.065732 0.013218 0.065191 -0.000478 -0.025872 0.042087 0.139367 0.070685 0.042922 0.068682 -0.01911 -0.027181 -0.053503 0.013399 0.017805 -0.024972 -0.246047 -0.10658 -0.142446 -0.06833 -0.091402 -0.076205 0.002785 -0.000825 -0.035858 -0.013127 -0.111737 0.047839 0.088391 -0.13253 -0.008264 0.030144 0.008293 0.072014 0.084196 -0.019644 -0.007467 0.036364 0.000837 -0.059578 -0.10086 -0.059756 -0.031697 -0.099371 0.199226 -0.048377 0.070286 -0.008862 0.073096 -0.058249 -0.039818 0.016451 -0.000175 0.069982 -0.082475 0.060832 0.074231 -0.006729 0.129752 -0.068351 0.003094 0.046416 0.020222 0.028536 -0.046669 -0.132974 -0.044665 0.064063 -0.054632 -0.047045 -0.027076 -0.002757 0.038627 0.054887 0.066389 -0.058017 -0.006195 -0.167505 -0.10035 -0.016917 0.038767 0.025837 0.005971 -0.160968 -0.021298 -0.006993 -0.007027 0.040066 -0.005051 -0.033139 -0.099464 -0.090923 0.063016 -0.011858 -0.165056 -0.029588 -0.047117 0.079172 -0.050483 0.025705 -0.015257 -0.063904 0.057956 -0.188589 -0.07966 0.124092 0.003359 0.003149 0.106811 -0.017743
  -0.017421 -0.083338 0.030166 0.048812 -0.002859 0.007799 0.114695 -0.157278 0.094296 -0.08056 0.163162 0.062659 -0.01485 0.002798 0.090645 -0.095867 -0.175444 0.114905 0.063641 0.091676 0.044878 0.065675 0.096982 -0.122239 -0.030485 0.059925 0.01033 -0.053657 -0.080321 0.094051 -0.023345 0.096493 -0.076 -0.075282 0.095178 -0.109422 -0.199684 0.000969 -0.038092 -0.215632 -0.102463 -0.0863 -0.080951 -0.189255 -0.013251 0.087642 -0.128904 -0.129452 -0.055478 -0.058061 -0.120381 -0.024968 0.081156 0.017304 0.111846 -0.071608 -0.038016 -0.079809 0.082059 -0.040592 -0.098762 -0.120064 -0.120237 0.023299 -0.016949 0.073148 0.097264 -0.030369 0.052142 -0.043571 0.00923 -0.099255 -0.075862 -0.102663 -0.038836 -0.012424 -0.122298 -0.05908 0.041895 0.045466 -0.163363 0.032081 0.027387 -0.094042 0.026908 -0.00721 0.081463 -0.035759 0.058274 -0.08666 0.123794 -0.121618 0.018881 -0.186434 -0.11034 -0.118778 0.124902 -0.062564 -0.067821 0.103844 -0.04478 -0.108366 0.027545 -0.009559 -0.149828 -0.095515 -0.164294 -0.15536 0.042637 0.042707 -0.019456 0.121554 0.01961 -0.091419 -0.009855 -0.018597 -0.174836 0.105693 0.024497 -0.154234 0.043976 0.162082 -0.165238 -0.156439 -0.038997 0.011845 0.053366 -0.013809 -0.025944 -0.204065 -0.030971 -0.081277 -0.03752 0.053299 0.118183 -0.095609 0.072244 0.074916 0.050487 -0.080256 0.0822 -0.082207 -0.141751 -0.057998 -0.028648 -0.035277 -0.003001 -0.089171 -0.07475 -0.119326 0.056263 0.072966 -0.017776 -0.077256 -0.030976 -0.154163 -0.123682 0.054329 -0.114242 0.145021 -0.00873 -0.06586 -0.080734 -0.065545 -0.068594 -0.040515 0.070435 -0.138631 -0.073879 -0.050793 -0.216129 0.119229 -0.057894 -0.170973 -0.082967 0.010494 -0.05154 0.105666 0.034777 0.121034 0.056647 0.098551 0.009309 0.000335 -0.161029 0.023678 0.07809 -0.107126 0.038784 -0.222692 -0.045957 -0.077501 -0.021936 0.092658 -0.123696 -0.218982 0.161419 -0.05059 -0.13623 -0.066596
  0.023096 -0.007961 0.001344 -0.108745 0.031518 -0.089615 -0.078414 -0.014091 -0.060619 -0.127616 0.002711 0.043048 -0.040817 0.030398 0.126611 -0.053216 -0.053785 -0.040347 -0.018416 -0.085044 0.031336 0.195294 -0.056432 0.021384 0.066093 -0.051077 0.010477 -0.018962 -0.00962 -0.190239 0.054664 0.016192 0.063939 -0.032774 0.023551 -0.028239 -0.049225 0.090739 -0.064038 -0.129185 0.044549 0.069517 0.070441 -0.104615 -0.104182 0.022247 0.003897 0.060724 0.016869 -0.040177 -0.003977 0.075639 0.012462 -0.014856 0.016085 0.036541 0.031585 0.02029 -0.05036 -0.019223 -0.074049 0.138807 0.035016 -0.036269 0.00397 0.108868 0.020198 -0.030578 -0.04347 0.031452 -0.012102 0.031754 0.000256 0.009937 0.01387 0.054826 0.081564 0.049756 -0.038698 0.045285 0.007077 -0.032249 -0.088632 -0.073037 0.007537 0.002658 -0.025264 -0.012182 -0.169687 -0.008536 -0.026207 0.066383 0.01815 -0.019736 0.017746 0.012166 -0.138156 -0.022188 -0.100979 0.047313 0.018265 -0.043546 -0.18655 0.084588 -0.091082 0.092664 0.09198 -0.068803 -0.062969 0.054256 -0.013844 -0.019395 0.007372 0.039482 0.081283 0.012013 -0.095699 0.106764 0.021372 -0.124762 0.041597 0.026355 -0.027676 -0.009811 0.02373 -0.15878 0.062219 -0.0311 -0.082611 0.040205 -0.058987 -0.015519 0.012991 -0.078726 -0.10585 -0.021379 -0.079406 -0.014015 0.040323 -0.149944 -0.04558 0.01476 0.056246 -0.012622 -0.029095 0.009364 0.052328 -0.049557 0.003113 0.024511 -0.105927 -0.123838 0.016218 0.136676 -0.050401 0.022172 -0.034324 -0.09444 -0.031424 -0.002938 -0.26604 -0.026204 -0.109451 -0.040174 -0.107659 -0.054502 -0.147406 0.12513 -0.030356 -0.073657 0.097807 0.06067 -0.019301 -0.031973 -0.078669 0.060797 0.038448 -0.023245 -0.106928 -0.15468 -0.012624 0.043216 -0.109538 -0.09344 0.000388 0.044619 0.004451 0.04197 0.044198 -0.037546 0.041923 -0.169527 0.072222 -0.128515 -0.002366 0.010954 -0.061181 -0.047404 0.004507 -0.052581
  0.069106 -0.011773 0.039437 -0.01534 0.064508 -0.00974 0.070426 -0.087981 0.02522 0.059205 0.098037 -0.011276 -0.001672 -0.045289 -0.038743 0.081896 -0.029772 -0.085325 -0.088782 0.037054 -0.079573 0.004206 -0.047336 0.031964 0.058744 -0.069866 -0.03234 0.003085 0.034175 -0.088983 -0.068741 0.054188 -0.059475 0.030598 0.033509 -0.002763 0.038459 0.005876 -0.067494 0.002389 0.048606 0.01489 -0.021926 -0.013322 0.024564 -0.003538 0.01168 0.05815 0.080441 0.010642 0.045005 0.019153 0.025025 0.00395 -0.033689 -0.004205 -0.024005 -0.030562 0.016999 0.003047 -0.003751 -0.073243 0.063364 0.040786 0.004926 0.047291 0.038382 -0.005467 -0.007071 -0.029941 0.003079 0.001875 -0.065727 0.031771 -0.016928 -0.035433 0.046453 -0.012859 0.018329 -0.074969 -0.053167 -0.024018 -0.12513 0.015406 -0.000744 0.005742 -0.037661 0.033855 -0.027114 -0.046966 -0.023405 -0.04054 0.059536 0.064192 0.032641 -0.049655 0.023906 0.053596 -0.001871 0.029908 -0.01719 -0.005198 -0.039347 -0.028828 -0.004714 -0.018044 -0.045807 0.021373 -0.013718 0.01468 0.038336 0.059093 -0.033678 -0.04667 -0.015937 0.032609 -0.100766 0.046328 -0.070295 0.040683 0.011481 -0.121286 0.049322 -0.02707 -0.061423 0.107491 -0.014227 -0.062805 0.018411 0.058979 -0.043625 0.025926 -0.013525 0.082539 -0.006034 -0.015994 0.009863 0.039334 0.078465 0.047004 -0.046461 0.058643 0.005874 0.008981 -0.028672 0.068324 -0.038991 -0.095038 -0.041849 0.024992 0.025165 -0.085101 0.011932 0.036291 -0.015088 -0.001613 0.026456 -0.077468 0.011239 0.034825 0.021103 0.052368 0.058311 -0.01945 0.034182 0.014663 0.129287 0.009665 -0.086017 0.034789 0.040298 0.113178 0.006685 -0.043945 0.025364 -0.020895 0.069642 -0.008699 -0.042278 -0.040606 0.00958 0.004085 -0.012525 -0.003099 -0.008566 -0.024696 0.039092 0.005269 0.024924 -0.064964 -0.028394 0.012886 -0.002665 0.090821 -0.048693 0.007892 0.005228 -0.020537 -0.034828 -0.055578
  0.004371 -0.039854 -0.001481 -0.056234 0.034706 -0.066687 0.116539 -0.092276 0.088389 -0.025977 0.008559 -0.02493 -0.001501 -0.010315 0.042463 -0.038679 0.040008 -0.007301 -0.093202 0.050905 0.025592 -0.05196 -0.111079 -0.002434 0.066713 0.052191 -0.014005 -0.02576 -0.036411 0.055311 -0.053238 0.038713 0.078009 -0.157181 0.062779 -0.02717 -0.010587 -0.002362 -0.051013 0.009215 0.016222 0.006582 0.038782 0.036284 0.04753 -0.006659 0.027442 0.107595 0.015882 -0.006704 0.052192 0.01578 -0.01417 -0.001376 -0.055799 -0.007171 0.034523 -0.007252 0.052608 -0.002625 -0.023178 0.032027 -0.007741 -0.007174 0.041126 -0.06481 0.079178 -0.006894 0.047127 0.018891 0.007057 0.094148 0.069028 -0.107304 -0.080631 0.02236 -0.072309 -0.027586 0.0196 0.0773 0.080553 0.010371 0.035609 0.08327 0.012076 0.002779 0.007179 -0.059849 0.038912 0.044966 -0.102188 0.081954 0.002487 -0.053504 0.038185 0.024414 0.095979 0.019609 0.058564 -0.010435 -0.037358 -0.004068 -0.026557 -0.047543 0.092648 -0.003546 0.036258 -0.055004 -0.05274 0.075363 0.059953 0.022687 0.041831 0.068065 -0.004405 -0.030966 0.041012 0.093812 0.01037 0.038725 0.084145 -0.102849 0.048067 0.032395 0.046731 0.039828 0.022323 -0.06013 0.044327 0.074241 0.029545 0.043907 -0.053477 -0.042982 0.03099 -0.026435 -0.013534 0.007987 0.063221 0.066079 -0.096896 -0.075865 0.014331 0.045123 -0.016033 0.061762 -0.023612 -0.011105 0.075095 -0.026552 -0.019914 0.100837 0.01946 0.144407 0.008898 0.028614 0.035049 0.052143 0.030002 -0.051929 -0.027636 0.00336 0.013427 0.105349 0.028544 -0.031242 -0.02568 -0.146189 0.008801 -0.020398 0.075603 0.145749 0.026177 0.054118 0.040844 -0.055065 0.006432 0.11123 -0.023677 0.115939 0.079537 -0.012423 -0.036401 -0.030178 0.037221 0.05872 0.033478 -0.070821 0.011898 -0.032361 -0.043998 -0.015033 0.011128 -0.063153 0.063321 -0.101046 0.012011 0.068167 0.021761 -0.020862
  0.059409 0.012337 -0.006517 -0.016463 -0.052672 -0.037589 -0.04153 -0.171003 -0.044902 -0.058901 -0.01261 0.006589 -0.021889 0.015571 -0.023953 0.064309 0.002657 0.06896 -0.086382 -0.040303 0.042294 -0.075979 -0.00872 -0.02279 0.016326 -0.01134 0.047996 -0.010566 0.01964 -0.001444 0.020051 0.023165 0.090717 -0.008593 0.0443 -0.019732 0.005401 -0.087386 -0.017672 -0.093225 0.043801 -0.002855 0.095081 -0.018693 0.005287 0.003256 0.038698 0.059089 0.015205 -0.039764 0.011751 -0.016691 0.028972 -0.033535 0.063591 -0.039397 0.027724 -0.031136 -0.030562 0.034536 0.001625 -0.05475 0.003506 -0.056109 0.006327 -0.014461 0.051395 -0.020282 0.004034 -0.04899 0.002364 0.078001 0.020454 0.073 -0.005463 -0.038048 0.014032 0.005928 -0.0036 0.13845 0.061432 -0.020852 -0.050351 -0.171691 0.010738 0.008933 -0.025814 0.020265 0.04152 -0.055818 -0.032835 0.057318 0.061909 -0.019895 0.000687 -0.004942 0.042031 0.052544 0.091779 -0.008221 -0.048273 0.000919 -0.035707 0.00166 -0.046725 -0.022333 0.03676 0.010203 -0.01301 -0.067957 0.045628 -0.004783 0.039273 0.070206 0.079197 -0.04258 0.059401 -0.026236 0.072675 -0.022705 0.026923 -0.022989 0.099329 0.077981 -0.007615 0.011185 0.001406 0.01251 0.02675 0.034842 -0.041854 0.049515 -0.072156 0.005748 -0.014077 0.035718 -0.003319 -0.056902 0.075432 -0.109498 0.015726 0.141039 -0.166142 0.032576 0.014022 0.083148 0.022029 -0.099432 -0.01552 -0.022805 0.025548 0.010623 -0.079436 -0.003141 0.023358 -0.072112 -0.018906 0.066312 0.006137 -0.131207 0.022163 -0.058843 0.08617 0.00947 0.054262 -0.016836 -0.093837 -0.110491 -0.05139 -0.024146 0.045063 0.104646 -0.000959 0.045079 0.038395 0.045036 0.026215 -0.0314 0.04726 0.0358 0.090175 -0.054236 0.01588 -0.030905 0.051663 -0.036068 0.030387 0.020612 -0.025064 0.034611 0.005995 -0.013356 -0.00073 0.064484 0.091437 -0.060003 -0.00615 0.046547 0.069903 -0.049034
  0.083607 0.022959 -0.105925 -0.034862 0.013623 -0.042108 0.074896 -0.022816 0.072714 0.035904 -0.016672 0.0158 0.01594 -0.009443 -0.002821 -0.057716 -0.084788 -0.029351 -0.087761 0.069216 0.005251 -0.114406 -0.067701 -0.062595 0.063614 -0.104022 0.036872 -0.002312 -0.048205 -0.127525 0.043474 0.076865 -0.008389 -0.124588 -0.047598 -0.010414 -0.089785 0.006325 0.031402 -0.009007 -0.011608 0.045262 0.040067 -0.126704 0.025634 -0.030883 -0.051917 -0.073041 -0.043405 -0.024177 0.046168 -0.03988 0.004234 0.04465 0.058071 0.01515 0.003303 -0.003675 0.02159 0.062445 0.011362 0.036008 -0.016034 0.028347 -0.021651 -0.028135 -0.048594 0.042351 -0.016777 -0.046889 -0.027663 0.076297 0.027798 0.063613 -0.008883 -0.091025 0.026026 0.006069 -0.055978 -0.089753 -0.08478 -0.021063 -0.031825 0.09902 -0.039835 0.020765 0.017312 0.029058 0.029015 -0.034673 0.04586 0.00142 0.042404 0.052087 0.031905 -0.005528 -0.064035 0.058838 0.003248 -0.015155 0.014258 -0.010024 0.029861 -0.066901 0.040084 0.017069 -0.109035 0.027407 0.089557 0.05917 -0.019715 0.080972 0.057227 0.104204 -0.01357 0.006234 -0.014075 0.11626 -0.038636 0.00149 -0.003011 0.053727 0.036888 0.050454 0.055702 0.061708 -0.007443 -0.131321 0.029599 -0.129935 -0.033836 -0.06128 -0.036861 0.002086 0.048119 0.029242 -0.01324 -0.048207 -0.002839 -0.143935 -0.061274 -0.064038 0.078777 0.030386 0.01886 0.115089 -0.00829 -0.076779 -0.044184 0.0175 0.01076 0.058056 0.015039 0.047641 0.069247 -0.015554 0.004759 -0.055811 -0.020418 -0.023472 -0.032528 -0.028982 -0.064735 -0.052425 -0.049381 0.033541 -0.023102 -0.125179 -0.111838 0.025419 0.019012 -0.087492 0.000505 0.054857 -0.045582 -0.014265 -0.047595 0.076516 -0.090043 -0.058977 0.095346 -0.074303 -0.037462 -0.083306 0.058476 -0.010835 0.026434 0.042206 0.026999 -0.062749 0.021621 0.081204 0.022022 0.179569 -0.10097 -0.01322 0.01119 -0.082912 0.032852 -0.067251
  0.105414 -0.014274 -0.015383 -0.034781 0.077181 -0.027787 -0.05644 -0.093252 -0.05447 0.004342 -0.013379 -0.04049 0.024135 -0.035913 0.050592 -0.063982 0.034104 -0.042326 0.013565 0.027078 0.011795 -0.094949 -0.01778 -0.019247 -0.044353 0.010423 -0.045429 -0.000733 -0.084455 0.007457 0.046604 0.024067 0.072196 0.053753 -0.084479 0.036524 0.00339 -0.003065 -0.044517 0.057368 0.048682 -0.053117 0.05264 -0.021663 0.087002 0.017308 0.025602 -0.004725 0.090223 0.042698 -0.02268 0.028278 0.036344 0.006083 0.066043 -0.013904 -0.043039 -0.004933 -0.01967 -0.035837 -0.001342 -0.067431 0.004312 0.105066 -0.008513 -0.037958 -0.061251 0.033265 -0.017247 -0.012892 -0.038725 0.016754 -0.04492 0.017104 -0.054807 0.027368 0.041493 -0.065132 -0.048474 0.060037 0.020461 0.016978 0.038596 -0.050084 -0.028436 -0.013298 -0.050412 -0.004729 -0.079336 -0.005783 -0.03329 0.032044 0.18077 -0.033762 0.013821 0.003356 0.014932 -0.076264 -0.075771 0.083653 0.009562 0.000895 0.003372 -0.10852 -0.036576 -7e-05 0.01091 0.023487 0.071294 -0.07086 -0.090344 0.048119 -0.007636 -0.000187 -0.063894 0.013494 0.01399 -0.035109 0.022708 0.031661 -0.055 -0.065021 0.060211 0.061963 -0.003283 0.013557 -0.084688 -0.033903 -0.000954 0.131389 0.066825 -0.000968 -0.036338 0.035067 -0.004315 -0.00709 -0.029937 0.03149 -0.090661 -0.0211 -0.047064 0.048584 -0.06588 0.016679 0.044455 0.145612 0.040719 -0.049156 0.037829 0.022574 0.01485 0.09178 0.033251 0.077448 0.022278 0.100463 -0.009479 0.054939 0.027239 -0.078332 0.014822 0.021059 0.058917 0.081615 -0.086575 0.017767 0.066644 0.062644 0.035991 0.017997 0.004406 -0.189045 0.004044 0.002896 -0.012959 -0.020214 -0.02618 -0.0576 -0.009172 0.019744 0.073933 -0.075196 -0.074654 -0.004837 -0.011116 -0.023248 0.059683 0.011689 -0.030804 0.06217 -0.027005 0.060192 0.032378 -0.007491 0.075438 0.023855 0.026216 0.01402 -0.021909 -0.076853
  -0.026163 0.043305 -0.031511 -0.074605 0.051555 0.012427 0.025054 0.046565 -0.06337 0.084531 0.025964 -0.023023 -0.023737 -0.002442 0.013755 0.022719 0.053281 -0.028569 -0.065926 0.023097 0.017786 0.034142 -0.077185 0.044948 -0.012652 0.03628 0.028196 0.040224 0.062068 -0.020818 0.031203 0.004806 -0.026146 0.096038 -0.091985 0.029915 -0.043187 -0.011894 -0.013024 0.141625 -0.021192 -0.013239 -0.041516 0.103845 -0.067213 0.003197 0.07337 0.047456 -0.034266 0.035543 -0.017691 -0.037879 -0.021977 0.014832 0.041934 -0.005231 -0.008567 0.051255 -0.012353 -0.052732 -0.020689 -0.016476 -0.039874 -0.058184 0.013639 -0.041936 -0.080731 0.007928 0.019045 0.018038 0.027741 0.045536 -0.053925 0.024349 -0.012315 -0.058526 -0.012524 -0.001377 0.010971 -0.076105 0.031935 0.016898 0.021039 0.03652 -0.050412 0.03856 -0.048297 0.003075 -0.050062 -0.039936 -0.084926 0.011425 -0.112874 0.069982 0.051362 -0.045418 0.063725 -0.084488 -0.075056 -0.006847 0.022259 0.024442 0.047061 0.009022 0.013053 0.031177 -0.010498 0.039899 0.12336 0.063181 0.02311 0.111438 -0.031177 0.032129 0.031323 0.058042 -0.002522 -0.003834 -0.014523 0.065146 -0.0033 0.087292 -0.03328 0.011228 0.081536 -0.013461 -0.048845 0.066111 0.013787 0.078562 0.023211 0.014357 0.078324 0.042578 0.024122 -0.033355 -0.057717 0.100337 0.074175 -0.122839 -0.076392 -0.033519 -0.003945 -0.006838 -0.007541 -0.048017 0.001538 -0.038019 0.037193 -0.006809 0.02455 0.001591 0.016473 0.084044 0.016066 0.007136 0.002023 0.066477 -0.03666 -0.020642 -0.009505 0.061455 -0.124134 -0.024586 -0.046768 0.02834 0.035612 0.071472 0.070854 0.016324 0.03701 -0.07239 0.001209 0.067174 0.021913 -0.113481 0.016085 0.008513 -0.015099 -0.0266 -0.051973 -0.093955 -0.040704 -0.029339 -0.061061 0.009949 0.023552 0.039034 0.045317 0.097498 0.011243 0.005012 0.041297 0.056027 -0.044927 -0.035519 -0.102427 -0.01632 0.062991 -0.002556
  0.017543 -0.04198 0.017962 0.02813 -0.017342 0.007727 0.160873 -0.128319 0.066244 0.027383 0.01656 0.011089 -0.078462 0.035115 -0.045628 0.041795 0.017175 0.032627 -0.083914 0.050133 0.023734 -0.010433 0.067017 -0.026252 0.035021 -0.139264 0.063029 -0.01754 -0.094734 -0.033818 -0.046462 0.041142 -0.013593 0.071901 0.054024 0.018662 0.045721 0.076799 0.102548 0.078336 0.005159 -0.005121 -0.056383 0.040671 0.061463 0.03632 -0.003947 0.005179 0.083927 0.053679 -0.010999 -0.021029 0.004961 0.004751 0.089471 -0.122558 -0.019381 -0.035406 -0.011866 0.042382 0.004335 0.027528 -0.05661 -0.007151 -0.052963 -0.041274 0.014436 0.052086 0.020516 0.020219 0.013116 0.107068 -0.042874 0.048987 -0.064233 0.021741 0.012449 -0.004942 0.036822 -0.037594 -0.152527 -0.048923 0.022871 0.012725 0.033412 -0.006479 -0.015697 0.034219 0.062548 0.063297 0.10525 0.006734 0.0672 0.051358 0.043524 -0.076901 0.227903 0.085655 -0.070819 0.038255 0.015918 -0.000596 0.054775 -0.033446 0.034565 -0.022558 -0.049272 0.03473 0.047322 0.067183 0.03326 0.069624 0.030839 -0.102497 -0.03066 -0.025292 0.061142 0.052689 -0.063805 -0.097817 0.085473 0.043677 -0.017504 -0.072572 -0.0086 0.033581 -0.044712 -0.077916 -0.010557 -0.068767 0.04884 -0.042548 0.083864 0.084087 0.129782 -0.050041 -0.021392 0.04434 0.067683 -0.045192 -0.062892 0.099094 -0.026536 0.020461 -0.008416 0.088261 0.013746 0.021908 0.035531 0.101867 0.058636 0.041999 0.035517 -0.136365 0.018548 0.038253 0.052592 0.04556 -0.028141 0.13919 0.185551 0.029877 0.065955 -0.026224 -0.007917 -0.006822 0.042382 -0.204061 0.063961 0.013936 0.016173 0.185952 -0.014904 0.014884 -0.038607 -0.02523 -0.046735 -0.070199 -0.061038 0.044104 -0.067864 -0.023088 0.056055 -0.007181 0.002434 0.019743 0.041477 -0.141307 -0.049953 -0.020992 0.018874 -0.013707 -0.026352 0.099709 -0.070935 -0.02527 -0.007795 0.085916 0.057137 0.096706
  -0.045315 0.081516 -0.038468 -0.017983 -0.026014 -0.028433 0.002147 -0.012312 0.150082 -0.111302 0.028129 0.019355 -0.001702 0.008877 -0.026074 0.093721 -0.122986 -0.008471 0.038577 0.0296 -0.049725 0.064719 -0.086557 -0.039855 0.050422 -0.013408 0.028116 -0.094694 0.072287 0.035109 -0.030549 0.030839 0.082647 -0.207226 -0.079096 -0.001999 0.000535 0.070372 -0.029178 -0.104315 0.005404 0.052606 -0.003001 -0.014109 0.0502 -0.062495 -0.025622 0.129699 -0.047327 -0.022096 -0.118599 0.006837 0.058025 0.010759 0.00974 -0.040178 0.017066 0.014965 0.084676 0.031612 0.007343 -0.004722 -0.023988 0.048278 -0.060923 0.009107 -0.103372 -0.008101 -0.031154 0.020335 -0.016414 -0.024301 -0.021197 0.060959 -0.004435 0.057777 -0.013414 -0.058118 -0.011376 -0.121722 0.107014 0.011257 0.038363 0.1144 -0.059911 -0.012174 -0.007004 0.063381 0.061126 0.009746 0.000956 -0.042902 0.031391 -0.021745 0.04504 0.034417 -0.100415 -0.030092 -0.077104 0.040119 -0.04362 -0.020775 0.01778 0.034282 0.037922 0.024685 0.119768 -0.04865 0.011188 0.005272 0.043254 0.031089 0.050406 0.007694 0.00941 0.039046 0.090526 -0.036329 -0.086005 -0.03419 -0.011762 -0.140205 -0.063274 0.020909 -0.020075 0.018644 -0.000407 0.114661 -0.006124 0.015865 -0.008975 -0.039044 0.030752 0.112028 -0.017503 -0.024319 -0.027388 0.034921 -0.055774 0.043894 -0.00382 0.105182 0.029287 -0.000166 0.005804 -0.029631 -0.075267 0.017828 -0.049164 -0.049776 0.012817 -0.043561 -0.005714 0.169034 0.074592 -0.046442 -0.04734 -0.096151 -0.034524 -0.153715 0.091628 0.070447 0.015199 -0.039152 -0.021528 -0.063626 0.085118 0.068969 0.0333 -0.030896 0.036372 -0.152668 0.00332 0.03083 -0.012108 0.05047 0.038932 -0.002488 0.044891 0.003272 0.06923 -0.050681 -0.01365 -0.002278 -0.07404 0.023585 0.039285 0.013533 -0.106537 0.020745 -0.018978 -0.04423 0.004544 -0.053733 0.047696 -6.6e-05 0.021348 0.056492 0.029024 0.123014
  0.068007 0.04138 -0.041976 -0.058778 0.03619 -0.032981 0.080081 -0.042657 0.013898 0.02654 -0.020523 -0.005962 0.016975 -0.007034 0.022654 0.007797 -0.013706 -0.06807 0.090019 0.078729 -0.127336 0.116961 0.060514 -0.001936 0.006308 0.023484 0.04883 -0.073324 0.095403 -0.008953 -0.057683 0.035348 0.097976 0.112852 0.006151 0.035368 -0.017639 -0.09899 -0.084706 -0.183746 -0.048413 0.068494 0.029172 0.031053 -0.070903 -0.020399 -0.028197 -0.011936 -0.079314 0.028576 0.016822 0.065447 -0.003776 -0.00178 0.005474 -0.041174 -0.084397 -0.00094 -0.020699 0.035977 -0.04262 -0.007779 0.053206 0.077325 -0.083871 -0.037797 -0.015032 0.015815 0.050674 0.026793 0.039284 -0.040844 0.073493 0.10115 -0.012859 -7.2e-05 0.03329 -0.014148 0.046575 -0.090971 -0.094245 -0.055646 -0.058847 -0.025034 -0.045037 -0.005527 -0.080218 0.023656 0.04298 0.028164 0.046195 -0.012022 -0.057299 0.063231 0.022682 -0.082642 0.064161 -0.028691 -0.087788 -0.015163 -0.012409 0.025367 -0.073975 0.054129 0.101567 0.027172 -0.084043 0.005154 -0.03483 0.077591 -0.010392 0.060913 0.040417 -0.016824 -0.04815 0.041391 -0.030686 -0.028994 -0.055826 0.092228 -0.015571 -0.163963 0.026118 0.085191 0.053058 -0.028786 9.4e-05 -0.01759 -0.04717 0.030452 -0.037524 -0.031327 -0.026214 -0.105827 0.021755 0.029395 -0.018062 0.006872 -0.083184 -0.121013 0.047791 -0.120609 0.043109 0.02027 0.030843 0.048813 -0.02318 0.064889 -0.11743 0.032613 -0.021076 -0.042937 -0.035497 -0.061109 -0.021936 0.090784 -0.009996 0.033198 -0.015583 -0.129282 0.079196 -0.04693 -0.090628 -0.066588 0.045533 0.03212 0.115528 -0.068964 0.001949 0.022322 -0.040115 0.024602 -0.003089 0.015247 0.008042 0.074649 -0.050377 -0.062248 -0.198979 0.042328 -0.062758 -0.130834 0.025336 0.047873 -0.023722 -0.014427 -0.030626 -0.042057 -0.01085 -0.019221 -0.031735 0.076353 -0.015499 -0.043556 -0.055312 0.080652 0.039846 -0.022923 0.036208 0.006049
  -0.027709 0.048777 -0.015334 0.071364 0.020581 0.048892 0.088046 -0.063194 0.051759 0.059923 -0.005133 -0.005234 0.012641 0.012105 -0.04497 0.040626 -0.015216 0.040562 -0.095817 -0.023786 0.049469 -0.122227 0.078418 0.03551 -0.032482 0.034429 -0.016386 -0.00396 -0.007875 0.058662 0.031188 -0.013643 0.123697 0.014865 -0.073464 -0.056858 0.015875 -0.044674 0.015576 0.004538 -0.03468 -0.028804 0.027011 -0.039356 0.008836 0.03928 -0.072839 0.000681 0.001576 -0.092197 0.033035 -0.031736 -0.048561 0.019457 -0.02913 -0.008461 0.023661 -0.010024 -0.01397 0.046918 -0.014463 0.063475 0.000749 0.014515 -0.022014 0.044414 0.022956 0.017602 0.001958 0.005992 0.00662 -0.034278 0.098155 0.066718 -0.059546 -0.038553 0.105591 0.008506 -0.011122 -0.016454 0.013039 -0.016584 0.039668 0.124406 0.01051 -0.00389 -0.028848 0.02715 0.025306 0.002594 0.054903 0.007279 -0.098834 0.006964 0.028112 0.053397 0.000742 0.056206 -0.08876 -0.006836 0.005019 0.056794 0.009206 -0.023357 0.063557 -0.028932 0.03298 0.018859 -0.091674 0.019543 0.004628 -0.004855 0.081085 0.028121 0.022272 -0.003892 -0.053546 -0.013297 -0.102549 0.127763 0.002562 -0.037686 0.057128 -0.009744 0.068034 -0.005344 -0.013127 0.093834 -0.066298 -0.055758 0.012328 -0.004362 -0.014359 0.049787 0.004596 0.021733 -0.036126 -0.003073 0.078265 -0.098903 -0.03241 -0.071625 0.088403 0.02386 0.076459 0.07021 -0.079583 0.021949 0.061788 -0.08274 0.032795 -0.075419 -0.043407 0.062085 0.019764 -0.055829 0.001499 -0.045122 0.000181 -0.04659 0.125392 -0.013364 0.080204 -0.017294 0.042259 0.022705 0.16599 -0.044912 -0.10386 -0.031599 0.042857 -0.023754 0.01705 -0.018009 -0.020171 0.000583 0.065378 -0.003695 0.039978 0.06178 0.010459 0.005 0.062112 0.006779 -0.062547 -0.025828 -0.008261 -0.035516 -0.043851 -0.002241 0.022181 0.024072 0.005701 0.112568 0.100996 0.004566 -0.00092 0.033317 -0.002118 0.014055
  0.017321 -0.053348 -0.036177 0.063826 0.026849 0.000467 0.013496 0.024171 -0.056994 -0.022448 0.024406 0.003848 0.017921 0.009675 -0.021916 -0.032709 -0.023771 0.015115 0.085391 0.032851 -0.110297 0.020859 -0.120404 -0.002878 0.038156 -0.004025 -0.010291 0.013194 -0.064536 -0.105538 -0.033756 0.086396 0.025725 -0.195335 -0.089778 0.06661 0.00907 0.017497 -0.020994 0.015912 -0.032088 -0.025516 0.024102 -0.050528 0.013611 -0.030357 -0.117717 -0.007275 -0.054109 -0.105501 -0.068758 -0.045573 -0.025242 -0.0042 0.013704 -0.061603 0.041681 -0.053963 0.00084 0.049978 0.02468 0.076401 0.062674 0.021688 0.058458 0.034268 0.058284 0.035825 0.03718 0.015533 -0.034562 0.047548 0.059953 0.027925 -0.007269 0.03732 -0.035869 -0.068104 -0.016833 0.061111 0.073092 -0.016301 0.025082 0.068908 -0.035958 0.04481 -0.05553 -0.080095 -0.046409 0.064355 -0.01185 0.001193 -0.019082 -0.024554 0.066289 0.022213 0.070566 0.01538 0.008652 0.018143 0.06017 0.005685 0.025051 -0.130418 -0.003882 0.026368 0.085246 -0.105327 0.080117 -0.029395 0.04966 0.027773 0.030832 0.039232 -0.01392 -0.021006 -0.035434 0.032072 -0.069308 0.047383 0.04561 -0.127821 -0.072537 -0.027146 -0.063096 -0.056002 -0.029517 0.095582 0.01751 -0.010398 -0.025088 0.002727 -0.021521 0.11756 -0.003956 -0.020397 -0.017598 -0.131231 -0.116083 0.067403 -0.016313 0.028692 -0.04414 -0.029055 0.001679 -0.140345 0.00471 0.085903 -0.023454 -0.031666 0.108424 0.018667 -0.015485 -0.009463 0.023462 -0.003926 -0.014843 -0.055299 -0.005359 -0.025867 -0.01853 -0.03036 0.056563 0.09749 0.030324 -0.013491 0.012177 -0.005948 -0.031516 -0.012052 -0.001402 0.101541 -0.005227 0.011495 -0.025752 -0.02013 0.017885 -0.041602 -0.055394 -0.17187 0.062782 0.012942 0.038165 0.038576 0.047226 0.045597 -0.025278 0.010654 -0.123666 0.007935 -0.040338 -0.028859 -0.029694 0.088751 -0.018941 -0.064546 0.012775 0.026015 -0.029835 -0.099404
  -0.05492 -0.014183 0.011217 0.015705 -0.005049 0.048634 0.057991 0.079784 0.070975 -0.039585 0.065951 0.006334 -0.001179 -0.007652 0.023519 0.034715 0.055667 -0.011527 0.083546 0.014507 -0.011549 -0.102821 -0.115682 -0.053428 -0.068374 0.002872 -0.027515 -0.042349 0.007198 -0.019779 0.029641 0.011451 0.015144 -0.025544 -0.127249 0.077468 0.008905 0.04817 0.022311 -0.027359 0.025047 0.045933 0.021617 0.041258 0.022003 0.035698 -0.014583 0.023054 -0.08779 0.014175 -0.02428 -0.034884 -0.015816 -0.048244 0.001822 -0.040966 0.041044 0.017214 -0.004305 0.090642 -0.050955 -0.003498 -0.029933 -0.040695 0.041264 0.073568 0.052738 0.018993 -0.021663 0.026689 -0.028846 0.112934 0.033098 -0.047188 -0.052951 -0.052911 0.002346 0.016225 -0.01733 -0.07485 0.00364 0.024988 0.053016 0.02012 0.011962 0.019132 -0.028258 -0.082 0.077833 0.002521 -0.013907 -0.101731 0.117971 0.044647 0.003341 0.061094 -0.044434 0.044847 0.135179 -0.012368 0.067215 -0.019018 -0.018039 0.055755 0.025807 0.009475 -0.022889 0.022298 0.011402 -0.076781 0.020178 -0.110988 0.090879 0.088596 -0.020798 -0.066051 0.025504 -0.085299 -0.088779 -0.096426 0.061328 0.015972 0.055814 0.035913 0.031487 0.031653 0.00098 -0.094569 -0.007026 0.00735 -0.015627 -0.017456 0.033112 -0.006277 -0.084024 0.065635 -0.012096 0.025889 0.001801 -0.035531 -0.046997 0.007874 0.070545 0.004741 0.013648 0.180898 -0.003014 -0.090982 -0.049981 -0.042287 0.078274 0.054688 -0.043069 0.15197 0.083923 0.046735 -0.020568 0.089274 0.023543 0.029378 0.041229 -0.070694 0.063216 -0.002061 -0.033847 0.042913 -0.051148 -0.150845 0.006684 -0.012214 0.069393 0.056105 0.040287 0.028815 0.051257 0.003178 0.130012 0.040197 0.08286 -0.142488 0.06125 -0.012391 0.034546 0.021316 0.004163 0.028411 -0.079959 -0.09012 -0.15566 0.064274 0.010727 0.048144 -0.04055 -0.121396 0.107431 0.019587 0.050437 0.012728 0.012367 0.041238
  0.063773 0.065917 0.070174 0.062408 0.04253 0.04073 -0.155326 0.018403 0.01431 0.02182 -0.013129 0.051687 0.014012 -0.019782 -0.015946 -0.009504 0.021969 0.062981 0.091323 0.068715 -0.134441 -0.082851 0.000572 -0.071458 0.014186 0.04847 0.073109 0.032552 0.028818 -0.043747 0.044769 -0.019696 0.049255 -0.074403 -0.042535 -0.015917 0.041897 -0.029235 -0.046025 0.006057 0.071513 0.018818 0.02759 0.152175 0.030828 0.043301 -0.02424 0.028693 0.072696 0.021937 -0.031294 0.002859 0.001018 -0.067742 0.051276 0.049388 -0.080753 0.095698 0.015782 -0.028104 0.029667 0.02774 0.05523 -0.0476 -0.092172 -0.050562 0.036696 0.017906 -0.038758 -0.047446 0.017259 -0.078032 -0.086476 0.028291 -0.032088 -0.021485 -0.077909 -0.085458 0.042071 0.010914 0.064181 -0.009581 0.027826 -0.085245 -0.012017 -0.011248 -0.016283 -0.073653 0.075897 0.08291 0.060963 -0.028917 0.005588 -0.018791 0.045477 0.026272 -0.10188 0.059369 -0.053041 -0.015201 0.009387 -0.000761 0.098378 -0.161198 -0.015996 -0.002084 -0.157016 0.05692 -0.018129 -0.113954 0.025612 0.058264 -0.022468 0.019883 0.095986 -0.03871 0.014855 -0.098716 0.068071 0.0624 0.051526 0.023692 -0.028257 0.034012 0.017265 0.00754 0.019114 0.062546 0.038658 0.014331 0.067327 -0.057409 -0.059815 -0.007804 0.015374 -0.018113 0.03475 -0.031589 -0.071154 0.019742 -0.065416 -0.025244 0.065293 -0.061132 0.058561 0.156679 0.04924 -0.004011 -0.073704 -0.039569 -0.013034 -0.015631 0.073423 0.049416 0.08769 0.01199 -0.004298 0.09975 0.10167 0.127941 -0.074889 -0.0073 0.075757 0.176053 0.105891 -0.055985 -0.117491 -0.08394 0.021189 -0.067514 0.032478 -0.007099 -0.019457 0.043841 -0.009927 -0.03104 -0.122192 0.008391 0.056976 -0.043453 -0.055544 -0.134974 0.036628 0.000976 0.038011 0.010533 0.071907 -0.007108 0.002767 0.042404 -0.066918 -0.044547 0.039358 0.051127 -0.043494 -0.001361 -0.005783 -0.060998 -0.06934 -0.031629
  0.025862 0.016909 -0.057155 -0.048041 0.085126 -9.8e-05 -0.092402 -0.191789 0.036287 0.047307 -0.007759 -0.053987 0.003772 -0.014289 0.028609 -0.007244 -0.057462 -0.006186 0.007425 0.0962 -0.003913 0.017983 0.089001 -0.006478 0.018415 0.099443 -0.049533 -0.027647 -0.136181 0.026508 -0.039217 -0.033536 -0.075737 -0.119275 -0.024761 0.043354 -0.196444 -0.034841 0.008013 0.129089 0.033845 0.031994 0.035486 -0.075705 0.004981 -0.012972 0.121729 -0.00891 0.026943 0.036557 0.059433 -0.065585 0.020048 -0.0278 0.004383 0.017879 -0.010659 -0.015343 -0.017096 0.060427 -0.017869 -0.042968 0.011244 -0.012841 0.077225 -0.065541 -0.127258 -0.020174 0.062723 -0.024914 -0.003657 0.10775 0.001612 -0.037596 -0.02835 0.024214 -0.085868 0.037425 -0.028877 -0.006528 0.025555 -0.010165 0.107058 -0.090723 -0.040844 -0.096232 -0.021243 -0.005353 -0.009856 0.027246 -0.032955 -0.132799 0.119802 0.083779 0.067917 -0.134714 -0.138729 0.069148 0.133452 -0.008764 0.021986 -0.06117 -0.031654 -0.017274 0.039423 -0.001678 0.026621 -0.073544 0.081257 -0.038615 0.022275 -0.046261 0.001992 -0.040193 -0.086956 0.001314 0.0194 -0.030488 0.065087 0.000204 0.043277 0.107826 0.06325 0.068223 0.091232 -0.060042 0.030225 -0.016501 -0.043739 0.060384 0.055095 -0.036584 0.047126 -0.060383 0.042991 0.078112 0.07376 0.0256 -0.138051 -0.066443 0.004918 0.052293 0.011283 -0.012521 0.034629 -0.149637 0.032121 -0.069601 0.053106 0.019942 0.065349 -0.088882 -0.064667 -0.021856 0.071737 0.000726 0.029695 0.014626 -0.001845 -0.15133 -0.250511 0.054234 -0.101401 -0.133147 0.159613 -0.020097 -0.03782 -0.247888 0.024049 -0.034386 0.110876 0.005946 0.003757 0.044667 -0.015931 0.016712 0.063251 0.102953 -0.020048 -0.180227 0.080921 0.031734 -0.022374 0.023741 0.13108 0.007806 0.017334 -0.106847 -0.096686 0.107059 0.012931 0.01849 -0.006363 -0.054766 -0.096109 0.052011 0.110811 -0.083545 0.158604 -0.104097
  -0.10103 0.077919 0.008467 -0.011635 0.096445 -0.074862 0.105205 -0.057963 -0.005206 0.000275 -0.056414 -0.019953 0.023814 -0.025079 0.054156 0.001855 0.039892 0.00555 0.0471 0.039935 0.083939 0.055933 -0.046716 -0.156229 0.01407 0.036017 -0.060288 -0.017241 0.01335 0.138509 0.031661 -0.032471 0.058033 -0.24598 -0.069018 0.055055 -0.121132 -0.05558 0.017086 -0.081846 0.043349 -0.027687 0.051007 0.040239 -0.082024 0.016028 0.123711 -0.083544 0.042326 -0.007937 -0.027398 0.040288 0.005538 0.005966 -0.059479 0.050988 -0.093706 0.045117 -0.016628 0.032631 0.017196 0.066982 0.020604 -0.036164 -0.024632 -0.006133 -0.047252 0.033322 0.00944 -0.012212 -0.059283 -0.078968 0.056916 0.056715 0.040314 0.034611 0.016293 -0.026797 -0.029935 -0.148142 -0.047624 0.00326 -0.143288 0.004094 -0.004801 0.013203 -0.080246 0.040669 -0.021665 0.003531 0.059039 -0.039965 0.005448 0.017356 -0.010733 0.013889 0.046638 0.044124 -0.060551 0.030498 0.00135 -0.04956 0.052677 -0.002816 -0.105856 0.017406 0.114709 -0.004208 -0.105452 0.002261 -1.6e-05 -0.104999 -0.067838 -0.055387 0.027811 -0.022887 0.044178 0.008776 -0.095841 -0.130806 -0.047713 -0.140047 0.068579 0.06876 0.074988 0.072353 -0.010587 -0.015819 -0.01889 -0.139316 0.028732 0.005328 -0.032053 0.067592 0.087215 -0.036263 0.009937 0.012559 0.009587 0.082373 -0.062378 -0.056489 0.097528 -0.034571 0.068159 -0.075106 -0.006954 -0.007346 -0.134828 -0.020375 -0.070637 0.093594 -0.163305 0.006542 0.008572 0.072572 0.07551 -0.014736 0.007166 -0.065085 -0.050007 0.081401 0.024522 -0.061641 -0.080256 0.002805 -0.139203 0.006308 0.073642 -0.013603 0.109774 -0.104067 0.03334 0.106276 -0.00933 -0.096742 0.033161 0.063635 -0.209886 -0.110306 0.101198 0.023838 -0.191695 0.003678 -0.010756 0.019345 0.035974 -0.012277 -0.097743 -0.024209 -0.014552 0.00596 -0.014041 -0.039316 -0.08305 -0.063892 -0.124948 0.053977 0.117063 0.057642
  -0.029128 -0.031982 -0.030465 0.070396 0.075369 0.012847 -0.022909 0.023277 0.076794 0.09146 -0.032413 -0.019031 0.067816 -0.09227 0.050764 0.105974 0.036942 0.04111 -0.007893 -0.057635 -0.112048 0.075404 0.135575 0.04007 -0.009049 -0.070419 0.016718 0.016503 -0.056757 0.085279 -0.009088 0.039525 0.061353 -0.063867 0.077545 0.032659 -0.054344 0.036737 0.00407 0.138757 0.005958 0.006641 -0.008514 -0.040331 0.034857 -0.039203 -0.008472 0.014614 0.102209 0.082005 -0.083628 0.001391 0.028062 0.036383 0.072403 -0.002361 -0.002488 -0.014379 0.031068 0.017383 -0.028938 -0.112068 0.004301 -0.105399 -0.049282 0.030846 0.053846 -0.013858 -0.021365 0.004309 -0.004274 0.071021 -0.060388 0.028745 0.034102 -0.080978 -0.060245 -0.031141 0.048171 0.053315 -0.00378 -0.006252 0.049775 -0.014332 -0.008393 0.005918 -0.00366 -0.054554 0.082065 0.057536 0.040062 -0.160625 0.020839 -0.038898 0.006199 0.007874 -0.106003 -0.104564 0.048996 0.00073 -0.016237 -0.024825 -0.00492 -0.01891 0.084849 0.070502 0.051784 -0.014532 0.015679 -0.04513 0.045224 0.001723 -0.180357 0.024741 -0.022135 0.02297 -0.118981 -0.033799 -0.002688 0.044159 -0.042493 0.030567 0.125027 0.042488 0.061214 0.015981 -0.012737 -0.028499 -0.010326 0.040794 0.023421 0.037798 0.056328 0.056421 0.035092 0.009656 0.055327 -0.022176 -0.063552 0.124637 -0.017989 -0.087479 0.043259 0.031365 -0.025141 -0.052392 0.015515 -0.094906 0.031891 0.102718 0.031279 -0.090296 0.01284 0.047252 0.048162 0.084175 -0.029927 -0.035339 -0.043123 -0.055722 0.014378 0.025352 -0.101753 0.080708 -0.060025 0.031569 -0.123019 -0.165982 0.055424 0.035593 0.045748 -0.131941 -0.006353 0.102781 -0.063419 -0.037818 -0.042057 0.114463 0.195572 -0.134707 -0.002045 0.083492 0.069496 -0.017128 0.069316 0.025806 -0.02179 0.025319 -0.027205 0.147672 -0.006361 -0.003408 -0.05513 -0.011797 -0.007333 0.076267 0.053969 -0.004235 0.080863 0.000416
  -0.099591 0.020872 0.024574 -0.020102 0.043877 0.002016 -0.028479 0.124317 -0.087995 -0.034251 -0.008594 -0.026804 -0.074073 -0.010376 0.063347 -0.10247 0.036915 -0.052029 0.038324 0.044773 0.015618 0.101532 0.121532 0.016297 -0.130003 -0.003862 0.059285 -0.008702 -0.059728 -0.119843 0.046715 -0.004339 -0.134706 -0.054004 0.184539 0.019627 0.005851 0.014538 -0.106493 0.01152 0.078075 0.019551 0.122355 -0.054272 0.012372 0.022753 0.023268 0.13299 0.011803 0.065405 0.013099 0.039113 -0.083413 -0.034226 0.06258 0.06803 0.040263 0.104454 -0.021484 -0.014801 0.038697 -0.002952 0.037809 -0.071003 -0.049725 -0.024398 0.073634 0.01686 -0.042082 0.029092 0.027565 0.063993 0.062216 0.056839 -0.02177 0.06133 -0.060828 -0.019565 0.011481 0.03828 -0.056819 0.032432 0.053517 -0.040542 0.022776 0.000988 0.034602 0.007675 -0.103469 0.103433 -0.102431 -0.012203 0.059953 0.045929 0.048086 0.062639 0.047803 -0.029102 0.131994 0.036578 -0.008393 0.056694 0.122905 0.016836 -0.016957 0.022504 -0.097682 0.075781 -0.009236 0.043767 -0.024433 0.099269 -0.033262 0.085809 0.045252 0.01591 0.019997 0.099407 -0.039989 -0.199994 -0.013671 0.168939 -0.013972 -0.032735 -0.008486 0.0346 0.003396 0.027118 0.009573 0.003493 -0.001747 -0.065524 -0.066573 -0.03642 -0.008221 -0.075046 -0.00166 -0.058066 0.042353 0.17042 -0.084693 -0.014238 0.073258 0.036971 -0.084936 -0.026316 0.007767 0.031439 0.074096 0.024154 -0.002743 0.104312 -0.064138 0.012193 0.012302 -0.068544 0.027129 -0.011694 0.039613 -0.042369 -0.058427 0.072502 0.087691 -0.019505 0.040402 0.038421 -0.135762 0.038109 -0.077973 0.009986 0.086133 0.113647 0.006973 -0.005425 -0.015135 0.026992 -0.031532 -0.011386 0.049583 0.042882 0.020516 -0.108761 -0.004393 -0.000492 -0.055097 -0.011676 0.052911 0.054139 0.017207 0.040823 -0.052956 -0.084645 -0.006492 0.020428 -0.08734 -0.049778 -0.068738 -0.008767 0.097456 -0.051254
  0.030705 -0.007628 0.020587 -0.008431 -0.029773 0.034553 -0.157412 -0.050505 -0.141344 -0.157609 0.040381 -0.007677 -0.004834 -0.005357 0.000556 -0.075154 0.025869 0.057331 -0.059157 0.00412 -0.026584 0.075225 -0.07435 0.053804 0.007512 -0.046238 0.109668 -0.051092 0.082657 0.003422 -0.114329 0.016837 -0.041095 -0.051746 0.115388 -0.02575 -0.080045 -0.044256 -0.027828 0.024323 0.044429 0.054738 0.052736 0.024735 -0.062103 0.079116 0.040451 -0.111015 -0.024355 0.106386 -0.001221 0.059775 -0.042431 -0.075798 -0.029771 0.040003 -0.06241 -0.04778 0.054036 -0.044539 0.047596 0.058579 0.030248 -0.088315 0.029655 0.025253 0.035852 -0.060853 0.015989 0.030926 0.005306 0.047476 -0.01046 0.049579 -0.006305 0.134465 0.005279 -0.040053 0.031516 0.025668 0.145974 -0.00292 0.005016 0.019228 0.000323 0.053837 -0.004404 0.057881 0.039384 -0.040886 -0.122295 0.026551 -0.098007 -0.013263 0.050551 -0.038231 -0.083622 -0.101223 -0.053837 -0.061736 -0.001707 0.019267 0.095377 -0.031749 -0.06066 -0.029306 -0.138505 0.050997 -0.028514 -0.013696 -0.03209 -0.030052 0.132437 0.067198 0.01696 -0.01167 -0.071109 -0.080974 0.080437 0.010197 0.028739 0.05675 -0.022527 -0.080927 0.064013 -0.048783 0.017497 0.01974 0.010225 -0.001884 0.113738 -0.044376 0.082685 0.023859 -0.057632 -0.022044 0.004155 -0.04172 0.020885 0.010685 -0.084041 -0.032327 0.135784 0.018158 0.011028 0.047361 0.057365 -0.101539 -0.135793 0.014635 0.04563 -0.148786 0.034348 0.045166 0.087168 -0.103855 0.037653 0.00074 -0.002481 -0.000606 -0.044104 0.041097 -0.031933 0.02114 0.030761 -0.031547 -0.009226 0.059186 0.009255 0.030473 0.08051 -0.06841 0.007264 0.060591 0.042233 -0.041075 -0.168189 -0.049121 -0.050361 0.145303 0.001073 -0.140073 -0.092698 -0.000672 0.032139 0.006101 -0.007742 -0.076449 0.099707 -0.052794 0.021764 -0.103663 0.064313 0.04977 0.060449 0.02959 -0.055512 0.028475 -0.07412 -0.080646
  -0.008809 -0.042334 -0.004543 0.059215 0.023579 0.204118 0.016183 0.253871 -0.004374 -0.399199 -0.058089 0.005586 0.014728 -0.462475 0.116514 -0.053136 0.246597 0.024799 0.414952 0.004781 0.014285 -0.101284 -0.033232 -0.028933 0.002686 0.216416 0.078916 -0.037196 0.003474 -0.022126 0.190631 -0.045174 -0.041691 0.020811 -0.018635 -0.020646 -0.014421 0.162368 -0.388189 -0.379902 0.200773 0.157355 -0.046803 0.012795 0.421838 -0.023971 0.298875 0.052274 0.369025 -0.056863 -0.033695 0.207872 -0.029422 -0.226348 -0.027552 -0.15106 -0.062609 -0.001123 0.011386 -0.039729 0.183325 0.215512 0.219482 -0.029376 0.211929 0.193963 -0.03191 -0.037628 0.149244 -0.004143 -0.297638 -0.028457 -0.289401 0.173063 0.140245 -0.024726 -0.031554 -0.411682 0.134242 0.000752 -0.036634 0.213882 -0.128195 -0.008407 -0.302538 -0.441395 0.225977 -0.494169 -0.034396 -0.034216 -0.046737 -0.004677 -0.034349 -0.026828 0.020956 -0.007458 0.035793 -0.012346 -0.101215 0.265719 -0.009506 0.163898 -0.029731 -0.012341 -0.483619 0.179706 0.017885 0.205607 -0.058474 0.070391 -0.022574 0.06366 -0.04349 0.239007 -0.116145 -0.033933 -0.372847 -0.045052 -0.027789 0.001757 0.034814 -0.013662 0.101804 0.022413 -0.062488 0.234615 0.138653 0.513398 0.035236 -0.00371 0.155284 -0.266257 -0.338583 -0.007847 0.0172 0.165783 0.00266 -0.001188 -0.105774 -0.039084 -0.084736 -0.036298 -0.002009 0.019717 -0.015664 0.076812 -0.010349 0.376978 -0.056863 0.022506 -0.053563 0.289847 0.19896 0.000964 0.348296 -0.020987 0.177899 -0.031983 0.061169 0.007713 -0.006942 0.02411 -0.022244 0.015977 0.28237 -0.026967 0.01568 0.024341 -0.290191 -0.285951 0.010106 -0.029318 -0.213845 -0.032631 -0.256644 0.223689 -0.062165 -0.002367 -0.333354 -0.023497 -0.023583 0.093822 -0.019254 -0.008695 0.01361 -0.368217 0.03382 -0.027761 -0.03311 -0.057025 0.109592 -0.131706 -0.004009 -0.002806 -0.030894 -0.032825 0.012429 0.016819 0.045914 -0.480517
  0.009734 0.013789 -0.00871 0.227969 -0.031098 0.144325 0.017961 0.343149 0.082073 -0.163217 -0.063682 -0.03614 -0.00585 0.192671 0.310729 -0.033978 -0.273218 0.072972 0.373562 0.014205 -0.055095 0.113413 0.010337 -0.031695 0.035938 0.142004 0.094258 0.075396 0.018092 -0.007476 0.085383 0.019483 0.011012 -0.023878 -0.060101 -0.016161 -0.078331 -0.004009 -0.303489 -0.303193 -0.167411 -0.147984 -0.017398 0.150619 -0.239648 0.022645 0.182019 -0.019228 0.466112 -0.063188 0.235043 0.149745 -0.387871 -0.403158 -0.020426 0.219266 0.135278 0.019908 0.04574 0.000874 -0.231518 -0.688926 0.078656 0.029362 0.34223 0.038334 -0.035355 -0.018586 -0.052793 0.176115 0.124631 -0.047976 0.317924 0.270067 -0.381649 -0.020971 0.017273 0.177763 -0.041841 -0.043029 -0.009764 0.080765 0.12816 -0.035678 0.152929 0.063931 0.210797 0.206442 0.080904 -0.007215 0.012461 0.129038 0.031277 -0.027465 -0.027283 0.001195 -0.09704 -0.022736 0.265945 0.088131 -0.010727 0.082411 0.052814 -0.498628 -0.076166 0.076621 -0.006457 0.296022 -0.032094 -0.007586 0.023797 -0.075223 0.01958 0.21744 0.303607 0.008554 -0.208502 -0.016861 -0.033531 -0.008931 0.019412 -0.0153 0.203174 -0.026759 -0.022592 -0.224947 -0.229446 0.235279 -0.116261 0.01371 0.10707 -0.100437 0.142198 0.056779 0.018318 -0.34957 0.221935 -0.012724 -0.145875 0.04825 -0.0814 -0.013572 -0.032342 -0.041609 0.050803 -0.047527 0.013886 0.293329 0.047404 0.001151 0.007788 0.175159 -0.04346 0.026334 0.092992 0.011083 0.149491 -0.019482 0.008439 0.008631 0.010784 -0.013699 -0.049556 -0.03965 -0.385 0.147012 0.072473 0.021316 -0.086806 -0.372326 -0.007996 -0.018895 0.062855 -0.001404 0.12682 0.091078 -0.00707 -0.047609 0.13644 -0.091212 -0.001329 -0.46694 -0.00813 -0.085985 0.014781 0.068633 0.24117 0.040367 -0.009545 -0.002693 -0.141414 0.114616 0.009943 -0.079708 0.038947 -0.036693 0.046481 0.035468 0.040325 -0.368338
  -0.031051 0.025888 0.037227 0.029782 0.013821 0.14363 -0.026998 0.165875 0.019236 -0.236438 -0.04755 -0.423775 -0.445544 0.117219 0.15542 0.034192 -0.613153 0.024441 0.19256 -0.01265 0.015772 -0.176572 -0.018147 -0.018869 -0.029717 0.065574 0.09754 -0.104737 0.018575 -0.129488 0.073678 -0.03298 -0.01249 -0.034031 0.030925 -0.01536 0.001212 0.183078 -0.141707 0.063612 -0.142058 0.043062 -0.037351 0.035168 0.346097 -0.005302 0.351592 -0.044376 0.243259 0.003369 0.061426 0.128417 0.133703 -0.17222 0.033053 0.299484 -0.029157 0.019047 -0.045514 -0.045257 0.116463 0.120957 0.212934 0.008199 0.291146 0.146126 -0.04568 -0.004511 -0.244976 -0.299474 0.078368 0.034388 0.186187 -0.011877 0.027314 -0.010267 -0.053067 -0.178289 0.127258 -0.121224 -0.0535 0.18242 -0.114184 -0.029912 -0.243235 0.097872 0.098247 0.21303 -0.018781 0.003762 0.021282 0.119441 -0.068826 0.008348 0.033552 0.014478 0.029519 -0.029484 0.196899 -0.188321 -0.011736 0.157932 0.008171 0.119702 -0.032714 0.058594 -0.035346 -0.068188 0.009635 0.019418 0.060311 -0.01443 -0.009692 -0.324848 -0.34094 -0.026728 0.036479 -0.009092 -0.036912 -0.0201 -0.02724 -0.016277 0.11365 -0.012782 -0.009076 0.051688 0.082088 -0.180751 0.149973 0.004678 0.2011 -0.112353 0.186074 -0.031824 -0.010607 0.17657 0.218033 0.025437 -0.081068 0.035802 0.170376 -0.016449 0.022972 -0.021094 -0.041433 0.413012 0.005124 0.276504 0.315122 0.040898 0.008383 0.096668 -0.298131 -0.037501 0.35136 0.014986 0.128419 -0.008656 -0.253262 -0.038597 0.019529 0.003256 0.000747 0.149041 0.169239 -0.625205 -0.051252 -0.020697 -0.213282 -0.230195 -0.006313 -0.043685 -0.015135 -0.014072 -0.349028 0.006717 0.020387 -0.012694 0.165007 -0.038425 -0.003815 -0.118414 0.002365 0.002731 -0.049009 0.084246 0.188664 -0.049118 0.015573 -0.002502 0.167592 -0.428279 -0.031498 -0.002767 -0.02844 -0.046874 -0.049 -0.006419 -0.007026 0.264137
  -0.025421 0.054036 -0.003154 0.021764 0.02929 -0.096609 -0.072141 0.18118 -0.092969 0.152089 -0.008035 0.06995 0.027455 -0.098242 0.023125 0.025827 0.149391 0.066888 0.119595 0.092745 -0.01854 -0.132893 0.010429 -0.028146 -0.003807 0.097088 -0.115058 0.005575 -0.057708 0.063705 0.13717 -0.028252 0.033061 -0.114464 -0.047366 0.009375 -0.00873 -0.14614 0.207402 0.323678 -0.121407 -0.15088 0.046077 -0.090021 0.071388 0.001196 0.177101 0.00699 0.260532 -0.03905 0.153071 -0.136667 0.075256 -0.062108 0.008072 0.026279 -0.029856 0.06088 -0.030542 -0.06642 -0.048823 -0.117127 0.099255 -0.103742 0.283389 0.006716 -0.013703 -0.026938 0.074223 0.095507 0.117248 0.03124 0.012058 -0.148993 0.012568 0.005518 -0.001673 0.029854 0.086089 -0.08047 -0.030266 -0.236979 0.223467 0.067311 0.004245 -0.179425 0.192277 -0.333396 0.015423 -0.00688 0.012159 0.137255 -0.014867 0.034902 0.031864 0.003948 -0.007775 -0.060024 0.300967 0.133866 -0.074914 -0.043289 0.053024 0.001696 0.264435 -0.138509 -0.017127 -0.143155 0.0579 0.02241 0.032876 0.043433 0.030643 0.236526 -0.252401 0.011903 -0.318086 0.083621 -0.062252 -0.11894 0.06057 -0.020806 -0.133538 -0.013139 0.014366 -0.003311 -0.159238 0.024156 0.029767 0.101388 0.057552 0.080626 0.152939 -0.083352 -0.076076 -0.084385 0.156358 -0.044582 0.167407 0.029599 0.132764 -0.03728 0.073506 -0.014861 0.052037 -0.076418 -0.089163 0.228415 0.318609 0.066132 0.005509 -0.032682 -0.00382 -0.016399 -0.058585 -0.024031 -0.008594 0.040908 0.014636 -0.064792 -0.106379 0.011682 0.03555 0.205228 0.031159 -0.309312 -0.114313 -0.068475 0.177 0.000923 0.069832 0.030743 0.093768 0.023902 -0.00139 0.121833 -0.014197 0.008928 0.394581 -0.04506 0.031578 0.170518 -0.034273 0.015767 0.035593 0.04658 -0.236192 -0.003772 -0.03713 -0.072705 0.03235 0.159306 0.006581 0.084057 -0.085601 -0.047614 0.038559 0.040774 0.007216 -0.141315
  -0.01386 -0.02199 0.012545 0.162475 0.049826 -0.064515 -0.020859 -0.085072 -0.05684 0.32232 -0.020158 0.116317 0.065923 0.007347 0.219133 -0.016936 0.133348 0.057946 0.215654 0.058261 0.026906 0.058217 0.038796 -0.064351 0.057136 0.107673 0.108926 0.03032 -0.139098 0.084615 -0.080893 -0.018516 -0.012159 -0.134951 -0.031585 0.003806 -0.03053 -0.28979 0.151613 0.063191 0.073179 -0.127401 0.013828 0.073018 0.166446 -0.037426 0.108557 0.011933 0.131741 0.028545 0.132863 -0.220443 0.137666 0.124994 -0.054613 0.192921 0.15007 -0.035052 0.002754 -0.026219 0.006989 -0.244389 -0.101729 -0.030028 0.278907 -0.090467 0.017938 -0.006803 0.05088 -0.073031 -0.090521 -0.063995 0.217073 -0.221788 -0.085557 -0.04607 0.007896 0.085508 0.012412 -0.029246 0.019764 -0.05461 0.003517 -0.024113 -0.027632 -0.275615 -0.348948 -0.121836 0.010318 0.037706 -0.032062 0.176075 -0.005874 0.02496 0.048934 -0.089219 0.130325 -0.07881 0.190089 -0.007256 -0.056639 -0.129319 0.011883 0.194148 -0.046751 -0.082286 -0.074361 -0.045372 0.006858 -0.019728 0.016456 0.011239 -0.029407 0.245974 0.080076 -0.005017 0.170174 0.054037 0.015707 0.038835 0.022584 -0.014838 0.050506 -0.01472 -0.031428 0.184929 0.155246 -0.191432 0.012503 0.019157 -0.273452 0.085681 -0.547824 -0.078733 -0.011297 0.096365 -0.045847 -0.004401 -0.003997 -0.007898 -0.234144 -0.019666 -0.023189 -0.022256 0.027678 -0.117105 -0.008 0.279135 -0.112526 -9.6e-05 0.005768 0.408774 -0.263334 -0.068872 -0.337674 -0.049815 0.111574 -0.014117 0.12255 -0.022782 -0.174806 -0.061778 -0.067758 -0.114569 0.298922 0.094324 -0.029448 -0.070274 0.144467 -0.343136 -0.004232 0.012628 -0.048434 0.013787 0.025904 -0.052615 -0.011268 -0.047497 -0.187984 0.013496 0.034991 -0.161604 -0.026379 0.115703 0.043872 0.075846 0.17169 -0.017665 -0.057062 -0.016298 0.108471 -0.112237 -0.013315 -0.024139 -0.086305 -0.022851 0.063573 0.006892 0.032314 0.389887
  -0.030489 0.073217 -0.030619 0.046946 0.008843 -0.30448 0.013808 0.189947 -0.036936 0.072379 -0.025468 0.121127 -0.291317 -0.151857 0.100518 0.030487 0.166518 -0.005517 0.379018 -0.005146 -0.003952 0.157077 -0.035803 -0.057936 0.003062 0.144776 0.203098 -0.059895 -0.00749 0.057759 0.131431 -0.059845 -0.015503 -0.013175 -0.011381 0.055654 -0.062046 0.153062 -0.085032 0.177237 -0.06669 0.162661 -0.000163 0.095504 0.346121 0.022947 0.001783 -0.063939 -0.24891 0.004147 0.10938 -0.034247 0.001453 0.156308 -0.064181 0.127568 -0.190326 0.010632 0.03218 0.014248 0.132447 -0.175237 0.028341 0.001437 -0.005936 0.086832 -0.098158 0.011088 0.164657 -0.092577 0.107142 0.002467 0.30617 0.107565 0.137038 0.079521 0.006824 0.174266 0.053943 -0.028879 0.034354 0.138937 0.235351 -0.015067 0.14492 -0.353262 0.146466 0.187567 -0.022663 0.007622 -0.053614 -0.045724 -0.050973 0.051904 -0.002208 0.023845 -0.038505 -0.016057 -0.018315 0.198647 -0.035512 -0.270612 0.012403 -0.436955 0.207518 0.113441 -0.033706 -0.229422 0.061307 -0.023903 -0.019467 -0.026627 -0.045569 -0.105966 -0.021741 -0.023738 0.196675 0.008898 -0.005694 -0.057336 -0.036624 0.003907 0.264842 -0.022652 -0.077941 -0.135774 0.006725 -0.265115 0.073671 0.035929 0.252793 -0.071894 -0.465021 0.027207 0.015687 0.193644 1e-05 -0.001565 -0.039836 0.002087 -0.031645 -0.018398 -0.022625 -0.027234 0.018423 -0.390387 -0.012457 0.101106 0.347191 0.012569 -0.012878 0.097492 0.125161 -0.067576 0.130254 -0.007845 -0.181157 0.049936 -0.182509 -0.020314 -0.032854 0.035828 -0.040194 -0.108065 0.252865 -0.100131 0.01719 0.027658 -0.444396 -0.097988 0.035068 0.04993 -0.219667 0.002377 -0.196105 0.174379 -0.032883 -0.023181 0.102104 -3.6e-05 -0.042854 0.233857 -0.01995 0.121098 -0.021635 -0.103576 -0.209805 -0.021847 -0.019402 -0.102323 -0.137996 -0.036833 0.017283 -0.002661 -0.039497 0.057227 0.021822 0.015233 0.082692 0.120524
  0.085922 0.012934 0.046091 0.016579 0.083892 -0.010097 -0.047733 0.053561 0.196857 0.053769 -0.06401 0.028177 -0.03418 0.05197 0.022681 -0.057377 -0.040575 0.038297 -0.03376 0.086559 0.101222 0.014516 -0.065336 0.027627 -0.003098 0.017497 -0.018262 -0.025253 -0.10203 -0.02981 0.018645 0.076753 -0.042196 -0.182216 0.101589 0.035854 -0.008314 -0.004309 0.015309 -0.115719 -0.10055 0.049303 -0.03971 -0.043378 0.061047 0.037714 -0.084011 0.002931 -0.063703 -0.068738 0.023943 -0.003892 0.019362 0.030726 -0.024242 -0.009051 0.055425 -0.008133 0.018373 0.074113 0.02676 0.025275 0.018476 -0.063332 0.052081 0.006835 0.021792 0.020555 -0.029626 0.031604 -0.011863 0.101601 0.086425 -0.006212 -0.015126 -0.085585 0.072969 -0.004018 -0.007642 -0.006928 0.054094 0.024246 0.050893 -0.077374 0.014314 -0.014611 0.030309 -0.023429 0.029465 -0.004087 -0.008132 0.008119 0.040501 -0.021998 -0.019466 0.082426 -0.069064 -0.014003 -0.026281 -0.024553 0.024257 0.013118 0.016153 0.082096 -0.002214 0.038815 0.055336 -0.034524 -0.088478 -0.055276 -0.064812 -0.078758 0.065071 -0.034655 -0.044247 0.086105 0.048556 -0.015147 -0.032736 -0.214595 0.094119 -0.030445 -0.022058 0.027523 0.026277 -0.004027 0.008876 0.010554 0.035947 -0.036782 -0.116721 0.030384 -0.005064 -0.0682 -0.00041 0.022762 -0.011527 0.050012 0.05105 0.06037 -0.010977 0.147349 0.05321 0.024119 -0.038232 -0.003691 0.073582 0.048409 -0.016891 -0.026142 0.043687 0.044757 -0.093921 -0.037746 0.001763 -0.070718 -0.016961 -0.086662 0.047326 0.078233 0.012812 -0.04923 0.052131 -0.058891 0.04459 1.8e-05 0.002617 -6.9e-05 -0.005908 -0.027748 -0.029794 -0.068687 0.011546 -0.01424 -0.008073 -0.015639 -0.026688 0.035133 -0.029934 0.116982 0.109589 0.010685 -0.106978 0.033738 0.046162 -0.022258 -0.041508 0.002146 0.013167 0.019159 -0.020165 0.035057 -0.019145 0.086356 0.043239 0.061839 0.047008 -0.017136 0.059547 0.044456
  -0.003305 0.029814 -0.001144 -0.007022 0.006307 0.002511 0.053376 0.102684 -0.151937 0.022471 0.023269 0.003041 -0.011878 -0.000113 0.020944 -0.027855 -0.069397 0.101973 0.079043 -0.12656 -0.099618 0.020651 -0.129429 0.023885 0.043837 0.022925 0.043522 -0.008895 0.070896 0.01737 0.048997 0.048297 0.041487 -0.019778 0.032984 0.091974 0.004524 -0.035575 -0.001839 -0.067651 0.053141 0.008205 0.079665 -0.091324 0.013811 0.082225 -0.038844 -0.072031 -0.093565 -0.022712 0.002831 -0.001859 0.030136 0.01694 -0.012072 0.046119 0.020193 0.047069 -0.003681 -0.037365 -0.001804 0.001863 -0.040558 0.010301 -0.067131 -0.046259 0.046195 0.001754 -0.004879 -0.010437 -0.002697 -0.086017 0.098246 0.002721 0.021448 -0.061376 -0.077214 0.010446 0.020675 -0.03633 0.151682 0.021533 -0.114105 -0.012015 0.005809 -0.009842 0.018763 -0.040551 -0.029041 0.035953 -0.090803 -0.039329 0.001285 -0.009339 0.068702 0.019717 -0.036092 -0.031281 -0.08644 -0.065007 -0.039765 0.035394 0.030433 -0.06964 0.000215 0.014209 0.04332 0.018387 -0.050346 0.05141 0.042855 0.083317 -0.031981 -0.039309 0.087879 -0.007972 0.035724 -0.055819 0.000422 0.130677 0.053296 0.070761 -0.057565 0.019424 0.065452 -0.055403 0.025839 0.05049 -0.012497 0.127043 0.082331 0.009069 0.039482 0.05049 -0.088773 -0.070681 -0.016848 -0.055987 0.040127 -0.048639 0.052132 0.038181 0.072177 0.055533 0.051052 0.053562 0.078113 0.086066 -0.021609 -0.026053 0.019113 -0.077936 0.031348 -0.050902 -0.035351 0.036012 -0.022257 0.013464 0.051512 0.061547 0.139066 -0.046162 -0.053012 -0.062372 0.045556 -0.008624 -0.068744 0.042921 -0.042053 0.003154 0.051498 0.07223 -0.014944 0.006087 -0.037377 -0.024567 -0.052227 -0.046894 -0.057045 0.094012 0.062029 -0.089576 0.004125 -0.00118 -0.027413 0.026565 0.092996 -0.114708 -0.004726 -0.132432 -0.052793 0.035671 -0.00082 0.051469 0.011114 -0.033045 -0.025614 0.032127 -0.043224 0.005072
  -0.010641 0.035933 -0.005755 0.016742 0.032553 -0.012108 0.027263 0.049531 -0.086847 -0.046544 -0.027438 0.035164 -0.041524 0.026318 -0.039688 -0.042456 0.008681 0.080811 -0.064293 0.084411 -0.012955 -0.057979 -0.067764 0.024257 0.014849 -0.125903 -0.020499 -0.008635 -0.04224 0.175903 -0.032414 -0.017705 -0.010907 -0.054317 -0.04547 -0.015174 0.002025 -0.026597 0.010402 -0.042236 0.029638 0.018918 0.033559 -0.035599 0.021933 -0.000879 -0.050727 0.019664 0.027013 -0.049414 -0.078173 0.001952 0.043619 -0.020312 0.043234 0.029577 -0.077698 -0.066719 0.008386 0.008804 0.035204 -0.057644 -0.05057 0.075046 -0.104485 -0.046857 0.007164 -0.016311 -0.004905 -0.070111 -0.010629 -0.012636 -0.0569 -0.062696 0.026244 -0.075282 -0.087838 -0.081345 -0.008197 0.075836 -0.07691 -0.0351 -0.12025 -0.00848 0.034471 0.019956 0.082456 -0.042253 0.069299 0.022791 -0.004576 -0.070284 -0.027915 0.001221 -0.021596 -0.030867 -0.165563 0.041183 -0.155507 0.018273 -0.008665 0.015113 0.049473 -0.013202 -0.030502 -0.066002 0.168353 -0.031241 -0.095822 -0.067054 0.017378 -0.112804 -0.009074 -0.091056 0.078343 0.022474 0.062674 -0.048166 -0.043927 0.009325 0.042914 -0.109694 -0.052305 0.097433 0.034914 0.046832 -0.032893 -0.032221 0.011832 -0.060276 -0.000792 -0.002569 0.00762 0.035636 0.01058 -0.026429 0.011545 0.01737 0.067597 -0.000428 -0.004326 -0.117133 0.006882 0.009717 0.03368 0.084772 -0.099295 0.039547 -0.031094 0.061129 -5.2e-05 -0.084667 -0.038372 0.082857 -0.037964 0.044811 -0.013445 0.029335 0.035376 -0.01923 0.004745 0.069488 0.034844 0.043123 -0.049431 -0.036288 0.081061 -0.002744 0.041384 -0.023325 0.034893 0.038059 -0.006998 0.049469 0.001895 -0.041536 -0.012749 0.013064 -0.023753 0.010708 0.041565 0.025606 -0.038431 0.013309 0.046724 0.002175 0.059154 -0.081875 0.059026 0.014694 0.004417 0.01552 -0.036346 0.05718 -0.000961 -0.101985 0.011489 0.016267 0.078793 -0.034377
  -0.057114 0.015654 -0.122858 -0.010573 0.050495 0.012659 0.051331 -0.131295 -0.011129 0.034524 -0.056303 -0.019271 -0.046779 0.010647 -0.023572 -0.02863 -0.036858 -0.015806 -0.018771 -0.08319 -0.034953 0.048984 0.131672 0.00988 -0.048985 -0.007737 0.008044 0.03145 -0.078193 -0.038962 0.007874 0.02742 0.05753 -0.01882 -0.052724 -0.047094 0.080395 0.006457 0.011231 -0.081585 -0.059395 0.024454 0.066011 -0.111249 0.076884 -0.038085 -0.029942 0.040063 0.026782 -0.090352 0.009188 0.01577 0.058958 -0.009154 0.037362 -0.0623 -0.047991 -0.070043 0.016092 0.02104 0.0163 0.068478 0.036997 -0.031155 -0.033277 -0.066072 0.008428 0.032023 -0.021696 -0.034212 -0.030451 -0.027693 -0.040121 0.025533 0.049448 -0.096487 0.019977 -0.025008 -0.015946 -0.005781 -0.036229 0.001833 -0.077253 0.03878 -0.003214 0.023467 0.00237 -0.02602 -0.086654 0.044603 -0.025816 -0.013378 -0.012141 -0.052283 -0.038427 0.00433 -0.014929 0.083747 0.059772 -0.012525 -0.037015 -0.030656 0.058165 -0.000966 0.03957 0.020328 0.008445 0.029031 -0.06706 -0.038432 0.038553 -0.038481 0.015856 -0.079066 0.002594 0.058798 0.00118 0.089162 0.01511 0.181968 0.03653 -0.010669 -0.0841 0.006811 0.043531 -0.0379 -0.004623 0.038392 -0.007866 0.08626 -0.039616 -0.003629 0.03266 0.019557 0.055937 0.033148 0.032607 0.066354 0.037989 0.015865 0.004035 0.035824 -0.03953 0.015938 -0.037972 -0.071117 -0.059742 -0.029594 0.017241 0.033354 0.009457 0.107405 -0.00491 0.115027 0.018348 0.050241 0.022783 0.057026 0.052579 -0.088122 -0.064485 0.001555 -0.023461 -0.012412 -0.064621 -0.019102 -0.026884 0.099962 0.015839 0.039635 0.123944 0.081865 -0.00484 0.050204 -0.023627 -0.066604 -0.104776 0.025422 0.064469 -0.052876 -0.00558 0.03742 0.055955 -0.001813 0.054952 -0.007005 0.032374 0.150142 0.069236 -0.005034 0.008114 0.031928 0.017872 -0.201576 -0.076054 -0.006869 0.080659 -0.025523 0.027097 -0.087889
  -0.003808 -0.052021 0.032682 0.023076 6e-04 -0.050097 -0.045881 0.068904 0.078945 0.074586 -0.04889 0.038018 0.007197 -0.007721 -0.000946 -0.012227 -0.005619 -0.014667 -0.034525 0.015686 -0.100858 0.013698 -0.020537 -0.015354 0.008169 -0.006281 -0.073237 -0.007102 0.056839 0.109089 0.010117 -0.010672 -0.025285 -0.006375 0.099786 -0.074569 -0.0458 0.022251 0.034924 -0.077258 0.006486 -0.001213 -0.025261 -0.045093 0.027916 0.0073 0.016922 0.030583 -0.065053 -0.005566 0.005148 -0.013353 0.028132 0.034157 -0.030607 -0.04674 -0.012703 0.015424 0.029853 0.064499 0.026607 0.013706 -0.020878 -0.110802 0.03887 0.009465 -0.017541 -0.032782 0.012646 0.023555 -0.02584 0.039344 0.021043 -0.085162 -0.004671 -0.143708 -0.083472 0.007802 -0.044114 -0.017215 0.103567 0.023424 -0.101565 0.049441 0.00744 -0.028041 0.032987 -0.027567 0.118862 0.003856 0.041792 -0.098204 0.058965 0.000177 0.04072 -0.017224 -0.09051 -0.00144 0.034868 -0.038438 -0.033729 -0.00067 0.089251 -0.055925 -0.056467 -0.033362 -0.011368 -0.084421 0.004149 -0.055001 0.060237 -0.065054 0.079737 0.023106 0.006201 0.013672 -0.043921 0.032401 -0.009661 -0.133238 0.064914 -0.014134 -0.107438 0.024614 -0.011468 0.042631 -0.019797 -0.046285 -0.022243 0.051502 -0.032973 -0.023309 0.028501 -0.026726 0.043845 0.005605 0.007364 0.074099 0.062439 0.063819 0.038594 0.088222 -0.079939 -0.006493 -0.004608 -0.054189 -0.021811 0.087867 0.00322 0.015929 -0.024895 0.139871 -0.032878 -0.188876 -0.081608 -0.062048 -0.006221 -0.010482 0.043692 0.008252 0.10992 0.00925 -0.03128 -0.036793 -0.053115 -0.001188 0.075131 0.075165 0.083071 0.013746 0.024409 -0.002802 -0.022794 0.038003 0.029557 0.012096 0.092066 -0.016296 -0.006857 -0.017005 0.0683 0.055862 0.035465 0.052552 0.059479 0.020799 -0.114709 0.045504 0.005711 0.020148 -0.003183 -0.040269 0.000465 0.010771 0.0159 0.060581 0.074668 -0.016172 0.077192 -0.082962
  0.056397 -0.003028 -0.122169 -0.016686 0.022478 -0.012099 0.049486 -0.131341 0.140128 -0.048667 0.059027 0.125638 0.03594 -0.001592 0.002879 -0.023104 0.04908 0.026783 0.124742 -0.088106 0.124253 0.029803 0.120952 -0.07427 0.04571 -0.119081 -0.03328 0.033584 -0.085728 0.112813 0.053631 0.06497 -0.099973 -0.257011 -0.002257 -0.006353 0.013166 0.052798 0.103662 0.107795 0.017119 -0.103751 0.00878 0.005219 0.030072 -0.043049 0.017536 0.145559 -0.022161 -0.046411 -0.021441 -0.068662 0.067648 -0.002832 0.14781 -0.035757 -0.056724 -0.04929 0.002913 -0.123537 0.013338 -0.079274 -0.032715 0.065417 0.03923 -0.02195 -0.055917 0.006077 0.010346 0.076507 -0.015327 0.067719 -0.122874 -0.031183 0.016131 -0.013456 0.035068 0.047634 0.040721 0.002997 -0.021979 0.031199 0.0304 0.06226 0.037927 0.032192 0.064162 -0.053441 -0.168714 -0.032149 0.042302 -0.157043 0.065814 0.030845 0.046678 -0.053801 0.040355 -0.014586 -0.056397 -0.00143 0.028438 -0.034512 -0.017865 -0.100636 -0.015336 -0.077586 0.091369 0.00785 -0.15382 0.104798 0.011897 -0.054553 -0.003967 0.050185 0.046339 0.067419 0.039594 0.082913 -0.043364 -0.042396 0.021308 0.003869 -0.194295 0.014987 0.115744 0.0838 0.057523 -0.016647 0.007656 -0.042906 -0.022657 -0.038391 0.08198 0.134279 0.143547 0.034189 0.089814 0.173913 0.008842 0.011724 -0.001504 0.018822 0.020285 -0.028439 -0.017293 -0.124113 0.065302 0.04457 -0.102943 -0.013537 0.060804 0.038557 0.045486 0.055477 0.010072 0.056928 -0.054237 -0.004081 0.000535 -0.039918 -0.02315 0.054505 0.108144 -0.098348 -0.081317 0.006303 0.001224 0.049053 -0.032459 -0.026679 0.026121 -0.223396 -0.092416 0.019448 -0.001724 -0.028919 0.055614 -0.015654 0.019334 -0.076064 0.016422 0.110097 -0.055057 0.032161 -0.084155 0.121851 0.014013 -0.10053 -0.089798 -0.029185 -0.041654 -0.006548 0.005877 0.137586 0.019021 -0.090829 0.055448 0.011908 0.017182 -0.014932
  0.067753 -0.051703 0.13874 -0.036251 -0.04467 -0.002737 0.05146 -0.003526 -0.11775 0.074065 0.097301 0.059843 -0.022162 0.062967 0.013137 0.11308 -0.038895 0.0479 -0.063257 0.117181 0.127549 -0.064388 0.228177 0.059765 -0.005922 0.019032 -0.057516 -0.016821 0.192931 0.091557 0.034537 0.027483 0.011513 0.061797 0.066465 0.049948 0.180368 0.049077 -0.023479 -0.110574 -0.048737 -0.08697 0.057286 -0.09341 0.023831 0.066326 -0.063974 0.030699 -0.026828 0.076513 -0.010518 -0.0142 -0.025241 0.020956 -0.073251 -0.085365 -0.05243 0.058689 0.041216 -0.00464 -0.002461 0.006944 -0.107754 0.046137 0.004213 0.001286 0.084169 0.059752 -0.017877 -0.008712 0.011621 0.128058 -0.003362 -0.079666 -0.051626 0.108045 0.009871 0.064333 0.023135 0.168794 -0.005356 0.006354 -0.016792 -0.053877 -0.015734 -0.005249 0.045006 0.02402 -0.161634 0.054804 -0.080417 0.032885 -0.02432 -0.017213 -0.018171 0.065806 0.109453 0.115572 -0.047042 0.008813 0.128011 -0.03945 -0.138321 -0.027589 -0.097032 -0.038362 0.119272 -0.138477 -0.021819 0.046735 -0.0157 0.068987 0.036138 -0.091372 -0.075693 0.03175 -0.016864 0.060981 0.133952 0.12586 -0.081548 -0.057485 -0.018618 0.024677 0.012282 -0.076701 -0.016453 -0.034134 -0.01348 -0.093754 -0.089082 0.050727 -0.006692 0.107251 -0.28932 -0.061369 -0.075048 -0.361727 0.01454 -0.272604 -0.033836 0.043241 0.100137 0.12655 0.099067 -0.063397 -0.162463 0.076711 -0.005043 -0.143277 -0.08022 0.025984 -0.044242 0.05405 -0.1742 0.107039 -0.085172 0.030901 -0.086 -0.004026 0.066743 0.070254 -0.060861 -0.090772 -0.058566 -0.012669 -0.093504 -0.036421 0.049274 -0.017689 0.130305 0.09543 0.014629 -0.020504 0.020443 0.019689 0.009835 0.053442 0.008204 -0.134772 -0.105143 0.033255 0.05541 -0.024991 0.061844 0.042898 -0.040973 0.117638 0.097248 0.006365 0.052 -0.09912 0.010451 -0.046291 0.001953 -0.032675 -0.115893 -0.102352 0.064718 0.011833
  0.096932 0.022356 -0.176801 0.023506 0.025152 -0.026172 0.103071 0.068149 -0.189766 -0.005796 0.041534 -0.011222 -0.014455 0.019384 -0.031684 0.045518 -0.022745 -0.036032 -0.119599 0.110566 0.166694 -0.123716 -0.172924 0.097434 -0.007297 0.00862 -0.06052 -0.02172 -0.090982 -0.242092 0.009319 0.155643 0.016901 0.122365 0.097708 0.045819 -0.048798 -0.030397 -0.095483 -0.127126 -0.00437 -0.026583 -0.001798 -0.076103 0.071984 0.009773 -0.109658 -0.108509 -0.062068 0.076634 -0.022078 -0.008167 0.010802 -0.015923 0.007585 -0.085495 -0.019276 0.100096 0.080652 0.056686 0.040116 0.002697 -0.062536 0.098457 0.013595 -0.023761 0.096717 0.054256 -0.020158 -0.050186 -0.002302 0.042201 0.008002 -0.045744 -0.01681 -0.118107 0.047281 -0.007183 -0.008199 -0.107796 -0.125426 0.032092 -0.066193 -0.133915 -0.031784 0.01978 -0.018725 0.024755 0.125843 0.096098 -0.050101 -0.017196 0.142162 -0.061519 0.051015 0.121574 0.218281 0.053033 -0.096373 0.001864 0.078646 -0.00636 0.064296 0.001814 -0.043485 0.001805 0.069633 -0.146202 0.077356 0.101619 -0.045375 -0.055382 -0.11625 0.005882 -0.116614 0.002256 0.042506 0.069748 -0.009477 -0.090485 -0.071913 0.024605 -0.043228 0.017598 -0.106385 -0.05539 0.01989 0.011215 0.031252 -0.007212 -0.133429 -0.007003 -0.00469 -0.107314 -0.095099 -0.01128 -0.10943 -0.101151 -0.003641 0.008541 0.00172 -0.125447 -0.213894 -0.05762 -0.03223 -0.009033 0.068676 0.040423 -0.002158 -0.077333 0.032356 -0.039657 0.004144 0.116944 -0.073234 -0.082382 -0.050131 0.078926 -0.023899 0.095717 0.022714 -0.004856 -0.033102 -0.078748 -0.028545 -0.045899 -0.080249 0.032234 0.041774 0.001851 0.050692 0.100671 0.007286 -0.097089 0.008936 -0.010562 -0.001096 0.026766 0.011789 0.149137 0.023389 0.064967 0.035533 -0.007125 -0.186766 -0.046125 -0.111012 0.104661 -0.066111 0.11636 0.018271 -0.031175 0.041646 0.001678 0.042099 -0.054284 -0.065753 0.096453 0.088865 -0.031452
