PWM_range 0 100
pepL_range 12 21
P1_range -6 6
log_min 1e-04

nn_in_var 270 P1_-1 P1_-2 P1_-3 P1_-4 P1_-5 P1_-6 P1_0 P1_1 P1_2 P1_3 P1_4 P1_5 P1_6 PWM_log AA_-_1 AA_-_10 AA_-_11 AA_-_12 AA_-_2 AA_-_3 AA_A_1 AA_A_10 AA_A_11 AA_A_12 AA_A_2 AA_A_3 AA_A_4 AA_A_5 AA_A_6 AA_A_7 AA_A_8 AA_A_9 AA_C_1 AA_C_10 AA_C_11 AA_C_12 AA_C_2 AA_C_3 AA_C_4 AA_C_5 AA_C_6 AA_C_7 AA_C_8 AA_C_9 AA_D_1 AA_D_10 AA_D_11 AA_D_12 AA_D_2 AA_D_3 AA_D_4 AA_D_5 AA_D_6 AA_D_7 AA_D_8 AA_D_9 AA_E_1 AA_E_10 AA_E_11 AA_E_12 AA_E_2 AA_E_3 AA_E_4 AA_E_5 AA_E_6 AA_E_7 AA_E_8 AA_E_9 AA_F_1 AA_F_10 AA_F_11 AA_F_12 AA_F_2 AA_F_3 AA_F_4 AA_F_5 AA_F_6 AA_F_7 AA_F_8 AA_F_9 AA_G_1 AA_G_10 AA_G_11 AA_G_12 AA_G_2 AA_G_3 AA_G_4 AA_G_5 AA_G_6 AA_G_7 AA_G_8 AA_G_9 AA_H_1 AA_H_10 AA_H_11 AA_H_12 AA_H_2 AA_H_3 AA_H_4 AA_H_5 AA_H_6 AA_H_7 AA_H_8 AA_H_9 AA_I_1 AA_I_10 AA_I_11 AA_I_12 AA_I_2 AA_I_3 AA_I_4 AA_I_5 AA_I_6 AA_I_7 AA_I_8 AA_I_9 AA_K_1 AA_K_10 AA_K_11 AA_K_12 AA_K_2 AA_K_3 AA_K_4 AA_K_5 AA_K_6 AA_K_7 AA_K_8 AA_K_9 AA_L_1 AA_L_10 AA_L_11 AA_L_12 AA_L_2 AA_L_3 AA_L_4 AA_L_5 AA_L_6 AA_L_7 AA_L_8 AA_L_9 AA_M_1 AA_M_10 AA_M_11 AA_M_12 AA_M_2 AA_M_3 AA_M_4 AA_M_5 AA_M_6 AA_M_7 AA_M_8 AA_M_9 AA_N_1 AA_N_10 AA_N_11 AA_N_12 AA_N_2 AA_N_3 AA_N_4 AA_N_5 AA_N_6 AA_N_7 AA_N_8 AA_N_9 AA_P_1 AA_P_10 AA_P_11 AA_P_12 AA_P_2 AA_P_3 AA_P_4 AA_P_5 AA_P_6 AA_P_7 AA_P_8 AA_P_9 AA_Q_1 AA_Q_10 AA_Q_11 AA_Q_12 AA_Q_2 AA_Q_3 AA_Q_4 AA_Q_5 AA_Q_6 AA_Q_7 AA_Q_8 AA_Q_9 AA_R_1 AA_R_10 AA_R_11 AA_R_12 AA_R_2 AA_R_3 AA_R_4 AA_R_5 AA_R_6 AA_R_7 AA_R_8 AA_R_9 AA_S_1 AA_S_10 AA_S_11 AA_S_12 AA_S_2 AA_S_3 AA_S_4 AA_S_5 AA_S_6 AA_S_7 AA_S_8 AA_S_9 AA_T_1 AA_T_10 AA_T_11 AA_T_12 AA_T_2 AA_T_3 AA_T_4 AA_T_5 AA_T_6 AA_T_7 AA_T_8 AA_T_9 AA_V_1 AA_V_10 AA_V_11 AA_V_12 AA_V_2 AA_V_3 AA_V_4 AA_V_5 AA_V_6 AA_V_7 AA_V_8 AA_V_9 AA_W_1 AA_W_10 AA_W_11 AA_W_12 AA_W_2 AA_W_3 AA_W_4 AA_W_5 AA_W_6 AA_W_7 AA_W_8 AA_W_9 AA_Y_1 AA_Y_10 AA_Y_11 AA_Y_12 AA_Y_2 AA_Y_3 AA_Y_4 AA_Y_5 AA_Y_6 AA_Y_7 AA_Y_8 AA_Y_9 pepL_12 pepL_13 pepL_14 pepL_15 pepL_16 pepL_17 pepL_18 pepL_19 pepL_20 pepL_21


N_layers 2

 nnetsWeights  270   200
  0.022296 0.004749 0.032857 -0.021066 -0.026726 -0.037852 -0.024863 -0.090459 0.09276 0.126178 -0.127344 0.065109 0.039543 0.093626 0.015955 0.046854 0.042495 0.080827 -0.258333 -0.007292 0.019278 0.245912 0.037217 -0.062037 0.037438 -0.065787 0.048087 -0.126444 0.060412 -0.07547 -0.046839 -0.099806 -0.153621 -0.070756 -0.0772 0.039376 0.046272 0.087706 0.052668 -0.026017 0.132855 0.10138 -0.004393 -0.130929 0.019596 0.001861 -0.009312 -0.011012 0.103815 0.015116 -0.009047 -0.127118 -0.095503 -0.001552 0.024612 -0.00512 -0.100302 0.009862 0.242585 -0.12008 0.086244 -0.011643 -0.123162 -0.034367 -0.014002 -0.032136 -0.023067 -0.05019 0.158407 -0.180079 -0.037542 -0.127313 0.099254 0.026998 0.110177 0.021589 -0.049236 -0.117605 0.056922 0.070206 0.018912 0.002454 -0.108884 -0.055618 -0.017471 -0.036857 -0.009325 0.03693 0.050751 -0.044971 0.044241 0.067341 -0.042393 0.028037 0.057012 -0.007559 0.009183 -0.1032 -0.035713 0.076717 -0.060409 0.079739 0.025846 0.047381 -0.095438 0.001972 0.039084 -0.17173 -0.018545 0.024211 -0.052337 0.000805 -0.045848 -0.104314 0.079144 -0.052908 -0.052309 -0.323633 -0.225593 0.11911 0.127067 -0.051006 -0.016318 0.07165 0.031378 -0.066733 -0.12223 -0.012416 -0.098179 0.014462 -0.036858 0.051277 -0.098214 0.011366 0.094045 0.01628 0.10444 0.000528 -0.022315 -0.071445 0.07542 -0.008537 0.010703 0.000261 0.071545 -0.240857 0.041985 0.065318 0.027033 -0.011436 0.106173 -0.02744 0.000479 -0.056243 -0.124852 0.045714 0.061484 -0.024582 0.048038 0.220646 0.08735 0.143392 -0.06769 -0.132209 0.064538 -0.026584 0.091857 -0.13236 -0.013621 0.020554 -0.016196 0.015597 0.065292 -0.050539 0.180785 0.030591 0.266974 0.08493 -0.010952 0.200299 0.015537 -0.120343 0.090278 0.039796 0.064038 0.133432 -0.091945 0.078829 0.030089 -0.164747 -0.080735 -0.16224 0.052235 0.131847 -0.005068 0.105332 -0.03207 -0.027279 0.001148 0.07069
  0.011124 -0.210938 0.19201 -0.016818 0.00756 -0.183893 -0.011823 -0.073468 -0.100308 -0.328385 -0.133285 -0.06699 -0.048381 -0.052863 0.10307 0.006961 0.008798 -0.084093 -0.068644 -0.172237 0.084747 0.31292 -0.219042 0.062096 -0.077152 -0.026595 -0.010711 -0.023734 0.081242 -0.17691 -0.060667 0.000671 -0.012737 -0.061219 -0.241866 0.078671 -0.003307 -0.084617 -0.011584 -0.149728 0.078253 0.048722 -0.075471 -0.127947 -0.019013 0.148466 0.008365 -0.0356 -0.081522 -0.194184 0.045763 -0.113182 0.156843 0.051747 0.007769 0.044087 -0.041411 0.010205 0.103047 -0.106655 0.03982 -0.030364 0.04591 0.085155 -0.107708 0.049991 -0.125071 -0.083807 0.259681 -0.020101 0.044163 -0.023469 -0.004062 0.08901 0.113381 -0.011932 -0.233416 -0.017833 0.07188 -0.037923 -0.024312 -0.040354 -0.121418 -0.012046 -0.075215 0.081308 -0.058178 -0.111187 0.041272 -0.198364 0.030592 -0.038582 0.11181 0.065659 0.10666 -0.280393 -0.013108 -0.050543 0.06873 0.025872 -0.10674 0.038717 -0.00067 -0.057629 -0.115584 -0.102171 -0.186083 -0.050498 -0.019779 0.041308 -0.097053 -0.082237 -0.137477 -0.142483 -0.077175 -0.120391 -0.251809 -0.154494 -0.118822 -0.035408 0.095807 -0.009106 0.161798 -0.020981 -0.065742 0.006128 -0.264417 0.024749 0.035555 0.097638 0.007534 0.042067 -0.045806 -0.03255 -0.031344 -0.181711 0.131227 -0.023439 0.025893 0.000985 -0.079235 -0.066242 0.027148 0.032922 -0.138971 -0.043408 -0.01303 -0.00205 0.160114 0.213925 -0.068553 -0.136187 -0.050994 0.038004 0.022521 0.042536 -0.103266 -0.005452 0.026903 0.16398 -0.032306 -0.059901 0.072676 -0.066105 0.027869 -0.089057 -0.013432 -0.001514 -0.069221 -0.038626 -0.024546 -0.010289 0.050586 0.000206 0.190611 0.049813 0.157199 -0.002421 0.007483 0.050143 0.060138 -0.087239 0.172661 0.110757 -0.000866 -0.022403 -0.100841 0.109732 0.04269 -0.136908 -0.049021 -0.165075 0.015446 -0.063565 0.070603 0.105148 0.013742 -0.206948 0.042176 -0.028755
  0.094251 0.069571 0.217366 -0.031173 -0.017857 -0.207667 0.003057 -0.038925 -0.185169 0.059003 -0.043051 -0.098563 -0.072723 0.016249 0.110664 -0.095465 0.022354 -0.028913 -0.101992 -0.214426 -0.058967 -0.058538 -0.139717 0.140443 -0.116691 0.047147 0.009047 0.082975 -0.028152 -0.064612 -0.098875 0.02063 -0.023026 -0.036015 0.012157 0.071876 -0.100504 0.025377 0.097385 -0.036864 0.005292 0.083633 -0.170022 -0.079957 -0.166888 0.143435 0.073694 -0.100202 -0.08351 -0.082412 -0.000869 -0.215935 0.031455 0.119079 0.075282 0.010709 0.026029 0.054783 0.056439 -0.068008 -0.028048 -0.03581 -0.10745 0.103014 -0.072693 -0.056441 -0.060342 -0.082574 0.157177 0.119673 -0.142656 -0.093268 -0.068236 0.019533 -0.034015 0.062509 -0.046557 0.119897 0.090788 0.021353 -0.022092 0.020017 -0.010461 0.042339 -0.092304 -8.5e-05 -0.043135 -0.136955 0.014264 -0.166156 0.038463 -0.051775 0.095733 0.073048 0.098885 -0.121501 -0.013239 -0.142418 0.079735 0.006596 -0.043622 -0.006153 -0.091959 0.110798 -0.326976 0.1198 -0.103173 -0.091003 -0.047605 0.064752 -0.120741 -0.021526 -0.144362 -0.127367 -0.073309 -0.087326 -0.017204 -0.088891 -0.104188 -0.078396 -0.011939 -0.070009 0.043449 -0.033158 0.006195 0.071751 -0.103557 -0.066755 -0.017309 0.108024 0.071551 0.007037 -0.063948 -0.042934 0.0606 -0.103422 0.117983 -0.193748 0.044484 -0.045687 -0.075966 -0.067244 0.043281 -0.017364 -0.193583 -0.054665 0.006544 -0.049005 0.166246 -0.031596 -0.133857 0.009386 -0.027142 -0.00732 0.039307 0.005399 -0.070949 -0.025254 -0.009043 0.216057 0.037096 -0.100676 -0.011447 0.091138 -0.101628 0.08418 0.117126 -0.098741 -0.03309 -0.000888 -0.020087 -0.033408 -0.061943 0.01677 0.024754 -0.012978 0.011813 -0.012517 -0.063672 0.137314 -0.021401 -0.273168 0.029613 0.109348 -0.047825 -0.020321 0.00958 0.058514 0.020346 -0.082603 -0.137067 -0.061356 -0.05144 -0.228228 0.071375 -0.003309 0.040064 0.036855 0.001851 -0.135541
  -0.210725 -0.025328 0.066223 0.107366 0.01224 -0.072381 -0.091432 0.117753 -0.064419 0.114689 -0.000793 -0.06396 0.036513 -0.019872 0.018324 -0.035653 0.070171 -0.01112 -0.051993 -0.106077 -0.003502 -0.148044 -0.036562 0.087038 -0.076034 -0.014748 -0.071469 0.012491 -0.083978 -0.081577 -0.064649 0.000597 -0.14268 -0.021917 -0.093209 -0.002374 0.005292 -0.044495 -0.059687 -0.03877 0.032904 -0.010521 -0.083556 -0.06723 0.073913 -0.062028 0.074821 -0.028105 -0.065011 -0.08739 0.142135 0.023352 -0.051096 0.031043 0.033255 -0.042335 0.00477 0.071191 0.076749 0.085988 0.011207 0.011786 -0.047387 0.112892 0.022834 0.01865 -0.014938 -0.014608 0.112318 0.158762 -0.081542 -0.003042 0.042494 0.072049 0.005147 0.001585 0.033852 0.013717 0.035332 0.058466 -0.051518 -0.000618 0.144817 -0.012571 0.029533 0.055914 0.076045 -0.014328 0.048243 -0.113114 0.054766 -0.054722 0.239442 0.104737 -0.038434 0.071312 -0.038128 -0.120061 0.053443 -0.030757 0.034527 0.037891 0.03945 0.060137 0.040513 0.015805 -0.044858 -0.038095 0.005876 0.045044 -0.021544 -0.023865 -0.019031 -0.100327 -0.02524 0.046949 -0.048631 0.005436 0.00525 -0.086143 0.141253 -0.017831 -0.013903 -0.043008 0.066935 0.029609 -0.000525 -0.008777 -0.066361 0.038522 0.080532 0.07456 0.056163 0.093653 -0.037241 -0.069362 0.032916 -0.141171 0.132155 -0.108415 -0.084965 -0.00594 -0.028666 -0.00098 -0.157003 -0.080183 -0.018397 -0.054596 0.040486 0.023127 -0.118335 0.042288 -0.081713 0.021208 0.091681 -0.019299 -0.006495 -0.121211 -0.044992 0.073691 0.05965 -0.074309 -0.007891 0.001034 -0.007436 -0.050278 0.192237 -0.017347 -0.056331 0.095889 -0.02122 -0.055436 -0.111058 -0.094209 -0.014063 -0.07273 -0.036474 0.014607 -0.088532 0.017566 -0.078386 -0.02711 0.019651 0.025439 -0.101839 -0.007242 -0.010942 -0.096891 0.047305 0.023724 0.017586 0.029511 -0.143671 -0.056015 0.093213 0.047739 0.073459 -0.051101 0.054619 -0.127988
  0.108594 -0.0613 0.101168 0.042648 -0.015151 -0.120955 0.029705 0.042028 0.062507 -0.030329 -0.02093 0.032636 0.02719 0.051191 -0.005696 0.009796 0.051942 0.037504 0.009531 -0.082661 -0.023128 -0.056828 0.040584 0.027285 -0.02528 0.002517 -0.00656 -0.074427 0.067664 0.002903 -0.07008 -0.055853 0.037792 0.010328 0.00667 0.027583 -0.034602 0.005824 -0.014535 -0.050352 0.014517 -0.036819 -0.036143 -0.018272 0.025459 -0.002093 0.027934 -0.004169 0.006886 0.02835 0.039496 -0.050559 0.04035 0.045501 -0.010133 -0.0163 -0.041977 -0.018879 0.060423 0.019693 -0.002627 -0.048381 -0.042283 0.011079 0.075291 -0.051713 0.010848 0.04792 0.038975 0.00992 -0.101058 0.110403 -0.003319 -0.000706 0.041755 0.011103 0.022296 0.034293 0.000529 -0.023846 0.096212 -0.055644 -0.058025 -0.013796 0.013804 -0.011465 -0.065683 0.001111 0.024579 0.077523 -0.000963 -0.037604 0.044572 -0.001438 0.075035 0.026481 -0.042788 0.118939 -0.020592 -0.014347 -0.039924 -0.036199 -0.021226 0.052079 -0.085575 0.054438 0.026754 0.002772 -0.01151 -0.100292 -0.052634 -0.04071 -0.026291 0.078435 -0.020211 -0.008879 0.029354 -0.004785 0.032647 -0.004066 0.017918 -0.099089 0.014158 -0.00917 0.057603 -0.05614 -0.063221 -0.053851 0.009999 0.00558 -0.058251 -0.022812 -0.042091 -0.089153 -0.046014 -0.015514 -0.04395 -0.039972 0.038666 0.073284 -0.045066 0.084276 -0.021656 0.033466 0.057854 0.006015 0.008317 0.055182 -0.043526 -0.055841 -0.068018 0.017377 0.021441 0.009834 0.174351 -0.021716 0.06792 0.00945 0.007082 -0.126499 -0.033329 0.043449 -0.053117 0.077261 -0.041573 -0.002382 0.063448 0.105163 -0.009692 -0.048473 0.048649 0.031056 -0.031111 -0.083082 -0.137035 0.026865 0.056812 0.041041 -0.028805 -0.054614 -0.032187 0.085391 -0.053291 0.119674 -0.030533 -0.000225 -0.019886 0.115132 -0.052824 0.001497 -0.046071 -0.004722 -0.065714 -0.086605 -0.038457 0.026656 0.032187 -0.054921 -0.021673 -0.060079
  0.050289 0.034671 -0.00617 -0.021138 -0.052817 0.066815 -0.015938 0.057144 0.050791 0.017601 -0.058966 0.019595 -0.020079 0.018335 0.050992 0.019056 -0.003153 0.02525 0.019989 0.057928 -0.017995 -0.016673 0.000246 -0.024988 0.029041 0.022413 0.057252 -0.000156 0.037878 -0.003033 -0.003912 -0.003435 0.082057 0.00469 0.09933 0.005541 -0.002037 0.048093 -0.013065 0.056991 0.009635 -0.030813 0.064798 0.03211 0.059632 0.005142 -0.051352 -0.052266 -0.014255 0.041522 0.070492 0.070039 0.003651 -0.003251 -0.000624 0.009145 0.002174 0.006694 0.031216 0.008588 -0.038163 -0.027094 0.010577 -0.012589 0.01096 0.019097 0.004749 0.062832 0.095315 -0.073777 -0.089139 -0.06565 0.017349 -0.048232 -0.002261 0.011467 0.002141 0.003894 -0.001492 -0.011687 0.058107 -0.038197 -0.006798 0.057704 -0.071643 0.003701 0.044752 0.076186 -0.013731 0.005871 0.016573 0.051756 -0.039396 -0.009632 0.027348 0.029647 0.040482 -0.109787 -0.065933 -0.024235 0.026053 -0.034742 0.00842 -0.004419 -0.03849 0.058491 -0.020992 0.061401 2.4e-05 -0.061964 -0.044803 0.010677 0.009433 0.068915 0.001452 0.030151 0.065192 0.077025 0.038069 -1.2e-05 -0.062891 -0.025761 -0.085666 0.032761 0.014459 -0.03615 -0.042074 0.006602 0.0183 -0.00569 0.018308 0.018036 -0.036342 0.080344 -0.032019 0.027786 0.01768 0.194188 0.063524 0.033679 -0.079789 -0.103983 -0.041969 -0.026248 0.089039 0.037477 0.01328 0.075572 0.064894 0.006073 0.060714 -0.077397 -0.01894 0.063489 -0.035411 0.009969 0.009494 0.001858 0.027956 -0.018538 0.031133 0.017798 -0.045745 0.101283 -0.049064 -0.002875 -0.09673 0.115923 0.012691 0.085468 0.014255 -0.014778 0.069616 -0.108715 -0.016315 -0.047515 -0.035495 -9.7e-05 0.000716 0.04891 -0.003545 0.032269 0.032611 0.007653 0.017471 0.005079 -0.001574 -0.009922 0.007883 -0.008051 -0.065252 0.009642 -0.005969 -0.053492 0.020916 -0.026775 -0.01113 -0.06646 0.038287 -0.012256
  0.13773 0.053023 0.002209 0.025383 -0.022269 0.001011 0.066777 -0.05808 0.053645 -0.036464 -0.04447 -0.203337 0.116641 0.103655 0.183877 0.084067 0.023839 -0.063878 -0.063068 0.024731 0.041698 0.194303 -0.237763 -0.016873 -0.002421 -0.016286 -0.111459 -0.079209 0.102554 0.100306 0.132179 0.082657 -0.107414 -0.106848 0.03148 -0.088693 -0.063454 -0.109422 0.044854 0.007062 0.001856 0.00025 0.103094 0.077704 -0.064936 -0.020522 0.007527 0.086138 -0.003839 0.006989 -0.047963 -0.107014 -0.062638 -0.034054 0.009796 -0.080832 0.006328 -0.044428 0.190665 -0.143892 -0.110356 0.031149 -0.143854 0.079498 0.056177 0.104166 0.065649 -0.015497 0.071327 -0.119844 0.01976 0.01079 0.079006 0.045248 0.146535 0.054382 0.067204 -0.10547 -0.003567 0.044923 -0.00075 -0.009628 -0.105774 -0.020579 0.032656 -0.039209 0.000954 -0.276674 0.078696 0.09234 0.097584 0.138105 -0.103912 0.151387 -0.013419 0.040566 0.061178 -0.085537 -0.010526 -0.007054 0.038498 0.026934 -0.063614 -0.078627 0.0238 -0.002394 0.058306 0.031721 0.032707 0.067463 0.035098 0.01949 0.034447 -0.044815 0.021648 0.02054 0.012007 0.045012 0.157905 0.185637 0.011089 0.02653 0.015764 0.073656 0.082226 -0.094467 0.095443 0.062492 0.034598 -0.009882 -0.022431 -0.136571 -0.013393 0.129477 -0.024857 -0.041173 0.147953 0.117934 -0.107759 0.00864 0.013408 0.006596 0.080785 0.057818 0.052948 -0.092294 0.006723 -0.019517 0.042132 0.135774 0.108955 -0.013057 0.132811 0.03766 -0.202045 0.089995 -0.049544 -0.107613 0.034283 -0.062288 -0.140862 0.263224 -0.111954 -0.033459 0.093537 -0.010569 -0.192179 -0.183446 0.115364 0.134213 0.060691 0.076784 0.022612 -0.003535 0.050752 0.06704 0.319597 -0.022078 -0.074627 -0.016547 -0.040907 -0.011372 -0.075273 -0.023105 0.065245 0.003206 -0.023515 -0.019125 0.046162 0.073928 0.001795 0.069869 -0.13377 0.130496 0.009465 0.089701 -0.034426 0.014647 -0.070276 0.2452
  0.061256 0.046934 -0.102902 0.0155 -0.015001 0.044788 0.042077 -0.065723 0.144334 -0.091747 0.020212 -0.010744 0.032581 0.085284 -0.119281 0.063532 0.028004 0.053527 -0.033335 0.094606 0.022549 0.034072 0.152253 -0.060031 0.004096 0.006514 -0.097188 -0.082935 -0.070056 0.127557 -0.002798 0.234864 0.05025 -0.041562 0.035508 0.038979 -0.032446 0.051015 -0.03165 0.036253 -0.022935 0.017758 -0.05617 0.098099 0.008339 -0.096929 -0.041697 0.033985 0.078171 0.06094 -0.076866 -0.039517 0.080141 -0.044681 0.013986 -0.060449 -0.008227 -0.047119 -0.064271 0.065761 -0.094766 0.056297 0.083242 -0.005018 0.049072 -0.033309 0.04973 0.007775 -0.055463 0.010447 0.044387 0.000653 0.096084 0.062988 -0.027841 0.054523 0.06299 -0.083423 -0.009388 -0.009061 0.002973 -0.048476 -0.067461 -0.02766 0.118769 -0.035898 0.016485 -0.010669 -0.032946 0.120395 0.081233 -0.050351 -0.097446 -0.027047 -0.027871 0.151317 0.000605 -0.078436 -0.109413 0.030213 0.038505 0.025363 0.040371 -0.049952 0.02888 0.043173 0.086058 0.098838 -0.036816 0.047965 0.076261 -0.002802 0.034212 0.069051 0.076944 -0.053948 0.006141 0.138279 0.151658 0.116107 -0.090965 0.079664 -0.022297 0.044889 0.055089 0.003271 0.023132 0.102307 -0.067904 0.000539 -0.018774 -0.106233 0.000217 0.081679 0.011969 -0.007819 0.033156 0.02184 0.004764 0.031422 0.056159 0.007445 -0.029361 0.108161 0.114523 0.011226 0.022037 -0.008434 -0.243696 -0.09578 0.085751 -0.056144 0.064837 0.076456 -0.019229 0.021866 0.114992 0.008873 -0.050921 -0.119936 0.042335 0.076489 -0.052111 -0.081849 0.02816 0.020869 -0.021038 -0.055463 0.015101 0.055045 -0.001245 0.121208 0.022142 -0.000988 0.009572 0.024274 0.040189 0.023008 -0.010727 -0.041045 -0.055105 0.037425 0.001552 -0.022934 -0.040314 0.061874 0.016969 -0.065164 0.083222 0.140464 0.033446 0.048713 -0.067522 0.106852 -0.044787 0.028055 -0.048919 0.047505 -0.080729 0.146172
  -0.074894 0.008067 -0.122442 -0.04078 0.002924 0.03567 0.054751 -0.097889 -0.003549 -0.083403 0.055657 0.038448 -0.053148 0.01312 -0.160381 0.000354 -0.000585 -0.004188 -0.022156 0.074434 0.041811 -0.125975 0.190267 -0.056497 0.032043 -0.031313 -0.009478 0.051103 -0.036608 0.006495 0.025022 -0.04379 0.151123 3.7e-05 0.000513 -0.013335 0.035149 0.100979 -0.076605 0.185004 -0.051083 0.06546 0.014499 0.102153 0.026252 -0.020897 -0.043687 0.059011 0.006162 0.050152 -0.036917 -0.017407 0.038373 -0.049424 0.059647 0.008497 0.000172 -0.033673 -0.212003 0.159221 0.015118 -0.009095 0.042047 -0.194389 0.093381 0.082473 0.029484 0.00712 -0.308029 -0.007969 0.015022 -0.020786 -0.03861 -0.021403 -0.137299 -0.03802 0.045796 -0.066454 -0.044051 -0.048175 0.044002 0.017747 -0.002185 -0.031441 -0.081806 0.017596 0.009743 0.155973 0.089546 0.097973 -0.08117 -0.104816 -0.095967 -0.049272 -0.130002 0.026276 0.012213 0.024157 -0.00036 -0.004487 0.158439 -0.007819 0.014915 -0.081697 0.027635 0.038506 -0.161805 0.076292 -0.068061 -0.135939 0.05608 -0.032789 0.051559 0.021651 0.022158 -0.051855 0.047095 0.089119 -0.025646 -0.206548 -0.132156 0.113024 0.020925 0.041018 0.019547 -0.031455 0.049155 -0.035079 0.05609 0.041603 0.004793 0.095468 0.063408 -0.024868 -0.028497 0.052351 -0.074667 0.016818 -0.026828 0.100153 0.048583 0.076661 0.020104 0.004913 -0.004828 0.000982 0.002287 0.009542 -0.017525 -0.092168 0.009853 0.006704 -0.008935 0.040907 0.030771 0.044005 0.04648 -0.028886 -0.092124 -0.18476 -0.17303 0.007998 -0.053343 -0.022115 0.002458 0.004784 -0.061351 0.028593 -0.022749 -0.077916 0.01549 0.032075 0.010918 0.039855 -0.02743 -0.046288 -0.444153 -0.068037 -0.029464 -0.120383 0.058461 0.062037 -0.125733 0.008419 -0.040045 0.019413 0.049975 -0.127009 0.020607 0.082103 0.070968 0.136868 -0.039863 0.078156 -0.137278 -0.095806 -0.032357 -0.089223 -0.086049 -0.218376
  -0.124714 -0.023352 -0.259333 -0.055874 0.022125 0.010926 -0.197614 0.000343 -0.237601 0.11441 0.067562 0.003968 -0.053796 -0.20807 -0.000548 -0.104332 -0.00343 0.019853 0.133583 0.078607 0.018237 -0.24954 -0.070761 0.029822 0.029031 0.064861 -0.021453 0.103374 0.048996 -0.056979 0.026321 -0.205281 0.175555 0.013987 0.001681 0.027688 0.086231 0.076657 -0.07147 0.141884 -0.095128 0.026591 -0.086321 0.065563 -0.128809 0.081165 -0.071678 -0.048195 0.055929 0.017306 -0.015548 0.082687 0.041036 -0.001532 -0.042415 0.078284 0.054321 0.015897 -0.280273 0.059979 -0.007699 -0.001283 -0.024581 -0.177677 -0.013974 0.02096 -0.00765 -0.02157 -0.315887 0.224942 0.12428 0.108371 -0.137376 -0.056268 -0.104877 -0.077946 0.033854 0.031009 -0.149432 -0.167701 -0.095126 -0.01371 0.074397 0.051336 0.071751 0.054672 -0.027402 0.061267 0.025314 0.113369 -0.133065 -0.152513 -0.034669 -0.218226 -0.140171 -0.145054 0.016944 0.130954 0.056834 0.040953 -0.100535 -0.015129 0.02904 0.045054 0.070488 -0.156362 -0.104999 0.115346 -0.056812 -0.154298 -0.019871 0.010362 0.031992 0.066973 -0.003518 -0.017314 0.071717 0.091047 0.138169 -0.205622 0.023468 -0.154291 0.015187 -0.113174 0.012263 -0.003972 0.012726 0.076461 -0.140116 -0.007538 -0.034177 0.038751 0.047046 -0.080006 -0.013011 0.052045 -0.051216 0.298213 0.087447 0.066991 -0.047757 0.114551 -0.068359 0.031056 -0.07378 0.027849 -0.046977 -0.030657 -0.049586 -0.145854 -0.125994 -0.042946 -0.183601 0.06828 0.151455 0.015769 0.062582 0.041135 0.041042 -0.163023 0.024311 -0.176088 0.039766 0.011698 -0.0613 -0.099218 -0.173923 0.217882 -0.032277 -0.085712 -0.110739 -0.011197 -0.070403 0.065013 -0.029803 -0.015287 -0.334415 0.026574 0.058344 -0.083753 0.08439 0.162831 -0.149225 0.038812 0.016745 0.037366 0.077889 0.010437 -0.102414 -0.06286 0.138563 -0.007909 0.068187 -0.03201 0.098817 -0.097703 -0.084172 -0.184769 0.006371 -0.054976
  -0.229021 0.029004 -0.308193 -0.134559 0.033652 -0.031237 -0.113199 -0.015513 -0.135895 0.04823 0.100207 0.076017 -0.132524 -0.011916 -0.024806 -0.075193 0.055735 -0.071455 0.084657 0.02899 -0.11423 -0.29939 0.087518 -0.05466 0.016678 -0.103744 -0.070791 0.139989 -0.091901 0.033433 0.035802 -0.193224 0.15322 0.074878 0.085131 -0.119615 -0.069602 0.04793 -0.068829 -0.118616 -0.075687 -0.007212 -0.054747 0.006743 0.049231 0.085648 0.10994 0.052723 -0.038623 0.066437 0.075338 -0.013545 -0.073288 0.004196 -0.094846 0.043406 0.134091 0.064509 -0.124588 0.063126 0.074667 -0.009372 0.126675 -0.018665 0.053574 0.060738 0.001435 -0.114979 -0.198823 0.083909 0.154246 0.101288 -0.032054 -0.047028 -0.061948 -0.020717 0.121162 0.153385 -0.071227 -0.156651 0.008291 -0.052159 0.105816 0.098615 0.035886 0.082147 -0.059991 0.034437 -0.063726 -0.004986 -0.113409 -0.14008 -0.01743 -0.01549 -0.23085 -0.190716 -0.121177 0.071427 0.020461 -0.054852 -0.097327 0.002111 -0.031912 0.011048 0.224955 -0.133384 -0.043176 0.111884 -0.09696 -0.023132 0.058215 -0.003543 0.080158 0.128883 0.049843 0.061183 0.064466 0.079832 0.065615 -0.066828 0.073398 -0.066929 -0.066786 -0.120296 0.064241 0.052558 0.073402 0.088793 -0.071382 0.028113 0.127891 -0.083361 0.086623 -0.130367 -0.120622 -0.013882 -0.169639 -0.060006 0.01079 -0.004351 -0.07156 0.068346 -0.120235 0.054404 -0.134603 0.065725 -0.03674 0.027896 -0.115383 -0.126114 -0.238917 0.021516 0.057628 0.047905 0.176732 -0.034322 -0.069267 -0.07677 -0.027957 -0.017103 -0.0442 -0.087428 0.013321 0.013928 -0.048866 -0.035794 -0.054482 0.143281 -0.109349 -0.05697 0.016922 -0.032067 -0.005782 0.059813 -0.218635 -0.104761 -0.208051 -0.033074 0.050289 -0.050377 0.055785 0.120079 -0.160069 0.069429 -0.034805 -0.031182 0.084836 -0.166118 0.048829 0.14337 0.070411 0.103 -0.024485 -0.104103 0.037121 0.009561 0.034659 -0.017202 0.076741 -0.081493
  -0.075972 -0.010254 -0.123045 -0.043148 -0.05214 0.092638 -0.101449 -0.021981 -0.076669 0.130474 0.093928 -0.030017 -0.037351 0.002511 -0.097552 -0.06106 -0.026901 -0.031828 0.068081 -0.011235 -0.086503 -0.084428 -0.029256 -0.084319 0.004914 -0.016696 -0.017507 0.165567 -0.081908 -0.114554 -0.09125 -0.112695 0.076706 0.078197 0.037041 -0.035613 0.045327 0.00645 -0.010119 0.001455 -0.140931 -0.036617 -0.177884 0.055684 -0.018304 -0.133108 -0.00992 -0.059765 0.058671 -0.021012 -0.002754 0.015521 -0.160386 -0.067792 -0.009288 0.071161 -0.010771 0.018924 -0.07904 0.15643 -0.09792 -0.092741 -0.008677 0.056772 0.154063 -0.085206 0.039003 0.072828 0.03092 0.290373 0.058738 -0.075206 -0.056891 -0.052248 -0.009924 0.040283 0.152678 -0.034778 -0.026265 -0.039725 0.051088 0.016045 0.122034 0.075493 -0.077925 0.002719 -0.086477 0.087026 0.016826 0.023129 -0.048066 0.052755 -0.045933 -0.093614 0.020607 0.18954 -0.014581 0.150248 0.067857 -0.063177 0.071583 -0.058932 0.040488 -0.043194 0.005203 0.076879 -0.030928 0.013917 0.017869 0.04923 -0.020901 -0.066824 0.039596 -0.020023 0.044615 -0.021052 0.049093 -0.031043 -0.101848 -0.05631 0.094878 -0.064915 -0.051686 -0.026397 -0.007636 -0.013311 0.014367 -0.071226 -0.087239 -0.125319 0.054211 -0.062049 0.056253 0.047294 -0.02978 0.04301 -0.13785 0.106149 -0.002694 -0.031451 -0.024498 -0.015062 -0.108604 0.018155 -0.062987 -0.009062 -0.054055 -0.102929 -0.084749 -0.009598 -0.1605 0.050372 -0.087983 -0.002151 0.052067 -0.068263 -0.003575 -0.020021 -0.078802 -0.193832 -0.032683 -0.035444 0.005329 -0.037317 -0.020274 0.082229 0.109493 0.02914 0.029801 0.041731 -0.043407 -0.096069 -0.007167 0.020591 -0.039439 -0.143006 -0.068017 -0.01177 -0.026731 0.025292 0.027866 -0.018312 -0.044454 -0.040084 -0.100972 -0.059888 0.087347 -0.039181 0.164185 0.104804 -0.032082 0.065243 -0.009835 -0.02979 -0.005146 0.015889 -0.023401 0.054341 0.00485 -0.045492
  -0.043692 -0.015973 -0.091234 0.022989 0.028007 -0.040273 0.059364 0.017201 0.019111 0.043367 0.03306 -0.013464 -0.027705 0.023509 0.022401 0.007889 0.060758 -0.043137 -0.018146 0.046645 0.014473 -0.006308 -0.040743 0.009012 -7.3e-05 -0.025682 0.042056 -0.066158 -0.068096 -0.059176 0.024566 0.026903 0.104282 -0.042333 -0.115623 -0.002674 -0.042932 0.055017 -0.006873 -0.086856 -0.02535 -0.029887 0.026488 -0.003334 0.066113 0.053201 -0.017977 -0.033165 -0.038047 0.066052 0.021936 0.083522 -0.067413 0.072006 -0.008341 0.064853 -0.052744 -0.010952 0.070295 -0.007818 -0.14129 0.069611 -0.013887 0.0054 -0.020843 0.004281 0.064381 -0.009777 -0.104622 -0.008602 -0.040746 -0.04589 0.00531 0.052462 0.010321 0.008594 0.010618 -0.004456 0.042216 0.106313 0.009437 -0.092601 -0.002761 0.013781 -0.021238 -0.018894 0.097268 -0.077676 0.013552 0.073501 -0.008394 -0.073042 0.120482 -0.051853 -0.002076 0.009469 0.054964 -0.032051 -0.042424 -0.037666 -0.013158 0.031577 0.025581 0.037978 0.058704 -0.042524 0.061289 -0.045619 -0.039518 -0.048954 0.047665 0.018367 -0.012879 0.049776 -0.000991 -0.070166 0.00057 0.00809 0.102005 -0.030225 -0.067503 -0.039551 -0.08143 0.060438 -0.009097 -0.030768 0.019001 0.037124 -0.013003 -0.04659 -0.072412 -0.090348 0.00739 -0.043117 -0.007015 0.033307 -0.029263 0.025686 -0.018981 -0.044434 -0.074382 0.050073 0.034298 -0.010602 0.062315 0.003329 -0.000455 -0.046985 -0.034918 -0.141686 0.034087 -0.076473 -0.077868 -0.001953 -0.045278 -0.013297 0.001339 -0.0125 -0.016529 -0.094891 -0.08509 0.032666 -0.001866 -0.036827 -0.097237 0.006488 0.006129 0.087529 -0.008967 0.027656 0.038387 0.006202 -0.042543 0.020829 0.002237 0.00861 0.03002 0.070733 -0.012265 0.002331 0.000401 0.042234 0.079166 -0.016438 -0.05352 0.029645 -0.015328 0.014801 0.000708 0.003768 -0.030338 -0.02447 -0.036509 -0.102288 0.080477 0.074769 0.035441 0.017812 0.034942 0.011813
  0.313479 0.389959 0.467854 0.494733 -0.554495 0.189556 0.484177 0.327877 0.210583 -0.151659 -0.50703 -0.411397 0.596081 0.445685 -0.617828 -0.554279 -0.523576 -0.382013 -0.314691 0.52012 -0.548957 0.124684 -0.431854 0.335231 -0.501022 0.387568 0.349153 0.382481 -0.194379 -0.283043 -0.396348 -0.295522 0.245981 0.460178 0.067424 -0.571829 0.274734 -0.467456 -0.525448 0.32175 -0.287551 -0.558736 -0.215639 -0.541261 -0.53721 -0.377753 0.357762 -0.354284 -0.34421 0.355721 0.439614 0.364163 -0.413953 0.436547 -0.495988 0.363635 -0.494158 0.463983 -0.211737 -0.234413 0.086306 0.476301 -0.316907 -0.256687 -0.377103 -0.020979 -0.514378 0.306511 0.427295 0.276341 0.122707 0.009546 -0.262093 -0.540352 -0.425468 -0.505217 -0.319102 0.457683 -0.446684 0.468692 0.301786 -0.575886 0.339743 0.448833 -0.223375 -0.499589 0.42346 -0.417566 -0.461933 -0.41633 -0.52297 -0.138967 0.381746 -0.165415 0.19182 -0.31818 -0.383487 0.283728 -0.510021 -0.437082 -0.224638 -0.575846 -0.298461 0.309314 0.31747 0.596129 -0.281252 -0.08718 -0.431534 0.352587 0.354742 -0.406206 -0.520104 0.243085 -0.495841 0.437889 0.567969 -0.372631 -0.096892 -0.291154 -0.053938 -0.126896 0.274464 -0.472275 -0.68979 0.433198 -0.512841 -0.382471 -0.468724 0.312045 -0.546128 -0.069503 -0.604565 0.520245 -0.122427 -0.404014 -0.602033 0.07265 -0.197129 -0.077013 0.436741 0.283943 -0.448991 -0.336011 0.580774 -0.337597 -0.532162 0.322631 -0.416211 -0.085614 0.495698 0.621137 0.53354 -0.502719 0.379484 -0.572023 -0.256305 -0.307326 0.389094 -0.203318 -0.207503 -0.589587 -0.551158 0.27607 0.498799 -0.411147 -0.217528 0.284926 -0.399882 0.490411 -0.488397 0.301133 0.394589 0.635004 0.255904 -0.268046 -0.254051 -0.406468 -0.449701 -0.279924 -0.350871 0.41104 0.256118 0.401633 -0.267063 -0.458464 -0.288921 0.347094 0.039278 -0.437002 0.363499 -0.630045 -0.267087 0.469785 0.233354 -0.500421 0.575392 -0.098549 0.304371 -0.122522
  0.139173 -0.027743 -0.055797 0.116079 -0.045281 0.099366 -0.12378 0.157342 -0.115981 -0.049646 -0.003762 -0.037438 0.031543 -0.025199 0.096843 -0.018596 0.002196 0.051209 -0.089678 0.077808 -0.042331 0.138576 0.009712 -0.033779 -0.095922 -0.180409 0.048585 -0.079706 -0.029008 -0.093293 -0.061419 -0.02706 -0.195061 0.048729 0.204086 -0.02907 -0.051392 -0.022287 0.000729 0.015745 0.046596 -0.042526 -0.029823 -0.053909 0.06042 0.095969 -0.150931 -0.050202 -0.085851 -0.017334 -0.095097 -0.13221 0.02037 -0.017006 -0.113947 0.105452 0.001343 0.059297 0.078101 -0.08864 -0.016711 0.010468 -0.083435 0.048074 -0.097349 0.009652 -0.048827 -0.03362 -0.125218 0.030608 -0.019554 -0.185312 0.043025 0.050883 -0.009926 -0.06656 -0.005797 0.027264 -0.018836 -0.095462 -0.054281 -0.057581 -0.025767 -0.105846 -0.016074 -0.013244 -0.304954 -0.04391 0.069775 -0.127982 0.011642 0.003264 -0.149561 -0.022308 -0.25964 0.087364 -0.005225 0.041819 0.013274 -0.048474 0.142666 -0.047337 -0.050005 -0.159269 -0.084005 0.011437 -0.078029 -0.105312 -0.070445 -0.117568 0.080769 -0.001507 -0.118478 -0.203762 0.013468 -0.009285 -0.114209 0.022223 0.017057 -0.018175 0.067865 -0.069706 0.161828 -0.026881 -0.013406 -0.22153 0.050985 -0.041788 0.086691 -0.02672 0.009936 0.202209 -0.063899 -0.076026 -0.041427 -0.017347 -0.019817 0.068869 0.043425 -0.062156 -0.09737 0.002809 0.06392 -0.042984 0.09923 -0.088979 0.009418 -0.056114 -0.029988 0.052083 -0.082137 0.042235 0.017332 -0.094816 -0.119704 -0.073547 -0.046309 -0.095412 -0.186962 0.064856 -0.036764 0.000807 -0.034911 0.049596 0.101751 -0.095642 0.025245 0.112261 -0.044729 -0.033941 0.066537 -0.000624 0.14437 0.116285 0.066464 -0.019738 -0.055102 -0.066013 -0.018913 -0.022788 -0.075762 0.012893 -0.158497 0.072647 -0.146955 0.019576 -0.023829 -0.057643 -0.070833 0.016447 -0.047012 -0.068659 -0.042148 0.105226 -0.140825 0.064702 -0.04176 -0.100217 -0.076628 -0.096487
  0.043446 -0.038108 -0.060496 -0.153733 0.053102 -0.015444 0.02664 -0.05538 -0.073307 -0.126939 0.028849 0.145051 0.122542 -0.091741 0.117444 0.002485 -0.015804 0.03233 0.053806 -0.020707 -0.108979 -0.017233 -0.126556 -0.107981 -0.110222 -0.084502 0.011474 -0.056451 0.11013 0.063184 0.000179 -0.191373 -0.080673 -0.040954 0.097761 0.043901 -0.024786 -0.01205 -0.052252 -0.06871 -0.151709 -0.023665 0.163372 -0.056774 0.159123 0.009105 -0.057254 -0.107215 -0.121482 -0.08105 -0.025478 -0.047334 -0.052553 0.042106 0.059855 -0.03086 -0.014627 -0.0825 0.126557 -0.163122 -0.094885 -0.037108 -0.038684 -0.237912 0.104589 0.181804 -0.131928 -0.085029 0.062836 -0.040451 0.033539 -0.071167 0.087779 -0.036244 0.104445 -0.102411 -0.17451 0.028121 0.032173 -0.000867 0.001276 -0.038711 -0.041888 0.010941 -0.051633 0.068676 -0.202774 0.039868 -0.093868 -0.082503 0.165946 0.03458 -0.020103 -0.220781 -0.017431 -0.092509 -0.132323 0.014427 -0.096089 0.06218 0.239873 -0.011473 -0.21362 -0.07713 -0.10273 -0.059736 -0.196263 0.173616 0.063353 0.067088 -0.065458 -0.057769 -0.08624 0.017539 -0.038286 -0.019742 -0.033121 -0.039364 -0.051452 -0.143615 0.122484 -0.136946 -0.102998 0.019707 0.026744 0.067745 -0.054272 -0.128425 -0.01053 -0.053343 0.082775 0.098431 -0.039653 -0.053607 -0.161767 -0.065065 0.016702 -0.06258 0.095403 0.140659 -0.071323 -0.042144 -0.05492 -0.10536 -0.0336 0.011355 -0.123082 0.01574 0.082738 0.19496 -0.01686 -0.052507 0.077647 0.028936 -0.058115 -0.137181 -0.057833 0.121531 -0.014995 0.095795 -0.001206 -0.084946 -0.209329 0.0665 -0.018059 -0.037866 -0.015996 -0.089999 -0.179581 0.004192 -0.094297 -0.039019 -0.100268 -0.001954 0.009313 0.121612 -0.115224 0.014813 -0.040648 0.166086 -0.139541 -0.060695 -0.013943 -0.095448 0.134466 -0.118957 -0.062746 0.007565 -0.137501 0.049311 -0.09744 0.173821 -0.058126 -0.022211 -0.048043 -0.013506 -0.008021 -0.138334 -0.048645 -0.092513
  0.09599 -0.010481 0.014483 -0.042614 -0.010167 0.018499 -0.026221 0.04507 0.053804 -0.002899 0.023168 0.026683 -0.090388 -0.064976 0.073258 -0.045083 -0.031665 0.031838 0.011795 -0.09699 -0.013098 0.038213 -0.022965 0.028055 0.003115 -0.025911 -0.096437 0.017723 0.06967 0.036774 0.055867 -0.190779 0.041984 -0.008022 0.014316 0.052023 0.023451 -0.07506 0.073966 0.01545 -0.089804 -0.053349 -0.00033 -0.089879 0.158271 -0.0041 0.013919 -0.05382 -0.100795 0.003661 0.054712 -0.080833 -0.002251 -0.088909 0.080933 0.070825 -0.017408 0.005721 0.065894 -0.016827 0.066284 0.090727 -0.109997 -0.051208 0.138511 0.035151 0.026735 0.056397 -0.018127 0.004593 -0.003606 0.092129 0.053524 -0.040026 -0.033965 0.049582 -0.070004 -0.044223 0.011004 -0.004063 0.023694 0.047997 -0.023041 -0.071981 -0.031793 0.014364 0.043051 0.002952 -0.005956 -0.024254 0.00108 0.048757 0.087312 -0.147826 -0.159949 -0.054613 -0.036978 -0.00306 -0.075029 0.027092 0.036853 0.024261 -0.03331 0.030869 -0.042096 0.009535 -0.031828 0.092818 -0.00516 -0.140176 0.051904 -0.046477 -0.03059 -0.039177 -0.086289 -0.075656 -0.100385 -0.015204 -0.012679 -0.053024 -0.042297 -0.171784 0.083537 0.055334 -0.000673 -0.172894 -0.068856 -0.127668 0.036653 -0.046609 -0.016446 0.110056 -0.037365 0.05746 -0.105279 -0.037974 -0.081625 0.02174 0.038827 0.129843 0.084436 0.001721 -0.051172 -0.029945 -0.03326 -0.046953 -0.039148 -0.003443 -0.005197 0.117188 -0.024011 0.015669 -0.083042 0.003257 -0.055669 -0.012602 -0.027443 -0.010281 0.056702 0.017247 -0.031661 -0.047258 -0.040411 0.01447 -0.004847 -0.0281 -0.001801 -0.077988 -0.049158 0.069869 -0.00695 0.049551 0.026121 -0.068596 0.054943 0.077236 -0.078309 -0.046057 -0.024947 0.08024 -0.030617 -0.016451 -0.020109 -0.071239 0.057585 -0.100983 0.053234 -0.084983 -0.097576 -0.028493 -0.05312 0.020747 -0.032413 -0.015336 -0.076009 0.03878 -0.002205 -0.036437 -0.028443 -0.022804
  0.048245 -0.000569 -0.037151 0.0151 0.040394 -0.000834 0.004807 0.052417 0.089258 -0.117034 -0.00799 -0.002199 -0.04725 0.024924 0.085891 -0.058673 0.067316 0.077096 0.103055 -0.080031 0.062942 0.077287 -0.190681 -0.002618 0.05211 0.013905 -0.088056 0.063552 0.176011 0.031091 -0.111983 0.078676 0.050315 -0.012737 0.008664 -0.00838 -0.031818 -0.048764 -0.079419 0.109605 -0.022429 0.030918 0.084679 0.015585 0.003893 0.10737 0.051022 -0.059298 -0.006109 -0.006612 -0.030084 -0.014671 -0.099375 -0.032647 -0.044758 0.028059 0.038186 -0.013088 -0.081557 -0.051731 0.1852 0.006386 0.080047 0.001931 0.059224 0.138945 0.035273 0.018451 -0.079031 0.006299 -0.046514 0.098071 0.022469 -0.014358 -0.052325 0.005404 -0.184505 -0.112779 0.020271 0.004312 -0.051075 -0.038569 -0.042968 -0.126752 0.074381 0.100469 -0.04051 -0.123375 -0.149 -0.152125 0.077841 0.108889 -0.005321 -0.010233 -0.087167 -0.118696 0.033004 0.008402 -0.013134 0.02189 0.031673 -0.042239 -0.151015 -0.03329 -0.050028 -0.051904 -0.038223 0.041784 0.055159 -0.066183 -0.011398 -0.061568 -0.073854 -0.020181 -0.001256 0.032937 -0.043175 0.076389 0.046813 -0.009612 0.052277 -0.060825 0.014758 -0.091674 0.03374 -0.123643 -0.034525 -0.050164 -0.169935 -0.07208 -0.020509 -0.1331 -0.028034 -0.020202 -0.13085 0.029599 0.146005 0.102208 0.128027 0.043848 -0.078774 -0.037053 -0.010667 -0.045504 -0.00082 -0.08155 -0.044794 -0.115557 0.093375 0.011118 0.003443 -0.041859 -0.034232 0.003066 0.031345 0.049655 0.022937 0.035635 0.017934 0.207721 -0.005341 -0.112042 0.015942 -0.058418 -0.011745 -0.008736 0.095368 -0.168197 -0.108976 0.009242 -0.095416 0.008601 0.063367 -0.083113 0.05206 -0.09663 -0.197372 -0.021763 -0.138275 0.027426 -0.211088 -0.023207 0.058085 -0.058828 0.028167 -0.077708 -0.174569 -0.013954 -0.015616 -0.005127 -0.054146 0.08104 -0.100263 -0.001212 0.027006 0.013309 -0.094141 0.07945 -0.079563 -0.114341
  0.014487 -0.024588 -0.087002 0.008063 -0.003336 -0.133953 -0.01694 0.011869 -0.097138 -0.070843 0.091361 0.009844 -0.074084 0.043 0.137522 -0.0382 0.029213 0.125141 -0.11001 0.018845 -0.055215 -0.050223 -0.097045 0.045486 -0.130915 -0.060287 -0.062103 -0.00583 0.084742 -0.119956 0.008115 -0.148235 -0.015424 -0.099653 0.110797 -0.076532 -0.162253 0.071967 -0.061487 0.077835 0.105295 -0.093993 -0.22345 -0.058345 -0.01142 0.093468 -0.023562 -0.061526 0.055861 0.002422 0.087553 -0.057001 0.12253 0.034637 -0.012464 0.013988 -0.009843 0.044116 0.052959 -0.148798 -0.070039 0.018209 -0.051411 0.093613 -0.096309 0.079602 -0.100105 0.025949 -0.110346 -0.16141 0.026169 -0.02922 -0.055872 0.140307 -0.078283 -0.054754 -0.041572 0.034016 0.03368 -0.023202 -0.075244 -0.117988 0.101718 -0.069349 0.019889 -0.117597 0.008316 -0.04039 0.144153 -0.057201 0.021764 0.014661 0.003252 0.107746 -0.065201 0.119204 0.174034 0.040508 0.106862 -0.029136 0.162794 -0.034654 0.080824 0.0692 0.010008 0.014155 -0.033278 -0.063154 -0.126086 0.118151 0.028689 0.083415 -0.112319 -0.006784 -0.061064 -0.079816 -0.029861 0.086624 0.104506 -0.161897 0.145225 -0.093975 -0.094698 -0.074738 -0.078853 -0.086885 0.115934 -0.129768 0.064752 -0.182498 0.111864 0.160773 0.046942 -0.014402 -0.065362 -0.00083 0.045005 0.262766 -0.029186 -0.053516 -0.009437 0.071215 0.00155 0.039616 -0.019309 -0.204865 0.028783 -0.137104 -0.171105 0.214761 -0.065442 -0.000424 0.031227 0.006825 -0.074178 -0.085129 -0.047344 -0.117156 0.026715 0.19378 -0.156284 -0.140499 -0.013003 -0.117986 -0.014033 -0.019493 -0.154273 0.001187 -0.023324 0.123712 0.08391 -0.085529 0.025546 0.005329 -0.120451 -0.122875 0.039346 -0.050255 -0.084833 0.039307 -0.080217 -0.192638 0.022685 0.089525 -0.094737 -0.08927 0.08183 -0.020469 -0.224855 -0.011828 -0.00893 -0.028948 0.012258 -0.048069 -0.125162 0.017133 -0.099244 -0.027432 -0.100898 -0.162801
  0.125231 0.058456 -0.1127 0.051174 -0.013964 0.015832 -0.015404 0.058262 0.046964 0.108664 -0.010668 -0.040845 0.011638 -0.010604 -0.076024 -0.068498 0.035626 -0.045684 -0.034483 0.007781 -0.014287 0.067542 -0.026845 0.045393 0.056029 -0.005449 0.089257 0.049814 -0.160962 -0.013282 -0.087385 0.068418 -0.077532 0.072664 0.064464 -0.014845 -0.013665 -0.021857 -0.055767 -0.038258 -0.094512 0.023111 -0.035551 -0.02071 0.062833 0.024714 -0.054337 -0.041008 -0.017472 -0.004268 0.031121 -0.105183 -0.002549 -0.011285 0.099958 0.054237 0.127043 0.008226 -0.029732 0.000831 -0.175522 -0.05007 0.074053 -0.106483 0.009692 0.116865 0.061546 -0.036767 -0.01658 -0.115991 -0.095903 0.054079 -0.00849 -0.02214 0.089533 -0.01489 -0.019749 -0.038308 0.053447 0.045168 -0.054372 0.059589 0.003563 -0.046979 0.20058 0.052956 -0.097592 -0.09986 -0.035792 0.005998 0.002457 -0.110685 -0.023602 0.000776 0.005721 -0.140282 -0.001512 0.001799 -0.087038 -0.004133 -0.102786 -0.044074 0.025003 0.011988 0.004015 -0.029525 0.066003 -0.051045 0.022148 0.023796 0.057372 -0.042385 0.060926 0.003356 0.045328 0.04235 0.015891 -0.097034 -0.032404 0.004177 0.046481 -0.058852 -0.165326 -0.035448 -0.021458 -0.077915 -0.124918 -0.066278 -0.164079 -0.081293 0.000949 0.001918 -0.039794 0.065897 -0.016376 -0.035006 -0.006627 -0.008319 -0.013678 0.12065 0.101727 -0.049311 -0.03467 0.00332 0.031506 -0.055768 -0.055663 0.004453 0.088064 0.00741 -0.045638 -0.068549 -0.002009 0.023344 0.083698 0.031377 0.090026 -0.018263 -0.094517 0.048003 0.056878 -0.012009 0.062669 0.002659 0.006296 -0.070393 -0.038482 -0.016642 -0.064976 0.025932 0.051834 -0.023236 -0.044196 -0.067448 0.058289 -0.044159 0.029154 0.051187 0.019613 -0.0877 -0.077853 0.018269 -0.056403 -0.019843 0.026973 0.104804 -0.050166 0.01645 -0.018676 0.088405 0.040798 -0.084225 0.040958 0.061213 -0.042405 0.087043 -0.002745 -0.116968 0.068535 -0.002877
  0.04588 0.047131 0.010255 -0.006417 -0.077461 0.072393 -0.015473 -0.068898 0.036866 -0.198345 0.052207 0.077162 -0.023216 0.000583 0.037357 -0.030147 -0.050597 -0.058811 -0.083325 -0.014347 -0.018271 0.045366 0.061458 -0.001469 0.046009 0.037448 -0.022209 -0.014511 0.01715 0.040693 -0.049127 -0.068825 0.017332 0.029957 -0.042774 0.05076 -0.007891 -0.008694 -0.019949 0.013246 0.01984 -0.026931 0.043734 0.054428 0.061333 -0.001619 0.058409 -0.097143 0.004358 3e-05 0.01861 -0.019556 -0.081059 -0.04312 -0.088909 -0.076049 0.097076 -0.016554 0.081642 -0.059151 0.0743 0.098551 0.031705 0.039308 -0.044034 -0.051645 0.042527 0.032225 0.001236 0.01505 0.091619 0.084243 -0.014481 -0.019105 0.04454 0.051769 -0.100921 -0.067449 0.06303 -0.009162 -0.045874 0.021017 0.03243 -0.083606 0.095502 0.034543 0.059601 0.029269 0.017182 0.02646 0.066657 0.041613 -0.011909 -0.066471 -0.115283 -0.062936 0.106433 0.054729 0.054512 -0.062231 -0.110103 -0.001537 0.02087 -0.017117 -0.079383 -0.000936 -0.009765 -0.044798 -0.003331 0.036426 -0.032039 -0.164252 0.00404 -0.047421 0.013656 0.023172 -0.010958 0.093738 -0.13792 -0.033646 -0.196623 0.11721 -0.015817 0.020474 0.022991 0.041771 -0.060777 0.065648 -0.004087 -0.04167 0.074987 0.031061 0.034143 0.033603 0.025748 -0.047559 0.005863 -0.029361 -0.023233 -0.068513 -0.000734 -0.057773 0.063578 0.07707 0.053268 0.00172 -0.005125 -0.13152 0.017612 0.147106 -0.042208 0.000437 0.002124 0.051563 -0.032375 0.012067 -0.039274 -0.089529 -0.076817 -0.13838 -0.067721 0.006787 0.036644 -0.004834 0.029913 0.043155 0.0283 -0.071975 -0.025386 0.03539 0.034173 -0.039784 -0.013129 0.022663 -0.087902 -0.032578 -0.089476 -0.054834 -0.013832 -0.046935 -0.010193 0.042499 -0.052626 -0.007875 -0.02161 0.006813 -0.027349 -0.089901 -5.4e-05 -0.005432 0.048548 -0.050089 0.050913 -0.012748 -0.04226 -0.062795 -0.007717 0.134085 -0.020134 0.018699
  0.069751 -0.038992 -0.003323 -0.025142 -0.041976 0.079726 0.037232 -0.018216 -0.016087 -0.122055 -0.002775 0.079525 0.007212 -0.021642 0.021922 -0.009164 -0.006747 0.109993 -0.002579 0.020456 -0.018872 0.007371 0.110183 0.024146 -0.079012 0.007668 -0.045842 -0.01754 0.008196 -0.06509 -0.064571 0.020203 -0.019558 0.039164 -0.175192 0.008687 -0.043115 0.04264 0.001601 0.073235 0.010517 0.046095 -0.122009 0.032134 0.018384 -0.13552 0.022679 0.072782 0.012014 -0.098161 -0.069578 0.000207 -0.005126 -0.019848 0.035805 0.042606 0.041001 0.0235 0.083492 -0.082824 -0.000181 0.101773 0.09566 -0.029182 0.073761 -0.066907 0.011963 0.013765 0.002638 0.087986 0.025545 0.040535 0.054043 0.04096 0.00633 -0.009279 0.031338 0.008711 0.096068 0.049843 0.051268 0.008145 -0.000963 -0.035781 -0.049664 0.036748 0.007432 0.010501 -0.015871 -0.015471 0.055662 0.052047 -0.023364 0.036053 0.027397 -0.076502 -0.005855 -0.041922 -0.002088 0.086316 0.024096 -0.033428 -0.150052 -0.055446 -0.079032 0.030453 0.067431 0.096259 -0.028214 -0.021204 -0.025794 0.068434 -0.012446 0.002365 -0.021532 0.019607 -0.074629 0.019571 0.069787 -0.12695 -0.044659 -0.073139 0.01301 -0.00838 -0.0031 -0.067175 -0.095282 0.006807 0.039388 -0.025292 0.069668 -0.062138 -0.016176 -0.074879 0.058266 -0.036871 -0.036556 0.10044 0.132961 -0.128672 -0.034099 -0.049962 0.019896 -0.058794 0.058786 0.061455 0.016599 -0.018539 0.056898 -0.09821 0.029471 0.005188 0.020154 -0.004752 0.001285 0.053244 0.064654 0.060647 0.044002 -0.026221 0.178096 0.027766 -0.071496 0.018559 -0.018311 0.039286 -0.074584 -0.051396 0.080056 0.02804 0.017057 0.041691 -0.006835 -0.021462 0.024372 0.055167 -0.043329 -0.010171 0.004545 -0.165073 -0.085675 -0.018438 0.113905 -0.006197 -0.027574 -0.070042 0.013446 0.015722 0.021607 0.016028 -0.04727 0.082434 0.103227 -0.018135 0.035914 -0.11057 -0.064957 0.039464 -0.041553 -0.026208
  0.082639 0.01677 -0.005865 -0.05713 0.069903 0.055065 0.02504 -0.049623 -0.058833 0.074773 0.04764 -0.041892 -0.0591 -0.032697 -0.045719 -0.002881 0.075869 0.008026 -0.059341 -0.029118 -0.015503 0.039716 0.050754 -0.029658 -0.021716 -0.027522 0.006155 -0.015232 0.083472 0.067879 -0.00701 -0.04928 -0.012978 -0.006406 -0.106192 0.014365 -0.038508 0.047191 0.065982 -0.098093 -0.023797 0.042021 -0.048201 -0.00741 0.043084 -0.052785 0.027037 0.051701 -0.135637 -0.013548 0.020894 -0.032617 -0.050504 -0.019539 -0.085902 -0.024279 -0.014144 -0.087512 -0.016052 -0.047122 0.029816 0.069189 0.10563 0.054373 -0.017063 -0.077385 0.044662 -0.020605 0.00818 0.065839 0.075405 -0.009511 -0.049721 0.058322 0.063847 0.01204 -0.030437 0.021389 -0.009077 0.017182 0.037787 -0.026023 -0.016489 0.001408 0.030506 -0.04423 0.03745 0.009667 0.051504 0.029034 0.023247 -0.048228 -0.060922 0.017744 -0.001837 -0.001393 -0.056396 0.058467 0.019365 0.073523 0.034622 0.011324 0.088321 -0.060685 -0.077683 -0.00195 -0.022847 -0.039355 -0.077431 -0.051545 0.042097 0.038725 0.028224 -0.005022 -0.046579 0.049528 0.022856 -0.034371 0.067884 -0.077174 0.014534 -0.067493 0.075818 -0.015203 0.037846 0.038932 -0.009181 0.011551 -0.054474 0.024027 0.023294 -0.063195 0.017938 -0.017365 0.083162 0.02966 0.060391 -0.012832 -0.006125 -0.08701 -0.020351 -0.013041 0.051547 -0.048982 -0.018641 -0.098011 -0.013314 0.027626 0.021382 -0.064176 -0.005577 -0.004919 -0.010291 0.002112 -0.077883 -0.060471 -0.01252 -0.066998 0.041677 -0.080989 0.052239 -0.038048 -0.072511 0.06209 0.029271 -0.010047 -0.005501 -0.014159 0.042786 -0.036619 0.065442 0.03305 0.042794 -0.015257 -0.071009 0.063735 -0.099336 0.047364 0.010003 0.06913 -0.126454 0.027153 -0.06152 0.015858 0.023779 0.061224 0.005192 -0.028613 0.018905 0.042501 -0.012188 0.009894 0.060732 0.015904 -0.030859 -0.026116 -0.016267 0.052449 -0.038237 0.012246
  -0.016762 0.033132 -0.028904 0.059196 0.03252 0.068068 -0.033071 -0.031068 -0.083601 -0.151103 -0.015887 -0.000305 -0.054797 -0.034558 0.025817 0.001435 0.019656 -0.057753 0.016854 0.008741 0.00127 -0.06651 -0.005425 -0.004896 0.012023 0.031319 -0.003893 -0.001247 0.046488 -0.01232 0.00984 -0.161922 -0.031131 -0.035163 -0.078045 -0.028151 -0.025925 0.045848 -0.08595 -0.09366 0.077821 0.004261 -0.090448 -0.008982 0.02608 0.048105 -0.018668 -0.008795 0.059978 -0.011827 -0.041633 0.005337 0.035798 -0.038069 -0.010996 -0.072752 0.017932 0.002938 -0.073238 -0.065599 -0.034118 -0.005821 0.094507 0.117814 0.078985 0.006843 0.040047 0.044791 -0.042535 0.097035 -0.045891 -0.002086 -0.027264 0.011724 0.03238 0.0673 0.029453 -0.06723 0.003808 0.00208 0.051634 -0.033109 0.031602 -0.015353 0.034217 -0.109656 0.044383 -0.0788 -0.011811 -0.04406 0.030484 0.04156 -0.087568 0.03605 0.031359 -0.093807 0.022444 -0.020355 0.056801 -0.090828 -0.070708 -0.008439 0.026005 -0.100447 -0.122158 0.032825 -0.013669 0.00669 0.06128 0.039234 0.028051 0.040221 0.097204 -0.009079 0.027074 0.007697 -0.045281 -0.007836 0.125964 0.02605 0.002192 -0.282713 -0.019337 0.016403 -0.018057 -0.03605 -0.050275 0.035413 0.006105 0.008368 0.056257 0.004688 0.070826 -0.047022 -0.043802 -0.013677 -0.006468 -0.132499 0.097643 0.122071 -0.006961 0.035774 0.042887 0.016825 0.040578 -0.012685 -0.069639 -0.057746 -0.145454 -0.058716 -0.002374 0.022347 0.04045 -0.012533 -0.00702 -0.081905 0.048887 0.006445 -0.024376 0.01807 -0.082024 -0.028923 -0.00347 -0.009406 0.003098 -0.059118 -0.043047 0.005427 -0.036851 -0.027082 0.025485 -0.051439 0.005844 0.004307 -0.076347 0.066279 -0.102698 -0.007323 0.03344 0.102465 -0.01843 0.040116 -0.007221 0.078298 -0.023185 0.055341 0.029506 -0.012057 0.027134 -0.030766 0.08366 -0.023032 -0.114793 0.060956 -0.018235 0.081803 -0.071859 0.096202 -0.030383 -0.010758
  -0.01154 0.073386 -0.046011 0.026111 0.021731 0.057685 0.055067 -0.059914 0.08887 0.015105 -0.004636 -0.001608 -0.054255 -0.025224 0.020874 0.031485 0.103236 -0.028783 -0.027064 -0.016241 0.05233 0.026686 -0.01845 -0.062769 -0.129996 0.049464 -0.002061 0.032948 -0.020544 0.058936 0.006262 -0.020502 -0.106943 -0.02268 -0.069203 0.021254 0.007564 -0.012488 0.049598 0.076507 0.021779 0.014563 0.01517 -0.023768 -0.026963 0.051787 0.0055 -0.035978 0.062908 -0.063531 -0.026613 0.002256 -0.085556 -0.046356 0.002293 -0.109493 0.0028 -0.043496 -0.174873 -0.041666 0.041625 0.024752 -0.015398 -0.077866 0.092695 -0.02908 0.077217 0.031451 -0.045141 -0.004605 -0.084759 0.057152 0.087034 0.046996 -0.054669 -0.043005 0.072831 -0.032168 -0.030129 0.045732 0.032389 0.091117 0.029843 -0.043377 -0.118819 0.007573 0.024671 0.205868 0.02876 -0.090359 0.063831 -0.061781 -0.041128 -0.103473 0.070536 -0.10471 0.025526 0.02746 -0.108111 -0.06936 0.002379 -0.055346 -0.072678 -0.111938 -0.057219 -0.049988 -0.171015 -0.178182 0.003918 -0.026737 0.00809 -0.051629 0.041952 0.002965 0.035546 0.031915 0.070018 0.017051 0.074832 0.007029 -0.146541 -0.102356 -0.061356 -0.052087 0.027214 0.018504 -0.083185 0.021212 0.065848 -0.008308 0.017881 0.087948 -0.050227 0.015057 0.168424 -0.008622 -0.08096 0.011959 -0.011709 0.083079 0.040506 -0.011246 -0.048232 -0.024445 0.052651 -0.004836 0.081083 -0.085545 0.087599 -0.042355 -0.029081 -0.018284 -0.003548 0.042573 0.056502 0.085217 -0.068709 0.100642 -0.030507 0.138974 -0.112656 0.016687 0.025136 -0.041995 0.006235 -0.041064 -0.031273 -0.039321 0.053757 -0.023251 0.045824 -0.039921 -0.084081 -0.022894 -0.068324 -0.026713 0.022761 0.040574 0.067145 0.040179 0.109093 -0.000879 -0.058055 -0.013035 0.031185 0.002236 -0.013472 -0.024804 0.062 -0.031092 0.021917 0.061099 -0.047579 -0.03714 -0.01773 0.041782 -0.007768 -0.09802 -0.046155 0.022988
  0.049519 -0.021654 0.001225 0.001071 0.084668 0.006816 0.029708 -0.070549 -0.005325 -0.060155 -0.00354 0.133592 0.058503 0.007503 -0.034349 0.023421 0.031825 0.029642 -0.04782 0.026887 0.008095 -0.033 -0.019937 -0.00172 0.012617 0.046259 -0.026836 0.022664 -0.003009 0.088629 0.037237 0.024936 -0.116853 0.045818 0.024172 0.014849 0.012358 0.008262 -0.021615 0.004955 -0.009671 0.026012 0.112264 0.036711 -0.033603 -0.024179 0.02853 0.026789 0.105366 0.069882 -0.028973 -0.125151 -0.118022 -0.060845 0.038968 0.037522 -0.025224 -0.059462 -0.04551 0.007119 0.022317 0.111023 -0.052718 0.077461 -0.049235 -0.005463 0.091725 -0.023563 0.017335 -0.029827 0.032826 -0.069962 -0.098197 -0.051381 -0.054413 -0.004311 -0.086771 -0.049271 -0.049381 0.018492 0.064914 0.057346 -0.069411 -0.023947 0.057715 -0.019335 -0.031601 -0.015301 -0.124717 0.050985 0.012306 0.004267 0.038371 -0.055304 -0.066142 -0.062717 -0.01016 -0.0891 0.063874 -0.008361 -0.167 -0.007554 0.037395 -0.033841 0.07458 0.087644 0.033209 0.071561 -0.045451 0.017431 0.008546 0.030793 -0.008212 0.129433 -0.0186 0.065368 0.02541 0.132148 -0.057223 -0.022644 -0.151393 0.076506 -0.000289 -0.003156 0.025848 0.023715 0.055631 -0.040346 0.020414 0.074854 -0.007647 -0.014936 0.000555 -0.026316 -0.031869 0.053788 -0.048533 -0.037042 -0.143788 -0.06318 -0.022092 -0.061898 0.024854 0.018365 -0.010607 -0.020825 0.016362 0.01858 -0.012643 -0.033838 -0.000506 -0.035418 -0.005661 0.019923 -0.053997 -0.01704 0.041734 0.064916 -0.070712 -0.062321 -0.014123 -0.117387 0.016536 0.017643 0.047763 -0.017168 -0.168527 0.032897 0.000376 -0.08386 -0.032965 -0.028406 -0.019154 -0.015047 -0.037249 -0.006529 0.041416 -0.025636 -0.007875 -0.046682 -0.006488 -0.011166 0.035098 0.056232 0.04277 0.009125 0.116632 -0.030187 0.133412 -0.048219 0.000365 0.049127 0.017913 -0.064624 -0.060841 0.040317 -2.5e-05 0.008583 -0.05321 0.026388
  -0.116334 -0.023955 -0.110858 0.011022 -0.055119 -0.001434 -0.006814 -0.108627 0.008654 -0.233694 0.06115 -0.001879 -0.041829 -0.050378 0.069445 -0.047291 0.004623 0.130294 -0.080128 -0.011393 -0.019454 -0.058739 0.041249 0.029877 0.019789 0.034162 0.011607 -0.000858 0.137834 -0.060016 0.046381 -0.142028 0.020684 0.030815 -0.081403 -0.024341 0.066965 0.147165 -0.013615 -0.072864 0.024782 -0.078662 -0.216312 -0.019542 -0.018093 -0.045736 -0.014093 0.053663 0.157432 -0.043695 -0.028972 0.054365 -0.101236 -0.032938 -0.079851 -0.090157 0.10031 -0.008836 0.106472 0.013661 -0.094314 -0.047152 -0.007775 0.035704 0.01685 -0.157622 -0.08061 -0.018075 0.041223 -0.024175 -0.036963 -0.112959 -0.014219 0.034318 -0.044222 0.067465 0.045182 0.005356 0.032927 0.028636 0.044459 -0.031213 -0.060978 0.05192 0.10274 -0.038693 0.095746 0.011721 0.062943 0.076098 0.053345 0.113319 0.057464 0.048429 -0.010089 0.142241 0.092893 0.019236 0.042488 -0.043068 0.047568 0.007727 0.098173 -0.07426 0.025278 0.030809 -0.143703 0.015783 -0.009713 -0.034793 -0.000125 -0.062221 0.042381 -0.028999 -0.000136 0.052066 0.050689 0.080514 0.074121 0.00195 0.084994 -0.057994 -0.013016 0.015836 0.029894 -0.027005 0.195167 -0.142021 0.120065 0.059639 0.052982 0.08572 -0.052503 -0.032512 -0.041749 0.066652 0.023991 -0.167059 -0.080624 -0.126036 -0.062116 0.060904 0.006965 0.063052 -0.038384 -0.129349 0.033083 -0.024975 -0.082488 -0.017233 -0.009507 -0.011238 0.009202 0.114772 0.000476 -0.05824 0.057153 -0.043159 0.026711 -0.037594 -0.015082 -0.053574 0.034891 -0.050278 -0.030011 -0.059736 -0.089063 -0.003244 -0.001081 -0.013496 0.075477 -0.032264 -0.061707 0.03289 -0.00563 -0.027718 0.049925 -0.001442 -0.005316 0.000752 0.024938 0.049218 0.018603 0.026521 -0.096233 -0.134422 0.041586 0.005925 0.003116 0.026869 0.043753 0.002673 0.070642 0.013503 0.023417 -0.006866 0.018485 0.057278 -0.033302 -0.036815
  0.006156 0.000815 -0.115315 -0.000185 0.012866 -0.039345 -0.048535 0.051462 -0.180782 -0.295067 0.078062 -0.079277 0.033581 0.01278 0.045091 0.078982 0.037726 0.007647 0.009256 -0.004215 0.081931 0.042526 -0.00074 -0.002945 -0.077042 -0.113062 0.032256 0.022935 0.096494 0.067206 0.017252 0.07098 0.002996 -0.037885 0.058598 0.032649 0.035266 0.033996 0.079014 -0.004042 -0.088386 -0.006086 -0.059735 -0.036581 0.004141 -0.023566 0.036205 -0.016271 0.087571 0.02815 -0.008585 -0.004737 0.010549 -0.028518 -0.121941 0.004253 -5.2e-05 0.030673 -0.007566 -0.052977 -0.128866 -0.000168 -0.027972 0.015122 0.052661 -0.079867 0.082335 -0.055983 -0.100736 -0.138244 0.012509 -0.013088 0.075033 0.017428 -0.009424 0.075066 -0.013639 0.038121 0.02213 -0.006586 -0.033752 0.026296 0.000503 -0.067815 -0.255356 0.013262 -0.048711 0.00183 -0.004325 -0.094598 -0.038939 0.005119 -0.041413 0.013098 -0.065489 -0.092357 -0.084876 -0.039217 -0.013428 0.005321 -0.040899 0.018606 0.005263 0.004861 0.040908 0.088051 0.092591 0.07387 0.042553 -0.118582 0.084085 -0.082155 0.013264 -0.054194 -0.003061 -0.050461 -0.02417 0.059219 0.040302 0.014361 -0.165523 -0.082006 -0.060163 -0.029693 0.104423 -0.058676 -0.154475 -0.027012 0.095687 0.007877 0.039886 0.056484 -0.075959 0.019369 0.033216 -0.119269 0.019277 0.038596 0.050074 -0.065797 -0.039419 0.083161 -0.00495 -0.06196 -0.032558 0.017683 -0.044873 -0.031728 -0.022049 -0.170385 -0.074419 0.02194 -0.012102 -0.00285 0.028799 0.036696 -0.049312 -0.113596 -0.031635 -0.001255 0.029281 0.000795 -0.06194 -0.055124 -0.011585 -0.01548 0.0487 0.058555 0.044274 0.048423 -0.037385 -0.108991 0.005817 0.011716 0.081391 -0.054355 0.02646 0.04541 0.050576 0.01599 0.013787 -0.001646 -0.050493 0.084057 0.023071 0.074949 0.03354 0.002958 -0.075501 -0.056456 0.002137 0.007814 0.002248 0.04244 0.021308 0.080267 -0.023625 0.153078 -0.02275 0.079164
  0.077656 0.057753 0.015907 0.010158 -0.013831 -0.179033 0.023328 0.054217 -0.112046 -0.202942 -0.054782 0.0229 -0.026455 -0.013215 -0.11512 0.061645 -0.057925 0.029185 0.032295 -0.065022 -0.004183 -0.055528 -0.054387 0.031291 -0.113518 -0.042012 0.070013 -0.043015 0.011455 -0.061737 0.118653 0.00873 0.055243 0.072011 -0.003643 -0.031078 0.054174 0.042441 -0.006982 -0.039323 -0.083044 -0.009657 -0.023695 0.006189 0.030631 -0.02555 -0.03583 0.085233 0.095444 -0.061103 0.037085 -0.014456 -0.009249 0.031686 -0.034569 0.01263 0.022021 0.056297 0.080043 -0.056733 -0.041621 0.012265 -0.009071 0.034032 -0.041392 -0.052012 -0.100286 -0.030385 0.035351 0.083811 0.032218 -0.035694 -0.005381 -0.030986 0.080462 0.007427 0.032962 -0.030882 -0.070982 -0.061201 -0.078676 0.054911 0.008705 -0.003325 0.002499 -0.00215 0.081899 0.018001 0.032864 -0.026016 0.048288 0.102198 -0.071022 0.020175 -0.062418 0.061265 -0.047203 -0.037179 0.02394 0.026656 -0.120231 -0.009598 -0.106888 0.072755 -0.202241 -0.026836 -0.072836 0.064429 -0.105176 0.009886 0.01397 -0.04967 0.085703 -0.006948 -0.07703 -0.034508 -0.01265 0.083677 -0.114792 -0.112391 -0.011033 -0.047035 0.020827 0.018679 0.024202 0.0367 0.017918 0.001802 0.027235 -0.083405 0.034747 0.005846 0.043705 0.073392 -0.029846 0.055321 -0.024611 -0.005918 -0.010453 -0.003369 -0.020561 0.010788 0.037714 -0.000396 -0.044953 -0.020525 0.000168 0.064444 -0.065632 -0.066355 0.011002 0.006103 -0.075285 0.081784 0.021345 0.055894 0.077189 0.033785 0.005673 0.007459 -0.08221 -0.018086 -0.01268 0.007834 0.017892 0.011846 -0.121996 -0.003806 0.070527 -0.007703 -0.028092 -0.067612 0.064345 -0.019249 -0.127692 0.07591 0.037878 0.012515 0.049508 -0.040459 -0.049899 -0.003295 -0.141258 0.025447 0.022876 -0.007324 -0.019633 -0.057621 -0.162014 0.031727 0.081082 0.098978 0.041793 -0.004628 0.064234 -0.014129 -0.01148 -0.086142 0.06076 0.112077
  0.008842 -0.000545 -0.020465 0.020199 -0.04526 0.010737 -0.003392 0.08607 0.006337 -0.10698 0.052028 -0.009337 0.0179 -0.005637 -0.040824 0.039637 -0.029672 6e-04 0.012069 -0.00674 -0.005904 0.018691 -0.174538 0.003744 -0.069426 0.014669 0.014662 -0.006136 -0.108568 -0.028639 0.108889 0.017186 -0.047967 -0.028248 -0.004725 -0.032812 0.078837 0.043573 -0.014283 0.041302 0.077775 -0.061927 -0.045245 0.054564 2.6e-05 0.121083 0.01742 -0.038225 0.001757 -0.061401 -0.012741 -0.034558 0.123277 -0.013114 0.063953 0.041754 0.044885 -0.004618 -0.110371 -0.059423 0.102571 -0.000651 -0.033767 0.03782 -0.002022 0.107109 0.03205 0.001104 -0.0035 -0.054264 0.040679 0.072977 0.061827 -0.036056 0.110972 0.033948 0.075292 -0.015284 0.012334 0.026477 0.035689 0.009318 0.012468 -0.005377 -0.140128 0.024173 -0.015178 0.08163 0.075938 0.065849 0.052945 0.008806 -0.016562 0.008223 0.011317 -0.028299 -0.069533 0.053859 -0.049183 0.02408 -0.039957 0.033181 -0.155499 0.064743 0.027656 -0.055608 0.08439 -0.179459 -0.006829 0.062328 -0.022045 -0.011685 0.023585 -0.048601 0.005148 0.055203 0.002563 0.10346 0.032857 0.007749 -0.03853 0.128481 -0.021086 0.025746 -0.015005 -0.032821 0.078805 0.02125 0.044274 0.017428 0.013546 -0.235686 -0.103166 -0.015962 0.013825 -0.010618 0.009088 -0.110406 0.003091 0.013351 -0.022989 0.022314 0.03682 0.0652 -0.01035 -0.071787 0.013505 -0.079058 -0.051866 -0.011274 -0.011762 -0.009434 -0.059133 -0.024099 0.047558 0.077078 0.014612 0.031264 -0.062891 -0.325951 0.109151 0.006789 -0.041444 -0.094948 0.025769 0.049862 0.002663 -0.069764 0.031941 -0.005549 0.122265 -0.006669 -0.019487 -0.011869 0.03271 0.022043 0.024961 -0.048568 0.013215 -0.022318 0.022231 -0.05412 0.013284 0.0408 0.004157 -0.002566 0.009825 -0.070082 0.068436 -0.056502 0.000738 -0.062978 0.034939 -0.098647 -0.091639 0.022103 -0.018913 -0.117314 -0.036075 0.076648
  -0.138971 -0.068532 0.014991 0.030352 -0.04838 -0.060679 -0.019087 0.10258 -0.096526 -0.140091 0.013277 -0.053593 -0.004486 0.005562 0.059963 0.01742 -0.03988 0.093784 0.064881 0.02113 -0.067717 0.003844 0.073654 -0.038985 -0.094323 0.042991 0.043702 0.020438 -0.066192 0.041558 0.058854 -0.097955 0.012147 -0.008248 -0.132962 -0.027864 0.134682 0.074517 -0.038563 -0.047004 0.088552 -0.020984 0.075173 0.010371 0.104146 -0.014609 0.001773 0.020141 0.027596 -0.035602 0.038438 0.076364 0.068168 -0.015934 -0.10243 0.041622 -0.002566 0.006373 -0.004176 -0.162525 0.067166 0.005814 0.062085 0.120801 0.069156 -0.008552 -0.010689 -0.022872 0.025197 0.069561 -0.020054 0.011795 0.05217 0.025861 -0.026923 0.067059 0.043933 0.009612 0.069069 -0.015801 0.007184 -0.031584 0.004812 -0.085862 0.01733 -0.006668 0.001609 0.105738 0.082753 0.057528 0.000566 -0.016896 0.027208 -0.002028 -0.008663 0.042241 0.075969 0.002052 0.008783 -0.055337 -0.20716 0.030847 -0.044094 -0.041547 0.002118 -0.097053 0.140423 -0.134596 0.060418 -0.048061 -0.028493 -0.013607 -0.001857 -0.051105 -0.019541 -0.153562 -0.0741 0.014327 0.005851 -0.045613 0.01428 -0.053151 0.038757 0.082237 0.020594 0.008029 0.040587 0.017366 0.015098 0.019155 0.081112 -0.080164 -0.037864 -0.065245 0.141235 -0.087856 0.015885 -0.007729 -0.007158 0.090078 -0.02219 -0.054689 0.041594 0.022145 0.053203 0.073299 -0.048152 -0.063165 0.050648 -0.179189 -0.002137 -0.038267 0.031197 0.0335 0.048814 -0.080845 0.080756 -0.146796 0.036444 -0.05357 -0.061359 -0.00582 -0.067998 0.025197 -0.019702 -0.084052 -0.105338 0.122795 0.048438 -0.035427 0.116825 0.05605 -0.003126 -0.016656 0.007128 0.081058 -0.024017 -0.032759 0.002853 -0.189239 0.001204 -0.069122 0.013824 -0.084123 -0.021974 0.012936 -0.009682 0.035812 0.066896 0.023286 -0.022977 -0.099221 -0.054573 0.021378 0.065774 0.002647 0.009993 0.071612 0.026463 0.063031
  0.016344 0.026908 -0.05525 -0.02565 -0.016184 0.084345 -0.045145 0.059053 -0.032738 -0.199302 0.01547 -0.080853 0.010043 0.048889 -0.08397 -0.008867 -0.022994 0.048188 0.106489 -0.001384 -0.03056 0.014248 0.033874 -0.02714 -0.028674 0.00586 -0.007276 0.047916 0.00333 0.013407 0.082935 0.054406 -0.081176 -0.088465 -0.049936 0.010217 0.007292 -0.007043 -0.012753 0.021151 -0.044549 0.027614 -0.03004 0.050621 0.005763 0.014582 0.070195 0.052802 0.030115 -0.010378 0.049507 -0.137672 0.142841 0.00739 0.086802 0.029053 0.035869 -0.059598 0.065316 -0.140794 0.082901 -0.043109 0.101676 0.073804 0.041199 -0.097807 -0.023449 0.022376 -0.014929 0.040872 -0.049916 -0.01507 0.00016 0.031866 0.066972 -0.101033 0.075153 0.019741 0.073926 0.071697 0.064238 -0.044553 -0.000966 -0.026824 0.044849 0.030539 -0.074051 -0.089702 -0.007314 -0.004898 0.059934 -0.177189 0.049765 -0.010104 -0.016198 -0.101642 0.029341 -0.120506 0.075463 -0.033568 -0.121672 0.02936 0.121491 0.003023 -0.032216 0.079329 -0.018369 -0.131376 -5e-05 -0.004671 0.049367 -0.073347 0.007676 -0.05233 -0.011511 0.020279 0.008008 -0.043811 0.04517 0.008085 -0.009868 -0.070413 0.05367 0.029897 0.05468 0.014845 -0.051565 -0.040011 0.063118 0.020692 0.117702 -0.006793 -0.092815 0.028097 -0.138603 -0.067322 0.103857 -0.170756 0.037033 0.072478 0.012993 0.00017 0.012029 0.015041 -0.023263 0.081538 0.022514 0.012267 -0.046822 0.023745 -0.028851 -0.010743 -0.031564 -0.08023 0.006849 -0.128392 -0.034322 -0.110685 -0.008308 -0.058002 -0.096241 -0.027385 -0.086478 0.103079 -0.062484 -0.00773 -0.092667 0.073765 0.060209 0.017656 0.003323 0.034274 -0.016536 0.021452 0.045604 0.067215 -0.072079 0.044858 -0.012871 0.076533 0.025557 -0.063741 -0.06179 -0.100871 0.079147 -0.029706 -0.17079 -0.028692 -0.068868 0.121684 -0.016263 0.009688 -0.023891 -0.02495 -0.042082 0.055032 0.056582 0.008297 -0.069502 0.026968
  -0.048787 0.037086 -0.023372 0.046834 0.079894 0.156607 0.062899 0.062156 0.022586 0.006416 -0.044746 0.061767 -0.038162 0.050605 -0.13464 -0.010739 0.008003 0.107219 -0.047721 0.055078 0.048132 0.041522 -0.185452 -0.082545 0.074454 0.045675 0.003742 0.036528 0.02717 0.017624 0.005853 -0.055165 0.052691 -0.022884 0.193725 0.057059 0.031999 -0.074624 0.052819 0.081083 -0.002485 0.000419 -0.030752 0.011861 0.022339 -0.018791 -0.059988 -0.0322 -0.025798 -0.11545 0.031607 -0.007322 -0.080089 -0.040909 0.01227 -0.02195 0.023391 -0.093249 -0.027135 0.097922 -0.109349 -0.042177 0.120428 -0.071499 0.038306 0.040398 -0.032551 0.078083 -0.033599 0.10696 -0.027897 0.284606 -0.121296 -0.055589 -0.009337 0.009873 -0.018187 0.072635 0.007388 0.020044 0.032781 0.085178 -0.005434 0.043437 0.138908 -0.068751 0.091956 0.031367 0.042825 0.024211 0.10544 -0.01547 -0.098938 -0.088376 0.140411 -0.122817 -0.039409 -0.063044 -0.070408 -0.085554 -0.04097 0.012977 0.004503 0.133977 -0.173435 -0.10935 0.053793 0.153341 -0.004983 -0.030982 0.035913 -0.021541 -0.028229 0.028365 0.034712 -0.056364 0.008261 -0.070694 0.068129 0.079114 -0.025204 0.040629 -0.069624 0.0343 -0.083294 -0.023938 0.020697 -0.069617 0.090172 0.049748 -0.054859 0.037693 0.037146 -0.001203 -0.059005 -0.007281 0.103533 -0.033295 0.044122 -0.136127 0.026969 0.009572 -0.081647 -0.005079 0.007426 -0.032943 0.01618 -0.052294 -0.10426 0.079627 -0.086526 0.026723 -0.012656 -0.022875 0.053968 -0.004781 0.129466 -0.082654 0.019599 0.009389 0.029124 0.073702 0.030459 0.062286 -0.050981 0.064433 0.024645 0.133923 -0.054482 0.006319 0.057408 0.015617 0.049883 -0.04154 0.029484 0.092197 0.112325 -0.006163 -0.029078 0.046009 -0.079512 -0.003852 -0.091844 -0.060136 -0.030321 -0.027678 0.000725 -0.029941 -0.118215 0.015777 0.010571 0.028598 -0.07825 -0.051054 0.035025 0.049412 0.03807 -0.159223 -0.067268 -0.138233
  0.098933 -0.041217 -0.008555 -0.012805 0.056325 -0.006563 -0.102808 0.022025 0.005254 -0.210804 0.091096 -0.055985 -0.001149 -0.076835 0.080148 -0.011604 -0.050443 -0.183181 0.052841 -0.065884 -0.001576 0.150532 0.125699 0.030349 0.041627 -0.045137 0.01121 -0.067026 -0.052416 0.026189 -0.163362 -0.124477 0.053735 0.053789 -0.039821 -0.004927 -0.01522 -0.014093 -0.065692 0.060104 0.048507 -0.03501 -0.1898 0.015359 -0.001258 0.085619 -0.077219 -0.029829 0.146261 0.054111 0.006756 0.008785 -0.109777 0.022462 0.031148 -0.109572 -0.047236 -0.062304 -0.329585 0.021272 -0.04275 0.081766 0.136824 0.022321 0.008672 -0.046042 0.102811 -0.069732 0.022211 -0.131812 0.046137 -0.057652 -0.052469 -0.015273 -0.010943 -0.100174 0.040913 -0.018202 -0.060942 0.035424 0.010849 0.049719 -0.024833 -0.036432 -0.182452 0.014203 0.009236 0.129199 -0.118527 0.033411 0.002182 -0.078284 0.061466 -0.101898 0.055012 0.015657 -0.034104 0.004849 0.10368 -0.043221 -0.214288 -0.089065 0.169499 -0.094485 0.09298 0.044846 -0.06478 -0.137394 0.074487 -0.063475 -0.004989 0.091573 0.084294 0.003495 -0.040871 0.007059 0.016356 0.096037 0.146837 0.023385 0.036575 0.054802 0.031736 -0.045285 -0.012336 -0.052084 -0.037984 -0.035868 0.038269 -0.076789 0.015606 0.143823 -0.006581 -0.020735 0.033262 0.031157 0.043174 0.095548 0.039035 -0.046328 0.041356 -0.002735 0.048162 -0.074034 -0.037715 0.080505 0.01161 0.043859 -0.01836 0.047917 -0.002295 -0.027553 -0.057365 0.016946 -0.009148 0.044026 0.020526 -0.029643 0.050164 0.07751 -0.254786 0.025637 0.121903 0.054375 0.02389 -0.008403 -0.131153 0.045495 0.020145 0.015308 0.008814 0.065041 0.058361 -0.030301 -0.054089 -0.012665 -0.062878 -0.008612 -0.035696 0.010677 0.125226 0.041472 0.057912 -0.000846 0.012465 -0.034497 0.077271 -0.023852 0.150962 0.140547 -0.021322 0.095434 -0.081889 -0.011743 -0.014601 -0.050137 0.007047 0.070043 -0.029647 0.006355
  -0.049846 -0.060783 0.030638 0.047465 0.023737 0.036721 0.004208 0.020583 -0.073796 -0.140146 0.007077 0.018095 -0.035651 0.026075 0.056797 0.031238 0.028904 -0.120822 0.037701 0.033774 -0.038579 -0.002542 -0.011971 -0.034435 -0.048151 0.033472 -0.0202 -0.047672 -0.174531 0.078478 0.020997 -0.051278 0.047019 -0.09677 -0.025656 0.072633 -0.121672 0.026111 -0.102305 -0.134636 0.065042 0.01172 -0.005934 0.066267 0.027156 0.05853 -0.148078 -0.009491 0.000357 0.027476 0.065965 -0.023286 -0.052003 0.017934 0.023062 -0.004405 0.009507 0.019324 -0.191468 0.114985 0.055325 -0.024466 -0.066364 0.177678 0.077526 -0.058656 0.111295 -0.117263 0.019872 0.028985 -0.24007 0.134098 -0.055323 -0.044591 0.00684 0.040286 0.034224 -0.020549 -0.02857 -0.027004 0.092243 -0.013276 -0.022589 -0.049928 -0.036093 -0.141255 0.075147 0.152288 0.058889 -0.036677 0.06631 -0.008648 0.088723 0.007674 -0.060503 0.100448 -0.040849 0.010769 0.047692 -0.075036 0.018914 -0.129215 0.072614 -0.005798 -0.021777 -0.020756 0.093186 0.084558 -0.024871 0.007933 -0.015529 -0.002405 -0.038075 0.154192 -0.046963 0.012114 0.005847 -0.051383 -0.009583 -0.019135 0.007513 -0.0869 -0.067883 0.05283 0.022166 -0.012386 -0.106144 0.08556 0.075837 0.03711 0.050365 -0.188895 -0.060265 0.003526 -0.010196 0.081083 0.002345 -0.000337 -0.003931 0.059082 -0.028185 0.042074 -0.161898 0.009791 -0.037501 -0.139657 -0.033936 0.003404 0.047196 0.084224 0.029368 -0.094152 0.093335 -0.006506 -0.137241 0.035631 0.085661 0.008992 0.008624 -0.108414 -0.090172 0.011105 -0.011009 0.030918 0.034895 0.064404 0.105362 0.090696 -0.006512 -0.026346 0.00278 0.059942 0.01733 -0.016547 -0.064103 0.00251 -0.132982 -0.105203 -0.05621 -0.133613 0.079278 0.063328 0.021662 -0.023727 -0.107165 0.045833 -0.037123 -0.007274 0.012435 0.034379 -0.003438 -0.016583 -0.038885 0.050259 0.059799 0.000134 -0.027969 0.071419 -0.000865 -0.090713
  -0.040436 -0.011439 -0.027676 -0.015568 -0.030132 0.040905 0.01515 -0.049794 -0.064896 -0.084366 0.005918 0.033776 -0.00077 0.009126 -0.102339 -0.008774 0.001077 0.033281 0.043685 0.052025 0.019757 0.001217 0.064476 0.034629 -0.019636 0.004336 -0.015005 -0.094491 0.137046 0.009557 -0.030739 -0.072273 0.030214 0.010493 -0.031662 -0.170472 -0.1052 -0.022553 0.081651 0.081711 -0.053531 0.046036 -0.079626 -0.097939 0.053944 -0.14306 0.0149 0.090472 0.064754 0.047552 0.009048 -0.012055 -0.114392 0.037742 -0.008887 0.0209 -0.01492 -0.004303 0.161509 0.035317 -0.039263 0.00061 -0.00514 0.020147 -0.007627 0.04028 0.006582 0.077541 -0.061283 -0.063274 0.105224 0.016377 -0.130482 0.051925 -0.148495 0.03075 -0.006622 -0.035152 0.013078 -0.020059 0.033124 0.013828 0.112617 -0.042223 -0.062759 -0.023308 -0.111799 -0.099198 -0.077329 0.000543 0.101563 0.057079 0.048872 0.034246 -0.008861 0.07021 0.055877 0.05669 0.113846 0.037266 0.025186 0.000587 0.068179 -0.068012 0.15233 0.006538 0.059676 0.069887 0.057221 -0.001331 -0.107805 0.050781 -0.006859 0.03679 0.017125 0.045199 0.005173 0.016083 -0.063694 0.077368 -0.067496 0.031936 0.017608 -0.055791 0.013453 -0.083338 -0.087453 0.005513 0.059209 -0.015092 -0.082502 0.027387 -0.013699 -0.050019 -0.044221 0.012313 -0.030501 0.163869 0.2075 -0.005284 0.075199 0.026083 0.008523 0.060319 -0.043495 0.136189 0.022127 -0.090022 0.036144 0.039501 -0.064792 0.020803 -0.093857 0.026526 0.082755 -0.026695 0.027322 -0.118799 0.065691 -0.089544 0.070091 0.015724 0.099302 0.059776 0.099262 -0.052221 -0.083593 0.049899 -0.033685 -0.057329 -0.044742 0.021432 -0.038245 0.0127 -0.024375 -0.074213 -0.061483 0.036646 -0.005447 -0.015162 -0.017196 -0.007121 0.022027 0.081157 -0.091453 0.022754 0.092588 -0.007768 0.025534 0.02718 0.039697 0.002094 -0.096728 -0.028447 0.024103 -0.03234 0.007935 -0.02828 0.024752 -0.054059
  0.003039 0.019466 -0.052753 -0.006987 0.061733 0.05517 0.084174 -0.188325 0.065458 -0.088511 0.014054 -0.020142 -0.015516 0.036216 0.026399 -0.105408 0.051914 -0.056115 0.05858 0.000696 0.104351 0.024657 0.014287 -0.011142 0.023585 0.003818 0.058122 0.017461 0.040032 0.015082 -0.028258 -0.124435 -0.003686 0.004596 -0.052689 -0.022592 0.012575 0.074708 0.012984 -0.069771 0.054447 -0.032912 -0.130178 0.021251 -0.148387 -0.15956 -0.004167 0.0126 -0.110812 -0.130241 0.026028 -0.062193 -0.076022 -0.049009 0.071913 -0.016836 0.056604 0.061361 0.036419 0.171361 -0.09435 -0.035185 -0.001759 -0.291114 0.033283 -0.052637 0.085626 0.022393 0.086759 0.070197 0.008861 0.19823 0.027749 -0.002061 -0.065732 -0.118566 0.045986 0.037537 -0.034499 0.058889 0.102991 -0.071017 -0.044224 0.063892 0.151493 -0.117327 0.073766 0.222658 -0.007458 0.010327 0.012274 0.000919 -0.090677 0.101245 0.047784 0.125317 0.010771 -0.092216 -0.059257 -0.026125 0.117041 0.004911 0.079995 0.032808 -0.115247 -0.089734 0.050206 -0.054868 0.023966 -0.001145 0.029302 0.080162 0.050309 0.073033 0.003469 0.029296 -0.044557 -0.040245 0.003194 0.037208 0.064736 0.136341 0.014258 -0.00926 -0.018223 -0.062458 0.140766 -0.000989 0.041979 -0.067268 0.019219 0.034859 0.018541 0.043863 0.007009 -0.037685 0.053522 -0.007521 -0.049161 0.079906 0.009594 0.039213 -0.115645 -0.04177 0.007579 -0.106114 0.030825 -0.040133 -0.026724 -0.004912 0.008293 -0.055916 -0.004504 -0.092781 0.09977 0.047582 -0.001139 0.010908 -0.122251 -0.271094 -0.141277 0.031849 -0.025091 0.035195 -0.056344 -0.036881 0.074089 0.017359 0.01452 -0.030822 -0.038451 0.030668 -0.097581 -0.037063 0.028293 -0.024959 -0.071363 0.091482 -0.088361 -0.127002 0.113446 -0.025991 -0.109745 0.034106 -0.061647 0.048301 0.057157 0.033248 -0.134347 -0.001665 -0.001186 -0.061856 0.018656 -0.011525 0.094764 -0.042217 -0.014361 0.058612 -0.098539 -0.005478
  -0.034193 0.064315 -0.002174 0.012736 -0.024651 0.055824 0.035886 -0.038756 0.15698 0.059813 0.044386 -0.13443 0.052585 0.040962 0.048502 -0.007942 -0.081234 -0.093339 0.02065 0.001693 0.006079 0.09086 0.022026 -0.066402 0.006021 -0.013477 0.118443 -0.081479 0.099269 -0.193375 0.078318 0.110157 0.036617 0.07717 -0.044955 0.05592 0.096797 -0.05342 0.11326 0.030566 0.090076 0.067102 -0.033186 -0.031447 0.048556 -0.053139 0.056695 -0.046345 -0.047136 -0.010926 0.040374 -0.058554 0.022596 0.001714 0.120793 4.3e-05 0.029371 -0.003889 -0.005329 0.058976 -0.117624 0.077805 -0.179988 -0.006254 0.046212 0.059669 0.036233 -0.102183 -0.002031 -0.023218 -0.128571 -0.016571 -0.022979 -0.016342 -0.002742 -0.101131 -0.015254 -0.034968 -0.164991 0.011339 0.008147 0.016196 -0.015144 0.081425 -0.003556 -0.06444 0.112987 0.084913 0.040177 0.043948 -0.061129 -0.017578 -0.121935 -0.057131 0.012041 0.034031 0.039387 -0.023999 -0.086372 -0.020221 0.063046 0.066648 0.158398 -0.172578 -0.226613 -0.121273 -0.108901 0.0295 -0.023782 -0.024481 -0.00141 0.132215 0.054024 -0.053234 -0.0414 0.036989 0.077079 0.014422 -0.012055 -0.003498 0.061836 -0.107719 0.093813 0.062227 -0.142144 0.07995 -0.021525 -0.033677 -0.130998 0.075446 -0.092615 -0.149954 -0.007634 0.056431 0.107218 -0.016581 0.130417 -0.113516 0.06393 -0.067042 0.043153 -0.055015 -0.107714 0.065439 -0.003568 0.049555 0.013568 0.084474 -0.182799 0.07178 -0.04082 0.028009 0.033415 -0.031401 -0.083406 0.066132 -0.075411 0.04826 -0.08359 -0.104297 -0.092244 0.07549 -0.032533 0.114073 -0.016306 0.152763 0.051626 0.043726 0.011747 -0.089094 -0.057642 -0.010553 0.010911 -0.026744 -0.064844 0.014486 0.025426 0.085351 -0.088089 0.062221 -0.050943 -0.020204 -0.017358 -0.042726 0.108349 0.062424 0.078511 -0.036422 -0.032634 0.00422 0.067322 0.064859 -0.087052 -0.04622 -0.010321 -0.012573 0.002161 0.027104 -0.034879 -0.139612
  0.18745 -0.117773 0.095798 -0.209218 -0.060828 0.262096 0.241295 0.140569 -0.463161 -0.052949 0.014235 0.03731 0.077779 0.168795 0.009321 0.007226 -0.040001 -0.034491 -0.032658 0.060609 -0.044433 0.447355 -0.021232 -0.288284 0.012156 0.165393 0.273979 0.079039 0.015129 -0.03069 -0.000285 0.019146 0.224532 0.132461 0.149292 -0.046839 0.294159 -0.035598 0.016404 0.2985 0.025164 -0.039519 -0.004384 0.007726 0.049314 -0.00231 -0.108439 0.000484 0.096861 -0.268801 0.148277 0.212221 -0.111524 0.028737 -0.045122 0.064599 -0.02384 -0.213372 -0.000452 0.034804 0.312444 -0.777754 -0.040722 -0.029635 -0.052393 -0.086949 -0.043423 0.163827 0.186408 0.115134 -0.122509 0.354954 -0.00572 -0.03699 -0.06472 0.008206 -0.042416 0.215091 -0.079215 -0.147615 0.193394 -0.005405 0.18493 -0.005425 -0.041008 0.001565 0.127452 -0.006788 -0.075123 -0.001269 -0.026154 0.030881 -0.361988 0.004832 0.42825 0.103582 -0.008811 0.102342 -0.010154 -0.013462 -0.06063 -0.034466 -0.002205 0.201586 -0.489989 -0.770446 -0.074921 0.022793 0.033948 -0.17814 0.153789 -0.028462 -0.077767 0.298781 -0.082548 0.058207 -0.103898 -0.020871 -0.033758 0.006252 -0.047939 0.040756 0.090528 -0.027564 -0.046993 0.158639 -0.029582 -0.020206 -0.098048 -0.177694 -0.073213 -0.020273 -0.063332 0.366022 -0.028631 -0.009177 -0.052821 0.600353 0.003769 -0.001248 -0.226231 0.321776 0.022746 0.000611 -0.324811 -0.039869 -0.067613 -0.344408 -0.103245 0.083246 0.013798 -0.308866 -0.039898 -0.075473 0.2199 -0.017883 0.012398 -0.072653 -0.020431 0.005511 0.011733 -0.012055 -0.019818 0.274414 -0.25313 0.037675 -0.060885 0.066323 -0.000702 -0.487956 -0.022348 -0.418723 0.132768 0.041797 0.41651 0.012319 0.05438 0.009328 0.046344 -0.038793 -0.031646 -0.249152 -0.556065 -0.422163 -0.094112 -0.008264 0.00585 -0.31419 -0.033433 -0.07941 -0.07952 -0.016635 -0.071984 0.054938 0.029877 -0.027991 -0.146243 0.077301 0.058071 0.019205
  0.177062 -0.086868 0.162845 0.101121 -0.02947 0.228605 0.252795 -0.553453 0.484371 -0.095529 -0.036433 -0.011478 -0.031044 -0.093202 0.024167 0.07355 -0.038167 0.019397 -0.013708 0.095387 0.015559 -0.236259 0.014381 0.191728 0.032807 0.15618 0.300395 0.140586 -0.010458 -0.047526 -0.003181 -0.042597 0.24611 0.082752 -0.120723 -0.037589 -0.151178 -0.079305 0.002343 -0.182139 -0.021123 -0.036246 -0.032577 -0.03679 0.022764 0.041529 0.022726 -0.049164 0.017531 0.115968 0.098098 -0.335523 0.007248 0.06085 -0.025009 0.140069 -0.059327 -0.329416 -0.040519 -0.019668 0.564629 -0.005279 -0.027493 -0.025129 0.00474 -0.050202 0.03293 -0.319732 0.236789 0.202509 -0.208188 -0.02061 -0.036948 -0.012928 0.001197 0.055753 0.033741 -0.421329 -0.014864 0.099779 0.108679 -0.040309 -0.176233 0.256381 -0.041925 -0.021773 0.275307 -0.04392 -0.006737 0.00358 -0.030837 0.018867 -0.045411 -0.013213 -0.224539 0.054774 0.032961 0.198698 -0.045565 -0.000161 -0.0473 -0.064043 -0.062866 0.106064 -0.558992 0.177815 0.048756 -0.079147 -0.063488 -0.341896 -0.249376 -0.008494 -0.027935 -0.084852 0.011066 0.125361 0.181633 -0.057924 0.007034 0.060843 -0.075181 -0.019677 0.077847 0.046748 -0.035563 0.018587 -0.05788 0.033174 0.018545 -0.185742 -0.034034 -0.013412 -0.004747 0.275252 0.008068 0.004505 -0.057723 -0.256856 -0.033811 -0.02096 -0.151816 0.191946 -0.038941 -0.013336 -0.028989 -0.005265 -0.052243 -0.158802 -0.03588 -0.014369 0.040924 -0.283213 -0.033205 0.003693 0.18245 -0.025384 0.023772 -0.021099 -0.313078 -0.09395 0.014759 -3.2e-05 -0.039671 0.20822 -0.128833 -0.01445 0.062456 0.333223 0.015534 0.277848 0.011291 0.291378 0.195709 0.024882 -0.099061 -0.008977 0.08972 -0.040231 -0.031866 -0.026298 -0.025417 0.074826 -0.490413 -0.463952 -0.014695 -0.026662 0.016056 -0.315119 -0.07051 -0.018286 0.210274 -0.01983 -0.033841 0.171217 0.173018 0.06548 -0.373731 -0.024018 -0.112928 0.068415
  0.138527 -0.101808 -0.090307 -0.158815 0.044298 -0.060793 -0.386198 -0.467744 0.520587 -0.116272 -0.047185 0.033063 -0.077799 0.137515 -0.014629 0.005607 -0.037421 0.013639 0.078242 0.090407 -0.024315 0.146522 0.010352 -0.119206 0.002618 0.074856 0.130237 0.200417 -0.043221 0.041091 0.0234 -0.042754 0.043281 0.03059 0.433353 0.008948 0.075692 0.005009 -0.052855 -0.093549 -0.059177 -0.07015 -0.024936 -0.055386 -0.067487 0.066911 0.028204 -0.043081 0.043891 0.106936 -0.490367 0.212226 -0.06128 6.8e-05 -0.027985 0.16096 -0.005078 -0.432856 -0.062677 -0.07599 -0.214331 0.108265 -0.019751 -0.019721 -0.028169 -0.002012 -0.044172 0.134674 -0.117951 0.270927 -0.146379 -0.167231 -0.015199 0.003712 0.010061 -0.021328 -0.07076 0.132038 -0.051685 0.170633 0.055235 -0.055003 -0.141785 0.117466 0.061638 -0.053689 0.256936 -0.016943 -0.017551 0.053324 -0.063702 0.030644 0.153846 -0.017041 0.258261 0.082909 0.004759 -0.194739 -0.04836 -0.031689 -0.044219 -0.021306 0.082542 -0.113281 -0.006172 0.070594 -0.000839 0.090635 0.014036 -0.324784 0.179565 -0.031199 -0.051654 0.069225 -0.059122 0.178847 0.076687 -0.035794 -0.003709 0.000633 -0.072928 0.065186 0.112992 -0.037974 -0.038482 -0.012244 -0.065666 0.026711 -0.04789 -0.282433 -0.020916 -0.085859 -0.002554 -0.443562 0.03495 0.050553 0.010345 0.08946 -0.045521 -0.093752 0.102125 0.162786 -0.019648 0.04411 -0.382965 -0.132437 -0.050452 -0.339426 -0.029746 -0.055875 0.048914 -0.005789 0.226186 -0.020538 0.212636 -0.025773 0.028825 -0.004386 -0.270517 -0.038739 0.040711 -0.043972 -0.023902 0.008204 -0.187757 -0.042287 0.001268 -0.049771 0.02085 0.284945 0.033006 0.104082 0.167105 -0.481113 0.267466 0.011128 0.016473 -0.027856 -0.038439 -0.057311 -0.022445 -0.002226 -0.244602 0.097303 -0.075316 -0.05905 0.009381 -0.122015 0.334772 -0.050158 -0.40515 -0.009321 0.052673 0.116562 0.066721 0.023294 0.117746 0.026881 0.146484 0.036764
  0.213552 0.114843 0.153539 0.07121 0.016589 -0.176501 -0.272475 0.043889 0.409327 -0.151771 0.01275 -0.038127 0.014487 -0.238975 -0.028112 -0.047491 -0.040609 0.010784 0.033822 -0.283211 0.019732 0.084375 0.117558 0.122075 -0.047873 -0.078687 0.129895 0.103308 -0.086254 0.022778 0.058889 0.059853 0.092466 0.155264 -0.068507 -0.004925 0.123629 0.039999 -0.039037 0.194743 -0.059709 -0.028714 -0.07752 0.024311 0.041567 -0.001752 -0.009417 0.007833 -0.10529 0.056646 -0.037753 0.047251 0.098033 -0.047469 0.035497 -0.133962 0.070154 -0.164224 -0.142166 0.120834 0.191834 -0.170188 -0.008728 -0.010245 0.062538 -0.159422 0.050435 0.068272 0.123444 -0.398253 0.23933 -0.001389 -0.048701 0.017785 0.080736 -0.010821 -0.01581 -0.224293 0.036251 -0.067788 -0.288996 -0.046152 -0.027709 -0.268786 0.045677 -0.064653 -0.046797 0.104077 -0.013236 0.047934 0.015205 -0.081301 0.146171 -0.089782 0.142814 0.073532 -0.045622 -0.017215 -0.010427 -0.061528 0.097213 -0.034172 0.054866 0.081321 0.223278 0.158945 0.062293 0.142523 0.052576 0.121866 0.072408 0.035325 0.042925 -0.009345 -0.033074 -0.172439 -0.009942 0.043503 0.10083 0.004217 -0.091667 -0.010168 0.190246 -0.079008 0.008482 -0.039267 -0.034609 -0.038688 0.130801 0.131048 -0.011876 0.022972 0.017996 -0.237659 -0.047849 -0.053084 -0.009938 -0.211003 0.025093 0.055906 -0.122893 0.050168 -0.0671 0.005301 0.01241 0.097593 0.008222 0.04024 -0.092018 -0.053655 -0.119184 -0.016286 -0.312044 -0.025265 0.147916 -0.101781 0.075019 0.020572 0.080168 -0.054355 -0.06586 0.019942 0.006118 0.190921 -0.015917 0.011841 0.003526 0.035377 0.049578 0.175277 0.062085 0.088482 0.075518 0.082149 0.218773 -0.046268 -0.059737 -0.000277 -0.060999 -0.089697 -0.089225 -0.010068 0.246427 0.069524 -0.059664 0.033914 0.030665 0.118082 0.034797 0.058298 -0.151155 -0.006252 -0.065633 0.06406 -0.139731 0.008096 -0.083361 0.033291 0.152793 0.028379
  0.234267 0.029109 0.06354 -0.042275 -0.02247 0.206851 -0.388736 -0.131698 0.235387 -0.022167 0.024264 -0.046337 0.13992 0.106688 -0.012783 -0.018321 -0.047536 0.034958 0.012112 0.115614 -0.059478 0.387547 0.041811 0.118263 -0.002696 -0.182854 -0.01302 0.116387 -0.07208 -0.010752 -0.032788 -0.015388 0.148875 -0.177929 -0.143209 -0.053669 0.077083 0.00431 -0.018624 0.168486 -0.036401 -0.037896 -0.05255 0.003968 -0.011601 0.028773 -0.297485 -0.005629 -0.140187 0.102335 -0.015173 -0.021306 0.053141 0.112236 -0.02463 0.157647 -0.014961 0.037281 -0.028318 0.116558 -0.135957 0.112405 0.071068 -0.007733 0.059799 -0.03382 -0.001055 -0.236674 0.06473 -0.26865 -0.027897 -0.063613 -0.032119 0.011129 -0.012406 -0.048462 0.002734 0.09844 -0.017427 0.111876 0.156212 -0.054194 -0.245304 0.239804 -0.021808 -0.026052 -0.008731 0.069279 -0.013235 0.008914 0.036921 -0.025012 0.020071 -0.143814 -0.265615 0.130241 -0.069164 -0.105543 0.05132 -0.038819 0.069025 -0.030989 -0.024712 0.133599 -0.295546 0.166858 0.038683 0.077424 0.020235 0.098771 0.196071 0.018618 0.033064 0.030423 -0.022312 0.182019 -0.000127 0.059464 -0.005594 -0.049314 -0.048901 0.006792 -0.107468 -0.028899 -0.011132 0.003153 -0.001592 -0.101184 -0.006216 0.12475 -0.037685 0.030536 0.020219 0.102505 -0.031795 -0.101972 -0.120722 0.302039 -0.009836 -0.018796 -0.076083 0.183312 0.04933 -0.012612 -0.016284 0.065819 0.004779 -0.021111 0.053535 -0.100601 -0.332374 -0.355195 -0.177346 -0.05964 -0.31604 -0.046477 0.015141 -0.067241 0.132381 -0.065339 -0.140554 0.051712 0.010035 0.093937 0.126774 0.049329 0.026514 0.23037 0.022895 0.189243 -0.013502 0.052015 0.116183 -0.379522 -0.09464 -0.067259 -0.009366 0.073672 -0.006281 -0.058376 -0.052552 -0.173365 0.293074 -0.279106 -0.029442 0.006937 0.02205 0.145035 0.240917 0.086927 0.116697 0.000683 0.011521 0.075553 0.041821 -0.076469 0.09193 0.054074 -0.198243 0.045397
  0.285713 -0.088504 0.215171 -0.003699 -0.030165 0.062168 0.060808 0.036489 -0.06098 -0.01768 0.000945 0.016647 -0.084672 -0.042308 -0.08582 -0.019679 -0.04106 0.004438 -0.013723 0.08265 -0.018911 0.290724 -0.020493 0.145026 0.032057 0.008164 -0.104448 -0.126916 -0.094643 -0.058038 -0.015285 -0.015987 0.206445 -0.044364 0.185321 0.018703 -0.437045 -0.00296 -0.044181 0.233374 -0.02929 -0.036802 -0.029506 0.029499 -0.002271 -0.012773 0.045245 -0.027579 -0.04224 0.206846 -0.381997 0.178364 0.040986 0.099335 0.038188 0.069286 -0.012548 0.047245 -0.038092 0.077022 -0.064628 -0.058064 -0.031356 0.02048 0.006982 0.009603 -0.006893 -0.061869 0.231529 0.262712 0.465086 -0.039449 -0.003845 -0.069413 -0.011634 4.6e-05 0.043487 0.218137 -0.016273 0.092529 -0.076683 -0.021616 0.241656 -0.437503 -0.070821 -0.044777 -0.061134 0.075318 -0.006321 0.061724 -0.005819 -0.037341 -0.008295 -0.067155 0.23496 0.085809 -0.065347 -0.01712 -0.00233 -0.034634 -0.021345 -0.032373 -0.000531 0.030288 0.209223 0.102168 -0.010136 -0.075237 -0.016091 -0.113822 -0.061028 -0.041294 0.003156 0.252599 -0.060672 -0.044577 -0.353595 0.050129 0.030361 0.008019 -0.056819 -0.022013 -0.057515 0.028571 -0.024724 0.045946 -0.024582 -0.024648 0.006393 -0.314781 -0.023919 -0.080924 -0.001142 -0.197927 -0.044552 0.011308 0.013687 0.494442 -0.017453 -0.027872 0.128615 -0.092778 -0.034723 0.014894 -0.065296 -0.021109 -0.04173 -0.289092 -0.08538 -0.030333 -0.325027 0.068279 -0.132475 -0.029942 -0.072245 0.02599 -0.006719 -0.013573 -0.047603 0.007158 0.005642 -0.030727 0.026476 -0.063013 0.129642 -0.004791 0.037944 0.212632 0.008042 0.305676 -0.007857 -0.254785 -0.028565 -0.622311 -0.362467 0.017273 0.064891 -0.004726 -0.048688 -0.020074 0.021944 0.006399 0.251738 0.070881 -0.072049 -0.04929 0.029141 0.162209 0.269743 -0.012753 0.124302 -0.029694 -0.044281 0.084978 0.078346 -0.024164 0.081728 0.078415 0.140419 0.047292
  0.054412 -0.041811 0.055889 0.019265 -0.069389 -0.126958 -0.041511 0.079301 -0.048571 0.017271 0.034556 -0.143983 -0.004747 -0.044154 0.00134 0.007019 0.019094 -0.053342 -0.104319 -0.008919 0.047663 0.034047 0.019262 0.039215 0.00119 -0.011399 -0.141726 0.042783 -0.075321 0.022567 0.015734 -0.032885 0.017225 -0.067771 -0.055749 0.04202 0.041687 0.000315 0.020089 -0.06669 0.096366 0.030375 0.14853 -0.037406 -0.035462 -0.091376 -0.012241 -0.043936 -0.019224 0.016897 -0.108403 0.091638 0.025646 0.04013 0.010702 0.045054 -0.058539 0.032747 -0.027378 -0.000709 0.060418 0.004453 0.054056 -0.008751 0.024027 0.103215 0.06778 -0.015648 0.013519 0.035664 -0.019255 -0.137504 0.05178 0.148409 0.075782 0.019655 -0.017998 0.011802 -0.031142 -0.050525 -0.016868 -0.04664 0.004525 -0.037878 0.064961 -0.039651 -0.041344 0.125322 0.030808 0.058343 0.048416 -0.081688 -0.004011 0.056818 0.019419 -0.027397 -0.018451 0.025983 0.028823 -0.060512 0.153218 0.075263 -0.132407 0.078464 0.021275 0.02541 -0.151764 -0.069204 0.035027 0.003496 0.018161 0.112566 -0.042214 -0.034913 0.073376 -0.075876 0.027028 -0.021932 -0.046169 0.108113 -0.063183 -0.054065 -0.012031 -0.003333 0.018922 0.032658 -0.061515 -0.119016 -0.059207 -0.061645 0.043823 -0.029276 -0.082638 -0.061485 0.111757 0.091924 -0.058856 -0.098025 -0.020355 0.066572 -0.001425 0.021381 0.089053 -0.061487 -0.00819 0.05269 0.022909 -0.038252 0.038619 0.056182 0.028407 0.007778 -0.047183 -0.042425 0.08357 0.038324 -0.132616 0.113856 0.034511 -0.175144 0.047143 0.010879 -0.076582 -0.076715 -0.018288 0.000948 -0.06908 -0.033857 0.006535 0.044964 -0.079711 -0.073173 0.044492 -0.02599 0.087517 -0.157657 0.033215 0.029543 -0.016692 0.007041 -0.066746 0.012869 0.065434 -0.007952 0.022995 -0.036843 -0.046418 0.024448 -0.068502 0.105281 0.010189 -0.008772 0.052914 -0.025486 0.038247 0.035218 0.043683 0.059296 0.062344 0.006752
  0.046793 -0.03988 -0.008694 0.081855 -0.008746 -0.069142 0.011235 -0.042517 0.091364 -0.040055 -0.037756 -0.02775 -0.028871 0.000196 0.002962 -0.007337 -0.031335 -0.077749 -0.002373 0.013002 0.008272 -0.088332 0.046702 0.059296 0.067159 0.010242 -0.015098 0.022673 -0.106181 -0.019302 0.053329 0.017023 -0.026982 0.028147 0.059971 0.056426 0.028864 -0.039452 0.042399 0.056239 0.03465 -0.002203 0.022253 0.030289 -0.037983 -0.05925 0.002298 0.059865 0.011014 0.032684 -0.002167 0.045293 0.004342 -0.027914 -0.001845 -0.019277 0.049936 -0.02176 -0.071625 0.057722 -0.084227 -0.007976 -0.193945 0.083095 0.100781 -0.133876 -0.007678 0.012914 -0.068711 -0.008005 -0.027052 0.015039 0.020249 0.042113 0.0904 0.012527 0.035196 0.078369 -0.000851 -0.041585 0.039855 -0.057909 0.063192 0.019812 0.00842 -0.026527 0.081719 -0.02994 0.068155 -0.029341 0.082974 0.108008 -0.006607 0.055613 -0.009674 0.037199 0.017243 0.019838 -0.051838 -0.027621 0.025664 0.049064 0.038049 0.118545 -0.00959 0.068752 -0.047204 -0.046182 -0.00657 0.044921 0.045892 0.071565 0.03928 0.031252 -0.021205 0.037287 -0.0696 -0.09488 -0.12627 -0.045334 -0.145721 -0.023859 -0.018395 0.031031 -0.05008 -0.024056 0.030373 0.018637 0.01824 0.018416 -0.029697 -0.165222 0.023365 -0.053081 -0.025892 -0.019269 -0.039434 0.001131 -0.072417 0.027017 -0.029297 0.052476 0.02878 -0.016328 0.003601 0.020544 0.033971 -0.063001 -0.076635 -0.109624 0.012448 0.036142 -0.047389 0.004054 0.034606 0.041836 -0.010561 0.022506 -0.006092 0.090376 -0.088003 0.038536 -0.01367 0.036329 -0.075427 -0.031749 -0.057894 -0.00404 0.015629 -0.025688 -0.017736 -0.093684 -0.108227 -0.02297 0.08945 0.029619 0.048847 -0.047106 0.004409 -0.047296 -0.022075 -0.009686 -0.044905 0.036248 0.055739 0.03014 0.020348 0.001918 -0.116208 0.031994 -0.016382 -0.020721 -0.000941 0.008354 0.042353 0.060795 0.039469 0.016349 0.03243 0.033824
  -0.067967 -0.023691 -0.030318 0.001926 -0.007828 -0.09545 -0.06617 -0.018205 -0.111463 -0.126413 -0.011141 0.005213 -0.010791 -0.022807 0.015104 0.009712 -0.046993 0.043327 0.10476 -0.011375 -0.025362 0.001776 -0.025592 0.035842 0.035017 0.039943 -0.034158 0.038653 -0.139753 -0.128405 -0.078747 0.050264 -0.027157 -0.076461 0.02483 0.002399 0.015922 -0.00709 0.001054 -0.048342 -0.133905 -0.019886 -0.165346 0.00736 -0.015808 0.103553 0.066358 0.065585 -0.055107 0.061254 0.013776 0.041208 0.02884 -0.031139 0.032812 0.040815 0.048919 -0.056645 0.034902 0.005042 -0.20326 -0.013839 0.068151 0.010147 -0.048024 -0.135361 -0.075037 0.054175 -0.100111 0.053312 0.125257 -0.000279 0.015975 0.023168 0.051593 0.097843 -0.033457 0.067601 0.029216 -0.013218 -0.000273 0.004868 0.016715 0.036377 -0.13787 -0.015097 0.004656 -0.066649 -0.027628 0.081717 0.003357 -0.132285 -0.025269 -0.049838 -0.115259 -0.01172 0.010872 0.04481 0.072881 -0.047882 0.028606 0.004503 0.023995 0.018654 0.055813 -0.022471 0.084706 -0.077821 -0.044553 0.029948 -0.026006 0.037584 0.024341 -0.024537 0.025266 0.007849 0.048292 -0.060805 -0.020596 0.061607 -0.024095 0.061971 -0.101788 0.02408 0.047316 0.07716 0.005255 -0.007695 0.006396 0.040525 0.014979 0.1807 -0.012487 -0.061579 -0.026312 -0.032901 -0.042852 -0.106335 0.092211 0.047089 -0.051822 0.06637 0.00753 -0.082439 0.002682 0.110763 0.034131 0.045214 0.037648 -0.064745 -0.003381 -0.010322 -0.055989 -0.102043 0.045298 -0.047655 0.020091 0.015975 0.002352 -0.268344 0.012801 0.023477 0.035924 -0.086716 0.004754 0.0856 -0.051925 0.064242 0.044502 -0.036774 0.089142 -0.01696 -0.089605 -0.036866 0.039244 0.082964 -0.025778 -0.020727 -0.099962 0.016599 -0.011795 0.005915 -0.18797 0.061768 0.006162 -0.032959 -0.034923 -0.024504 -0.116481 0.057951 -0.005769 0.063298 -0.019975 0.005167 0.031723 0.033028 0.011197 0.080789 0.018986 0.001344
  -0.045264 -0.063302 -0.01764 -0.038664 0.004086 -0.035431 -0.009241 -0.040435 0.035844 -0.076991 0.024089 0.080506 0.05766 -0.009499 0.03732 0.045058 0.092905 0.062031 -0.049889 -0.030061 -0.00905 0.020754 -0.018665 -0.019957 0.064518 0.008497 -0.009262 0.051982 -0.127508 0.00476 -0.012205 0.080945 -0.047493 -0.080627 -0.05554 0.049449 0.018343 -0.053524 0.057834 -0.054358 -0.050094 0.042391 0.016614 -0.015353 0.026838 -0.093134 0.040529 0.075377 -0.014089 0.034564 0.03234 -0.004114 -0.182006 -0.01086 -0.051442 0.004338 0.006037 -0.003945 -0.018177 0.06022 -0.009735 -0.047453 0.066524 -0.015653 0.08866 -0.110014 0.059218 0.026352 -0.061693 0.068287 0.043453 -0.133887 -0.034708 -0.09253 -0.09637 0.027031 0.018237 -0.040866 0.020694 -0.052648 -0.012152 0.004838 0.028065 0.039562 -0.029142 0.022816 -0.010618 -0.027318 -0.011285 0.005427 0.080498 -0.104209 0.015605 0.079375 0.072119 -0.090824 -0.047378 0.00851 0.025019 0.043414 -0.071064 0.003522 -0.1194 0.074484 0.103179 0.023904 -0.106068 0.020614 0.036298 0.012516 -0.042741 0.047408 -0.03993 0.134307 -0.022164 -0.099703 0.013089 -0.004774 -0.020116 -0.019447 0.047892 -0.078867 0.019349 0.050095 -0.03352 0.040016 0.011564 -0.006837 0.087027 0.040234 -0.023384 -0.068357 -0.073626 -0.084823 -0.010459 -0.032164 -0.005876 -0.011328 0.020488 -0.041857 0.048913 0.011029 0.032371 0.010559 -0.029773 -0.016621 0.030993 0.045946 -0.15856 0.03585 -0.053564 0.021904 -0.051136 -0.024322 0.066161 -0.001798 0.041486 -0.161004 -0.005957 0.005552 0.089778 0.058397 -0.000782 -0.008125 0.007453 0.005537 -0.043105 0.084135 0.013892 0.039437 -0.080524 -0.008768 -0.026443 -0.020958 0.025614 0.077072 -0.042625 0.012664 0.03524 0.029689 0.000812 0.011607 -0.002109 -0.049279 -0.075672 -0.040343 0.026826 0.022273 -0.03556 -0.024432 -0.005947 0.047565 0.078278 0.011934 0.023522 0.034966 -0.017939 0.00842 0.037328 -0.01508
  0.000872 -0.050026 0.034494 -0.063869 -0.013241 -0.086311 -0.047248 0.051208 -0.024888 0.003603 0.011725 0.023564 -0.031903 -0.016742 0.130252 0.041351 0.015243 0.059073 -0.100565 -0.03324 -0.040588 0.026996 0.155429 -0.027938 0.044381 -0.001627 -0.01989 0.041813 0.002876 0.105113 0.001499 0.070743 -0.009447 -0.0224 -0.056625 0.02625 0.028906 -0.008898 -0.071027 -0.023168 0.007059 0.013384 -0.014549 -0.021287 -0.038624 0.010569 0.00955 -0.016519 0.033275 0.002389 0.02672 0.093113 0.041073 0.051796 -0.075749 0.080253 0.052818 -0.007638 -0.042893 -0.057016 0.103566 -0.049828 -0.021527 0.166468 -0.060782 0.046015 0.039058 -0.046103 0.027683 -0.029445 -0.105434 -0.065379 0.084342 0.00071 0.049404 0.038024 0.014863 -0.013107 -0.010884 -0.044208 0.021435 0.034475 0.007166 0.063258 -0.014571 -0.002309 -0.055757 -0.107463 0.04204 -0.073271 0.029806 -0.040367 0.000123 0.04426 0.049771 -0.026223 0.032348 -0.007637 0.092874 0.041254 0.029892 0.02545 -0.061777 0.006968 0.004808 -0.06587 0.016505 0.016153 -0.017269 0.059823 -0.013425 -0.03031 -0.007242 0.013252 -0.018593 -0.038675 -0.016784 0.023026 -0.053678 0.078343 -0.035057 0.057297 -0.054025 0.08068 0.00643 0.065553 0.030754 -0.027995 0.185256 -0.027526 -0.069291 0.014691 0.001291 -0.005083 0.001659 0.019417 -0.01267 -0.007598 -0.083579 0.0232 0.031209 -0.039153 0.07358 -0.013354 0.04769 0.059064 -0.078152 0.042427 0.053823 -0.067226 0.018988 -0.025044 -0.017219 0.081996 0.056403 -0.025406 0.040564 0.067526 -0.022538 -0.095844 0.115388 0.020046 -0.040587 -0.035432 -0.015965 -0.093995 0.114485 -0.048582 0.008991 -0.026294 -0.018525 -0.099437 -0.065414 0.003553 0.100627 -0.07207 0.046852 -0.006059 0.003341 -0.083907 -0.080922 0.056518 0.048354 -0.07329 0.098303 -0.144129 0.019975 0.066831 -0.074137 0.058381 -0.000686 0.017435 -0.059133 0.012503 -0.034561 0.011322 0.0065 0.005316 0.033291 0.021864
  -0.161856 -0.093582 0.096282 0.056613 0.016446 0.091957 -0.04875 -0.082286 -0.205173 -0.178559 0.024837 0.006572 0.003741 -0.040554 0.18984 0.056771 0.077336 0.026321 0.037267 0.09561 -0.002763 0.043447 -0.014714 0.022723 -0.103901 0.060912 0.086393 -0.005497 0.09688 -0.029281 -0.053876 0.016598 -0.024047 0.002821 -0.138313 0.024877 -0.110419 0.028147 0.011257 0.036046 0.032537 -0.123354 -0.10127 -0.05566 -0.03082 0.041765 -0.010964 0.043928 0.030433 0.0425 0.039017 0.007911 -0.013994 0.027174 -0.138401 0.045446 -0.075228 -0.000411 0.014338 -0.013844 0.156577 -0.118183 -0.055277 0.1588 -0.014244 -0.023409 0.087699 -0.068185 -0.021312 -0.110264 -0.019628 -0.043902 0.07495 0.004219 0.069568 0.030992 -0.151758 -0.003336 0.063183 -0.025647 0.059604 -0.055059 -0.027459 0.14363 -0.200314 -0.021481 0.084191 0.187261 0.085234 -0.041971 -0.001713 -0.074862 -0.065626 0.078081 -0.032573 0.001171 -0.057624 -0.000963 -0.054181 -0.009512 -0.068889 0.045144 0.040296 0.041052 0.205997 0.030834 0.057884 0.095852 0.056269 -0.041705 -0.085623 0.078839 -0.007725 -0.048811 0.060262 0.027357 0.081002 0.014474 0.149366 -0.029597 -0.074908 -5.8e-05 -0.05206 -0.002342 0.097988 0.079177 0.019775 -0.021835 -0.04001 -0.050321 -0.003617 0.029623 -0.066622 -0.098574 0.084225 -0.047051 -0.05424 -2e-05 0.102149 -0.099918 0.044679 -0.005232 0.021425 -0.073584 -0.012566 -0.099399 0.061147 -0.035333 0.047394 -0.064386 -0.019741 0.011732 -0.07711 -0.025603 -0.078135 -0.077104 -0.197807 0.117815 -0.014579 0.169162 0.005303 0.024679 -0.008081 -0.058673 0.050261 -0.093521 -0.068854 0.092046 0.013326 -0.055042 -0.075316 -0.076172 -0.03706 0.070578 0.083537 -0.040096 0.080149 0.026117 0.015102 0.009224 -0.057225 -0.016946 -0.004534 0.061521 0.100068 0.004418 -0.011141 0.094467 -0.072131 -0.031977 0.007148 0.031631 0.083227 -0.018115 -0.061082 0.090226 -0.005828 0.150218 0.052289 -0.059997
  0.020009 -0.044925 0.000886 -0.0029 0.051654 -0.0877 0.018672 0.011992 0.004776 -0.025692 -0.019885 0.162 0.000644 -0.003618 -0.22711 0.042137 -0.026052 -0.254348 -0.06246 -0.015176 0.049897 0.084652 -0.110021 0.024986 -0.036506 -0.048164 -0.037325 0.009697 -0.033362 0.071417 -0.027625 -0.099599 -0.107679 -0.005628 0.056371 0.009104 -0.049071 -0.07596 0.129956 -0.117416 0.023574 0.108962 0.118852 0.038491 0.123834 -0.096277 -0.009119 0.059784 -0.093016 -0.030407 -0.02373 -0.026832 0.168206 -0.00782 0.062115 -0.015784 0.074878 -0.012944 -0.154745 0.094961 0.08968 0.04742 0.133149 0.063065 0.048682 -0.052407 -0.096822 -0.007332 0.11155 -0.063784 -0.093027 -0.022543 0.030181 -0.085641 -0.14895 0.032108 0.097192 -0.018908 0.032453 0.004344 -0.032392 0.093792 -0.061893 -0.044732 -0.129389 0.130365 -0.119186 -0.488797 0.018258 0.052151 -0.074839 0.04885 0.064163 0.12906 -0.067206 -0.37452 0.052997 0.028759 0.011184 0.003988 -0.126964 0.053082 0.046899 -0.043702 -0.061865 -0.007084 -0.098074 0.204206 -0.132315 -0.004762 -0.004974 0.079725 0.052865 -0.177968 -0.081904 -0.047426 -0.021477 0.085373 0.003796 -0.127581 0.064458 -0.020798 -0.050778 -0.044052 -0.025862 -0.077861 0.003365 0.190317 -0.100101 -0.080253 0.03697 -0.277068 0.057248 -0.070803 0.124409 -0.035929 0.092669 -0.071595 0.067067 0.162826 -0.018477 -0.045113 0.084488 0.035657 0.028163 -0.065766 0.006392 -0.003832 0.024177 -0.057109 0.035024 -0.014231 -0.017008 0.089529 -0.055151 0.064795 0.171363 -0.223407 -0.015057 -0.098259 0.157638 0.056336 0.220051 -0.062644 -0.009045 0.188107 -0.066091 -0.119717 0.029209 0.048238 0.005222 -0.07147 -0.020844 -0.01713 0.000882 0.137351 -0.225219 -0.015053 0.081918 0.17467 0.169079 -0.072041 0.052952 -0.051707 -0.078402 0.019564 -0.081079 0.027283 -0.013132 0.02738 -0.060167 -0.179062 0.03161 0.031694 -0.006433 -0.049076 -0.016018 -0.05545 -0.036994 0.048078
