PWM_range 0 100
pepL_range 12 21
P1_range -6 6
log_min 1e-04

nn_in_var 270 P1_-1 P1_-2 P1_-3 P1_-4 P1_-5 P1_-6 P1_0 P1_1 P1_2 P1_3 P1_4 P1_5 P1_6 PWM_log AA_-_1 AA_-_10 AA_-_11 AA_-_12 AA_-_2 AA_-_3 AA_A_1 AA_A_10 AA_A_11 AA_A_12 AA_A_2 AA_A_3 AA_A_4 AA_A_5 AA_A_6 AA_A_7 AA_A_8 AA_A_9 AA_C_1 AA_C_10 AA_C_11 AA_C_12 AA_C_2 AA_C_3 AA_C_4 AA_C_5 AA_C_6 AA_C_7 AA_C_8 AA_C_9 AA_D_1 AA_D_10 AA_D_11 AA_D_12 AA_D_2 AA_D_3 AA_D_4 AA_D_5 AA_D_6 AA_D_7 AA_D_8 AA_D_9 AA_E_1 AA_E_10 AA_E_11 AA_E_12 AA_E_2 AA_E_3 AA_E_4 AA_E_5 AA_E_6 AA_E_7 AA_E_8 AA_E_9 AA_F_1 AA_F_10 AA_F_11 AA_F_12 AA_F_2 AA_F_3 AA_F_4 AA_F_5 AA_F_6 AA_F_7 AA_F_8 AA_F_9 AA_G_1 AA_G_10 AA_G_11 AA_G_12 AA_G_2 AA_G_3 AA_G_4 AA_G_5 AA_G_6 AA_G_7 AA_G_8 AA_G_9 AA_H_1 AA_H_10 AA_H_11 AA_H_12 AA_H_2 AA_H_3 AA_H_4 AA_H_5 AA_H_6 AA_H_7 AA_H_8 AA_H_9 AA_I_1 AA_I_10 AA_I_11 AA_I_12 AA_I_2 AA_I_3 AA_I_4 AA_I_5 AA_I_6 AA_I_7 AA_I_8 AA_I_9 AA_K_1 AA_K_10 AA_K_11 AA_K_12 AA_K_2 AA_K_3 AA_K_4 AA_K_5 AA_K_6 AA_K_7 AA_K_8 AA_K_9 AA_L_1 AA_L_10 AA_L_11 AA_L_12 AA_L_2 AA_L_3 AA_L_4 AA_L_5 AA_L_6 AA_L_7 AA_L_8 AA_L_9 AA_M_1 AA_M_10 AA_M_11 AA_M_12 AA_M_2 AA_M_3 AA_M_4 AA_M_5 AA_M_6 AA_M_7 AA_M_8 AA_M_9 AA_N_1 AA_N_10 AA_N_11 AA_N_12 AA_N_2 AA_N_3 AA_N_4 AA_N_5 AA_N_6 AA_N_7 AA_N_8 AA_N_9 AA_P_1 AA_P_10 AA_P_11 AA_P_12 AA_P_2 AA_P_3 AA_P_4 AA_P_5 AA_P_6 AA_P_7 AA_P_8 AA_P_9 AA_Q_1 AA_Q_10 AA_Q_11 AA_Q_12 AA_Q_2 AA_Q_3 AA_Q_4 AA_Q_5 AA_Q_6 AA_Q_7 AA_Q_8 AA_Q_9 AA_R_1 AA_R_10 AA_R_11 AA_R_12 AA_R_2 AA_R_3 AA_R_4 AA_R_5 AA_R_6 AA_R_7 AA_R_8 AA_R_9 AA_S_1 AA_S_10 AA_S_11 AA_S_12 AA_S_2 AA_S_3 AA_S_4 AA_S_5 AA_S_6 AA_S_7 AA_S_8 AA_S_9 AA_T_1 AA_T_10 AA_T_11 AA_T_12 AA_T_2 AA_T_3 AA_T_4 AA_T_5 AA_T_6 AA_T_7 AA_T_8 AA_T_9 AA_V_1 AA_V_10 AA_V_11 AA_V_12 AA_V_2 AA_V_3 AA_V_4 AA_V_5 AA_V_6 AA_V_7 AA_V_8 AA_V_9 AA_W_1 AA_W_10 AA_W_11 AA_W_12 AA_W_2 AA_W_3 AA_W_4 AA_W_5 AA_W_6 AA_W_7 AA_W_8 AA_W_9 AA_Y_1 AA_Y_10 AA_Y_11 AA_Y_12 AA_Y_2 AA_Y_3 AA_Y_4 AA_Y_5 AA_Y_6 AA_Y_7 AA_Y_8 AA_Y_9 pepL_12 pepL_13 pepL_14 pepL_15 pepL_16 pepL_17 pepL_18 pepL_19 pepL_20 pepL_21


N_layers 2

 nnetsWeights  270   200
  0.061927 0.131718 -0.036187 0.085748 -0.002308 -0.031071 0.078101 0.000698 -0.059328 -0.05328 0.02699 0.0514 -0.026577 -0.001966 0.016096 0.008687 0.088033 -0.074383 0.17024 -0.063427 -0.109706 0.085252 0.044626 0.031671 -0.1561 -0.046784 0.051699 0.065787 0.022955 0.057262 0.025572 -0.020076 0.110451 -0.021631 -0.095658 0.023689 -0.116663 0.027095 0.032564 0.050613 -0.090622 -0.06573 0.003098 0.113867 0.114497 -0.045779 -0.026684 0.014306 0.084083 0.006757 -0.002635 -0.042425 -0.174598 -0.011417 0.089781 0.02987 0.076877 -0.044902 0.020864 0.037424 -0.241698 0.077485 -0.046169 0.026546 -0.04523 -0.152112 -0.166016 0.082387 -0.004887 -0.062243 -0.026963 -0.010932 -0.089816 0.007478 -0.113457 -0.120769 -0.032747 0.078427 0.094239 0.075871 0.031623 0.253361 0.128668 0.041583 -0.098982 0.028526 -0.032287 -0.060967 0.024683 -0.05428 0.004797 -0.074113 0.079594 0.072256 0.08791 0.190871 -0.021813 -0.002795 -0.119793 0.057351 0.045291 0.072301 -0.107054 -0.024423 -0.013838 0.168833 0.13205 0.067488 -0.19964 0.073832 0.038931 -0.046364 0.071025 0.029621 -0.314052 0.186975 -0.146264 0.001327 0.031027 0.089197 -0.035979 0.046804 -0.118793 0.005048 0.044055 -0.018337 -0.043691 -0.011446 -0.006001 0.02724 -0.051896 -0.096303 0.062581 -0.116433 0.03678 0.060494 -0.050131 -0.089749 -0.066619 0.024861 -0.060473 0.105312 0.009395 0.134025 -0.045609 -0.011425 0.126797 -0.000569 -0.006839 0.022134 -0.064711 0.00825 -0.034124 -0.147911 0.072272 -0.004804 -0.048081 0.067184 0.014371 0.038071 -0.043331 0.042032 -0.02124 -0.016457 0.0321 0.145831 0.076678 0.108953 0.008395 0.07209 -0.127697 -0.041851 -0.102769 -0.013454 0.038265 0.004482 0.036488 -0.066213 0.151558 -0.056991 0.01026 -0.149635 -0.199236 -0.045086 -0.09992 0.044178 -0.081478 -0.011949 0.058628 -0.105562 -0.055737 -0.134117 -0.025185 -0.121395 -0.03945 0.023169 -0.063002 0.08392 -0.047417 -0.133325
  -0.054082 0.105897 0.056251 -0.059124 -0.132091 0.085844 -0.149819 0.05131 -0.080919 -0.243838 0.03231 -0.00585 0.031453 -0.04898 -0.00274 -0.008866 -0.038966 -0.034957 0.112 0.036671 -0.129438 0.117851 0.098089 -0.067989 -0.074063 -0.038137 -0.018076 -0.093033 -0.022724 0.040536 -0.210129 -0.09582 0.004175 -0.147925 -0.137913 0.01312 -0.162765 -0.040518 0.061484 0.093857 -0.113407 -0.001109 0.005623 0.021014 0.093163 -0.025634 -0.070248 0.054125 -0.052808 -0.093923 -0.124732 -0.051557 -0.069737 -0.079084 0.114143 -0.071686 0.075988 -0.05808 -0.007966 -0.052716 -0.176238 0.136119 0.066127 -0.058692 -0.066515 -0.219988 -0.182641 0.029094 -0.009098 -0.18528 0.077613 -0.024811 -0.07413 -0.187952 0.015601 -0.049451 -0.011708 0.24904 0.098748 -0.069206 0.070293 0.055256 0.144514 0.063208 -0.101189 0.035618 -0.041276 0.081778 -0.060456 -0.044532 -0.073615 -0.047988 -0.006539 -0.163318 0.077785 -0.135809 -0.037722 0.024169 -0.113902 -0.017832 -0.164396 0.077031 -0.003828 -0.028215 -0.200809 0.167356 0.132567 0.079539 -0.35659 0.032368 0.119117 -0.102078 -0.048491 -0.111493 -0.207835 -0.084117 -0.359661 -0.038438 0.030882 -0.085806 -0.126427 0.085515 -0.126736 0.049622 0.005278 -0.02019 -0.092843 -0.064814 -0.248018 0.11189 0.03018 0.041376 0.154107 -0.117943 0.072703 -0.096077 0.034182 -0.027899 -0.18174 0.007673 0.003207 0.083644 -0.127716 0.089452 -0.031521 -0.096263 0.020857 -0.081409 -0.075579 0.091672 -0.033665 -0.098045 0.033812 0.065677 0.034312 -0.093691 0.001553 0.036881 -0.095089 -0.027703 -0.077877 0.01595 -0.13236 -0.065728 0.097738 0.153179 0.145166 -0.03235 -0.081232 0.047944 -0.083006 0.009554 -0.133506 0.004196 0.070308 -0.028309 -0.008114 0.023011 0.011322 0.001204 0.069956 0.049929 -0.164658 0.010088 -0.028602 0.129092 -0.190598 -0.055535 0.084885 -0.007015 -0.128515 0.06221 -0.087191 -0.038615 -0.019302 -0.109464 -0.056881 0.038566 -0.036336 -0.249428
  -0.128856 0.076121 -0.06704 0.07181 -0.086023 -0.016814 -0.068076 0.049019 0.046071 -0.146473 -0.169952 -0.20401 0.083862 -0.036725 -0.052073 0.053955 -0.092469 -0.009109 0.146596 -0.048834 0.048386 -0.228745 0.062154 0.032961 -0.096384 -0.093228 -0.024776 -0.051613 -0.025197 -0.018372 -0.261965 0.011303 -0.053848 -0.117686 -0.075133 0.004275 -0.184167 -0.084075 -0.022642 0.047747 -0.130895 -0.011417 -0.008945 0.061689 0.095625 -0.026205 -0.09901 0.079057 -0.070927 0.008029 -0.056156 0.00156 -0.163362 0.037101 0.078822 0.091037 0.158426 -0.044088 -0.010804 0.011193 -0.004315 0.171049 0.023878 -0.038418 0.15732 -0.155115 -0.265922 -0.075778 -0.004978 0.021284 -0.039129 0.018324 -0.039293 -0.019105 0.034465 -0.07695 -0.005049 0.189667 -0.134563 0.075793 -0.097197 0.130308 0.045887 0.017711 -0.07624 0.069555 -0.11074 0.053685 0.070761 -0.024465 0.034019 -0.124381 0.025239 -0.057748 0.039416 -0.097845 0.005497 -0.003534 -0.060243 0.138924 0.000798 0.008592 0.003405 -0.036931 -0.101905 -0.008566 0.003453 -0.052918 -0.146907 -0.013221 0.02899 -0.061396 -0.018322 -0.16338 -0.139656 -0.140314 -0.177332 0.012446 -0.036488 -0.05888 -0.128293 0.046131 -0.065917 0.02141 -0.068985 0.000482 -0.082012 0.032607 -0.176396 0.230876 0.083182 -0.136282 0.077146 -0.132103 0.015837 -0.110388 -0.147829 -0.018069 -0.060183 -0.086979 0.09715 -0.130736 -0.078771 0.093227 -0.001128 -0.187825 0.016628 -0.020413 0.004723 0.041662 -0.070703 -0.064214 -0.057461 0.051217 0.068806 -0.052241 -0.003421 -0.108129 -0.140878 0.067293 -0.040306 -0.034828 -0.128861 0.058506 0.035719 0.168207 0.100776 -0.050073 -0.050882 0.106612 -0.116287 -0.051888 0.136633 0.031561 0.001891 -0.02545 -0.129401 0.005141 -0.053128 0.020148 0.06058 -0.034636 0.090278 0.107832 -0.111607 -0.035612 -0.116705 0.014503 -0.025968 -0.027965 -0.031268 0.068834 -0.086745 -0.055636 0.011564 -0.234894 0.148368 -0.044859 0.104536 -0.150366
  -0.07621 -0.009589 -0.048199 -0.025025 -0.06347 -0.095461 -0.008095 -0.026651 -0.001446 -0.027923 -0.08494 -0.022458 0.051432 0.007771 0.050497 0.012851 -0.104845 -0.078362 -0.099874 -0.0425 0.054027 -0.073087 -0.046019 0.029071 -0.02389 -0.08511 -0.064865 -0.007542 -0.006309 -0.214086 -0.197717 -0.071772 0.069235 -0.014575 0.003616 0.018087 0.088501 0.005469 -0.062336 0.112744 0.051354 3.4e-05 -0.056519 0.024851 0.113701 -0.028113 -0.108754 -0.004008 -0.094786 -0.123124 0.125496 0.044021 -0.129306 0.06184 0.094812 -0.106516 -0.029616 -0.000133 -0.066005 -0.004209 -0.044065 0.077254 -0.05904 -0.034688 0.08917 -0.05897 -0.003209 0.077314 0.013497 -0.0436 -0.008034 0.021146 0.069289 0.094852 0.062169 -0.008293 -0.081088 0.095573 -0.099677 -0.039104 -0.126076 -0.056746 0.004726 0.04668 0.015119 -0.069783 -0.03483 -0.031343 0.008787 -0.041118 -0.060157 -0.032345 0.005808 0.007129 -0.019782 -0.056922 0.009216 -0.044345 -0.052313 -0.033561 -0.111255 -0.063743 -0.046975 -0.044396 0.056674 -0.006602 -0.000715 -0.075941 -0.079865 -0.009271 -0.0649 -0.107683 -0.053903 -0.02711 -0.045085 -0.028958 0.051303 -0.058112 0.015128 -0.016244 0.022631 0.035163 0.002905 0.067262 -0.056278 0.072563 -0.099873 0.036469 -0.082599 0.007929 0.12918 -0.074985 -0.038114 -0.012714 -0.02097 -0.06764 0.035102 0.140338 -0.041436 -0.158571 -0.02124 0.080225 -0.005548 0.034686 0.004189 0.041886 0.039048 0.001935 -0.013642 0.061276 -0.016773 -0.049593 0.082746 0.064442 0.061238 -0.06552 -0.042381 0.037477 -0.05322 0.02159 0.01135 -0.099021 -0.05051 -0.045992 0.053185 0.085365 -0.011098 -0.034526 0.02797 -0.0181 -0.070994 -0.065166 0.070584 -0.028708 -0.090217 -0.008121 0.026879 0.134917 0.049486 0.077124 0.024833 -0.025135 0.031214 -0.018252 0.078289 -0.001137 -0.119858 0.028131 -0.087732 -0.084807 0.082873 0.14618 0.048415 -0.100997 -0.052061 -0.014792 0.033527 -0.029159 0.031088 -0.036484
  0.02669 0.007954 0.101787 -0.022454 0.065022 -0.131832 0.023034 0.063318 -0.016659 0.00561 0.181368 0.048195 0.019719 -0.077176 -0.093061 -0.008132 0.04326 0.080648 0.041167 0.094836 0.012424 3.7e-05 -0.014293 -0.00915 0.011882 -0.05254 0.147918 -0.116807 0.022855 -0.033031 0.063333 0.014658 0.047906 0.018426 0.093012 0.076483 0.026836 -0.037184 0.037374 -0.016629 0.027306 -0.033624 0.061256 -0.007739 -0.018458 -0.049481 0.017943 -0.006222 0.015476 0.134028 -0.037734 -0.108578 -0.011622 0.062401 0.012864 0.078563 0.020278 0.025066 0.002276 0.00153 0.022276 -0.020063 -0.01779 0.04341 0.009123 -0.000372 0.009911 -0.003785 0.032521 0.061457 -0.015951 0.109127 0.013217 0.087643 -0.067724 -0.06352 0.016493 -0.026238 -0.072029 -0.054546 0.169312 -0.033601 -0.049284 2.9e-05 -0.053539 0.027435 -0.048939 -0.042088 0.078051 0.02056 0.12372 0.036658 0.022863 0.050371 -0.055837 0.048086 0.014912 0.07467 -0.018965 0.001744 -0.011132 0.020335 0.101424 0.024885 -0.024349 0.015339 -0.029752 0.007716 -0.066545 0.081948 0.112836 -0.009825 -0.116455 0.061827 -0.005346 -0.054297 0.146812 -0.036642 0.030979 -0.006971 0.054734 0.090694 -0.004386 0.071594 -0.046523 0.031242 -0.102497 0.046461 0.00857 0.053883 0.022319 -0.02924 -0.026349 0.024831 -0.054885 0.002417 -0.018547 0.042699 -0.001763 0.018078 0.055176 -0.021593 -0.027122 -0.077909 0.020187 0.04319 -0.001444 -0.016557 0.031405 -0.188856 -0.014303 0.017863 0.037842 -0.104537 -0.197738 -0.006249 -0.162199 0.097193 -0.000305 0.032784 0.019953 -0.020695 -0.011465 -0.018058 0.037375 -0.04163 0.019243 -0.085978 0.029231 -0.00334 0.012536 -0.013059 0.050931 0.049574 0.060509 -0.004156 -0.006328 -0.023825 -0.026529 -0.022692 -0.052079 -0.073414 0.15495 0.07308 0.006157 -0.000901 0.005066 0.006424 -0.026982 0.051116 -0.061356 0.021242 0.07738 0.023721 -0.00929 -0.133576 0.142232 0.057579 0.011871 0.100937
  0.0258 -0.037534 -0.031193 -0.084543 0.074662 -0.146912 0.006426 0.083721 0.012853 0.088515 0.000299 -0.043304 -0.071919 0.015754 -0.042157 -0.091639 0.043933 0.027786 0.012126 0.070931 0.072687 0.160167 -0.06894 0.073568 0.022393 -0.044272 -0.031766 0.027094 0.006779 0.009788 -0.001009 0.002528 0.000141 -0.03879 -0.032192 -0.051619 0.123745 0.062984 -0.057083 0.054404 -0.011366 0.046929 0.007029 0.019546 -0.023829 0.014969 -0.00149 0.044302 0.049307 0.090404 0.001278 0.002605 0.023355 -0.02587 -0.050124 -0.029836 0.082253 -0.002878 0.052524 -0.001314 -0.055908 0.029791 0.012524 0.026257 0.073927 -0.042457 0.024151 0.063479 -0.013882 0.031068 -0.076023 -0.007455 -0.035008 0.052689 -0.082824 -0.04511 0.040733 0.042233 0.00224 0.104988 -0.059915 -0.070012 -0.005456 -0.012313 0.013747 0.07663 0.100145 0.022888 -0.035118 -0.015237 0.061421 -0.004386 -0.016825 0.030833 0.012051 0.016586 -0.015632 0.037827 0.069792 -0.042577 -0.050195 0.013645 0.044632 -0.01545 0.013087 -0.023909 -0.039152 0.028687 0.097599 0.035695 0.00491 0.018742 0.097789 0.061317 0.03117 0.007011 -0.081887 -0.006578 -0.051257 0.052485 -0.044168 -0.04731 0.093524 0.053903 0.051649 -0.003017 0.019089 -0.034209 -0.027775 0.019997 0.000708 0.004702 0.028269 0.018425 0.07747 0.051824 -0.087855 0.106946 0.035415 0.035318 0.079527 0.013086 0.049405 0.028663 0.022404 0.002305 -0.012555 0.069139 -0.000167 -0.136152 -0.032932 -0.028189 0.168406 -0.029364 0.118204 -0.025887 -0.063003 0.072546 -0.021284 -0.073229 -0.052472 -0.030423 -0.020774 -0.014955 -0.05545 0.000155 0.095932 0.05054 -0.018753 -0.044256 -0.044199 0.004314 -0.006138 -0.054773 0.070804 -0.014478 -0.000493 -0.057034 -0.057692 -0.024296 0.070295 0.007636 0.061556 0.058121 0.034381 -0.004335 -0.020356 -0.035187 -0.027459 -0.060743 0.100581 -0.086301 0.045001 -0.014836 0.017184 -0.093803 0.043187 0.013451 -0.084116 -0.025742
  0.057891 -0.182995 -0.10027 -0.053385 0.084114 -0.159854 0.21023 0.016047 -0.065778 0.066583 0.021533 0.100277 -0.028447 -0.014848 0.016093 0.088767 0.166464 -0.021197 0.197543 0.030285 -0.124621 0.172448 -0.027719 0.02252 -0.281433 -0.102391 -0.06277 -0.01351 0.059919 0.075128 0.129181 -0.008282 0.155106 0.024572 0.008424 -0.078915 0.008281 0.036147 0.022148 0.046371 -0.045532 -0.004905 0.053599 0.031522 0.083574 0.015973 0.044346 -0.007368 0.109903 0.03866 -0.026803 0.036025 -0.119863 0.020978 -0.105415 -0.00273 -0.019189 -0.082957 -0.036275 0.006239 -0.138368 0.040707 0.036616 0.044585 -0.07977 -0.134753 0.128773 -0.013166 0.02394 0.036523 -0.020509 -0.039552 -0.041371 0.062697 -0.045416 0.060266 -0.018286 -0.04558 0.063617 0.099846 0.084722 0.192605 0.035126 0.089821 -0.086818 -0.018911 -0.085497 0.029315 -0.027803 -0.075647 -0.087877 0.162877 0.100004 0.071827 0.06513 0.15631 -0.03739 -0.092815 -0.08275 0.065931 -0.16061 0.09021 -0.087654 -0.033946 -0.037852 0.139083 0.115225 -0.002979 -0.047746 -0.017334 0.066143 -0.008467 0.015993 0.079844 0.024089 0.147308 -0.027944 0.068445 0.015302 0.004982 0.176413 0.01553 -0.049609 -0.067099 0.07785 -0.036652 0.018278 0.100502 -0.150989 -0.030193 -0.033012 0.07294 0.037675 -0.066373 -0.08097 0.046634 0.024288 -0.214281 -0.074137 0.007404 -0.060061 0.053082 0.099468 0.109091 0.024479 -0.02828 0.046552 0.0481 0.109147 -0.042498 -0.115071 0.097964 -0.028763 -0.124207 -0.026548 0.070946 0.076154 -0.015805 -0.007249 0.074665 0.023314 0.063438 0.089429 -0.003997 -0.068203 0.059532 -0.010435 0.092468 0.106889 0.05724 0.007165 0.030853 0.000273 0.024551 0.003304 -0.010763 0.080097 0.068705 -0.040593 -0.049935 -0.042319 0.036005 -0.021561 -0.074787 -0.007586 -0.028765 -0.067566 -0.022699 0.0305 0.136119 -0.058682 -0.020189 -0.073752 -0.188809 0.003766 0.075494 -0.052937 -0.025429 -0.026153 0.048349
  -0.023569 -0.089036 -0.007254 0.132858 0.069973 0.029664 0.00244 0.031632 0.048759 0.102165 0.056535 0.08245 -0.046387 -0.001675 0.056423 0.044629 0.042778 -0.004931 0.067326 0.01006 -0.046441 0.153622 -0.043353 0.068247 -0.031508 -0.047176 -0.046563 -0.010218 0.028267 0.048861 0.138506 -0.003481 0.089524 0.128146 0.023089 0.061669 -0.001304 0.001391 0.007398 -0.119177 -0.039391 -0.016344 0.0697 0.059178 -0.05319 0.057609 0.114734 -0.053962 0.071444 0.066744 -0.055528 0.092233 -0.031412 -0.009676 -0.155579 -0.035694 -0.014923 -0.066022 -0.072058 0.086267 0.088001 -0.0793 0.001636 -0.033883 -0.028031 0.054601 0.160931 0.083586 -0.013948 0.006963 -0.084311 -0.064015 -0.023014 0.020511 -0.052779 0.048379 -0.018429 -0.100245 -0.005068 0.100322 -0.050268 -0.063714 0.019728 0.027985 -0.021469 -0.050724 -0.008482 0.070639 -0.070533 -0.0527 0.051992 0.076148 0.040095 0.052421 0.016749 0.113507 -0.026466 -0.04192 0.136037 -0.018938 0.031019 0.00627 -0.003734 -0.004878 0.068829 0.069533 -0.0984 0.049615 0.035161 -0.066346 0.073292 -0.02149 -0.049184 0.077305 0.152148 0.079795 0.054392 0.019571 0.077031 0.030307 0.233075 -0.004182 0.087427 -0.076525 -0.022185 -0.039729 0.06163 0.053705 0.053288 -0.051987 -0.069084 -0.054031 -0.101177 0.018166 -0.050817 0.036784 0.022527 -0.131212 -0.020373 0.06473 -0.079207 0.046236 0.018562 0.058198 0.015169 0.048631 0.021601 0.081394 0.033092 -0.05634 -0.017377 0.049856 0.076918 -0.111411 -0.054359 0.023746 2.6e-05 -0.06588 0.065859 -0.024816 0.000887 0.00965 0.06333 -0.068903 0.02345 -0.150138 0.007402 0.091447 0.113454 -0.027645 0.028822 -0.00495 0.028221 0.011269 -0.024975 -0.013496 0.055125 0.03435 0.069518 -0.060567 -0.087235 -0.053491 0.034422 -0.094105 -0.042378 -0.11552 -0.010708 0.007442 0.017914 0.010917 0.030864 0.131129 -0.083614 -0.083909 0.103538 0.114393 -0.090035 0.045447 0.032525 0.119462
  0.059717 0.061716 0.00594 -0.086553 0.051195 -0.011578 0.08664 -0.051067 0.017932 0.055254 0.00754 0.046841 -0.076527 -0.048183 0.10717 0.053932 -0.031425 0.027093 -0.186354 0.04757 0.01554 0.0088 -0.121112 0.054925 0.082341 -0.006107 0.027989 -0.045226 0.026664 -0.054959 0.134055 -0.036884 -0.050458 0.0872 0.031467 0.042472 -0.035447 0.012441 -0.003343 -0.094453 -0.017207 -0.002144 -0.019446 -0.019445 -0.159193 -0.059577 0.119083 0.014331 0.049851 0.019599 0.027096 -0.082241 0.073014 -0.02315 -0.115347 0.028004 -0.113088 -0.017629 -0.017314 0.08783 0.152435 -0.104026 0.041472 0.022727 -0.052209 0.131696 0.043168 -0.051022 0.040127 -0.02794 -0.01801 -0.063237 0.021573 0.053807 -0.025318 0.06195 -0.018564 -0.062319 -0.034897 -0.006292 -0.026892 -0.216803 -0.030096 -0.03227 -0.014993 0.064048 0.071861 0.071299 -0.084428 -0.028781 0.035827 -0.063789 0.006518 0.040346 0.051768 -0.219055 -0.040873 -0.035023 -0.043758 -0.110285 -0.061082 0.028105 0.055382 -0.051326 0.042302 -0.224909 -0.150883 0.001028 0.142475 -0.101576 0.000827 -0.028654 -0.010868 0.03597 0.14045 0.00102 0.169353 -0.049528 0.024567 0.035744 0.089099 -0.001048 -0.020433 -0.063616 -0.081283 -0.010161 0.041158 0.069872 0.079737 -0.081668 -0.02206 0.093512 0.016714 0.024243 -0.064448 0.055874 -0.092714 0.06508 0.032736 0.102574 0.033605 -0.061171 -0.054908 -0.06545 -0.087317 0.003803 -0.011074 0.102517 -0.029448 -0.006527 0.065864 0.021189 -0.005376 -0.020492 0.07322 -0.017534 -0.061374 -0.149671 0.050645 -0.041509 0.014563 -0.030751 0.010292 -5.7e-05 0.030358 -0.188436 0.031725 -0.006716 -0.050517 -0.019735 0.021641 -0.068553 0.016175 -0.039016 -0.040519 -0.029264 0.022742 0.014275 -0.000211 -0.014183 0.001158 -0.096241 0.004715 -0.035119 -0.000398 0.058429 0.0312 -0.01078 0.078474 -0.044447 -0.015325 -0.172266 -0.028451 0.195988 0.027928 0.094737 -0.065762 -0.023161 0.049185 0.08588
  -0.011667 0.061619 0.02904 -0.051884 -0.076923 0.219457 -0.176698 -0.073289 0.056596 0.043199 -0.012202 -0.126866 0.022858 0.045532 -0.022502 -0.113657 -0.192147 0.025817 -0.341972 0.060598 0.075633 -0.023151 -0.084349 -0.146334 0.163621 0.07661 -0.026066 -0.060802 0.131976 0.005774 0.097832 0.025457 -0.063246 0.034569 0.069815 0.055215 0.082137 -0.049345 -0.152126 -0.006992 0.029763 -0.001158 -0.083097 -0.124775 0.004605 0.010905 -0.061198 -0.023868 -0.164982 -0.078227 -0.024035 -0.001914 0.124945 -0.057566 0.143044 -0.170354 -0.04851 0.030074 -0.083798 0.011192 0.188356 -0.109577 0.019522 -0.059135 0.029337 0.063305 -0.021671 0.047799 0.032018 -0.037128 0.070313 0.06461 0.051077 0.042268 0.058787 -0.006162 -0.020204 -0.147781 -0.263715 -0.118132 -0.037642 -0.259922 -0.14643 -0.113815 -0.03645 -0.181572 0.121548 0.089921 0.02372 0.040685 0.063552 0.047736 -0.030241 -0.060459 -0.022651 -0.235249 -0.018508 -0.010948 -0.018144 -0.150619 0.16472 -0.065294 0.112429 -0.13832 -0.132676 -0.268325 -0.057109 -0.051377 0.226058 -0.035986 -0.01365 -0.059178 0.089331 -0.126571 0.066457 -0.034735 0.11338 -0.118037 0.018955 -0.00581 -0.098733 -0.055765 0.121454 -0.053732 -0.050816 0.020238 -0.061904 0.056656 0.09992 -0.09226 0.024346 -0.095232 -0.06148 0.087346 0.017565 -0.013996 -0.04963 0.170788 0.053667 0.064243 0.052407 -0.119633 -0.066452 -0.228581 -0.060378 0.000686 -0.055273 -0.111243 0.008222 0.157453 0.03283 0.027369 0.091583 0.070851 0.046638 0.063624 -0.033282 -0.073 0.072149 -0.046763 0.011171 -0.007834 -0.008026 0.052967 -0.045262 -0.097033 -0.13275 -0.11362 -0.204082 -0.059313 -0.050807 -0.037744 0.049358 -0.091846 -0.170166 0.033487 -0.069665 -0.051997 0.096945 0.025463 0.047094 0.028635 0.103589 0.02321 0.03225 0.064474 0.027378 -0.039592 0.045055 0.010128 0.03662 0.034 0.050152 0.050305 -0.066425 0.084144 -0.00084 -0.115355 0.060917 -0.039076
  -0.13283 -0.020053 0.060505 -0.019014 -0.006541 -0.033391 0.020171 -0.033893 0.007872 0.066205 -0.116928 -0.08713 -0.031459 0.095099 -0.14134 -0.028961 -0.172454 0.116466 -0.272084 0.092056 0.050509 -0.275063 0.004157 -0.119203 0.15415 0.110382 0.019257 0.03602 0.066089 -0.102052 0.081159 -0.028889 -0.0856 0.061208 0.019312 -0.071867 0.166537 -0.091902 -0.177617 -0.012535 -0.025464 -0.136676 -0.022001 -0.046257 -0.003464 -0.132973 -0.009169 -0.086647 0.042733 -0.123273 -0.054745 -0.026053 0.062947 -0.091713 -0.000585 -0.095958 0.049137 -0.006978 -0.104462 -0.090993 0.292757 -0.029808 0.027969 0.006022 -0.026891 0.203903 -0.047489 0.021461 0.010406 -0.020275 0.012359 0.064936 0.081441 -0.050194 0.11325 -0.003595 0.040651 -0.162763 -0.142181 0.006713 -0.144451 -0.14455 -0.198757 -0.026385 0.13301 -0.10567 0.018534 0.069096 0.002978 0.077308 0.189854 0.075218 -0.071734 -0.032664 -0.040607 -0.138627 -0.027734 0.067201 0.044263 -0.165552 0.158761 -0.050306 0.170399 -0.123897 -0.091424 -0.148328 -0.168979 -0.042448 0.140731 -0.094393 -0.079794 -0.002022 0.072253 -0.042936 0.017574 -0.16128 0.136874 -0.131373 -0.104886 0.037448 -0.148038 0.038318 -0.045219 0.060181 -0.021471 -0.018614 -0.031696 0.100398 0.12067 -0.103151 0.098884 -0.047162 -0.039294 0.09464 0.183319 -0.007187 -0.071627 0.147542 0.126893 -0.045033 0.026596 0.074293 -0.01198 -0.229273 -0.060256 -0.088726 -0.0679 -0.106771 0.054259 0.0882 0.039839 -0.078694 0.199404 -0.037419 0.043262 0.057579 0.130973 -0.02743 0.044103 -0.07955 -0.044838 -0.028319 0.023432 0.033474 -0.053415 -0.174873 -0.160769 -0.023056 -0.019537 0.061216 -0.044432 -0.040033 -0.021003 0.12149 -0.121344 -0.07978 -0.09534 0.017255 0.039788 0.074245 0.066695 0.094906 0.106877 -0.002436 0.121048 -0.055405 -0.027861 0.066905 -0.031899 0.037906 -0.0687 0.076165 -0.00561 0.048153 -0.145663 -0.031212 0.177448 -0.117722 0.042598 0.096103
  -0.013364 0.024987 -0.095798 -0.037625 0.01281 -0.016378 -0.003735 -0.071976 0.005155 -0.027613 0.013473 -0.060405 -0.017202 0.045325 0.163062 -0.037778 -0.134062 0.053586 -0.151249 -0.110346 -0.037749 0.047067 -0.10189 -0.082825 0.072054 0.010606 0.078622 0.058792 -0.032396 -0.06748 -0.036215 0.042973 -0.056199 -0.003753 0.032414 0.076056 0.155094 -0.081304 -0.105968 0.005077 0.039685 0.021875 0.003059 0.037207 0.008014 0.03606 -0.058487 -0.077339 0.004181 0.006593 0.048392 0.113261 0.203148 0.060246 0.071284 0.043514 -0.118111 0.012772 -0.066557 -0.137996 0.116796 -0.127168 -0.010808 0.013088 0.023933 0.161349 -0.136933 0.115048 0.046555 -0.041908 -0.095867 -0.019173 0.052913 0.117803 0.076108 -0.045887 -0.072658 -0.063982 -0.094927 -0.022561 -0.018527 -0.166725 -0.030951 -0.026285 0.073444 -0.057756 0.10279 -0.043525 -0.038008 -0.007994 -0.05412 0.034463 -0.014782 0.008209 -0.078066 -0.076836 0.042195 -0.069677 -0.099467 -0.067406 0.075347 -0.054588 -0.025554 -0.000181 -0.036567 -0.025855 -0.040048 0.025026 0.074945 0.00066 0.078943 -0.013641 0.046082 0.067902 0.097752 -0.082124 0.088095 -0.122084 -0.042672 -0.045455 0.03168 0.000193 0.060828 0.033365 -0.046318 0.012323 -0.092075 0.021971 -0.044565 0.039818 0.050139 0.091377 0.018439 -0.02152 0.037338 0.046182 -0.060935 0.119499 0.096091 0.066139 0.059905 0.066456 -0.059665 -0.070054 -0.005415 0.122055 0.00256 -0.056295 -0.05655 -0.030405 0.031376 -0.010583 -0.106966 0.025169 0.002159 -0.009659 0.078485 -0.167052 0.033802 0.040227 -0.011442 -0.057096 0.048095 0.020839 -0.061026 -0.044426 -0.137323 -0.004072 -0.026029 -0.110796 -0.024041 -0.015225 0.0821 0.003114 -0.10425 0.05802 -0.044802 -0.046897 0.027506 0.037181 0.089146 -0.104233 0.095972 -0.082745 0.072604 -0.057627 0.021279 0.018314 -0.072159 -0.007098 -0.007149 0.003207 -0.039753 0.094937 0.094627 0.088211 0.239612 -0.004239 -0.060701 0.049328
  0.021405 0.035149 0.071939 -0.066715 -0.032017 0.029615 -0.0763 -0.08374 0.016013 0.065776 -0.008364 -0.065685 0.004085 0.02243 0.018733 0.000806 0.034257 0.005024 -0.029446 -0.039519 0.049807 0.025892 0.085811 0.062812 0.067039 -0.023668 0.055821 -0.029158 0.034449 -0.094647 -0.15075 -0.004319 -0.079214 -0.031225 -0.052417 -0.022701 -0.098929 -0.004481 -0.035843 0.055289 0.062486 0.040577 0.044668 0.065758 -0.090461 0.005005 -0.011749 0.029904 0.016181 -0.118683 0.045867 0.081282 0.079627 -0.025656 0.007154 -0.028318 0.048799 0.002801 -0.019477 0.054953 0.057954 -0.089521 0.04397 -0.006249 0.11662 0.011032 0.103739 0.008414 0.002421 -0.020372 -0.005174 0.026793 -0.059784 -0.110153 -0.015066 -0.056878 0.042576 0.003213 0.084302 -0.046946 0.056857 -0.039555 -0.01638 -0.032377 -0.045669 -0.026777 0.02654 0.02433 -0.045499 0.018253 0.008997 -0.019613 -0.018427 -0.024492 0.025025 -0.009312 -0.011463 -0.077767 -0.134516 -0.047249 0.09373 0.006088 -0.020149 -0.027628 -0.061573 0.006983 -0.025136 -0.046802 -0.025106 0.000102 0.028692 -0.056815 -0.050693 0.033436 -0.028721 0.023887 -0.101496 0.011788 -0.038233 -0.017643 -0.042962 0.035928 -0.027596 0.000364 -0.006948 -0.096329 -0.076466 -0.00464 0.055435 0.118294 0.044785 -0.045977 0.009514 -0.005803 -0.018895 -0.025888 -0.026851 0.127275 -0.06628 -0.05054 -0.017481 0.033298 0.007342 -0.070719 -0.002757 0.001196 0.063284 -0.024973 -0.004967 0.11741 0.090838 0.020106 0.084168 0.025609 -0.104577 -0.09092 0.042099 -0.013931 0.08557 -0.049989 0.054386 0.049806 0.026137 -0.022119 0.00688 -0.056293 -0.055468 -0.069003 -0.029082 -0.006444 -0.040264 0.012118 -0.043554 -0.077255 0.001259 -0.049652 0.031184 0.053804 -0.040534 0.021873 -0.07029 -0.037549 0.069901 0.020305 0.029174 -0.002018 0.02437 0.022899 0.057262 -0.079906 0.11552 -0.042547 0.049732 -0.019008 0.027438 0.05069 0.09998 -0.009393 0.015699 0.098815
  -0.387476 -0.276125 0.257219 -0.409754 -0.265587 0.005975 -0.326379 0.439745 -0.516615 0.453505 0.101718 0.580393 0.435673 0.378094 0.071494 0.473389 0.320274 0.392507 0.336221 0.278486 0.394705 0.089796 0.227996 -0.432821 -0.384813 0.255524 -0.041038 -0.083519 -0.470484 -0.503459 0.368771 -0.488658 -0.482261 -0.584001 0.39575 -0.420678 0.20077 -0.223926 0.546121 -0.352467 0.347013 -0.233061 -0.050472 -0.585209 -0.135401 -0.23444 -0.421072 -0.679896 -0.573284 0.311027 -0.025829 -0.000962 0.106583 0.584426 0.016463 0.419402 -0.050917 0.424431 -0.412579 0.398164 -0.193234 -0.153424 -0.487781 -0.534077 0.396234 -0.349831 -0.213199 -0.388883 -0.567648 0.594952 -0.085945 0.382833 -0.428125 -0.34604 0.425066 0.377405 0.465829 0.431339 -0.216863 0.383827 0.079309 -0.141109 0.503284 -0.438933 0.22674 -0.19974 0.450914 -0.555473 0.412115 0.511294 0.180748 -0.298864 -0.47598 -0.404186 0.279705 -0.428682 0.446435 0.262791 -0.231668 0.546941 -0.105282 -0.678941 0.372101 0.469876 -0.371644 -0.558639 -0.016562 -0.12773 0.245402 0.377508 -0.04578 0.525554 -0.002821 0.399792 -0.304104 0.36628 0.167097 0.563623 -0.625242 -0.514175 -0.348707 0.579255 -0.295084 0.35329 -0.392481 0.462243 0.012473 -0.574391 -0.17542 0.194017 -0.652918 -0.040955 -0.325582 0.517463 0.156682 -0.577357 -0.234299 -0.49278 -0.419533 0.364445 0.317638 0.3916 -0.446993 0.415224 0.457954 0.322961 -0.297897 -0.372435 -0.120876 0.27564 0.295179 -0.5468 0.022197 0.33808 0.038499 -0.33552 0.431942 0.312837 0.435638 -0.104483 -0.446089 -0.599882 -0.411156 -0.49339 -0.396199 -0.033626 0.362571 -0.115259 -0.627399 -0.722217 -0.301467 -0.485801 0.33188 0.434699 0.318511 0.386265 0.400761 -0.518188 -0.429219 0.437877 0.255399 -0.146984 0.250199 0.38569 0.396954 -0.002964 -0.156165 0.46911 -0.390512 -0.46909 0.004987 -0.146692 0.420588 -0.109764 -0.366724 0.526296 -0.001577 -0.416202 0.253859 -0.159314
  -0.026402 -0.117546 -0.037288 -0.102547 -0.103101 0.137207 -0.0092 -0.080687 -0.013921 -0.017677 -0.183508 -0.07467 -0.071162 -0.021119 0.14018 0.061084 0.065853 -0.208156 0.089376 -0.006437 0.012309 -0.223303 -0.065419 0.076223 -0.000181 0.139248 -0.002791 -0.08068 0.060966 -0.11323 0.183752 -0.037784 -0.061587 0.002594 -0.080008 -0.024262 -0.166907 0.014066 0.02668 0.001982 0.061375 -0.037983 -0.080613 -0.10292 0.125867 0.00385 -0.094724 0.051444 0.036737 0.077555 -0.029301 -0.04558 -0.121149 0.071931 0.040805 -0.112588 -0.031175 0.045502 0.012918 0.093831 -0.089334 -0.040084 -0.056018 -0.061053 -0.084715 -0.025863 -0.028575 0.057377 0.069751 0.054269 0.051568 -0.088216 0.019388 0.064448 -0.115219 0.046041 0.046486 -0.155541 0.02318 0.01395 0.031596 0.091694 -0.028461 -0.07815 -0.061277 -0.053581 0.016396 -0.048706 0.010288 -0.015021 -0.068013 -0.090483 -0.04187 -0.061552 -0.030576 -0.087369 0.017805 0.020414 -0.123558 -0.027515 -0.069486 -0.07408 -0.126312 0.040262 -0.02424 0.070988 0.016887 -0.035624 0.037722 -0.014192 -0.165133 -0.091687 0.148121 -0.013034 -0.105136 0.129338 0.21701 0.013894 -0.063711 -0.048322 -0.027579 0.110662 -0.026905 -0.024336 -0.054607 0.003512 0.187826 0.051178 -0.056233 -0.152892 0.115221 -0.075051 0.029786 -0.016361 -0.098693 -0.040586 0.052458 -0.116665 0.073587 0.054185 -0.110623 -0.088052 0.03468 -0.120863 -0.031803 0.021753 -0.045863 -0.062771 -0.130035 -0.200224 -0.033047 -0.105874 -0.16025 0.037554 0.022364 -0.089211 -0.087805 -0.142199 0.004347 -0.07811 0.007585 -0.099226 -0.057646 0.051406 -0.079983 0.045403 0.041636 0.125847 -0.019964 -0.002429 -0.059684 -0.007385 -0.025285 0.062454 0.106471 -0.172132 -0.028471 0.084963 0.026346 -0.124625 -0.016246 -0.030787 0.143143 0.005286 -0.053179 -0.034727 -0.016417 0.075885 -0.099072 -0.173802 -0.10212 0.09526 -0.229497 0.095204 -0.035538 -0.014476 -0.084282 -0.040955 0.012199 0.004906
  -0.023607 -0.165032 -0.047302 0.021346 0.129953 -0.28416 -0.060526 -0.06202 0.034841 -0.018451 -0.158454 -0.069055 -0.027205 -0.084965 -0.080667 0.016885 -0.047021 -0.001381 -0.089985 -0.023705 -0.029138 0.035068 -0.101154 -0.013135 0.007612 0.052064 -0.092326 -0.116953 -0.14776 -0.233514 -0.017308 -0.077833 -0.113984 -0.112226 -0.000387 -0.19132 -0.060049 -0.150647 0.030773 0.137596 -0.109019 0.02762 -0.125039 0.08041 -0.029561 -0.20955 0.01393 -0.063162 0.095514 -0.050982 0.189632 -0.044016 -0.073497 0.078978 -0.164563 0.019828 0.138815 -0.106583 0.119039 0.132357 0.049452 0.060114 0.113077 0.054492 -0.019032 -0.249677 -0.047132 0.117006 -0.221992 -0.014389 -0.032348 6e-05 0.011145 0.142121 -0.045146 -0.060775 0.037322 -0.098476 0.087687 0.045064 -0.115219 -0.126061 0.032911 0.104985 -0.097448 0.072497 -0.098746 0.113927 -0.058374 0.017543 -0.11802 -0.169598 -0.04133 -0.12616 0.078958 0.008106 -0.103903 -0.028243 0.045577 0.007314 -0.042018 -0.092761 -0.06252 -0.079219 0.081476 -0.215921 0.016407 0.176336 -0.021461 -0.059383 -0.019735 -0.085181 0.000484 0.033153 0.05415 -0.095679 0.07004 -0.071766 0.067053 0.125809 -0.240156 -0.093962 -0.06655 -0.052471 0.06497 -0.059904 0.062661 -0.069888 -0.000119 -0.050658 -0.101318 -0.086237 -0.221241 -0.009207 0.017851 0.117074 -0.183297 0.132926 -0.07563 0.083273 -0.099274 -0.019211 0.048988 -0.029055 -0.032962 -0.020199 -0.189313 0.102794 0.122094 -0.094873 -0.116486 -0.045555 0.014146 -0.061124 -0.160034 0.039443 -0.019399 -0.039279 -0.108854 -0.127316 -0.140365 -0.174747 -0.051076 -0.162578 0.016348 0.188913 -0.021558 0.046105 -0.087813 -0.230044 -0.052906 0.02473 0.004338 -0.00478 -0.027702 -0.036382 0.047278 0.000746 -0.107667 -0.07244 0.043092 0.10522 -0.105013 -0.080143 -0.067592 -0.100172 -0.112156 0.034882 -0.129549 -0.065174 -0.02753 0.026975 0.020399 0.217701 -0.031995 -0.025555 -0.026433 0.125189 -0.055848 -0.160304
  -0.004284 -0.117406 -0.117534 -0.015407 -0.0067 0.052168 -0.053083 -0.037435 -0.047548 0.005542 0.063435 0.014873 0.049284 -0.045961 0.16335 -0.030988 0.014291 0.018294 0.051074 -0.002771 -0.060444 -0.046936 -0.003723 0.049468 -0.031756 -0.069503 0.105129 -0.037997 -0.023329 -0.170121 0.106794 -0.052185 -0.042256 -0.080834 0.017364 0.032819 -0.064745 -0.024633 0.019357 0.010115 0.03345 0.1193 -0.009926 0.081064 -0.079958 -0.045696 -0.01871 0.002794 0.019202 0.014151 0.036889 0.02959 0.024407 -0.125512 0.099818 -0.175182 0.008944 0.008753 0.029935 -0.094293 0.02593 0.02978 0.065891 -0.028786 0.018249 -0.066584 -0.092913 0.09506 -0.077654 -0.004289 -0.085469 -0.065232 -0.052762 0.013217 -0.040892 -0.004509 -0.050394 -0.012801 0.0273 -0.033168 0.154425 0.046481 0.004301 0.055732 0.079552 -0.031748 -0.049307 0.01632 0.022804 -0.060145 -0.012106 0.001269 -0.037732 -0.075357 -0.046384 -0.062759 -0.058703 0.072283 -0.058213 -0.077097 -0.179909 0.026484 -0.054554 0.065774 0.125933 -0.084411 -0.095966 -0.032924 -0.116604 -0.015751 -0.008379 -0.014399 -0.057576 -0.014361 0.046382 0.039916 -0.01166 0.023246 -0.022725 0.050177 -0.04447 -0.055843 0.04901 0.105743 0.029776 0.086448 0.022734 0.020463 -0.011718 0.048561 -0.07409 -0.123471 -0.078884 -0.057371 -0.09561 0.110956 -0.103114 0.015303 -0.001509 -0.066286 -0.064153 0.040869 0.068154 0.057464 0.000955 0.004021 0.011029 -0.009574 0.007216 -0.088018 0.041147 -0.09747 -0.107466 -0.034684 -0.038434 -0.00399 0.024475 -0.105172 -0.000118 -0.018722 -0.081946 -0.075394 0.001164 -0.069877 -0.0319 0.096675 0.022422 0.155309 -0.085319 -0.041293 -0.145016 0.000274 -0.177777 0.029295 -0.003453 -0.005959 -0.096425 -0.025335 0.010455 0.055255 -0.048846 0.088129 -0.017059 0.008946 0.044733 -0.014412 -0.034438 -0.060031 0.006366 -0.028582 -0.037984 0.011066 -0.059178 0.0214 -0.114303 -0.052203 -0.215082 -0.035913 0.016535 -0.034705
  0.019843 -0.079253 -0.015227 -0.098001 0.092706 0.115246 -0.131121 0.077927 0.068811 -0.04569 -0.021471 -0.022324 0.001132 -0.011039 0.037236 -0.023002 0.039027 -0.03157 -0.005055 -0.052908 -0.020881 -0.082501 -0.048756 0.02113 0.029372 0.031147 0.125465 0.041529 -0.01435 -0.019019 0.037643 0.046971 -0.033258 -0.13185 -0.004742 -0.084488 -0.029439 0.038153 -0.082933 0.017194 0.0424 -0.112966 -0.072638 -0.018385 0.155562 -0.060474 0.015556 0.019448 -0.002217 0.031508 0.060988 0.03148 0.031116 -0.06781 -0.024462 -0.143516 0.101115 0.032169 0.099231 -0.016971 0.054259 0.19083 -0.030149 0.059175 -0.037767 -0.154845 -0.149696 -0.102041 -0.122613 -0.058814 -0.152931 -0.097598 0.060749 0.02698 -0.011582 -0.052207 -0.019355 -0.020301 0.056476 0.018023 0.070055 -0.036662 0.015556 0.042512 -0.035529 0.040402 -0.05239 0.065312 0.001716 -0.055351 -0.038399 -0.024945 -0.005364 -0.151945 0.005387 -0.031235 0.008474 -0.053456 0.158545 0.040306 0.019213 -0.053763 -0.047833 -0.048594 -0.093386 -0.065914 -0.182042 0.033873 -0.093527 -0.038533 -0.042407 0.005251 -0.061894 -0.025549 -0.002105 0.05282 -0.068481 -0.023938 0.031338 -0.025172 -0.045819 0.021203 0.003936 0.027088 0.03202 -0.026189 0.032755 0.039858 -0.160447 0.024261 -0.023735 -0.048785 -0.181779 -0.096649 -0.078495 -0.046222 -0.014963 0.001043 -0.026975 -0.021702 -0.04846 0.00463 0.046881 0.00323 -0.002264 0.024366 -0.196165 0.053009 0.167304 0.017755 -0.063529 -0.042225 -0.095831 0.018552 -0.018707 0.011987 -0.034804 -0.080809 0.012997 -0.138829 -0.019393 -0.163925 -0.11992 -0.024363 -0.057888 0.096342 0.060634 -0.014468 -0.010726 -0.163385 0.033165 0.007682 -0.084208 0.006149 0.041028 -0.008572 -0.06739 0.058398 -0.103082 -0.086281 -0.025033 0.085145 0.045893 0.054326 -0.059147 0.114866 -0.028832 -0.016078 -0.084475 -0.017178 0.105321 0.160262 -0.098812 -0.000333 -0.000732 0.063937 0.021437 0.150385 -0.079782 -0.210187
  -0.032054 -0.066246 -0.182416 -0.182681 -0.165642 0.076385 -0.025306 -0.115849 0.006524 0.022655 -0.114626 0.039199 -0.082288 -0.082808 -0.134171 0.054455 -0.059957 0.053599 0.024943 -0.116209 -0.034025 -0.19179 -0.120198 0.107116 0.022366 -0.056265 -0.059163 -0.131677 0.043111 -0.223313 0.002775 0.022271 -0.03895 0.008293 0.020278 0.080607 -0.056753 0.107962 0.011316 0.093642 -0.081358 -0.136698 -0.005485 -0.03496 0.079205 -0.191999 -0.090468 0.061057 -0.042695 -0.039912 -0.012743 -0.043279 -0.154286 -0.040592 -0.116767 -0.061112 0.109788 -0.01517 0.053524 -0.095396 -0.07042 0.072289 -0.12975 -0.121224 0.141146 0.05449 -0.044348 0.006154 0.04262 -0.033079 0.072906 -0.100836 0.110145 0.061499 -0.035292 -0.04868 -0.065667 -0.075203 0.151291 0.104345 -0.08872 0.108387 -0.074309 -0.012041 -0.103857 -0.095778 -0.08922 -0.178467 0.056865 0.033931 -0.118915 -0.164482 -0.072896 -0.128691 -0.041967 -0.23761 -0.094708 -0.141577 -0.235499 0.014484 -0.07292 -0.112741 -0.035159 0.027563 0.060396 0.128149 0.166711 -0.129757 0.011698 -0.051284 0.055807 0.025509 0.074511 -0.054224 -0.226497 0.047122 0.086257 -0.056247 -0.132326 0.007801 0.002146 0.099448 0.033461 -0.107259 -0.145554 0.001204 0.04268 0.066856 0.159016 0.048535 0.04766 -0.123095 0.138688 0.011368 -0.011282 -0.054482 0.134004 -0.014704 0.089821 -0.018866 -0.073222 -0.085942 0.001483 0.044228 -0.075543 -0.113581 -0.133003 -0.150067 -0.121564 0.046743 -0.119249 -0.103852 0.021528 -0.140233 -0.060499 -0.012067 -0.063915 -0.153585 0.004734 -0.166827 0.094824 -0.021167 -0.115492 0.106747 -0.110141 0.242182 0.06272 0.021934 0.078483 0.085836 -0.069258 0.088746 -0.121137 -0.044305 0.017072 0.009054 0.007158 0.149997 0.048552 -0.06291 0.017249 -0.129689 -0.010571 -0.025328 0.006803 0.015903 -0.165255 -0.008412 -0.156285 -0.123685 -0.107046 0.199688 0.025917 0.111717 -0.211774 -0.019421 -0.060221 -0.09628 0.029308 0.066095
  -0.055202 0.022158 0.02377 0.103259 0.050611 -0.08598 -0.114166 -0.057801 -0.115489 -0.045958 -0.022708 0.078077 0.007975 -0.007727 -0.070955 -0.035822 0.049922 0.032047 0.037705 -0.000994 -0.012275 -0.036825 -0.085125 0.036839 -0.005846 0.045957 0.053106 -0.040182 -0.001238 0.049688 0.031105 -0.041006 -0.008131 -0.066375 -0.005415 -0.129324 0.004434 -0.210218 0.038591 -0.012479 -0.047591 -0.000337 -0.063363 -0.049635 0.023377 0.066678 0.04354 -0.047615 -0.042098 0.114407 -0.08354 -0.085204 -0.107172 0.055159 -0.035491 -0.076615 -0.134816 -0.041938 -0.046164 -0.017214 -0.145789 -0.046813 0.027858 -0.028685 0.031571 -0.011854 0.214892 0.050184 0.050213 0.032875 -0.028663 -0.083361 0.027833 -0.028105 -0.049591 -0.102925 -0.063654 -0.025975 -0.095549 0.026464 -0.183516 -0.061364 0.011645 -0.009663 -0.020591 0.003622 -0.076056 0.046207 0.002266 -0.081457 -0.126783 0.076042 -0.033458 0.077247 -0.11878 0.036393 0.016555 -0.005096 -0.018643 0.09937 0.085713 0.026998 -0.036976 0.062938 0.018854 -0.148643 -0.060996 -0.047767 -0.003373 -0.048119 -0.012379 -0.062489 0.085568 -0.00203 -0.003852 0.018742 0.122223 0.060236 0.034425 0.024709 -0.049651 0.008538 -0.049018 0.029544 0.006693 -0.020965 0.121139 -0.088286 0.063576 -0.073964 0.079639 -0.006704 0.022881 -0.061461 0.050921 -0.02566 -0.106559 0.090306 -0.073082 -0.022091 -0.013395 -0.069054 0.01522 0.014994 0.048503 0.000491 -0.093075 -0.027405 0.068106 0.016379 -0.026228 -0.014046 -0.061021 -0.070354 -0.118383 -0.026789 0.069271 -0.078581 -0.016442 0.063249 -0.094736 -0.060712 0.009909 -0.080333 0.046835 0.012066 -0.043316 0.036748 -0.002283 -0.057114 -0.000742 -0.032192 -0.077013 0.031758 0.090618 0.010709 0.092539 0.040387 -0.045841 -0.010854 -0.076298 -0.031444 0.092261 -0.031146 -0.022796 0.090816 0.052979 0.000284 0.037219 0.07247 -0.048112 0.050406 -0.055802 0.013749 0.053638 0.012839 0.005006 0.0602 -0.074136 -0.133729
  -0.045493 -0.110027 0.06289 0.087028 0.022082 -0.128761 0.066951 -0.056811 -0.033285 0.02165 -0.018583 -0.003134 -0.034913 0.004511 -0.059305 -0.022139 -0.032796 0.019485 -0.007923 -0.022897 0.0055 0.024159 0.049758 0.023829 -0.114912 0.033552 -0.074016 0.013438 0.015951 0.008054 -0.073764 0.04461 0.064451 0.044838 -0.011507 -0.130152 0.014499 0.01252 -0.038575 0.050857 -0.008434 0.084141 0.008531 -0.017692 -0.024854 0.070185 0.029463 -0.021862 0.058217 -0.043616 0.099329 -0.010391 0.056998 0.050031 -0.046197 0.065021 0.024121 -0.007501 0.039391 -0.020652 -0.042369 -0.096591 0.12988 0.008056 0.00896 0.051185 -0.107182 0.001389 0.015198 -0.000219 0.0255 0.00157 -0.02438 -0.041706 -0.000901 0.095854 0.033946 -0.00569 0.077492 -0.030543 -0.002438 0.098551 0.043592 0.012748 0.012363 0.116815 -0.019597 0.035112 -0.002129 0.011629 -0.02473 -0.078852 -0.019056 -0.075696 0.002034 0.019339 -0.01659 0.000147 -0.001015 0.021411 0.103563 -0.058775 0.032334 0.014934 0.015057 -0.023106 -0.233366 -0.06722 0.034972 0.028054 -0.072918 0.052986 -0.025672 0.046639 -0.105374 -0.055921 0.107509 -0.023447 -0.020189 0.005446 0.007724 -0.042261 -0.022941 -0.029985 0.002104 -0.018506 0.001334 -0.058687 0.030945 -0.008818 0.093821 0.083245 -0.048653 -0.036553 -0.060813 0.048498 -0.023943 0.141166 0.059366 -0.018851 -0.011144 -0.013153 0.038768 0.025671 0.017989 -0.058975 -0.028914 -0.000732 -0.119463 0.048038 -0.085536 0.044322 0.159947 -0.011519 0.079594 -0.023189 -0.016188 -0.015265 0.040344 0.020905 0.021973 -0.001813 -0.031367 0.061567 -0.008132 -0.112812 -0.17252 -0.044195 0.068216 -0.021575 -0.01232 -0.004493 0.030542 -0.003105 -0.045735 0.00178 -0.00991 -0.05154 0.059716 0.010526 0.035228 -0.000934 0.021316 -0.040283 -0.080755 0.069056 -0.008218 -0.0184 0.020836 0.022726 -0.077025 -0.060539 0.01474 0.064244 0.084847 0.019696 -0.098937 -0.054655 -0.008601 -0.082766
  0.080142 0.040141 0.027759 -0.002759 -0.102078 -0.084076 0.089391 0.038828 0.02932 0.008226 -0.025016 -0.032607 -0.007141 0.045579 0.066577 0.00986 0.021522 0.005757 0.00542 -0.068209 -0.072055 0.066243 -0.015725 -0.043736 0.052846 -0.052175 -0.092293 0.057377 0.090623 0.069103 0.039087 0.020324 0.0733 -0.063807 0.006605 -0.022428 -0.103037 -0.01617 -0.049472 -0.095581 0.001879 -0.021873 0.018303 0.112522 0.032019 0.091634 0.060416 0.062701 -0.012634 0.003089 -0.084742 -0.001523 0.064496 0.000172 0.092319 0.027462 -0.11537 0.017086 0.067545 -0.011965 0.083386 0.038557 0.018065 -0.005713 -0.049713 0.009365 -0.056844 0.078341 0.003531 -0.021864 -0.051371 0.059594 -0.108687 0.013408 0.02403 0.008371 0.019553 -0.052256 0.132967 -0.009006 0.101202 -0.010839 0.064047 -0.01263 0.061531 -0.091339 -0.11109 0.019015 0.003564 0.002677 0.018509 -0.121181 -0.014966 -0.051676 0.052123 0.025913 -0.010395 -0.038338 -0.005238 0.003318 -0.111303 0.042561 0.040827 -0.012501 0.099101 0.029868 -0.007434 -0.034861 0.014334 0.020785 -0.114676 0.008714 0.003653 -0.02311 0.015243 0.025269 -0.009288 5.8e-05 0.078902 0.025915 0.049505 -0.036919 0.10176 0.025248 0.019389 0.018998 -0.006455 -0.068029 0.011926 0.00249 0.09985 -0.002754 -0.086043 -0.062531 -0.15242 -0.042079 0.033424 0.004687 0.069864 0.014998 0.032208 0.010189 -0.03181 0.012915 0.016247 -0.047322 0.138243 -0.068194 -0.01998 0.069597 -0.026139 0.02665 -0.114529 0.069085 0.065893 -0.007372 0.000365 -0.042958 -0.008542 0.023202 -0.001133 -0.0121 0.001033 -0.032432 -0.035982 -0.087537 0.010923 -0.034845 0.074268 0.054069 0.06713 -0.003488 0.06907 0.031591 0.00824 0.007425 -0.031231 0.036629 0.031522 -0.004824 -0.016318 0.054025 -0.069401 -0.000318 -0.078696 -0.06426 -0.007823 -0.019745 -0.000756 0.012882 0.064257 0.045556 0.005815 -0.029265 0.039333 0.026227 -0.102006 -0.019276 0.020146 -0.061768
  -0.009885 0.007321 0.012435 0.005442 -0.075857 -0.030523 -0.035157 0.025785 -0.03997 -0.021629 0.026163 -0.020179 0.010541 -0.011535 -0.006467 -0.031191 -0.008867 -0.024141 -0.002805 0.011834 -0.00479 0.088908 0.022532 0.055073 0.032075 -0.02253 0.060837 -0.113363 -0.023856 -0.011014 0.05409 -0.047261 -0.014749 -0.100976 -0.053459 0.042149 -0.004383 -0.04911 0.015667 0.061113 0.051191 -0.014619 -0.04565 0.104062 0.073577 0.080084 -0.012206 0.077099 -0.013021 0.001651 0.024548 0.11295 0.072291 -0.005251 -0.143407 0.039512 0.01358 0.000595 0.089953 0.009231 -0.020729 -0.02762 0.032536 -0.045366 -0.04657 0.039659 -0.085615 0.023165 0.013295 -0.011451 0.07409 0.015354 -0.089039 0.021304 -0.010849 -0.007349 -0.033203 -0.114807 -0.034871 -0.022899 -0.023469 -0.014412 -0.016587 0.003845 0.091099 -0.020175 -0.047567 -0.020342 -0.026529 -0.015193 -0.091263 -0.001157 0.089914 0.024912 0.081751 0.044252 -0.043396 -0.024732 -0.075379 -0.056404 -0.05592 0.06262 -0.015372 0.013428 0.046854 -0.036446 -0.072351 0.018117 -0.01613 0.013878 0.08147 0.019485 0.00778 0.021406 -0.000547 0.021925 0.010911 -0.008515 0.010177 -0.018528 0.043242 -0.008229 -0.05908 -0.023781 0.085223 0.039187 0.04319 0.038304 -0.035944 -0.091157 -0.01685 0.046938 0.014884 -0.031353 -0.091239 -0.11011 -0.000778 -0.085612 -0.039833 0.017757 -0.05449 0.035355 -0.032082 0.000103 -0.023593 0.027169 0.014711 -0.028445 -0.070221 -0.00534 -0.024647 0.093166 -0.150006 -0.022075 0.029362 -0.116299 0.043293 -0.021418 0.028274 -0.052195 0.034816 0.06009 0.053267 -0.011496 0.065391 1.6e-05 -0.009461 -0.011404 -0.008523 0.06826 -0.009925 -0.010612 0.03001 0.033566 0.001123 -0.025065 -0.03551 0.09321 -0.116845 0.046155 -0.058253 0.159252 -0.048291 -0.008119 -0.043885 0.016325 0.089417 0.004204 -0.043931 0.037024 -0.100789 0.029707 -0.045486 -0.085655 0.006354 -0.023079 -0.157823 -0.072219 0.000493 0.054645
  0.056403 -0.074776 0.082332 -0.05173 0.055831 -0.056459 0.030904 -0.069886 0.070653 0.009833 -0.005685 0.010527 0.01258 -0.03788 -0.045401 0.014618 -0.009046 0.003109 -0.061244 -0.057453 0.026619 0.02212 0.060318 -0.038688 -0.01789 0.051967 0.023338 -0.064845 -0.005844 0.00582 -0.000444 -0.003423 0.074223 0.035343 0.038412 0.00306 0.006441 -0.066749 -0.006679 0.072837 -0.031386 -0.011253 0.016664 -0.031954 0.028215 -0.061797 -0.0567 0.009293 0.059913 0.023585 0.083464 -0.140922 0.075504 0.049508 -0.103306 0.059009 -0.069991 0.005984 -0.069021 -0.004546 0.033772 0.028072 -0.004261 -0.001635 -0.014466 0.089495 0.011252 0.006805 -0.000324 0.040613 0.096591 -0.007284 0.052745 0.011445 0.021748 0.048605 -0.005069 -0.111962 0.023888 -0.073081 -0.018966 -0.051516 0.007894 0.034538 0.044217 0.072992 -0.07698 -0.036269 -0.022465 0.019761 -0.085932 0.002894 0.041765 -0.050303 0.06476 0.038204 0.031824 0.006634 -0.020775 -0.022557 -0.021041 0.027974 0.023225 0.006029 0.03322 -0.052405 -0.001085 -0.108828 0.026621 0.030799 -0.101617 -0.030555 -0.06679 -0.032833 0.041574 -0.01523 -0.027617 0.042883 -0.040439 0.036727 -0.125838 -0.05103 -0.005044 -0.000858 0.061041 -0.031795 -0.036989 -0.039402 -0.050289 -0.042502 0.042107 -0.068829 -0.021852 -0.040054 0.016708 0.039578 0.014579 0.014947 0.108714 0.025079 -0.0149 0.049726 0.008812 0.003032 -0.011572 -0.039556 0.058263 -0.025409 0.036088 0.070796 -0.006629 0.035217 -0.151799 0.035309 -0.110417 0.08369 0.028773 -0.064389 0.048953 -0.065709 -0.021548 -0.024976 0.00499 0.031808 -0.024203 -0.084615 0.092042 0.048201 0.054295 0.006707 0.038441 -0.014249 0.0374 0.053149 -0.004756 0.013449 0.003721 -0.028469 0.067858 0.002644 0.051078 -0.018422 0.007208 -0.025719 -0.08011 -0.070972 -0.042802 0.031868 0.026471 0.025248 -0.050831 0.042956 -0.041877 -0.086266 -0.048985 -0.006345 -0.104203 -0.045571 0.070511 0.041214
  -0.002348 -0.014107 -0.008467 -0.030454 0.018856 -0.037463 -0.128224 0.055782 -0.052723 -0.037273 -0.010448 -0.003484 -0.014813 0.056642 -0.08777 0.012343 0.043132 0.022639 -0.054257 -0.019631 -0.042022 0.178797 0.031427 0.030091 0.01195 0.035514 -0.035601 -0.087057 0.085587 0.092289 -0.065762 0.035439 -0.079044 0.049997 -0.006497 0.055338 -0.090579 -0.053207 -0.015303 0.008056 -0.015489 0.129564 -0.171497 0.091123 -0.207485 -0.034555 -0.126535 0.049003 -0.044996 0.115126 -0.052476 -0.07975 0.019521 -0.008999 0.120625 -0.058931 -0.071547 0.029858 0.018315 0.076127 0.077308 0.06574 0.032197 0.020616 0.024421 -0.000672 0.005733 -0.103217 0.008844 0.008549 -0.060004 -0.070081 -0.025544 -0.039613 -0.022145 0.031335 -0.02404 -0.125889 0.047907 -0.013661 0.036048 -0.077914 0.027042 0.06952 -0.037355 0.021335 -0.00285 -0.018035 -0.089799 0.007474 0.021847 0.056699 0.05516 0.011819 0.089702 0.102514 0.002788 -0.023945 -0.061331 -0.040988 -0.009911 -0.008027 0.009539 -0.03015 0.079377 0.04235 0.139966 0.101775 -0.080648 -0.029101 -0.153558 -0.029691 -0.087724 0.019062 -0.042911 -0.067413 0.006066 -0.006204 0.065568 0.034206 -0.09745 -0.08383 -0.16514 0.006124 -0.026033 -0.006637 0.076369 0.034554 -0.042849 0.073011 0.075017 0.041706 0.137209 -0.061331 -0.034474 -0.02143 -0.037295 0.026024 0.034814 -0.004395 -0.089148 0.001303 0.013491 -0.017803 -0.009062 0.027474 -0.103867 0.070354 0.040844 0.055559 -0.076903 -0.034212 -0.027641 -0.017747 0.078956 0.032131 -0.01862 -0.077285 -0.043345 0.110289 0.000377 0.019419 0.095422 -0.035305 -0.014284 0.12429 -0.041429 -0.142308 0.077792 0.056884 -0.080723 -0.019261 0.037247 -0.007173 0.000851 -0.052222 0.022236 0.015816 -0.034784 -0.038047 -0.029323 0.002274 -0.010912 -0.0372 -0.002223 -0.005702 -0.078055 -0.002448 0.055917 -0.04323 -0.014161 0.063581 0.003334 -0.057596 0.094581 0.027165 -0.071936 0.006509 0.050134 -0.087978
  0.036534 -0.03569 0.01294 0.059768 -0.007763 0.152373 0.044382 0.048033 -0.002721 -0.002561 0.028138 -0.002802 -0.019826 0.01097 -0.067188 0.013938 0.054041 -0.011801 -0.032641 -0.058063 0.047051 0.116656 0.038768 -0.051517 0.015357 0.051734 -0.015135 0.041984 -0.0059 0.065264 -0.019406 0.041651 -0.00257 0.071147 -0.009073 0.000772 -0.042637 -0.151266 0.014029 -0.074657 0.009374 0.004481 0.136297 0.002535 -0.145749 -0.041 -0.004891 -0.001387 -0.009663 0.031095 0.095041 0.045442 -0.024755 0.01144 0.100666 -0.045029 0.078615 0.006932 0.026427 0.026468 -0.018541 -0.015221 0.002369 0.047518 -0.01416 0.038049 0.06974 -0.011937 0.003067 0.042002 0.109678 -0.082446 0.094066 0.071835 -0.054206 0.001643 0.023159 -0.059309 -0.079155 -0.031394 -0.006218 0.013015 0.035144 -0.027429 0.015482 -0.052477 -0.016597 0.036686 -0.025511 0.015095 0.003028 0.071726 -0.00323 0.054397 0.019018 0.044739 -0.045688 -0.011742 -0.091411 -0.039549 0.030255 -0.023478 0.017552 0.013064 -0.04734 -0.071003 -0.107324 0.048829 -0.063181 0.035016 -0.125801 0.002779 -0.075731 0.028328 0.061942 0.001194 -0.187861 0.02326 0.02185 0.015536 -0.039765 0.020548 0.057775 0.061356 0.041324 -0.019823 -0.022808 0.011296 0.132556 0.040142 -0.055884 0.086693 -0.06873 -0.022706 -0.157199 0.020263 -0.136558 0.06257 -0.014646 -0.026762 -0.043287 0.015448 -0.033744 0.013131 -0.005371 0.036884 -0.037206 -0.048818 0.108861 0.00667 -0.055463 -0.051518 -0.009675 0.016044 -0.006415 0.004729 -0.023565 -0.071023 -0.041393 0.0013 0.0495 0.053323 -0.036869 -0.053449 0.003783 -0.055549 -0.05239 -0.037769 0.024872 0.043122 -0.007268 0.054743 0.052866 0.056252 -0.0678 -0.004059 0.02927 0.041273 -0.013304 -0.027919 0.05565 -0.030552 0.070791 -0.020561 -0.001689 -0.130659 0.008693 0.021808 -0.019384 0.01264 -0.034255 0.118809 -0.021981 -0.10701 -0.068658 0.023782 0.01913 -0.027896 0.062151 0.081099
  0.004131 -0.240976 0.072088 0.064997 -0.060637 -0.040259 0.142056 0.035707 -0.013748 -0.047083 -0.09145 0.00651 0.021412 0.038094 0.000484 0.030873 -0.089314 0.012956 -0.102942 0.030139 0.012675 -0.036688 0.056937 0.058089 0.018331 -0.00465 -0.065109 -0.010343 0.080439 0.050069 -0.005372 0.04953 -0.030719 0.006565 0.045492 0.073341 0.011371 0.195612 -0.037991 -0.027234 0.023171 -0.057226 0.083768 -0.050822 0.079593 0.041102 0.069894 0.020038 0.072634 -0.101248 0.035245 -0.084179 -0.045062 -0.022847 0.031816 -0.097938 -0.080642 -0.011576 0.110677 0.025943 -0.07295 -0.012946 -0.001511 -0.072563 -0.102248 0.061337 -0.217952 -0.038737 -0.000429 -0.069459 0.099447 -0.019494 0.011396 0.112254 -0.007795 0.034044 -0.024326 0.04393 0.004468 -0.082264 -0.05762 0.110026 -0.000559 0.015324 0.001896 -0.103774 0.035355 -0.002051 -0.063745 0.058901 0.055896 -0.076777 -0.018701 0.002473 0.015319 -0.053313 -0.037427 0.028856 -0.105491 -0.034506 -0.025394 -0.075771 0.034675 -0.010915 -0.03315 -0.025188 0.065844 -0.033218 -0.04222 0.005943 0.027925 -0.02094 -0.021096 0.017645 0.008349 0.021567 -0.096005 0.002549 0.009887 0.045953 -0.0525 0.010241 0.069295 0.019018 -0.016321 0.009176 0.065963 -0.029387 0.054698 0.024716 -0.04561 0.139222 0.067006 0.05162 0.013508 -0.003173 0.120158 0.059845 0.078589 0.021087 -0.033162 0.048998 0.110588 -0.07868 -0.012784 -0.020834 0.001661 0.08694 -0.084851 0.025176 -0.010834 -0.050447 -0.137578 0.035914 -0.014745 0.058727 0.033424 -0.005254 -0.029802 0.005321 0.083787 -0.020912 0.132762 0.031729 -0.050502 0.079888 0.01174 0.043733 0.01975 0.017259 0.117328 0.068386 -0.043443 0.00621 -0.074479 0.011719 0.005283 -0.011771 0.065546 -0.009584 -0.075917 -0.140268 -0.028988 0.003041 0.033522 -0.075078 0.070176 0.014125 -0.095166 -0.005016 -0.120438 -0.024194 -0.009111 0.001149 -0.153063 -0.003314 -0.115233 0.014658 0.12761 0.116425
  -0.028398 -0.070666 0.016953 -0.051216 0.109672 0.014098 0.050585 -0.006832 0.03026 -0.023987 -0.170026 -0.001523 0.007695 -0.024218 -0.083109 0.011162 -0.009515 -0.064338 -0.077023 -0.078845 -0.018488 -0.161602 -0.172085 -0.082452 -0.03559 0.036439 -0.113913 -0.171092 0.006804 -0.030005 0.062381 -0.003572 0.084383 0.007382 0.015997 0.018761 -0.039366 -0.030205 -0.001788 0.027455 0.036827 -0.131506 0.070065 0.039291 -0.263619 0.018531 -0.03553 0.024571 -0.082427 0.055475 0.030424 -0.054376 -0.078541 0.009173 0.039689 0.007673 -0.050951 0.012778 0.082911 0.02128 0.063539 0.069414 0.019594 0.074556 -0.010473 0.038392 -0.101851 -0.039381 0.009349 -0.086651 0.069866 -0.010268 -0.099445 0.007569 -0.018806 -0.032478 -0.01945 -0.055085 0.110966 -0.012986 -0.035618 0.059497 -0.011728 0.006448 -0.061005 -0.083992 0.033138 0.019691 0.011866 -0.007729 -0.007657 -0.057383 0.104245 -0.056196 -0.112563 0.149919 -0.030191 -0.03714 -0.023197 0.03615 0.05133 0.074428 -0.029053 -0.000468 0.063933 0.126588 -0.12892 0.0912 0.062067 0.014292 -0.013139 0.043398 -0.025468 -0.035618 0.042936 0.071277 0.113402 -0.008757 0.026938 -0.032135 -0.079945 0.021912 -0.096384 0.021202 -0.031383 0.016079 0.097616 0.055376 -0.113333 -0.014457 0.042188 0.092423 0.067984 -0.002562 0.021173 0.02856 -0.024014 -0.183048 -0.055539 0.02835 -0.00978 -0.035338 -0.013707 -0.040198 -0.027378 -0.02601 0.048349 -0.072105 -0.025488 -0.050286 -0.025028 0.090469 -0.080068 -0.015761 -0.052159 0.101543 -0.027174 -0.037921 0.006223 0.002817 0.014802 0.037705 0.066783 0.014147 0.013678 -0.083037 0.078915 -0.002935 0.065736 0.033216 -0.001595 -0.03276 -0.083745 -0.007037 0.054762 -0.003316 0.009158 -0.082761 -0.053 -0.046402 -0.009997 0.147135 0.05122 0.024049 0.043769 0.053079 -0.107871 -0.019223 -0.062155 -0.005884 -0.073557 -0.069108 0.074931 0.078219 0.047683 0.01247 -0.014229 -0.085248 0.102781 0.053156
  0.031239 -0.051754 -0.04754 0.030761 0.025062 -0.093262 -0.048388 -0.028982 -0.052725 0.013877 -0.118664 0.033253 -0.005295 -0.114932 0.021364 -0.003939 -0.032827 -0.00474 -0.011864 -0.060256 -0.021763 -0.149786 -0.072323 -0.044322 -0.067419 -0.123415 -0.085611 -0.06664 0.019879 0.12923 -0.002226 0.060493 -0.038204 0.097679 0.077585 0.00132 0.03605 -0.036179 -0.042325 -0.03546 0.054571 0.047764 -0.025229 -0.027365 -0.11282 -0.021418 0.049768 0.025512 0.051847 0.025448 0.013346 0.063677 0.043132 0.051745 -0.051266 0.08405 -0.003121 -0.013269 0.065295 0.036432 0.066385 0.073585 0.030394 0.048734 -0.044927 0.013757 -0.160803 0.032924 -0.036531 0.006332 -0.021299 0.005628 0.071261 -0.026109 0.021334 0.058564 -0.007768 0.05048 -0.087761 -0.038315 -0.130711 0.018289 -0.002132 0.046016 0.105815 0.046942 -0.001847 0.061953 0.002625 -0.002154 -0.090959 -0.080099 -0.025113 -0.046292 0.017981 0.049391 0.018945 0.015739 -0.13221 0.019447 0.072027 -0.046701 -0.08818 -0.039692 0.027366 -0.004049 -0.166586 -0.053781 0.043331 -0.033514 0.087844 0.013254 0.112754 -0.050147 0.004229 -0.026338 0.047011 0.030873 0.044448 0.068298 -0.072849 -0.038614 -0.0295 -0.057159 -0.013008 0.00696 -0.108092 -0.098156 -0.124308 -0.054515 0.145122 0.033145 -0.021338 0.048003 -0.00654 -0.031992 -0.099373 0.058153 -0.102534 0.02445 0.004246 -0.079787 0.002329 -0.007221 -0.059602 -0.073456 -0.076247 -0.00224 -0.018343 0.022617 -0.033038 -0.010095 -0.092029 0.059368 -0.00938 -0.030681 -0.083051 0.025126 0.011655 0.072139 -0.013701 0.012392 0.068441 0.008439 -0.155768 -0.160046 -0.022992 -0.070388 0.025398 0.022013 -0.077506 0.045817 0.013287 0.032051 -0.009885 -0.018254 -0.025019 0.015303 0.052178 -0.018178 -0.069128 -0.120406 0.042598 0.012027 -0.011982 0.096402 0.01129 -0.029559 0.100008 0.028757 0.051536 -0.103974 0.021002 -0.127664 -0.025177 -0.035214 0.02719 -0.028225 0.040696 0.050773
  0.092576 -0.076368 -0.001565 -0.087316 0.093102 -0.026761 0.099104 -0.045898 0.00076 0.012365 -0.017419 0.034464 -0.020017 -0.016769 -0.060725 0.007012 -0.044539 -0.015245 -0.03419 -0.016752 -0.014148 0.053167 0.00846 0.031047 -0.077076 -0.024716 -0.108713 0.11462 0.047109 0.086531 0.046348 0.023179 0.079599 0.074208 -0.007398 -0.111186 -0.010172 0.031168 0.000448 0.006548 -0.017203 0.097279 -0.078136 -0.070637 0.0877 0.070942 0.001737 0.02339 0.041711 -0.066736 -0.055499 -0.006007 0.048047 -0.009968 -0.001166 -0.06144 -0.064864 -0.041452 -0.027294 0.046923 0.094159 0.077196 -0.012492 0.004222 0.00726 -0.021652 -0.111156 0.040144 -0.014427 0.001576 0.076052 0.006174 0.019548 -0.159291 0.010731 0.002804 0.039582 -0.005646 0.063883 -0.011326 0.034439 0.075358 -0.056936 -0.048232 0.013852 -0.061489 -0.003928 0.011965 -0.031119 -0.01827 0.001877 -0.0414 0.031342 -0.068504 -0.069035 0.082832 -0.012432 0.066497 0.105829 -0.01482 0.095002 0.041481 -0.023731 -0.007588 0.078021 0.011503 -0.090238 0.074249 0.005323 -0.01863 0.05371 -0.001899 -0.045066 0.044117 0.023786 -0.009414 0.071551 -0.03148 0.056256 -0.025426 -0.04429 -0.016897 -0.066842 0.065125 0.070725 0.008422 0.037157 0.068108 -0.068043 0.072498 0.089734 0.021603 -0.090671 -0.03502 0.074484 0.008358 -0.086995 -0.174054 0.061964 0.027886 -0.053282 -0.029816 0.051856 0.034414 -0.008062 -0.026375 0.019859 -0.009171 0.013422 0.071204 -0.008432 -0.075037 -0.084299 -0.050238 0.05196 -0.001599 -0.030412 -0.03161 0.046631 -0.024916 0.002968 -0.031626 0.040803 -0.016253 0.001456 -0.049495 0.079391 -0.02383 0.048691 0.006227 0.088205 -0.010433 -0.035495 0.045985 -0.036002 0.014778 -0.021523 -0.007383 0.034992 -0.037935 -0.016951 0.142364 -0.078344 -0.025622 0.00081 0.005477 0.02606 0.010281 -0.026635 0.078034 -0.075582 -0.100581 -0.005581 0.058269 0.02805 -0.021289 0.082399 -0.063252 0.007501 0.074232
  0.027871 -0.05081 0.108736 0.045443 0.01504 -0.12849 0.137254 0.086392 0.052305 -0.00283 0.018346 -0.039502 0.033712 -0.037013 -0.013541 0.005108 -0.022138 -0.032987 0.02277 -0.051082 0.030517 0.008668 0.01069 -0.065071 -0.03602 0.011935 0.016833 0.055856 0.033187 0.025283 -0.010923 0.064832 0.058839 0.099652 -0.025336 -0.014982 -0.064662 -0.060979 -0.009975 -0.032655 -0.054314 0.038183 0.048518 0.024532 0.05248 0.038268 0.025338 0.029463 0.021401 0.057045 -0.047999 0.071323 0.105302 -0.037376 0.224131 0.084404 -0.05262 0.011274 0.054253 0.022485 -0.091133 -0.054168 -0.007139 -0.058316 -0.003125 0.029525 0.081937 0.005636 0.025722 -0.063855 -0.030811 0.007818 -0.058168 -0.045981 0.017183 0.018466 -0.045692 0.081942 0.10896 -0.015421 0.010518 -0.017487 -0.008164 -0.049337 0.067944 -0.094351 0.024517 -0.006482 -0.041095 -0.028565 0.002832 -0.069871 0.088006 -0.000511 -0.05336 0.027464 -0.002617 0.043718 0.003485 -0.040532 -0.068175 -0.040309 -0.062821 -0.014118 0.043766 0.000716 -0.033175 -0.025419 -0.021783 0.01458 0.028929 0.002276 -0.115173 -0.054353 0.046152 -0.025963 0.035736 -0.025309 -0.076399 -0.026014 0.036966 -0.069892 -0.014087 0.086067 0.071474 -0.027125 0.010952 -0.072599 0.091596 0.033854 0.000432 0.063746 0.029635 -0.011902 0.117824 -0.062853 -0.089514 0.049713 0.110744 0.028888 -0.034793 -0.057998 -0.060217 -0.005317 0.021403 0.076285 0.015875 0.0324 -0.144413 -0.04665 0.005005 0.022616 -0.079522 0.095198 0.103088 0.005434 -0.009507 -0.008944 -0.014564 0.024737 -0.0702 0.002955 0.071835 -0.037731 0.039579 -0.02779 0.097757 0.080328 0.0773 0.074612 0.070229 -0.036934 -0.009826 0.021406 -0.035487 0.016136 -0.050759 0.011439 0.084683 0.043439 -0.045294 0.062359 -0.03345 -0.0275 -0.046156 0.034719 -0.047455 -0.022626 -0.003079 0.026832 0.067228 0.042735 -0.002281 -0.031599 -0.089047 -0.06247 -0.010042 0.035321 0.04432 0.038399
  0.036194 -0.041825 0.01358 -0.004837 -0.21668 -0.078737 0.080366 0.002011 0.062273 -0.001653 -0.033568 -0.020678 0.022303 -0.019752 0.066165 0.065038 -0.020188 0.013104 -0.014774 -0.032328 -0.009259 0.104212 -0.015269 -0.039565 -0.081743 0.029034 -0.087916 0.048386 -0.032526 0.074869 -0.014879 0.043053 0.077977 0.007593 0.018564 0.013179 0.002698 0.023574 -0.004502 0.020658 -0.007534 -0.018093 -0.144358 -0.007515 0.012824 0.100175 0.005364 0.032766 0.02413 -0.003825 0.106827 0.041486 -0.005252 -0.017109 0.057471 0.00043 -0.031106 -0.003399 -0.010896 -0.062877 0.020189 -0.106419 0.089025 0.030616 0.006952 -0.03422 -0.079888 0.06714 0.057845 -0.030106 -0.07382 -0.019759 0.015132 -0.028421 0.027459 0.005514 0.063183 -0.056036 0.089147 -0.005407 -0.042772 0.033799 0.065467 -0.011908 0.0378 0.016468 -0.019018 -0.047033 0.075802 -0.017277 0.054424 -0.168738 -0.030576 -0.106186 0.069628 -0.00094 -0.021396 0.050555 0.147057 -0.02329 -0.116844 -0.011821 0.022691 -0.025246 0.030416 0.076874 0.028455 -0.070284 -0.035689 0.049534 0.05113 0.031852 -0.053789 -0.013395 0.044611 0.008013 0.020532 0.020293 0.037645 -0.033069 0.066312 -0.045457 0.034562 -0.011404 0.090536 0.046179 0.018553 0.004639 -0.0317 0.019512 -0.032655 0.06833 -0.002345 -0.037113 0.042205 -0.055193 0.010307 -0.011728 0.104353 -0.069714 0.051636 0.054102 0.076393 -0.072249 -0.021589 -0.087466 -0.005195 -0.00554 0.080185 0.022373 -0.078324 0.031608 -0.115892 0.029694 0.062926 -0.135166 0.059941 -0.072015 -0.03594 -0.020175 0.014344 -0.02331 0.010034 0.030114 -0.003249 -0.08977 -0.046131 0.117026 0.005132 0.001702 -0.033462 -0.027474 -0.011937 -0.030204 0.039951 0.012789 -0.024564 0.046942 -0.115471 -0.034798 0.104901 0.051605 -0.036309 0.037958 0.023295 0.07548 -0.058749 0.012242 -0.038959 0.076093 -0.009654 0.055663 -0.019508 -0.139405 0.041168 0.036032 0.058741 -0.02101 0.046015 -0.044011
  0.051754 0.020774 0.053308 0.041158 0.045467 -0.076047 -0.056385 -0.025276 0.000814 -0.003218 -0.016168 -0.006357 -0.025225 0.094881 0.085528 -0.023732 0.002672 -0.004231 0.014648 0.026163 0.023887 0.311115 -0.061078 -0.02054 0.098325 0.060266 -0.138885 0.027906 0.007392 0.071326 0.055625 -0.018665 0.036433 0.102328 -0.000614 0.091714 0.055433 -0.002088 0.043039 0.02974 -0.026919 -0.006401 0.126882 0.069962 -0.044155 0.039039 0.083615 0.004818 -0.019523 0.018265 0.020983 -0.046067 0.022795 -0.016296 0.163377 -0.033146 0.089921 -0.089859 0.006936 0.084313 -0.114642 -0.196296 -0.005648 0.026236 -0.032929 0.012705 0.014438 0.065552 -0.051081 0.00759 -0.014497 -0.028773 0.020994 0.072423 0.023309 0.031485 -0.047342 0.037625 0.057005 0.036611 0.010302 -0.056109 0.02101 0.064586 -0.097555 -0.005012 0.001105 -0.015407 0.022335 0.002172 0.040289 0.1881 -0.025102 -0.048504 0.067623 -0.134969 -0.006725 -0.014605 0.015197 -0.138485 -0.106648 0.04569 0.038 -0.022787 -0.054934 0.033784 -0.066736 0.086235 0.001954 -0.003487 0.001436 0.030988 -0.001147 -0.031166 0.015652 -0.155527 0.066921 -0.020619 -0.042436 0.059188 0.071482 -0.133723 0.009985 -0.017248 -0.026821 0.001716 0.061354 0.006649 -0.056784 0.198139 -0.10045 -0.152377 -0.128655 -0.038588 0.15623 -0.037774 -0.155074 -0.237109 -0.064639 0.008635 -0.024027 -0.136061 -0.024493 -0.017565 -0.026082 -0.026468 -0.02747 0.016477 -0.01074 -0.04824 0.022111 0.060778 -0.028793 0.006258 -0.148945 -0.034551 -0.050848 -0.018412 0.039003 -0.067328 -0.01873 0.035467 -0.097738 -0.010741 -0.006078 -0.048365 0.112151 0.011685 -0.024739 -0.015606 0.028181 -0.015499 0.014119 -0.08948 0.04778 0.010078 -0.048969 -0.052405 -0.054967 -0.018071 -0.061624 -0.093262 0.044129 0.000934 0.054826 0.062432 0.085139 0.026626 0.025472 0.092698 0.07504 0.038928 -0.045006 -0.037124 0.002289 0.059537 0.027737 0.024168 0.069735 -0.038824
  0.114258 -0.140839 -0.088396 -0.301172 -0.020016 0.042742 -0.021374 0.00378 0.008828 0.040879 -0.056836 -0.013158 -0.103523 -0.003251 -0.036976 0.044721 0.062389 -0.012638 0.015138 0.086936 -0.013231 -0.087147 -0.026269 -0.027217 0.06679 -0.026653 -0.022861 -0.056722 0.001757 -0.068318 0.059065 -0.062822 -0.009019 -0.012882 -0.021622 0.070212 -0.008295 0.11168 -0.036981 0.101981 -0.013172 -0.036518 0.007124 -0.016224 0.089379 -0.048966 -0.007229 0.064454 -0.119962 0.077658 0.305653 0.04503 -0.06239 -0.053402 -0.002767 0.06879 -0.069626 -0.019297 0.010075 -0.035637 0.108349 -0.093563 0.11358 -0.022439 0.007858 0.143136 0.047529 0.068145 0.111626 0.01796 0.118592 0.028744 0.120742 0.115933 -0.069088 0.004941 0.067552 -0.000919 -0.041532 0.043983 0.117486 -0.152888 0.076979 -0.030905 -0.028435 0.043993 0.085072 0.046812 -0.03888 0.00258 0.025827 -0.08736 -0.051368 0.100089 -0.002986 -0.056423 0.004688 -0.048795 0.057921 0.004955 -0.005514 -0.04582 0.040679 0.005174 0.095751 -0.061243 -0.058588 -0.063288 -0.01145 0.053341 -0.053585 -0.034633 0.026992 -0.091024 0.056874 -0.026012 -0.037919 -0.011824 0.009928 -0.1123 0.032516 0.03373 0.034399 0.022786 0.019022 -0.039195 0.026528 0.029718 0.142855 0.021991 -0.092747 -0.076708 -0.00994 0.014049 0.034254 -0.005467 -0.068407 -0.038743 0.019581 0.004709 -0.067584 -0.068648 0.001651 0.006523 0.005056 0.004356 0.013885 0.050071 0.043462 -0.049189 0.051777 0.073916 0.046995 0.007191 0.051811 0.02767 -0.030213 -0.03746 0.019253 0.032644 0.061615 0.015704 0.003538 0.002637 -0.009672 -0.095268 -0.040013 -0.003587 0.030426 -0.009456 -0.048564 -0.001681 0.087022 0.01406 0.055661 -0.068599 0.018294 0.012245 0.020047 0.046041 -0.06209 -0.04448 0.011794 -0.057398 0.046364 -0.044585 -0.056055 0.019099 0.015751 -0.151156 0.062718 0.120239 -0.008914 -0.066012 -0.074242 -0.090915 -0.0344 -0.071705 -0.100651 0.124909
  0.088859 -0.051018 0.053653 -0.132938 0.152469 -0.155535 0.099939 0.062309 0.014889 -0.015355 0.099954 -0.029122 0.047474 0.043859 4.7e-05 0.048129 0.07062 -0.0797 0.039223 -0.065421 -0.072851 -0.068935 0.101736 0.083672 0.000768 -0.061897 -0.027927 -0.007004 0.047282 -0.031613 -0.016499 0.053957 0.108873 -0.096975 0.016365 -0.045121 0.07365 -0.115104 0.016619 0.059044 0.014654 0.024455 -0.023067 -0.030972 -0.043471 -0.055828 -0.04517 0.027578 -0.000779 0.078057 0.154112 -0.150825 -0.008969 0.009909 -0.046665 -0.057173 -0.003205 0.027521 -0.113435 0.030329 0.026121 -0.202787 -0.033939 0.007726 -0.059663 0.032067 -0.225045 0.033636 -0.015078 -0.033817 0.172247 -0.001754 0.041353 0.077732 -0.062796 0.089789 0.039814 -0.092663 -0.097975 -0.02084 -0.031949 0.034167 0.000554 -0.013084 -0.154255 0.007452 0.018492 -0.059622 -0.052371 -0.011283 0.005774 -0.069814 0.036464 -0.006925 0.007051 -0.169187 -0.08149 0.001762 0.156304 -0.001644 0.114841 0.105701 0.06977 0.029282 0.00991 0.019104 -0.015718 0.115609 0.063623 0.018667 -0.120152 0.03774 -0.134569 -0.015548 0.140062 0.090762 0.033829 -0.012591 0.043938 -0.073884 0.09481 0.035012 -0.14367 -0.089941 -0.018081 0.016172 -0.108515 0.013412 0.035801 -0.066354 -0.152765 -0.13761 -0.092405 0.054211 -0.24303 -0.022529 -0.09088 -0.069729 0.080222 -0.046768 0.062292 0.058401 0.036048 0.005871 0.010493 0.063181 -0.164474 0.061911 0.024176 0.084836 -0.004109 0.088227 -0.06675 0.04728 -0.171166 0.064254 -0.108199 -0.010871 -0.02189 0.18165 -0.005822 -0.044274 0.036924 0.038848 -0.069027 0.04959 -0.154468 0.004965 0.050954 0.064433 -0.015626 -0.054818 0.074968 -0.0639 -0.130619 0.065319 -0.02596 -0.116297 -0.006942 0.026267 -0.11479 -0.119819 0.030112 0.000442 -0.110321 0.025356 -0.045466 -0.035163 -0.060818 -0.053018 0.041984 0.002832 -0.034202 0.127122 -0.016473 0.032065 0.002846 -0.011542 0.002989 -0.033608
  0.095274 0.035141 0.028709 0.017717 0.081419 0.075798 0.065259 -0.001869 -0.003074 -0.018739 0.026346 0.027143 0.025404 0.037569 -0.116854 -0.029053 0.006695 -0.017176 0.05926 0.058688 -0.088098 -0.058595 -0.10275 -0.042984 0.019367 0.047497 0.013926 -0.009981 -0.043348 0.058926 -0.156038 0.023536 0.063329 0.073742 0.02359 -0.028341 0.048763 -0.014312 0.004135 -0.010491 -0.020541 -0.007325 0.063142 0.021973 -0.055626 -0.094759 0.03674 -0.024056 -0.085243 0.044477 0.200054 -0.168664 -0.040183 0.024069 -0.06195 0.017596 -0.040004 -0.036389 0.025115 0.007188 0.02283 -0.018314 -0.128134 0.096617 0.030412 0.047493 -0.052923 0.031134 -0.003149 0.012156 -0.077763 -0.035445 0.015366 0.033334 0.003337 0.025322 0.064037 -0.033367 -0.000658 -0.015943 0.005658 -0.0019 -0.043247 -0.050864 -0.10241 -0.07319 0.022959 0.019159 -0.048943 0.018751 -0.175134 0.007677 -0.062443 0.03038 -0.079534 -0.093617 -0.087857 0.022085 -0.097535 -0.047725 -0.218952 0.049525 -0.023857 0.008687 0.036859 -0.019046 -0.028438 -0.005877 0.011711 -0.008407 0.006039 0.047456 -0.091669 -0.050292 0.03138 -0.120061 0.128789 0.051875 -0.025551 -0.099025 -0.007481 0.046854 0.029849 0.072619 -0.065215 0.015563 0.096787 -0.178141 -0.022918 0.00034 -0.010761 0.074988 0.03912 0.045682 -0.027007 0.072343 -0.024762 -0.096016 -0.131866 0.066783 0.005594 -0.03477 0.052534 0.040168 -0.020582 0.004547 0.137781 0.105485 0.01415 0.003086 0.030465 -0.030966 0.003292 -0.031515 -0.063552 0.11811 0.008274 -0.01136 0.040208 0.045661 0.021526 -0.012218 0.085634 0.02497 -0.009758 -0.045192 -0.064488 -0.061162 -0.039229 -0.002412 -0.032897 0.044659 0.023797 0.067212 0.098718 -0.002871 0.021782 -0.017792 -0.096067 -0.018773 0.025953 0.005157 0.022818 -0.056992 -0.004244 0.004346 0.016479 0.0293 0.083707 -0.003688 0.004345 0.07808 0.025712 0.081926 0.04639 0.030116 -0.04318 0.017587 -0.065635 -0.089297
  -0.002616 0.024331 -0.020491 0.085184 0.000715 -0.123712 -0.048987 -0.002595 0.027303 -0.013049 -0.006634 -0.016792 0.032557 -0.035262 0.070451 -0.044175 -0.025976 0.000701 -0.05571 0.038962 -0.033298 0.125319 0.058396 0.078921 0.032915 0.010634 -0.018756 0.148904 -0.021413 -0.069217 0.103165 -0.025601 0.000519 -0.065882 0.031085 0.030306 0.06711 0.042279 -0.006145 -0.143521 -0.051898 0.008237 0.08262 0.040514 -0.099105 0.069454 -0.060873 0.003684 -0.008691 0.013883 0.145124 -0.046553 0.022621 -0.028287 0.03872 -0.040156 -0.064147 -0.02094 -0.032087 0.019745 -0.209996 -0.056217 0.027389 0.044921 0.029508 0.090516 -0.118459 -0.010017 -0.001734 -0.064388 0.02586 0.057762 0.041792 0.09129 0.038768 0.043119 -0.063178 0.026825 -0.054195 0.027332 0.035521 -0.055778 0.018338 0.018827 -0.026665 0.061705 -0.02866 -0.04853 0.00305 0.014308 -0.042513 0.081932 -0.021731 0.073041 -0.006754 -0.042563 0.005463 0.063769 0.068491 0.019378 0.081656 0.002967 -0.056949 -0.024262 -0.078787 0.046039 0.086572 0.116135 -0.074908 0.015021 0.142476 0.000662 0.026333 0.027161 0.019563 -0.118122 0.071949 -0.022025 -0.002053 0.034568 0.04042 0.025207 -0.127806 2e-06 0.032848 0.024247 -0.087658 0.021207 -0.094162 -0.005548 -0.233968 -0.064398 -0.079987 -0.069689 0.044683 0.005763 -0.123947 0.017981 -0.014033 -0.090059 0.003894 -0.042337 0.03659 0.000113 -0.010359 0.040811 -0.016918 0.043934 0.05563 -0.032438 -0.017675 0.035793 0.094091 -0.012125 0.051007 0.037779 -0.000993 -0.002557 -0.031552 0.123189 -0.006912 0.071029 -0.011413 -0.004278 0.014136 0.085884 -0.063115 0.12051 -0.02236 -0.036279 0.013576 0.019279 0.055836 -0.07155 -0.034326 -0.00199 0.040483 -0.026399 0.038923 0.032134 -0.042062 -0.044749 0.00291 0.029828 -0.014779 0.038772 -0.036859 -0.005064 0.055459 -0.157764 0.121068 -0.06207 -0.023582 0.177257 0.034722 0.055973 0.128981 -0.014697 -0.001807 -0.073484
  0.017481 -0.042305 0.072109 -0.061439 -0.017032 -0.102145 -0.040957 0.008732 0.027723 -0.052465 -0.028168 0.003582 -0.007339 0.007205 -0.049066 -0.018625 0.019664 -0.02292 -0.025275 0.025474 0.040875 0.087191 -0.08505 -0.008689 -0.02599 0.000604 -0.059379 0.041307 -0.004642 0.134592 0.062168 -0.023922 0.022885 -0.04721 -0.013623 -0.011582 0.108914 -0.15582 0.022159 -0.018473 0.04301 -0.049335 0.025192 0.015511 0.096533 0.0416 0.004041 -0.018113 -0.051826 0.066455 -0.104901 -0.090805 0.114498 -0.007673 0.117578 0.008111 0.08013 -0.033624 0.049166 0.027148 0.062569 -0.183401 0.013228 -0.033466 0.007449 0.036168 0.06825 0.062254 -0.016594 -0.049603 0.008031 0.00869 0.027775 0.058749 0.022184 0.003212 0.031004 0.065192 -0.098115 -0.064838 0.076509 -0.051352 0.099507 0.001567 0.042051 0.085736 -0.001587 0.032435 0.002686 0.043613 0.002736 0.001948 -0.013175 0.01537 -0.026353 0.026046 0.007005 0.063437 -0.020313 -0.052794 0.116562 -0.032327 0.020748 -0.015962 -0.048707 -0.032301 -0.001347 0.131232 -0.000547 0.021781 -0.031121 0.015217 0.025673 -0.002918 -0.036877 -0.090263 0.070589 0.023816 0.018069 -0.134822 0.073464 -0.036649 0.029084 0.005667 0.039733 -0.019853 0.018147 0.118445 0.106432 -0.039809 -0.094422 -0.111309 -0.073101 0.016861 -0.105619 0.038785 -0.11546 -0.093292 -0.003973 -0.087311 -0.010729 0.004656 0.022648 0.005471 -0.001338 -0.084541 0.079752 0.062088 0.006084 -0.069495 0.00128 -0.009132 -0.061434 -0.014607 -0.084365 0.078138 -0.039311 0.025652 0.026649 -0.102425 0.061552 -0.003619 -0.063901 0.001717 -0.061376 -0.022046 0.069736 -0.023512 -0.066531 -0.016966 -0.075949 -0.061612 -0.046237 -0.013985 0.036523 -0.013253 -0.02605 -0.029534 0.092411 -0.0039 -0.03888 0.163522 0.044639 0.018677 -0.000363 0.062068 0.098025 -0.027728 -0.0017 -0.055055 0.094789 0.039704 -0.009649 -0.0428 -0.07714 -0.012912 -0.057062 0.151278 0.05065 -0.002936
  -0.007997 -0.079771 -0.407844 -0.062454 0.062991 0.203228 0.037192 0.039984 -0.033367 0.1291 0.26098 0.04752 0.088405 0.116331 0.046813 0.161422 0.182708 -0.144974 0.246349 0.208417 0.150662 0.53975 -0.274277 0.030847 -0.041873 0.20677 0.018262 0.021425 -0.008979 -0.05926 -0.359123 -0.009358 -0.006184 -0.040037 0.205852 -0.036031 0.221378 0.013249 0.113834 -0.074364 0.165671 0.005023 -0.060293 -0.048576 0.045653 0.024866 -0.051677 -0.055872 0.025542 -0.061381 0.015417 -0.130014 0.507081 -0.247976 0.413681 0.055234 -0.052552 0.081855 -0.018318 0.135821 -0.032995 0.015477 -0.046402 -0.022122 0.182497 0.037004 0.035663 -0.007636 -0.067784 0.114428 0.078948 0.002924 0.024419 0.082746 0.12425 0.203775 -0.079823 -0.410164 -0.038935 0.182 0.284142 0.027599 -0.336627 -0.00648 0.451031 -0.063848 0.194476 -0.003108 0.110166 0.063571 0.104355 -0.056222 -0.026299 -0.056376 -0.014581 -0.0416 0.052986 0.140437 -0.045762 -0.320108 -0.041621 -0.002301 0.129187 -0.204804 -0.016993 0.001749 -0.033711 -0.040677 -0.475827 0.103028 -0.120093 -0.343425 -0.082149 -0.030522 -0.019281 0.224029 0.483572 0.04656 0.017486 0.007915 0.054726 -0.31257 0.033858 0.042244 -0.034528 0.020102 0.283523 -0.058936 0.075275 -0.024391 0.067491 0.028876 -0.045046 0.136863 0.225579 0.034928 0.017277 0.005007 0.043133 0.124375 0.076017 -0.572477 0.015357 0.105955 -0.198316 0.167096 0.008152 -0.009544 0.023816 0.221705 -0.064885 -0.065226 -0.096409 -0.326692 -0.276633 -0.006164 0.401672 -0.335144 -0.155184 -0.053934 0.015975 -0.041434 -0.01016 -0.053243 -0.006449 -0.058179 -0.149148 0.046316 0.04223 -0.011202 0.005794 -0.02294 -0.28438 -0.432163 0.307112 -0.3221 -0.187618 0.009419 -0.024305 -0.321534 0.03603 -0.040062 0.253852 0.016294 0.121041 0.512544 -0.072732 -0.355661 -0.011778 -0.02129 0.15396 -0.011958 0.02499 -0.021779 0.015117 0.12131 0.145194 -0.013852 -0.392896 0.021718
  0.025659 -0.027086 0.044673 0.042626 0.041126 0.023552 0.046938 0.157578 -0.015205 0.006005 0.357883 0.10325 -0.11674 -0.081413 0.236259 -0.026454 0.241469 0.089018 0.12548 -0.039441 0.162837 0.481068 0.185317 -0.006528 -0.076112 -0.079671 -0.031805 -0.018929 -0.028162 0.026129 0.312996 0.011515 9.6e-05 0.065307 0.259644 -0.03414 0.217758 0.041594 -0.273334 0.009845 0.143411 -0.014744 -0.011726 -0.055785 -0.069159 -0.03256 -0.028831 -0.011078 0.01779 -0.063894 0.045662 -0.043456 0.296101 -0.570881 -0.164747 0.182426 -0.106307 -0.018411 -0.000365 -0.104155 -0.036506 -0.02564 0.021507 -0.038781 0.175146 0.018217 -0.087174 -0.002297 0.014349 -0.181589 -0.055621 -0.121685 0.005971 0.048143 0.200012 -0.001222 -0.080657 0.323269 0.046177 0.192386 -0.065746 0.077435 0.20658 0.014701 0.466808 -0.02274 0.181573 -0.038586 0.112719 -0.024807 0.236576 0.004454 0.006673 -0.003606 0.093182 0.092086 0.079482 0.183125 -0.02802 0.154775 -0.027636 0.050607 -0.044985 -0.230196 0.051479 0.10505 -0.051972 -0.016935 -0.05159 -0.159773 0.296591 0.004228 -0.069026 0.090305 -0.014377 0.283909 0.444402 -0.259152 -0.002216 -0.053776 0.029902 -0.076882 -0.021157 -0.270932 0.003156 0.119864 0.349086 -0.019431 -0.03903 0.143206 0.03123 -0.022283 0.062315 -0.019915 -0.203195 -0.024056 0.006524 -0.046815 0.010273 -0.368777 -0.161828 -0.520192 -0.034551 -0.348204 -0.014617 0.19532 0.034709 -0.000257 -0.06801 0.117714 0.167686 0.034808 0.249139 0.052116 -0.232936 0.040494 -0.223979 0.247058 -0.184162 -0.018522 -0.030688 0.011817 -0.020643 0.040129 -0.039329 0.025229 -0.448155 -0.045805 0.05857 0.05965 0.012703 0.00378 0.154794 -0.242704 0.03029 -0.086847 0.041822 -0.024347 0.030796 -3.2e-05 0.067945 -0.016102 0.131237 -0.199291 0.198748 0.32758 -0.091116 0.082308 -0.018248 -0.034833 -0.125826 -0.021812 -0.445969 -0.027699 -0.032938 0.159968 0.262562 0.062002 -0.220002 -0.004581
  -0.064414 -0.053414 0.001648 -0.023394 0.036504 0.16511 0.028311 0.158751 -0.060109 0.168809 -0.142381 0.007269 -0.3651 0.155772 0.351512 0.148075 0.006737 -0.384042 -0.351472 0.176845 0.091844 -0.084194 0.206397 -0.007072 0.002343 0.154604 0.027479 0.007891 -0.007317 -0.037781 0.159672 -0.017227 0.012989 -0.002444 -0.457222 -0.007013 0.22194 -0.016965 0.144645 -0.033415 0.084757 0.010567 -0.001156 -0.0228 -0.061788 -0.039354 0.060248 -0.012532 -0.062354 -0.014712 -0.027404 0.272613 -0.357827 -0.303764 -0.078358 -0.274178 0.094066 0.168118 -0.05362 0.0567 0.002124 -0.059306 -0.035147 -0.000356 0.164701 -0.00778 -0.046499 0.019396 -0.023373 0.040515 0.063412 -0.114192 0.05066 -0.034135 0.049695 0.153113 -0.015166 -0.157112 -0.014478 0.09236 0.037086 0.064892 0.232086 -0.02076 0.41286 -0.018926 0.212588 -0.027748 0.11915 0.077645 0.067937 0.067049 0.036239 -0.04417 -0.14289 -0.007764 0.091566 0.127124 -0.074592 -0.447968 0.019643 -0.025691 0.086505 -0.123558 -0.016283 -0.006894 -0.043849 -0.039665 0.118061 0.12098 0.049307 -0.328805 0.133827 0.052047 0.07183 -0.407715 0.367595 0.049644 0.034333 -0.012186 0.088198 0.017281 -0.019025 -0.025033 -0.004899 -0.007206 0.107045 -0.0171 -0.085913 -0.28607 -0.037225 -0.021312 -0.023972 -0.090084 0.30835 -0.0556 -0.024343 0.022514 -0.073873 -0.116359 -0.074172 0.134618 -0.029158 0.225701 0.100132 0.090979 -0.092782 -0.034549 -0.02649 -0.253486 0.176157 0.009712 0.05777 0.079638 0.278457 0.030756 0.14596 -0.219198 0.053086 0.019226 -0.029238 0.045909 -0.01934 -0.076332 -0.027078 0.000115 0.237847 0.048482 -0.001406 -0.035063 0.018654 0.039831 -0.005496 -0.371203 0.088156 -0.277687 0.165563 -0.013455 -0.024575 0.134238 0.116296 -0.03437 -0.364341 0.14753 -0.186729 0.06515 -0.035973 0.134513 0.013395 -0.005441 0.243816 0.017048 -0.303267 0.005955 0.003187 0.096819 0.086893 -0.000381 0.144443 -0.007968
  0.020103 -0.053217 0.078992 -0.009262 0.091544 -0.001685 0.044282 0.050913 0.045383 -0.098392 0.157104 0.006067 -0.176426 -0.199897 -0.053001 0.031597 0.113005 -0.034741 0.068441 0.156859 0.07838 -0.043134 0.173074 0.046976 0.083096 0.13519 0.166799 0.001006 0.000139 -0.015267 0.055141 0.029341 0.048976 0.046626 -0.241512 0.025312 -0.132605 -0.051912 -0.268457 -0.077598 -0.086826 0.020029 0.052692 -0.014514 -0.088274 0.038792 -0.040692 -0.038097 -0.027234 0.170271 -0.063689 0.130061 0.125196 -0.049627 -0.019254 0.001399 0.212177 0.098989 -0.058548 -0.179276 0.008196 0.018101 -0.029102 -9.7e-05 0.044767 0.096656 0.082719 -0.022527 0.009559 0.061305 0.062016 -0.017702 -0.023285 0.006918 -0.176244 -0.115553 0.089629 0.266463 0.031799 -0.025117 0.305952 -0.07871 0.130658 -0.024876 0.262253 -0.033752 0.070603 0.041908 0.093026 -0.012292 0.158948 0.043359 -0.033875 -0.021618 0.119475 -0.08419 0.061033 0.067453 0.089062 0.131951 -0.069626 0.021286 -0.016646 0.076629 0.073821 0.000861 -0.043458 0.011955 -0.309485 -0.068191 -0.007787 -0.277154 -0.079996 -0.051701 0.072426 0.060216 -0.21236 -0.026809 -0.006222 -0.047537 0.076239 0.140633 -0.064061 0.085967 -0.049143 0.074791 0.136856 -0.03583 0.093137 0.273018 -0.027176 0.053401 0.025627 -0.213731 0.099465 -0.062083 -0.030846 0.006134 0.057972 0.081604 0.154151 0.016361 0.035913 -0.119684 -0.096479 -0.004141 -0.023591 -0.046808 0.029822 0.152557 0.272625 0.021098 0.212442 0.097553 0.143465 0.03217 0.133217 0.145941 0.060912 0.026977 0.01562 -0.035266 0.003134 -0.010072 -0.091942 -0.075273 0.044354 0.032822 0.049393 -0.062589 -0.014905 0.002304 0.087469 0.176078 0.227785 -0.233628 0.035145 -0.05963 -0.059516 -0.006384 0.100389 -0.068101 0.05471 -0.079331 0.111168 0.014453 0.083595 -0.155604 -0.000232 -0.102919 0.041376 -0.003928 0.014822 0.068944 0.066549 -0.329676 -0.127116 -0.070315 0.051742 0.001496
  0.011662 -0.09674 -0.013338 -0.039793 0.020491 -0.120314 -0.05889 0.130936 0.013523 -0.17001 -0.184818 -0.161535 -0.231776 0.143503 0.018845 0.046733 0.244073 0.155227 0.25191 0.072712 -0.389832 0.259093 0.174286 0.026382 0.0489 0.130871 0.126723 -0.004726 -0.014347 -0.09646 -0.013892 -0.002018 -0.046826 -0.010028 0.151386 0.006584 -0.063153 -0.034715 0.113479 -0.067254 0.001215 -0.030102 -0.001745 -0.052534 0.085505 0.061802 0.016175 -0.007089 0.028521 -0.056254 -0.082796 0.30588 -0.068156 -0.109035 0.320182 -0.547852 0.034853 0.112693 0.002859 -0.010453 0.069653 -0.03054 0.007883 -0.019367 0.171844 0.111238 0.057739 0.037269 -0.042119 -0.074882 -0.017879 -0.017948 -0.004529 0.017897 -0.198798 0.061108 0.071892 -0.248603 0.029574 -0.293475 0.319191 -0.043604 0.213387 -0.037317 -0.446454 -0.011843 0.15977 0.017198 -0.152379 -0.023105 0.120082 -0.048686 -0.035293 0.021099 0.145846 -0.108305 -0.007873 0.179334 -0.001702 0.0879 -0.080203 -0.086425 0.089598 0.114451 0.054771 0.002514 -0.009121 -0.135444 -0.06601 0.078416 0.04293 0.013326 -0.109416 0.110117 0.044547 0.252499 -0.004432 0.049188 -0.032345 0.045981 0.059626 0.109086 0.04252 -0.045525 -0.025357 -0.000958 0.176557 -0.015314 0.036736 0.254677 0.052622 -0.007322 -0.006695 0.103837 -0.021081 -0.026237 0.038373 -0.02899 0.017146 -0.173565 0.10703 0.206145 -0.043507 0.027881 0.045734 0.056332 -0.037084 0.012643 -0.015 0.201102 0.068828 -0.030537 -0.028676 0.120552 0.024573 -0.034293 -0.446976 0.059569 -0.094769 -0.018479 -0.015408 -0.040016 0.035832 -0.023517 -0.080065 -0.033018 -0.281733 -0.043674 0.023053 0.018822 -0.059634 -0.076762 0.029772 -0.211196 0.13519 -0.082331 0.130835 0.003703 -0.063065 -0.237527 0.13488 -0.037647 0.107815 0.169174 -0.084643 -0.1619 0.030431 -0.127319 -0.000188 -0.149799 0.106536 -0.010163 -0.004354 0.021945 -0.028924 0.014456 -0.084206 0.016863 -0.0342 0.086051
  -0.005748 -0.008491 -0.251989 0.027168 0.053449 -0.002558 0.06482 0.038373 4.5e-05 0.13799 0.043279 -0.34781 0.115032 -0.09671 -0.211277 -0.273041 0.23387 0.136465 0.204082 0.233742 -0.303749 -0.186376 0.125532 -0.030436 -0.011116 0.210857 0.03275 -0.014697 0.031141 -0.001849 -0.005557 -0.026397 0.018039 0.00905 -0.118628 0.025919 0.17764 0.007517 0.152511 0.048353 0.075028 -0.047371 -0.027926 -0.06305 -0.060088 -0.049877 0.002826 -0.037199 0.031094 0.046916 -0.012006 -0.04749 -0.206352 -0.263172 0.109409 0.314548 0.058361 0.150494 0.003171 0.031917 0.013188 -0.074648 -0.030529 -0.012523 0.172568 0.054058 0.014124 -0.022615 -0.058527 -0.004199 -0.002909 -0.05463 -0.010747 0.008028 0.007796 0.195889 0.052097 -0.187153 0.008989 0.097386 -0.058345 -0.016782 -0.389917 -0.001737 -0.338255 -0.006351 -0.188736 -0.025059 0.096089 -0.149526 -0.406929 -0.035573 -0.042118 0.005038 0.110876 0.027394 -0.161162 0.132474 -0.069659 0.098333 -0.053735 -0.015186 -0.18773 0.115302 0.010958 0.029585 -0.086126 -0.102742 0.06367 -0.109302 0.102065 0.13179 0.046098 -0.297127 0.037071 -0.48626 0.35451 -0.12231 -0.033715 -0.048105 0.028199 0.189258 0.016659 0.117581 -0.002261 0.064103 -0.157748 0.013833 -0.018562 0.336179 -0.047364 0.019528 -0.062489 0.0272 0.364342 -0.004799 0.014522 -0.029922 0.052383 0.208964 0.109431 -0.204768 -0.033588 0.19397 0.092266 0.124812 0.010376 -0.07076 -0.008107 -0.420885 0.16053 0.014637 -0.246446 0.118247 0.257374 -0.070689 0.164003 0.263037 0.010665 -0.047008 0.027064 0.022065 0.026241 0.013577 -0.068949 -0.053109 0.234873 -0.007485 -0.029314 0.028138 0.034086 -0.015325 -0.002084 -0.046861 0.352863 -0.318889 -0.045412 -0.041832 -0.003497 0.113789 -0.040799 -0.044241 -0.11821 0.029695 0.186287 0.11948 0.034425 0.140198 0.030946 0.041672 0.158411 -0.01005 -0.001387 -0.03225 -0.06243 0.122424 0.065578 0.040778 -0.051153 0.067109
  0.08535 -0.01023 0.039206 -0.111867 -0.087425 0.025374 0.011928 -0.013096 0.045061 0.014327 0.006648 0.01016 0.014743 -0.051856 0.089273 -0.034157 0.027126 0.004652 -8e-04 -0.006682 -0.001364 -0.007593 0.038214 0.062656 0.045034 -0.026152 -0.088501 -0.106878 0.013727 0.074624 -0.062665 -0.022856 -0.003707 0.014518 -0.044985 0.020154 -0.039868 -0.105698 -0.000407 0.037393 0.0574 0.033994 -0.020742 0.009819 0.112122 -0.034468 0.013189 0.005296 0.025451 -0.047552 0.087402 0.058094 -0.030146 -0.012052 -0.049271 0.020468 -0.052525 0.056086 -0.076083 -0.036842 -0.033137 -0.018717 -0.05227 0.041904 0.049086 0.031451 0.097008 0.067709 -0.023664 0.02368 0.043787 0.008707 -0.096101 0.089289 -0.000841 0.005468 0.006785 0.065838 0.005543 0.021706 -0.111259 -0.014338 -0.001689 -0.085008 0.026578 0.048174 -0.004716 0.043766 0.066207 -0.004216 0.017691 0.073085 0.055465 0.012515 -0.048097 0.006158 0.007364 -0.043426 -0.141122 -0.020691 -0.066399 0.019962 -0.033567 0.0216 0.093958 0.035915 0.122825 -0.064711 0.016035 -0.012953 -0.041004 -0.032156 0.038214 0.007102 -0.006393 -0.007254 -0.022217 -0.005153 0.023371 -0.005256 0.03601 -0.015281 -0.117719 -0.026798 0.005987 0.008759 -0.067863 0.010004 0.005915 -0.015068 0.008568 0.122139 0.164204 0.026189 0.061884 0.010393 0.132934 -0.008132 0.042231 0.003627 0.001266 -0.051856 0.031798 -0.034026 -0.027591 -0.063099 0.118219 0.00908 -0.060093 -0.012377 0.004513 -0.049756 0.124711 0.121458 0.01387 -0.129328 0.014501 0.032469 -0.006382 -0.012249 -0.062944 0.07315 -0.043551 0.046334 -0.025961 0.018924 0.025502 0.024981 0.060005 -0.035117 0.063642 -0.06355 -0.012064 -0.043283 -0.048797 -0.00515 0.031465 -0.020677 0.001303 0.045994 0.058946 -0.044699 -0.050257 0.027856 0.027144 -0.104233 -0.125007 0.002835 -0.058048 -0.020371 -0.101058 0.002529 0.042247 0.040454 0.071986 -0.031024 -0.043546 0.009999 -0.002421 0.026894
  0.023659 0.018354 -0.061346 0.065686 -0.006874 0.084401 0.008024 -0.056388 0.038152 0.000888 -0.022895 -0.042988 0.008722 -0.013537 -0.161759 -0.013762 -0.046882 0.024706 -0.038583 -0.024481 0.022071 -0.026518 -0.035448 -0.031385 0.013249 0.016795 0.009156 -0.045362 -0.015513 0.013889 -0.011196 -0.022456 0.058232 0.013614 0.015671 -0.030478 -0.031121 0.047806 -0.013535 -0.031647 -0.013559 0.012435 -0.065952 -0.01966 0.018588 0.100666 -0.045848 -0.064033 0.031777 -0.054665 -0.191844 -0.151587 -0.117227 -0.021784 -0.076408 -0.012233 -0.031 0.023904 -0.066269 0.001996 -0.135302 0.103926 -0.053874 -0.018675 -0.00501 -0.00498 -0.120476 0.075987 -0.10143 -0.008241 0.056574 0.032837 0.043364 0.061035 0.014569 -0.025869 0.007435 -0.002884 -0.15414 0.018623 -0.00789 -0.048343 -0.023239 0.049062 -0.017775 0.048236 -0.01619 0.033442 -0.006605 0.043615 0.062105 -0.067815 0.028965 0.020601 -0.096679 0.021573 0.041529 0.070543 0.031611 0.027369 -0.007935 0.030058 0.061769 -0.027097 0.066195 0.054897 0.080864 -0.093512 -0.038234 -0.008329 -0.076081 0.024513 0.032231 0.035372 -0.020577 0.010224 -0.01698 0.018776 0.007625 0.03502 0.06075 -0.011005 0.027022 0.060883 0.037515 0.023061 0.08034 0.090437 0.0357 0.122985 0.006959 -0.001243 -0.102692 0.004965 -0.001245 -0.019007 0.066309 0.012982 -0.038209 0.025905 0.002938 0.008259 0.023918 -0.016159 0.016296 -0.015121 0.030579 -0.015714 -0.00861 0.01793 0.037803 0.01481 0.052026 0.0466 -0.064336 0.033424 -0.037988 0.073901 0.025655 0.080676 0.022844 0.021726 0.011732 -0.027166 -0.007101 0.019684 0.03048 0.030389 0.026334 0.011404 -0.001805 -0.018917 0.063485 -0.017873 0.026568 -0.045501 -0.02583 0.049885 -0.029047 0.027288 0.008324 -0.006834 -0.002498 0.023956 -0.016115 -0.021534 -0.039016 -0.00452 0.057534 0.05295 -0.06906 -0.077944 -0.013918 -0.029034 0.073266 0.035631 -0.070393 0.085479 -0.039326 0.038145
  -0.016043 -0.042299 -0.061833 -0.14142 -0.092664 -0.046358 0.114992 -0.001352 0.046494 0.017469 -0.016904 -0.026223 0.005934 0.035396 0.02478 -0.038831 -0.092684 -0.039902 -0.057936 0.000285 0.011489 0.014489 0.035156 -0.082432 -0.02722 0.034102 -0.059631 0.156562 0.00956 0.023373 -0.067576 -0.011511 0.029152 0.030457 0.000897 0.001514 -0.002794 0.058427 -0.025439 0.019638 0.027526 0.065111 0.005452 -0.036082 -0.097055 0.060093 0.019723 0.06117 -0.007589 -0.058138 -0.114836 -0.089801 -0.097345 0.038961 -0.097567 -0.00477 0.044876 -0.005034 -0.016947 0.080739 -0.039158 -0.005636 -0.015224 0.012693 -0.047347 -0.081545 0.119375 0.064886 0.005586 -0.018691 0.036001 0.001979 0.012499 0.084643 -0.024721 -0.044251 -0.061623 0.045574 0.007868 -0.070781 -0.066418 -0.077039 -0.057756 -0.004357 -0.075478 -0.025972 0.06707 0.004883 0.010337 0.014926 0.145639 -0.075 0.001974 0.001582 -0.025498 -0.038741 0.001973 0.023145 -0.025542 0.007352 0.008974 0.048555 0.018845 0.004901 -0.013265 0.0095 -0.141665 0.026134 -0.044807 -0.025283 -0.0072 -0.006431 -0.149972 0.027253 0.046683 -0.0081 0.001204 -0.041925 0.000625 -0.049016 0.047609 0.0415 0.037412 -0.010062 -0.069139 0.020122 -0.100143 0.022952 0.019025 -0.085951 0.102883 0.097693 0.023916 -0.023119 0.054222 -0.088446 0.015378 -0.003126 -0.040498 -0.002829 -0.019973 0.002359 -0.121825 0.012592 -0.00144 0.020742 0.00997 0.05012 0.054115 0.072193 0.041888 0.035795 -0.013169 0.008435 0.056066 0.043529 -0.047333 0.088323 -0.032618 0.054447 0.052574 0.025891 0.029221 0.001418 -0.074843 -0.103654 -0.015152 0.033721 -0.0071 0.036882 0.016427 0.016392 0.016324 -0.008495 -0.092731 0.025595 -0.049508 0.09841 0.006284 0.01808 -0.109206 -0.114173 -0.015929 0.016529 0.026409 -0.074903 0.03308 0.006358 -0.051204 -0.065436 -0.017248 -0.067952 0.025077 -0.237638 0.030672 -0.025426 0.009513 -0.000171 0.002291 -0.009536
  -0.017842 -0.089754 0.026017 0.038988 -0.070667 0.023597 0.106897 0.019069 -0.031287 0.01794 0.030178 -0.027679 0.020733 0.012864 -0.048849 0.017673 -0.000575 0.020673 -0.047555 0.028296 0.021234 -0.043817 -0.021105 -0.002199 0.00777 0.026296 0.047692 0.165631 -0.005663 0.009014 0.040764 -0.019469 0.019461 0.076459 -0.036348 0.024427 -0.082196 -0.033995 0.015188 -0.011856 0.054396 -0.05673 0.094924 0.035125 -0.089167 0.006873 0.008781 0.043293 -0.003445 0.07761 -0.077869 0.04724 -0.020635 0.040959 -0.11276 0.020316 0.078882 0.047345 0.086615 0.015491 0.052349 0.130553 0.009625 0.012758 0.013975 0.083464 -0.000826 -0.061748 0.053791 -0.019719 0.001162 -0.010073 0.017944 -0.074064 0.018329 -0.029229 0.007193 0.036888 -0.028178 -0.006419 -0.112289 0.039649 -0.033142 0.00303 -0.024954 0.011951 0.017778 0.016275 -0.008981 0.000955 0.005916 -0.109326 -0.073609 0.022343 -0.009816 0.105398 0.032014 0.03654 0.055778 -0.000921 0.076355 0.038385 -0.00537 0.032174 0.045063 0.052563 0.004681 0.04819 0.042449 -0.009825 0.043872 -0.018195 0.044075 0.013316 0.026691 -0.040352 -0.068218 0.014606 0.033821 -0.028499 -0.052948 -0.055269 0.114045 -0.034805 0.07112 -0.008482 0.042034 -0.001382 0.066512 0.046014 0.036663 0.055671 0.032887 0.023971 -0.050716 0.02679 -0.092587 0.116726 -0.082941 0.024878 0.007927 -0.003331 -0.030076 -0.024758 -0.02241 -0.047234 -0.059863 0.090287 -0.044841 0.033235 0.025192 0.000971 0.090361 0.010414 0.083385 0.027316 -0.050155 -0.004754 -0.008142 0.04731 0.041666 -0.050056 0.004753 -0.048283 0.045146 -0.110277 0.003284 0.051573 -0.016167 -0.044081 0.018581 0.091599 0.058012 -0.019715 -0.035588 0.031956 0.048502 0.005375 -0.069458 0.026213 0.046891 0.042743 0.063996 -0.020298 0.049017 0.119489 -0.036781 0.012886 0.068873 -0.066233 0.080494 -0.036613 0.031319 -0.137977 -0.023232 -0.026325 0.046166 -0.003132 -0.096165 -0.036377
  -0.000399 0.045762 -0.030283 0.06086 0.088036 0.045403 0.043072 0.023732 -0.023063 -0.049446 0.07086 -0.024945 0.024921 -0.043525 0.042864 0.043465 0.041057 -0.011497 0.041258 -0.093143 0.02332 0.016821 0.073684 0.049904 0.035165 -0.052842 -0.013481 -0.018844 -0.002908 0.028488 -0.029377 0.032572 0.059105 -0.012831 -0.078501 -0.03636 -0.077859 -0.073006 0.085629 -0.000914 -0.050192 -0.006259 0.154369 0.048751 -0.139551 -0.012502 0.008185 0.002017 0.035601 -0.054245 0.049754 -0.020424 -0.030421 0.005576 -0.007653 0.036079 0.034583 0.037857 0.024566 0.015756 0.004196 0.090685 0.029415 0.054195 0.029015 0.012245 -0.011178 0.044291 0.022098 -0.007925 -0.112582 -0.01055 0.05655 -0.065355 0.002009 -0.059569 0.02079 -0.010429 0.009181 -0.099895 -0.104539 0.093719 0.003247 -0.017065 0.033384 -0.009858 0.033615 0.042683 0.070931 0.025016 0.085068 0.055374 0.028029 -0.009392 0.022919 0.113409 0.048148 -0.024196 0.029125 -0.000537 -0.204982 -0.008609 -0.043807 0.015928 -0.006787 0.04983 0.074349 -0.07162 -0.02358 -0.026402 0.002729 -0.075505 0.005396 -0.039673 0.054556 0.028996 -0.025477 0.031375 0.053883 -0.049906 -0.113158 0.00191 0.01659 0.002509 0.04728 0.01991 -0.069514 -0.030177 -0.123426 0.005099 0.002315 -0.080568 0.112788 0.054363 0.085458 -0.005697 0.040749 -0.118199 0.06851 -6.4e-05 0.04762 0.045048 0.02602 -0.043164 -0.000118 -0.014755 -0.023408 0.03301 -0.053796 -0.100013 0.015464 0.10748 0.034173 -0.007827 -0.021533 -0.04159 0.019225 0.094599 -0.065469 0.002044 0.033805 -0.002678 0.020889 -0.058759 -0.084905 -0.066082 0.079468 -0.037514 0.069933 0.089943 -0.017632 0.011671 -0.07514 -0.063691 -0.073604 0.003661 0.00333 -0.078628 -0.087646 0.018623 0.049617 -0.036462 0.026654 0.026234 -0.00224 0.002015 0.080085 0.01062 -0.135323 -0.08331 -0.058648 0.034322 0.042707 0.004427 0.021615 -0.055305 0.023236 0.023829 -0.061484 0.082979
  0.098898 -0.156265 -0.114424 -0.068404 0.111923 0.110361 0.021573 -0.110788 -0.023236 -0.014858 0.044314 -0.010104 -0.043603 -0.045665 -0.096348 0.056297 -0.031031 -0.030714 0.011691 0.003424 0.054301 -0.090735 0.060512 0.027214 -0.035532 -0.047985 0.034635 -0.161292 0.033643 -0.083768 0.051281 0.034815 0.048831 -0.117395 -0.01473 -0.009602 -0.06172 -0.137196 0.04484 -0.02515 0.044373 0.053843 -0.099683 0.06339 -0.053481 0.106869 -0.055114 0.03102 -0.018282 -0.008768 0.107935 -0.167124 -0.026489 -0.002537 -0.041179 0.012612 -0.081165 -0.029989 0.041706 -0.04235 -0.022851 0.151204 -0.034462 0.008384 0.009752 0.005995 -0.219377 0.074276 0.080145 0.039067 0.00109 0.038727 -0.002933 -0.060462 0.007588 -0.008007 -0.001441 0.013787 0.110965 -0.024617 -0.145834 0.065305 -0.059424 0.011694 -0.246394 -0.04369 0.051401 -0.020326 0.048241 0.105569 -0.064844 0.079044 -0.014879 -0.171793 0.07202 0.071668 0.012253 0.003503 0.066035 -0.087253 0.02873 -0.035488 0.03551 0.022734 -0.002563 0.053796 -0.032331 0.084755 0.016487 -0.005465 0.027081 -0.001533 -0.060636 -0.104954 0.060185 0.068389 -0.16517 -0.036042 0.057851 0.107367 -0.065936 0.031029 -0.205912 0.016327 -0.041598 0.052137 -0.09829 -0.020237 0.027711 -0.043054 0.017069 -0.004204 -0.004633 -0.048032 0.130993 -0.028457 -0.009926 0.096469 0.059532 0.027086 0.055653 -0.101196 0.03549 -0.033774 -0.045304 -0.007806 -0.015784 0.079405 0.051269 0.166871 -0.022343 -0.077597 -0.056069 0.022488 0.122362 -0.000323 -0.214926 0.12379 0.010654 -0.094023 0.014148 0.032697 0.014927 0.009382 -0.003249 0.13009 -0.017283 -0.010212 0.110061 0.062028 -0.003211 0.046088 -0.109521 -0.046397 0.066495 0.002636 -0.065724 0.048043 0.131096 0.037659 0.016191 0.028226 -0.056322 0.031442 0.008514 0.138804 0.042749 0.053868 -0.199652 -0.103642 -0.158514 -0.082332 0.045954 -0.060588 0.054778 -0.028527 0.053438 -0.067224 -0.023326 -0.011909
  0.041041 0.109385 -0.081189 -0.047345 0.004422 0.021684 -0.204282 -0.027466 -0.033852 -0.01464 -0.055722 0.008416 -0.00951 -0.049579 -0.012299 0.045182 0.002185 -0.015953 0.034477 -0.091229 -0.011109 -0.050853 -0.037891 -0.092165 -0.0989 0.009633 -0.116483 0.112302 0.001811 -0.010802 -0.050853 0.019005 0.047462 0.023845 -0.095149 0.08656 -0.034458 -0.013241 0.05342 0.141419 -0.006081 0.15747 0.104349 0.075518 0.060733 0.16773 0.093667 -0.078404 0.092363 -0.04197 0.117315 0.006684 -0.114002 -0.012688 -0.063238 -0.06629 0.02417 0.016992 0.142795 -0.031941 0.070733 -0.24846 0.079229 0.125047 -0.059003 0.042467 0.058312 -0.045764 -0.1129 -0.022405 -0.085039 -0.069818 0.026199 -0.233814 -0.052895 -0.086738 0.017326 0.005838 -0.013821 0.051044 -0.070727 -0.137986 0.033607 0.147543 -0.008929 -0.044412 -0.025405 0.060388 0.01042 -0.028067 -0.044861 -0.103049 -0.10342 0.005716 0.039003 -0.19678 -0.016389 -0.009254 0.145295 0.05019 0.080636 0.150874 -0.146159 0.025582 -0.004339 -0.137679 -0.106227 0.020138 -0.053155 0.033499 -0.000199 7e-06 -0.037258 0.017942 -0.294501 0.082364 -0.040726 -0.015343 0.071838 0.127518 0.112261 0.045624 0.10859 -0.051725 0.078554 -0.0101 -0.103248 0.08999 0.04353 0.065903 0.143767 -0.06924 -0.121486 -0.007303 0.028187 0.100114 -0.208933 -0.151357 -0.106269 -0.018677 -0.068136 -0.01448 0.082766 -0.027908 -0.041855 -0.015873 0.020163 -0.034334 0.068978 -0.119495 -0.127026 -0.036925 -0.087785 -0.001706 0.029334 -0.089649 -0.013778 0.005714 -0.076527 0.055426 0.101107 -0.112968 0.073019 0.123956 0.149 -0.235509 0.038404 -0.064776 -0.005231 0.051149 -0.052898 0.00474 -0.129749 0.027904 -0.086334 -0.003124 -0.025275 0.002009 0.12951 -0.023124 0.020207 0.135241 -0.090496 -0.01682 0.006457 -0.060266 0.090711 0.038997 0.115559 0.173499 -0.037054 -0.118088 -0.044585 0.153577 -0.089187 -0.048317 0.00441 0.051393 0.016631 -0.018585
  0.046404 0.091763 -0.044732 0.146079 0.03693 -0.075694 -0.059457 -0.006064 0.058051 -0.021008 -0.099689 -0.005261 0.024294 -0.030069 0.074962 0.017698 0.020697 -0.000853 -0.03482 -0.048191 0.013924 -0.037472 0.01943 -0.026469 -0.00509 -0.041068 -0.051248 -0.038428 0.047744 0.089873 -0.101561 0.04328 0.029515 0.008324 -0.057713 0.115576 -0.012387 0.099688 0.058221 -0.087627 0.00713 0.107064 0.148611 0.064517 0.050556 -0.180607 0.010227 0.054545 -0.017405 0.016713 0.15938 -0.004125 -0.099628 0.016787 -0.095209 -0.061392 -0.019411 -0.008049 0.041838 -0.031444 -0.110836 -0.038999 -0.011734 -0.029573 -0.023708 -0.060273 -0.09095 -0.121241 0.024752 -0.038715 0.072146 0.027964 -0.121282 -0.007777 0.014979 -0.015368 -0.006272 -0.017859 0.054564 0.009112 0.040005 -0.09873 0.04679 0.017349 -0.024523 0.027764 -0.041089 -0.135124 0.014225 -0.026411 0.011802 0.013305 -0.029391 0.036164 -0.072234 -0.021464 0.039861 0.019113 -0.093813 0.015185 0.189039 0.13157 -0.104503 -0.003175 0.064007 -0.073239 0.000393 -0.027183 -0.065433 0.023737 -0.040861 -0.035863 -0.045697 -0.007153 0.015164 -0.010953 -0.158886 0.027787 -0.032257 -0.00333 0.176635 -0.020565 0.026559 0.055362 -0.002048 0.000759 -0.021842 -0.006946 0.066416 0.016423 -0.124122 0.042023 -0.052131 -0.007577 -0.048773 0.039146 0.091479 0.209251 0.081535 -0.008481 -0.02251 0.052215 0.029335 0.000581 0.007485 -0.020839 -0.021828 0.006158 0.142517 -0.082306 -0.107875 0.110418 -0.044077 -0.035785 -0.010379 0.074921 0.093576 -0.050245 0.002101 0.118979 -0.071228 0.021479 0.067368 0.075327 0.088664 0.173596 0.049682 -0.137948 -0.018515 0.007546 0.032529 0.038699 -0.056356 -0.023004 0.004674 -0.020093 0.004068 0.049836 0.098792 -0.024222 0.025053 -0.040015 -0.042212 -0.001636 -0.025813 -0.046191 -0.102638 -0.038069 0.046895 0.074591 -0.105776 0.178083 -0.005848 0.031678 -0.044409 -0.010092 0.011973 0.004368 -0.064953 -0.15423
