PWM_range 0 100
pepL_range 12 21
P1_range -6 6
log_min 1e-04

nn_in_var 270 P1_-1 P1_-2 P1_-3 P1_-4 P1_-5 P1_-6 P1_0 P1_1 P1_2 P1_3 P1_4 P1_5 P1_6 PWM_log AA_-_1 AA_-_10 AA_-_11 AA_-_12 AA_-_2 AA_-_3 AA_A_1 AA_A_10 AA_A_11 AA_A_12 AA_A_2 AA_A_3 AA_A_4 AA_A_5 AA_A_6 AA_A_7 AA_A_8 AA_A_9 AA_C_1 AA_C_10 AA_C_11 AA_C_12 AA_C_2 AA_C_3 AA_C_4 AA_C_5 AA_C_6 AA_C_7 AA_C_8 AA_C_9 AA_D_1 AA_D_10 AA_D_11 AA_D_12 AA_D_2 AA_D_3 AA_D_4 AA_D_5 AA_D_6 AA_D_7 AA_D_8 AA_D_9 AA_E_1 AA_E_10 AA_E_11 AA_E_12 AA_E_2 AA_E_3 AA_E_4 AA_E_5 AA_E_6 AA_E_7 AA_E_8 AA_E_9 AA_F_1 AA_F_10 AA_F_11 AA_F_12 AA_F_2 AA_F_3 AA_F_4 AA_F_5 AA_F_6 AA_F_7 AA_F_8 AA_F_9 AA_G_1 AA_G_10 AA_G_11 AA_G_12 AA_G_2 AA_G_3 AA_G_4 AA_G_5 AA_G_6 AA_G_7 AA_G_8 AA_G_9 AA_H_1 AA_H_10 AA_H_11 AA_H_12 AA_H_2 AA_H_3 AA_H_4 AA_H_5 AA_H_6 AA_H_7 AA_H_8 AA_H_9 AA_I_1 AA_I_10 AA_I_11 AA_I_12 AA_I_2 AA_I_3 AA_I_4 AA_I_5 AA_I_6 AA_I_7 AA_I_8 AA_I_9 AA_K_1 AA_K_10 AA_K_11 AA_K_12 AA_K_2 AA_K_3 AA_K_4 AA_K_5 AA_K_6 AA_K_7 AA_K_8 AA_K_9 AA_L_1 AA_L_10 AA_L_11 AA_L_12 AA_L_2 AA_L_3 AA_L_4 AA_L_5 AA_L_6 AA_L_7 AA_L_8 AA_L_9 AA_M_1 AA_M_10 AA_M_11 AA_M_12 AA_M_2 AA_M_3 AA_M_4 AA_M_5 AA_M_6 AA_M_7 AA_M_8 AA_M_9 AA_N_1 AA_N_10 AA_N_11 AA_N_12 AA_N_2 AA_N_3 AA_N_4 AA_N_5 AA_N_6 AA_N_7 AA_N_8 AA_N_9 AA_P_1 AA_P_10 AA_P_11 AA_P_12 AA_P_2 AA_P_3 AA_P_4 AA_P_5 AA_P_6 AA_P_7 AA_P_8 AA_P_9 AA_Q_1 AA_Q_10 AA_Q_11 AA_Q_12 AA_Q_2 AA_Q_3 AA_Q_4 AA_Q_5 AA_Q_6 AA_Q_7 AA_Q_8 AA_Q_9 AA_R_1 AA_R_10 AA_R_11 AA_R_12 AA_R_2 AA_R_3 AA_R_4 AA_R_5 AA_R_6 AA_R_7 AA_R_8 AA_R_9 AA_S_1 AA_S_10 AA_S_11 AA_S_12 AA_S_2 AA_S_3 AA_S_4 AA_S_5 AA_S_6 AA_S_7 AA_S_8 AA_S_9 AA_T_1 AA_T_10 AA_T_11 AA_T_12 AA_T_2 AA_T_3 AA_T_4 AA_T_5 AA_T_6 AA_T_7 AA_T_8 AA_T_9 AA_V_1 AA_V_10 AA_V_11 AA_V_12 AA_V_2 AA_V_3 AA_V_4 AA_V_5 AA_V_6 AA_V_7 AA_V_8 AA_V_9 AA_W_1 AA_W_10 AA_W_11 AA_W_12 AA_W_2 AA_W_3 AA_W_4 AA_W_5 AA_W_6 AA_W_7 AA_W_8 AA_W_9 AA_Y_1 AA_Y_10 AA_Y_11 AA_Y_12 AA_Y_2 AA_Y_3 AA_Y_4 AA_Y_5 AA_Y_6 AA_Y_7 AA_Y_8 AA_Y_9 pepL_12 pepL_13 pepL_14 pepL_15 pepL_16 pepL_17 pepL_18 pepL_19 pepL_20 pepL_21


N_layers 2

 nnetsWeights  270   200
  -0.183561 -0.121489 0.037445 -0.000673 -0.012704 0.111757 0.171144 0.229964 -0.055844 -0.017113 -0.005939 -0.039126 -0.162537 -0.019604 -0.077478 0.064385 -0.005906 0.024217 0.062343 0.040984 0.109433 0.135332 0.033748 0.099168 -0.055752 -0.175843 0.141629 -0.041604 -0.001043 -0.042971 -0.059881 0.034051 -0.052242 -0.034521 0.167873 -0.075911 -0.005407 0.149003 0.033137 0.015686 -0.155399 -0.004735 -0.097168 0.044049 0.04662 0.030526 0.088943 -0.020893 -0.178945 0.03771 -0.103164 -0.083616 0.013771 -0.129477 -0.104098 -0.084942 -0.022937 0.018886 0.090856 0.090701 0.034331 0.128178 -0.222721 -0.079174 0.026072 -0.051406 0.086653 -0.022045 0.016476 0.062561 0.213304 -0.284544 0.076616 0.115778 0.006521 -0.055008 0.081852 -0.204558 0.024964 0.068549 -0.074142 0.029055 -0.147073 0.071121 0.007835 0.132245 0.05205 -0.145912 0.072158 0.034865 0.065315 0.066851 0.007913 0.039659 -0.054932 0.017718 0.001219 0.065673 -0.098203 0.135672 0.07313 -0.034886 0.03092 0.022716 -0.057657 -0.065168 -0.097037 0.111907 -0.003642 0.001594 -0.21148 0.108066 0.12311 0.044053 -0.013687 -0.072575 0.119839 0.011238 0.036189 0.079653 0.079547 0.034793 0.02724 0.091618 -0.205447 0.00678 0.084935 -0.139785 0.063076 0.056975 0.07611 -0.03828 -0.035991 0.046344 -0.007283 -0.097584 -0.042689 0.014246 -0.147413 0.048888 -0.196335 -0.147399 -0.100091 0.03926 -0.029672 0.049898 -0.260673 0.041329 0.011939 0.003933 -0.085071 0.0438 -0.110332 -0.215015 -0.133364 -0.163085 -0.089836 -0.207502 0.042037 0.062424 0.096182 0.025935 -0.078522 0.04497 -0.180526 -0.019657 -0.020978 -0.068341 -0.183803 -0.105284 -0.00182 0.064404 -0.00381 0.035463 -0.050384 0.010959 -0.141507 0.159003 0.158626 -0.031167 0.099922 -0.096408 -0.137841 -0.008012 0.055893 -0.021483 0.082667 -0.020634 -0.053665 0.132563 0.192344 -0.094746 0.061103 -0.127417 -0.039144 0.137989 0.008475 0.026193 -0.027337 0.05506
  -0.044956 -0.164921 -0.035032 -0.156986 -0.050192 0.054518 0.082732 -0.096569 -0.052253 0.050023 0.066429 0.130215 0.029262 -0.00076 -0.095967 0.099262 0.057056 0.022063 0.183327 0.054006 -0.009289 -0.034911 -0.070826 -0.125401 -0.100686 -0.140363 0.045562 -0.013537 0.101521 0.018611 -0.101944 0.151954 -0.071164 -0.069151 -0.132156 0.029709 -0.05726 0.079121 0.13464 0.03978 -0.030835 -0.019461 -0.014924 -0.096905 0.054041 0.018535 -0.296912 0.02426 -0.064429 -0.086736 -0.1638 0.0632 -0.078326 -0.205325 -0.212726 -0.016239 0.057533 0.047572 0.098899 0.047415 -0.091842 0.112992 -0.292267 0.11106 -0.094222 -0.108689 -0.142406 0.076892 0.085932 0.040395 0.045762 -0.10564 -0.078507 0.054669 -0.024351 -0.039252 -0.020187 -0.043189 -0.108519 -0.181555 -0.170794 0.021919 0.00843 -0.050974 -0.172581 0.12937 0.051123 -0.08073 -0.194031 0.007532 0.148673 0.012412 0.126195 0.073442 -0.075094 -0.004545 -0.03811 0.06166 -0.004267 -0.193 0.206909 -0.133622 0.038209 -0.024872 0.014063 -0.013949 0.068437 0.042083 -0.04669 -0.056179 -0.011563 -0.02052 0.108191 0.103948 -0.059057 0.056624 -0.031044 -0.192063 0.022782 -0.140991 0.123197 0.048295 -0.011418 0.013225 -0.334836 -0.051922 0.136756 -0.14173 0.06435 0.166242 0.07508 0.01276 -0.096256 -0.201842 0.059377 0.094975 0.015148 -0.005961 -0.104908 -0.138181 -0.028579 -0.105415 -0.052103 0.051248 0.029351 -0.108515 -0.200409 -0.103358 -0.097072 0.112957 -0.229437 0.023176 -0.014985 -0.121708 -0.078119 -0.126352 -0.012714 -0.189229 0.111489 0.20818 -0.001734 -0.083281 -0.076342 0.152391 -0.004589 -0.090622 -0.048517 0.017125 0.043416 0.052217 -0.060536 0.018691 -0.048285 -0.143985 -0.015573 -0.076283 -0.157661 0.115106 0.289407 0.138837 -0.013888 -0.069247 -0.103061 -0.063021 0.175575 0.053798 0.145468 0.101478 0.054496 0.112937 0.152414 -0.184895 -0.035426 0.131534 -0.085359 0.007813 0.070883 -0.102484 -0.166829 0.077611
  0.0571 -0.000152 -0.108251 -0.233396 -0.074536 -0.023056 -0.074845 -0.082703 -0.043709 0.02664 0.091135 0.207759 -0.059703 0.052007 -0.035448 0.040077 0.026058 -0.048954 0.181413 -0.016719 -0.024942 0.042019 -0.055201 0.003286 -0.047036 -0.122057 -0.024934 0.047764 0.191487 -0.060584 -0.062803 0.000201 0.093584 -0.051551 -0.17356 -0.068329 -0.034434 0.015059 -0.021501 0.03029 0.023308 0.011046 0.072719 -0.082074 -0.041577 -0.215341 -0.224995 0.070099 0.2458 -0.151648 0.09132 0.002684 -0.080436 -0.126085 -0.322254 0.041467 0.074974 0.100716 0.054607 -0.062218 -0.17459 0.038481 -0.394616 0.037053 -0.155397 -0.085812 -0.017956 0.01594 0.037338 -0.053613 -0.085136 0.004564 -0.016028 0.057304 0.032336 -0.191633 0.023294 -0.06222 0.012763 -0.172661 -0.081187 -0.035248 -0.06124 -0.204864 -0.092328 0.218486 0.042889 -0.022495 -0.032072 0.124581 0.098661 -0.099883 0.01382 0.069992 0.091458 -0.013065 -0.070908 -0.035921 -0.016605 0.00041 0.110533 -0.006101 -0.012218 0.083521 0.158568 0.079992 0.059333 0.045056 0.02734 -0.075384 -0.022551 -0.046604 0.102212 -0.012976 -0.145618 0.227452 -0.04073 -0.290656 -0.026617 -0.089969 0.071873 0.022593 -0.046921 -0.032946 -0.328649 0.045126 0.055144 -0.048466 -0.068481 -0.00384 0.002513 0.020191 0.105341 -0.143322 -0.103244 0.233889 -0.087699 -0.120467 -0.056867 -0.132823 0.069484 0.009594 -0.280484 0.062824 0.195592 -0.032664 -0.092098 -0.02549 -0.256109 0.114017 -0.023347 -0.022961 0.038659 -0.174325 -0.092036 -0.109721 0.064786 0.01489 -0.041569 0.036331 0.091815 -0.088175 -0.008652 0.06841 0.01724 0.131066 -0.102471 0.074056 -0.13501 0.099922 0.06047 0.100103 0.173624 -0.056177 -0.049793 0.007987 -0.177304 -0.140232 0.072055 0.049351 -0.082749 0.018672 -0.010449 0.071279 0.227846 0.017147 0.044592 0.119377 -0.013377 0.037574 0.000304 0.001209 -0.012597 -0.05139 -0.080263 0.131069 0.152339 -0.059996 -0.079791 -0.0591
  -0.051177 -0.088694 0.029597 -0.112971 -0.036061 -0.017626 -0.012031 0.003106 -0.012199 0.030628 0.015787 0.191736 -0.032772 0.079156 -0.06998 0.060048 0.018784 -0.027368 0.028295 -0.007389 -0.088333 0.088031 0.032391 -0.099097 0.064237 -0.019209 0.034374 0.034047 0.133941 -0.167187 -0.010157 -0.10851 0.077869 0.050223 -0.151465 -0.047791 0.044402 -0.05982 -0.028986 0.007539 -0.075462 -0.027867 0.034182 -0.065366 -0.022133 -0.112937 0.099085 -0.009802 0.1175 -0.005412 0.05281 0.036066 -0.010877 -0.037469 0.050567 0.081508 -0.076383 0.048171 0.055025 -0.043094 -0.066602 0.037574 -0.130418 -0.000754 -0.124035 -0.038706 -0.095693 -0.047614 0.110237 0.001012 -0.082498 -0.081682 -0.021006 0.004037 -0.009471 0.112718 0.051907 0.095908 -0.031958 -0.088223 -0.020857 -0.051238 0.065208 -0.181337 -0.060233 -0.025819 0.010278 0.008981 0.021762 0.02954 -0.079715 -0.118585 0.120191 -0.041406 0.006298 0.024753 -0.071731 0.048157 -0.028827 0.075321 0.030783 0.03877 -0.031877 0.040418 0.052296 -0.044816 0.072526 0.048148 -0.060056 -0.031929 0.009823 0.00621 0.097128 0.031265 -0.063224 0.021514 -0.037085 -0.023154 0.033445 -0.018007 -0.126544 -0.069023 -0.015084 -0.070359 -0.061486 -0.169438 -0.02347 -0.126373 -0.053414 -0.025077 0.077709 -0.00123 -0.019205 -0.105462 0.15717 0.082135 0.11777 -0.076662 0.010358 -0.041052 -0.022175 -0.00763 -0.204633 0.071958 0.104675 -0.023796 0.122699 0.040191 -0.105066 -0.07477 -0.034974 -0.028508 0.068431 0.057294 -0.068424 0.024483 0.016176 0.036412 0.017531 0.163281 -0.047267 -0.007427 -0.030142 0.204537 -0.106603 -0.033249 0.002445 0.019963 0.046288 0.017665 -0.055929 0.043259 -0.143963 -0.025762 0.010353 0.076186 -0.090196 -0.186165 -0.093776 0.067961 -0.020809 0.100749 -0.046393 -0.117781 0.165395 -0.065011 0.055756 0.119928 -0.052393 -0.059616 -0.128378 0.044517 -0.074157 0.03611 0.004574 -0.07807 0.042557 -0.008852 -0.041635 0.05992
  0.097247 -0.05069 0.106577 -0.074969 -0.082248 0.00945 0.035664 0.040091 -0.010281 -0.013643 0.076408 0.107844 0.002976 0.0833 -0.142641 0.073453 0.086212 0.040489 0.017812 -0.067296 0.043368 -0.000977 -0.023417 0.033388 -0.030889 -0.034091 0.063637 0.059586 0.07048 0.032518 -0.007748 -0.07605 -0.036714 -0.007099 0.054914 0.022128 -0.011307 -0.031238 0.064144 -0.026982 -0.056935 -0.075303 0.065466 -0.041794 0.05211 -0.018317 -0.004533 -0.020111 0.227817 -0.022804 0.018132 -0.016291 -0.049816 0.05974 0.107501 -0.090174 0.030198 -0.011179 0.041925 -0.005976 -0.052638 -0.046344 -0.066338 0.065437 -0.07551 0.042389 0.013107 -0.005894 0.055299 -0.02278 0.151327 -0.190085 -0.061788 0.009309 0.047804 0.117349 0.007957 0.017821 0.023672 -0.022864 -0.019271 -0.023469 0.078271 -0.029248 0.024045 -0.012598 0.004908 0.097086 0.007571 0.001427 -0.02175 -0.08567 0.008467 0.039333 0.026272 -0.019455 -0.003702 -0.02468 -0.008477 0.043401 -0.072117 0.09288 -0.007729 0.079379 -0.007827 0.024729 0.060378 0.003106 -0.061984 0.086769 0.036422 -0.025211 0.052569 0.026704 -0.02585 -0.066286 -0.044679 -0.019589 -0.127594 0.061517 0.006436 -0.027204 0.026622 -0.096691 0.075352 -0.026606 0.009334 0.048089 0.013094 -0.014825 -0.069321 0.012957 0.029853 0.049239 -0.010804 -0.003478 0.032297 -0.056115 0.017258 -0.055695 -0.005293 0.075087 0.0638 0.052707 0.001921 0.08749 0.105129 0.039956 -0.038072 0.022829 0.036914 0.064063 0.056649 -0.056337 0.002185 0.008625 -0.068667 -0.044772 -0.05452 -0.048971 0.034479 0.036681 0.014485 0.014061 -0.011669 -0.159408 0.053011 0.073773 0.042786 -0.050623 0.049384 -0.012225 -0.100687 0.029173 -0.024617 0.031144 -0.075822 -0.187444 0.078561 -0.03224 -0.048244 0.005215 0.022353 0.082152 -0.157046 0.045831 -0.002573 -0.029691 -0.00323 0.021923 -0.068058 -0.001192 0.009986 0.154548 -0.009018 -0.082033 -0.134732 0.023063 -0.018617 -0.026577
  -0.047722 -0.066399 -0.121483 -0.073769 -0.032033 0.055959 -0.010084 0.032494 0.005376 -0.020539 0.026906 0.023873 -0.008367 0.025137 0.005964 -0.004996 0.008001 0.022777 0.012689 0.035102 0.063397 0.121588 -0.034564 0.006601 -0.003234 -0.003375 0.013997 0.005439 0.000493 0.017202 -0.070584 0.103525 0.030923 0.042182 0.064608 0.021443 0.018818 -0.034921 -0.028073 0.020642 -0.0545 0.017817 -0.114794 -0.040586 -0.002784 -0.027655 -0.037052 0.001622 -0.0331 0.020015 0.044566 0.065447 0.097547 -0.009329 0.033977 -0.038861 0.044914 -0.028993 0.019589 -0.012904 -0.009138 0.021952 -0.022814 0.103839 0.068393 0.034661 0.003264 0.027274 0.078136 -0.06276 0.058286 -0.022768 -0.025689 0.02236 0.043069 0.08735 0.034071 -0.023235 0.016098 -0.011396 0.028306 -0.016569 0.094427 0.016456 -0.008806 0.096499 0.000499 0.008546 0.010898 -0.053943 0.102113 0.07229 0.002036 0.013061 -0.023476 -0.009457 0.006881 0.027854 -0.073292 0.142495 -0.011676 0.068631 -0.064939 0.010099 -0.019079 -0.02067 -0.042682 0.023332 -0.030265 0.032746 -0.017497 -0.039759 -0.006765 0.004136 0.028874 -0.046368 0.03558 0.023015 -0.09539 0.054351 0.021728 0.021231 -0.00614 0.011514 0.087659 -0.008843 -0.01162 0.052711 -0.027369 -0.05422 -0.055427 -0.003242 0.030326 0.009143 -0.026992 -0.026513 0.004909 0.052852 0.073484 0.036819 -0.050101 -0.002471 -0.008984 -0.008657 -0.029702 0.037228 0.015252 0.061065 0.0202 0.009467 0.0244 -0.003994 0.005968 -0.04772 -0.04408 -0.020116 0.005293 0.01404 -0.013595 0.036479 0.003652 -0.013551 0.034113 0.058115 0.012416 -0.056503 0.055856 -0.044007 -0.084264 0.003223 0.069115 -0.035707 -0.02971 -0.009464 0.06248 0.025307 -1.7e-05 -0.027926 -0.03103 -0.004456 0.034873 0.025899 0.007897 0.063214 -0.065537 0.016879 -0.008029 0.002841 0.060965 0.01113 0.170233 0.009261 -0.023414 -0.03786 0.015869 0.043624 -0.056358 0.051477 0.093129 -0.107225
  -0.171775 0.073971 0.094865 0.059564 0.017335 0.041664 0.136631 0.162556 -0.246534 -0.059713 -0.035924 -0.047515 -0.074467 0.014349 -0.368458 -0.000529 -0.069661 0.011964 0.007982 0.011072 0.059942 0.0421 0.040566 6e-06 -0.041106 -0.221954 -0.000405 -0.055554 0.138351 0.10931 0.136964 -0.080191 -0.094532 -0.004906 0.194249 0.082808 0.00333 0.155616 -0.275027 0.006187 -0.102222 0.000518 -0.092147 -0.071306 0.008026 -0.0604 -0.038616 0.083779 -0.203207 0.088942 0.005226 -0.084845 -0.01815 -0.037736 -0.101518 0.165944 -0.045771 0.039028 -0.157789 0.013163 0.09114 0.151352 -0.000624 -0.120997 0.049866 0.092887 -0.010517 0.069913 0.160724 0.047377 0.132988 0.165236 0.122633 0.097313 -0.027441 -0.026715 -0.159395 -0.188042 0.025281 0.141914 0.083344 0.06768 0.031095 0.138927 0.084662 -0.075489 0.036013 -0.075867 0.060525 -0.080116 0.008297 -0.115035 0.087644 -0.005255 -0.144658 0.13218 0.07222 0.15041 -0.215601 0.168492 -0.162462 -0.013512 0.030397 -0.06622 -0.049466 -0.056369 -0.034935 0.066347 -0.019139 -0.062207 0.000479 -0.154481 0.033153 0.065364 -0.011468 -0.106651 0.145006 0.059242 0.030059 0.170411 0.064703 0.097493 0.05927 0.075886 -0.023165 -0.208988 0.040995 -0.146063 -0.112153 -0.09407 0.056856 -0.049309 0.00911 0.126166 0.259502 -0.116092 -0.086148 0.069824 -0.25019 0.054626 0.033717 -0.231107 -0.139381 0.030728 -0.036823 -0.117333 0.042312 0.055753 0.013023 -0.011318 0.071906 0.009462 -0.044272 -0.117552 0.022444 0.15789 -0.02123 0.014458 0.065539 -0.044808 0.011848 0.115588 0.015521 -0.15112 -0.057812 -0.058274 0.046106 0.05176 -0.155078 0.029001 -0.024862 -0.057997 -0.096878 0.068959 0.044658 -0.026169 -0.055251 0.04133 0.03198 0.114343 0.027181 0.07536 0.046669 0.037912 0.036533 0.007607 0.005543 -0.046395 0.043569 0.17878 0.066552 0.070897 0.080114 -0.041565 -0.078346 0.021224 0.035355 0.041032 0.015932 -0.058942
  -0.018303 -0.005655 0.068739 0.089327 0.028553 0.076125 0.014153 0.217639 0.009911 0.000953 -0.01441 -0.199933 0.039246 -0.030894 0.033793 -0.052741 -0.125934 0.039859 -0.132743 -0.041758 0.055456 0.059187 -0.076637 0.070853 -0.031261 0.151074 0.024782 -0.061933 0.031453 0.089044 0.05222 0.042644 -0.022031 -0.010986 0.147523 0.126107 -0.061214 -0.04056 -0.022401 -0.018468 -0.005368 -0.028558 -0.040649 -0.034893 0.011562 -0.059494 -0.051601 0.0211 -0.144083 0.019011 -0.005244 0.004498 -0.047858 0.014617 -0.038789 0.014356 -0.063852 -0.043115 -0.066129 0.009713 0.09747 -0.061427 0.103139 -0.09498 0.115837 0.17153 -0.037966 -0.00852 -0.134045 -0.034067 0.068346 -0.000143 0.063283 0.039828 -0.080196 -0.020265 -0.215542 0.037252 0.066462 0.116581 0.010202 0.049142 1.4e-05 0.134565 0.05946 -0.060402 0.016591 0.041808 0.090989 -0.089655 -0.058205 -0.096031 -0.10354 0.00183 -0.081734 -0.129964 -0.026729 0.059739 0.02661 0.012465 -0.179282 -0.060331 -0.052773 -0.063375 -0.114646 -0.060448 0.02243 0.034526 -0.032122 -0.081956 0.019441 -0.163988 0.058639 0.019889 0.038434 -0.021707 0.039863 0.127941 0.000797 0.081433 0.097867 0.065913 0.061736 -0.017349 0.017729 0.09653 0.09476 -0.059784 -0.048718 -0.042461 -0.003261 0.01574 -0.002857 -0.027227 -0.093034 -0.082812 -0.02497 -0.138307 -0.00046 0.017244 -0.027588 -0.18892 0.062514 0.023354 -0.056078 0.127786 0.182062 0.042841 0.048861 -0.110753 0.141809 -0.019216 0.024283 0.022006 0.027976 -0.042789 -0.015867 0.071691 -0.053755 0.032871 -0.026188 0.08836 0.023226 -0.08929 -0.069044 -0.011622 0.014062 0.049521 0.046542 -0.077727 -0.023356 -0.036284 -0.075046 0.103947 -0.017282 0.006746 0.157518 0.119094 0.002546 -0.000526 0.072167 -0.068623 0.036301 -0.081252 -0.044906 -0.001153 0.022547 0.025867 0.062518 0.011332 0.069525 0.019457 0.067537 -0.004286 0.083072 -0.044799 0.054222 0.055437 0.035862 -0.098471
  0.05098 -0.068847 0.027223 0.02432 2.6e-05 0.040352 -0.234121 -0.319331 0.04935 0.014204 -0.08264 -0.099943 -0.00235 -0.038474 0.081334 -0.093855 -0.056488 0.023407 -0.208834 0.028524 0.018397 0.119715 0.030674 0.010931 0.026389 0.069585 0.002833 -0.048879 -0.114601 0.046749 0.037506 0.001966 0.002091 0.009737 0.059434 0.076473 0.027506 -0.079382 0.021145 -0.046585 0.028185 -0.003783 0.004185 0.054857 -0.027954 0.029169 0.057907 -0.089647 0.030642 0.013606 -0.056865 0.012455 -0.018408 0.105443 0.080659 -0.023165 -5e-06 -0.017593 0.062383 0.007057 0.077629 -0.13633 0.191953 -0.089123 -0.011525 0.112423 0.018482 0.057367 -0.082038 -0.113634 -0.048361 0.19267 -0.027435 -0.061971 0.041399 -0.045783 0.045611 -0.000926 0.083278 0.010336 0.056375 0.073491 -0.019592 0.036837 0.063635 -0.168394 -0.032022 0.106619 0.059893 0.027729 -0.053054 0.046188 0.031327 -0.106958 -0.048869 -0.005162 0.008232 0.015924 -0.00653 0.122523 -0.081462 -0.076325 0.043329 -0.172099 -0.071565 0.012829 0.029609 -0.026971 -0.0662 0.034522 0.06893 0.011299 -0.201873 0.008016 0.020673 -0.083995 -0.130392 0.02514 0.029342 -0.14612 -0.044298 -0.037416 0.02081 -0.114114 0.170373 0.071701 -0.288735 0.032949 0.009337 -0.011947 -0.131679 0.070441 -0.021453 -0.07107 -0.212565 -0.062497 -0.039759 0.120046 0.102184 -0.040106 0.063537 -0.041356 -0.001798 -0.01554 -0.051538 0.119966 0.095631 -0.066909 0.085265 -0.005702 0.089914 -0.121738 -0.012631 0.130779 -0.035527 -0.122553 -0.041342 0.05053 -0.066814 -0.003424 0.000716 0.041791 0.041089 -0.061339 0.012014 -0.018196 -0.02802 -0.019008 -0.006705 0.006002 -0.013222 -0.016981 -0.006345 0.054462 -0.033456 0.006553 0.145009 0.080383 -0.111734 0.058846 -0.00398 0.032778 0.14212 -0.057996 -0.146021 -0.012525 -0.112551 0.027392 0.040041 -0.105358 0.006068 0.003244 0.043783 0.006475 0.069154 -0.013791 0.034463 -0.024393 -0.007115 0.023552
  0.152668 0.086534 -0.122125 0.059851 0.031591 -0.021289 -0.063675 -0.251314 0.077339 -0.020372 0.044673 0.025415 0.09644 -0.226952 0.215218 -0.219581 0.027561 0.069145 -0.016442 0.013453 -0.067445 -0.165984 0.029594 0.024802 -0.00723 0.093254 -0.055647 0.048898 -0.171981 -0.09092 -0.092286 0.037755 0.131279 -0.004955 -0.288067 0.016412 0.037317 -0.139188 0.012399 -0.008773 0.129496 0.033857 0.202658 0.047511 -0.129573 -0.177253 0.113541 -0.02954 0.158262 -0.048641 0.037702 0.006764 0.01699 0.090251 0.120707 0.016207 0.001992 -0.021692 -0.135542 0.052216 -0.019589 -0.199674 0.288405 -0.030211 -0.112982 -0.021385 0.044357 0.091444 -0.170416 0.028826 -0.059606 0.056872 -0.111631 -0.072653 0.016307 0.111439 0.140945 0.094584 0.048373 -0.007859 -0.024686 -0.055268 0.115576 -0.04305 -0.145636 -0.046435 0.094885 0.129847 -0.123981 0.015018 -0.152246 -0.086111 -0.0704 -0.14657 0.026 -0.051304 -0.041557 -0.017372 0.100527 -0.063379 0.064655 0.068997 0.014375 -0.150205 0.030787 -0.059858 0.01009 -0.197383 0.010274 -0.00628 0.104595 0.111803 -0.068596 -0.06365 0.004185 0.128795 -0.140225 0.007285 -0.057288 -0.054527 -0.168 -0.059126 -0.038448 -0.201693 0.183855 0.202741 -0.194565 0.073322 0.087842 0.112408 -0.204246 0.091932 -0.075543 -0.003799 -0.108536 0.017917 -0.100645 0.011871 0.046097 0.019177 0.087731 0.271462 0.214387 -0.055511 -0.09279 -0.048642 -0.210338 -0.01735 0.032909 -0.091339 -0.040258 0.194665 0.078313 0.247888 0.014655 -0.043187 -0.053034 -0.134208 0.024633 -0.07128 -0.191665 0.029487 0.013444 -0.0161 -0.037932 0.028046 0.087247 -0.027563 -0.063652 0.053546 -0.051143 -0.036186 -0.075714 -0.005597 -0.021686 -0.036854 -0.011347 -0.033696 -0.016733 0.002064 0.064809 -0.007278 -0.117842 0.021056 -0.339675 -0.002037 -0.175328 -0.179282 -0.0379 -0.183018 -0.199289 0.091465 -0.073567 0.042077 0.053447 -0.047328 -0.085154 -0.054085 -0.186663 0.063959
  0.13919 -0.049635 -0.077448 -0.006225 0.030351 -0.115099 -0.032467 -0.130154 0.135286 0.001045 0.109087 0.04886 0.122033 0.040634 0.188586 -0.194355 0.08147 0.069195 0.074128 0.073679 0.023923 -0.129528 0.056607 -0.037084 -0.041374 0.086564 0.116552 0.058466 -0.144593 0.003482 -0.155284 -0.080462 0.081772 0.043916 -0.366723 0.023622 -0.064755 -0.160206 -0.038037 -0.000833 0.154116 0.050539 0.069656 0.049239 -0.075414 0.104329 0.206037 -0.022959 0.112233 0.073334 0.013435 -0.087945 0.021937 0.07576 0.279098 0.020036 0.022941 -0.060946 -0.034628 -0.0433 -0.069845 -0.117481 0.193681 0.013442 0.004241 -0.102383 -0.016752 0.104438 -0.071494 0.002533 -0.242383 -0.066127 -0.110067 -0.067563 -0.010822 0.128513 0.076625 0.11621 0.021578 -0.031026 0.007783 -0.055612 -0.100473 -0.168185 -0.091166 -0.033985 0.060745 0.142122 -0.045355 -0.155104 -0.036292 -0.027895 0.112177 -0.085266 0.095181 -0.113251 -0.047004 -0.053652 0.162393 -0.073242 0.032516 0.05736 -0.205341 -0.094694 0.041021 -0.018157 0.070319 -0.194495 0.037278 -0.009346 0.102086 0.076353 -0.056192 -0.083603 -0.022951 -0.097365 -0.048946 -0.027219 -0.117575 -0.009664 -0.064874 -0.077006 -0.108058 -0.196221 0.005119 0.065002 -0.099915 0.236286 -0.031224 0.018698 -0.099463 -0.043433 0.057113 -0.076504 -0.027567 0.119589 0.106467 -0.003619 0.049425 0.080344 0.208834 0.315047 0.175342 0.008969 -0.175094 -0.105718 0.136142 -0.105724 -0.096087 -0.10966 0.101425 0.080255 0.092583 0.176392 0.029714 0.142337 -0.067048 0.001253 -0.025192 -0.12852 -0.052932 0.007469 0.019372 0.045086 0.099685 0.194748 0.008126 -0.016091 0.003084 -0.053591 0.047759 -0.164726 -0.028172 0.062114 0.054981 0.013236 -0.011298 -0.137467 -0.097922 -0.097405 -0.067982 0.111992 -0.081442 0.089902 0.162592 0.05021 -0.114347 -0.147319 -0.003628 -0.109508 -0.260717 0.064133 -0.079089 -0.241633 0.04033 -0.207981 -0.082891 -0.042489 -0.049715 0.171535
  0.028266 -0.077315 -0.128764 0.082359 0.013705 0.015278 -0.002593 -0.03337 0.100039 0.104366 0.030044 0.084788 0.064881 0.020725 -0.02894 -0.120665 0.022698 -0.013755 0.099406 -0.081953 -0.188749 -0.19714 -0.034453 0.035962 0.122272 0.129708 -0.053161 0.013816 0.025855 0.04208 0.032882 0.059415 -0.012882 0.020864 -0.112 0.07044 0.000348 0.01158 0.111932 0.034929 0.055062 0.004863 0.040824 -0.06222 -0.027044 -0.008985 0.04078 -0.003374 0.130149 0.021198 -0.022687 -0.052712 0.018812 0.02241 -0.040267 0.038516 -0.003014 0.02024 0.027926 -0.042311 0.216227 -0.08318 0.034277 0.095287 -0.050579 -0.009986 -0.005686 0.00536 -0.120134 -0.062057 -0.291827 0.026654 -0.145305 0.045401 -0.056051 0.126975 0.003507 0.092312 0.072229 -0.033445 0.069998 0.004659 0.098971 -0.12314 -0.03659 -0.09686 -0.043391 0.061621 0.019214 -0.036742 0.000775 0.091573 -0.066994 -0.009377 0.033618 0.048501 0.032889 -0.171903 0.103533 0.01519 -0.024569 -0.037961 -0.00354 -0.031514 -0.00707 0.009646 0.122966 0.096732 -0.080808 0.005813 0.062729 0.120142 -0.112046 0.00082 0.018057 0.223521 -0.048448 0.042366 0.036059 -0.009273 -0.059589 -0.033168 -0.02377 -0.117592 0.264159 0.058003 -0.074071 0.12218 0.01929 0.084775 0.021827 0.003372 -0.014982 -0.018978 0.029436 0.027481 0.047548 0.042188 0.031237 0.00326 0.061612 0.239947 -0.004123 -0.062462 0.018858 0.138146 0.073903 -0.014274 0.053585 -0.055381 0.019392 0.016108 0.115948 0.089678 0.035469 -0.017916 0.076301 0.050354 -0.103494 0.006445 -0.047161 -0.026959 -0.031212 0.007986 0.032518 -0.105536 0.103897 -0.104715 0.110276 -0.140534 -0.029106 -0.077591 -0.037006 -0.031022 0.01521 -0.004594 0.043702 -0.110984 -0.093927 -0.048823 -0.094467 0.024802 0.05443 -0.040273 0.175909 -0.024006 -0.082862 -0.036236 -0.108283 -0.059915 -0.219911 0.009812 -0.113142 0.028401 0.003183 -0.111498 -0.107958 -0.034765 -0.001108 0.151032
  0.131704 -0.046997 0.037044 -0.095353 -0.034946 -0.006499 -0.01178 -0.031379 -0.000726 0.020507 -0.032922 0.108456 -0.031047 -0.049545 0.015541 -0.017897 -0.011429 -0.01869 -0.000942 -0.01961 0.032207 -0.129915 -0.028061 0.023701 -0.011357 0.087894 0.016564 -0.000903 -0.017123 -0.004723 -0.007455 0.086538 0.075174 -0.04975 -0.076881 0.010919 -0.059871 0.012334 -0.001183 -0.017304 0.022488 -0.021217 -0.094355 -0.015259 0.027752 0.041759 0.08745 0.015498 -0.02387 0.016341 -0.085525 -0.033724 0.082637 0.030413 0.060638 0.006731 0.032738 -0.013109 0.028445 -0.032406 0.021152 -0.017207 -0.020103 0.053572 -0.073155 0.024443 -0.023908 0.038508 -0.039916 -0.001512 -0.175081 -0.159713 0.016186 0.053137 0.053309 0.06382 0.026397 -0.023874 -0.008537 0.083755 0.004127 0.012062 0.024577 0.014596 0.015611 -0.000695 0.01078 0.025469 -0.016425 -0.023809 -0.039465 0.037771 -0.063868 0.053039 -0.009177 -0.008037 -0.028105 0.07544 0.026991 0.014874 -0.038674 0.139099 -0.049734 -0.017735 0.00101 0.104497 -0.04459 -0.051354 -0.018641 0.024163 -0.049112 -0.083019 0.003051 -0.018805 -0.015618 0.019518 0.003312 -0.09819 -0.119019 0.093516 0.012732 -0.051092 0.031284 0.117399 0.03741 0.01892 -0.017108 0.030726 -0.012315 0.026754 -0.01196 0.051256 -0.059838 0.053631 -0.05488 0.090706 -0.034531 -0.067322 0.070488 -0.025742 0.068596 -0.053933 0.068202 -0.007061 -0.031532 -0.012252 0.04035 0.041075 0.052412 0.008516 0.002388 -0.097755 -0.095037 -0.023386 -0.032774 -0.0194 -0.024643 0.006216 -0.034024 -0.057799 -0.022812 0.024142 0.013388 0.008189 0.034437 -0.008059 -0.022842 -0.028499 0.012018 -0.057905 0.080103 0.005826 0.074253 0.006582 -0.033689 0.07677 -0.053275 -0.033889 -0.107875 -0.044058 -0.078137 0.018378 0.012462 -0.01791 -0.103551 0.001466 0.082666 0.129387 -0.003822 0.010593 0.008046 -0.027321 -0.026637 -0.08541 0.069256 0.065424 0.009683 0.059129 0.092017 -0.065703
  0.400261 -0.156973 0.683461 0.423083 0.596968 -0.502655 -0.388495 -0.595512 -0.42506 -0.503021 -0.410853 0.223199 -0.318559 0.115276 -0.110608 0.412616 0.411737 -0.654078 -0.069138 0.413141 -0.495093 0.145279 -0.605659 -0.459219 -0.465601 -0.446975 -0.195977 0.561853 0.587296 0.385041 -0.365356 0.146265 0.393272 0.609544 0.382024 -0.484511 -0.483801 -0.402643 -0.380981 0.536752 -0.231228 0.470228 0.196551 -0.391897 -0.410452 -0.121899 -0.164051 -0.174059 0.070652 -0.448828 0.387483 -0.085415 0.310318 0.43738 0.139875 -0.234759 -0.421237 -0.588462 -0.309535 -0.501036 0.305007 -0.520929 0.338373 0.311197 -0.595691 -0.471059 -0.093315 0.386216 -0.261019 -0.360666 0.252529 0.033769 0.657737 -0.49416 0.286332 0.305457 -0.379084 -0.391752 -0.626411 0.343094 -0.298705 -0.623682 -0.152219 0.406743 -0.521715 0.16733 -0.682941 -0.218487 -0.508737 -0.419069 0.283125 -0.054742 -0.1128 0.317864 0.444053 -0.407568 -0.490828 0.421501 -0.158158 -0.432495 -0.18775 0.304141 0.407316 0.367097 0.289703 0.45507 0.491358 0.602573 -0.609869 -0.200219 -0.589405 -0.099099 -0.560929 -0.699394 0.446417 0.036335 -0.451179 0.451683 0.509134 0.392765 -0.318672 -0.692609 -0.562293 -0.148619 0.424415 -0.359353 -0.437053 0.324698 -0.533981 0.259875 0.489225 -0.626875 0.538082 -0.120129 -0.110556 0.490939 0.32934 -0.232169 -0.532518 -0.409295 0.069863 0.329356 0.352645 -0.519235 0.392223 -0.503758 -0.456902 0.385626 0.503766 -0.481912 -0.408353 0.280638 -0.333328 0.2308 -0.414356 -0.083355 0.4383 -0.295511 -0.447768 -0.327303 -0.572463 -0.544726 -0.695352 0.162298 0.581008 0.541038 0.497007 -0.07264 -0.127155 -0.321767 0.421391 -0.575354 -0.24098 -0.661279 -0.611803 0.444131 -0.32674 0.152639 0.282357 -0.511228 -0.140313 -0.548983 -0.483559 -0.216432 0.181671 0.381943 -0.423147 0.182095 -0.630243 -0.386801 0.145492 -0.576609 0.399366 0.141968 -0.475627 0.268724 0.362009 -0.546954 0.43169 0.382806
  -0.242188 0.056108 0.067945 -0.027123 0.026976 -0.036048 -0.116693 -0.086893 0.091658 -0.02199 0.023735 -0.029241 -0.025745 0.07216 -0.021675 -0.147223 -0.109315 -0.003576 0.072538 0.110566 0.021833 0.088334 0.019178 -0.035469 -0.06083 -0.062462 0.070282 0.031797 -0.163638 0.010866 -0.060838 -0.179839 -0.115384 -0.134311 0.119045 -0.062875 -0.012623 0.012561 0.017091 -0.129351 -0.132925 0.077725 -0.048464 -0.063999 -0.048898 -0.160335 -0.026076 -0.018595 -0.232345 0.050135 0.06207 -0.013655 -0.058901 0.122091 -0.049773 -0.032078 -0.062531 0.024071 0.10237 -0.109224 -0.024511 0.070413 -0.031561 -0.16576 -0.043325 -0.012195 -0.020116 -0.190692 -0.004536 0.043298 -0.010946 -0.076362 0.097286 -0.115141 0.070745 -0.14859 0.134499 0.036907 -0.054622 -0.048497 0.111255 -0.08077 0.163845 -0.069574 -0.030522 -0.11351 -0.012516 -0.033533 -0.047773 -0.138462 -0.125826 0.009542 -0.019682 -0.14548 -0.09387 -0.074338 -0.105307 -0.032306 0.012549 0.057365 0.145197 0.022843 0.089719 -0.106762 -0.126047 -0.030535 0.100535 0.064249 -0.010918 -0.126073 -0.096465 -0.079229 0.078159 0.021794 0.063499 0.046153 -0.027743 0.065869 -0.08242 -0.052372 0.020927 -0.062938 0.075796 -0.186403 -0.002774 0.074815 0.029372 0.160913 -0.032217 0.113092 0.003876 0.014957 -0.082153 -0.103803 -0.036736 -0.222343 -0.135166 -0.106162 -0.105767 -0.110696 0.057456 -0.006343 -0.214745 0.063344 0.037875 -0.033298 -0.034749 -0.149576 -0.007353 -0.041601 -0.00432 0.12531 -0.12535 -0.123655 -0.085952 0.116865 0.055303 -0.076766 -0.072746 -0.011071 -0.075561 -0.020426 -0.10474 -0.298094 0.174368 0.08331 -0.034987 0.075394 -0.11291 -0.160039 0.005009 -0.054454 -0.005674 0.010916 -0.029634 -0.182564 0.054076 -0.239798 0.07762 -0.100797 -0.068627 -0.045648 -0.064756 -0.146149 0.264341 0.045977 -0.011118 -0.098587 -0.013017 -0.053702 0.090767 -0.023997 0.027197 -0.091564 -0.086722 -0.094265 0.085541 -0.056872 0.048766 0.051269
  -0.13708 0.063123 -0.041552 -0.038245 -0.098551 0.052957 -0.008545 -0.099432 -0.067597 -0.008521 0.043089 -0.02294 -0.061688 0.016633 -0.159988 -0.01656 0.014977 -0.089708 -0.146693 0.021492 0.003578 -0.089325 0.067304 -0.098322 0.074018 0.042501 0.170936 -0.016045 -0.003794 -0.038851 -0.10719 -0.057818 -0.045641 -0.024993 -0.087616 -0.071269 0.031816 -0.082288 0.107222 -0.058363 -0.030331 0.043657 -0.032713 0.008551 -0.140947 -0.159879 -0.096522 -0.079213 -0.002362 -0.086201 -0.043935 0.196165 0.017525 0.023488 -0.099721 0.167652 -0.18509 -0.100095 0.151376 -0.059722 -0.037664 0.137655 -0.071314 -0.118833 -0.071649 -0.117529 -0.059236 -0.026159 0.194004 -0.031833 -0.186361 -0.044945 -0.06864 -0.050986 0.006638 0.063731 0.190166 0.115554 -0.075315 0.023112 -0.019114 -0.088281 0.298095 0.082323 0.096004 -0.047985 0.008627 -0.183204 0.097793 -0.045743 -0.069854 -0.160678 0.11817 -0.013556 -0.112297 -0.000593 -0.058256 0.009312 -0.190263 0.018221 -0.257246 0.040169 -0.016484 -0.008876 -0.059826 0.038176 0.048458 -0.042679 -0.105888 0.025158 -0.106347 0.052288 -0.092363 0.063227 0.01825 -0.050753 -0.061141 -0.05198 0.068946 -0.032923 0.141537 0.068313 -0.145011 -0.01571 0.035821 -0.123925 -0.090243 -0.048304 -0.002341 -0.053375 -0.046793 -0.119947 0.03369 -0.061765 -0.220418 0.023905 -0.080522 -0.036278 0.196939 -0.061375 -0.057732 -0.035521 -0.07919 0.029537 -0.071113 -0.163026 -0.14038 0.095711 -0.04196 -0.126535 -0.082579 -0.026647 0.166777 0.08641 -0.101861 0.049016 -0.045887 0.126762 -0.105024 0.022698 -0.124727 0.099022 -0.050304 -0.083871 0.086458 -0.074796 -0.037013 -0.102089 -0.019924 0.191827 -0.106238 -0.063563 0.040894 -0.009445 -0.05789 -0.070426 0.010744 -0.131366 -0.059447 0.016726 -0.034778 -0.042681 -0.152559 0.059875 0.031673 -0.064757 -0.029419 -0.068924 0.00046 -0.009571 -0.034522 -0.144775 -0.006921 0.010942 -0.115332 -0.073275 -0.090561 0.091243 -0.039476 0.041248
  -0.020364 -0.189778 -0.060855 0.05246 -0.009698 -0.018007 0.024261 -0.085785 0.021403 0.011877 0.001503 -0.016785 -0.018413 0.020495 -0.039973 -0.060527 -0.086661 -0.093654 -0.18486 -0.019081 -0.002216 -0.072833 0.05203 -0.055965 -0.010795 0.030685 0.083347 0.009068 -0.042985 0.006001 -0.053353 -0.154963 -0.025824 -0.020524 0.127544 -0.12453 0.022368 -0.041593 0.013444 0.058144 -0.103452 -0.069673 0.089604 -0.024449 -0.047442 -0.139001 -0.034226 -0.168165 -0.047633 -0.012639 0.072964 0.069235 0.028834 -0.001969 -0.109607 0.090067 -0.050349 -0.063368 0.108237 -0.061814 0.013351 0.054444 -0.127934 -0.005375 -0.099351 -0.091334 -0.13376 -0.032639 0.103945 -0.033493 0.003966 0.039877 -0.012168 0.010668 -0.055816 -0.135184 -0.009327 0.013486 -0.012873 -0.11902 -0.001201 -0.024893 0.097923 -0.076294 0.025189 -0.098481 -0.096609 0.039994 0.009073 0.041589 0.042556 0.046009 -0.0641 0.050674 0.003289 -0.035414 -0.056212 -0.029243 -0.130047 -0.015059 -0.02714 0.01872 0.025504 0.015339 -0.053746 -0.062741 -0.044771 0.029344 -0.039655 -0.009098 -0.049819 0.013985 0.005855 0.055606 0.007723 0.018155 0.005769 -0.068381 0.016677 -0.057242 0.116489 -0.087363 0.002062 -0.028913 0.060941 0.022465 -0.043332 0.026475 -0.052965 0.022989 0.005957 -0.098855 0.004808 0.050969 -0.107387 -0.029622 0.035222 -0.035917 0.10453 -0.070845 0.028361 -0.032387 -0.035169 -0.03191 -0.051171 -0.019052 0.021609 -0.082903 0.005044 -0.050921 -0.085612 -0.034097 0.031021 -0.084923 0.035947 0.066332 -0.028729 0.07231 0.056223 -0.011684 -0.076608 -0.049565 -0.057639 -0.118118 -0.091663 -0.07598 -0.001428 0.04853 -0.064395 0.033666 0.006437 -0.02868 0.073353 0.027293 -0.028895 -0.005029 0.001102 -0.036625 0.023511 0.036557 -0.168533 -0.015514 -0.162327 0.078499 0.036769 -0.013419 -0.016773 0.042188 0.011426 0.020119 0.084347 -0.03088 -0.0238 -0.191794 -0.01422 -0.048704 -0.058425 0.049954 0.033868 -0.12377
  0.007909 0.149271 -0.053995 0.017185 -0.031476 -0.080498 -0.034047 0.018739 -0.0505 -0.053638 0.055554 -0.128166 -0.075208 -0.008911 -0.184333 -0.091845 -0.198493 -0.106162 -0.092745 0.021603 0.004529 0.016649 -0.002164 0.032949 0.132009 -0.009463 -0.010789 0.006318 0.006576 0.021197 0.128804 -0.013703 -0.010563 -0.017526 0.059242 0.001665 -0.057836 -0.122337 0.064608 -0.004932 0.035213 -0.030781 0.023123 0.005296 -0.10582 -0.274183 -0.222117 -0.11478 -0.113614 -0.055603 -0.032377 0.162852 -0.001295 0.012817 -0.080067 0.11533 0.049221 0.023754 -0.030163 -0.069229 0.13985 0.083969 -0.035194 0.001298 -0.065965 -0.024304 -0.011113 -0.061603 -0.05944 0.04512 0.090323 0.048655 0.012469 0.001738 -0.018912 -0.137843 0.049624 0.036037 -0.058394 -0.02473 -0.070071 0.03922 -0.03745 -0.006892 0.001461 -0.034089 0.015239 -0.174815 -0.008086 0.026795 0.030002 -0.221433 0.062978 0.073553 -0.037751 -0.017827 0.068432 0.021262 -0.084506 0.105969 -0.186096 0.007951 0.037657 0.011402 -0.055432 0.066772 -0.050512 0.020507 -0.063767 0.019286 -0.184147 0.077624 -0.082163 0.027069 -0.056544 0.055359 -0.099147 -0.023707 -0.063664 -0.014586 -0.044864 0.049676 -0.113997 0.129651 -0.085988 -0.070403 -0.098048 -0.02342 -0.00811 -0.018725 -0.004967 0.02909 -0.037291 -0.009652 0.034745 -0.051129 -0.103545 -0.226578 0.003271 0.04731 0.0648 -0.066444 -0.006439 0.070528 -0.069485 0.004993 -0.125305 -0.105628 -0.058335 0.00264 -0.061421 0.068532 0.06676 -0.134582 -0.092786 -0.051315 -0.078205 0.03085 -0.102368 0.026429 0.017981 0.004184 0.047239 -0.022629 -0.145807 0.043425 -0.022516 -0.012584 -0.162337 0.119487 0.03919 -0.074061 0.03348 -0.161973 0.024545 0.024811 -0.049388 0.052836 0.131411 0.014764 0.100305 0.064174 0.067465 0.145245 -0.045246 -0.028851 -0.136154 0.043761 -0.022925 0.053272 0.08322 0.044033 -0.069303 -0.124249 0.027198 0.013338 0.07967 -0.009344 -0.066114 -0.0699
  -0.008968 -0.013094 -0.003379 -0.040864 -0.075968 0.002095 -0.111377 -0.07421 0.094938 -0.011434 0.137947 -0.036409 -0.002529 -0.166554 0.038219 0.003839 -0.142841 -0.025976 0.164504 -0.002281 0.012326 0.042309 0.041875 -0.07527 -0.044756 -0.013413 -0.059774 0.083079 -0.030377 -0.11901 0.040838 -0.131947 -0.045957 0.023663 -0.046774 0.086863 0.040634 0.22009 -0.033883 0.033957 -0.069459 0.10856 0.054551 -0.07124 -0.074225 -0.154994 -0.056697 -0.103261 -0.090094 0.060232 0.071336 0.035703 0.03205 0.015453 -0.133625 -0.042995 -0.190667 0.098107 0.043238 -0.113741 0.013221 0.146114 -0.095132 -0.003178 -0.201471 0.105586 0.055395 -0.090527 0.067109 0.07247 0.069242 0.096989 0.034514 -0.097846 -0.02669 -0.099188 0.189285 0.090407 0.020214 -0.002055 0.110637 -0.029664 0.284982 0.053163 -0.10346 -0.007269 8.1e-05 -0.104018 -0.023602 -0.192637 -0.070356 -0.160964 -0.022209 -0.046626 -0.024641 -0.042283 -0.015613 -0.124545 -0.245711 0.077085 0.186709 -0.065566 -0.066281 -0.04542 -0.050784 -0.103987 0.021706 0.038425 -0.088286 -0.091006 -0.094136 -0.178027 -0.06576 0.076412 0.00517 -0.095484 0.009172 0.004476 -0.023485 0.043016 0.11242 -0.072406 0.055378 -0.129703 -0.179554 0.070168 0.025712 0.079116 -0.037147 -0.042832 -0.108078 0.081116 -0.000889 -0.096103 -0.052938 -0.023948 -0.126633 -0.19585 -0.157954 -0.108611 -0.192405 -0.064285 -0.055041 -0.034423 -0.050487 -0.115299 -0.184265 -0.044829 0.040315 -0.124054 0.085793 0.062783 -0.141339 -0.031572 -0.093854 0.101816 0.060051 -0.143966 -0.105893 0.115946 -0.087583 -0.005466 -0.00152 -0.086711 0.032791 0.079497 0.011825 0.181101 -0.089052 -0.058633 0.010977 0.013378 0.218648 -0.023398 -0.047418 -0.016642 0.103319 -0.101283 -0.240123 -0.06387 -0.087553 -0.142044 0.027816 -0.186435 -0.073638 -0.068927 0.026257 -0.002074 -0.022385 -0.209416 -0.059608 0.072233 -0.062139 -0.159991 -0.04811 -0.079763 -0.011936 -0.039664 0.005268 0.049482
  -0.056533 -0.178629 -0.023117 -0.047145 -0.111414 -0.017418 -0.005229 -0.11304 -0.039104 0.179417 0.006207 0.002737 0.103283 -0.021876 0.001004 -0.028031 -0.085397 0.125022 -0.038064 -0.002911 -0.072792 0.105417 -0.042824 0.010334 0.031182 0.092792 0.068642 0.017173 -0.004424 -0.092079 -0.088944 -0.052612 -0.026922 -0.060073 -0.043718 -0.062333 0.049807 -0.017709 -0.103013 -0.003241 -0.058509 -0.03876 -0.074563 0.020805 0.053907 -0.002074 0.163351 -0.051243 -0.086181 -0.054464 0.04748 0.188785 0.146665 0.134884 -0.054801 0.103271 -0.015911 0.038507 0.110511 0.024121 0.085134 0.027245 -0.132699 -0.039561 0.045352 -0.100176 -0.163209 -0.009477 0.180014 0.01229 0.066876 -0.019739 -0.00661 0.015958 0.163422 -0.036788 0.014877 -0.081544 -0.034682 0.155493 -0.071211 -0.005289 -0.088845 0.074602 0.030719 -0.139298 -0.012246 -0.028925 -0.005318 -0.017963 -0.046351 0.062612 0.140524 -0.073673 -0.031769 0.004158 0.054479 -0.067485 -0.070612 -0.097798 -0.104073 0.050211 0.048152 -0.05736 -0.083472 -0.083833 -0.001341 -0.010229 -0.002155 -0.102604 0.097487 -0.021213 -0.032705 0.025359 -0.032742 -0.14411 -0.064917 0.031428 -0.062118 -0.037586 -0.120355 0.054411 0.024114 0.050368 -0.015075 -0.077694 -0.033141 -0.030784 0.040259 -0.07879 0.005186 -0.075958 0.000472 -0.009903 0.05318 -0.046691 -0.128021 0.031045 0.012992 0.048104 -0.079975 -0.004785 -0.004635 -0.103156 -0.042821 0.013951 0.003866 -0.008629 0.066556 -0.014272 -0.06503 -0.132633 -0.04238 -0.070572 0.010878 -0.023523 0.030705 -0.015323 -0.009747 -0.097498 -0.039378 -0.050447 -0.01221 -0.02912 -0.022881 0.071806 0.003313 -0.085776 0.097663 -0.016279 -0.022782 -0.007771 -0.226359 -0.060361 0.016922 0.04169 -0.165825 -0.134318 -0.059637 0.028425 0.056007 -0.006818 -0.046781 -0.029919 0.195117 -0.022756 -0.052861 -0.01927 0.015753 0.007202 0.19095 -0.013114 0.040223 -0.053548 0.069682 0.020001 -0.019983 -0.032104 0.069179 -0.104887
  0.000764 0.108929 -0.045848 0.071295 0.00696 0.017496 0.074449 -0.018331 0.007806 0.082172 -0.0981 0.033022 0.08148 -0.013734 -0.110414 -0.003047 0.059868 0.017204 -0.033534 -0.030396 0.048025 -0.046462 0.085949 -0.019695 -0.017248 -0.091156 -0.165389 -0.001482 0.014546 -0.043968 0.03022 0.070673 0.005128 0.030605 0.07993 -0.057603 -0.040527 -0.030081 -0.101705 0.001166 -0.093612 0.010562 -0.024449 -0.04389 0.015284 -0.061349 0.004314 0.047507 -0.180222 -0.066853 -0.001188 0.117919 0.006958 -0.008378 0.08534 0.135673 -0.035664 -0.072292 0.109217 0.023324 -0.047585 -0.055843 0.088725 0.022233 -0.095949 -0.040766 -0.009947 0.067545 -0.000956 0.056026 0.049016 -0.010798 -0.037861 -0.013544 0.025039 -0.019239 -0.070028 -0.06587 0.011898 -0.036516 0.026639 -0.052228 0.09564 -0.009312 0.016499 -0.077741 -0.004996 0.023002 0.022713 -0.05118 0.077978 0.100849 0.140119 -0.013115 0.028624 -0.096639 0.039078 -0.023808 -0.017472 0.110116 -0.124146 -0.053712 0.013678 0.029411 0.026579 0.065564 0.036992 -0.046247 -0.004277 -0.177279 -0.001453 -0.040483 -0.029295 -0.052161 -0.010768 0.007113 -0.049336 -0.072426 -0.005921 0.053586 -0.11923 0.023498 0.00191 0.113665 -0.064653 -0.001644 -0.001221 0.017128 0.060598 -0.043799 -0.062926 0.009078 0.050163 0.055542 -0.090139 0.006315 0.038846 0.042041 0.03673 -0.029044 0.038123 -0.050126 0.046194 0.072539 0.016164 -0.043646 0.004346 0.053274 -0.062368 0.097966 0.107996 -0.153521 0.044098 -0.12642 -0.006483 0.062254 -0.061976 -0.180257 0.015964 0.074417 0.003451 0.005878 0.005822 0.000344 -0.050203 0.000153 -0.020765 0.012591 0.083941 -0.016639 -0.052498 -0.01551 -0.016147 0.006513 0.034921 -0.005133 -0.037824 -0.103321 -0.087026 0.030754 0.004266 0.02345 -0.081222 -0.121909 -0.113411 -0.013512 0.026937 0.001718 -0.017492 -0.016417 -0.035606 0.015443 0.024437 -0.088898 -0.014426 0.04243 0.006009 0.056219 0.02057 0.007786
  -0.026522 -0.056272 0.031412 0.059301 0.011092 0.013678 -0.00838 0.083881 0.082123 0.070204 -0.144887 -0.074343 0.044133 -0.000784 -0.093879 0.012974 -0.016612 -0.043368 0.019655 -0.032508 -0.041887 -0.041647 -0.022921 -0.110068 -0.097698 -0.033885 -0.045049 0.026221 -0.00925 -0.041737 0.005728 -0.010307 -0.006396 -0.018249 0.01627 -0.006209 -0.026042 0.00397 0.108804 0.010317 -0.178115 -0.054185 0.015941 -0.065441 0.067983 0.000785 -0.034569 -0.034494 -0.00414 0.026911 0.002108 0.07376 0.038302 0.025627 -0.109078 0.002987 -0.020183 0.058584 0.146634 -0.041643 0.0648 -0.095832 0.052257 -0.036301 0.006972 0.01626 -0.039825 0.04553 -0.086181 -0.06619 0.064114 -0.068573 -0.004193 -0.114363 -0.073516 -0.035725 -0.082828 0.025282 -0.015441 -0.031891 -0.014146 0.059171 0.034132 0.034472 0.07259 0.023726 0.02208 -0.093016 0.10041 0.036379 -0.036455 -0.057076 -0.230319 -0.010454 -0.030257 -0.090164 -0.017977 -0.026816 0.046683 -0.059131 0.009035 -0.021248 0.001567 0.006099 0.033389 -0.025081 -0.034653 0.042666 0.012505 -0.136213 0.037047 -0.14214 0.028728 0.029458 0.012739 0.156478 0.060789 -0.005977 0.013258 -0.043651 -0.057349 -0.039034 -0.01359 -0.194954 0.085346 0.107089 0.097028 0.056174 0.039317 0.050186 -0.013766 -0.126768 0.002044 -0.159203 0.063863 -0.008163 -0.040272 0.15492 -0.035272 -0.027142 -0.024701 -0.054854 -0.000958 0.068378 0.024498 0.017553 -0.052667 -0.010043 -0.040299 0.043608 0.034035 0.019112 0.189528 -0.153214 -0.014847 0.146507 0.019994 0.092884 0.001493 0.035093 -0.027523 0.032746 0.026363 0.018781 -0.035097 0.024994 0.00511 0.036319 0.070956 -0.027596 -0.033488 -0.01619 -0.009059 0.006269 0.008124 0.002729 0.048824 0.014107 0.010222 0.088195 0.061793 0.064616 0.131054 -0.342935 0.100474 -0.075474 0.037404 -0.000521 -0.007732 -0.009401 0.049191 -0.054962 0.018123 -0.06729 0.10746 0.121433 0.015829 0.017455 -0.095227 -0.031689
  0.010014 -0.099903 0.0481 0.066908 0.022761 0.050575 -0.002749 0.038878 0.057387 -0.061991 -0.032226 -0.122376 -0.036957 -0.099745 0.067483 0.008322 -0.046866 0.067146 0.092616 -0.030464 0.086157 -0.131979 -0.005824 0.006481 -0.025193 0.117574 -0.13558 -0.017394 0.018894 -0.005337 -0.054656 0.029632 -0.106639 0.028186 0.001764 -0.010721 -0.032876 0.027685 -0.0849 -0.023804 -0.074217 0.038668 0.032559 -0.00078 -0.07227 0.02395 -0.184938 -0.09008 -0.095107 -0.017983 -0.023871 0.027565 0.002539 -0.008212 -0.007751 0.061182 0.100191 -0.041514 -0.011866 -0.072466 0.107063 0.040672 0.005415 0.061095 0.042652 0.05412 -0.257747 -0.003592 0.107361 -0.064288 0.095318 -0.115499 -0.015391 -0.020981 0.023729 0.057204 0.091206 0.051766 0.012416 -0.047664 0.008934 0.059087 -0.094699 -0.049435 0.012502 0.059477 0.020165 -0.105493 -0.002322 0.066266 -0.033825 0.009652 -0.065079 0.046126 0.00282 -0.063824 -0.044255 -0.003149 -0.025601 -0.098039 -0.014031 0.05321 -0.01925 -0.068151 -0.118121 -0.03566 -0.001585 0.000622 0.077363 0.011564 0.008955 0.019842 0.056827 -0.077012 -0.009264 -0.11053 0.03444 -0.061199 -0.025108 0.02091 0.049947 -0.036402 0.058845 0.013197 0.048178 0.023767 -0.090101 0.023305 -0.030997 -0.005939 -0.013053 -0.004252 0.03696 -0.068766 0.06643 -0.007375 0.024418 -0.07487 0.091445 0.001503 0.009173 -0.108184 0.097119 -0.070007 -0.003784 0.0124 -0.039886 -0.057255 -0.020181 0.030874 -0.026557 -0.051844 -0.060134 -0.091517 0.066843 0.159045 0.016408 0.043143 -0.018866 0.071393 0.012237 -0.015221 -0.103544 0.025571 -0.033117 0.00249 -0.007616 -0.021087 0.000399 0.026009 -0.021291 0.05403 0.117895 0.006636 0.065447 -0.021812 -0.057709 0.074563 -0.031526 -0.025349 -0.02092 0.021299 0.001306 0.000832 -0.07889 7.6e-05 0.10279 -0.01333 0.029772 -0.024529 -0.091365 0.004074 0.021294 -0.12273 0.012529 -0.004664 0.027109 0.016198 0.004417 0.016196
  0.003296 0.046539 0.095013 0.036312 0.025126 0.027138 0.066472 0.010349 0.114534 0.046014 0.151527 -0.104907 0.09751 -0.094433 0.011621 0.013931 0.003674 0.008919 0.142585 -0.008241 -0.049561 -0.101982 0.020388 -0.048114 -0.002896 0.014755 -0.077452 0.018316 -0.042223 -0.022848 -0.060953 -0.021719 0.055646 -0.014452 0.075558 -0.0893 -0.039505 -0.005114 -0.169724 -0.055665 -0.088798 0.028469 0.031077 -0.063217 -0.083358 0.044653 0.007978 0.100779 0.0509 -0.011356 0.072683 -0.038637 0.058202 -0.02889 -0.020071 0.009931 -0.006461 0.012138 0.065662 0.045565 -0.013094 0.089629 0.04092 -0.022047 -0.020169 0.03085 -0.144572 -0.007414 0.054138 0.066378 -0.064736 -0.045162 -0.094103 -0.09681 -0.021124 -0.007261 0.046594 0.053304 -0.028322 -0.000349 0.111933 0.01047 0.03023 0.02712 0.065033 0.037788 -0.026205 0.115057 0.092895 0.056259 -0.098802 0.135841 0.058976 0.035214 -0.058072 -0.040384 0.023663 -0.092055 0.044352 0.012027 -0.016547 -0.001905 -0.014661 0.008026 0.000975 -0.006639 0.01511 0.070968 -0.011882 -0.085453 0.035881 0.142606 0.034406 -0.000967 0.047381 -0.045645 -0.028148 0.031061 0.014807 -0.076187 0.026157 -0.023862 0.004425 -0.046348 0.062568 0.052021 0.009134 0.034798 -0.093968 -0.044239 0.039042 -0.02284 0.029404 -0.046855 -0.029129 0.054365 -0.000565 -0.128326 -0.041461 -0.028278 0.072041 -0.056739 0.075617 -0.001815 0.043869 -0.086254 -0.030377 -0.059129 -0.062465 0.050055 0.050272 -0.060034 -0.006435 0.008181 0.079766 -0.05481 0.007586 -0.241361 -0.033727 -0.09583 -0.037996 -0.010704 0.065635 0.058557 -0.038503 -0.049678 -0.013919 0.088422 -0.154767 -0.060538 -0.023607 -0.015765 -0.119789 -0.035604 0.060018 -0.002023 0.008966 -0.027005 -0.042569 0.00181 0.034869 -0.024503 -0.005387 0.149817 -0.089801 -0.00261 0.017222 0.036334 0.032057 0.016563 -0.041755 0.031766 0.026143 -0.139823 0.05436 -0.026778 0.083585 0.042787 0.016721 -0.020596
  -0.038383 -0.011137 -0.075403 0.020251 0.024092 0.033592 -0.075472 0.023721 -0.088056 -0.005165 0.070196 -0.125948 -0.046805 -0.152361 -0.061851 0.001692 0.015854 0.05645 0.023447 -0.025893 0.047676 -0.053205 -0.01494 -0.043077 -0.043352 -0.068007 0.008933 0.040925 0.011329 0.015041 -0.010665 0.008483 -0.043036 -0.011711 0.064357 -0.048236 -0.056349 0.052347 -0.011987 0.01287 0.063703 -0.060441 0.026888 0.075672 0.034107 0.058155 -0.131437 -0.057042 -0.033287 -0.023608 0.000857 0.084877 -0.00234 0.000929 -0.143752 0.11477 -0.071987 0.000333 0.012457 0.012719 0.047498 -0.006654 0.061091 -0.030848 0.018267 0.059827 0.047067 -0.024631 0.086283 0.10701 0.002493 -0.171384 -0.038686 0.07793 -0.009412 -0.069338 0.074332 0.011853 0.041517 0.064864 -0.050593 0.005245 -0.154638 -0.027957 -0.068372 -0.11947 0.060588 0.056886 -0.058925 -0.119873 -0.013617 -0.077845 -0.193629 -0.011126 0.02679 0.007471 0.000286 0.017632 0.055831 0.004165 -0.026286 0.036306 0.045262 -0.011998 0.019032 0.018454 -0.013861 -0.044943 -0.012639 -0.017372 0.051459 0.13696 -0.038762 0.031087 0.050885 0.056313 0.023878 0.024303 0.012238 -0.036176 0.081392 0.081811 0.023931 0.033076 -0.012082 0.055975 -0.028595 0.013435 0.034033 -0.102073 0.00705 -0.010266 -0.038469 -0.036155 0.138727 -0.04927 0.066053 -0.175478 -0.058 -0.100731 0.149735 0.020186 -0.018945 -0.004259 0.049888 0.020422 0.0291 -0.027992 -0.012605 0.054249 -0.161221 -0.058674 -0.019308 -0.03082 -0.025885 -0.146628 -0.062722 0.161273 -0.088325 -0.150143 -0.010692 -0.073135 -0.023374 0.035141 -0.036884 0.017918 -0.033223 -0.013508 0.00403 -0.022104 -0.063053 0.103878 -0.098157 -0.00575 0.037045 0.00354 0.08222 0.008339 -0.132966 0.069198 -0.029648 0.153084 0.023652 0.065969 -0.131478 -0.141812 0.058958 0.030285 0.052121 -0.043048 0.047039 0.025871 0.037859 -0.007431 0.016911 0.000863 0.084107 -0.003262 -0.007244 -0.021103
  -0.155658 -0.156204 -0.000207 -0.0676 0.067411 -0.017971 0.007065 0.038057 -0.096633 0.066758 -0.07357 -0.064423 -0.068383 -0.054704 -0.032677 0.001749 -0.024042 0.026734 0.013318 -0.072303 0.119665 0.063963 0.032638 -0.030841 0.101364 0.016799 0.057024 0.026259 -0.042339 0.023529 -0.043691 0.068698 0.069591 0.050461 0.04459 -0.001727 0.04132 -0.03739 0.031409 -0.010573 -0.058516 0.012852 0.055549 0.044992 -0.034366 -0.103283 -0.15295 0.110917 -0.133691 0.04003 0.042781 0.005071 0.017019 -0.022329 -0.135685 0.070593 -0.000405 -0.050706 -0.077175 -0.036698 -0.015962 0.088226 -0.067834 0.034452 -0.027142 -0.048081 0.001162 -0.123078 -0.094982 -0.055032 -0.064022 -0.274926 -0.00087 0.039183 -0.018969 -0.038291 0.006723 0.00015 0.073911 0.018151 -0.000799 -0.011351 0.047199 0.036328 -0.016458 -0.058037 -0.046972 0.066111 -0.039492 -0.068356 -0.031423 -0.172855 -0.059369 0.037715 -0.026704 -0.019581 0.057599 -0.04326 0.050319 -0.034203 -0.107701 -0.041325 0.011421 -0.046249 0.009632 0.030325 -0.045524 0.028438 0.049773 -0.005597 -0.021541 -0.015082 -0.041342 -0.053123 0.004455 -0.102415 -0.038677 0.010569 0.033512 -0.031123 -0.121144 -0.006192 -0.029339 0.137223 -0.011637 0.083451 -0.03609 0.045615 -0.026994 0.004174 0.019341 0.021067 0.055056 -0.110988 -0.016843 -0.118372 0.086623 0.084496 -0.179379 -0.013482 0.071086 0.011372 0.070777 -0.039292 -0.007793 -0.05986 0.028718 0.035373 0.00989 0.018315 0.068349 -0.020822 0.038025 -0.036218 0.00881 -0.030749 -0.035427 -0.089469 0.09865 0.010844 -0.04024 0.051718 0.024255 0.000917 -0.043798 -0.04393 -0.017703 -0.18308 0.098026 -0.086076 0.060893 0.014253 -0.052339 0.010436 -0.01666 0.019926 0.048562 0.028252 0.011268 0.051943 0.041628 0.027715 0.135244 0.067578 -0.062695 -0.033931 -0.0156 0.07185 0.023293 -0.116869 -0.008881 0.01923 0.0195 0.034033 0.019829 -0.110919 -0.079087 0.038376 -0.006012 -0.118751
  -0.062106 0.067179 0.006132 -0.020683 -0.032463 -0.043352 -0.061284 -0.02925 0.064852 0.051079 1.9e-05 0.047502 0.131735 0.036162 -0.108475 -0.005557 0.00364 -0.083411 -0.032541 0.006996 0.057849 -0.077962 0.083382 -0.001079 -0.028812 0.020228 -0.107943 0.047722 -0.055518 -0.038555 0.055967 0.068003 0.062787 0.024814 -0.058113 0.111747 -0.057492 -0.037214 0.090713 0.016761 -0.119326 0.007048 0.042895 -0.005315 -0.144597 -0.080455 -0.415848 0.06879 0.07259 0.114557 -0.018867 0.018195 0.006262 0.012316 -0.025213 -0.004832 -0.171854 0.020074 -0.122159 0.001039 -0.111704 0.054186 0.046958 -0.057058 0.051957 0.048846 0.12021 0.036049 -0.021877 0.036011 -0.111607 0.016141 -0.038627 -0.035382 -0.02356 0.069408 0.060798 -0.012873 0.016454 -0.05798 0.056093 0.022503 0.177981 0.035712 -0.017602 -0.027339 -0.046373 -0.09605 -0.001267 -0.063894 -0.051134 -0.148696 0.037187 -0.055985 -0.083463 0.049264 0.078352 0.03041 -0.195772 0.136364 0.049642 0.015732 0.030017 0.015407 -0.026476 0.030304 -0.004116 0.007317 -0.067102 -0.110709 -0.025338 0.10257 0.013908 -0.049891 0.014273 -0.009165 0.068435 -0.10793 0.001452 -0.018618 0.107243 0.043949 0.116856 0.01374 0.008872 -0.016813 0.046863 0.001574 -0.040318 -0.011743 0.008972 0.145837 -0.011824 0.015273 -0.090044 0.019646 0.016315 -0.044304 0.145124 0.034808 -0.026655 0.034004 -0.046821 0.016858 -0.056938 -0.138062 -0.00951 -0.039225 0.00535 -0.04036 0.077043 -0.007087 -0.046147 0.068134 -0.009043 0.138596 -0.004897 -0.145625 -0.010556 0.069809 -0.028585 -0.070582 -0.027425 0.044105 0.054046 -0.013882 -0.061064 0.050779 0.181929 -0.041626 0.015637 0.044936 0.108495 0.014223 0.092398 0.007767 0.218431 -0.003259 -0.043787 -0.029101 -0.072183 -0.026773 0.020185 -0.121582 -0.001703 0.07942 -0.044096 0.133336 -0.006171 -0.105424 0.033283 0.040511 -0.007325 0.04146 0.038611 -0.06088 -0.127035 0.006314 -0.094356 -0.069391
  0.004761 0.110784 -0.014008 -0.006317 -0.036071 -0.105518 -0.021792 0.16866 -0.036432 -0.027955 0.003717 0.010633 -0.20029 -0.110963 -0.122038 -0.041212 -0.000595 -0.045341 0.169107 0.066374 -0.010065 0.073015 0.009086 -0.019304 0.036279 -0.055761 -0.118439 0.028893 -0.065464 -0.056172 -0.044169 -0.059467 -0.018817 -0.031911 -0.046406 0.003567 -0.144811 -0.029554 0.009107 0.028662 0.05847 0.061715 0.012119 0.094651 0.069404 -0.107811 -0.236329 0.002113 0.08181 -0.049339 -0.046709 0.069394 0.127383 0.022361 -0.130579 0.113781 0.075625 -0.059336 0.073377 -0.086488 -0.003299 -0.014418 -0.038244 0.021248 0.029078 0.051332 0.004098 -0.091576 0.091299 0.045428 0.018713 -0.0233 -0.013113 0.072608 0.038178 -0.039507 -0.2041 0.063374 -0.038045 -0.031215 -0.041704 -0.067835 -0.034459 -0.028712 0.087284 -0.060677 0.084319 -0.020195 -0.021869 -0.011177 -0.086488 -0.035916 -0.106369 -0.140571 0.011357 -0.032329 0.03288 0.026213 0.151488 0.020609 0.075231 0.041772 0.069425 -0.022093 -0.045202 -0.052029 0.089597 -0.00404 0.045946 -0.161352 -0.007076 -0.034406 -0.026939 0.037483 -0.025936 -0.013748 0.048581 0.13926 0.056114 -0.019051 0.089429 0.041028 0.022956 -0.032336 -0.043418 -0.010755 0.003312 0.05735 0.031516 0.051761 -0.051346 -0.03846 -0.076152 0.024244 -0.234534 -0.070374 -0.060136 0.010333 0.10274 -0.073423 -0.015664 0.013396 -0.032019 -0.002341 0.004282 -0.034714 0.115692 -0.062696 0.123758 0.065936 -0.042593 0.047186 0.097839 -0.059193 0.071681 0.060782 0.046951 -0.001626 0.002404 -0.031727 0.078346 0.100111 -0.024536 -0.029044 0.029307 0.095982 0.008549 -0.052335 -0.104165 -0.071014 0.045382 0.022971 0.139589 0.01634 3.9e-05 -0.038854 -0.111183 0.022527 -0.046498 0.065213 -0.082193 0.074986 0.001498 -0.02673 0.105419 0.014014 0.029058 -0.019891 -0.027183 0.056765 0.139223 0.006394 -0.048393 -0.064116 0.008575 -0.119262 -0.133853 0.076371 -0.0464 -0.032725
  0.039962 -0.130752 -0.013527 -0.039451 -0.032087 0.060921 -0.012086 -0.034018 0.055991 -0.010349 0.07552 -0.186112 -0.007744 0.047757 -0.051052 0.021839 0.027263 -0.050754 0.086943 0.002643 0.018102 0.112704 0.031866 -0.013511 -0.056766 0.053066 0.041508 -0.020016 0.097253 0.000529 0.085308 -0.012371 -0.081327 -0.064165 -0.073709 0.030321 -0.005211 -0.097545 -0.038101 -0.021154 0.063959 -0.001826 -0.014726 -0.107457 -0.094186 0.052876 -0.169842 0.194341 0.070111 -0.02978 -0.011839 0.036898 -0.165535 -0.022004 0.080135 0.108315 -0.231204 -0.053543 0.008628 0.10606 -0.054918 0.001998 0.01114 -0.056425 -0.027906 -0.017791 0.051107 0.002971 -0.018938 0.027619 -0.196135 -0.174046 -0.018391 0.076944 0.015086 0.007793 -0.077207 0.018336 0.022379 -0.064424 -0.001848 0.03166 -0.13223 0.075356 0.024099 -0.021884 -0.032134 -0.007535 -0.036817 -0.046928 -6.4e-05 -0.024797 -0.137781 -0.095886 0.004969 -0.00554 0.023745 -0.037582 -0.038071 0.011544 -0.147887 0.034714 0.02551 -0.016769 0.024777 0.028969 -0.082337 0.01168 -0.117406 -0.125747 -0.004999 0.135865 -0.12758 -0.022549 -0.056813 0.057587 -0.029821 0.0936 0.044187 -0.018872 0.020355 0.024597 -0.000531 -0.042917 0.048081 0.064565 0.052319 -0.027192 0.003443 0.033731 0.011304 -0.028479 -0.047828 0.107903 -0.089736 -0.029504 -0.108731 -0.047549 0.114804 -0.027872 0.012918 -0.075459 0.029526 -0.091034 0.11173 0.021924 0.053173 -0.018388 0.053431 -0.039179 -0.035198 -0.153909 0.075502 0.001945 0.028022 -0.077313 0.087121 -0.016803 0.068216 0.088734 -0.078408 -0.09747 0.05812 0.059625 0.088426 -0.082937 -0.007833 0.002473 0.165024 0.007173 0.042546 -0.000397 -0.186291 0.093063 0.065175 0.004891 0.107066 -0.108511 -0.002328 -0.045657 -0.137695 -0.024191 0.047912 0.047907 0.10976 0.043207 0.018922 0.025056 0.071294 -0.035517 -0.15336 -0.026628 0.015236 -0.011451 -0.019094 -0.002798 -0.042829 0.037657 0.012931 0.101902
  -0.043844 0.12476 -0.041678 -0.00122 -0.058997 0.00688 0.095525 0.053232 0.062285 -0.088834 -0.156957 -0.169046 0.0372 0.030919 0.05405 0.024821 -0.031888 0.060677 0.036714 -0.022946 -0.033557 -0.034538 -0.073225 0.011008 -0.086988 0.035872 -0.140598 0.024874 -0.029015 -0.047557 0.036806 0.092893 0.012771 -0.007194 0.023284 0.006239 -0.048082 -0.04116 0.046019 0.005447 0.042205 0.046498 0.017414 0.097358 0.082455 0.082547 -0.052696 -0.03181 0.017091 0.057589 -0.042751 -0.020908 -0.021211 0.014563 0.001509 0.059776 -0.208806 -0.009101 -0.082337 0.0243 0.0451 0.002515 -0.040631 0.05134 0.073098 -0.075135 0.117441 -0.072015 -0.22657 -0.035497 -0.004787 -0.082376 0.011917 -0.033834 -0.042699 -0.058299 0.033418 -0.134736 0.003038 0.004196 -0.022259 -0.014041 0.065409 -0.08497 -0.010056 -0.087422 0.018705 -0.113412 -0.064279 0.059495 0.011652 0.008666 -0.04823 -0.032753 0.060179 -7.8e-05 -0.051562 -0.110686 -0.021554 0.088919 -0.115363 -0.024403 0.034132 0.046368 0.035024 0.021479 -0.074922 0.003117 0.021108 -0.002782 0.096451 -0.072439 -0.016614 0.049202 -0.043241 -0.074519 0.048266 -0.045595 -0.019798 -0.042581 -0.028353 0.02356 0.030989 0.076029 0.012019 0.15547 -0.054748 -0.080073 -0.034652 -0.101981 -0.022392 -0.01755 -0.023715 0.071994 0.054524 0.001531 -9e-05 0.086047 -0.009406 0.121547 -0.04325 -0.003221 -0.054193 0.094355 0.019814 0.028565 -0.175824 -0.013836 -0.053817 0.006345 0.00404 0.080778 -0.147115 -0.009471 0.028756 0.090043 0.009329 -0.050197 -0.03401 -0.048853 0.094732 -0.001942 0.035688 -0.041725 0.007194 0.040261 -0.015539 -0.029236 0.009129 -0.245486 0.027848 0.015479 -0.007875 0.000334 -0.018058 0.028669 0.065978 0.026446 0.030838 -0.050722 -0.120069 -0.017999 0.020981 -0.129607 0.040326 -0.011085 0.076461 0.046402 0.026623 0.099996 -0.040269 0.043483 -0.025659 0.012755 -0.001505 0.000321 0.022924 0.010362 0.029809 0.086255
  -0.000463 0.082136 -0.060422 -0.058925 0.001177 -0.031881 0.003792 0.004814 0.083351 -0.042745 -0.093602 -0.06608 0.075451 -0.136836 0.045736 -0.042101 0.006499 0.02539 -0.012532 -0.000852 0.100595 0.021081 -0.000231 -0.072431 0.007034 0.034311 0.088784 0.029228 -0.036272 -0.039004 -0.110885 0.011765 0.04488 0.019118 -0.083187 -0.029877 -0.082443 0.037663 -0.157566 -0.035176 0.008761 -0.01758 -0.048425 0.020928 0.005513 0.120557 -0.115158 -0.070471 0.084428 0.067588 -0.012091 0.033998 -0.023739 -0.046552 0.14213 0.037264 -0.040416 -0.071666 0.052978 -0.013857 0.108652 -0.119861 -0.075928 -0.031767 0.061763 0.009925 -0.032187 0.008914 0.066807 -0.028846 -0.038635 -0.061434 -0.032562 -0.019918 -0.077715 0.032007 -0.030501 -0.140516 0.014477 -0.035119 0.15857 -0.030582 0.140168 0.039131 0.025446 0.063275 0.013391 -0.057279 -0.018304 -0.035852 -0.020371 -0.042153 0.066596 -0.057258 0.085425 -0.06466 -0.070906 -0.082529 0.057891 0.046735 -0.119202 0.018931 0.040115 0.002906 -0.00856 0.071499 0.014975 0.049377 -0.037061 -0.177465 0.096465 0.005734 0.015254 0.011808 -0.054355 0.114059 0.092961 -0.058021 -0.069946 0.011258 0.004574 0.049637 -0.050225 0.040563 -0.04086 0.124147 0.024668 -0.143574 -0.107946 0.00396 0.00475 -0.051868 -0.02223 -0.057694 -0.136655 0.004331 -0.059292 -0.076743 0.080538 -0.006073 -0.004514 0.032099 -0.120108 0.006207 0.054638 -0.125389 0.068821 0.005282 -0.05322 0.001653 -0.039188 0.096566 -0.03282 -0.0086 0.032845 0.127473 -0.00401 -0.153883 0.039214 -0.063105 -0.053814 -0.046394 -0.004239 -0.09971 0.038058 -0.044875 0.008217 0.035151 -0.049151 -0.076772 -0.008092 0.018456 -0.100772 0.026852 0.057241 0.023808 0.096487 -0.110471 0.065924 -0.062821 -0.083065 0.061256 -0.081248 0.09211 0.01499 -0.012839 0.097845 0.071517 0.02509 0.039811 0.022672 -0.050882 0.008775 -0.000792 -0.106415 0.016242 0.054952 0.062464 -0.022019 0.055916
  -0.053986 -0.039922 -0.070063 -0.036356 0.000315 0.04424 0.062654 0.031231 0.148127 -0.010206 0.042488 -0.120269 0.057904 -0.200698 0.001175 -0.008948 0.085994 0.02181 0.001363 0.003525 0.001861 0.016921 -0.037164 -0.061267 -0.102967 0.006856 -0.089192 -0.013261 0.008945 -0.055552 -0.051212 -0.107354 0.043872 0.013514 0.011442 0.049226 -0.05043 -0.057686 -0.071788 -0.007135 -0.12179 -0.005014 0.037372 0.021058 0.038826 0.110282 0.013167 0.024192 0.049861 -0.014028 -0.035352 0.016695 0.052157 0.009977 -0.096287 0.04995 -0.151784 -0.01281 0.013839 -0.003538 0.134224 -0.076008 0.010839 -0.092607 0.019821 0.051103 -0.164365 0.032664 0.009277 -0.030428 0.006323 0.150453 -0.009252 -0.036248 0.038058 -0.120751 0.07045 -0.095352 -0.015948 0.023046 -0.03558 -0.016795 -0.121575 0.012165 0.003748 0.051063 0.008698 -0.1257 0.047717 -0.088353 0.095427 -0.03379 -0.025656 0.027834 0.101522 -0.025829 -0.110801 -0.024181 -0.09671 0.025866 -0.11189 -0.024895 -0.0353 -0.009045 0.018779 -0.053167 0.005361 0.042673 0.008137 0.019069 0.047991 -0.070311 -0.021558 0.049818 -0.040575 0.111871 -0.083124 0.03866 0.012642 -0.025671 0.031897 0.022726 0.035903 -0.110219 0.041424 0.03016 0.089899 -0.148999 -0.029728 0.031217 0.007912 0.019812 0.026502 -0.154738 0.092804 0.075883 0.03512 -0.115722 0.058315 0.023373 0.138867 0.05778 -0.056384 0.129334 -0.072883 0.053532 -0.067635 0.100993 -0.030035 0.044077 0.034685 0.03277 0.025334 0.042602 -0.011969 0.065605 -0.009221 0.007521 0.018581 0.141035 -0.079731 -0.037961 0.036037 0.06024 -0.050521 0.057683 0.021569 0.050342 -0.014677 -0.023498 0.014754 0.037607 -0.202133 0.092163 0.082137 -0.007349 0.110327 0.065344 0.020968 -0.052417 0.048739 -0.033793 0.003519 0.034314 0.247881 -0.103387 0.07119 0.009891 0.011879 0.02051 0.046661 -0.01797 -0.048997 -0.111279 -0.014272 -0.049527 -0.057954 0.116772 -0.025127 -0.052246
  0.072517 -0.187807 -0.006052 0.024125 0.013429 -0.033677 -0.068532 -0.102728 -0.120615 -0.031279 -0.044671 -0.086831 0.02739 -0.017001 -0.164944 -0.090345 0.069524 -0.079214 -0.180981 0.034939 0.092675 -0.017376 0.048405 -0.072241 -0.028455 -0.042358 0.118115 -0.01397 -0.013309 0.108095 0.002721 -0.06176 -0.098087 0.001598 0.026026 0.00146 0.050641 -0.026746 0.115417 0.027346 -0.064589 -0.10254 -0.065963 -0.051063 -0.057156 -0.006533 -0.067854 0.03991 -0.012207 -0.020099 0.033786 -0.023877 -0.179856 0.016414 0.06538 -0.044303 0.045993 -0.141384 -0.079743 -0.029761 0.075963 0.021199 0.060657 -0.037503 -0.019507 -0.01798 -0.001658 0.05869 -0.066744 -0.133908 0.097123 0.024092 -0.02198 -0.069024 -0.116029 -0.114172 0.105621 0.094787 0.076463 -0.056273 0.057072 0.098084 -0.053188 0.054618 0.029258 0.144069 -0.074499 -7e-05 -0.106019 -0.048379 0.039749 0.068876 -0.06202 -0.056066 -0.012595 0.030259 -0.022929 0.031066 -0.067303 0.101725 0.026151 0.102732 -0.147535 -0.063328 0.028856 0.046168 -0.048594 -0.066973 0.01251 0.128129 -0.045888 0.013704 0.0753 0.045964 0.025773 0.066608 -0.011488 -0.135497 -0.117549 -0.053607 0.053921 -0.037889 0.001378 -0.096856 0.113963 -0.114713 0.059678 -0.113665 0.025946 -0.042103 -0.006378 -0.093221 -0.019603 0.129218 0.244884 -0.051541 0.010948 -0.165001 0.006456 0.054714 0.184704 0.038879 0.081719 0.015356 -0.064695 0.063577 -0.028945 0.057766 -0.05353 -0.030923 0.088816 0.064829 0.090848 -0.025897 0.083746 -0.225164 0.034871 -0.027015 0.080608 0.132506 0.058785 0.045708 0.030414 0.102718 -0.016835 0.080306 0.087952 0.04384 0.198945 0.017853 -0.004124 -0.09434 0.065246 -0.071634 -0.004459 -0.030422 0.08561 -0.015677 0.000532 0.022507 0.019536 -0.004505 -0.066434 0.015441 0.228604 -0.155605 -0.090066 -0.150838 0.093048 -0.063422 -0.077698 -0.067424 0.051112 0.212512 0.062952 -0.03078 0.049713 -0.052617 0.015572 0.039965
  0.043943 -0.007897 0.03113 -0.057394 -0.107488 -0.005208 -0.063811 -0.1139 -0.095032 -0.050235 -0.066091 0.07476 0.006283 -0.15796 -0.047596 0.007588 0.025363 0.019106 -0.209259 -0.020686 0.062806 -0.011181 0.101954 -0.09511 0.067179 -0.003475 -0.16066 -0.021975 -0.009847 -0.013347 -0.000227 0.047972 -0.146644 -0.008568 -0.015507 -0.040317 0.015824 0.096171 0.147401 0.0537 -0.136034 -0.029245 0.061016 -0.016525 -0.031945 0.069741 0.145705 0.006054 0.149142 -0.054207 0.003535 0.078834 -0.003431 0.060619 -0.053808 0.013881 -0.080284 -0.035532 0.087671 -0.035576 0.079214 0.018836 0.085854 0.060985 -0.042346 0.009454 -0.100175 -0.201119 0.15406 0.03659 0.06133 0.035167 0.006492 0.036246 0.011372 0.010869 -0.006121 0.021645 0.016814 0.089695 -0.095631 0.069198 0.102205 0.00216 -0.032354 -0.058058 -0.123125 0.14621 0.049021 -0.156557 0.083666 -0.016403 -0.100865 0.013149 0.061475 0.030636 -0.031102 -0.038696 0.09581 0.050245 -0.04852 -0.033937 0.006809 0.005414 0.013792 -0.124568 0.025668 -0.022231 0.13845 0.008056 0.149277 0.17904 -0.074888 -0.126225 -0.007581 -0.089836 -0.079281 0.030607 0.026597 0.0262 -0.153813 -0.163926 -0.0376 -0.10143 -0.089435 0.028637 -0.047268 0.029952 -0.046536 -0.003733 -0.002723 -0.009384 0.043611 -0.070529 -0.1011 -0.116248 0.065077 -0.173022 0.030534 -0.025841 0.017046 -0.144289 -0.066128 0.039713 -0.013449 0.010948 0.141199 -0.006744 0.040627 -0.017668 -0.022881 -0.1369 0.145344 -0.083725 0.025375 -0.089855 -0.023791 -0.061617 -0.012193 -0.038961 -0.015245 -0.021939 -0.032881 -0.09928 0.064181 0.003071 0.028237 0.038997 -0.020816 -0.011921 -0.061827 0.065331 -0.300435 -0.046622 0.066592 -0.142439 0.101042 0.109894 0.057532 -0.035744 0.191216 -0.011379 0.12948 -0.027382 -0.034266 0.0038 0.083203 -0.084293 0.068954 0.011956 0.226075 0.041543 -0.064722 -0.136402 0.071192 0.022341 -0.159824 0.036001 -0.056246 0.001192
  -0.067276 0.062047 0.028562 -0.023398 0.05656 0.015165 -6.4e-05 0.100263 0.064882 0.112828 -0.127789 0.078812 -0.144397 -0.054595 0.044242 0.009853 -0.018734 -0.058031 -0.177922 -0.117307 -0.056512 0.085286 -0.021191 -0.127389 0.0195 0.01997 -0.105207 -0.094344 0.008081 0.000119 0.056664 0.121389 0.102921 -0.134625 0.082711 0.024028 -0.01575 -0.066385 -0.019812 0.065958 0.058882 0.053254 -0.016153 -0.037552 -0.066648 0.109268 -0.177493 0.034576 -0.061865 0.030411 0.040237 -0.072588 -0.060865 -0.084611 -0.004969 0.161377 -0.050105 0.059819 -0.100404 -0.058287 -0.211032 0.00245 0.033547 -0.015297 0.002643 0.08128 -0.148962 -0.045396 0.150201 -0.081552 0.205955 0.05049 -0.045262 0.125236 -0.125973 0.13948 -0.066443 -0.008559 0.103387 -0.099479 0.012262 -0.044626 0.149801 -0.026658 0.104741 0.066423 -0.059639 -0.032588 0.154217 0.042114 0.030018 0.241931 -0.026476 -0.005743 -0.050933 0.080471 -0.045743 0.050945 0.063938 0.054094 -0.012792 -0.097938 -0.032724 0.04069 0.016759 -0.016234 0.011802 -0.006866 -0.072202 0.049573 -0.018112 -0.046811 0.011355 -0.021102 -0.052821 -0.170673 -0.11068 0.093346 0.055684 -0.064251 -0.120772 -0.138204 0.034449 0.001214 -0.080996 0.091168 -0.140707 0.104399 -0.005408 0.157738 -0.051961 0.026167 -0.008004 -0.057949 0.150842 -0.061505 -0.054156 -0.056316 0.055218 -0.053437 -0.130552 -0.17644 0.142913 0.089998 0.121208 0.028454 0.041915 0.04295 -0.048086 -0.049098 -0.018855 0.074335 -0.141007 0.053163 -0.046154 -0.144845 -0.012959 0.013178 0.032328 0.004305 0.021725 0.054726 -0.031176 0.076342 0.006735 -0.064083 -0.044258 -0.191402 -0.016949 -0.069082 -0.002257 -0.033833 -0.020192 -0.027203 0.012992 0.016755 0.004863 -0.13366 -0.168147 0.072027 -0.008995 -0.005437 -0.180829 0.003101 -0.319369 0.101048 0.096844 -0.120331 -0.044533 -0.101148 0.075127 0.10772 -0.010453 -0.081766 0.064596 0.046095 0.100942 -0.145646 -0.032024 0.002534
  0.0318 -0.197179 0.029515 0.071281 0.005525 0.010506 0.009414 0.007947 -0.014907 0.097427 -0.120082 -0.158465 0.048108 -0.033196 0.057315 0.007169 -0.131711 -0.149418 -0.032336 0.111543 -0.084248 -0.020195 0.009206 -0.14722 0.045672 0.001664 -0.057284 0.028259 -0.061807 0.021621 -0.095049 0.117117 -0.099821 -0.050722 0.010191 -0.026855 -0.041547 -0.038155 0.135123 0.05685 -0.007805 0.066827 -0.065477 -0.070046 0.073685 0.262235 -0.006644 0.127231 0.127845 0.076335 0.084314 -0.072404 0.078719 0.018375 0.010288 0.07379 -0.183427 -0.046059 0.078516 0.081161 -0.051605 -0.032244 0.010683 0.031247 -0.068938 -0.000319 -0.128334 -0.129659 0.021194 -0.056437 -0.022094 -0.194865 -0.036443 0.010447 0.106571 0.041671 -0.039891 -0.050316 0.005005 0.005583 0.018371 0.008144 0.149959 0.005908 -0.014534 -0.127583 -0.06145 0.046505 0.079099 -0.127056 0.035373 -0.011441 0.182565 -0.050361 0.066281 0.086058 0.019172 -0.070353 -0.082208 0.167267 0.063424 0.039147 -0.043132 -0.074046 -0.024526 -0.01958 0.022205 -0.116687 0.082128 0.010483 0.03984 -0.011339 -0.04217 -0.110762 0.088233 -0.254684 0.081179 -0.010726 0.003995 -0.066797 -0.20508 -0.000951 -0.073952 -0.020531 -0.248078 -0.108994 0.019662 0.049443 0.072364 0.072022 0.04554 -0.074279 -0.014403 -0.038859 -0.042973 0.052583 -0.006604 -0.124293 0.06443 -0.004155 0.071462 -0.054795 -0.05369 -0.136534 0.046774 -0.057315 0.100751 0.060442 -0.014212 -0.088417 -0.174276 0.100713 0.16122 0.009852 -0.001104 0.116441 0.033543 0.12154 -0.013642 0.001406 0.016739 0.012321 -0.010492 -0.212473 -0.084452 0.077547 0.010139 0.048579 0.089726 -0.065547 -0.047984 0.010882 -0.093832 0.007323 0.073405 -0.065229 -0.033142 0.043027 0.008914 0.050801 -0.036388 0.028533 -0.010458 -0.166005 0.013128 -0.075631 -0.105964 -0.123384 0.031906 0.019476 0.066949 -0.062335 -0.033602 0.073422 0.115758 0.029965 0.100461 0.028543 -0.022654 0.082216
  0.013097 0.133448 0.031885 -0.089011 0.030119 0.026372 0.041545 -0.104138 -0.136699 -0.042462 -0.018833 0.079663 -0.129305 -0.146233 0.028405 -0.026435 0.052595 -0.024563 -0.115052 -0.032571 0.082048 0.085062 0.036768 -0.012804 -0.042067 0.136294 0.090524 -0.034768 -0.016731 -0.013828 -0.133792 -0.001276 0.12787 0.022822 0.066965 0.007299 0.048975 0.049437 -0.024252 -0.012113 -0.099841 -0.050676 -0.026808 0.032848 0.038737 -0.114317 -0.099665 -0.167979 -0.15657 0.034167 0.029605 0.006835 0.04403 -0.118921 0.015188 0.01003 0.056187 -0.010938 -0.153339 -0.012763 0.011046 -0.01037 0.025275 0.043262 -0.039887 0.047191 0.138094 0.036172 -0.076403 0.044622 -0.041046 0.203255 -0.058116 0.048488 -0.040062 -0.11761 -0.116758 -0.021871 0.015642 -0.023374 -0.094664 -0.03137 0.211361 0.022336 0.036406 -0.016557 -0.051426 -0.144814 0.151022 -0.050407 -0.020982 0.26412 0.078745 -0.011942 0.03647 0.019268 0.069302 -0.037385 0.060491 0.070178 0.005962 0.016779 0.045377 0.127115 0.002675 0.017256 -0.091553 -0.006601 -0.032825 0.250901 0.016957 0.086047 0.068371 -0.009254 -0.031016 0.123212 -0.069929 -0.046978 0.027834 -0.117063 -0.061887 -0.070485 -0.007289 -0.168924 -0.0272 -0.066838 -0.066827 0.001813 0.066679 -0.001578 0.038965 0.058917 -0.044994 0.036868 -0.088882 0.014671 -0.162445 0.017437 -0.077664 -0.080027 -0.083968 0.039721 0.086879 -0.121318 -0.062134 0.027617 -0.19845 0.001254 -0.03203 -0.079822 -0.043192 -0.065852 -0.074942 -0.024458 -0.048972 -0.000323 -0.077258 -0.041106 0.086631 -0.203707 0.013018 0.059594 -0.02586 0.085972 -0.015612 0.008816 0.001254 -0.000958 0.012503 0.092191 -0.066909 -0.038718 -0.048776 -0.145878 -0.070685 0.046059 0.133843 -0.076716 -0.079571 0.020583 0.097946 0.066084 -0.049544 -0.060547 0.158355 0.074526 -0.045565 0.034262 0.055522 0.026384 -0.004706 -0.148685 0.005532 0.035638 0.037947 -0.001503 -0.069975 -0.065168 0.002434 -0.077785
  -0.023528 -0.08332 0.06938 0.010192 0.017234 -0.053507 0.043892 -0.105088 0.066443 -0.152344 0.061754 -0.180052 -0.096103 -0.043056 0.079381 -0.033813 -0.058398 -0.039752 -0.106905 0.023537 0.037195 -0.043928 -0.072491 -0.031963 -0.041119 0.0441 0.089652 0.01489 0.008073 0.045536 0.009589 -0.002888 -0.06493 0.026899 -0.025717 0.021 0.064073 0.04184 -0.079052 -0.000665 0.098402 -0.112163 -0.094376 0.023991 0.040012 0.011984 0.057584 -0.170098 0.053047 -0.003283 -0.070993 -0.107502 0.12043 0.092112 0.019874 -0.039883 0.190032 0.077636 0.117961 -0.118019 -0.07235 -0.058574 -0.001023 0.02583 0.076593 0.028675 -0.12885 0.059591 -0.038537 0.027173 0.057485 -0.027587 -0.038547 0.005965 0.058912 -0.123728 -0.047484 0.036304 0.038502 -0.07769 0.045439 0.00914 0.059912 0.088925 0.044128 0.102982 -0.126473 -0.019645 0.06182 -0.048654 0.064115 -0.12966 -0.101155 -0.141011 -0.003264 0.032152 0.012175 0.050135 0.131275 -0.020434 -0.064315 -0.007657 0.05672 -0.045278 0.095182 0.183835 -0.088645 -0.071706 0.04349 0.041588 0.092537 -0.068528 0.028144 0.069448 -0.036302 0.141916 -0.077069 0.036809 0.074827 0.08174 -0.013252 0.001443 0.056001 0.130797 0.140552 0.08151 -0.066146 -0.110414 -0.009002 0.100066 -0.019126 -0.03371 0.019691 0.096382 -0.100032 -0.031647 0.083013 0.202355 -0.10348 -0.098592 -0.068788 -0.054996 -0.134065 -0.036722 -0.08266 0.019101 0.003909 0.052552 -0.030343 -0.093056 -0.149401 -0.111403 -0.063101 -0.069859 0.054987 -0.049908 0.067369 0.045112 -0.011432 -0.156565 0.016429 0.082498 0.03416 0.160706 0.018185 -0.11257 -0.035331 0.049981 -0.086543 0.206888 0.013879 0.009412 0.077631 -0.027884 -0.076133 0.021185 -0.086152 0.036761 -0.168227 -0.009486 0.233235 -0.053882 -0.050221 0.033321 0.158399 0.042324 -0.057204 -0.108714 0.016585 0.008472 -0.001011 -0.091795 0.004284 0.170136 -0.022362 -0.047119 -0.165379 -0.031521 0.02562 -0.096247
  0.356629 0.063612 -0.353732 -0.113074 0.08028 -0.045021 -0.020646 0.106613 -0.02865 -0.091405 0.083274 -0.038416 -0.031441 0.263406 -5e-05 -0.349284 0.173079 -0.042183 0.136951 0.095829 0.007673 0.206245 -0.011023 -0.014592 0.007753 -0.015042 0.05436 0.155139 -0.00651 0.01719 -0.022164 -0.308437 -0.050709 0.020753 0.073377 0.034144 -0.050855 -0.016001 -0.103801 0.143317 0.000774 0.109524 -0.443978 0.006767 -0.030168 -0.057278 0.051633 -0.079697 0.235392 0.049205 -0.374436 -0.077721 -0.340823 0.102296 0.24309 0.010725 -0.059271 -0.028194 -0.055365 -0.039417 0.030177 0.00256 -0.408345 -0.296971 -0.014434 -0.080475 -0.092076 0.042957 0.005934 0.030177 0.3521 0.161829 0.141244 0.018009 0.109134 -0.14592 -0.064474 -0.019068 -0.078438 0.204211 -0.089694 -0.030779 0.020578 0.132186 0.004326 -0.316426 -0.04377 -0.011435 0.04137 -0.015302 0.271092 0.021755 -0.106728 -0.393697 0.20926 -0.077337 0.01333 0.250394 -0.011981 -0.029131 -0.04704 0.319096 -0.027402 0.226062 0.260056 0.379109 -0.411356 -0.317795 -0.025638 -0.062783 0.071309 -0.004985 -0.08822 -0.100059 -0.027138 0.131379 0.023161 -0.078841 -0.305644 0.01638 -0.03935 -0.088233 0.012877 0.1688 0.478608 -0.082424 -0.046088 -0.04218 -0.027031 0.215696 -0.337179 -0.006886 -0.292677 0.059286 0.039542 0.400172 -0.358731 0.030174 -0.076827 -0.07057 0.143679 -0.289267 0.290044 -0.043291 -0.141644 0.015028 -0.002387 -0.402807 0.080202 -0.078125 -0.026562 0.142899 -0.0493 -0.363568 -0.013128 0.078999 0.217882 -0.002418 -0.005597 -0.129878 -0.049645 0.026807 -0.000167 0.349079 -0.036213 -0.511723 0.108413 0.031203 -0.02755 -0.06944 -0.19045 0.006595 -0.12897 -0.03872 -0.012898 -0.295691 -0.034106 0.060108 0.330914 -0.019766 0.094483 -0.071237 0.080722 -0.061727 -0.297529 -0.295152 -0.034542 -0.436252 -0.055979 0.026756 0.285747 -0.010272 0.176707 0.305874 0.01059 0.054009 0.432042 -0.073115 -0.031891 0.20853
  0.206566 -0.034657 -0.421753 -0.28162 0.09916 -0.000924 0.002674 0.137942 -0.077147 -0.007359 0.022761 0.360004 -0.064858 -0.054545 0.068646 0.238349 0.030507 -0.046491 -0.088344 -0.384374 0.031363 0.57017 -0.038552 -0.034471 0.005765 -0.044064 0.004368 0.140991 0.164819 -0.394429 0.010621 -0.494695 0.246374 0.113978 0.174739 -0.060124 0.031405 0.04976 0.004505 -0.428319 -0.048356 -0.004729 0.165269 -0.020441 -0.07964 -0.048853 -6.2e-05 0.072039 -0.208458 0.014336 0.099412 -0.057137 0.016012 0.113282 0.167964 -0.069382 -0.069884 0.002236 -0.03786 -0.02639 0.382681 0.05161 0.14765 -0.376677 -0.009288 0.022111 -0.014571 0.173341 0.135394 -0.039561 0.300427 -0.240513 0.077599 0.053103 0.027975 -0.143239 0.009671 -0.046878 -0.040292 -0.005638 0.00899 0.004227 0.033356 0.148769 0.043799 -0.182519 -0.088115 -0.035189 -0.048509 0.012145 0.323691 -0.02113 0.030972 -0.100562 0.149766 0.062179 -0.018185 0.219271 -0.054831 0.023956 0.007767 -0.070325 -0.341737 0.146801 -0.314599 0.168258 -0.341388 0.153914 -0.025648 -0.067483 -0.003318 0.046414 -0.065954 -0.040854 -0.328762 0.33828 0.061846 0.204545 0.10531 -0.308276 -0.002108 -0.035304 -0.045998 -0.071229 0.464222 0.08465 0.015453 0.048346 -0.008211 0.29709 0.013682 0.000828 0.112741 -0.00355 -0.126351 -0.304197 0.151212 0.007664 0.058888 -0.0203 -0.22774 -0.041762 0.271519 0.062479 -0.277024 0.039273 0.019557 0.017164 -0.343263 0.069983 0.085741 -0.097776 -0.091053 0.344372 -0.019787 -0.016986 -0.219849 -0.096815 0.013673 -0.000596 0.074071 -0.110578 -0.001512 0.456032 0.143971 0.108215 -0.33176 -0.025598 0.005682 -0.066092 -0.100603 0.003202 -0.048064 -0.028753 -0.045715 0.131095 -0.086166 -0.075063 -0.462946 0.004028 -0.023835 -0.074926 0.055162 0.020787 -0.038247 0.04895 -0.024351 0.158087 -0.037533 0.062911 -0.132849 0.00104 0.075767 0.229173 -0.068661 -0.198611 -0.262871 -0.006026 0.002658 -0.009113
  0.016588 0.016217 -0.018186 0.161463 0.05942 -0.037408 -0.08389 -0.011086 -0.079303 -0.023942 0.006469 0.419775 -0.030142 0.07189 -0.052983 -0.175302 -0.150394 -0.002009 -0.040161 0.07986 0.024988 0.480926 0.014993 0.002892 -0.004934 0.029536 -0.029641 -0.186875 -0.37063 -0.029863 0.046349 0.055257 -0.091976 0.125907 -0.356079 -0.059173 -0.039683 -0.030028 0.03129 0.109606 -0.036143 0.156176 0.211286 -0.009805 -0.041346 0.087987 -0.176952 0.122963 0.112293 0.030302 0.096777 -0.035987 -0.008795 0.159614 -0.195711 0.043281 -0.075522 -0.074586 0.011564 -0.051313 0.177319 -0.032812 0.065026 -0.182584 -0.053152 -0.023055 0.022854 -0.32031 0.030229 -0.100936 -0.109808 0.313799 -0.023335 0.035888 0.055847 -0.17948 -0.027284 -0.173202 -0.00208 0.067825 -0.000956 -0.011213 0.083295 0.088396 0.008033 -0.178497 -0.040245 -0.086462 0.028699 -0.036261 0.236698 0.114121 -0.019485 -0.000139 -0.039888 -0.01089 0.033183 0.154481 -0.143631 -0.044199 -0.022113 0.046756 0.061815 0.182456 0.133948 -0.075567 0.068611 -0.36319 -0.029045 -0.03496 0.016479 -0.033087 -0.02613 -0.046836 0.171344 0.143671 -0.084989 0.122179 -0.350728 -0.122899 -0.032155 -0.103536 0.003767 0.032551 0.101656 0.033383 -0.043302 -0.149919 -0.041078 0.1513 0.124702 -0.021325 -0.124226 0.104149 0.077903 -0.363486 0.137664 0.014494 -0.037643 0.012629 -0.122864 0.281718 -0.378199 -0.02907 -0.256079 -0.046832 -0.075053 -0.324579 -0.377269 0.014959 -0.029785 0.276023 -0.042333 0.19041 0.045473 -0.005006 0.186411 0.050774 -0.013645 -0.020948 -0.104693 0.015453 -0.054595 0.132398 -0.394116 0.051961 0.100285 -0.04233 -0.02196 -0.026955 -0.241737 0.020796 0.04442 -0.008824 -0.062181 -0.302955 -0.048904 0.355297 -0.016788 -0.035886 -0.020379 -0.008521 0.008876 0.006316 0.066316 0.264346 0.000126 0.43922 0.007568 0.004544 0.483436 -0.110734 0.156447 -0.193178 -0.005356 -0.123475 0.248019 -0.035895 0.149077 -0.304093
  0.186297 0.114528 -0.340063 -0.048891 -0.327466 -0.006481 -0.004487 0.033317 0.076289 -0.048629 -0.106885 0.227413 -0.107315 0.199883 0.046422 0.14175 0.234133 0.025598 -0.02452 -0.014372 -0.022789 -0.229616 0.027691 -0.014889 -0.077271 0.103864 -0.00824 0.09627 0.06875 0.112773 -0.076862 -0.031755 -0.083756 -0.064727 0.057476 0.009116 0.004689 0.022934 -0.025369 -0.284374 0.027322 -0.179753 0.200984 0.038618 -0.001929 -0.054198 -0.072255 0.001472 0.252261 0.030048 0.044749 -0.08371 0.173444 0.048841 -0.043874 0.071222 -0.067856 -0.049467 0.062803 0.011744 0.260544 -0.031271 0.044141 0.120573 0.031433 0.083931 0.051697 -0.116133 0.023171 -0.080065 -0.178634 -0.058278 0.118359 -0.006016 0.133306 -0.191609 -0.0363 0.132384 0.003458 0.138941 0.027742 -0.064337 0.100202 -0.091096 0.086108 -0.193359 -0.043484 -0.059484 0.072169 -0.129951 0.110225 0.098099 -0.106119 0.177534 0.01661 -0.029324 -0.007504 0.060179 -0.027526 -0.003566 0.004757 -0.164345 0.224572 -0.200563 0.006511 0.012087 0.107314 0.119665 -0.020592 -0.020437 -0.077821 -0.087684 -0.012206 -0.109128 0.19905 -0.159126 -0.061239 -0.076765 -0.27926 -0.129485 -0.072841 -0.021148 -0.003814 -0.096174 -0.168005 0.036418 -0.02251 -0.295945 -0.084408 0.050626 0.096795 -0.02213 0.068559 0.031488 -0.019704 -0.045112 0.038247 -0.037055 -0.011903 -0.019793 -0.189149 0.056716 -0.105349 -0.003215 -0.048991 0.047509 0.124333 0.158486 0.105108 -0.015636 0.105885 -0.331932 0.19461 -0.081098 0.055948 -0.075949 0.031775 -0.023536 -0.005373 -0.133628 0.011828 0.068073 0.035953 0.180461 -0.047896 0.016619 -0.083087 -0.037607 0.200191 -0.008216 0.089157 -0.044023 -0.052707 -0.045517 0.009798 -0.063886 0.124559 0.249714 0.371601 -0.029508 -0.033142 0.031172 -0.049368 -0.006935 -0.145322 -0.259084 0.039589 0.002642 0.034485 -0.097832 0.468804 0.062704 -0.04422 0.080561 -0.016354 0.176357 0.25442 -0.046149 -0.135946 0.096412
  -0.165088 0.133731 -0.338193 0.183171 0.091418 0.012574 -0.016954 0.004847 0.008812 -0.031956 0.051572 0.264147 0.125481 0.091678 0.062701 -0.20133 -0.239253 -0.064459 0.011666 -0.175689 -0.054242 -0.099087 0.019354 -0.067952 -0.090873 0.023416 -0.098051 -0.340026 0.094714 0.011953 -0.114148 0.276695 -0.166171 -0.265186 0.302825 0.013509 -0.011247 -0.058518 -0.005038 0.113861 0.02433 0.005884 0.238752 -0.038893 -0.051683 0.088316 -0.008532 0.000785 -0.075319 0.013219 0.015064 -0.000435 -0.132172 0.108386 -0.052115 -0.103992 -0.040645 -0.044446 0.087873 0.062828 -0.245074 -0.079811 -0.071923 -0.04791 -0.068655 0.005641 0.015193 -0.335966 -4.4e-05 -0.029342 0.448144 -0.041599 0.035579 -0.040606 0.075394 0.045654 0.031016 0.014698 -0.00282 0.109154 0.038754 -0.047712 -0.023354 0.03196 0.081067 0.133601 -0.03669 0.100968 0.02952 0.040191 0.169615 0.048553 0.021622 0.219952 0.000244 -0.016846 0.016644 0.020356 -0.151806 -0.017861 -0.008173 -0.160927 -0.245334 -0.227099 0.180725 -0.012148 0.127051 0.092587 -0.019236 0.01263 0.027412 -0.067178 -0.021072 0.014032 -0.247825 0.299948 -0.129053 0.018648 0.100549 0.108726 0.076839 -0.102157 -0.045829 -0.081831 0.120316 -0.032871 -0.036021 -0.111159 -0.04397 0.243962 -0.084817 -0.054432 -0.294264 0.014868 -0.038676 -0.274057 0.184041 -0.027931 -0.119286 -0.110176 -0.096529 -0.116676 0.1707 -0.026025 0.034966 0.041243 0.0891 0.122366 0.111624 -0.060575 0.038876 -0.033423 0.059357 0.139745 0.069035 0.081363 0.11709 -0.016719 -0.093147 0.043953 0.020292 -0.050787 -0.066945 0.104937 -0.154767 0.067999 0.062191 -0.017169 0.114487 -0.026146 0.138429 -0.078853 0.019079 0.024658 -0.002401 -0.295983 -0.049166 0.166845 -0.094117 -0.112798 -0.027634 -0.045453 -0.011052 -0.027214 0.288159 0.048645 -0.098183 0.074395 -0.00348 -0.04809 0.136887 0.025954 -0.116095 0.287559 -0.03569 0.182114 0.1176 0.056964 0.019798 0.182648
  0.23025 0.004046 0.061578 -0.195291 0.028864 -0.059594 0.005506 0.080675 0.059582 -0.095903 0.047274 0.353656 0.041782 -0.361708 0.154549 -0.127679 -0.135564 -0.012142 -0.083153 0.224346 0.062954 -0.320352 -0.028718 -0.060195 -0.004186 0.080946 0.015919 -0.256998 0.102199 -0.310731 0.090131 0.215461 -0.088097 -0.316179 0.028672 -0.063688 -0.049506 0.021018 -0.092403 0.05561 -0.085432 -0.004808 -0.00712 0.05953 -0.024519 -0.004731 0.057738 0.099885 0.225832 -0.042176 -0.013499 0.014095 0.035375 0.15255 0.190389 -0.021182 -0.059077 -0.022767 -0.043132 -0.002999 0.189386 -0.006848 -0.018099 -0.193206 0.114797 0.030079 0.095023 -0.335938 -0.096701 -0.065753 0.377296 -0.032292 -0.056505 -0.03484 0.181342 0.06159 -0.055425 0.063603 0.056875 0.143203 0.032202 -0.05748 -0.077355 0.122144 0.024414 0.288553 -0.094361 -0.042381 0.01163 0.074432 -0.149494 0.185736 -0.080515 -0.324791 -0.227923 0.001556 -0.019968 0.2332 -0.101319 -0.030248 0.005922 0.329465 -0.294967 0.169628 0.294365 -0.237948 -0.05559 -0.127718 -0.043468 -0.028615 -0.028262 -0.101567 -0.004715 -0.005605 0.190637 0.420504 -0.064743 0.10873 -0.069093 0.229532 -0.091267 -0.046679 0.020249 0.131696 -0.456767 0.103425 -0.012656 0.1273 -0.054511 -0.375818 0.009872 0.079595 0.074355 -0.004065 -0.011926 0.389678 0.20686 -0.018103 -0.003051 -0.035938 -0.107725 0.021093 -0.29504 -0.006766 0.182469 0.034108 0.056469 -0.242944 0.198284 -0.058269 0.014388 0.188622 -0.064236 0.133767 -0.017016 -0.062425 0.195637 0.063756 -0.010614 -0.017073 0.025413 0.000889 0.001826 -0.393598 -0.068276 0.067111 0.04048 0.01706 0.04892 -0.068949 -0.152455 -0.044041 0.003398 0.001234 -0.049342 -0.268446 0.040556 0.097088 -0.419885 -0.044151 -0.037253 -0.08708 -0.007464 -0.091052 -0.213478 0.109215 0.009288 0.09263 -0.064747 -0.090484 0.351454 -0.043258 0.128342 0.052949 -0.058347 0.224308 0.209692 -0.050615 -0.133383 0.11392
  -0.02832 -0.058628 -0.044878 -0.006463 -0.049882 0.07481 0.05733 0.031142 0.149123 -0.012183 -0.058971 -0.027832 -0.021016 0.081217 0.019215 0.056265 -0.063779 0.022488 -0.103621 -0.013 -0.136739 0.05684 0.031906 -0.015742 -0.074227 -0.069007 0.101788 -0.013285 -0.030065 -0.001388 0.041594 -0.016033 -0.044547 -0.009211 -0.07599 -0.000467 0.010839 0.101089 0.109446 -0.005947 0.019562 0.015666 0.012866 -0.017714 0.010538 -0.064332 -0.009806 0.010114 0.04227 0.103329 -0.005398 -0.043912 -0.045846 0.013795 -0.060441 -0.000263 0.009495 0.044034 0.01313 -0.080799 -0.036032 0.115337 -0.074384 0.017486 0.092544 0.098843 -0.094431 0.023988 -0.078509 -0.075916 0.029616 -0.125213 -0.023882 -0.017973 -0.097472 -0.036082 -0.018497 -0.060475 -0.083509 0.016852 -0.116054 0.030222 -0.007952 -0.02422 0.043452 0.040783 -0.033774 0.066346 0.060431 0.026413 0.012442 -0.074654 -0.0012 0.090196 0.020726 0.053975 0.020974 -0.045941 0.011919 0.037742 0.04425 0.00492 0.042074 -0.007368 0.01373 -0.109676 0.016416 -0.007264 0.028208 -0.156039 -0.062661 0.073158 0.001961 0.000547 -0.030721 0.034803 -0.007873 0.03764 -0.05754 -0.069022 -0.117127 -0.031872 -0.04349 -0.065897 -0.008808 -0.116058 0.050682 -0.024256 0.044045 0.047831 -0.041995 0.06923 -0.005411 -0.148865 0.107983 0.066873 0.018253 0.024785 -0.091938 -0.081316 -0.088169 0.061886 -0.037021 0.079286 0.046088 0.003771 -0.004066 0.06156 0.022933 0.055655 0.117412 0.028852 -0.036913 0.066566 -0.057205 0.115299 -0.003331 0.177526 -0.074973 0.008023 0.016233 0.060097 -0.004221 -0.017141 -0.029301 0.04753 -0.013483 0.025717 -0.006097 0.006166 0.027099 0.040161 -0.174311 -0.032862 -0.04457 -0.006653 -0.108223 -0.023675 0.098001 0.060525 0.109725 0.044647 0.044108 -0.039144 -0.02934 0.040508 0.085147 -0.039827 -0.017287 -0.045891 0.067215 0.019242 -0.076021 -0.023389 -0.048763 0.004633 -7.8e-05 0.000237 0.058107 0.027443
  0.013021 0.20051 -0.028813 0.053696 0.026243 -0.026818 -0.007899 -0.004355 -0.03766 0.002421 -0.041318 0.19858 -0.028164 0.073662 -0.087655 -0.003035 0.025394 -0.0761 -0.092691 -0.026361 -0.048303 -0.03917 -0.079988 0.010293 -0.014103 -0.04666 0.187987 0.057875 -0.103569 -0.017741 0.087134 -0.00884 0.035091 0.002033 -0.07097 0.014592 0.064286 0.120185 -0.009828 0.005819 -0.026404 0.059785 0.068725 -0.006709 -0.160876 -0.151513 0.042527 0.002548 0.09981 -0.079847 0.046986 -0.222364 -0.006397 -0.00266 0.047133 -0.035326 -0.042995 -0.056839 -0.132112 -0.056294 -0.163247 0.010272 0.076798 0.088187 0.092081 0.034368 -0.018237 -0.034114 0.010322 0.042956 -0.096812 -0.041294 -0.001319 0.045104 -0.093848 -0.046114 0.041917 -0.041053 0.007806 0.003515 0.051429 -0.012533 -0.242526 -0.055244 0.050568 -0.007992 -0.053043 0.019907 0.076659 0.144179 0.00609 -0.129282 -0.125861 -0.048809 0.001015 0.043072 0.049082 0.018042 0.003238 -0.118657 0.177462 0.01819 -0.05127 0.011689 0.004558 0.064773 0.008643 0.01054 -0.060056 -0.122664 0.04921 -0.081197 0.018061 0.015401 0.017637 0.027209 0.003588 -0.015218 0.065383 -0.007045 0.022827 -0.020305 0.023407 0.067637 -0.034859 -0.100158 0.006995 0.07488 0.010925 -0.085262 -0.101271 -0.097821 0.000917 0.043357 0.058944 -0.002475 -0.053642 0.001405 -0.047108 0.001003 0.024417 -0.031288 -0.077415 -0.11887 -0.044252 -0.033999 0.049336 0.002471 -0.005303 -0.007336 0.05085 0.147154 -0.052469 0.017169 0.032712 0.017599 -0.006709 -0.106442 -0.007844 0.045009 -8e-04 0.063859 0.031075 0.000201 0.039585 -0.072661 0.039458 0.073353 0.067006 0.024694 -0.002096 -0.02437 -0.048974 0.021141 0.020011 -0.033811 -0.005294 -0.105501 0.017578 -0.003086 0.040606 0.021763 0.092449 -0.061717 0.061762 -0.026883 -0.045202 0.085777 0.047433 0.066313 0.04137 -0.018978 0.074892 -0.043914 -0.006044 0.016053 -0.030725 0.018207 -0.040929 0.000952
  -0.028355 -0.026803 -0.021689 -0.071783 0.035122 0.044923 0.034326 0.093242 0.018103 0.064933 0.0551 0.140034 0.004401 -0.026236 -0.039918 0.022459 0.045266 0.03665 0.031106 -0.002273 -0.166616 -0.084973 -0.050436 -0.029866 -0.031096 0.00605 -0.030519 0.039286 -0.115713 0.025668 -0.021201 0.018154 0.084557 0.034207 -0.021462 0.017197 -0.061022 -0.032349 -0.12407 -0.068951 -0.02806 0.018244 -0.059288 -0.011193 0.021898 -0.032273 -0.013981 -0.035944 0.105562 0.025287 -0.004925 -0.010185 0.016099 -0.046629 0.004317 -0.108994 -0.126278 0.035544 0.013697 -0.049092 -0.191447 -0.031554 0.057319 0.05561 0.03747 -0.009404 0.047545 0.033163 0.077071 -0.055709 -0.009625 -0.031177 -0.016326 0.012867 -0.028341 0.019368 -0.056849 -0.00097 -0.029323 -0.002882 -0.100648 0.019995 -0.010534 -0.025664 0.043621 0.111816 0.006597 0.070211 0.024404 0.032049 -0.033055 0.067233 0.009539 -0.020881 -0.027344 0.046752 -0.023522 -0.024456 0.062879 0.074917 -0.032028 0.078424 0.045667 0.053988 -0.065928 -0.040785 -0.025574 -0.108188 -0.033564 -0.243891 -0.035016 -0.164926 -0.053728 0.038032 0.047641 -0.001359 0.002101 -0.010241 -0.076717 -0.001523 -0.155913 0.059021 -0.021639 -0.169102 -0.043431 0.039938 -0.025099 -0.009447 0.019181 -0.057698 0.010147 -0.076386 0.049472 -0.189658 -0.036915 -0.034533 -0.087697 0.073238 -0.082953 0.047411 0.115849 0.012158 -0.065459 -0.076357 -0.066803 0.068123 -0.050559 -0.012291 0.035842 0.006676 0.062115 -0.055839 0.068345 0.052425 0.01413 0.003323 -0.005234 -0.064858 0.046226 0.08891 -0.056008 -0.062835 0.066556 -0.066984 -0.003979 0.029597 -0.015192 0.044931 -0.000269 0.056205 0.053277 0.063567 -0.012938 -0.02648 0.047758 0.027944 0.172962 -0.106477 0.020011 0.06587 -0.266647 -0.023368 0.056741 -0.131731 -0.006793 -0.040619 -0.054414 -0.018242 0.052069 0.006662 -0.127184 0.063952 0.028187 -0.029178 0.041135 -0.032384 -0.121336 -0.037886 -0.056079 -0.003483
  -0.041327 0.03216 -0.034719 0.079865 0.003287 -0.048702 0.090772 0.075073 -0.049022 -0.014694 -0.04484 0.045182 -0.072396 -0.106569 -0.126059 0.007574 0.041128 0.03413 0.027295 0.021617 0.021879 -0.083958 0.004831 0.0979 0.089954 -0.019291 0.052423 0.035639 -0.02073 0.035504 -0.04232 0.0444 0.044375 -0.009902 -0.06971 0.00634 -0.027635 0.039639 0.031376 -0.001385 -0.053946 0.030358 -0.012828 0.008657 0.023714 0.032587 -0.001863 -0.020856 0.158169 -0.056721 0.034534 0.060063 0.004474 0.016562 0.000536 -0.175285 0.011227 -0.067302 -0.097103 -0.107213 0.054101 -0.078195 0.066489 0.008824 0.001512 -0.081133 0.099246 0.001695 -0.050702 0.020686 -0.027014 -0.037627 0.030046 0.028009 -0.030073 -0.018355 0.081301 -0.063292 0.068499 0.018621 0.009904 0.016105 -0.100836 0.018977 0.079952 0.080715 -0.007465 0.002218 -0.061893 0.001707 0.050057 0.174009 -0.125426 0.067821 0.009987 0.061249 -0.012325 -0.070357 0.044805 -0.081214 0.150524 -0.123536 -0.063399 0.031358 0.003591 -0.101731 0.024705 0.04274 -0.003041 -0.052803 0.087268 0.016612 0.004746 -0.033363 0.017646 -0.080691 0.038303 -0.083149 -0.110139 -0.0244 -0.100038 0.001648 -0.010057 0.085519 0.019025 0.021435 -0.064293 -0.010772 0.113927 0.004507 -0.028342 -0.127023 -0.018914 -0.061359 -0.018446 0.001792 -0.052801 0.015222 0.019358 0.023421 0.077815 0.042979 -0.035767 0.069597 -0.019999 0.000411 0.061522 0.027949 0.049999 -0.032601 -0.080523 -0.061501 -0.060995 -0.032186 -0.003706 0.083929 -0.047297 -0.146256 0.104583 0.035159 0.06648 -0.071999 0.025039 0.058777 0.015323 -0.010582 -0.023191 0.005639 0.006569 -0.144496 0.010991 -0.034568 -0.006218 0.06394 -0.009778 -0.040521 -0.046622 -0.201632 0.103312 0.014789 -0.307827 0.048449 0.090195 0.032642 -0.127408 0.040224 -0.040281 0.089677 0.047632 -0.087291 -0.037318 0.033609 -0.015098 -0.098518 -0.057388 0.033688 -0.148171 0.056181 -0.004552 -0.084891
  -0.045346 -0.025544 -0.086235 0.033156 -0.0318 0.025776 0.058976 0.086339 0.033054 0.040436 -0.112174 -0.013295 0.012636 0.019153 0.043641 0.039693 0.05299 -0.017734 -0.081477 -0.048004 0.074462 -0.040962 -0.036942 0.006943 0.094254 -0.097644 -0.01366 -0.028906 -0.014021 0.001879 -0.047782 0.02217 -0.028589 -0.057848 -0.038401 0.030641 0.084033 0.002855 0.058986 0.027013 0.054022 0.004702 -0.132046 0.0698 0.061893 -0.102831 0.029289 0.044828 -0.02767 0.052874 -0.038803 0.096955 0.026838 0.029582 -0.012465 0.102616 0.016036 -0.037975 0.041966 0.052621 -0.002284 0.062148 -0.040144 0.051572 0.019406 0.055273 0.058367 0.107541 0.115386 -0.087695 0.005943 0.045686 -0.021665 0.06759 0.014901 -0.001603 0.074336 0.050608 -0.052075 -0.003246 0.113683 -0.00603 0.018221 -0.022109 0.07428 0.050487 -0.061849 0.023694 -0.006243 -0.008687 -0.037915 -0.228652 -0.015358 0.076018 0.002139 -0.052711 -0.001939 -0.057375 -0.001121 -0.066267 -0.060422 0.025879 0.063248 0.070282 0.033444 -0.047532 -0.003208 -0.002007 0.056897 0.020572 -0.128853 -0.007924 0.050911 -0.003985 -0.009706 -0.150389 -0.024893 0.08829 -0.060762 -0.030761 -0.039723 0.008358 0.019949 0.012769 0.005012 -0.204045 -0.02364 -0.006177 -0.118021 0.093885 -0.030074 0.070348 -0.07051 -0.151249 0.067787 0.078331 -0.057048 0.022348 0.121193 -0.053306 -0.110817 0.061542 -0.087096 0.002861 0.014943 -0.015673 0.08474 -0.012154 0.061437 0.000655 0.066149 0.133552 0.115812 -0.002216 0.016298 0.128557 -0.034894 -0.039056 -0.063982 0.039478 -0.008347 -0.001143 -0.01861 -0.013428 0.054531 -0.012398 -0.044961 0.030329 -0.051442 -0.01209 0.089157 -0.032383 -0.023311 -0.053222 -0.045446 -0.006984 -0.014411 -0.050896 0.08157 0.000355 -0.001925 -0.085793 0.048109 -0.157449 -0.089906 0.051657 0.027882 -0.119376 -0.020867 0.01232 -0.022734 -0.03781 0.024394 0.04584 -0.045212 0.003012 0.072206 0.079396 0.029202 0.05232
  -0.023609 0.022753 -0.059191 -0.031453 -0.015248 0.008089 0.092306 0.038265 -0.124792 -0.006659 0.033198 0.010859 0.081955 -0.176298 -0.236081 0.020997 0.011182 0.04374 0.231017 -0.077847 -0.117877 -0.117943 0.048832 0.092759 0.091279 -0.003797 0.085046 0.068326 -0.096272 -0.013581 0.012485 0.003126 0.013364 0.025422 0.019621 -0.019758 -0.029218 -0.064311 0.020526 -0.012612 -0.162837 0.072422 -0.120633 0.140405 0.029144 -0.118864 -0.17839 -0.067199 -0.132461 -0.055785 -0.026025 0.066809 0.072224 -0.044873 0.06872 0.063336 -0.203338 -0.037024 0.085322 -0.116864 -0.117083 0.048181 -0.064007 -0.037056 0.001465 0.066148 0.038468 0.075931 0.180545 -0.127293 0.120404 -0.022491 0.058665 0.109733 -0.024467 0.054068 0.062368 0.02449 -0.096655 0.029575 0.040931 -0.01591 0.318395 -0.036414 0.071102 0.210097 0.087612 0.015508 -0.008799 -0.027969 0.008178 -0.01764 -0.215142 -0.090452 0.034335 -0.003569 0.069544 -0.044227 -0.046601 0.043694 0.068173 0.005032 -0.029906 0.012566 -0.110716 -0.009423 0.002273 -0.010542 0.008628 -0.108325 -0.112646 -0.030642 0.030438 -0.002399 0.118383 -0.201891 0.077186 -0.071508 -0.096672 -0.027888 0.052549 -0.011379 0.073583 0.084254 -0.137214 0.139276 0.062574 0.088756 -0.065721 0.092985 -0.023096 -0.07279 0.034433 -0.184769 0.053192 -0.013986 -0.102326 -0.21893 0.093743 -0.052092 -0.037138 0.145591 -0.020636 0.035531 0.090165 0.010425 -0.050755 -0.067887 0.018963 0.03948 -0.047797 0.047459 0.027297 0.036033 0.079122 0.1174 0.025838 0.047338 -0.043973 -0.044831 -0.050954 0.026625 -0.040813 0.092808 0.046986 0.023759 -0.011265 -0.064137 -0.178316 0.044127 0.124179 0.02675 -0.153717 -0.040268 0.034343 -0.048343 -0.104237 -0.056117 -0.032899 0.005396 -0.046826 0.023806 -0.01937 -0.079996 0.157881 0.02415 0.063663 -0.306765 -0.031209 0.020603 0.018036 0.10631 0.066532 0.092437 0.052734 0.035924 0.054599 0.001422 -0.022053 0.045041
  -0.17081 -0.072198 0.003756 -0.049416 -0.064443 -0.126854 0.043485 -0.424813 0.068057 -0.022205 -0.187764 0.007844 0.147474 0.004835 -0.007521 0.036045 -0.087756 0.057333 0.154438 -0.031145 0.019092 0.07549 -0.016079 -0.131357 0.054236 0.113366 0.032196 -0.033639 0.013129 -0.046522 -0.048988 -0.101777 0.049057 -0.0222 -0.062931 0.117353 0.034446 -0.023637 0.014923 -0.005501 0.053311 0.058705 -0.10768 -0.348591 0.091988 0.05831 0.18311 -0.106549 -0.188365 -0.229966 -0.008601 0.186541 -0.036039 -0.060996 -0.08124 0.083939 0.172592 0.043734 0.004978 0.141635 -0.027038 -0.004079 -0.13449 -0.047413 -0.066754 -0.358856 -0.132681 -0.044403 -0.023963 0.108696 0.029063 -0.042847 0.022413 0.006401 0.0132 -0.104279 -0.319748 0.057607 0.081383 -0.035209 -0.145846 0.109499 -0.613333 0.006124 0.009921 0.025924 0.055419 0.073214 -0.355243 0.10196 -0.064953 0.069317 0.119527 0.021009 -0.068527 -0.019708 -0.106583 0.024998 0.006777 -0.009192 -0.15078 0.011277 0.036217 -0.039671 0.039669 -0.072886 0.013397 0.037169 0.007698 -0.001628 0.138861 -0.407694 -0.055398 0.06243 -0.054224 -0.03123 0.104539 0.05305 -0.014702 0.024747 0.117298 0.062533 0.085686 0.086232 -0.090967 0.080665 0.030897 -0.04059 0.18724 0.001839 0.052215 0.089238 -0.038826 0.015129 0.003697 -0.04945 0.004303 0.076567 0.136337 -0.040833 -0.12889 0.056333 -0.124961 -0.156066 0.02066 0.132067 0.000659 -0.090217 0.011039 0.032272 -0.355576 -0.014605 0.119502 -0.162183 0.127161 -0.165997 -0.006386 -0.270909 0.069039 0.13023 0.006602 0.051521 0.096012 0.022574 0.016075 0.075268 -0.046384 -0.092777 0.211476 0.134957 0.026043 -0.123774 0.016092 0.024263 0.114591 -0.025974 -0.001287 -0.02937 -0.004012 0.048123 0.0879 -0.002301 0.00709 0.158435 -0.082155 0.033352 0.035596 0.061492 0.0703 0.091176 0.035728 0.037883 0.021127 -0.108234 -0.009733 -0.023598 -0.007257 0.058212 0.003892 0.007757
