PWM_range 0 100
pepL_range 12 21
P1_range -6 6
log_min 1e-04

nn_in_var 270 P1_-1 P1_-2 P1_-3 P1_-4 P1_-5 P1_-6 P1_0 P1_1 P1_2 P1_3 P1_4 P1_5 P1_6 PWM_log AA_-_1 AA_-_10 AA_-_11 AA_-_12 AA_-_2 AA_-_3 AA_A_1 AA_A_10 AA_A_11 AA_A_12 AA_A_2 AA_A_3 AA_A_4 AA_A_5 AA_A_6 AA_A_7 AA_A_8 AA_A_9 AA_C_1 AA_C_10 AA_C_11 AA_C_12 AA_C_2 AA_C_3 AA_C_4 AA_C_5 AA_C_6 AA_C_7 AA_C_8 AA_C_9 AA_D_1 AA_D_10 AA_D_11 AA_D_12 AA_D_2 AA_D_3 AA_D_4 AA_D_5 AA_D_6 AA_D_7 AA_D_8 AA_D_9 AA_E_1 AA_E_10 AA_E_11 AA_E_12 AA_E_2 AA_E_3 AA_E_4 AA_E_5 AA_E_6 AA_E_7 AA_E_8 AA_E_9 AA_F_1 AA_F_10 AA_F_11 AA_F_12 AA_F_2 AA_F_3 AA_F_4 AA_F_5 AA_F_6 AA_F_7 AA_F_8 AA_F_9 AA_G_1 AA_G_10 AA_G_11 AA_G_12 AA_G_2 AA_G_3 AA_G_4 AA_G_5 AA_G_6 AA_G_7 AA_G_8 AA_G_9 AA_H_1 AA_H_10 AA_H_11 AA_H_12 AA_H_2 AA_H_3 AA_H_4 AA_H_5 AA_H_6 AA_H_7 AA_H_8 AA_H_9 AA_I_1 AA_I_10 AA_I_11 AA_I_12 AA_I_2 AA_I_3 AA_I_4 AA_I_5 AA_I_6 AA_I_7 AA_I_8 AA_I_9 AA_K_1 AA_K_10 AA_K_11 AA_K_12 AA_K_2 AA_K_3 AA_K_4 AA_K_5 AA_K_6 AA_K_7 AA_K_8 AA_K_9 AA_L_1 AA_L_10 AA_L_11 AA_L_12 AA_L_2 AA_L_3 AA_L_4 AA_L_5 AA_L_6 AA_L_7 AA_L_8 AA_L_9 AA_M_1 AA_M_10 AA_M_11 AA_M_12 AA_M_2 AA_M_3 AA_M_4 AA_M_5 AA_M_6 AA_M_7 AA_M_8 AA_M_9 AA_N_1 AA_N_10 AA_N_11 AA_N_12 AA_N_2 AA_N_3 AA_N_4 AA_N_5 AA_N_6 AA_N_7 AA_N_8 AA_N_9 AA_P_1 AA_P_10 AA_P_11 AA_P_12 AA_P_2 AA_P_3 AA_P_4 AA_P_5 AA_P_6 AA_P_7 AA_P_8 AA_P_9 AA_Q_1 AA_Q_10 AA_Q_11 AA_Q_12 AA_Q_2 AA_Q_3 AA_Q_4 AA_Q_5 AA_Q_6 AA_Q_7 AA_Q_8 AA_Q_9 AA_R_1 AA_R_10 AA_R_11 AA_R_12 AA_R_2 AA_R_3 AA_R_4 AA_R_5 AA_R_6 AA_R_7 AA_R_8 AA_R_9 AA_S_1 AA_S_10 AA_S_11 AA_S_12 AA_S_2 AA_S_3 AA_S_4 AA_S_5 AA_S_6 AA_S_7 AA_S_8 AA_S_9 AA_T_1 AA_T_10 AA_T_11 AA_T_12 AA_T_2 AA_T_3 AA_T_4 AA_T_5 AA_T_6 AA_T_7 AA_T_8 AA_T_9 AA_V_1 AA_V_10 AA_V_11 AA_V_12 AA_V_2 AA_V_3 AA_V_4 AA_V_5 AA_V_6 AA_V_7 AA_V_8 AA_V_9 AA_W_1 AA_W_10 AA_W_11 AA_W_12 AA_W_2 AA_W_3 AA_W_4 AA_W_5 AA_W_6 AA_W_7 AA_W_8 AA_W_9 AA_Y_1 AA_Y_10 AA_Y_11 AA_Y_12 AA_Y_2 AA_Y_3 AA_Y_4 AA_Y_5 AA_Y_6 AA_Y_7 AA_Y_8 AA_Y_9 pepL_12 pepL_13 pepL_14 pepL_15 pepL_16 pepL_17 pepL_18 pepL_19 pepL_20 pepL_21


N_layers 2

 nnetsWeights  270   200
  -0.040484 -0.238199 0.082362 -0.106195 -0.221514 -0.100438 0.066336 -0.005377 -0.053442 0.006552 0.06279 0.130345 0.167716 0.031966 -0.066074 0.000521 0.063418 0.105375 -0.014303 -0.09518 0.03101 0.028089 -0.106149 0.041637 -0.022894 -0.043952 -0.001374 0.16357 0.030379 0.044875 0.06536 0.118571 -0.063183 0.045741 0.050198 0.010164 -0.012206 -0.013997 -0.012277 0.004957 0.0258 -0.080268 -0.058753 -0.135594 0.060064 -0.0539 -0.010561 0.03791 -0.002455 -0.021057 0.134893 -0.096225 -0.112007 -0.056753 -0.129111 0.028678 0.120238 0.035935 -0.21467 -0.053 -0.00389 -0.156673 0.088362 0.018666 0.054329 0.030912 0.032994 -0.015737 0.031512 -0.012774 -0.089929 0.048353 0.03514 0.028463 -0.017977 0.033259 0.170756 0.108508 -0.037325 -0.014495 0.07209 0.002328 -0.072834 0.100634 0.072532 0.04577 -0.044899 -0.096312 0.030212 0.008254 0.022022 -0.007158 0.01684 0.047036 0.033335 -0.064801 0.001981 -0.045759 -0.017723 0.075612 -0.088757 -0.072954 -0.059492 0.042503 0.074869 -0.108872 0.158771 -0.083562 0.000207 -0.031512 0.106664 0.019856 -0.084327 -0.083644 0.08363 0.161916 0.160183 -0.028434 0.043511 0.064034 -0.011666 0.005709 -0.092997 -0.087579 0.041317 0.031287 0.033085 0.084884 0.090403 0.126639 0.066646 0.005661 -0.020894 0.0762 0.002396 -0.066361 -0.007161 -3.1e-05 -0.022651 0.051327 0.01635 -0.0594 -0.088831 -0.025351 0.038131 0.122128 -0.085281 0.011603 -0.051606 -0.14402 -0.031548 -0.046133 -0.033194 0.021195 -0.010057 0.025717 -0.041169 0.054703 0.037324 -0.022613 -0.132939 0.014983 -0.038128 0.107249 0.051303 -0.07216 0.18493 -0.009784 -0.138647 0.020028 0.141548 0.033622 -0.227221 -0.030606 -0.017582 -0.011092 -0.004678 0.04553 -0.039616 -0.146594 -0.029132 0.011812 0.034195 0.003213 0.093752 0.139797 0.037138 -0.059273 0.030889 -0.09625 -0.035325 -0.008759 0.052441 -0.089301 0.085221 -0.017798 -0.00513 0.06228 -0.045729 0.02418
  -0.1505 -0.086991 0.107959 -0.005008 -0.006985 0.004268 0.194819 -0.046811 0.059456 -0.030527 0.085013 0.115943 0.161403 0.062251 -0.017392 -0.031897 0.080641 -0.003934 -0.155426 -0.052583 0.065454 -0.013717 -0.102866 -0.033465 -0.065889 -0.144592 -0.093473 0.169901 0.052963 -0.059602 0.027911 0.101774 -0.053902 -0.093637 0.044823 0.022994 -0.021183 -0.101541 -0.005783 -0.039988 0.10016 -0.039737 -0.129125 -0.101149 0.002671 -0.027774 -0.146502 -0.032407 -0.241772 -0.027205 0.133767 -0.039759 -0.115769 -0.10863 -0.053567 0.041219 0.063757 -0.003673 -0.111875 0.035358 0.047593 -0.14707 -0.056215 0.012296 0.015032 -0.052635 -0.069596 0.035154 -0.043748 -0.022157 -0.13454 0.059091 -0.122773 0.06136 0.072024 -0.031668 -0.036112 0.02255 -0.12265 0.067654 -0.041274 0.048188 -0.078423 0.092249 0.1294 0.03292 0.064357 -0.083437 -0.054492 0.060623 -0.033651 -0.019232 0.030937 -0.021387 0.005942 0.114771 -0.00665 -0.05501 0.047596 0.124391 0.012992 -0.209601 -0.083406 0.06541 0.078114 -0.030718 0.064586 0.016683 0.083769 -0.025534 0.080638 -0.004517 -0.064585 0.052448 0.078843 0.059 0.025181 -0.014562 0.024819 0.003692 0.004476 -0.016698 -0.121186 -0.154616 -0.081366 -0.016502 -0.203573 -0.006846 0.018892 -0.048244 0.052258 -0.113084 -0.18478 -0.073008 0.148034 0.057385 -0.059221 -0.007085 -0.136134 0.063112 -0.173899 -0.021368 0.028171 0.043724 0.105243 0.006035 -0.061587 0.084377 -0.080298 -0.010895 -0.067408 -0.203976 0.0999 -0.114788 -0.004292 -0.063052 -0.126794 -0.076699 -0.040959 -0.074894 -0.06946 -0.036985 -0.052331 0.018005 0.063738 0.005201 0.104191 -0.056434 -0.117341 0.025544 0.08535 -0.027098 -0.130586 -0.051107 0.111809 -0.185247 0.122499 0.113917 -0.133075 -0.180129 0.012896 -0.038007 -0.012989 0.048372 0.099509 0.053873 -0.210886 0.037776 -0.029545 -0.012095 -0.043666 -0.023648 -0.010155 -0.076348 0.064563 -0.158116 0.02004 -0.056323 0.001744 0.09112
  -0.111108 -0.115532 0.031834 -0.057783 -0.115177 0.089999 0.232333 -0.031062 -0.059469 -0.055297 -0.022935 0.063562 0.038198 0.026675 -0.047968 -0.042488 0.021013 -0.009132 -0.203109 -0.079666 -0.06245 -0.107636 -0.097603 -0.070036 -0.020803 -0.09919 0.024668 0.245331 0.002017 -0.127051 -0.047858 -0.031722 -0.103508 -0.148611 0.041205 0.023193 -0.093933 -0.07864 0.039558 -0.075214 0.076294 -0.033498 0.047098 -0.042315 0.083395 -0.033537 -0.090461 -0.047019 -0.08962 0.045781 0.0325 -0.00308 -0.163132 -0.120647 -0.100747 -0.047635 -0.008711 -0.040314 -0.147937 -0.058323 0.015573 -0.2003 -0.022532 -0.117944 0.033601 0.006176 -0.010864 0.012772 -0.109338 -0.16467 -0.08905 -0.001001 -0.15752 -0.093432 0.005951 -0.017571 -0.022414 0.212227 -0.10656 -0.107304 -0.135995 0.011405 0.004944 0.10144 0.138826 0.015273 -0.007702 -0.02313 0.044038 0.018899 -0.088541 0.00387 -0.094378 0.012059 -0.174498 0.039717 0.044995 0.033125 0.099764 0.07054 0.024281 -0.069247 -0.007176 0.094666 0.069689 -0.080595 0.067744 0.064115 0.111868 -0.028915 0.038189 -0.009001 -0.088472 -0.070429 -0.066714 0.043777 0.103234 0.091109 0.065128 -0.035787 0.061126 0.0816 -0.16335 -0.047724 -0.035369 -0.078454 -0.08845 0.012809 -0.067038 -0.093881 -0.034426 -0.052914 -0.075929 0.026531 0.157361 -0.054718 0.076956 -0.339693 -0.057597 0.061988 -0.073496 -0.092021 -0.12609 0.015858 -0.002429 0.130279 0.080214 0.11354 -0.125634 -0.066282 0.012975 -0.105497 0.07677 -0.039908 -0.208558 -0.078753 0.137178 -0.051765 0.046092 -0.110219 0.034725 0.052383 0.160182 -0.108908 0.023087 -0.145746 0.028852 0.007604 -0.09041 -0.195862 -0.075883 0.031766 -0.127271 -0.086779 0.10286 0.004195 -0.086034 -0.041254 -0.105106 -0.063388 -0.025838 -0.053179 0.003977 0.015923 -0.032179 -0.042906 -0.086313 0.04404 -0.044263 -0.047953 0.059467 0.070846 0.014758 -0.025298 0.007067 -0.08964 0.070769 0.010638 -0.052145 0.016802
  -0.157331 -0.044977 -0.097818 -0.096463 -0.034504 0.058163 0.081295 0.065177 0.071054 0.058456 -0.011678 0.033398 -0.024678 -0.010513 0.073491 0.035579 0.080236 -0.124201 -0.057551 -0.018099 -0.073056 0.02164 -0.015642 -0.056959 -0.018513 0.031718 -0.10236 0.026581 -0.008374 0.104044 0.082753 -0.038931 -0.116088 -0.024394 -0.008422 -0.068924 -0.018469 -0.002328 0.034041 -0.020108 0.014709 -0.038543 0.014483 0.053647 0.059544 0.053139 -0.070298 -0.072126 -0.115345 0.033894 -0.073551 0.040055 0.032418 0.010177 -0.010021 -0.059133 0.028759 -0.035681 -0.005762 -0.069195 0.02259 -0.022881 -0.06703 -0.058429 -0.147582 0.103164 -0.025355 0.063731 -0.063647 -0.110476 -0.111977 0.092121 -0.103116 0.044108 0.07368 -0.070127 -0.103092 -0.1113 -0.062373 -0.121944 0.032555 -0.156876 -0.065136 -0.046748 -0.149858 -0.000319 -0.055596 -0.003883 0.055484 -0.024721 0.031875 -0.076974 0.002859 -0.007453 -0.136333 -0.023883 -0.070262 -0.005757 0.075562 0.043847 -0.013187 0.010491 0.074072 0.088893 -0.072003 -0.012486 0.045885 0.029085 0.014345 0.039465 0.057111 -0.030383 -0.033962 -0.090852 -0.053227 -0.018633 0.049983 -0.074859 -0.074611 -0.024673 0.068731 -0.048862 0.11335 -0.120301 -0.024237 0.054192 -0.100735 -0.002913 -0.062442 0.04392 -0.083651 -0.027229 -0.069464 -0.082576 0.051866 0.027693 0.006276 0.00662 0.046032 0.027889 0.091638 -0.074308 -0.069914 0.013708 -0.018057 0.019007 -0.069335 0.056281 0.000364 -0.06513 0.048231 -0.155928 -0.031481 -0.118025 -0.054516 -0.06991 0.146545 -0.075673 0.155605 -0.027114 -0.089708 -0.065374 0.070513 -0.087353 -0.036864 -0.047309 -0.0533 -0.047257 -0.060174 -0.005124 -0.080303 0.019412 0.028989 -0.011794 0.075988 -0.154916 -0.057961 -0.035349 0.017439 -0.109393 0.016942 0.004399 0.005323 -0.037927 0.08784 -0.08915 -0.006131 -0.035285 0.000308 -0.093616 -0.021411 0.000324 -0.009681 -0.072051 0.049755 0.040881 0.013238 0.067903 0.057009 0.013704
  -0.053323 -0.076151 0.06369 -0.01535 0.047725 -0.064599 -0.046768 -0.03568 -0.019611 -0.079859 0.04478 -0.047834 -0.038313 -0.072194 0.058279 -0.011853 -0.012246 -0.097355 0.073236 -0.008935 0.03889 -0.062743 0.008846 -0.001222 -0.04775 0.052704 -0.005564 0.028338 0.012377 -0.088458 -0.031066 0.007151 -0.108058 0.070151 -0.061462 0.037224 0.074068 0.023847 0.086022 0.075368 0.016122 0.06296 0.010403 0.048223 -0.08689 0.085051 0.074218 0.034488 0.02644 -0.034853 -0.006344 -0.009095 -0.050325 -0.010854 -0.00056 0.064425 -0.013945 -0.004373 -0.03854 -0.021479 -0.026235 0.041954 0.063279 0.04774 0.124973 -0.047531 0.030324 0.081225 -0.020355 -0.032679 -0.019576 -0.067165 0.064456 -0.019982 -0.102429 0.073011 0.004261 0.078747 -0.050973 0.0501 -0.030978 -0.005604 -0.040853 -0.077067 0.037373 -0.018607 -0.01984 -0.023445 0.05861 0.006798 -0.051305 -0.037481 0.05942 -0.012954 -0.113848 -0.030938 0.021766 0.006705 0.044987 0.062995 0.123377 -0.005152 -0.020217 -0.01804 0.008471 0.181898 0.012761 -0.050041 0.045266 -0.039681 0.029683 -0.027811 -0.040005 -0.072828 -0.104882 -0.00271 0.078904 0.072746 0.016664 -0.019757 0.066173 -0.059345 0.044287 -0.030461 0.032507 -0.119772 -0.038033 -0.034796 0.026487 -0.038418 0.063864 0.03447 -0.078763 -0.052411 0.057842 -0.020139 0.02995 0.08251 0.044876 -0.022326 -0.034449 -0.105359 -0.062698 0.015115 -0.029024 0.032105 -0.022538 0.043896 -0.016094 0.049661 0.102292 -0.013109 -0.016645 0.076692 0.000731 0.011795 0.058557 0.002777 0.037434 0.043697 0.118763 -0.066261 0.058651 0.004672 0.019949 0.005474 0.050531 0.001126 -0.074838 -0.026897 0.010114 0.039044 0.057204 0.029981 0.101432 -0.070879 0.066194 0.02656 -0.034203 0.061968 0.04198 -0.022036 -0.071393 0.043082 0.006429 0.014824 0.011193 -0.062324 0.012059 -0.052367 -0.04045 0.00823 0.06272 0.018294 -0.035488 -0.056075 -0.0725 -0.013312 0.025883 0.019128
  -0.031372 -0.003649 0.049246 -0.036046 -0.061856 0.100566 -0.107921 -0.055639 0.00346 0.084829 0.001654 -0.026956 0.067853 0.03629 -0.034325 -0.037362 0.095315 0.043004 0.016062 0.030258 0.033157 -0.072184 -0.058053 0.00247 0.024358 -0.02754 0.013623 0.051388 0.03615 0.002835 -0.00767 -0.024079 -0.08238 0.01366 0.064743 0.090396 0.010153 -0.029599 0.006532 -0.057217 0.006716 -0.006155 0.031076 -0.009824 -0.003397 -0.030746 0.006546 0.059132 0.054065 0.044194 0.014118 0.021008 0.028716 0.026328 0.018457 -0.00778 -0.082763 0.055487 -0.017318 0.026867 0.038132 0.062055 0.007206 -0.037407 -0.002296 0.079454 0.030213 0.005476 -0.051182 -0.101372 -0.010656 -0.083793 0.031209 0.072201 0.104959 -0.049061 0.006461 0.071312 -0.028276 0.045483 0.074385 0.067063 0.017683 -0.041909 0.03642 -0.037583 -0.039941 0.024076 -0.101987 0.017781 0.050195 -0.063863 -0.05732 0.002423 -0.110759 0.02375 -0.006078 -0.034235 -0.015368 0.042648 -0.003275 0.045278 -0.052235 -0.004389 -0.005556 -0.030547 -0.004948 0.071801 -0.15286 0.062013 0.057368 -0.059574 0.037874 0.042505 -0.071302 -0.050032 -0.056194 -0.015245 0.033738 0.006725 -0.042208 -0.031343 0.03086 -0.063573 0.011851 0.055991 0.035694 -0.087036 -0.002481 -0.06929 -0.045722 -0.000178 0.001694 -0.009304 0.043767 -0.023428 0.049833 0.072142 0.051727 0.016689 0.031135 0.000743 -0.076808 0.00422 0.001466 0.056513 0.023848 0.092832 -0.021567 -0.101427 0.026722 -0.016951 0.023331 0.023955 -0.070233 0.074342 0.113307 0.008997 0.049377 -0.052888 0.062854 0.029821 -0.05315 0.033134 -0.004908 -0.054655 0.029942 0.002531 -0.019147 0.013707 -0.010767 -0.020257 0.061059 0.013285 -0.008885 -0.03755 -0.02166 0.005162 0.003394 0.055118 0.070774 0.039839 -0.080278 0.040543 0.015643 0.088109 0.03156 -0.034814 -0.063616 0.085053 -0.033016 -0.033204 0.016717 -0.031211 -0.014616 0.034751 0.021006 -0.020153 0.019948 -0.01063
  -0.008611 -0.070943 -0.057794 0.062982 -0.056376 -0.015911 0.017813 -0.015498 0.038207 0.073355 0.03747 0.021305 0.175965 -0.036637 -0.028599 0.042861 -0.009221 0.001102 0.087731 -0.116196 0.013202 0.017177 0.012305 0.090945 -0.018705 0.034528 0.018638 0.079061 0.058152 -0.005016 0.089972 0.077929 -0.006168 0.049263 0.106858 -0.0048 -0.038499 0.087402 0.117996 0.051487 0.034588 -0.017966 0.074069 -0.200124 -0.02142 -0.002476 0.067329 0.080756 0.065896 0.034557 0.173433 -0.008801 -0.122914 -0.032364 0.009125 0.010429 0.02183 0.064361 -0.036359 0.049027 -0.046608 -0.138598 0.057382 0.104635 -0.010293 0.072658 0.078496 -0.010419 -0.0218 0.155209 -0.001621 0.097726 -0.035614 -0.174002 -0.121508 0.046771 0.125109 -0.008547 -0.099613 -0.050397 0.08319 -0.000301 -0.023565 0.126547 -0.06498 -0.093873 -0.122051 -0.180926 0.030824 0.050882 0.0116 0.050542 0.092788 0.001435 0.034159 0.076461 0.023035 -0.133891 -0.000649 0.033879 0.052674 -0.303345 -0.071914 0.048118 0.015803 -0.079868 0.110292 0.042443 -0.031714 0.01259 0.081983 0.033763 0.043583 -0.087164 -0.021906 0.001399 0.066325 0.04898 0.038399 0.023025 0.083808 0.088273 -0.01686 -0.05059 0.04492 0.028682 0.080927 0.123016 0.09006 0.051975 -0.123961 0.108978 0.019293 0.174562 -0.060772 -0.071946 -0.009628 -0.134222 0.019663 0.060686 0.005623 0.084859 -0.117663 -0.03818 0.072159 0.049854 -0.030009 -0.007003 0.165049 -0.083629 -0.037578 -0.024508 -0.166503 0.028082 -0.069192 0.188665 -0.049778 -0.004938 0.007347 0.000568 -0.032531 -0.087568 -0.047442 0.141931 0.005463 -0.014133 0.068801 -0.00881 -0.059379 -0.031766 0.015705 0.07855 -0.105741 0.185523 0.084274 0.037262 -0.02389 0.074233 -0.023157 -0.05729 -0.126101 -0.004448 -0.002499 -0.017561 0.024381 0.040857 0.021096 -0.037045 0.117836 -0.028156 0.038251 0.097598 0.09287 -0.048598 0.018007 0.07326 -0.020336 -0.020809 -0.069533 -0.058549
  -0.021555 -0.011467 -0.033129 0.01926 0.124144 -0.078686 -0.057987 -0.022599 -0.041012 0.102183 0.020001 -0.065671 0.140786 -0.056759 -0.056116 -0.040202 0.046263 0.00593 0.176655 0.120126 -0.021611 0.037108 -0.040396 0.035104 -0.010171 0.06883 0.123454 -0.177077 0.087795 0.018699 0.010575 0.043531 -0.081334 0.132411 0.083825 -0.043131 -0.029646 0.049345 0.020876 0.105512 0.01882 0.103147 0.013023 -0.085287 0.030234 -0.029983 0.047657 0.047558 0.082961 -0.029642 -0.093439 0.095074 -0.035316 -0.035424 -0.011717 -0.057996 0.057533 0.002208 0.107644 0.043409 -0.046242 0.026279 0.041369 -0.050488 0.048533 0.051122 0.092262 -0.017793 0.118371 0.045495 0.008963 -0.034643 -0.00963 0.093286 -0.00031 0.035671 -0.035009 -0.042284 -0.010768 0.069165 0.031346 0.018989 -0.023697 0.010326 -0.062619 0.002346 -0.00669 -0.043968 0.010875 0.006366 0.071313 0.021027 0.024894 -0.084506 0.028177 0.094844 -0.083861 -0.050308 -0.019016 0.04415 -0.099842 0.086328 -0.071851 -0.011668 -0.075958 -0.060258 0.083617 -0.00462 0.015046 0.008014 -0.080118 0.001465 0.060161 -0.015134 -0.049774 0.001763 -0.063739 -0.001661 -0.01493 -0.039195 0.043811 -0.066639 -0.035489 0.042461 0.110409 0.041254 0.017642 0.060966 0.085741 -0.034596 -0.020708 0.003879 0.088914 0.080004 -0.163206 -0.069811 0.091665 -0.077185 0.006939 0.025063 0.048766 0.071062 0.095496 -0.032568 -0.035426 0.057432 -0.05143 0.020397 0.035519 -0.007219 -0.084541 -0.021991 -0.040196 0.022792 -0.021919 0.070462 -0.031387 0.055181 0.001493 0.044847 -0.052194 -0.025738 -0.018228 0.042331 -0.053539 0.003142 -0.006897 -0.039459 -0.031607 -0.019762 0.057015 0.028634 -0.038384 0.040959 0.015724 0.04531 0.075905 -1.4e-05 0.034452 0.02625 -0.083812 0.063353 0.049953 -0.012144 0.004037 0.076615 -0.024103 -0.085364 0.077336 0.108204 0.009063 -0.116928 0.09574 0.03879 0.002225 0.048955 -0.062711 0.110966 -0.028834 -0.077689
  -0.013604 0.05537 -0.047889 0.131684 0.051174 -0.069125 -0.028793 -0.053566 0.070908 0.045377 -0.014283 0.03431 -0.180277 -0.019822 0.076649 0.006091 -0.05788 0.130981 -0.02525 0.157841 -0.093083 0.099318 0.06182 0.036224 0.018902 0.073924 -0.08737 -0.131794 -0.002432 0.036536 -0.071972 -0.099405 -0.088208 0.094695 -0.071875 -0.009697 0.005893 0.094064 0.026233 0.051287 0.022104 0.0356 0.042489 0.065056 -0.04993 0.012038 -0.011407 -0.037277 0.112156 -0.085852 -0.145022 0.072896 0.007216 0.025171 0.017035 -0.038501 -0.192481 -0.101412 0.11489 -0.007129 0.003131 0.195909 -0.074619 0.043646 0.009225 -0.050902 0.023436 -0.076238 -0.015899 0.013734 0.049775 -0.087862 -0.009975 0.116268 -0.088159 -0.05767 -0.200856 -0.095943 0.020966 0.030969 -0.121533 0.016353 -0.030755 -0.163498 -0.000436 -0.15197 -0.028046 0.03543 0.039776 0.015127 0.036305 0.067618 -0.003656 -0.065738 -0.025568 -0.021037 -0.034092 0.050397 -0.060643 0.034804 0.072723 0.243133 0.052936 -0.069299 -0.029724 -0.035914 0.018901 -0.063436 -0.066517 -0.038335 0.040967 0.036111 0.047953 -0.00859 -0.061676 -0.111859 -0.028999 -0.043877 -0.091992 -0.057169 0.000664 -0.155174 0.037861 -0.017092 0.088714 0.018484 -0.06071 0.042747 0.04395 -0.185445 0.04905 -0.040538 -0.043046 -0.069512 -0.135703 -0.106472 0.093061 -0.004877 -0.037568 0.03881 0.051548 -0.062798 0.06841 -0.033965 -0.096927 -0.072607 -0.059916 -0.010205 0.064863 -0.035399 -0.053901 0.079989 0.090531 -0.018248 0.047745 0.054083 -0.077737 -0.003005 -0.032676 0.0282 0.097645 0.045676 -0.041819 -0.062472 -0.009792 0.066661 -0.222309 -0.019642 -0.064938 -0.058068 0.004354 -0.003032 0.039289 -0.143073 -0.090387 -0.060553 0.034713 0.000363 0.019893 0.00982 0.003034 0.060736 0.066564 0.03176 0.011629 -0.131489 0.004528 -0.070259 -0.01187 0.122957 0.033025 -0.050221 0.026027 0.001208 -0.044735 0.011683 -0.079051 -0.034661 -0.027684 -0.002125
  0.038446 -0.002477 -0.035719 0.077845 0.082398 -0.029087 -0.058713 -0.024822 0.053933 -0.165936 -0.012425 -0.243234 -0.15556 0.015652 0.090487 -0.054262 -0.025419 0.018569 -0.129174 0.103435 -0.05511 0.028516 0.083158 0.009337 -0.075487 0.057344 -0.033102 0.027946 -0.021153 -0.059027 -0.187191 -0.09377 -0.009376 -0.078796 -0.079106 0.066426 -0.012163 -0.021419 -0.137962 -0.032431 0.034192 0.01562 -0.027051 0.126432 -0.01995 0.039311 -0.012159 -0.035622 -0.001935 -0.123289 -0.105321 0.065216 0.057685 0.102908 0.059243 0.031457 -0.016772 -0.23403 -0.009517 -0.045739 0.03085 0.219081 0.00497 -0.017849 0.01282 -0.086593 -0.06591 -0.025702 -0.097452 0.011665 0.060205 -0.006423 0.027202 0.086074 -0.121795 -0.014361 -0.139381 -0.051657 0.027385 0.035677 -0.058197 -0.028489 -0.076536 -0.352234 0.064563 0.038101 -0.016637 0.072789 0.058073 -0.023913 -0.058644 0.018861 0.011691 -0.010132 -0.024337 -0.123319 0.082492 0.040021 -0.179008 0.043647 -0.014815 0.103837 0.093804 -0.040177 -0.041693 0.021327 -0.243013 0.007664 -0.086049 -0.013831 -0.068417 0.024321 0.073241 0.03591 0.068957 -0.067688 -0.089523 -0.00931 0.052851 -0.101697 -0.09475 -0.143038 0.131493 0.018458 -0.097904 -0.02562 -0.143534 -0.194634 -0.06478 -0.066548 0.012922 -0.053867 0.028683 0.025988 0.036558 0.02833 0.111974 0.165721 0.020482 0.012909 0.042084 -0.033332 0.122784 0.102749 0.0064 -0.129908 0.221976 0.063273 -0.022936 -0.003322 -0.130845 0.024085 0.105142 -0.092216 0.059457 -0.047708 -0.026128 -0.049497 -0.119753 0.015191 -0.004004 0.009211 -0.085802 -0.09947 -0.047706 -0.03518 -0.276569 -0.022373 -0.050632 -0.139665 0.056713 -0.202986 0.085609 -0.101921 -0.086379 -0.124312 -0.12054 -0.103131 0.065858 0.093374 -0.02539 0.085705 0.014407 0.060269 -0.101806 -0.077023 0.069294 0.001012 -0.039441 -0.081292 -0.075783 -0.050599 -0.085052 -0.066292 -0.044173 -0.041203 -0.035356 -0.076564 0.08464 0.028784
  0.042824 0.039226 -0.075597 -0.049196 -0.044601 0.009922 -0.032139 -0.022167 -0.040825 -0.210073 0.021664 -0.22588 -0.062023 -0.014425 -0.006947 0.013385 -0.023246 -0.168218 -0.037882 0.091036 0.03234 0.026312 0.091764 0.038165 0.038744 0.045434 0.006713 0.044822 -0.024862 0.012765 -0.084838 -0.147806 -0.024586 -0.054747 -0.089468 -0.068052 -0.10175 0.016453 -0.039908 -0.046905 0.009937 0.007681 0.028014 0.054126 -0.01607 0.01805 -0.103017 -0.038796 -0.125636 0.00667 -0.136946 0.037796 0.027567 -0.001568 0.084016 -0.043715 -0.132468 -0.183005 0.022303 -0.035706 0.018134 0.085246 -0.134123 -0.009756 0.053947 0.023225 0.026087 0.017393 -0.00704 -0.164394 0.044822 -0.007584 -0.050888 0.026562 -0.061264 0.010751 -0.253132 -0.166529 0.069599 0.06624 -0.158162 -0.063729 0.012854 -0.210652 -0.126146 0.060904 -0.016656 0.014277 -0.052111 -0.081416 -0.04582 -0.100914 -0.001154 0.033642 -0.010552 -0.014289 0.164335 -0.020072 0.013297 -0.002375 0.161305 0.111185 0.02116 -0.023728 0.030045 0.040929 -0.148611 -0.004762 0.058372 0.029922 0.00723 -0.039031 0.039256 -0.115394 -0.016764 -0.19478 -0.085745 0.046611 -0.060693 -0.048052 0.008604 -0.126624 0.076231 0.020484 -0.044162 -0.056746 -0.112296 -0.049824 0.001221 -0.017976 0.018577 -0.049934 0.108437 0.025908 0.094403 0.050924 0.050509 0.148629 -0.089991 -0.030815 0.012226 -0.067896 0.103296 0.073206 0.057628 -0.132631 0.129555 0.016763 -0.018791 0.030717 -0.03969 0.09398 0.016062 -0.178197 -0.123695 -0.128558 -0.028942 -0.026812 0.00809 0.004397 0.197185 -0.003019 -0.019418 -0.037046 -0.073166 -0.021306 -0.167627 0.059317 0.083965 -0.081506 -0.05099 -0.11013 0.117807 -0.114397 -0.086933 -0.12287 -0.040872 -0.07799 0.06294 0.013973 -0.035509 -0.074118 -0.046354 0.051237 0.063178 -0.084229 0.029725 0.038213 -0.03315 -0.055249 -0.050295 0.072539 -0.014872 -0.045504 -0.009523 -0.021266 -0.03578 -0.026183 0.110521 0.024934
  -0.064865 -0.013357 -0.079961 -0.036449 0.05499 -0.066565 -0.115449 0.001357 0.014636 0.013636 0.043321 0.005607 -0.021092 -0.051756 0.044849 -0.052284 -0.071951 -0.105173 0.068888 0.047607 -0.044933 -0.039774 0.016925 0.028399 0.059254 0.096323 -0.034353 -0.085827 0.009078 -0.062841 -0.023578 -0.0402 0.048827 -0.046038 0.027833 -0.007125 -0.033585 0.037492 -0.064054 -0.006047 0.104525 0.039502 -0.015929 0.029304 -0.077254 -0.026856 -0.029137 -0.057462 -0.034977 -0.05031 -0.145903 0.089591 -0.037357 -0.029111 0.027035 -0.038298 -0.074929 -0.120421 0.072389 0.012854 0.017429 0.070744 -0.013303 0.070935 -0.026687 -0.119686 0.04003 -0.082161 0.032705 -0.037835 -0.004982 -0.015644 0.091447 -0.12554 0.107821 0.099427 -0.048751 -0.202058 0.09405 0.056592 0.033432 -0.001584 0.009218 0.01546 0.090221 -0.09558 0.009368 0.002046 -0.054741 -0.00605 -0.062919 0.02385 -0.003997 -0.077387 0.022295 0.005031 -0.061107 0.035974 0.066215 0.029187 0.05442 0.149626 -0.047097 -0.066252 -0.004589 0.169231 -0.071245 -0.046459 0.087078 -0.088781 -0.068673 0.030682 0.028331 0.096411 -0.135441 -0.032908 -0.101062 -3e-06 0.047111 -0.125013 -0.026259 0.062978 0.074128 -0.053757 0.012288 0.018844 0.014471 0.019523 -0.085161 -0.130865 -0.109714 -0.058936 0.050325 -0.066098 -0.073156 -0.067313 0.083142 0.042754 -0.078899 -0.016352 0.030575 0.056384 -0.060939 0.018669 0.080077 -0.034527 0.011949 -0.024373 -0.092503 0.089448 -0.046422 0.050691 0.072356 -0.082992 0.076033 -0.068482 -0.097088 0.047693 -0.000326 0.048265 0.012099 0.000722 -0.000259 0.043022 0.054578 0.059637 -0.081476 0.036134 0.046501 -0.003498 -0.047511 -0.006439 0.066187 -0.156586 0.060972 -0.197289 -0.058557 -0.115515 0.070435 0.039091 0.022321 0.022575 0.047312 0.06293 -0.101447 -0.078149 0.005299 0.018538 -0.050458 0.129645 -0.010856 -0.062338 -0.047626 0.06148 0.06175 -0.083666 0.001868 0.070131 0.136626 -0.040316
  0.026705 -0.052601 -0.133182 0.025322 -0.032493 0.074769 -0.136624 0.016944 0.05904 0.004791 -0.056252 -0.055872 0.064547 -0.02187 0.037871 -0.03093 0.110648 0.074821 0.060564 0.04312 0.029893 0.017028 0.055165 -0.021715 0.030737 0.010997 0.073853 0.030776 0.058386 0.019273 -0.038753 -0.082825 -0.081211 0.002499 0.022138 -0.086876 0.017507 -0.017624 -0.04914 0.023721 -0.002716 0.048978 -0.05412 0.066655 -0.023462 0.012142 0.058488 0.013758 0.045789 0.012977 0.010207 0.05118 -0.028248 -0.017201 0.043512 -0.024855 0.029571 -0.003477 0.02281 -0.003181 0.02052 -0.063496 -0.036505 0.003771 0.083416 0.003848 0.015006 -0.003642 -0.064127 -0.045908 0.032927 0.02437 -0.02283 0.010978 -0.071329 -0.040904 0.014376 0.07899 0.016717 0.03666 0.01136 0.046028 -0.008955 -0.021057 -0.029533 0.014056 -0.036215 -0.082034 -0.043199 -0.049266 -0.019712 0.086583 -0.100052 -0.08452 -0.028003 -0.039395 -0.004092 0.0261 -0.100861 0.005082 0.046516 0.083471 0.040449 0.001784 0.046338 0.115239 0.046393 0.090319 0.012455 0.042795 0.016287 0.070339 -0.030939 0.027095 -0.025923 -0.005437 -0.074775 0.046315 0.060178 0.003801 -0.018435 0.003227 0.029575 0.032313 0.073246 -0.049302 -0.007268 -0.09499 0.036334 0.006742 0.020191 0.042579 0.03557 -0.058241 0.044202 -0.047856 0.100455 -0.042681 0.081723 0.046515 0.052222 -0.041784 -0.052454 -0.086414 0.002664 -0.059196 0.154831 0.051924 0.006645 0.094691 -0.099406 -0.042975 0.036786 0.036237 -0.032274 -0.091496 0.072031 -0.037911 0.048402 -0.02667 -0.03577 -0.016165 -0.02453 -0.067558 0.009884 -0.034726 0.032429 -0.113272 -0.016509 -0.005108 0.010795 -0.037738 0.080794 -0.020393 0.060246 0.057188 -0.082486 0.000998 0.005948 -0.049396 -0.090555 -0.056243 0.003909 0.017563 0.065097 -0.040016 0.023559 -0.004822 -0.006967 -0.00507 0.03059 -0.09104 -0.028574 -0.010889 0.082427 -0.054026 0.03316 -0.015582 -0.034424 -0.056811
  0.485228 -0.098381 0.255165 -0.184027 -0.206513 0.008096 -0.009515 -0.60984 -0.268642 0.45776 0.470537 -0.334258 -0.479604 -0.389507 0.380919 -0.258406 0.381899 0.10222 -0.302966 -0.285229 0.326155 0.252354 -0.210694 -0.369014 0.320951 -0.477955 -0.05231 -0.604842 -0.432182 -0.041712 -0.444783 -0.117847 0.003495 -0.377768 -0.422011 0.276969 0.453544 -0.606097 -0.364838 0.309228 -0.511895 -0.42237 -0.38377 0.424036 0.439955 0.405487 -0.310621 -0.463925 -0.532224 0.428839 -0.397727 -0.428097 0.375973 -0.360597 -0.572056 0.457942 -0.258869 0.462788 -0.229901 -0.487204 -0.575385 0.35697 0.261049 -0.035082 0.003168 0.341631 -0.628316 0.392266 -0.167119 -0.277881 -0.4733 -0.120649 0.330615 -0.211201 -0.048886 0.227052 -0.311872 0.208324 0.395805 0.296471 0.237171 0.329459 0.592701 0.400682 0.238176 -0.17748 -0.523695 -0.411919 0.331198 -0.48662 -0.359893 0.398414 0.540563 -0.3027 0.275966 -0.08937 -0.30149 0.332952 0.574301 -0.692608 -0.018887 -0.307327 0.451713 0.43334 -0.626295 -0.05841 -0.45654 0.319558 0.353411 -0.434967 -0.252408 0.396692 0.284674 0.23871 0.229829 -0.27265 0.138198 0.469771 -0.038677 -0.369447 0.490667 -0.027292 -0.089093 -0.405935 -0.500235 -0.065685 -0.422392 -0.098327 0.445638 -0.054706 -0.196493 -0.365335 -0.26734 -0.04518 0.221396 -0.061005 -0.49669 0.405911 0.435869 -0.661091 -0.36206 0.243232 -0.139923 0.366401 -0.34451 0.300389 0.233781 0.406015 -0.35556 0.328939 0.37516 0.03936 -0.454999 0.428275 0.296004 -0.22071 0.307388 -0.411328 -0.521165 0.465735 0.210888 -0.410622 0.005322 -0.199435 -0.420901 -0.037798 -0.558833 0.419938 0.371327 0.142695 -0.085684 -0.580136 0.368472 -0.0047 0.055984 0.554766 -0.075096 -0.448356 -0.440524 0.441147 0.380676 0.521068 0.251053 -0.437848 0.388246 -0.425781 -0.430544 0.438713 -0.527004 -0.064109 -0.614095 -0.092098 -0.442885 0.268838 0.32518 0.43919 0.412901 -0.383034 0.251727 -0.246469
  0.071632 0.005262 0.047103 0.017621 0.063707 0.055216 -0.176415 -0.062168 -0.034014 0.033983 -0.141466 0.042435 -0.068997 0.004945 -0.117173 0.054699 -0.127773 0.093859 0.084416 -0.087006 0.106345 0.074016 -0.066065 -0.083563 -0.002407 -0.024198 -0.085126 0.059957 -0.085788 0.114618 0.09428 -0.129626 0.038656 -0.10524 0.003058 -0.063802 -0.161148 -0.00544 -0.128156 0.166454 0.084877 0.021042 -0.044206 -0.159306 -0.084099 -0.118055 -0.027229 -0.114888 -0.047058 0.006649 -0.074166 -0.007016 -0.017378 0.012497 0.039796 -0.02416 -0.062103 0.047957 -0.035169 -0.055641 0.059405 0.00166 -0.050078 0.052758 0.033818 0.020262 -0.008172 -0.125239 -0.142427 -0.00539 -0.079511 0.127192 -0.161898 -0.10108 -0.085349 0.09969 -0.093133 -0.087686 -0.048667 -0.194381 0.027905 0.018601 0.02669 0.091738 -0.085562 0.023028 -0.079805 0.014982 0.026664 -0.08767 -0.096656 -0.058277 -0.004198 0.021675 0.02394 -0.021365 -0.147214 -0.01598 -0.104406 0.004179 0.118747 0.176002 -0.004266 -0.083316 0.046329 -0.083221 0.049345 0.045367 -0.03794 0.008013 0.018572 -0.055234 0.029941 0.085813 -0.001231 -0.093092 -0.084378 0.100892 0.008376 0.007316 0.088329 -0.074054 0.02176 0.001879 -0.050923 0.086354 -0.02745 0.036766 0.062113 -0.087291 0.039822 -0.026495 -0.043377 0.02634 -0.060875 -0.059747 0.020745 -0.067058 -0.052476 -0.075023 -0.011855 -0.132045 -0.07868 0.010338 -0.014501 -0.173491 0.128352 -0.311985 -0.088025 -0.138891 -0.005367 0.170543 -0.015977 -0.057351 -0.074196 -0.189205 0.007438 -0.017605 0.075833 -0.021631 0.024196 -0.069044 0.027486 -0.131993 0.093454 -0.130782 0.03765 -0.020907 -0.053157 0.00683 -0.081756 0.080603 0.042647 -0.045629 0.117232 0.075533 -0.060301 -0.041262 -0.038953 0.045642 0.095684 0.021241 0.034867 -0.130199 0.071438 -0.10077 0.017038 0.084871 0.003316 -0.116707 -0.019768 0.067595 -0.001538 -0.255024 -0.016825 -0.073457 0.023812 -0.005459 -0.133097 0.069407
  -0.096449 0.074201 0.001862 -0.053388 0.011671 0.048683 -0.058922 -0.037607 -0.095005 -0.070932 -0.128794 -0.295889 0.072625 -0.129633 0.047428 0.147044 0.013049 -0.066961 -0.107212 -0.011914 -0.022143 -0.111068 -0.179876 0.128704 -0.048152 -0.020087 -0.062106 0.078937 0.053063 -0.049026 0.074187 -0.109478 -0.185876 0.096914 -0.06184 -0.080135 -0.059989 0.041977 0.06843 0.021303 0.047098 0.113621 -0.20952 -0.050641 -0.038355 0.028015 -0.172674 0.007997 -0.181007 -0.018752 -0.252319 -0.024292 0.023488 -0.034315 0.035348 -0.016568 -0.016143 -0.024977 -0.122462 -0.172861 0.081594 -0.067583 -0.006063 -0.084519 -0.124273 0.028891 -0.11786 -0.060339 -0.147059 0.151572 -0.01635 -0.147541 -0.059187 -0.098198 -0.060432 -0.035251 -0.008951 -0.021871 -0.121672 0.024737 -0.080323 -0.047012 -0.073246 -0.008508 0.091462 -0.181049 0.028864 -0.21895 0.029259 0.068949 0.054115 0.008011 -0.068521 0.081588 -0.051091 -0.175881 0.14149 -0.028226 0.042042 0.017378 0.031158 -0.005659 -0.174243 0.048708 0.057374 0.007764 0.032841 -0.05699 -0.00638 -0.002363 0.12701 -0.095958 -0.0672 0.058298 -0.022268 0.169871 -0.036322 -0.049774 0.206013 0.048282 -0.043621 0.102945 -0.059659 -0.051673 0.040002 0.008158 0.04783 -0.291598 -0.028546 0.15626 0.128016 -0.137636 -0.188573 0.211524 -0.115015 0.096189 0.0349 -0.066166 -0.004149 0.126192 0.130459 0.035646 0.063349 -0.023453 0.020171 -0.070562 0.001912 -0.03113 0.039644 -0.055641 -0.014101 -0.032755 0.131385 -0.005905 -0.071449 -0.056645 -0.028003 -0.211411 0.085918 -0.031016 -0.139845 -0.047157 0.025762 0.165542 -0.26156 0.052357 -0.278646 0.001749 -0.008331 -0.175591 -0.208151 -0.33876 -0.002938 -0.0525 0.078738 -0.052296 -0.073006 0.062792 -0.137633 0.032416 0.012658 -0.145288 -0.005189 -0.218399 0.07017 -0.095235 -0.094907 0.009079 -0.229381 0.073557 -0.098716 0.111187 0.031665 0.008916 -0.099306 -0.001735 0.038567 0.123231 -0.07983 0.011712
  0.067894 0.096875 -0.180444 -0.11619 0.064686 -0.06256 0.068193 0.011156 -0.037478 0.092257 0.083195 -0.101253 -0.003902 0.02731 -0.123939 0.057353 -0.117619 -0.051007 -0.134216 -0.041174 -0.032193 0.049922 -0.060922 0.021203 0.067847 -0.012121 0.082429 0.019004 0.022019 0.070942 -0.075006 -0.056639 -0.032537 0.086006 -0.014925 0.04702 0.050701 -0.043293 0.02798 -0.045723 0.06905 0.045416 -0.083456 -0.056916 0.005166 -0.130057 -0.095671 -0.100985 -0.129346 0.036692 -0.161964 -0.061081 -0.132613 -0.02461 0.030918 -0.084534 -0.101912 0.030192 -0.092403 -0.058843 0.069169 0.058716 -0.077129 -0.135248 0.075298 -0.06071 -0.097496 -0.048266 -0.081574 0.044604 0.040892 -0.000491 -0.074492 -0.02069 0.088067 0.114218 -0.011162 0.020242 0.003638 -0.168895 0.103616 0.039634 0.022929 0.003557 -0.077654 0.1019 0.054501 -0.11775 -0.03156 -0.013633 -0.005352 0.019593 -0.014002 0.004784 0.064963 -0.029937 0.14222 -0.008507 -0.022931 0.008386 0.069518 -0.045594 0.012817 -0.007147 0.054548 -0.088382 -0.067411 -0.074448 0.006338 0.001708 0.049836 0.027612 0.060777 0.03848 -0.049287 0.079324 -0.024147 -0.030252 0.102191 0.018199 -0.033323 -0.047448 -0.114316 -0.029208 -0.003584 0.074971 0.017479 -0.140724 -0.01765 0.058675 0.085503 -0.06805 -0.064304 -0.024395 -0.021702 0.079281 -0.000772 -0.072315 -0.021599 0.077686 0.078231 0.056943 -0.120754 -0.089521 -0.010925 0.026235 -0.035936 0.007989 0.009808 -0.032275 -0.04504 0.078802 -0.052346 0.061505 -0.022776 -0.07117 0.089522 -0.011249 0.109159 -0.068478 -0.081262 -0.06548 -0.067957 -0.021201 -0.098224 0.020106 -0.125055 -0.015695 -0.101696 0.141369 -0.146736 -0.066694 0.020001 -0.065714 0.071198 0.073041 -0.022516 0.116471 -0.016124 0.014816 -0.124383 0.015422 -0.129708 -0.149256 -0.122371 0.021561 -0.116668 -0.001649 -0.142635 0.114894 -0.022758 0.042908 -0.058234 -0.067267 0.032395 0.040336 -0.099297 0.027506 -0.018952 0.015836
  -0.020516 0.004601 -0.154933 -0.009429 0.009768 -0.070952 0.073216 -0.017497 0.038721 -0.023957 -0.03464 -0.095445 0.012769 -0.06584 -0.097872 -0.014881 -0.056118 0.051147 -0.1185 -0.042472 -0.057331 0.051607 -0.198561 0.080568 -0.035384 0.011959 -0.093798 -0.110839 0.009828 0.087508 0.01887 -0.012557 -0.217437 -0.129275 -0.022486 -0.060421 -0.070095 0.119238 -0.021567 -0.072921 -0.006553 -0.012763 -0.141603 -0.051663 -0.00914 -0.095695 0.098367 0.010814 0.026905 -0.072106 -0.069571 -0.070424 -0.087621 0.083468 0.066731 -0.040488 0.062742 0.063019 -0.092076 -0.085117 -0.008747 -0.005703 -0.007952 -0.076729 0.030953 -0.051742 0.036381 -0.05363 -0.012419 0.15994 -0.06165 -0.175079 -0.035857 -0.065684 -0.007298 -0.028578 0.051739 0.042999 0.0146 -0.019665 0.023897 0.008419 -0.066767 -0.001143 -0.026786 -0.167184 0.078894 0.082877 -0.009382 0.020745 -0.065837 0.016686 -0.013424 0.084441 -0.036453 -0.027408 0.14059 -0.040627 -0.00039 0.008186 -0.082792 -0.061558 -0.039575 -0.050192 0.057873 0.002764 -0.031813 0.005301 -0.008724 -0.00401 -0.028954 -0.077643 0.006469 0.045132 0.025098 0.034874 -0.033219 0.014466 0.10018 -0.092825 0.0563 -0.008051 -0.15841 -0.083669 0.015855 0.052823 -0.011625 -0.202373 -0.034566 -0.0614 0.008464 -0.126443 -0.026386 0.131919 0.082234 0.051388 0.062244 -0.016581 -0.081043 -0.114368 -0.043209 0.078545 -0.0366 -0.005334 0.133325 0.059378 -0.032458 0.030366 -0.024061 -0.026749 -0.021569 0.030266 0.066071 0.016952 -0.047512 0.035155 -0.030988 -0.122983 0.027487 -0.007197 0.038658 0.0289 -0.026516 0.073252 -0.155636 0.040974 -0.08464 -0.056981 -0.043473 0.015295 -0.177556 -0.193005 -0.077871 -0.043672 0.089854 0.011191 -0.044512 -0.09058 0.015882 -0.078955 0.014945 -0.039464 -0.00114 -0.130843 -0.056305 -0.051984 0.033101 -0.005881 -0.028297 0.120876 0.057025 -0.069955 -0.000212 0.061109 0.043893 -0.021997 -0.027899 0.101234 0.042396 0.110423
  -0.02597 0.114498 -0.068583 0.131988 -0.026395 -0.040578 -0.029538 -0.20484 0.026577 0.030774 -0.060082 0.117433 -0.043396 0.079939 -0.08274 0.129542 -0.043446 0.014248 0.12966 0.009434 -0.082236 -0.04609 -0.106454 -0.082889 -0.079069 -0.013551 -0.068373 0.166887 -0.18149 0.088387 0.074297 -0.051094 -0.082894 -0.011316 0.145666 -0.052461 -0.046777 0.018139 -0.146401 -0.096623 0.027264 -0.039803 0.103314 -0.113052 -0.069722 -0.008134 -0.091845 -0.177697 -0.185255 -0.081504 -0.02249 -0.029146 -0.042587 0.096755 0.092711 -0.016351 -0.180776 0.008376 -0.161441 -0.048778 0.077162 0.076795 -0.042073 0.024893 -0.025548 -0.044187 -0.071745 -0.01043 -0.256704 0.067548 0.031577 0.027358 0.009755 -0.167721 0.088224 0.019451 0.003216 -0.009768 -0.014071 -0.009952 -0.078443 -0.167641 -0.05842 -0.034422 -0.073113 0.003917 -0.196434 0.023378 0.048844 -0.099232 -0.173909 -0.014979 -0.004584 0.155081 -0.052519 -0.034074 -0.122774 0.017458 -0.101793 -0.060462 -0.065649 0.066982 -0.082132 -0.014026 0.065338 -0.072556 0.091078 0.000949 0.004034 0.099966 0.114971 0.105205 -0.180276 -0.058574 -0.122824 -0.225378 -0.079436 0.079172 -0.086147 0.128291 -0.002916 -0.176568 0.005033 -0.026643 -0.083145 0.180416 -0.152607 0.094825 -0.024429 0.055061 -0.015482 0.060389 -0.144304 -0.109005 0.040746 -0.09412 -0.074047 -0.047764 0.102301 -0.176145 0.015044 -0.017614 -0.027417 0.152418 -0.025297 0.060455 -0.05318 -0.076613 -0.083119 0.015331 -0.103919 0.085682 0.091254 -0.023874 -0.061822 -0.044274 0.064371 -0.141879 -0.080454 0.008284 -0.019277 0.053518 -0.078027 -0.147609 0.031567 -0.248173 0.092699 -0.074772 -0.086106 -0.126443 -0.058737 0.147577 0.058622 0.061248 -0.06132 0.000517 -0.052147 -0.021845 -0.077429 0.052163 0.069766 -0.044862 -0.103335 -0.000873 0.053489 -0.092621 -0.089038 -0.023693 -0.001127 -0.123084 -0.159863 0.098483 0.071142 0.007012 -0.032114 0.034862 0.010751 0.083528 0.022992 -0.062203
  -0.049731 -0.065391 0.042409 -0.013102 0.016748 0.10198 -0.026623 0.095454 -0.001265 0.003779 -0.000296 0.088506 -0.070637 0.029326 -0.005836 -0.058741 -0.146461 0.082668 -0.064573 -0.08596 -0.177319 -0.000816 -0.124046 -0.091629 0.067369 -0.054319 -0.054865 0.020112 0.080003 0.009515 0.057223 0.004596 0.047039 0.050121 -0.011937 -0.064019 -0.128098 -0.134075 0.005987 0.053273 -0.026511 0.029826 -0.102518 0.005781 0.018055 0.035515 -0.053598 0.085638 0.016517 -0.031084 -0.063696 0.058884 0.012996 -0.038233 -0.006443 0.073243 0.034072 0.0699 -0.084343 0.053919 0.054086 -0.003646 -0.035047 0.102317 -0.048103 0.002542 -0.04587 -0.067587 0.031422 -0.19953 -0.019041 0.096416 -0.097397 -0.041142 0.037661 0.047757 -0.068172 0.091839 0.02604 -0.09569 -0.065068 -0.083449 0.105054 0.050398 -0.007985 0.063576 0.019769 0.032042 0.075816 0.042768 0.02898 -0.027539 0.027944 -0.010843 0.047055 0.030761 -0.014017 -0.023346 -0.029773 -0.016561 -0.032108 0.029861 -0.031785 -0.073194 0.048365 -0.054887 -0.038239 0.071569 -0.062898 0.006218 -0.003721 0.105925 -0.074523 0.014215 -0.091766 -0.007895 -0.064633 0.054884 0.001302 -0.037377 -0.019442 0.099867 -0.108957 -0.014825 0.048847 -0.135594 0.026177 -0.010207 0.003722 -0.101285 0.008896 -0.003242 0.03968 -0.056075 -0.115438 -0.00313 -0.077161 -0.095515 0.026838 0.104031 -0.047359 -0.01818 -0.066876 -0.007153 0.043899 -0.082591 -0.074161 0.006246 -0.068469 -0.070397 0.050595 0.108641 -0.070111 0.089035 0.072589 -0.087771 0.000963 0.083519 0.071626 0.070139 -0.097032 -0.120561 0.133994 -0.055086 0.024618 0.085432 0.011599 0.031965 -0.012056 -0.040566 -0.072521 -0.0551 0.024734 -0.038779 0.11484 -0.048501 -0.005667 -0.014421 -0.009778 -0.018854 0.019007 0.044492 0.06325 0.014228 0.082282 -0.000309 -0.046513 -0.062245 -0.08835 -0.043768 0.065155 -0.130957 -0.088991 -0.058632 0.111428 -0.022323 0.027355 -0.029386 -0.079028 0.008704
  -0.006156 0.012297 -0.001976 -0.062284 -0.059293 -0.001243 0.05532 0.032708 -0.041487 0.036964 -0.00858 -0.009614 0.032016 0.024147 0.05497 0.063194 -0.032 0.001863 0.032864 0.07556 -0.031296 -0.034045 -0.014571 0.015502 -0.036857 0.003425 -0.05931 0.006458 0.039098 -0.139724 -0.016282 -0.029818 -0.166094 -0.03937 -0.001903 0.01622 0.035386 0.032007 -0.038458 0.064728 -0.045693 -0.007867 0.06661 -0.055302 -0.002448 0.006773 0.017836 0.044605 0.034207 0.028765 -0.021694 0.005258 -0.039472 -0.132118 0.004784 -0.014591 -0.030688 0.029319 0.059688 -0.009057 0.052677 -0.006078 0.038672 -0.051025 -0.079343 -0.026179 -0.002274 -0.042874 0.023885 0.042879 0.023758 0.094208 0.014949 -0.001982 0.034694 -0.077325 -0.009995 0.021917 -0.026788 0.055393 0.016164 -0.030448 -0.032424 -0.011156 -0.029502 -0.028926 -0.046067 -0.033655 0.022116 0.014844 0.031599 0.001537 -0.098822 0.006461 -0.070978 -0.011377 -0.038229 -0.009018 -0.020436 0.015749 -0.100916 -0.002315 0.006459 0.029694 0.089668 -0.016648 0.124428 0.065985 -0.031542 0.033354 0.060406 -0.001149 0.043945 -0.07128 -0.008696 0.026032 0.066259 -0.034007 0.021853 -0.071629 0.031782 -0.002329 -0.033953 0.037393 -0.032697 0.002465 -0.058959 0.102964 0.00559 0.052297 -0.071756 0.042987 -0.078023 0.097534 0.004112 0.021948 -0.021827 -0.086854 0.047132 -0.005238 0.020773 0.06397 0.049342 0.038339 -0.030611 0.048216 0.008887 0.069497 0.027832 0.006251 -0.007778 0.018351 0.081328 0.013736 0.059288 -0.007673 -0.058789 0.045548 0.014677 0.031713 0.010663 0.042458 -0.075923 0.060978 -0.051643 -0.045544 0.058887 -0.052213 0.007952 -0.057735 0.079267 0.001917 0.0282 0.042715 0.056346 -0.001953 -0.029065 0.069639 -0.050324 0.014138 -0.005749 -0.035784 0.029617 0.002937 0.02756 0.000905 0.070877 -0.013176 -0.092619 0.096145 -0.051155 0.077062 0.005531 0.068435 -0.030828 -0.021781 -0.044833 0.020553 -0.056071 0.032647
  0.009278 -0.127754 -0.041876 -0.033769 -0.084255 -0.127649 0.033335 0.010404 0.048794 -0.007583 -0.002531 -0.059835 0.00812 -0.020379 0.022167 0.041429 -0.024984 0.052202 0.065261 0.069884 0.015717 0.0501 0.05831 -0.063411 0.035803 0.043292 -0.063501 -0.000786 0.04274 0.013092 0.079836 0.113822 0.014763 0.069601 0.022173 -0.017213 0.038906 0.036933 0.05025 0.01514 0.011078 -0.013115 0.010885 -0.049485 -0.009057 -0.055594 -0.016003 0.059961 -0.055471 0.006407 -0.082091 -0.029179 -0.013812 -0.069375 0.010608 -0.069973 -0.017597 0.044653 0.079709 0.026 0.022894 -0.008595 -0.110533 -0.166638 -0.066892 -0.002952 0.055862 -0.033094 0.074125 -0.021602 0.015671 -0.090491 -0.029085 -0.033809 -0.086801 0.021046 -0.042399 0.029796 -0.020479 -0.012739 0.046254 0.028812 -0.019032 0.03903 -0.03079 0.045575 -0.013652 0.071994 0.010466 0.003489 0.014745 0.002292 -0.007974 0.063662 -0.059066 0.043654 -0.084565 -0.070855 0.013275 -0.062978 -0.076298 -0.065196 0.047879 0.00126 -0.055222 -0.070335 -0.026455 0.038322 0.020138 -0.051671 0.08366 -0.093672 0.067026 0.015572 -0.045995 0.000275 0.075471 -0.020658 -0.053407 0.043588 -0.007998 -0.091915 -0.043843 0.085115 0.046775 0.076351 0.066054 0.079493 -0.001997 -0.068783 0.060474 -0.06741 -0.025663 0.029252 0.008345 0.091597 -0.033256 -0.027901 -0.014068 0.012993 0.024528 0.074351 0.017864 -0.076605 -0.010357 0.028676 0.00722 -0.105598 0.048473 0.046175 -0.02096 0.057393 0.093027 0.005282 0.045269 -0.00386 -0.000506 -0.024011 0.084383 -0.021316 -0.013581 0.063165 0.049934 -0.035012 0.01349 -0.031951 0.078457 0.0102 -0.000437 -0.010639 0.043212 0.012204 -0.061017 0.046745 -0.052638 -0.04078 0.068509 0.07062 -0.013101 -0.038735 -0.039953 -0.022197 0.057325 -0.050708 -0.09623 0.046275 -0.035533 0.019858 0.032248 -0.002048 0.076997 -0.005943 0.033669 -0.065745 -0.01834 0.033915 -0.020598 -0.035602 0.00044 0.002715
  -0.005636 -0.009226 0.010826 0.00347 0.002782 -0.024489 -0.045879 0.021746 0.109104 -0.009702 0.000722 0.027963 -0.083935 -0.035346 0.026734 0.038759 0.077016 0.013906 -0.13991 0.071848 -0.002725 -0.005208 0.024826 0.049571 0.011591 0.033914 0.029553 -0.003959 0.01084 -0.04516 -0.013815 -0.031386 0.08205 -0.058201 0.08475 0.013367 0.010795 0.010395 0.031421 0.00482 0.054066 0.010602 -0.082556 0.057752 0.011428 -0.025371 0.002396 -0.017455 0.026179 -0.023197 0.001125 -0.015816 0.001772 -0.015421 0.002821 0.002126 0.070531 -0.01684 0.012082 0.002591 0.022126 -0.022673 -8e-06 0.061034 0.001563 0.010584 0.018238 -0.008246 0.084754 0.019924 0.052314 -0.009016 0.038743 0.051858 0.070539 0.066607 -0.04832 -0.001354 -0.009295 0.059077 -0.016351 -0.016563 0.030792 0.008991 -0.016362 -0.046903 0.035823 0.043546 -0.01581 -0.03712 0.001427 -0.035513 0.020771 -0.018451 -0.034995 -0.049032 0.012833 -0.068615 -0.022039 0.028786 -0.073743 -0.043631 -0.045309 0.036261 0.048927 0.058103 0.054321 0.002816 -0.006747 0.011885 -0.052485 -0.045517 0.035739 0.016389 0.017524 0.041541 0.024574 -0.042585 0.076023 -0.007591 -0.038674 0.083845 0.00901 -0.033704 -0.022469 0.031802 0.111452 0.005305 0.00985 -0.040511 0.030382 -0.048879 0.030035 0.003254 -0.001898 -0.17715 0.098282 -0.020744 -0.024 -0.002795 0.009842 0.073603 0.058235 0.024048 -0.091279 0.005026 -0.018932 -0.097839 -0.006218 0.031027 -0.045579 0.01982 0.049098 0.039623 0.001285 0.055636 0.001924 -0.011212 0.065549 0.013672 0.00881 -0.016849 0.036351 -0.003261 0.038051 0.001906 0.040321 -0.000919 -0.024662 -0.021707 -0.041422 0.049862 -0.013671 -0.021038 -0.037506 0.033539 -0.112814 0.050342 0.013778 0.007067 -0.040482 -0.047483 0.052199 -0.048634 -0.027628 -0.017506 -0.006635 0.022369 -0.028545 -0.146975 0.004023 -0.089563 0.014363 0.029187 -0.012375 -0.015638 -0.00419 0.002614 0.005154 -0.060803
  0.019231 -0.092428 0.007921 0.041422 0.026383 -0.021649 -0.097411 0.022399 0.01157 0.020654 0.021235 -0.022914 -0.053818 0.056924 0.007422 -0.020493 0.055599 0.085252 -0.012411 0.015786 -0.010144 0.085939 0.076394 -0.02429 0.00972 0.050147 0.098911 -0.020689 -0.060325 0.037865 0.045487 -0.015704 0.07319 -0.016599 0.049402 0.029556 0.031767 -0.053368 0.010915 -0.065777 0.055558 -0.047639 0.016558 0.024261 -0.060589 -0.043849 0.003652 0.080185 0.083787 -0.037008 -0.098846 0.001388 0.026735 0.038411 0.006265 -0.028257 -0.059291 0.045146 0.012271 0.001292 0.047751 0.031264 0.035868 0.033169 -0.028341 -0.01173 0.013777 -0.019221 -0.052064 0.064189 -0.0087 0.039153 -0.059521 0.019421 -0.08084 0.016788 0.105132 0.010683 -0.000581 -0.005116 0.014406 0.014463 -0.036852 0.030148 -0.001691 0.009265 0.053173 -0.011464 -0.015991 0.021306 -0.029623 -0.047587 -0.070605 0.019956 0.039246 -0.094516 -0.046229 -0.081744 -0.037573 -0.060408 0.041684 -0.056197 -0.010001 -0.031736 -0.012878 -0.135047 0.002257 0.019104 0.020235 0.016482 -0.097134 -0.095768 0.031459 0.022807 0.039121 -0.010989 -0.069168 0.017683 0.066864 -0.010597 0.016535 -0.183237 0.114453 -0.024771 -0.007161 0.07832 -0.016679 0.114137 -0.028925 -0.009935 -0.076604 -0.022814 0.090441 0.030422 -0.097959 -0.063221 0.009157 -0.057694 0.009285 0.003432 0.001947 0.057169 0.066906 -0.02029 0.090691 0.042832 -0.072008 -0.042852 -0.155887 0.059715 -0.015028 -0.088994 0.078227 0.020519 0.025255 0.076334 -0.020527 0.049461 -0.010476 0.010975 0.046308 0.036782 -0.092494 -0.003892 0.061576 0.01081 0.086586 -0.013829 0.037889 -0.091194 -0.107178 0.022076 0.012985 0.04226 0.032512 -0.024711 0.004867 -0.004704 -0.007967 0.068276 0.009702 0.010718 -0.082902 -0.010963 -0.000225 -0.047764 0.083103 -0.013203 -0.019786 0.024697 0.016556 -0.094544 0.069093 -0.026644 -0.019238 0.026328 -0.053176 0.065012 0.012814 0.001187
  -0.025203 0.102906 -0.122397 0.045226 0.004418 -0.049102 0.040036 0.074434 -0.023059 0.017566 -0.037169 0.051121 -0.026846 0.022251 0.045068 0.000777 -0.024305 -0.029951 0.085142 0.022242 -0.040113 -0.014412 0.042563 0.091739 -0.016664 -0.041031 0.013798 0.030054 -0.0095 0.076129 0.02283 0.049327 0.071466 -0.020239 0.051777 -0.038839 0.031973 0.049011 -0.001097 0.010144 0.044158 -0.073894 -0.07017 0.00651 -0.045645 -0.011574 -0.039944 0.002397 -0.057596 -0.022056 0.031608 -0.009363 -0.049675 -0.021508 0.022276 -0.058262 -0.008169 -0.001913 -0.032908 -0.069855 0.028981 0.003625 0.013754 -0.125804 0.006239 -0.043588 -0.003861 0.019184 0.016343 -0.153716 0.01249 0.084235 0.017957 0.063953 -0.060194 -0.063593 -0.007358 -0.027886 -0.03317 -0.047181 -0.018875 0.021047 0.020373 -0.001985 -0.010399 0.05979 0.082512 -0.029803 0.004835 0.022175 -0.035391 0.001699 -0.059707 0.016712 -0.024367 0.064829 0.016838 -0.081746 0.029551 -0.038206 -0.065235 -0.041594 -0.029042 -0.011957 -0.032667 0.026124 -0.044517 -0.024812 -0.043341 0.017167 -0.062183 -0.013662 0.042907 -0.040673 -0.039586 0.025177 0.039299 0.027238 0.136863 0.031511 0.015114 0.025362 0.06279 -0.042137 0.058939 -0.026624 0.036813 -0.112089 -0.032032 -0.017624 0.090964 -0.009355 -0.074404 -0.015935 -0.071451 0.050436 0.073762 -0.04436 0.00937 0.01914 0.033605 0.05239 -0.02271 -0.015442 0.013776 -0.022503 0.005364 0.059691 0.011286 0.088285 -0.034045 0.123688 0.053446 0.032484 0.070385 -0.145164 0.01235 0.052322 -0.008773 -0.005546 0.024157 0.064644 0.058558 0.01013 0.055325 0.028096 -0.008644 -0.020979 0.020858 0.001646 -0.147584 -0.014703 -0.007541 -0.035189 0.017173 -0.011541 -0.063045 0.046698 0.049374 0.051895 -0.023995 -0.016466 0.030089 -0.005929 -0.077976 0.098292 0.004497 -0.070294 -0.009474 -0.0722 0.048963 0.064448 0.013166 0.004447 -0.055926 0.020497 -0.011897 -0.013496 -0.00272 -0.047623
  -0.022049 0.031116 -0.033146 -0.047834 -0.063409 -0.066201 0.039186 -0.01708 0.046704 -0.025408 -0.022782 0.108006 0.021049 -0.090796 0.035675 -0.076037 0.00241 -0.031415 0.023992 -0.034146 -0.040242 -0.053252 -0.07803 0.036689 0.010428 0.011413 0.033784 0.049277 0.071957 0.007829 -0.070201 -0.017207 -0.015543 0.028997 0.022154 -0.014156 0.036638 0.005025 0.038804 0.007427 0.007618 -0.047649 -0.031499 0.030101 0.023454 0.000408 0.059286 0.046561 -0.003338 0.003641 0.019501 0.10036 -0.024912 0.087703 -0.014293 0.065291 -0.044704 -0.02241 0.101943 0.040357 0.029889 -0.024308 0.042469 -0.113732 0.042305 0.036461 0.013714 -0.007611 -0.03404 -0.022348 0.053889 -0.071067 0.044261 0.066097 -0.129064 0.051774 -0.030447 -0.02769 0.019816 0.021546 0.009684 -0.005376 0.030698 0.017353 -0.015355 0.075388 0.015844 -0.003987 -0.047682 -0.034642 0.036688 0.052918 0.009275 0.095501 0.02047 0.099307 -0.00883 0.02437 0.0067 -0.001379 0.05611 -0.079412 0.050417 -0.060869 0.035351 0.00033 0.022317 -0.072138 -0.017209 0.023508 0.021327 -0.081061 0.036558 0.028805 -0.068834 -0.145167 -0.05906 0.04048 0.0232 0.001827 -0.021508 0.012745 0.111177 0.011661 0.029717 0.070586 -0.035196 -0.061606 0.019642 -0.079854 0.017646 -0.056997 0.05582 -0.035461 -0.052723 0.140277 -0.050419 -0.10295 -0.028602 0.030935 -0.057315 0.038743 0.00662 0.00425 -0.034622 0.007056 -0.106321 -0.011848 0.004314 0.075206 -0.035746 -0.057716 -0.004059 0.071544 0.070212 0.047406 0.018488 0.069549 -0.033723 -0.037693 0.033824 -0.045045 0.092274 0.002754 -0.049149 0.010326 -0.003028 -0.011289 -0.027193 0.08436 0.033376 0.046373 -0.000893 -0.070141 0.01272 0.064611 -0.014592 -0.006731 0.009756 -0.006188 -0.060533 0.011044 -0.063372 0.024093 -0.011086 0.02824 -0.019669 -0.006713 -0.026427 0.115096 0.001784 -0.132012 0.037882 0.008607 -0.019403 -0.031547 -0.032891 0.017226 0.022255 -0.082218
  -0.034893 0.173003 0.03226 -0.064646 0.036201 -0.028527 -0.000271 0.016716 0.072186 -0.053902 -0.026933 0.035278 0.025267 0.048181 -0.033677 -0.112845 0.005324 -0.096314 0.075066 0.065167 -0.004871 -0.057736 0.068118 -0.029539 0.039708 -0.00384 0.106635 0.135334 -0.117452 -0.098144 0.085892 0.036789 0.069672 0.004612 -0.047275 0.034162 -0.032569 0.020362 0.02124 -0.053997 -0.003467 0.004147 0.067445 0.050118 0.018652 -0.007198 0.051716 0.043438 -0.033611 0.036591 -0.049099 0.00585 0.000991 0.036067 0.101208 -0.020897 -0.103146 -0.107112 0.078413 -0.003702 0.018307 0.060342 -0.000873 -0.052495 0.053903 -0.025661 0.020773 -0.035284 0.10279 0.200751 0.071719 0.018466 -0.030062 -0.112035 -0.084828 0.03478 0.053102 -0.049028 0.013215 -0.001359 -0.022661 0.069923 -0.015601 -0.073781 0.030892 0.053779 0.039655 0.019483 -0.020596 -0.054654 -0.079124 -0.019793 0.01752 -0.057845 0.022639 -0.041595 -0.031065 -0.009232 0.011568 -0.042415 -0.047546 0.071626 0.018543 0.032044 0.083469 -0.107399 -0.001466 -0.072672 -0.060733 0.063958 0.026046 -0.013474 0.032353 -0.116865 -0.003086 -0.075419 -0.156192 -0.071483 0.048511 0.136806 -0.056683 -0.009116 0.004546 0.016176 -0.076401 -0.064321 0.044236 0.159691 0.010184 0.045851 -0.119009 0.008077 -0.075979 0.10737 0.008707 0.025238 0.014782 0.014351 -0.01206 -0.063497 0.011945 -0.050582 0.064344 0.053702 -0.007447 -0.076964 0.028175 0.032203 0.089481 0.036429 -0.010611 -0.02313 0.09931 -0.004961 0.029832 -0.101109 0.002133 0.018706 -0.014727 -0.02902 0.077846 0.060697 -0.077471 0.026826 -0.016 0.048945 -0.081545 -0.004453 0.020825 -0.022181 -0.008542 0.030272 0.055505 0.116724 -0.018066 -0.01515 -0.047795 0.005846 0.055614 -0.049596 0.02718 0.010456 -0.051701 0.027012 0.052407 0.02502 0.015808 0.013077 0.068055 -0.019127 -0.041742 0.119397 -0.017706 -0.042905 0.009967 0.014203 0.020076 0.063843 0.075859 -0.005154
  0.03989 -0.111005 -0.053472 -0.123948 -0.106416 0.030047 -0.083646 0.021944 -0.013761 -0.033721 -0.017963 -0.157139 0.01865 -0.019669 -0.079553 -0.069313 -0.033447 0.021712 0.029922 0.011805 -0.026067 -0.055048 -0.013243 0.073976 0.010549 -0.052336 0.057099 -0.050032 0.034267 -0.023865 0.071295 -0.065523 -0.136386 -0.069477 -0.041947 -0.066102 -0.038294 0.081595 0.080642 0.085772 0.097928 -0.013441 0.0229 0.022537 -0.050709 -0.010289 0.009155 -0.014952 0.030747 -0.015532 0.065556 -0.04107 0.010582 -0.11733 0.051498 0.007408 -0.028036 -0.020237 0.019036 -0.029843 0.027574 -0.024024 -0.032578 -0.064957 0.068541 -0.080889 0.011586 -0.030658 0.00168 0.044868 -0.019652 -0.067938 -0.013923 0.076048 -0.111591 0.043224 0.059553 -0.029076 0.058954 -0.058074 -0.016437 0.0104 -0.028226 -0.036291 -0.005907 0.069271 0.034735 -0.12822 -0.005435 -0.011194 -0.073143 0.023721 0.029178 -0.017853 -0.00972 0.046483 -0.021182 -0.007133 -0.066492 0.084253 0.098756 0.026508 -0.049843 -0.029808 -0.093598 -0.085451 0.011915 0.028239 0.027181 0.035624 -0.122581 0.022941 -0.045889 0.035629 0.021788 0.049286 -0.107175 -0.016029 0.094828 -0.065802 0.007824 0.025601 -0.073179 -0.031684 0.067691 -0.008219 0.056873 -0.080959 -0.046966 -0.035295 -0.064594 0.037539 0.054088 0.061152 0.054043 -0.005426 0.041732 0.06269 0.030948 0.066571 -0.061962 -0.035708 -0.068019 -0.013673 0.016658 -0.03688 -0.04191 -0.111838 0.003176 -0.060189 -0.010445 0.046673 -0.020545 -0.064771 -0.044896 0.071466 0.071755 0.056282 0.006853 -0.011227 0.022469 0.000612 -0.093153 -0.016772 0.062934 0.095987 -0.015259 0.004884 -0.060221 0.058663 0.114199 0.041963 0.063456 -0.12713 -0.043302 -0.002867 -0.001504 0.085227 0.020309 0.00694 0.039957 0.037596 -0.092064 -0.115413 0.066346 0.004117 0.041841 0.001372 0.026121 0.136204 0.055973 -0.005442 0.035904 -0.070326 -0.008613 -0.003554 -0.009341 0.041669 0.043368 0.046034
  -0.020367 0.08214 -0.002813 -0.07115 0.036266 -0.033159 -0.114976 0.032256 -0.068897 0.033989 -0.00303 -0.053249 0.030515 0.019161 0.034993 0.054524 -0.019789 0.095287 -0.094972 0.069504 0.035243 0.041256 0.043678 -0.011283 0.006025 0.05435 -0.114556 -0.05617 -0.070285 -0.002557 -0.019704 -0.046362 -0.015911 0.075953 -0.045761 -0.004666 0.005649 0.015201 -0.060386 0.109009 0.071275 -0.006333 -0.008506 0.048456 -0.015384 0.003721 -0.033896 0.04923 -0.043356 -0.043877 -0.05922 0.020729 -0.012228 0.007797 0.064586 0.012567 -0.06533 0.07272 -0.020157 0.042312 0.05724 0.027343 -0.109372 -0.092414 -0.085004 0.011716 0.01873 -0.056492 0.018215 0.081516 0.016406 -0.12588 -0.031273 -0.037213 0.0875 -0.104561 0.050814 0.069259 -0.015035 -0.059551 0.057436 -0.020025 0.037071 -0.017954 0.014485 -0.019212 -0.02126 0.020253 0.012687 0.014003 0.016129 -0.031064 -0.021693 0.046708 0.026867 0.102452 -0.05752 -0.040047 -0.038332 -0.077062 -0.054207 -0.046825 -0.017533 -0.000477 0.044631 -0.100423 -0.106832 0.051439 -0.016106 -0.050964 0.040591 0.005875 0.005952 0.010306 0.024179 -0.081672 0.060418 -0.038084 -0.015219 -0.013571 -0.00834 -0.015979 1.9e-05 0.042922 0.026709 -0.053726 0.089891 0.108688 -0.020057 -0.035857 0.03357 -0.051716 -0.047884 -0.127407 -0.010983 -0.011044 -0.05303 -0.00684 0.055812 0.006075 -0.044043 -0.039721 0.028305 0.020932 0.043617 -0.072197 -0.104069 0.013472 0.02958 -0.004514 0.067637 -0.052753 0.0458 -0.046009 -0.05102 -0.113354 0.058958 0.03826 -0.013138 -0.000299 -0.073292 0.114809 0.004113 0.091019 -0.008544 -0.104128 -0.10139 -0.040851 -0.006563 -0.083628 -0.130436 0.007583 0.032856 0.135392 -0.10034 -0.005844 0.026599 0.054834 0.005922 0.049424 -0.028639 -0.007396 0.042882 0.056588 -0.038263 0.011789 -0.047518 0.005459 -0.05536 0.125495 -0.028621 0.043037 -0.028914 -0.055035 -0.083088 -0.073461 0.002647 0.030339 0.05375 0.029135
  0.010021 0.017693 -0.046783 -0.039127 0.055943 0.004178 0.066976 -0.000727 -0.044215 0.020898 -0.014124 0.012668 0.057092 -0.002938 -0.01243 0.030155 -0.02069 -0.142589 0.058105 0.041663 -0.006623 0.02152 0.087255 -0.016869 -0.02547 -0.010484 -0.083032 -0.08153 -0.019339 0.060625 -0.000788 -0.125543 0.131073 -0.025718 0.063834 0.045154 0.024378 0.052777 -0.004643 0.001666 -0.123574 0.05964 0.015299 0.023263 0.019688 -0.009227 0.04766 0.068649 0.078236 -0.000742 0.034753 -0.074172 -0.035924 -0.146548 0.043434 0.03444 -0.015373 -0.00856 0.013034 0.025904 0.01003 -0.012909 -0.031126 0.039514 -0.054679 -0.022446 -0.022766 -0.054479 0.04822 0.080543 0.022076 -0.057294 -0.034783 0.054799 -0.076685 -0.113917 0.098454 0.038028 -0.020769 -0.013538 0.023948 0.030437 -0.004196 0.011327 0.029094 0.023999 -0.042179 0.041324 0.044814 0.03987 -0.062227 -0.056218 -0.004663 -0.048008 0.020824 0.042655 0.040237 0.004934 0.008916 -0.075867 -0.036507 -0.148555 -0.069579 -0.044072 0.048158 -0.105383 -0.026212 0.004473 0.042392 0.037223 0.019213 -0.036069 0.004548 0.030079 -0.056568 -0.059734 0.082584 0.002868 0.0134 0.010627 -0.066397 -0.111505 0.002718 0.020956 -0.018472 -0.096285 0.030074 -0.052191 0.003336 -0.016967 0.006533 -0.003985 -0.061259 0.04949 -0.037875 0.022042 -0.093704 0.009249 -0.015293 -0.018932 0.063292 0.050523 -0.032064 0.009278 0.082852 0.020611 -0.080358 -0.007221 0.011278 0.013299 0.014459 -0.073633 0.060914 0.011746 0.034263 0.1117 0.047938 -0.002664 -0.002063 0.037994 -0.091042 0.08562 -0.034182 0.059049 0.078864 0.041319 0.023037 0.002913 -0.036253 -0.04309 -0.011212 0.074116 0.028222 0.018773 0.114337 0.040825 -0.085805 0.020427 0.060324 0.010066 0.016081 0.038547 -0.057488 0.056053 0.038795 -0.052216 -0.035818 0.007254 0.072534 0.145233 0.069355 0.002928 0.073334 -0.015574 -0.036177 0.003169 -0.024715 0.0075 0.048297 -0.085317
  0.021089 -0.059843 -0.109841 0.013127 0.093477 -0.039373 -0.047869 0.03515 0.083575 -0.034327 0.027587 -0.013061 -0.037313 -0.062948 -0.01601 -0.041274 0.030927 0.013979 0.071683 0.065784 0.046509 -0.006865 0.03622 0.066042 -0.005082 0.008335 0.046582 0.051108 -0.049402 -0.068738 0.080815 0.039331 -0.040512 -0.005591 -0.002661 -0.029531 -0.012786 0.054481 0.068577 0.014326 0.016725 0.056184 0.030206 -0.014141 0.029211 0.026539 -0.020737 0.003601 0.067675 -0.016239 0.00645 -0.090543 -0.038585 -0.066865 0.023357 -0.017747 -0.087759 -0.014567 0.037092 0.030983 0.005568 0.067794 -0.03421 -0.116804 -0.061526 -0.061206 0.013699 0.027677 0.079229 -0.03347 0.005587 -0.037185 -0.045683 0.041309 0.057694 -0.051428 0.023538 0.049373 -0.081552 -0.047924 -0.078634 0.004272 -0.03978 0.024705 0.059224 -0.141314 -0.023654 -0.059658 -0.037637 0.060242 -0.03032 -0.040022 0.009691 -0.062935 -0.074617 0.076234 -0.063022 0.013021 0.01444 -0.001647 0.0427 -0.05854 0.028985 -0.010899 0.018597 -0.046189 0.044435 -0.036958 0.014892 0.085345 -0.05445 0.012596 0.023826 0.083199 -0.032888 -0.058625 -0.031237 0.008696 0.088302 -0.0027 -0.017026 0.021984 0.017195 0.020558 -0.004846 -0.087523 0.014336 -0.135961 -0.027795 -0.04383 -0.136575 -0.020194 -0.009386 -0.071818 0.052705 -0.222347 0.05312 0.048103 -0.045537 -0.075833 0.032424 0.013464 0.04695 0.02301 0.048053 -0.030051 -0.050336 0.071138 0.003145 0.014806 0.002226 -0.087248 0.016246 0.003009 -0.042158 0.120662 -0.017523 0.030369 -0.01181 -0.02311 -0.106346 -0.040231 0.038951 -0.068579 0.078272 0.029836 0.000955 -0.013959 0.020352 0.084782 0.021507 0.017403 -0.075398 -0.002391 -0.079767 -0.02635 -0.092094 0.095828 -0.010626 -0.048109 0.023023 0.040455 0.06114 0.003386 -0.046694 -0.074959 0.045421 0.05601 -0.058103 -0.031352 -0.021893 -0.096618 0.009449 -0.029468 -0.019007 -0.019656 0.002347 0.060962 0.080162 -0.158194
  -0.044887 -0.038806 -0.020475 -0.099194 0.043375 0.108667 0.070689 0.008701 -0.014841 -0.040929 -0.07688 0.082309 0.044392 0.023607 -0.044785 -0.069121 -0.021324 -0.055549 -0.046694 0.031451 0.02814 0.060712 -0.005926 -0.009937 0.004603 -0.010977 -0.1036 0.030744 -0.039798 -0.121281 0.049378 0.025137 0.057546 0.09876 0.011092 -0.004345 0.060164 0.058088 -0.026082 0.017861 -0.009349 -0.028715 -0.07887 0.049044 0.012912 0.016572 -0.051501 0.01921 0.040611 -0.009054 0.033218 -0.020749 -0.058888 0.037677 0.071644 0.031262 0.0839 0.015988 0.087001 -0.011101 0.043677 -0.062478 0.006631 0.030425 0.064994 -0.021993 0.052431 0.026786 0.020138 -0.125022 -0.028577 0.048573 -0.000399 0.013487 -0.128925 0.02588 0.049665 0.00531 0.075418 -0.046761 -0.031239 0.002599 0.018571 0.030075 0.062035 -0.186404 0.015709 -0.02549 0.015781 0.043211 0.032912 0.013514 -0.00398 -0.083044 0.064116 -0.07932 -0.020403 0.016143 -0.00694 -0.0107 -0.051352 -0.059037 -0.004282 -0.016888 0.056074 0.03966 -0.033635 -0.085847 -0.091675 0.079132 0.094461 -0.010302 0.016419 0.08239 0.083758 -0.076238 0.042011 -0.005633 -0.056419 -0.120943 0.026714 -0.024629 -0.042407 0.065697 0.03181 -0.107155 0.082928 0.103444 0.017314 -0.044044 -0.061584 -0.082957 -0.017161 -0.059628 0.073173 0.024892 -0.074048 0.027782 -0.058416 0.003102 0.046365 -0.064159 -0.07962 0.041238 0.08123 0.027067 -0.005785 0.065602 -0.015435 -0.028926 -0.021362 -0.036967 0.001886 0.000758 0.07245 0.085336 0.054787 -0.046794 0.061452 0.056698 -0.041481 0.023981 -0.073663 -0.063502 -0.005947 0.013164 0.012461 0.023404 -0.046278 -0.031189 0.009725 -0.019904 -0.061856 0.098924 -0.104079 -0.031152 -0.023827 -0.030901 0.02255 -0.037774 0.057844 -0.043583 0.03677 0.080453 -0.024877 -0.025328 0.035718 0.002893 -0.024215 0.056697 0.022939 -0.035897 0.026509 0.041089 0.022325 -0.03987 0.000666 0.076631 0.054968 0.001075
  0.03246 -0.037512 0.003955 -0.027792 0.031789 -0.086328 -0.060061 0.02312 -0.137626 0.006313 0.042439 0.121182 -0.050883 -0.076941 0.050931 0.045417 0.021075 -0.106037 0.076028 -0.051614 -0.001883 0.092771 0.007668 -0.015085 -0.008587 0.018111 0.150849 -0.047195 0.052656 -0.004119 -0.048792 0.019364 0.035664 -0.031438 0.009239 0.002161 0.021447 -0.057995 0.05447 -0.12839 -0.073519 0.015093 0.06735 0.024957 -0.027209 -0.011484 0.040524 0.017137 0.067247 0.01347 -0.051271 0.029778 -0.006308 0.026544 0.052694 -0.042037 0.026731 -0.022821 0.040535 0.003141 -0.022698 0.052814 0.040488 0.022617 0.13556 -0.044776 0.078131 -0.019864 0.065542 -0.023006 -0.021366 -0.004117 0.032852 -0.081478 -0.072288 0.018653 0.009963 -0.03911 -0.004528 0.033553 -0.085616 0.080201 -0.006805 -0.035523 -0.014375 0.022964 0.000356 0.001822 0.071199 -0.035328 0.06456 -0.004293 0.041013 0.022638 -0.030321 -0.125831 -0.002508 -0.028431 0.054005 0.015768 0.024711 0.096353 -0.096704 -0.0096 -0.022446 0.07863 0.080961 0.022268 -0.177079 -0.060212 0.042903 0.053191 -0.040684 0.054753 -0.002689 0.035298 0.026626 -0.06997 -0.018893 0.028672 -0.004487 -0.149955 -0.061732 0.036122 -0.046909 0.024666 0.040361 0.111648 0.044846 0.111224 0.059755 -0.022632 -0.008922 0.03344 -0.022093 0.031502 -0.106353 0.037405 -0.022097 -0.045505 -0.017627 0.057907 0.131828 0.045937 -0.105172 -0.059701 0.06161 0.041536 0.081587 0.063313 -0.018988 0.039167 0.00384 -0.044889 0.082362 -0.053773 -0.046273 0.065153 -0.025321 0.060726 0.073238 -0.109914 -0.04608 -0.056731 -0.0111 0.095854 -0.05068 0.054382 -0.000241 0.059457 -0.024073 0.057269 0.019676 -0.108548 0.038878 0.028406 -0.073375 -0.073981 0.013124 -0.004062 -0.002966 0.032573 0.072973 0.025862 -0.106504 0.080944 0.00413 -0.028114 -0.01838 0.047066 0.027972 0.0361 0.084289 0.084909 -0.076054 -0.032287 -0.113035 0.065786 -0.065648 0.0225
  0.043783 -0.044824 0.154879 0.040068 -0.000287 0.018256 0.080811 0.08976 -0.008042 0.008418 0.011324 0.01779 -0.050567 -0.032917 -0.059985 0.024379 -0.006815 -0.011912 -0.007853 -0.069909 -0.024536 -0.073207 0.070908 0.046311 -0.028112 0.014473 -0.038174 -0.1277 -0.004038 -9.8e-05 0.032915 0.027742 0.141253 0.03538 -0.06075 -0.043946 0.049814 -0.020722 -0.002682 -0.037111 0.128048 -0.002912 -0.135351 0.003953 0.036137 0.033469 0.046938 0.106741 0.039558 -0.003255 -0.080001 0.113437 -0.009429 -0.020218 0.060393 0.014485 -0.160772 0.058827 -0.033288 0.032842 0.011084 0.025216 -0.049887 -0.130143 0.004325 -0.001557 0.028362 -0.018337 0.140446 0.053183 0.007507 0.068032 0.020721 -0.086551 0.036616 0.013277 0.014337 -0.139475 -0.042162 0.007111 0.05999 0.028063 0.045254 0.042827 -0.116317 0.019936 -0.047613 0.100104 -0.03464 -0.022225 0.014405 0.017855 -0.000501 -0.061403 -0.048771 -0.095115 -0.087796 0.021029 -0.048054 0.040512 0.018142 -0.013897 0.044335 0.016827 -0.042791 -0.136096 0.06812 0.004403 0.042389 0.041989 0.112771 0.036268 0.035181 0.082082 0.033416 -0.014435 0.015993 0.008555 0.008543 -0.068596 -0.031186 -0.181391 0.183154 0.013087 0.035173 -0.002087 -0.039962 0.050485 0.001688 -0.082843 0.017593 -0.089881 0.123979 0.019874 -0.00734 -0.105276 0.100092 0.030124 -0.074706 -0.001663 0.110001 -0.008723 0.038264 -0.075548 0.052176 0.013448 -0.11841 -0.098903 0.050079 0.017846 -0.00838 0.021931 0.021245 0.025467 -0.041178 -0.005772 0.060906 -0.08038 0.018134 -0.024409 -0.005656 -0.016187 -0.017497 -0.204153 -0.028185 -0.022483 -0.010368 -0.020272 -0.04016 0.085519 -0.070898 -0.071525 -0.027308 -0.099095 0.084452 0.011439 0.0516 -0.093145 0.043073 0.015837 0.000766 -0.030587 -0.026622 0.008186 -0.071059 0.076225 -0.002925 -0.037599 0.093195 -0.025865 0.000929 0.060248 0.086847 0.045257 0.005571 0.061768 -0.058241 -0.153161 -0.057232 0.046992
  0.029511 -0.002522 0.096858 -0.087671 0.090949 0.06161 -0.005622 -0.021259 0.040784 -0.0291 0.045624 0.139411 -0.108429 -0.039649 -0.044041 0.028086 -0.0134 0.118976 0.138067 -0.051173 0.059646 0.03977 -0.109272 -0.06587 0.001035 0.065313 -0.03454 -0.080102 -0.110192 0.040421 0.010066 -0.064795 0.021173 -0.027054 -0.027866 -0.047291 0.023074 0.011668 -0.035829 0.021532 -0.013435 0.025071 -0.129715 0.021151 0.000854 0.059929 0.028828 0.111229 0.06535 -0.009651 -0.020521 -0.054409 0.018888 -0.126767 -0.021313 0.018339 0.001851 -0.005269 0.108349 0.075594 -0.005164 0.033505 -0.029869 -0.023677 -0.054658 0.052767 0.052405 0.073123 0.038313 -0.009328 -0.055892 -0.054478 -0.024532 -0.041101 0.025763 0.029438 -0.044293 -0.024665 0.045313 0.027316 0.003846 -0.041651 0.003305 0.011505 0.02426 -0.074751 0.008618 -0.008604 -0.090201 0.055458 0.054815 0.025263 -0.030799 -0.153199 -0.02687 -0.097174 -0.044133 -0.002582 -0.130259 0.057453 0.10558 0.061922 0.043984 -0.107073 -0.006103 -0.164002 -0.015284 -0.046656 0.031482 0.00243 0.071866 -0.027718 0.117503 -0.058771 0.040493 -0.141833 0.040688 0.033117 -0.013064 0.017863 0.053627 0.124145 0.112272 0.058699 0.07779 0.058539 -0.061926 0.080732 0.049658 0.118857 -0.061942 0.01353 0.054863 0.015432 -0.054822 -0.184498 -0.060173 -0.03705 0.009499 0.106038 -0.057172 0.010799 0.059 -0.0122 0.019451 0.032604 0.002032 0.061041 0.122347 -0.043255 0.045848 0.00746 0.088771 0.013877 -0.045734 0.070127 0.091223 -0.080183 0.038308 -0.014031 -0.084402 -0.053407 -0.041238 -0.117456 -0.014332 0.117003 -0.116229 -0.027639 -0.008953 -0.032408 -0.168972 0.087149 0.05615 -0.017828 -0.023139 -0.022479 0.1034 -0.028429 0.075691 0.049583 -0.056798 0.015391 -0.018338 -0.04043 -0.121009 -0.059606 -0.137315 -0.030197 -0.089986 0.090298 0.061048 -0.041522 0.06599 0.040069 0.037552 -0.015831 -0.065158 0.029337 -0.035963 -0.031744
  0.036828 0.014842 0.036362 -0.030895 -0.073666 0.085688 -0.000689 0.054207 0.024837 0.065715 -0.050012 0.039238 -0.03883 -0.016047 -0.020246 -0.065365 -0.010485 -0.127509 -0.018619 -0.084563 0.001472 -0.056444 -0.002092 -0.062967 0.036939 0.030913 -0.007824 0.10542 -0.112537 -0.111488 0.079698 0.048478 -0.030023 0.0882 -0.07605 0.031486 -0.014464 -0.01111 -0.011717 -0.15207 0.02397 0.055666 -0.020384 -0.011683 -0.037624 -0.04481 0.087184 0.02567 0.070312 -0.017522 -0.039011 0.11063 0.01558 -0.133312 0.038088 0.0136 0.065404 -0.032752 0.049623 -0.031854 0.088965 0.003749 0.065447 -0.095461 -0.102637 -0.021033 0.026519 0.037506 0.070108 -0.050319 -0.022129 -0.0213 -0.029608 -0.054389 -0.03478 -0.011103 -0.061203 0.001536 -0.047733 -0.005337 -0.012972 -0.015534 -0.014682 0.05512 -0.052332 -0.010016 0.036023 -0.002524 0.021866 -0.050418 -0.084087 0.056342 -0.013149 -0.037842 -0.080705 0.050159 -0.007441 -0.016976 -0.036374 -0.020534 -0.030042 0.074566 0.036147 -0.059931 -0.007901 0.019444 -0.081187 -0.01182 0.002646 -0.01046 0.112119 0.048452 -0.017318 -0.010516 -0.007944 -0.017855 0.05705 0.008698 0.061582 0.08056 0.02616 -0.057644 -0.055016 -0.012794 0.025816 -0.089844 -0.004652 0.130865 -0.025237 -0.200026 -0.118625 0.041306 0.110897 -0.015136 0.078491 -0.099331 -0.031588 0.050202 0.018998 -0.018242 0.100634 0.064271 0.088423 0.021079 -0.060782 0.039013 0.064541 -0.001303 0.005678 0.045357 -0.009938 0.007526 0.031369 -0.019216 -0.07542 0.024427 -0.0208 0.083033 -0.018484 -0.000768 0.038445 0.030522 -0.003101 0.003653 0.028487 0.029926 -0.047237 -0.021121 0.014273 0.037542 0.063234 0.072297 0.051346 0.026607 -0.017661 -0.01173 -0.134145 -0.026736 0.047545 0.064018 0.008909 -0.025186 -0.010052 0.064005 -0.00728 0.0909 0.005912 -0.023986 -0.024403 -0.106317 -0.009321 0.029553 0.085921 0.040204 -0.041081 0.009563 0.011043 0.000159 -0.029691 0.058421
  -0.024054 0.009273 0.051322 0.138179 -0.13498 -0.017451 -0.018104 -0.042171 -0.015033 -0.00389 -0.016869 -0.029316 0.021439 -0.028848 0.044272 0.081575 -0.023957 0.117729 0.187522 0.019523 -0.046202 0.008379 -0.111569 0.065641 0.048994 0.043074 0.106522 0.063185 -0.086765 0.01442 0.045344 -0.105067 0.110677 0.018921 -0.004663 -0.035021 0.018927 -0.000829 -0.039498 0.014746 -0.065413 0.062164 -0.036872 0.072458 0.018446 -0.04314 -0.02501 -0.033044 0.092053 0.003922 -0.018041 -0.004357 -0.083668 -0.034113 0.012205 -0.079626 0.032867 0.04622 -0.00765 -0.007674 -0.032738 0.013739 -0.001625 0.043386 -0.094883 -0.00641 -0.035596 0.007018 -0.128679 -0.01875 0.016976 0.075179 -0.05135 -0.192104 0.000461 -0.032123 -0.11161 0.096576 -0.036656 -0.068702 -0.062365 0.042131 0.013711 -0.079707 0.085353 -0.157071 0.085468 -0.025434 0.012743 0.019998 0.044953 0.014122 -0.081252 -0.00792 -0.027429 -0.071255 0.016428 -0.069571 -0.049345 0.031985 0.083603 -0.086966 -0.001554 -0.01641 0.074099 -0.102146 0.088202 -0.020801 -0.051484 -0.043528 -0.063545 -0.051325 0.034332 0.083547 -0.056772 0.131817 0.028139 -0.010389 -0.095375 0.092374 0.010212 0.157502 -0.099898 -0.005445 0.062713 -0.042315 -0.080848 -0.224433 0.018745 -0.053746 -0.064374 -0.019837 -0.024018 0.011975 0.055272 -0.045193 0.122068 -0.086781 0.005576 0.024188 0.096692 0.028423 0.075257 -0.002368 -0.07879 0.020206 -0.050099 0.000961 0.003465 0.03403 -3.8e-05 -0.031053 -0.100625 -0.008299 0.06509 -0.194198 -0.010439 0.012623 -0.048906 0.041691 0.004234 -0.081221 0.013543 -0.030367 -0.000641 0.019172 -0.060035 -0.015425 0.017354 -0.135598 -0.181769 -0.03799 0.06226 0.013008 0.06208 0.007257 -0.083099 0.012689 0.054178 0.044329 -0.012067 0.024251 0.037258 0.064968 0.016814 0.041128 -0.025855 -0.040655 0.058459 -0.036884 0.094111 0.172267 0.07289 0.039778 0.01803 -0.055104 0.012178 0.003777 0.04493 0.017206
  0.032457 0.108196 0.054793 0.145417 0.022243 -0.169111 0.017184 -0.05898 -0.068936 -0.02922 0.060199 -0.178573 0.036962 0.046248 -0.008154 -0.062523 0.054006 0.064706 -0.171939 -0.095894 0.021168 0.015132 0.064603 0.077503 0.053262 0.06524 0.071349 -0.061324 0.021559 0.038409 0.006555 0.090132 -0.064894 0.017607 0.01693 0.024671 0.031323 0.032929 0.046876 -0.026644 0.03337 0.0296 0.069761 0.065216 0.014647 0.038265 -0.037355 0.08187 0.050103 0.047114 0.004491 -0.016259 -0.01094 -0.033715 0.006041 0.027339 0.020305 0.021018 0.039876 0.028694 -0.059757 0.115793 -0.030008 -0.055155 -0.085627 -0.025213 0.074131 -0.018932 -0.163008 0.053321 -0.000195 -0.015107 -0.005369 -0.10046 -0.081755 -0.062579 0.040121 0.030663 0.037 -0.071611 -0.011449 0.060916 0.022926 0.054624 0.019014 -0.091897 -0.020891 0.011539 0.028308 -0.054524 -0.080069 0.009228 0.025012 -0.113524 0.045429 -0.083385 -0.008958 -0.002645 -0.024991 0.061513 0.04144 -0.075967 -0.051459 -0.013725 0.058839 -0.013884 0.014356 -0.015492 -0.165455 0.0408 -0.009847 0.008693 0.04432 -0.097582 0.084335 0.030847 -0.04683 -0.073869 -0.01715 0.044356 -0.055542 0.083201 -0.132248 0.073145 0.016156 -0.022261 -0.064241 -0.054358 0.034302 -0.098514 0.071721 0.038662 0.071732 -0.135061 -0.065814 -0.032828 0.069719 -0.041488 -0.006138 0.070091 0.014832 -0.072922 0.00133 0.08774 -0.093698 -0.139404 -0.088393 0.019787 0.022524 0.040881 -0.029606 -0.039906 -0.074925 0.022533 -0.019055 -0.028509 -0.020379 -0.089002 -0.117015 -0.025748 -0.002463 -0.023446 0.043448 0.001206 -0.015883 -0.04 0.102963 -0.039077 0.010014 -0.042992 -0.042251 0.052505 0.003336 0.03576 -0.077584 0.038971 0.066137 -0.090486 0.060957 0.003165 0.003055 -0.025562 0.106243 0.086387 0.00909 0.040541 0.074881 -0.003456 -0.023447 -0.171238 0.074059 0.032194 0.027328 0.017865 0.053839 -0.065798 -0.040759 0.048637 0.008176 0.091185
  0.188279 0.014978 -0.41834 -0.048 -0.000544 0.199539 -0.369817 -0.026932 -0.008693 0.180619 0.249913 -0.047724 -0.008582 0.026666 0.154372 -0.001892 0.120335 -0.091007 -0.083437 -0.024048 0.271247 0.174389 -0.033207 -0.048565 -0.070649 0.015888 -0.022798 0.022291 -0.010918 0.022892 -0.00466 -0.01167 -0.074801 -0.004881 -0.006932 0.133517 0.089351 -0.010436 -0.007972 -0.361847 -0.040025 -0.029575 -0.007516 0.178852 -0.393661 0.13476 -0.002389 0.035025 -0.047107 -0.00878 -0.026907 -0.019933 -0.221631 -0.021722 -0.01661 -0.03308 0.002065 -0.075847 -0.009256 -0.009504 -0.032569 -0.432172 -0.12748 -0.039273 0.174098 0.095167 0.010704 0.033801 0.015801 -0.026525 -0.022526 -0.025401 0.097877 -0.021058 0.175066 0.322861 -0.029303 0.285564 0.171362 -0.175139 -0.209755 0.257422 0.124084 0.126183 -0.208925 -0.003738 -0.016917 -0.017062 0.123342 -0.033678 -0.03623 0.141167 -0.258988 -0.054485 0.316459 -0.014603 -0.016801 0.196638 0.334803 -0.020755 -0.027189 -0.027147 -0.318114 -0.653485 0.000959 -0.019936 -0.025288 0.104374 -0.351604 -0.00097 -0.022658 0.202299 -0.215982 0.262746 -0.361089 -0.018897 0.158664 0.177714 -0.059081 0.010113 0.088223 -0.031801 0.016418 -0.003579 -0.017394 -0.119733 -0.00692 0.005599 -0.07773 -0.042642 -0.03297 0.012142 0.03397 -0.016851 0.065143 0.024885 -0.040867 0.40707 -0.029324 0.017164 0.005764 0.30797 0.0043 0.18305 -0.037165 -0.231769 0.408565 0.330406 -0.002168 0.065268 -0.388779 0.355106 -0.00699 -0.528172 -0.137098 -0.028991 0.142559 -0.003822 -0.014594 -0.130351 -0.325414 0.001336 -0.238503 -0.026038 -0.025125 -0.000929 -0.021016 0.178711 -0.093759 0.227497 -0.019574 0.031618 0.116392 -0.027399 -0.049158 0.075005 0.112631 0.000944 -0.017012 0.213831 -0.286949 -0.118284 0.208138 -0.01434 -0.390051 0.030158 -0.016667 -0.014398 0.012828 0.027025 -0.047366 -0.03107 0.005005 0.362076 0.213022 -0.019916 -0.101866 0.020124 0.000792 -0.025983
  0.03628 -0.023046 0.370749 0.006198 0.007701 -0.043406 0.190052 0.004729 -0.03558 0.023306 -0.166016 0.006189 -0.019422 0.003191 0.171469 -0.008496 0.138237 0.452673 -0.025055 -0.019018 0.051631 0.093545 0.017899 0.021219 -0.263721 -0.024159 0.012089 0.039992 -0.002936 -0.010203 -0.017601 0.011865 0.017692 0.057686 -0.018696 -0.178734 -0.222816 0.004222 0.010333 0.317061 -0.013606 -0.054386 0.044487 0.16604 0.07301 -0.209861 0.003737 0.02935 0.03842 -0.258719 0.014396 0.034911 -0.013858 -0.022204 -0.017601 -0.363874 -0.024071 0.099231 0.008491 -0.038144 -0.020956 0.293187 0.087685 -0.008149 -0.137388 0.211874 -0.014012 0.178027 0.003705 -0.038803 0.007202 -0.003926 0.139221 -0.074613 -0.029842 0.003136 0.002372 0.267533 0.203102 0.170071 0.127363 0.136079 -0.042795 -0.559169 0.08652 0.029716 -0.071315 -0.029747 -0.131477 -0.012099 -0.040819 0.143549 0.098227 -0.03573 0.062248 -0.047144 -0.054469 0.112851 0.177932 -0.011864 -0.088072 -0.056417 0.139995 0.16115 -0.029507 -0.033597 0.0546 0.034021 -0.41874 0.03908 -0.053212 0.048235 0.21156 0.206804 -0.035391 -0.035508 0.280766 0.203289 0.039396 0.046452 0.009935 0.032559 0.030366 -0.02364 0.027484 -0.030515 0.019655 0.003945 0.15521 -0.028968 -0.04444 0.073749 -0.04825 -0.050584 0.146667 -0.072825 -0.02907 -0.153686 -0.210184 -0.011957 -0.026563 0.257786 -0.061507 0.181522 0.020442 -0.323496 -0.379632 0.055328 0.013952 0.181947 -0.416467 0.307057 -0.040058 0.126203 0.237167 0.062781 0.260713 0.034625 -0.004107 0.118923 -0.611299 -0.012945 0.346079 0.033769 0.023723 0.019555 0.07126 -0.250878 0.195121 0.02132 0.04093 0.047521 0.210571 0.050944 0.148007 0.082995 0.144854 -0.024067 -0.005705 -0.283348 0.001773 0.087873 0.167621 -0.035941 -0.230299 0.022296 -0.024464 0.185309 0.000683 0.014572 -0.000263 -0.007054 0.009421 0.215208 0.268406 -0.174845 0.042155 -0.010991 0.011236 0.000224
  0.123087 -0.05076 0.376207 0.001264 0.025934 0.147815 0.156034 -0.026228 -0.02907 0.050408 -0.270379 -0.017455 -0.020071 0.02133 -0.002225 0.00382 -0.005688 -0.397718 0.039053 -0.014365 0.185475 0.001351 -0.013156 -0.027886 0.20008 0.017725 -0.032878 -0.006634 0.009474 0.168154 -0.004444 0.012948 -0.063396 -0.005443 -0.026257 0.005695 -0.116053 -0.024543 -0.050793 -0.54646 -0.045455 -0.019055 -0.013081 0.025107 0.198018 0.059652 -0.026595 -0.010788 0.008298 -0.028353 -0.044177 -0.032907 0.10753 -0.029307 -0.002978 -0.216024 -0.020226 -0.247721 0.021339 0.000785 0.002734 0.106831 0.134754 0.030155 -0.150777 -0.33385 -0.004335 0.132725 0.008157 0.045746 -0.007713 -0.031736 0.054328 -0.035042 0.088401 0.073156 0.000405 0.057752 0.026234 -0.039838 0.127908 0.141957 -0.016737 0.054772 0.197276 0.053469 -0.029133 -0.026781 0.20637 -0.004808 -0.009665 -0.069549 -0.038695 -0.025409 0.245863 -0.011122 -0.058172 0.207252 0.17461 0.027225 -0.048791 0.028162 -0.275399 -0.348789 -0.046772 -0.110742 0.011054 -0.025704 -0.396388 -0.003476 -0.01159 0.259995 0.224756 0.154342 0.212594 -0.015254 -0.191023 0.035876 -0.037877 -0.021594 0.009247 0.00523 0.006801 0.01969 0.007529 0.341956 0.018462 0.00821 0.188751 -0.023921 -0.006786 0.006131 -0.028061 -0.053597 0.081516 0.05244 -0.041924 -0.72394 0.215856 -0.004858 -0.024698 0.094162 0.043666 -0.039783 0.020222 0.225324 0.009795 0.233507 -0.052382 -0.01174 -0.027503 0.23652 -0.044453 0.034388 -0.292265 0.016529 -0.358272 -0.022819 -0.008587 -0.302741 0.442794 -0.053058 -0.267103 -0.029389 0.004519 -0.072753 -0.006452 -0.281688 0.222223 0.359568 -0.014985 -0.018126 -0.186045 -0.01522 0.169074 -0.007837 0.034784 0.007722 0.003986 0.217956 -0.175361 0.030327 0.028693 -0.026676 0.200862 0.0712 -0.052335 0.056193 -0.017141 -0.019978 -0.004423 -0.03624 7.4e-05 0.249794 -0.163067 0.061277 -0.255719 0.008535 0.243659 -0.03328
  -0.178796 0.024059 0.197122 -0.054906 0.018611 -0.140278 0.288165 0.002818 -0.037459 0.067996 0.076234 -0.019129 -0.012328 -0.006976 -0.103328 -0.021697 -0.190344 -0.038437 0.087245 0.003258 -0.102742 -0.111605 -0.032162 -0.045137 0.062589 0.039638 0.025536 -0.065962 0.005444 0.078082 -0.04705 -0.025495 -0.025499 -0.010234 0.001091 0.158794 0.041307 0.035401 -0.013282 0.11598 -0.048949 0.074051 -0.016942 -0.043339 0.071677 -0.187563 -0.022221 0.041102 0.034577 0.003693 -0.09002 0.037963 0.113997 -0.037103 0.05258 -0.052598 -0.039732 0.083581 0.05264 1.9e-05 0.029475 -0.052501 0.075569 0.022135 0.015882 -0.091936 0.021093 0.127161 -0.065294 -0.107453 0.01087 -0.048569 0.127986 0.014185 0.078117 0.057661 -0.119985 -0.072183 -0.011065 -0.071411 0.058421 0.094107 -0.125667 0.116951 -0.024351 -0.042951 -3e-04 0.016052 -0.028576 0.018486 0.003854 0.081491 -0.002416 -0.101976 0.197462 0.041188 -0.000202 0.158104 0.129906 0.014891 -0.049519 0.025105 0.046772 0.162506 -0.041901 0.205751 -0.032192 0.104246 0.072603 -0.016764 -0.071656 0.171623 -0.144096 0.199152 0.019708 0.020725 0.152866 -0.005052 -0.045046 -0.021178 -0.130585 0.059736 -0.021964 0.011505 0.026129 0.064432 -0.005534 0.038508 -0.148056 0.02583 0.031295 0.039165 0.042921 -0.059561 0.164133 -0.12083 -0.044178 0.120286 -0.17198 0.048956 0.021181 -0.165848 0.04946 0.043384 -0.071405 0.059786 0.077689 -0.107839 -0.029194 0.120368 -0.080781 -0.095481 0.000313 0.170116 0.221316 0.002016 0.215175 0.012617 -0.007912 0.044234 0.265415 -0.053032 0.120862 -0.016625 0.010711 0.032699 -0.018554 -0.084571 0.113829 0.310797 -0.030539 0.034558 -0.095413 0.002886 0.045987 -0.16046 0.02282 0.022937 0.03767 -0.179182 0.034797 -0.098433 -0.104546 0.028459 0.117125 -0.0558 -0.02219 -0.179803 0.044264 0.010619 0.017645 -0.055963 0.036837 0.18952 0.172019 0.0706 0.052315 0.037038 -0.131968 0.033723
  0.060659 0.015717 0.424217 0.028408 0.014113 0.136881 0.307714 -0.020047 -0.059266 -0.070257 0.07141 -0.098343 -0.087642 -0.057066 0.100671 -0.037754 -0.311883 -0.231643 0.024935 -0.005702 -0.023122 -0.057535 0.013899 0.027071 0.039546 0.017673 -0.044256 -0.028505 -0.026439 0.012038 0.001796 -0.08929 -0.043051 0.027095 0.019934 0.09389 0.01774 0.036343 -0.065104 -0.20943 0.047176 0.011353 0.028778 0.101954 -0.030821 -0.300454 0.016483 -0.008131 -0.016377 0.097336 -0.078303 -0.008179 0.038357 0.009416 0.017291 -3e-05 -0.116143 0.097256 -0.013717 0.028196 0.004573 -0.152186 -0.087328 0.021156 -0.001757 -0.241959 -0.0246 0.017144 -0.019282 -0.032512 -0.011981 -0.067879 0.130203 -0.002443 -0.02172 0.218516 -0.060532 -0.195676 -0.136714 -0.03747 0.221198 0.167286 -0.032415 0.129929 -0.223663 -0.072685 -0.06009 0.032656 0.149477 0.002943 -0.014222 0.158794 0.063521 -0.001669 -0.28926 -0.056789 -0.025198 -0.047636 -0.046084 0.012403 0.092652 0.059169 -0.119455 -0.221864 -0.016119 -0.183472 -0.003139 0.087502 0.137675 -0.005325 -0.077206 -0.17337 -0.045845 0.092643 -0.002511 -0.00633 0.022326 0.116038 -0.103657 -0.040282 -0.253952 -0.07114 0.006249 -0.006277 0.022333 0.029478 -0.012745 0.014264 0.015561 0.007213 -0.036585 0.007741 -0.034746 -0.094353 0.137405 -0.011604 -0.004913 -0.003719 0.108119 0.002264 0.073922 -0.186587 0.020255 0.090228 -0.06822 0.176457 0.235305 0.031013 -0.016393 -0.139095 0.138188 0.198973 0.004016 -0.374479 0.22203 -0.104043 0.16261 0.021858 0.03041 0.060786 -0.389935 -0.004053 0.328811 -0.07008 -0.000559 0.002899 -0.042815 0.136083 -0.062753 -0.074917 0.013118 0.062863 0.04378 0.023098 0.153708 0.060754 -0.046641 -0.035018 0.019645 0.087419 -0.084291 0.114902 -0.053923 -0.009023 -0.248285 -0.062677 0.06031 -0.146324 -0.027466 -0.005369 -0.044427 -0.029103 0.023744 0.259131 0.198229 -0.091315 0.132975 -0.05189 0.03335 0.017366
  0.091152 0.001497 0.038427 -0.058086 -0.043195 0.346559 -0.037547 -0.037173 0.012058 -0.321902 0.066048 0.005085 -0.004453 -0.013499 -0.134812 -0.010041 -0.021866 0.389675 0.036325 0.017977 0.132985 -0.204054 -0.005114 -0.020439 0.127625 0.004346 -0.036992 -0.067739 -0.011276 0.197871 0.027251 -0.014145 0.000868 -0.023969 -0.012074 0.177903 -0.292481 0.033219 -0.050718 -0.605258 -0.042304 -0.020161 0.032189 -0.20813 0.125112 0.109364 0.018708 0.001766 0.006344 0.071996 -0.044588 -0.042372 0.149383 0.052222 0.022487 -0.268057 -0.027862 -0.043607 -0.005827 0.02144 -0.021343 0.039462 0.070282 0.037459 0.029175 -0.200772 0.043542 0.124434 -0.044447 -0.03909 0.01984 -0.003536 0.172064 0.073092 0.076782 0.248157 0.048719 -0.111791 -0.611237 -0.06092 -0.138282 0.155497 0.005747 0.229457 0.097498 0.030247 -0.052977 0.036698 0.12041 0.007988 -0.004365 0.013744 -0.05137 -0.004872 -0.066684 -0.029782 -0.069911 -0.297548 0.207943 0.005154 0.091811 -0.006913 0.119868 0.129567 -0.020508 -0.02178 -0.02901 0.169225 0.176909 0.007679 -0.008744 -0.073763 0.018086 0.0784 0.228603 -0.033785 0.178905 0.058285 -0.071537 0.011533 -0.19115 -0.059969 0.049775 0.024659 0.038653 0.012554 0.011708 0.045497 0.145364 0.052781 0.039111 0.03906 0.034758 -0.039203 0.168785 0.01616 -0.026311 -0.024551 0.144414 0.00081 -0.037065 -0.172363 0.008187 -0.14698 -0.017833 0.127241 0.319131 0.265745 -0.017607 0.100372 -0.325338 0.268001 0.000433 0.178753 0.040721 0.032872 0.225065 -0.017091 0.030651 -0.136612 0.088807 0.021739 0.339572 0.033022 -0.025244 -0.033472 -0.026948 -0.322776 -0.118065 -0.389813 -0.035374 0.060931 0.040486 0.041308 0.110099 0.092083 0.046018 0.01133 0.018082 0.201069 0.029396 0.120968 0.108957 -0.030214 0.075907 0.003414 0.015856 -0.019897 -0.001311 0.044983 -0.007926 -0.009019 -0.012328 -0.127729 0.081817 0.063427 0.104701 -0.016299 0.058129 0.029465
  0.006841 -0.01732 -0.095568 0.031673 -0.141188 -0.08027 -0.025834 0.002869 0.13018 0.028136 -0.073541 0.118767 0.005687 0.006178 0.01054 0.102111 -0.030869 0.136545 0.101455 -0.023548 -0.00757 -0.052969 -0.071799 0.006728 -0.002059 -0.026944 -0.0882 0.052075 -0.048875 -0.073053 0.015672 0.070308 0.124152 0.030533 0.059331 0.063511 -0.063214 -0.036704 0.068687 0.078254 0.034592 0.003464 -0.016381 -0.011342 0.032115 0.011032 0.058594 -0.052094 0.025141 0.017797 -0.097499 0.025433 0.000336 -0.059504 -0.040482 0.035964 -0.006407 0.005396 0.009229 -0.002629 -0.002413 -0.014396 0.003566 -0.030585 0.023283 -0.033457 0.037804 0.002722 0.025853 -0.150277 0.027113 0.120054 -0.03033 -0.073077 0.0741 -0.072985 -0.034614 -0.04432 -0.012946 -0.047263 -0.036623 -0.002155 -0.007339 0.012826 0.000575 0.019978 -0.031739 0.017046 0.028812 -0.068527 0.025637 -0.041375 0.02076 0.024105 0.053575 0.036886 -0.070873 -0.057534 -0.00702 0.013572 0.085921 -0.13007 0.025565 0.030987 0.083112 -0.090288 0.066316 0.066617 0.004426 0.033539 0.055876 0.000418 -0.04973 0.027592 0.015179 -0.035974 -0.039338 -0.006041 0.032606 0.045644 -0.03785 -0.073892 -0.127659 -0.009785 -0.034889 0.051595 -0.011293 0.015731 0.019549 -0.038551 -0.004415 -0.000823 0.056232 0.057176 -0.015551 -0.026458 0.074148 0.041301 0.047904 -0.011463 0.045557 -0.076657 -0.088981 -0.038132 -0.060805 0.07273 0.048579 0.014516 0.035735 -0.050709 0.015585 -0.062743 -0.003172 0.007765 0.002546 0.059627 0.04447 0.05373 0.067444 -0.005366 -0.042002 -0.109672 -0.025942 -0.108083 0.019539 0.057005 0.076767 -0.002278 0.007322 -0.011354 0.00083 0.055328 0.00969 -0.018599 0.108412 0.027874 0.011602 0.057344 0.013555 -0.007873 -0.003149 -0.009456 -0.037155 -0.023745 0.052605 0.09328 -0.032424 0.036305 0.009772 0.043013 0.009201 -0.08319 0.035564 0.043482 -0.023756 -0.069796 0.002877 0.065599 -0.022831 0.086973
  0.03221 -0.033555 -0.017033 0.079584 0.00188 0.02311 0.058952 0.049624 -0.028295 0.000597 -0.007618 0.085211 -0.000315 0.03055 0.061745 0.025523 -0.020894 -0.049145 0.1056 0.023464 0.045849 -0.069106 0.070152 -0.042796 -0.007564 0.077757 -0.068879 -0.06123 -0.03991 -0.114854 0.030139 0.12316 -0.145892 -0.049414 0.01002 0.019761 0.078464 0.014913 0.01248 -0.034455 0.02024 0.027762 0.040819 -0.054712 0.018197 0.005392 -0.034734 0.03767 0.040545 0.014183 -0.040491 0.017586 0.057056 0.028288 -0.056135 -0.029448 0.010098 0.008934 -0.001785 0.059887 -0.035767 0.017764 -0.051873 0.105662 -0.133888 -0.008684 -0.004061 0.035406 -0.091567 0.091464 4.6e-05 0.022899 0.074544 -0.115332 -0.094029 -0.048773 0.063899 0.09685 -0.011544 0.015447 -0.047794 -0.065043 0.0155 -0.083179 0.001056 -0.080187 -0.019745 -0.076989 -7.3e-05 0.035988 0.017263 -0.026819 -0.000532 0.012292 -0.022346 -0.11478 0.02051 0.061982 -0.005739 0.027692 0.16153 -0.015144 0.106449 0.072105 -0.006296 0.000258 -0.002495 0.070354 0.041557 0.032679 -0.152073 0.057015 0.016109 0.004312 -0.070954 0.073544 -0.043818 0.013687 -0.097741 0.042136 -0.012836 0.006151 -0.04592 0.084222 0.031264 -0.014743 0.083157 -0.016291 0.038478 0.088552 0.011503 0.098473 0.088743 0.040588 -0.058496 -0.088471 -0.030464 -0.014954 -0.010542 -0.011231 0.00119 -0.030337 0.065535 0.009288 -0.022676 0.068307 -0.007946 0.098107 -0.09081 -0.012709 -0.012898 -0.078938 -0.103106 -0.066874 -0.057018 0.024131 -0.018947 -0.038751 -0.017399 -0.013552 0.020405 -0.01355 -0.044247 0.059827 -0.044108 0.079462 0.078637 -0.038937 0.01357 0.035267 -0.147374 0.02095 0.046352 0.007553 -0.008071 0.028478 0.011261 0.028672 -0.040412 -0.029678 -0.011969 0.023163 -0.048437 0.035797 -0.00935 0.074708 0.041646 -0.010188 0.02999 0.007788 0.007087 -0.091832 0.006072 -0.071943 -0.009503 0.027413 0.001782 -0.047488 -0.02166 -0.026784
  -0.000912 0.065958 -0.084538 -0.189526 -0.00185 -0.149685 0.011136 -0.015826 0.061536 -0.002256 0.018463 0.064307 -0.007138 -0.001926 0.008322 -0.026837 0.053226 -0.060993 0.018665 0.096254 0.038722 0.004244 0.087361 -0.007223 0.043089 -0.000543 -0.021875 0.162947 -0.007579 -0.082766 0.031169 0.07051 0.117875 -0.010914 0.068538 0.026293 0.004881 -0.058272 -0.083136 -0.014405 0.102778 0.079659 0.078895 -0.067671 -0.012653 0.018751 -0.036764 0.012565 0.005868 -0.044863 -0.082517 0.038469 0.056766 -0.101728 0.021467 0.01299 0.029695 0.008271 0.035077 -0.008294 -0.018627 0.031747 0.05397 -0.052723 -0.081266 0.045373 0.016228 0.05826 -0.029681 0.053114 0.034393 0.017784 0.042246 0.028301 0.05295 -0.066661 0.057027 -0.013449 -0.023986 0.035382 0.01281 -0.029911 0.036948 -0.098043 -0.042719 -0.153534 -0.013408 0.021497 -0.009969 -0.011667 0.028476 -0.030075 -0.020412 0.046336 0.039553 0.068021 -0.059515 0.060782 -0.038165 -0.018366 -0.010193 0.065982 0.027048 -0.013709 0.020645 -0.06099 -0.027695 -0.005095 0.018717 0.006716 0.000164 -0.07317 -0.066841 -0.031105 -0.01674 -0.083375 0.000647 -0.045501 -0.076533 0.017072 -0.061811 -0.094751 -0.003757 0.022825 0.054199 0.043124 0.047318 0.072622 -0.010664 -0.13974 -0.027035 0.059855 -0.029532 -0.069423 -0.024447 0.057409 -0.045989 -0.002771 -0.010284 0.050171 -0.045475 -0.005906 -0.088663 0.004852 0.055598 -0.01314 0.025555 0.047028 -0.036359 -0.002663 0.022543 -0.054408 -0.009669 0.054418 -0.016246 0.067009 0.039309 -0.010866 0.027558 -0.053712 0.075072 -0.091066 -0.013871 -0.075325 0.054302 -0.066862 -0.070366 0.006206 -0.007192 -0.022389 -0.006403 0.045074 0.031355 -0.103281 0.020578 0.004667 -0.083764 -0.004312 0.054504 -0.02174 0.063125 -0.001648 0.01864 0.062409 0.032369 -0.079433 0.022488 0.019158 -0.030387 0.136021 0.023391 0.06572 -0.02524 -0.051988 0.015991 0.009236 -0.013625 0.068331 0.016958 0.104891
  -0.003972 -0.098162 -0.090934 -0.052465 -0.013676 -0.102925 -0.009359 0.051002 -0.111957 -0.026554 -0.017453 0.043892 -0.028568 -0.018753 0.016353 0.065295 -0.001784 -0.058604 -0.067398 -0.013015 -0.019831 -0.076763 0.093217 0.019738 0.002631 0.01192 0.023638 0.084605 -0.020507 -0.115794 0.042747 -0.015743 0.134497 0.047641 -0.035081 0.083638 -0.055733 0.019123 0.024567 -0.035121 0.031493 -0.089414 0.072282 -0.013328 -0.007224 -0.001949 0.090086 0.015063 0.005426 -0.057567 -0.001014 0.003666 0.04091 0.063017 -0.024991 -0.04095 0.036316 0.033352 0.037792 0.067456 -0.019207 0.045818 -0.012849 -0.048203 0.018646 -0.032117 -0.026654 0.023267 0.033427 0.027419 0.044285 0.029701 0.00718 0.0907 -0.111735 -0.016627 -0.058373 -0.019028 0.005047 -0.011209 -0.012887 0.012518 -0.034587 -0.011385 -0.01694 -0.020895 -0.000906 -0.022713 0.035303 -0.002452 -0.052305 0.027296 -0.047858 -0.025425 -0.048004 -0.068052 0.120916 0.006414 -0.004582 -0.0444 -0.045054 1.3e-05 0.036392 0.023139 0.0861 -0.050354 0.029166 0.067062 0.037297 0.086822 -0.153092 -0.058024 0.032895 0.052206 -0.0606 -0.060211 0.035484 0.028052 -0.016911 0.016633 0.047591 -0.117425 0.066109 -0.008298 0.089105 -0.055178 -0.005858 -0.034192 0.001337 0.004262 0.022276 0.066198 0.04336 -0.031372 -0.028435 0.129689 0.009516 0.006905 0.0136 -0.031374 0.01161 -0.068757 0.013483 -0.011538 0.034983 0.002808 0.054481 0.0408 0.088478 0.017107 0.003879 0.092473 -0.009299 0.037931 -0.023006 0.037893 0.004909 0.048682 0.037264 0.013675 -0.005154 0.02773 -0.007255 0.029598 -0.029877 0.095538 -0.021227 -0.006127 0.031697 -0.010575 -0.000662 0.025631 0.025739 -0.06907 0.076915 -0.020262 -0.070805 0.010613 0.031274 0.047898 0.005668 -0.047217 0.068691 -0.025334 -0.012784 0.056759 -0.001109 0.026441 -0.079021 0.035629 0.00908 -0.029502 0.057461 -0.030369 -0.097976 0.02385 -0.042875 -0.101557 -0.026813 0.099288
  -0.018647 0.144772 0.023608 -0.165666 0.037164 -0.052367 0.017482 0.001858 0.01772 0.011487 0.019577 -0.091413 0.041067 -0.04423 -0.00042 -0.064915 0.018291 -0.078363 0.039761 -0.058314 0.026509 0.099692 0.051919 0.034616 -0.042085 -0.030639 0.018507 -0.105386 0.031865 0.038867 0.016703 -0.013783 0.003962 0.021942 0.020105 0.031568 -0.088105 0.029446 0.057545 0.018079 0.098808 0.027321 0.006179 -0.008589 -0.012259 -0.004679 0.039843 -0.035555 0.023159 0.031986 0.07246 0.043433 -0.012349 0.011696 0.01043 0.013182 -0.042044 0.038461 -0.071424 0.029401 0.041182 -0.107995 0.038927 0.113847 -0.120732 0.037209 0.074808 0.056935 0.080804 -0.101837 0.024354 0.087015 -0.027313 0.080702 0.056775 0.038864 0.019645 -0.004956 0.048928 -0.037711 -2.7e-05 0.034548 0.005294 -0.000996 -0.015948 0.139621 0.008875 -0.026504 -0.029483 0.007341 -0.028801 -0.016523 -0.05408 0.005596 0.077263 -0.028904 -0.019792 -0.00285 0.031725 0.044489 0.07357 -0.022409 0.036486 0.006173 0.047001 0.007385 0.034998 -0.007672 -0.028915 0.045555 0.012291 -0.002585 -0.0704 0.018942 0.036198 0.013328 0.037861 0.06942 -0.031653 -0.003247 -0.011051 -0.014652 -0.013029 -0.067247 -0.005509 -0.076628 0.097573 0.046938 -0.016041 0.143019 -0.015162 0.072044 0.02358 0.070198 0.036816 -0.15529 -0.044046 0.096854 0.015599 -0.072256 -0.01881 -0.055496 -0.112292 -0.034699 -0.019443 0.009485 0.11382 0.063684 -0.027875 0.030142 0.012673 -0.089421 0.071406 0.05458 0.004959 0.089295 0.035149 -0.030421 -0.054469 -0.063458 -0.027574 0.051798 -0.001325 -0.015761 -0.034589 0.000861 0.050101 0.025078 -0.000918 -0.004808 0.011045 0.0569 0.045321 -0.071224 0.0392 -0.008405 0.071012 0.005151 -0.031183 -0.020391 -0.004975 0.056183 -0.055429 -0.020409 0.055876 0.057296 0.051333 -0.031485 0.07651 0.021917 0.009767 -0.000106 0.057825 0.002652 0.055933 -0.013135 0.023265 -0.001356 -0.056396 0.062398
  0.073301 -0.131867 0.05464 0.021765 0.013173 -0.095146 -0.001048 0.003948 0.056825 -0.055971 0.014844 0.130827 0.101051 0.040743 0.032763 -0.069059 0.019355 -0.066227 0.114266 -0.048968 0.051043 0.061924 -0.025954 0.065687 -0.131989 -0.005651 0.01 0.159398 0.057076 -0.006577 -0.033408 0.012381 -0.00056 -0.0407 0.004019 0.082622 -0.022958 0.042524 0.008114 -0.139984 0.065716 0.02876 -0.021706 0.010645 -0.016596 0.026999 0.038882 -0.021909 -0.056801 -0.014181 0.026155 0.046633 0.094466 -0.160871 0.030698 0.062268 0.045972 -0.003373 -0.056551 0.012328 0.103742 -0.016307 -0.042879 -0.004569 0.047995 0.029752 0.026247 -0.038152 -0.004724 -0.020907 0.009705 -0.006388 0.054952 -0.060325 0.067197 0.024826 -0.051607 -0.102442 0.00023 0.004356 -0.093749 0.000658 -0.005408 -0.052109 0.072854 0.154584 -0.046206 -0.056024 0.045243 -0.022844 -0.049701 -0.049379 0.009832 -0.020838 -0.00889 0.088703 -0.156574 0.000774 -0.045882 0.052693 -0.142999 -0.125249 0.05615 -0.049006 0.020981 0.060764 0.084546 -0.077803 0.045908 0.084117 -0.128926 0.059197 -0.126439 0.007979 -0.010982 0.143124 0.012248 0.10931 0.046278 0.012249 -0.093858 0.111978 0.076147 -0.028582 0.08541 -0.097999 0.022836 -0.173917 0.02947 -0.08256 -0.118217 0.049924 -0.116222 0.034645 -0.037109 -0.147932 0.06213 0.094288 -0.008398 0.00923 0.076829 -0.140861 0.004178 0.036584 0.042786 0.014973 0.135456 0.013556 -0.013711 0.039062 -0.009693 -0.096712 -0.05831 -0.017733 0.017322 -0.075459 -0.058819 0.086307 0.004483 -0.043763 0.051816 -0.008742 -0.159263 -0.000458 -0.021268 0.071703 -0.014813 0.032333 -0.043261 -0.072382 -0.017442 -0.051784 0.004336 0.099452 -0.103278 -0.018144 -0.070841 0.06372 0.021074 -0.040708 0.024284 0.017332 -0.004068 -0.15225 0.071317 0.044035 -0.083338 -0.048633 0.068381 -0.060177 0.030999 -0.001172 -0.002643 0.022366 0.098307 -0.043755 0.03036 0.064028 -0.102114 0.068539
  -0.070802 0.182349 -0.04891 -0.013465 0.066976 -0.049357 0.013969 0.013477 0.022114 -0.011979 -0.044481 -0.018683 0.050175 -0.055385 -0.087136 0.114162 -0.044384 0.017682 -0.554503 -0.029933 0.020034 -0.048383 0.16287 -0.111622 0.006681 0.086237 -0.179556 -0.226205 0.04433 -0.023249 -0.130277 0.140947 -0.014983 -0.082395 0.140368 -0.014371 -0.140246 -0.042589 0.138146 -0.025494 0.089201 0.033321 -0.100338 -0.107263 -0.012626 -0.086962 0.06289 0.120329 -0.013363 0.013007 0.054941 -0.039479 -0.065327 -0.046925 0.124654 -0.031495 0.137708 0.002924 0.073857 0.04969 -0.018757 -0.144787 -0.022551 0.092892 0.047773 0.021037 0.10842 -0.046638 0.12219 0.173844 -0.008883 -0.044222 -0.043835 -0.024163 0.016196 0.053908 -0.063068 -0.026816 -0.049962 -0.017953 0.077547 0.010886 -0.034452 0.064258 -0.036998 -0.22751 0.122765 0.079582 -0.052746 0.083769 0.062054 -0.062628 0.0591 0.06012 0.055704 0.082963 0.183384 -0.04725 0.015704 0.022552 0.022815 0.05843 -0.04605 0.042796 -0.007825 -0.118399 -0.076224 -0.04403 -0.018699 -0.085651 0.09956 -0.057941 -0.07413 -0.022613 0.063419 0.111622 -0.027765 0.026323 0.145576 -0.054925 -0.016072 0.068725 0.115883 0.048466 -0.00772 0.074419 0.05847 0.04913 -0.00304 -0.010469 0.092984 -0.087088 0.010427 -0.10318 0.00981 0.05699 0.00413 0.004717 0.002225 0.045618 -0.102224 -0.097051 -0.050054 0.010029 -0.014343 0.045778 -0.029995 -0.018118 0.016564 -0.054633 -0.008621 0.050699 0.161373 0.037004 0.019968 -0.171734 0.023173 0.01648 0.034896 -0.088483 -0.060677 0.120198 -0.00899 0.075712 -0.027475 0.014704 0.038464 -0.023356 -0.038338 -0.08295 -0.02584 0.09979 -0.029557 -0.151997 0.047074 0.043023 -0.031989 0.078797 0.070019 -0.131046 0.007876 -0.034512 -0.042521 0.131697 0.058386 0.024919 0.068477 0.044709 -0.099908 -0.039264 -0.005186 -0.010278 -0.034565 -0.094403 -0.018328 0.009577 0.041353 -0.003108 -0.050108 0.011739
  -0.055789 -0.079064 -0.141604 0.149281 -0.018538 0.053579 -0.02973 0.078272 0.114748 -0.00332 -0.037241 0.073804 0.000487 -0.044668 -0.068574 0.046849 -0.00924 -0.062707 -0.115026 0.010909 0.016386 -0.033848 -0.019692 0.114006 -0.01891 -0.03112 0.112435 0.13932 -0.110688 -0.080906 0.13864 0.126387 0.029278 -0.13055 0.129261 -0.000392 -0.059136 -0.060394 0.059885 0.03007 -0.133634 0.040042 0.019535 -0.100844 -0.052938 0.010783 0.068648 0.051998 0.111551 0.003175 0.014605 0.125927 -0.039299 0.091545 0.02331 -0.00915 0.083663 -0.022334 0.069951 -0.040473 -0.011071 -0.207985 0.036166 -0.13528 0.015683 -0.009156 -0.044253 -0.023093 0.0333 0.094455 0.016583 0.055739 -0.014085 -0.021632 0.002946 0.036497 0.015852 -0.009866 0.003083 -0.058652 0.033855 -0.050928 -0.048566 0.019386 0.017932 0.052406 0.016372 -0.013488 -0.020966 0.038725 -0.031065 0.004535 -0.028126 0.120493 0.034871 -0.000383 0.030765 0.016223 0.064845 0.03778 0.008083 0.041416 -0.087392 -0.005309 -0.015665 0.032534 -0.000519 -0.047702 0.002444 -0.067779 0.078482 -0.042507 -0.013318 -0.016861 0.001845 0.030145 0.026118 0.020858 0.143336 0.113747 0.037843 0.09702 -0.134344 0.009219 -0.013592 -0.086637 -0.082145 -0.16953 -0.005309 -0.055446 0.011997 -0.113513 -0.101568 -0.092371 0.074609 0.154985 0.062742 0.003656 0.030779 0.020808 0.050198 -0.06501 0.114368 -0.054207 -0.027511 -0.011114 -0.016718 -0.005 -0.023576 -0.034048 0.005082 -0.026067 -0.009368 0.009819 -0.004263 0.084961 -0.109286 0.022452 0.112123 -0.083053 -0.02948 0.01345 -0.037298 0.061249 0.083796 -0.12217 -0.050222 0.029206 0.01762 -0.037948 -0.059366 -0.116055 -0.032809 0.107922 0.052537 -0.004567 0.043935 -0.034283 0.052443 -0.083516 -0.027564 -0.024804 -0.049553 0.083903 0.069557 0.123143 -0.036424 0.044091 0.103978 0.062407 0.017733 0.038576 0.026088 -0.058517 0.011644 0.035948 0.024952 0.014084 -0.018276 -0.110655
