PWM_range 0 100
pepL_range 12 21
P1_range -6 6
log_min 1e-04

nn_in_var 270 P1_-1 P1_-2 P1_-3 P1_-4 P1_-5 P1_-6 P1_0 P1_1 P1_2 P1_3 P1_4 P1_5 P1_6 PWM_log AA_-_1 AA_-_10 AA_-_11 AA_-_12 AA_-_2 AA_-_3 AA_A_1 AA_A_10 AA_A_11 AA_A_12 AA_A_2 AA_A_3 AA_A_4 AA_A_5 AA_A_6 AA_A_7 AA_A_8 AA_A_9 AA_C_1 AA_C_10 AA_C_11 AA_C_12 AA_C_2 AA_C_3 AA_C_4 AA_C_5 AA_C_6 AA_C_7 AA_C_8 AA_C_9 AA_D_1 AA_D_10 AA_D_11 AA_D_12 AA_D_2 AA_D_3 AA_D_4 AA_D_5 AA_D_6 AA_D_7 AA_D_8 AA_D_9 AA_E_1 AA_E_10 AA_E_11 AA_E_12 AA_E_2 AA_E_3 AA_E_4 AA_E_5 AA_E_6 AA_E_7 AA_E_8 AA_E_9 AA_F_1 AA_F_10 AA_F_11 AA_F_12 AA_F_2 AA_F_3 AA_F_4 AA_F_5 AA_F_6 AA_F_7 AA_F_8 AA_F_9 AA_G_1 AA_G_10 AA_G_11 AA_G_12 AA_G_2 AA_G_3 AA_G_4 AA_G_5 AA_G_6 AA_G_7 AA_G_8 AA_G_9 AA_H_1 AA_H_10 AA_H_11 AA_H_12 AA_H_2 AA_H_3 AA_H_4 AA_H_5 AA_H_6 AA_H_7 AA_H_8 AA_H_9 AA_I_1 AA_I_10 AA_I_11 AA_I_12 AA_I_2 AA_I_3 AA_I_4 AA_I_5 AA_I_6 AA_I_7 AA_I_8 AA_I_9 AA_K_1 AA_K_10 AA_K_11 AA_K_12 AA_K_2 AA_K_3 AA_K_4 AA_K_5 AA_K_6 AA_K_7 AA_K_8 AA_K_9 AA_L_1 AA_L_10 AA_L_11 AA_L_12 AA_L_2 AA_L_3 AA_L_4 AA_L_5 AA_L_6 AA_L_7 AA_L_8 AA_L_9 AA_M_1 AA_M_10 AA_M_11 AA_M_12 AA_M_2 AA_M_3 AA_M_4 AA_M_5 AA_M_6 AA_M_7 AA_M_8 AA_M_9 AA_N_1 AA_N_10 AA_N_11 AA_N_12 AA_N_2 AA_N_3 AA_N_4 AA_N_5 AA_N_6 AA_N_7 AA_N_8 AA_N_9 AA_P_1 AA_P_10 AA_P_11 AA_P_12 AA_P_2 AA_P_3 AA_P_4 AA_P_5 AA_P_6 AA_P_7 AA_P_8 AA_P_9 AA_Q_1 AA_Q_10 AA_Q_11 AA_Q_12 AA_Q_2 AA_Q_3 AA_Q_4 AA_Q_5 AA_Q_6 AA_Q_7 AA_Q_8 AA_Q_9 AA_R_1 AA_R_10 AA_R_11 AA_R_12 AA_R_2 AA_R_3 AA_R_4 AA_R_5 AA_R_6 AA_R_7 AA_R_8 AA_R_9 AA_S_1 AA_S_10 AA_S_11 AA_S_12 AA_S_2 AA_S_3 AA_S_4 AA_S_5 AA_S_6 AA_S_7 AA_S_8 AA_S_9 AA_T_1 AA_T_10 AA_T_11 AA_T_12 AA_T_2 AA_T_3 AA_T_4 AA_T_5 AA_T_6 AA_T_7 AA_T_8 AA_T_9 AA_V_1 AA_V_10 AA_V_11 AA_V_12 AA_V_2 AA_V_3 AA_V_4 AA_V_5 AA_V_6 AA_V_7 AA_V_8 AA_V_9 AA_W_1 AA_W_10 AA_W_11 AA_W_12 AA_W_2 AA_W_3 AA_W_4 AA_W_5 AA_W_6 AA_W_7 AA_W_8 AA_W_9 AA_Y_1 AA_Y_10 AA_Y_11 AA_Y_12 AA_Y_2 AA_Y_3 AA_Y_4 AA_Y_5 AA_Y_6 AA_Y_7 AA_Y_8 AA_Y_9 pepL_12 pepL_13 pepL_14 pepL_15 pepL_16 pepL_17 pepL_18 pepL_19 pepL_20 pepL_21


N_layers 2

 nnetsWeights  270   200
  -0.004382 -0.040375 -0.178099 -0.035131 0.090716 0.109076 0.161533 -0.262568 -0.044112 -0.020673 -0.019738 0.05429 -0.051051 0.097532 0.038527 0.032154 -0.039317 -0.02915 0.02233 -0.110613 0.218675 -0.093146 0.003741 0.06887 0.028467 -0.14608 -0.116989 -0.275019 0.130767 0.097482 -0.035363 -0.164864 0.120083 -0.030784 0.006076 -0.093804 -0.000575 0.064501 0.014957 0.044335 -0.0381 -0.004922 -0.012551 0.013862 -0.032454 -0.02652 -0.213789 0.018896 0.039085 0.041501 0.037186 -0.153576 0.074556 0.025608 -0.019976 0.078431 0.032736 -0.116891 -0.015113 0.021415 0.060293 -0.033328 -0.134618 0.066314 0.025816 -0.104051 0.064487 0.032828 -0.269305 -0.053259 -0.072943 0.028744 0.019 -0.003413 -0.043053 0.027452 0.112957 0.186053 0.126388 -0.202755 0.052204 -0.068041 -0.030595 -0.072963 0.058439 0.041274 -0.012866 0.043713 0.018644 -0.140924 0.101117 0.019601 -0.017381 -0.247871 -0.061179 -0.034912 -0.057154 0.116032 0.148659 -0.036868 0.129221 0.112364 -0.469287 -0.126016 -0.093763 0.024505 0.047958 0.032326 0.017847 -0.176442 0.001484 0.071849 -0.04861 -0.110516 0.052068 -0.044199 0.107478 0.088953 0.037485 0.031976 0.050856 -0.049739 -0.060526 0.009672 -0.037276 -0.088611 0.039193 -0.362292 0.024032 0.008836 -0.06361 -0.056948 -0.009011 0.170025 0.045895 0.010499 -0.036852 0.09923 -0.053818 -0.064579 0.027258 0.053257 0.038909 -0.091896 -0.000742 -0.077203 0.157649 -0.097513 0.012126 -0.024994 0.021708 -0.048002 -0.038253 -0.028862 -0.00873 0.021565 0.057069 0.029792 0.074729 0.034551 0.029803 0.04574 -0.056004 0.024618 -0.106652 -0.045663 -0.236294 0.061601 0.173452 0.082223 -0.011717 -0.093459 0.028941 0.023644 0.040807 0.150902 0.147344 -0.018821 0.065674 0.041 -0.050131 0.044002 0.105881 -0.137929 -0.096693 -0.037369 -0.00262 -0.089159 0.137236 0.003794 0.092327 -0.030445 0.054167 -0.171368 0.071743 -0.030466 0.052574 0.078198 -0.003 -0.08429
  0.02941 0.001367 -0.226985 -0.031437 0.071918 -0.192989 -0.004864 -0.237769 0.062819 0.038003 -0.017901 0.030641 -0.039176 -0.106631 0.073962 -0.021848 -0.156268 -0.01017 -0.029039 0.014307 0.027353 -0.111941 -0.044476 0.079834 0.141958 -0.240154 -0.096132 -0.297107 0.121405 -0.019023 -0.159066 -0.020794 -0.026431 -0.092169 -0.058842 -0.041818 0.073377 0.089943 -0.099992 0.014263 0.039782 -0.201466 -0.025571 0.092635 -0.010492 -0.122106 -0.021341 -0.01078 0.062992 -0.147475 -0.054142 -0.229652 0.114544 -0.132099 0.025427 -0.026598 6e-06 -0.216055 -0.045511 0.018638 0.087802 -0.05826 0.027508 0.104786 -0.08482 -0.213844 0.110644 -0.088955 -0.072736 -0.047414 -0.042494 0.035784 -0.04183 -0.06406 0.170108 -0.020965 -0.04217 0.15948 0.053744 -0.220292 0.028728 -0.05413 0.008637 0.021411 0.078628 0.119431 -0.010184 0.034072 0.049648 -0.101267 0.106169 0.036482 0.017494 -0.160108 0.030034 0.025068 -0.224094 0.082562 0.097947 -0.116788 -0.015858 0.014367 -0.230909 -0.039662 0.031384 -0.058182 -0.073658 -0.027644 0.081551 -0.12803 -0.124258 0.177245 -0.031964 -0.061202 -0.101554 0.087056 -0.038203 -0.116001 -0.142357 -0.056985 0.042598 0.084589 -0.100718 -0.131364 0.133547 -0.018417 -0.067957 -0.239931 0.113416 -0.031858 -0.068376 -0.017179 -0.047477 -0.085059 0.027638 0.014809 0.06745 0.126695 -0.081988 0.008778 0.026649 0.074421 -0.125773 -0.092765 0.07152 -0.091033 0.268083 0.10533 0.000445 0.007413 0.035338 -0.166462 0.124934 -0.147334 -0.151379 -0.039407 -0.068413 -0.140919 -0.005567 -0.221991 0.149663 0.215703 -0.05427 0.066297 -0.158202 0.005391 -0.185243 0.020245 0.204475 -0.156944 0.05798 0.067791 0.01756 -0.034645 0.041038 0.078625 0.111777 0.037264 0.09852 -0.032398 0.073093 -0.0089 -0.176688 -0.229597 -0.162706 -0.132369 0.029136 0.225546 -0.046942 -0.107718 -0.117406 -0.052461 0.000395 0.075275 0.111966 0.010943 0.19685 0.107598 0.068646 0.047119
  0.036379 -0.071968 -0.287626 0.099557 -0.046725 -0.117769 -0.060522 -0.173365 0.066083 0.124127 -0.104684 0.096414 -0.099625 -0.028179 0.103434 -0.089818 0.095035 0.083904 -0.114962 -0.03515 0.059681 0.050789 0.025931 -0.019473 -0.044664 -0.149692 -0.10412 -0.191331 0.099447 0.059664 -0.173481 -0.035195 0.078746 0.073328 0.037413 0.003595 -0.036896 0.040648 -0.050066 0.044758 0.038591 -0.116991 0.013427 0.021317 0.088086 -0.074162 -0.039083 -0.012134 0.094996 -0.22961 0.024426 -0.119235 0.032437 -0.018554 -0.005356 0.029417 -0.01433 -0.054035 -0.041571 -0.095715 0.039482 -0.077193 -0.031145 0.04304 -0.084203 -0.123666 0.015679 -0.070115 -0.070345 -0.15266 0.153254 0.096075 -0.054127 -0.017713 -0.010437 -0.113664 -0.167664 0.086328 0.06582 -0.195614 0.005838 -0.100051 0.032802 0.043456 0.056751 0.192426 0.046288 -0.143934 -0.002932 -0.129969 0.103948 -0.085279 -0.024033 -0.04469 0.049702 0.063745 -0.179027 -0.116427 0.054763 -0.130963 0.000824 0.001868 -0.12047 0.090011 -0.148372 -0.089434 -0.126765 -0.052877 0.012809 -0.015237 -0.166898 -0.02031 -0.259857 -0.207711 -0.167014 -0.001859 -0.086445 -0.310704 -0.144907 0.15322 0.15535 0.126955 0.011356 -0.141468 0.181822 0.141596 -0.118442 -0.116247 0.072663 0.003638 -0.048197 -0.092108 -0.068201 0.010359 -0.113787 -0.022024 0.085315 0.056972 -0.048231 0.008196 0.056566 0.139708 -0.22764 0.078578 0.06359 -0.130444 0.192118 0.053127 0.019346 -0.040214 0.047372 -0.180989 0.222024 -0.007859 -0.046751 -0.013501 -0.179336 -0.169615 -0.058871 0.080144 0.039554 -0.151482 -0.01866 -0.109193 -0.049767 0.025396 -0.007759 0.014122 -0.075863 -0.071238 -0.010484 0.012759 -0.05256 -0.008566 0.083382 0.014174 0.069493 0.141193 -0.011477 0.073285 -0.050334 -0.031512 -0.057736 -0.318147 -0.001025 0.016913 0.042577 0.111677 -0.105536 -0.034173 -0.126979 0.013553 0.081933 0.02182 -0.031155 0.039495 0.13979 0.056641 0.03176 -0.008036
  0.06919 -0.111904 -0.062149 -0.022202 -0.045952 -0.034882 -0.031973 0.00942 0.062833 0.03037 0.027837 0.067487 -0.067454 -0.044727 -0.028071 -0.034648 0.08899 0.134507 0.09349 0.10592 0.042637 -0.01285 0.021705 -0.033082 -0.004609 -0.111886 -0.026141 -0.113719 -0.083521 0.03006 -0.119131 0.00309 0.034753 0.013304 0.005436 0.033007 -0.057419 -0.090931 0.010527 -0.026556 0.080069 -0.049396 -0.064476 0.041849 -0.031631 -0.019448 0.146905 -0.057294 0.06859 -0.098495 -0.052669 -0.009807 -0.004241 0.0897 0.014143 0.035326 0.009469 -0.04749 -0.033385 -0.019757 -0.007675 -0.112964 0.014014 -0.009618 -0.066547 -0.134376 0.029691 -0.064492 -0.104277 -0.042693 0.125417 -0.046371 0.042287 0.02811 0.01589 -0.058584 0.066541 -0.155357 0.00364 -0.166783 -0.022444 -0.005764 -0.075457 0.073772 -0.001157 0.120751 0.014868 0.060725 -0.043702 0.020564 0.129151 0.000832 0.01098 0.020784 -0.034295 -0.112403 -0.063341 0.115938 0.029299 -0.03235 -0.139237 -0.012413 -0.042073 0.139856 0.125291 -0.108315 0.039564 -0.03877 -0.0269 -0.004494 -0.010496 0.031774 0.058761 -0.253313 -0.187547 0.072484 -0.02182 -0.214712 0.057386 0.033037 0.045815 -0.036003 0.007072 -0.013972 0.05057 0.003961 -0.029725 -0.059487 -0.014927 -0.019347 -0.001136 -0.013928 -0.058563 -0.134156 -0.115587 -0.052139 0.186406 0.036357 -0.036326 0.083145 -0.024674 0.020024 -0.150128 -0.095444 0.069358 -0.043822 0.046772 -0.091319 -0.042036 0.02568 -0.046274 0.00977 0.148622 0.003205 -0.050216 -0.096368 -0.191695 0.047846 -0.037573 -0.014041 0.017198 0.153795 0.075157 -0.076457 0.031202 0.022037 0.016188 0.054103 -0.069536 -0.017848 -0.058549 0.062599 0.037944 -0.085082 -0.0469 0.047138 -0.168841 0.097771 0.131246 -0.108512 0.013805 -0.059907 -0.021059 -0.080486 -0.046979 -0.065926 -0.052307 0.259643 0.040572 -0.062541 -0.02171 0.033251 0.003098 0.047183 0.127306 0.027937 0.194898 0.246613 -0.025753 -0.037001
  0.02941 -0.089779 -0.026963 0.084069 0.043372 -0.018862 0.062924 -0.027135 0.059979 -0.119657 -0.019359 0.027379 0.01594 -0.037139 0.017039 0.014801 0.006688 -0.065991 0.004781 -0.010108 0.07801 0.091018 0.019177 0.040317 0.039701 0.060937 0.017512 -0.003721 -0.050754 -0.011787 -0.021718 0.012392 0.0269 -0.004635 -0.007609 -0.029025 0.063906 0.013895 -0.002226 -0.066885 -0.036983 0.040995 0.029276 -0.005 0.07104 -0.008325 0.039695 0.009342 -0.064524 -0.014611 -0.037972 -0.021524 0.007165 -0.04084 0.017864 0.050183 0.061629 -0.00197 0.061458 -0.009753 -0.04099 -0.072127 -0.052979 -0.004042 0.028835 0.085979 -0.058052 0.015811 -0.036953 -0.05089 0.017215 -0.065129 -0.058771 0.018162 -0.029315 -0.097003 -0.022404 -0.06864 0.012323 0.146619 0.010779 0.01788 0.074256 0.078121 -0.022876 0.078678 0.031724 -0.020287 0.035307 0.055167 0.160853 -0.01614 0.061049 0.032141 -0.088374 -0.062532 0.065892 0.076992 -0.021582 0.005901 0.014671 -0.009936 0.035913 -0.005057 0.031867 -0.005058 0.04507 0.017092 0.015509 0.019378 -0.030383 0.008411 0.006555 -0.048918 0.016169 0.01682 -0.03097 -0.095594 -0.027271 -0.111785 0.045447 0.143009 -0.030935 0.0412 0.052243 -0.166996 0.052165 0.004369 0.114439 0.024076 0.006456 0.011437 0.022115 -0.060239 -0.009591 -0.012812 0.020875 0.043182 -0.05664 -0.008867 0.152717 0.057866 -0.011265 -0.022688 -0.016579 -0.011431 -0.010294 0.043716 -0.004856 0.023774 0.003434 0.017167 0.001938 0.005615 -0.018205 -0.006324 -0.052159 -0.116471 0.00778 -0.100446 -0.017157 0.116426 0.036044 -0.076267 0.040803 -0.021099 -0.060069 0.035636 -0.055464 0.009796 -0.011802 -0.072785 0.061439 0.044815 -0.009597 -0.00477 0.002629 -0.037838 0.025767 0.055979 -0.038243 0.108622 -0.002853 -0.047053 0.013938 0.023201 -0.125935 0.018628 0.050147 -0.017251 0.009893 -0.03446 0.043617 0.026066 0.062186 0.070217 0.100184 0.083716 0.004162 -0.062284
  0.000815 -0.01368 -0.08885 -0.011456 0.027085 0.034146 -0.061125 -0.039085 0.020907 -0.048285 0.008611 0.028901 0.09732 -0.001168 0.057777 0.017692 -0.073092 -0.023749 0.01602 0.048802 -0.010529 -0.053224 0.013032 0.048994 0.048973 0.056664 -0.011595 0.048653 -0.037133 0.062476 -0.050901 -0.017362 -0.04106 0.005616 0.092977 0.015176 -0.021255 0.018156 -0.019572 -0.010701 -0.019653 0.009205 -0.067849 -0.024431 0.090792 0.024466 -0.049866 0.022086 0.005832 -0.061479 0.042869 -0.015254 0.036038 0.065085 0.014897 0.046456 0.077163 -0.050594 0.021366 -0.013748 -0.023163 -0.008349 0.00806 0.006647 0.14646 -0.01798 0.042594 -0.026377 0.03368 -0.024176 -0.035033 -0.003707 0.043005 -0.020088 -0.067259 0.045196 0.023175 0.040281 0.018284 -0.01966 0.067578 0.022921 0.011742 0.010545 -0.021141 -0.051842 0.033435 0.033593 -0.014614 0.035754 -0.029149 0.011125 0.008856 0.022891 0.00324 0.021711 -0.001941 0.010116 -0.003908 0.015046 0.019312 -0.011068 0.095498 -0.013907 -0.025477 -0.002073 -0.006908 0.002027 -0.048943 0.02103 -0.001299 0.00417 0.111119 0.102564 0.026009 -0.0878 0.024141 -0.018519 0.05446 0.054581 -0.021853 0.001427 0.072401 -0.008362 -0.063049 0.004697 0.061405 -0.003387 -0.042535 0.009942 -0.018594 0.014122 -0.033593 -0.00108 -0.018997 -0.036596 0.009706 0.040002 -0.030332 -0.003788 -0.072239 0.020019 0.055684 -0.026688 -0.015528 0.02635 0.05144 -0.047113 0.010853 -0.010588 0.004754 0.045036 0.024752 -0.001036 0.000968 0.002096 -0.002212 0.024419 -0.063351 0.133397 0.003322 0.08073 -0.00831 -0.072722 0.086016 -0.020613 0.017869 -0.011299 -0.06742 0.032747 -0.079354 0.010663 -0.011292 -0.005544 -0.011001 0.00816 -0.006335 0.05 0.039885 0.001824 0.008388 -0.012463 0.01566 0.083254 0.030721 -0.060424 -0.033582 0.076379 0.052094 -0.031364 0.033647 -0.011141 -0.00041 -0.097061 -0.091644 0.03837 0.071796 -0.00124 -0.022293 -0.030735
  0.091801 -0.034027 -0.145724 0.021855 0.203997 -0.006952 0.230491 -0.125484 -0.010882 0.016689 0.002928 -0.044958 0.117036 0.108729 -0.011581 0.008647 0.011711 -0.112122 0.018892 -0.205047 0.10609 -0.044016 0.044773 0.075885 0.032301 -0.022446 0.127899 0.050917 0.089253 -0.029276 0.036116 0.020695 0.115125 -0.046195 0.012498 -0.073054 0.018057 0.060998 -0.121876 0.139785 -0.028009 0.127827 0.008196 -0.115926 -0.015623 0.064825 -0.012662 0.042923 -0.032928 0.041128 0.04048 -0.146884 0.035671 0.007213 -0.013934 0.002315 0.046319 0.145131 0.010625 0.074903 0.08983 -0.082801 -0.024234 0.031286 -0.014407 -0.068335 -0.178156 -0.11099 -0.053361 -0.238802 -0.063016 0.054181 0.016367 -0.008721 -0.010219 0.056336 0.075779 0.130433 -0.031045 -0.00791 0.079525 0.057425 -0.103851 -0.355048 0.046239 0.174954 0.035889 0.09425 -0.059075 0.215004 -0.023546 0.030252 0.044073 -0.147827 -0.001066 -0.224082 0.009449 0.023377 0.065739 -0.010721 0.161127 0.048922 0.133724 -0.128433 -0.029436 0.004193 0.057652 0.043173 -0.038853 -0.091518 -0.085132 0.138585 -0.177806 -0.079843 0.142957 -0.044535 -0.067084 0.139341 0.066302 -0.065106 0.080186 -0.091732 -0.015187 0.121209 -0.185284 -0.02104 0.029711 0.004901 -0.106145 0.022677 0.082405 0.163575 0.050754 0.040392 0.017661 -0.050894 -0.026239 0.135296 -0.032544 -0.078501 0.123093 -0.152908 0.281407 -0.044566 0.047905 0.119933 -0.030926 -0.011533 -0.088986 -0.058145 0.047505 -0.018887 -0.107941 0.065568 -0.021358 -0.045402 0.131397 0.086638 -0.026318 0.024519 0.137661 0.028177 -0.068338 -0.046692 0.110388 0.002685 0.025543 0.125221 -0.198032 0.044326 0.030792 0.063366 0.062653 -0.064731 0.094978 0.028476 -0.030645 -0.053362 0.058141 -0.077406 -0.115936 -0.084499 0.135887 -0.000695 -0.014756 0.031217 0.10472 -0.057568 -0.133955 0.095914 -0.013924 -0.048085 -0.024871 -0.03375 0.052726 -0.071065 -0.203642 0.03268 0.121364 -0.133099
  -0.018257 -0.035519 0.024855 -0.035009 0.108631 0.063716 0.126102 -0.026052 -0.173992 -0.007483 0.108131 -0.010007 0.069197 0.119392 -0.069299 0.056301 0.082635 -0.03088 -0.058694 -0.143697 -0.034531 -0.041177 -0.004286 0.072301 -0.011231 0.047115 0.077141 0.089418 -0.16333 0.032094 0.126033 0.007943 0.075949 0.049646 -0.03447 0.040955 -0.059787 0.060953 0.039103 0.07872 -0.112135 0.107643 -0.049844 0.073312 0.01937 0.030609 0.04722 0.020014 -0.047085 0.083492 0.023287 -0.031399 -0.009545 0.031414 0.045554 0.0889 0.038508 0.158737 0.039607 0.05627 0.076751 0.09486 -0.03101 0.072126 -0.006584 0.063262 0.062747 0.033409 0.135041 0.061395 -0.095751 -0.004155 -0.024353 0.106286 -0.055936 0.053661 0.023039 0.033273 0.024324 0.048533 -0.069144 0.003622 0.028828 -0.122253 -0.000544 0.060125 0.016602 0.044603 -0.097963 -0.019788 -0.027258 0.055612 0.047216 -0.056244 -0.05668 0.037755 -0.038631 0.052795 0.063949 0.075402 -0.068659 -0.012933 0.178665 -0.019258 0.029822 0.004135 0.053794 -0.055623 0.035193 0.098763 0.014245 -0.014179 0.12339 0.021655 0.136168 -0.081466 0.083462 0.192926 0.071567 0.029378 -0.104589 -0.074687 0.012834 0.043515 -0.102822 0.05051 0.020709 0.17753 -0.07304 0.053838 0.009775 0.052885 0.070883 0.074429 0.050927 0.073651 -0.065991 -0.025357 0.076002 -0.056319 0.088075 -0.146191 0.058527 -0.012778 -0.035845 0.132339 -0.054669 -0.01151 -0.048257 -0.109573 0.031778 0.028909 -0.083703 0.030845 0.052032 -0.006419 0.08751 -0.042571 -0.083956 -0.085715 -0.00908 -0.024284 -0.011057 -7e-06 0.129387 -0.043146 0.052806 0.031139 -0.136805 0.002432 -0.011632 -0.134134 0.085604 0.07728 0.00222 -0.169966 0.014231 -0.072371 0.036499 0.045754 -0.019047 -0.045209 0.096311 0.053409 -0.010298 0.035095 -0.136511 -0.095178 0.095846 0.007387 -0.047887 0.009928 -0.03401 -0.074132 -0.000475 -0.045043 -0.209475 -0.136917 0.000567 0.11421
  -0.013618 -0.00907 0.070025 -0.027963 -0.160979 -0.080998 -0.100756 0.1099 -0.143147 -0.053927 0.074334 0.038188 0.082309 -0.192828 -0.078949 -0.029776 0.0218 0.032369 0.028222 0.043297 -0.251431 -0.078386 0.021405 0.001767 0.049141 0.097212 0.053936 0.043585 0.017637 0.038365 0.026136 0.022031 -0.04068 0.029663 0.0123 0.027615 -0.140754 0.016002 0.076477 -0.071143 -0.028858 0.006093 -0.042291 -0.039152 -0.035585 -0.09705 0.028236 0.04043 -0.117922 0.035306 0.080628 0.055456 -0.04237 0.051053 0.017029 -0.067226 0.044311 -0.054582 -0.013241 0.063017 -0.090846 0.015904 0.052428 -0.144933 -0.003423 0.120568 -0.044615 0.074597 0.166572 0.143184 0.051092 -0.053002 -0.108563 -0.022938 -0.0337 0.07599 -0.060583 -0.199485 0.119193 0.175546 -0.175695 -0.022686 0.132664 0.156139 -0.04555 -0.344809 -0.020907 -0.011557 -0.059422 0.006519 -0.100295 -0.129498 0.0152 0.006547 -0.012959 0.135379 -0.01175 -0.125905 -0.151741 0.050631 -0.016361 -0.066318 0.098146 -0.049885 -0.134134 -0.009665 0.013344 0.038393 -0.09071 0.057842 0.053341 -0.111628 0.165045 0.154966 -0.041067 -0.028359 0.099605 0.10023 -0.002612 0.008518 -0.166235 -0.057058 0.051817 0.003688 0.051393 -0.06699 -0.003663 0.084372 -0.053933 0.042819 0.015318 0.066896 0.050918 -0.143213 0.023141 0.013283 -0.139712 -0.04964 0.026512 -0.001293 -0.175837 -0.108614 -0.030776 0.009697 0.0365 0.069733 -0.0463 -0.084225 0.014602 0.029412 0.071975 0.065315 -0.114171 0.057165 0.106457 0.048314 0.01016 0.063402 -0.077238 -0.15085 -0.08406 0.074635 0.125167 0.0793 0.083122 -0.045084 0.111864 0.000665 -0.119483 0.025696 0.044983 0.05677 0.103325 0.038486 0.019473 -0.014434 -0.060628 -0.071266 -0.030636 -0.080958 0.000809 0.038925 0.047853 0.052287 0.046404 0.008886 -0.073304 -0.059818 -0.168452 0.028144 -0.027981 0.01516 -0.09575 0.024091 -0.055714 -0.054052 -0.076284 0.044583 -0.111964 -0.001117
  0.072323 -0.013713 0.211165 -0.145832 -0.164928 -0.005126 -0.219476 0.288436 -0.039056 -0.072737 0.064205 -0.19137 -0.025929 -0.188021 -0.132093 0.045008 0.07924 0.019946 0.105382 0.098371 -0.153706 0.018654 0.001036 -0.157895 -0.074199 0.082581 -0.034987 0.07535 -0.035104 0.045723 0.163442 -0.024544 -0.205688 0.01236 -0.048651 0.007139 0.03876 -0.104416 0.010306 -0.247826 0.023546 -0.103589 -0.037913 -0.083056 0.15957 0.053358 -0.10876 -0.006625 -0.094782 -0.029854 0.040246 0.090294 -0.021668 -0.007104 0.023812 -0.114267 -0.055013 -0.012538 0.047672 -0.041622 -0.195611 0.029018 -0.027078 -0.243132 -0.021332 0.044039 -0.025515 0.042417 0.154979 0.100429 0.011238 -0.079639 -0.100532 0.084568 0.008157 -0.019076 -0.17634 -0.274233 -0.065451 0.103081 -0.074817 -0.092384 0.024239 0.235773 0.019565 -0.153902 -0.032725 -0.06348 0.014027 -0.038081 -0.228609 -0.078614 -0.013042 0.337628 0.049013 0.118175 0.152456 -0.257392 -0.036537 0.05124 -0.171018 -0.104474 0.094999 0.035376 0.023042 0.04331 -0.044512 -0.084634 -0.17024 0.114964 -0.00794 -0.250447 0.15157 0.239136 -0.15225 0.002249 -0.109673 0.083069 0.129551 -0.08232 0.083372 -0.052945 0.148812 -0.030017 -0.052923 0.223557 0.12682 0.012007 0.053365 0.02964 -0.046882 0.143035 -0.000896 -0.108936 0.017982 0.071095 -0.064798 -0.132672 0.017027 0.104293 -0.120865 0.101036 0.107604 -0.009211 -0.004952 0.047234 -0.147479 0.065971 0.030569 0.072229 -0.153658 -0.106805 -0.005613 0.028054 0.020108 0.052159 -0.075663 -0.042405 -0.077883 0.113737 0.003182 -0.047853 0.057268 0.142621 -0.15098 -0.023529 -0.05804 -0.063092 0.181168 0.062464 -0.005896 0.003728 -0.02272 -0.040838 -0.155667 -0.053908 0.029503 -0.093003 -0.186985 0.035489 0.078248 0.011446 -0.160692 0.117889 0.020157 -0.012112 0.047053 -0.102662 0.0584 -0.030144 0.002603 0.105339 -0.039032 -0.002637 -0.231514 0.153592 -0.061204 -0.171742 -0.001324 0.087862
  0.009582 0.092756 0.234242 0.142335 -0.088748 -0.063554 -0.2077 0.271201 0.194091 0.003337 0.025055 -0.03284 -0.046527 -0.051475 0.09467 -0.004001 -0.199738 0.104003 -0.250176 0.017669 -0.126017 0.01308 -0.061914 -0.029365 -0.138417 0.031178 0.103193 0.150668 -0.039037 -0.142508 -0.001454 0.080807 -0.244324 0.144744 -0.104153 0.011921 0.110467 -0.078974 -0.042519 -0.228146 -0.149416 -0.23271 0.080372 0.057728 0.084983 -0.08246 0.135822 -0.016462 -0.06265 -0.075524 -0.040808 0.055358 -0.08506 -0.009593 0.019127 0.073349 -0.225823 0.016117 0.111276 -0.025381 -0.173535 -0.014562 0.02751 -0.107055 -0.046862 0.149365 -0.067938 0.135038 0.065673 0.092711 0.092919 -0.073744 0.071035 0.209698 -0.034997 -0.093468 -0.067254 -0.318345 -0.124868 0.153989 -0.066205 -0.066221 -0.035655 0.151855 -0.037978 0.016483 0.03082 0.076733 0.06633 0.009087 -0.115649 -0.050899 0.002399 0.28014 0.063337 0.129472 0.196219 -0.13331 -0.089907 -0.012295 -0.13356 -0.048795 0.077558 0.02168 -0.112379 0.05301 -0.031509 -0.058431 -0.085414 0.10347 0.055285 -0.138185 -0.028384 0.31023 -0.082204 0.143707 0.080976 -0.145729 -0.019171 -0.04226 0.057777 0.082487 0.023459 0.010187 0.18288 -0.024691 -0.000593 0.070006 0.067957 -0.062721 0.001536 0.105954 -0.094597 -0.088004 0.002829 -0.007006 -0.047576 -0.079922 -0.091304 0.026487 -0.224322 0.032433 -0.118328 -0.049628 -0.059067 0.031865 -0.148712 0.232053 0.007681 0.050706 -0.060508 -0.022118 0.078481 -0.028764 0.054786 -0.044169 -0.080998 -0.119688 0.047809 0.353558 -0.072227 -0.194437 0.06188 -0.038391 0.092573 -0.051079 -0.046749 -0.027383 -0.050814 0.059225 0.084786 0.103081 -0.189767 -0.069802 -0.066621 -0.010984 0.09557 0.025599 -0.056516 0.034443 0.011031 -0.109519 -0.08641 0.073111 -0.041328 -0.030811 0.048967 -0.136252 -0.032862 -0.032464 0.049437 0.110214 0.071163 0.016736 -0.214341 0.017884 -0.141571 0.120889 -0.061932 0.059463
  -0.05893 -0.102871 0.117709 0.041997 -0.054881 0.074581 -0.167527 0.202797 0.122452 -0.043341 -0.02414 0.027724 -0.079421 0.020653 -0.035336 0.016488 0.090167 0.015515 -0.107365 0.002428 -0.074361 0.077519 -0.047583 -0.058915 -0.1349 0.084184 0.032665 0.001815 -0.029661 0.004764 0.117564 -0.084372 -0.099435 0.098552 -0.038314 0.088182 -0.058348 0.017185 0.01795 -0.09128 -0.028528 -0.067677 -0.081895 0.0193 0.100006 -0.029785 0.063073 0.02094 -0.092748 0.027101 -0.035145 0.189266 -0.044528 0.027178 -0.042593 -0.174431 -0.086982 0.090926 0.079263 -0.023636 -0.026625 -0.027496 -0.128771 -0.047683 0.120103 -0.004693 0.018761 0.035504 0.043931 -0.143602 -0.060706 0.028469 -0.080245 -0.10509 0.00697 -0.012936 -0.020663 -0.259013 -0.05356 0.158245 -0.086576 0.041109 0.004153 0.057227 -0.089749 -0.015949 -0.130415 -0.093345 -0.064541 0.003322 0.056418 -0.095344 0.093584 0.19418 -0.01242 0.066754 0.147293 -0.076804 -0.030656 0.017316 -0.047657 -0.050957 0.175514 0.008108 0.113551 0.094191 0.014663 -0.055954 -0.034831 0.110006 0.085787 -0.040145 0.131957 0.112409 0.06731 0.069762 0.006582 -0.252009 -0.074326 -0.077852 0.039203 -0.043589 -0.031136 -0.005028 0.051243 -0.004226 -0.047674 0.110858 0.11381 -0.110758 0.101078 -0.09844 -0.012054 0.009068 -0.008014 0.012735 0.010073 -0.112099 0.017668 -0.023311 -0.023262 0.004221 -0.021403 0.020107 -0.022743 -0.032044 -0.049182 0.036117 0.087713 -0.011341 0.036047 0.046191 0.142861 0.118883 0.052865 0.117279 -0.005615 -0.074395 0.04333 0.101623 -0.044644 0.010094 -0.003819 0.090304 0.099748 0.017619 -0.199569 -0.032752 -0.121148 0.044099 -0.105462 -0.023925 -0.102734 -0.031908 -0.005875 0.023443 0.063883 0.002286 -0.039564 0.040564 0.032727 -0.080287 -0.030913 0.068813 0.010659 0.044495 0.035777 -0.019535 0.014472 0.01996 0.04456 -0.016601 -0.011075 -0.036757 -0.007093 0.01645 0.054102 0.022912 0.053971 0.078084
  0.037268 0.054655 -0.049084 -0.06564 0.012295 -0.030917 -0.056421 0.038107 -0.033833 -0.028611 -0.036503 0.03399 -0.032612 0.058389 0.031005 0.027705 0.126394 -0.08021 -0.014164 0.031467 0.060415 0.077124 0.013438 -0.012767 0.008587 0.105944 0.037663 -0.008411 -0.047737 -0.0357 0.046219 -0.022617 -0.110123 0.022907 -0.033926 -0.017474 -0.014413 0.012258 0.069948 -0.085662 -0.01213 -0.011187 -0.020012 -0.071044 -0.038774 -0.024392 -0.033461 0.036359 -0.053642 0.070691 0.033648 0.024255 0.01751 -0.037285 -0.034302 0.081333 0.052679 -0.07553 -0.024862 -0.013099 -0.015495 0.01272 -0.039348 -0.02608 0.047691 0.034333 -0.014097 0.0486 0.026351 0.026502 0.006667 -0.00639 -0.039634 -0.030897 -0.015598 0.027085 0.022732 0.068897 0.026971 -0.060303 -0.055987 -0.037069 -0.020476 0.003052 -0.030472 -0.008734 0.057301 0.049963 -0.007909 -0.043265 -0.036958 0.015932 -0.039241 -0.01743 0.018771 0.036192 0.03272 -0.019614 -0.055403 0.027342 0.040098 -0.030889 0.003221 -0.016337 -0.029242 -0.036953 0.084666 -0.021011 -0.020172 -0.004894 0.020327 -0.077975 -0.021286 0.076006 -0.004946 0.004262 -0.015664 0.165557 0.04318 0.034615 -0.079259 0.100224 -0.05328 0.046265 0.078689 0.069328 0.031013 -0.002387 0.14814 0.023064 -0.02473 -0.014287 0.014226 -0.092011 0.004823 0.03323 -0.047221 -0.019025 -0.01232 0.0588 0.023156 0.019928 0.028781 0.055021 -0.013144 0.02099 -0.090765 -0.023466 0.009019 -0.0304 -0.004446 0.046806 0.008443 0.001358 -0.038572 -0.00513 -0.066706 0.097912 -0.00129 0.070676 -0.038169 -0.142898 0.051041 -0.046321 0.001636 0.029636 -0.022227 0.021425 0.054177 0.045117 -0.031661 -0.106817 0.00447 -0.006123 0.033371 0.04632 -0.005178 0.016565 -0.066776 0.053686 -0.037241 -0.035847 -0.004447 0.112843 -0.033943 -0.020234 -0.019981 0.039891 -0.040678 0.012566 -0.00377 -0.011082 -0.019073 -0.040948 -0.085942 -0.022363 0.058729 -0.062781 -0.013495 -0.039146
  -0.52563 0.388866 0.270525 0.452554 -0.410197 -0.393663 0.232996 0.427743 -0.156266 0.4912 -0.442015 -0.39949 -0.137042 -0.342031 0.506359 -0.559702 0.005071 0.366126 0.028378 -0.103629 -0.29725 0.372438 -0.663374 0.356287 -0.543096 0.379682 -0.570035 -0.3147 -0.413514 -0.448818 0.317313 -0.116527 0.469523 -0.52231 0.52774 -0.550774 -0.111832 0.33548 -0.391907 -0.55534 -0.459093 0.512833 0.513154 -0.429004 0.34418 -0.388085 -0.331548 -0.460214 -0.602743 0.359051 -0.739841 -0.155947 -0.454146 -0.43897 -0.439841 -0.066214 0.432481 -0.334446 -0.349464 0.464653 -0.3976 -0.473836 0.374438 -0.465959 0.193922 0.124784 -0.138317 -0.666923 -0.184781 -0.115925 0.321912 0.425205 0.506997 -0.503765 -0.685331 0.515984 0.457089 0.26498 -0.483939 0.137421 -0.273779 0.516127 0.463231 -0.321533 -0.620548 -0.245613 0.428222 0.328542 0.42594 -0.204699 0.455125 0.419335 -0.557151 0.085921 0.52156 -0.248791 0.467132 -0.337438 -0.525477 0.273704 -0.284336 -0.503339 -0.293918 0.441031 0.26018 0.412423 0.485606 -0.603504 -0.371104 -0.365827 -0.338215 -0.226574 0.084611 0.08708 0.384843 0.450387 -0.24402 0.248685 0.339155 0.519339 -0.030384 0.469892 0.460842 -0.59416 0.152874 0.288389 0.296961 -0.381692 0.098389 -0.366522 -0.415864 -0.287371 -0.231442 -0.275467 -0.696235 -0.592045 0.463274 -0.579368 -0.267552 0.489889 0.214167 0.318115 -0.408558 0.348992 -0.544017 -0.54008 0.255093 0.360241 -0.437148 -0.58124 -0.620067 0.543909 0.385734 -0.473147 -0.295237 -0.51138 0.536204 0.343464 -0.232122 0.023001 -0.662971 0.001893 -0.358523 0.259583 -0.299456 0.405427 -0.108503 -0.58359 -0.19025 -0.607801 0.55423 -0.071157 0.573706 -0.641754 -0.624619 -0.307169 0.347704 0.4405 -0.142145 -0.180492 -0.497556 0.243681 -0.563937 0.418278 -0.523078 0.4505 -0.489902 0.126899 -0.05042 -0.583724 -0.503883 -0.527602 0.428288 -0.259063 0.384343 0.32677 0.152937 0.072091 -0.227934 -0.469049
  0.005125 0.139413 0.081531 0.05379 -0.054582 -0.004777 0.060555 -0.096313 0.13124 0.0611 -0.051586 -0.007314 -0.006516 -0.063492 0.00684 -0.007028 0.095792 -0.110918 0.305373 0.019247 0.024356 -0.094735 -0.01928 -0.113697 -0.139793 -0.081519 0.042375 -0.027356 -0.042048 0.010219 -0.086823 -0.070862 -0.030046 0.037218 -0.021096 0.00038 0.020329 0.040944 0.011061 -0.041699 0.009583 0.053206 0.091395 0.051944 0.045785 -0.130939 0.133907 -0.012782 0.047772 0.007767 -0.039886 -0.029896 -0.034267 -0.043388 0.06946 -0.062206 -0.045308 -0.004513 -0.128853 0.081682 0.048595 -0.047977 -0.006619 -0.066416 -0.039682 -0.037033 0.149253 -0.02879 0.055921 0.153481 -0.054445 -0.108907 -0.17583 0.000715 -0.029521 0.013964 0.058384 0.088789 -0.077576 -0.029852 0.035245 -0.051733 -0.063631 -0.112709 -0.065269 -0.022966 -0.13334 0.008607 0.104542 -0.07051 -0.216073 0.014397 -0.068429 -0.236415 0.084879 -0.136696 0.030159 0.070529 -0.052185 -0.170491 -0.02679 -0.103115 -0.105842 -0.003345 -0.122615 0.040755 -0.017515 -0.039853 -0.08133 0.051083 -0.075058 -0.100551 0.08847 -0.045073 0.086176 0.068335 -0.124039 0.240921 -0.22561 0.073754 0.040148 -0.195864 0.077585 0.018695 0.200533 0.017978 -0.190191 -0.094107 -0.011152 0.018574 -0.075517 -0.044518 0.009002 -0.075352 -0.000303 0.052054 -0.048269 -0.07045 -0.066026 -0.039694 -0.111985 -0.10759 -0.07565 0.055234 -0.030891 -0.077173 -0.159748 0.171821 -0.006624 -0.045897 -0.000428 0.128445 -0.123802 0.046475 -0.04953 -0.017075 0.079503 -0.004914 -0.116172 -0.06948 -0.059398 0.00321 -0.107833 0.043841 -0.030944 -0.216927 -0.08419 0.064929 -0.055353 0.024307 0.070007 -0.074321 -0.033099 -0.060885 0.008885 0.024086 0.055504 -0.172408 0.134202 0.002561 0.05741 -0.041552 -0.030679 -0.113723 -0.046088 -0.08659 -0.107254 -0.176985 0.079951 -0.058242 0.050183 -0.092468 -0.065738 -0.026349 -0.14072 -0.118195 -0.181249 -0.02011 -0.134867 -0.122626
  -0.072588 0.057801 -0.046238 -0.045575 -0.030509 -0.129552 -0.111116 -0.020595 0.205087 -0.044203 -0.092998 0.065313 0.106565 0.080089 -0.039328 -0.101683 -0.113782 -0.138832 -0.047347 0.213381 -0.079233 -0.069321 -0.005336 -0.016996 0.129525 0.023345 0.005178 -0.045584 -0.096325 0.185252 0.014104 0.099519 -0.064663 -0.026752 -0.004537 -0.006147 -0.027627 -0.010194 -0.13483 -0.071147 -0.002413 0.002019 -0.063654 -0.121395 -0.099687 0.016848 -0.222202 -0.059056 -0.034465 -0.046718 -0.063194 0.098812 0.104402 0.157254 0.108882 -0.172578 0.0376 -0.029895 -0.02499 -0.024696 0.085672 -0.037763 -0.089999 -0.006388 -0.03619 -0.060889 0.019579 -0.001247 -0.103196 -0.030141 -0.026298 0.049833 -0.078222 -0.057713 -0.16938 -0.044374 -0.030236 0.037505 -0.173616 -0.101754 -0.118981 0.043057 -0.137191 0.19238 -0.138026 -0.0504 0.002047 0.014601 -0.017055 -0.181762 -0.016971 -0.164901 -0.018607 -0.014867 -0.074312 0.054433 -0.011772 -0.155999 -0.117227 -0.167492 -0.159188 0.089876 -0.056901 -0.036856 -0.046171 -0.066485 -0.018227 -0.079135 0.160557 -0.086317 -0.107105 -0.106999 -0.095137 -0.041487 -0.036899 -0.024579 0.081095 -0.072286 0.023815 0.060369 -0.175522 -0.039101 0.015968 0.062778 -0.104234 -0.097572 -0.011143 -0.085757 -0.036456 0.054092 0.009609 0.002444 -0.085936 0.109206 -0.075481 -0.124483 0.012511 -0.06695 -0.157462 0.000128 0.022466 -0.102877 0.149909 -0.094246 -0.025854 -0.046817 -0.129711 0.026802 0.038143 -0.005122 -0.030541 -0.022566 -0.020196 -0.041369 -0.109628 -0.182597 -0.010066 -0.019252 -0.093886 0.040175 0.076253 0.08792 0.00021 -0.047441 0.160601 -0.039903 -0.091309 0.103731 -0.194704 -0.081258 -0.058417 0.213304 -0.00324 5.8e-05 -0.086779 -0.078981 0.000817 -0.041139 -0.125106 -0.088619 0.090592 -0.048488 -0.126951 -0.064066 -0.088616 -0.029279 -0.178132 -0.029303 0.125861 -0.011214 -0.043215 -0.119313 0.022151 -0.077954 0.043528 -0.11373 -0.164743 -0.06193 0.191706 -0.16616
  -0.018127 0.018939 -0.029045 -0.029304 0.033754 -0.060312 0.016498 -0.165953 0.036631 0.011847 -0.048393 -0.036503 0.101568 0.057835 -0.019821 -0.007036 -0.001595 -0.045204 0.030731 -0.046988 0.05244 0.017544 0.019399 -0.040095 0.024509 0.02379 0.019579 -0.098417 -0.029982 0.03071 0.00437 0.004085 0.053464 0.014753 -0.037322 -0.071133 0.024563 -0.031512 -0.048445 -0.098552 -0.005739 0.022255 -0.012246 0.040202 0.021462 0.050224 -0.168118 -0.031261 -0.082892 0.016565 0.039225 0.053342 -0.030679 0.1354 0.038397 -0.078139 0.002063 -0.003033 0.008737 -0.067302 -0.139215 0.003661 0.021703 -0.021831 -0.077222 0.095523 -0.002324 -0.057766 0.07785 0.008337 0.011054 -0.037664 -0.072499 -0.013897 0.010968 -0.102963 -0.036993 -0.053817 -0.06392 -0.051836 -0.040705 -0.118077 -0.010851 0.122882 0.019144 0.021835 -0.111208 -0.049094 0.037636 -0.111606 -0.006393 0.028853 -0.037077 -0.111832 0.000581 0.116297 -0.06759 -0.01533 -0.024872 0.053223 0.019036 0.063476 -0.107411 -0.066463 0.147688 0.011026 -0.047886 -0.005292 0.031988 -0.002193 -0.045738 -0.129709 0.045618 -0.15569 0.07024 -0.033267 0.103691 -0.054579 -0.155419 -0.070079 -0.098122 0.08244 -0.075776 0.004547 -0.014172 -0.017093 -0.065734 -0.037186 -0.132449 -0.041691 0.043908 0.013012 -0.146792 -0.045318 -0.05675 -0.006557 0.005896 -0.029856 0.005636 -0.024497 0.067721 -0.012151 0.046873 0.07088 -0.010738 0.007102 0.021063 0.008427 -0.051971 -0.010222 -0.057821 -0.110185 -0.08557 -0.087974 -0.090794 0.00525 0.035656 -0.100385 0.04682 -0.215885 0.04896 0.04948 -0.020353 0.070164 0.041054 -0.024986 -0.047476 0.023317 -0.083959 0.001605 0.031005 0.004923 0.032708 -0.035289 -0.084554 -0.109899 0.039907 -0.059255 -0.167971 -0.00437 0.006642 0.056559 -0.065984 -0.043049 0.022416 0.00108 -0.138768 -0.01214 0.011452 0.011433 -0.020618 -0.017641 -0.11695 0.063908 0.089291 0.038001 0.063474 -0.016041 0.010879 -0.169071
  -0.057584 -0.03166 0.021916 -0.014395 -0.031102 -0.05758 0.007872 -0.119548 0.064153 -0.008179 -0.056947 0.059899 0.048191 -0.062854 -0.010426 -0.064126 0.111947 0.083572 0.020876 0.141216 -0.119196 -0.017139 -0.023471 0.027522 0.105383 -0.0824 -0.124148 -0.120442 -0.068112 0.09553 -0.033437 0.136827 -0.01041 0.006943 0.007513 -0.01076 0.102924 -0.048823 -0.020364 0.092893 0.023246 0.014277 -0.002636 -0.053997 0.020191 0.081296 -0.058079 0.080496 -0.068851 0.019608 -0.089955 0.048233 0.090264 -0.062669 0.061386 0.055601 -0.093987 -0.115268 -0.06731 -0.037396 0.018409 -0.033522 -0.069549 -0.055248 0.035009 0.038505 0.193263 -0.069634 -0.115398 -0.065945 0.016994 0.018507 -0.054235 0.103884 -0.0908 0.019678 -0.039692 -0.063713 -0.123898 -0.035426 -0.022137 -0.040004 -0.06416 -0.086615 -0.176429 0.134261 -0.092971 -0.104308 -0.053707 -0.119027 -0.010985 0.122898 -0.02523 -0.023895 -0.008451 -0.005479 -0.067305 -0.086563 0.003565 0.072931 0.033063 0.069498 0.012153 -0.020529 0.110648 0.031212 -0.043481 -0.050253 0.022748 0.019279 -0.111497 0.044039 0.087182 -0.146428 0.007592 0.010766 0.017985 0.035555 -0.053617 -0.02161 -0.005135 -0.029044 -0.036243 0.011294 0.105078 -0.073182 -0.169247 0.014317 0.00186 0.05413 -0.052367 -0.106747 -0.064225 0.103676 -0.042612 -0.133193 -0.031458 0.022976 -0.169563 -0.023614 0.059818 -0.030431 0.17176 0.037509 -0.015088 -0.017492 0.019435 -0.088206 -0.009048 0.026017 0.025329 -0.161947 -0.083559 -0.129785 -0.073801 0.064788 -0.009091 -0.019283 0.038713 0.133728 0.094254 0.13725 -0.01804 -0.000995 0.063811 0.040416 0.056233 -0.040065 -0.286541 0.004009 0.042953 -0.064412 -3e-06 -0.032876 0.025947 0.062836 -0.001118 -0.066367 -0.00832 -0.013918 0.004029 -0.051103 0.077078 -0.08079 -0.060779 -0.037645 -0.152372 -0.145628 -0.056435 0.020522 -0.156394 0.038921 -0.086931 -0.133359 0.039352 0.004809 0.126373 0.191167 0.075304 0.104447
  -0.013272 0.055689 -0.111548 -0.004737 -0.014422 0.044996 -0.109018 0.009655 0.212928 0.059722 -0.083233 -0.023911 0.073117 -0.082293 -0.017467 -0.109607 0.095966 -0.02424 -0.03639 0.137556 0.089934 0.09769 0.057322 -0.026408 -0.132689 -0.090873 0.111437 -0.168451 0.026609 -0.161846 0.080664 -0.141772 -0.05592 0.011537 0.010305 0.097746 0.034594 0.106198 -0.152627 -0.010115 0.042505 -0.019279 0.002247 -0.021054 -0.008105 -0.076156 0.074181 0.095964 0.066869 -0.056425 0.029366 -0.080645 -0.085744 -0.02184 0.074069 -0.141663 -0.017651 -0.194045 -0.035737 -0.025935 0.105028 -0.104089 -0.077924 -0.071553 0.072816 -0.126396 0.201249 -0.06954 0.174618 0.133927 -0.119364 -0.049109 -0.049951 -0.052388 -0.007471 0.053548 0.016276 -0.022952 -0.009481 -0.18858 0.231676 -0.09176 -0.074504 -0.174159 -0.022448 -0.119222 -0.0641 0.003117 0.05791 -0.241086 -0.016803 -0.113908 -0.067748 -0.055442 0.010508 -0.060372 -0.047382 0.135509 -0.075573 0.051062 -0.023694 -0.095764 -0.118031 -0.085964 -0.009637 -0.07257 0.029865 -0.054245 -0.121129 -0.02969 -0.128976 -0.08781 -0.010294 -0.226422 0.067989 -0.038863 -0.123773 -0.092548 -0.00523 0.07232 0.156099 -0.076381 -0.042946 -0.0632 0.055117 -0.122822 -0.006824 -0.066933 -0.064453 0.10551 -0.094428 -0.008916 -0.106858 -0.216344 -0.076465 0.084377 -0.033987 -0.082692 -0.091809 -0.141835 0.002804 -0.107432 -0.091317 -0.196061 0.057115 -0.060287 -0.056132 -0.106638 0.062296 -0.098412 0.030308 0.070656 -0.074065 0.054021 0.035251 -0.119418 0.022588 0.052704 -0.143107 -0.079748 -0.109424 -0.164551 0.002275 -0.030688 -0.087305 -0.003139 -0.161217 0.067919 -0.084863 -0.035127 0.037409 -0.168832 -0.086942 -0.112187 0.057421 0.066663 -0.097851 -0.038575 0.080157 -0.211999 0.08083 0.021203 -0.068038 -0.056777 0.057869 -0.030901 -0.163101 -0.070706 0.181361 -0.078541 0.144801 -0.048513 0.003086 0.045295 -0.00958 -0.01799 -0.022599 -0.067386 -0.14744 -0.078922
  0.088728 0.011012 0.035343 0.030919 -0.065659 -0.097305 0.05136 0.046791 0.008815 -0.024725 -0.018843 -0.060496 0.042473 0.03515 0.069235 -0.005159 0.150953 -0.000386 0.027462 -0.118662 0.09474 -0.193325 -0.006412 0.064519 0.069607 -0.066167 -0.018662 0.051291 -0.042712 0.06777 0.038431 -0.068241 -0.060119 -0.020019 0.100158 0.008715 0.035401 0.043303 -0.018314 -0.107063 0.069704 -0.027458 -0.055948 0.047604 -0.002638 -0.010677 -0.082724 -0.018494 -0.065076 0.099823 -0.060567 -0.045867 -0.081164 0.058231 -0.038339 -0.085278 -0.004096 -0.004292 -0.016072 0.034337 -0.081331 0.001666 -0.047652 0.062549 -0.005902 0.073519 -0.166886 0.0314 -0.169071 -0.161281 -0.054146 -0.010356 0.000791 0.138819 -0.024994 0.035954 -0.062193 -0.050884 0.045588 -0.107145 0.092498 -0.04662 -0.115286 0.006544 -0.034959 -0.12267 -0.02443 -0.024803 -0.101873 0.035189 -0.011771 0.033688 -0.027071 -0.005088 0.017283 0.015748 -0.040448 -0.093739 0.005617 -0.075353 0.012963 0.006366 0.024396 -0.029441 0.076007 0.066054 -0.012682 0.042757 0.019181 0.02769 0.020284 -0.002538 0.101243 -0.122803 -0.042463 -0.03503 -0.002166 0.094219 -0.084342 -0.01638 0.005006 -0.059592 0.047083 0.027899 -0.134262 -0.128202 -0.048391 -0.024336 0.051535 -0.066097 -0.00946 -0.103481 0.048924 0.020021 -0.037856 0.042951 -0.047652 -0.017281 -0.027537 -0.01671 -0.023935 -0.012667 -0.042646 -0.098014 0.053024 0.056755 -0.082152 0.079751 0.023124 -0.036348 0.000396 -0.02575 -0.09735 -0.068043 -0.099497 -0.020826 0.048765 0.022977 0.033309 0.019395 -0.002334 0.052403 -0.053555 -0.077837 -0.00581 -0.006778 -0.019925 -0.032759 0.129959 -0.057176 -0.065789 0.036387 0.008402 0.012372 0.052915 -0.137108 0.065935 -0.051409 -0.050941 -0.040509 -0.015482 -0.076771 -0.016632 -0.048106 0.067542 -0.029894 -0.026889 -0.025189 -0.041905 -0.017315 -0.053356 0.025663 0.006666 -0.054544 0.103685 -0.03819 -0.020497 -0.036413 0.026314 0.036943
  -0.009459 0.010701 -0.086673 0.070799 0.014525 0.013437 0.070244 -0.003955 0.120361 0.000637 0.071041 -0.036315 -0.083849 -0.034879 0.030377 0.045474 -0.075641 0.011672 0.031193 -0.014078 -0.041343 0.040876 0.044619 0.022081 -0.036733 -0.017204 0.016461 0.050788 0.006028 0.057725 -0.094214 0.142664 -0.022285 0.077243 -0.023297 -0.000411 -0.131219 0.021994 -0.104933 -0.170802 -0.065235 -0.005927 -0.007566 -0.029216 -0.062549 0.007868 0.0034 -0.091087 -0.144429 -0.01448 0.015173 -0.019647 0.012914 0.090942 0.050989 0.089057 0.017117 -0.09973 -0.01395 0.011452 0.034431 -0.007624 0.050375 -0.00883 0.059248 -0.06456 -0.197267 -0.017702 0.052371 -0.034229 0.016793 -0.030397 -0.007604 0.020705 -0.037004 0.07085 -0.015681 0.048933 -0.131363 0.005408 0.05942 -0.039527 -0.030466 -0.117989 0.012789 0.082521 0.002463 -0.044263 -0.14186 0.008141 -0.004099 -0.005862 0.071089 0.089432 -0.033196 -0.057801 -0.06392 -0.066594 0.04739 0.025758 0.009034 -0.013179 -0.05697 -0.024988 0.039326 -0.014755 -0.023456 0.060169 0.113112 0.059312 0.074492 0.155872 0.055381 0.096747 -0.027764 5.1e-05 0.093205 -0.037135 0.042798 -0.002687 0.069597 0.119938 -0.003073 0.020231 0.086688 -0.087624 0.003993 0.096728 0.046383 -0.066045 -0.003478 -0.057812 0.06644 0.025646 -0.005388 -0.018698 -0.065668 -0.02909 0.00558 0.015983 -0.047117 -0.042023 0.046154 0.008529 -0.000385 -0.031123 0.036031 -0.102354 0.099639 0.049303 0.026155 0.005268 -0.011836 -0.060004 -0.023622 -0.228247 0.011102 0.041225 -0.149206 -0.308459 -0.033782 -0.110333 0.052244 0.035808 -0.114315 -0.02195 -0.027685 0.001445 0.036448 0.035089 -0.032599 0.020926 0.015595 -0.013258 0.048117 0.019894 0.030385 -0.040582 -0.211737 0.017614 0.000901 0.001524 0.006483 0.011681 0.079134 0.021501 -0.020373 0.005285 0.008127 -0.096413 0.025705 0.04432 -0.027979 0.080437 0.02561 0.004173 -0.072755 -0.010109 0.086716 -0.002148
  0.007602 0.033312 0.007493 -0.018892 0.012274 0.028598 0.072976 -0.105438 0.005378 -0.002992 -0.005301 -0.022649 0.024288 0.044661 -0.025792 -0.087553 -0.107241 -0.001469 0.020959 -0.003025 -0.043602 0.020746 0.002234 0.050331 0.054498 -0.062397 0.017714 0.130334 0.021295 0.110254 0.004639 0.005382 0.020985 0.040194 -0.062448 0.053056 -0.141166 -0.005435 0.019103 0.064883 0.05651 0.002185 -0.03607 0.131204 0.006523 -0.000684 0.047024 -0.000639 -0.044112 -0.010684 0.063051 -0.072478 0.006435 0.083553 -0.055267 -0.057924 -0.06299 -0.012941 0.032221 0.009773 0.001382 0.000687 0.002955 -0.089637 -0.001788 -0.024055 -0.124128 -0.028639 -0.007617 0.056076 0.005683 0.036198 -0.048251 -0.049418 -0.084037 0.012619 -0.012108 0.033194 0.152534 -0.036009 0.086514 -0.017535 -0.016823 -0.029079 -0.014989 -0.105498 -0.068154 -0.047883 -0.00124 -0.017791 0.010897 0.012426 0.062796 -0.117683 0.006451 -0.026189 -0.047713 0.123999 0.005953 -0.038 -0.08217 0.005526 0.017753 0.004096 0.025645 0.00659 -0.048926 -0.033403 0.046484 0.059125 0.074415 0.090045 -0.006463 0.100463 0.080962 -0.036381 0.006845 -0.013423 -0.003793 -0.020533 -0.088616 0.083643 -0.007371 -0.025565 0.129613 0.138757 -0.024966 0.052001 0.001341 -0.100032 0.083796 -0.099131 -0.035211 0.034402 -0.00098 0.013016 0.017062 -0.019709 0.046319 0.072555 0.013235 -0.008944 -0.158446 -0.004864 0.005595 0.004484 0.030419 0.017987 -0.009256 0.046526 0.08004 0.007073 0.003993 -0.038234 -0.037984 0.024387 -0.006069 -0.025578 0.005672 -0.083551 -0.041529 0.091874 -0.020741 0.01067 -0.098463 -0.010027 -0.047664 0.025826 0.06197 -0.163166 0.035312 0.00612 0.073899 0.014463 0.042764 -0.018748 -0.062285 -0.025404 -0.019859 -7.9e-05 -0.069196 0.007001 -0.016181 -0.039397 0.06583 -0.005217 0.049993 -0.048143 0.118302 0.013662 -0.072679 0.064092 0.004328 0.101288 -0.060573 0.051012 -0.063522 -0.173109 0.116732 -0.110496
  0.02077 0.071016 -0.001972 0.021732 0.013523 -0.005816 -0.081838 -0.076873 -0.189847 -0.007588 -0.108253 0.096655 -0.046871 -0.046909 -0.006517 -0.022196 -0.091268 0.029247 -0.136422 -0.058611 -0.054742 0.058725 -0.012671 0.015087 0.071933 -0.090995 0.003954 0.003236 0.036592 0.08174 -0.039933 -0.039821 -0.08726 0.087735 -0.063859 0.034648 -0.090924 0.007718 0.027775 0.038818 0.009746 0.022708 0.000413 0.056505 -0.042524 0.074405 0.018647 0.069689 -0.048097 0.037587 -0.008224 -0.061058 0.038752 0.038025 0.032308 -0.116185 0.073936 0.151691 -0.004793 0.014623 -0.042019 -0.063992 0.009836 -0.129445 -0.05894 -0.122608 -0.129229 0.006653 -0.123296 0.159041 0.067437 -0.003214 -0.015293 0.012867 -0.021511 -0.05379 -0.009216 -0.027049 -0.006466 -0.014575 -0.0087 0.015924 -0.033647 0.098364 0.00439 -0.110419 0.032092 0.076218 -0.045943 -0.035742 -0.008508 -0.023416 0.079698 0.02469 -0.013969 -0.042723 -0.051214 0.071412 -0.069901 -0.070166 -0.029789 0.025953 0.103316 0.029932 0.048957 0.000854 -0.042169 -0.025065 -0.072759 -0.041376 0.003935 -0.071771 0.008621 0.013252 0.139538 0.00509 -0.034761 -0.035198 -0.003808 -0.070557 -0.017415 0.0132 0.005992 0.024711 0.028836 0.072665 -0.018334 -0.111136 0.072405 -0.017995 0.094087 -0.062342 0.028349 -0.095309 0.027944 0.043589 -0.099132 0.036122 -0.033295 -0.003381 0.084807 -0.005301 -0.177328 0.015241 0.013083 -0.02562 0.031048 0.072758 0.057509 -0.038485 0.051251 -0.004335 0.011904 -0.034122 0.043545 0.063063 0.025473 -0.078166 -0.104224 -0.053807 0.093864 -0.100182 0.029773 -0.044851 -0.068213 0.063302 0.064422 -0.023879 0.058406 0.053603 0.039111 0.04784 -0.013485 -0.060611 0.074574 0.059089 -0.089565 -0.02759 0.038419 -0.025115 -0.102735 -0.017029 -0.037836 -0.043058 -0.018546 -0.018757 0.050874 -0.039832 0.112062 -0.068955 -0.02517 0.055728 -0.01269 -0.060389 -0.060365 0.078905 0.000606 0.038139 0.014918 0.01682
  -0.010198 0.009136 -0.050518 -0.021717 0.006403 0.042609 0.016304 -0.013586 -0.077803 0.017125 0.07282 -0.044868 0.105972 0.068058 -0.037561 0.044947 -0.080572 -0.019683 -0.027165 0.032498 -0.016642 0.056783 0.068133 -0.008884 0.057875 -0.013712 0.077992 -0.017195 -0.058092 -0.042793 0.008393 0.021204 -0.078134 0.049147 -0.020201 0.044235 -0.159883 0.051812 -0.100317 -0.07276 0.05025 0.024434 -0.007296 0.050615 -0.091376 -0.04562 0.106634 -0.006495 0.041247 0.034713 0.054497 0.025518 -0.084119 0.020389 0.011561 -0.101654 -0.005291 0.085697 0.039513 0.060987 -0.093043 -0.069281 0.005043 -0.068069 0.020805 -0.082883 -0.101287 0.02231 -0.067689 -0.021612 0.039965 0.026016 0.051633 0.03574 0.026328 0.041467 -0.046943 -0.016908 0.014322 0.067513 0.0639 0.01143 0.066233 -0.072728 -0.028848 -0.058914 -0.012259 0.04507 -0.057866 0.038608 -0.055169 -0.03934 0.017791 -0.107996 0.025755 0.077006 0.013805 0.073962 0.114106 -0.036966 0.112031 0.036287 0.00906 0.009132 0.073274 0.001901 0.011816 -0.025924 0.035362 0.087824 -0.001186 0.09656 0.186342 0.020701 0.034949 -0.029196 0.082219 -0.106436 0.0408 0.011082 0.094083 0.044142 -0.043118 -0.018482 0.050847 0.031057 0.010851 -0.085107 0.062645 0.043056 -0.020295 0.032454 -0.098345 -0.177252 0.005844 0.00958 -0.072091 -0.056957 0.117337 0.000226 0.046352 -0.139783 0.147074 -0.007998 -0.022432 0.022677 0.066389 -0.094725 0.001948 0.04811 -0.055283 -0.006031 0.012173 0.039146 0.076086 -0.000852 -0.005914 0.097485 0.027955 0.018592 0.035006 0.021477 -0.048536 -0.042999 0.004053 -0.015949 -0.163239 -0.049533 -0.141532 -0.008985 0.016206 -0.114262 -0.055573 -0.033522 -0.12308 -0.007928 -0.035293 0.002663 -0.114018 0.12411 0.026088 0.064574 0.017394 0.015502 0.013334 0.016335 0.033106 -0.084098 0.023381 -0.013809 -0.109305 0.074265 -0.018615 -0.000232 -0.029833 -0.019989 -0.047776 0.002446 -0.027645 -0.093655
  0.030721 0.035494 -0.097762 0.022086 -0.013339 -0.014399 0.06813 0.019479 0.028772 0.024379 -0.123342 0.079281 0.052413 -0.07447 -0.098338 -0.04727 0.053432 -0.049112 -0.099917 -0.065377 -0.010316 -0.092738 0.031611 -0.016875 -0.014689 -0.003047 0.008935 -0.085273 0.018987 0.023374 -0.021015 0.025381 0.084405 -0.000786 0.018722 -0.080706 -0.082921 -0.028765 0.012978 -0.003179 0.046469 0.049494 0.004996 0.024499 -0.063613 -0.03258 0.050473 -0.027381 0.070416 0.048213 -0.102786 -0.071378 0.096835 -0.047438 0.030525 0.024106 -0.028156 0.116292 -0.107105 -0.048546 -0.043584 0.009639 0.028477 0.1014 0.023321 0.06451 0.114416 -0.05238 -0.068712 -0.077379 0.059802 -0.002106 -0.033708 0.026582 0.000646 -0.042739 -0.06293 -0.088279 -0.04899 0.118044 -0.039596 -0.024558 -0.010129 0.095835 0.049976 -0.017876 -0.018656 -0.048798 -0.071432 -0.28637 -0.035814 0.000517 0.012524 -0.082779 -0.013922 -0.091045 0.012812 -0.020721 -0.073813 0.055901 0.021616 0.04259 -0.154465 -0.013871 0.159146 -0.015032 -0.00737 0.031336 0.026221 -0.068992 0.003748 0.002396 0.001951 0.072033 -0.030886 -0.005853 0.007235 -0.007113 0.061238 -0.053161 -0.055001 0.048634 -0.062708 0.081569 0.081338 0.037652 -0.086795 -0.026051 -0.044797 0.006306 -0.018892 0.09324 0.005971 -0.099172 -0.003708 -0.043928 -0.051522 0.009836 0.049907 -0.011407 -0.07028 0.002025 -0.026711 0.06961 -0.004027 0.014994 -0.012182 -0.041109 0.067849 0.065095 -0.017244 -0.044779 0.009996 0.029477 -0.107333 0.059589 0.009953 -0.017028 0.074907 0.031238 0.080829 -0.037305 -0.016322 0.044813 -0.104923 -0.047907 0.057636 0.027579 0.11252 0.119395 0.018597 -0.080235 0.007232 0.064908 -0.009259 -0.178102 -0.085855 0.010142 -0.002992 -0.036328 0.051631 -0.044152 -0.049035 0.009649 0.034105 -0.018495 0.011921 -0.084039 0.102037 0.052571 -0.128419 0.025592 -0.023157 -0.002965 -0.021178 -0.052144 -0.053822 -0.000937 0.011661 0.131178
  0.03364 0.028172 -0.054613 -0.019231 0.040334 -0.044985 -0.010772 0.060248 0.044882 -0.018113 0.004423 -0.023289 0.080631 0.109093 -0.012814 -0.003106 0.123046 -0.035365 0.029977 -0.027285 -0.031848 -0.046484 0.028237 0.021835 0.064195 0.035745 -0.000898 0.090841 0.016291 0.031833 0.00349 0.136524 -0.004901 -0.019879 -0.030942 -0.016585 0.005944 -0.005015 -0.003155 -0.061387 -0.046309 -0.013304 -0.002978 -0.156132 0.024708 0.068532 -0.073744 -0.015087 0.005095 0.059949 0.001752 -0.059804 -0.03889 -0.030007 -0.039449 -0.182711 -0.004157 -0.069735 0.098147 -0.094416 0.037364 -0.155561 0.036609 -0.00392 -0.089689 0.028597 -0.049371 0.069214 0.109168 -0.03426 0.007703 -0.044292 -0.012894 -0.038088 0.018346 -0.005781 0.018274 -0.022497 -0.025228 -0.012592 0.022565 0.020579 -0.061072 0.108304 -0.01849 -0.091875 0.087557 -0.065378 0.006798 -0.025313 -0.013239 -0.079348 -0.01711 -0.069928 0.0325 0.082339 0.006745 -0.035889 -0.042828 -0.067459 0.094238 0.030973 0.057695 0.035998 0.126888 -0.004614 0.033835 0.08211 0.065471 -0.011915 0.042319 -0.034969 0.027847 -0.051166 0.076208 -0.072332 0.082993 -0.061737 0.024319 0.000378 -0.198823 -0.05284 -0.017359 -0.017824 -0.0564 0.070802 0.064359 0.036814 0.044059 -0.005287 -0.062333 -0.036274 -0.019296 -0.035743 0.000806 -0.059286 0.00761 -0.020249 0.086151 -0.029733 -0.020915 0.026076 -0.002697 -0.014679 -0.00949 0.053175 0.018109 0.001208 0.019979 0.029534 0.01462 -0.030597 0.018802 0.032014 -0.026351 0.028836 0.030746 -0.025717 0.105021 -0.001745 -0.058862 -0.062611 0.026336 0.062157 -0.068336 0.007416 0.067732 -0.077085 0.034113 -0.012031 0.009575 0.001929 -0.010328 0.017046 0.053945 -0.046149 -0.192032 -0.016145 -0.165553 0.004661 -0.087541 0.028696 -0.003645 -0.036032 0.075567 -0.009707 -0.033409 -0.139368 -0.127938 -0.003291 -0.011668 0.058263 0.078381 -0.106831 -0.036137 -0.017838 0.01661 -0.088541 0.040464 0.130348
  -0.02392 -0.034248 -0.000159 -0.032155 0.057774 0.069687 -0.024416 0.077853 0.141576 0.034571 -0.081503 -0.082067 -0.092657 -0.007168 -0.014731 -0.02215 -0.147328 -0.012725 -0.09298 0.000783 0.141446 -0.028624 -0.017031 -0.037647 -0.036126 0.033393 0.002648 -0.105534 0.10146 -0.110474 -0.108014 -0.140754 -0.013807 0.051402 -0.044665 0.052709 -0.180488 -0.042889 -0.082156 0.118419 -0.021951 -0.077207 -0.041396 -0.007822 -0.134064 0.014245 0.051195 0.019441 0.106391 0.067921 0.070843 -0.085098 -0.07808 -0.048705 0.111533 -0.160602 -0.062864 0.107062 0.020247 -0.058553 -0.008224 0.045395 0.026553 -0.103793 0.014833 0.007852 0.00335 -0.112867 0.125542 0.131616 0.003647 0.032351 0.002102 -0.022911 0.00628 0.022743 -0.021826 -0.085124 -0.026416 -0.035455 0.045694 0.017907 -0.01782 -0.075833 -0.042994 -0.142131 0.035505 -0.042188 0.028312 -0.039532 -0.022164 -0.011616 0.070448 0.148946 0.025155 0.022657 -0.014365 0.052193 0.050623 0.063755 -0.080236 0.018046 0.086302 0.057526 0.038889 -0.043563 -0.009957 0.035556 -0.151063 0.030291 -0.085492 -0.154727 0.030251 0.047042 0.033855 0.016429 -0.011579 -0.037007 0.045323 -0.158443 0.179186 -0.043556 -0.053819 0.056 -0.104573 0.093175 0.055875 -0.015953 -0.006227 -0.036185 0.187769 0.016619 0.064602 0.094839 -0.064614 0.066774 -0.004022 -0.039498 0.005323 0.046045 -0.036413 0.018063 -0.009786 -0.060476 0.111611 -0.032543 -0.000359 -0.055622 0.055835 -0.060319 0.052416 0.033674 0.05019 0.032905 -0.024116 -0.019496 -0.01442 -0.001548 0.013899 -0.048031 -0.008139 0.075605 6.3e-05 0.041244 -0.053711 0.039415 -0.181804 -0.055415 -0.068349 0.059913 -0.027773 -0.148581 -0.043102 -0.138947 0.07006 -0.02119 0.020949 0.043796 0.011629 -0.173015 0.064328 0.010993 0.009527 0.033563 0.058732 0.031115 -0.218368 -0.027817 -0.015538 0.143394 0.137383 -0.002895 -0.041249 0.121746 0.017789 -0.005672 -0.036935 0.042115 -0.001507 -0.076145
  -0.052054 0.038086 0.030188 -0.017048 0.04186 0.089885 0.012128 0.032391 -0.144042 0.009902 0.052902 0.038041 -0.183039 0.019066 0.00564 -0.026173 0.075525 0.046887 0.200401 -0.178039 0.023515 -0.047791 0.033664 -0.067568 -0.036355 0.037033 0.011286 -0.089886 -0.07372 0.032637 0.031889 0.075019 0.009981 0.005239 0.034099 -0.037682 0.023955 0.036404 -0.170705 -0.06345 -0.144879 -0.032845 -0.004429 0.009935 0.029682 -0.018331 -0.02461 -0.046011 0.016049 0.02364 0.082234 0.026768 0.087796 -0.032147 0.092952 0.180344 -0.034626 0.205177 0.028261 0.015697 0.067267 -0.045874 -0.034055 0.115505 0.039109 -0.1262 -0.010224 -0.060835 -0.028019 -0.024125 -0.069063 0.045557 -0.056895 -0.071953 0.049234 -0.005117 -0.023823 0.019059 -0.042582 0.011051 -0.1088 -0.050089 -0.015855 0.032072 0.110921 0.094656 -0.071596 -0.031313 0.030911 -0.243222 -0.07076 -0.064219 -0.014162 0.021412 0.03184 -0.001498 -0.047795 0.051681 0.106124 -0.008111 -0.01803 0.077016 0.021071 -0.013298 0.014385 -0.022795 0.033948 -0.007254 0.12685 0.016413 0.029835 -0.052728 0.098271 -0.084171 0.008433 0.004854 0.091729 0.073191 -0.096058 0.024863 -0.051291 -0.155554 0.085266 0.058219 -0.120366 0.090397 -0.089411 0.01424 0.051321 -0.076209 0.035225 -0.06856 -0.036054 0.04088 0.084773 -0.178 0.015874 0.017085 0.025657 -0.039112 -0.079501 -0.079116 -0.053904 -0.044166 -0.000353 -0.020203 -0.055864 0.002793 0.027581 0.087334 0.036722 0.046386 -0.007535 0.009225 -0.095212 -0.024893 0.028831 0.054789 -0.058009 -0.122868 0.0533 0.064552 0.059039 -0.007731 -0.031585 -0.072986 0.153203 0.070378 0.008814 -0.005524 0.055282 -0.043185 -0.052347 0.107129 -0.082662 0.005461 0.023758 -0.105475 0.009923 -0.077927 0.006006 0.035046 0.052341 -0.001421 0.02815 0.006055 0.079558 0.040836 -0.06962 -0.029508 -0.135872 0.064882 -0.000588 0.046081 0.038468 -0.04477 -0.035516 -0.076751 -0.035395 -0.042141
  -0.109489 -0.029061 -0.004492 -0.014071 0.064868 0.026163 -0.03344 0.001446 -0.201956 -0.003458 0.049291 -0.007337 0.029725 -0.115752 0.047798 0.030868 -0.004983 0.028892 0.031228 -0.100889 0.074134 -0.067518 0.044225 -0.01352 0.021263 -0.006021 0.026434 -0.148456 -0.025789 -0.058607 0.001898 0.042854 -0.029626 -0.060834 -0.056755 -0.025463 -0.065513 0.060187 0.057147 -0.057675 -0.042589 0.051667 0.01213 0.106101 -0.04276 -0.077942 0.05013 -0.013947 0.000562 -0.038585 0.017747 -0.034021 0.007826 -0.104313 0.09167 -0.190648 0.030826 0.041367 -0.012955 0.004203 -0.097238 -0.043027 0.013267 0.01708 0.036163 0.007886 -0.297086 0.024009 -0.08695 -0.024892 0.05528 -0.028746 -0.000267 0.050506 0.053437 -0.047157 -0.015432 -0.061606 -0.033053 -0.134078 0.127883 0.055458 -0.051204 0.061244 0.061466 -0.070432 0.019694 -0.085021 -0.053376 0.003647 0.025015 0.006903 0.002604 0.038976 0.026205 0.056786 -0.039513 -0.057826 0.051594 -0.020148 -0.177098 0.044217 0.028354 0.03375 0.062983 -0.034347 -0.018305 0.065493 -0.024501 -0.15427 0.05545 -0.000345 0.045951 -0.056375 -0.051299 0.047102 0.106788 -0.047297 0.073278 0.082487 -0.009494 -0.036546 0.040732 -0.066439 -0.100025 -0.035093 -0.08965 0.006553 0.044286 -0.126419 0.105076 0.05733 -0.03367 -0.141934 0.019961 -0.029301 -0.00545 0.038229 0.041396 0.046265 -0.127954 -0.063917 0.052037 -0.04399 0.038179 0.05665 0.029851 0.019363 0.025704 0.068238 -0.049527 0.006225 0.015544 0.073425 -0.008316 -0.18405 0.001399 0.012023 -0.028558 -0.035835 -0.043135 -0.073615 0.099588 -0.070333 0.029101 -0.006252 -0.017854 -0.039967 -0.021623 -0.047797 0.056076 -0.10905 0.020211 -0.071742 -0.004204 -0.023791 0.047623 0.02002 -0.222684 -0.047071 0.024285 -0.024938 -0.009704 -0.059167 0.053159 0.018183 -0.210892 0.092014 -0.008816 0.010503 0.026138 0.034044 -0.132351 0.002696 -0.141937 0.072362 0.022297 0.138632 0.062328 -0.047028
  0.001477 -0.050628 -0.030676 0.032507 0.086015 0.02652 -0.037476 0.012968 -0.077403 -0.017251 -0.035525 0.04666 0.008565 0.010462 -0.018533 -0.05344 -0.08741 0.029506 -0.196921 0.057723 -0.071593 -0.052188 -0.041562 -0.029255 -0.014554 -0.061788 0.038181 -0.020196 -0.147387 -0.098935 -0.031878 0.070438 0.022898 -0.086589 0.014733 -0.031273 -0.104319 -0.008007 -0.013939 0.085613 0.057931 0.02187 -0.007735 -0.010168 -0.025908 0.020992 0.067683 -0.193916 0.087376 -0.035459 0.073992 -0.049683 -0.132253 -0.024284 0.027636 -0.175987 -0.049164 -0.015971 -0.052237 0.011764 0.040459 0.070157 0.008894 -0.013192 -0.089793 -0.052176 0.120787 -0.144265 -0.016969 0.08717 0.019817 -0.057414 0.034572 -0.092655 0.054849 -0.069501 -0.020203 0.01372 -0.022845 -0.0322 -0.014584 -0.005718 -0.030705 0.012437 0.078381 -0.179329 -0.000474 -0.012997 0.004859 0.056024 -0.02574 0.003022 -0.080711 0.06196 -0.001162 -0.000578 0.022042 -0.109002 0.121866 0.039783 0.011379 0.046504 0.004698 0.047239 0.086457 -0.016875 0.002019 0.048388 -0.094942 0.121182 -0.012906 0.052691 0.116704 -0.085699 -0.007779 -0.061306 -0.013762 -0.056168 0.019864 -0.017827 -0.022065 -0.103336 0.01329 0.027584 -0.024726 -0.043748 0.05176 -0.00883 0.027225 -0.057631 0.027733 0.060932 0.095375 -0.081285 0.002027 0.048125 0.017981 0.096765 -0.032488 -0.04272 0.037612 -0.028305 0.157029 -0.004472 -0.035885 0.022738 -0.056987 -0.034938 0.090182 0.036923 0.03694 0.006962 0.006995 0.005574 0.01379 -0.107891 0.010258 -0.023734 -0.129832 -0.024848 0.064491 -0.058948 -0.009894 0.044176 -0.05653 0.001893 -0.201061 0.035174 0.109711 0.021097 -0.009702 0.062226 0.018008 0.005629 0.002782 -0.05314 -0.019991 0.031058 -0.057757 -0.03589 0.025752 0.024615 0.052438 0.021735 0.026703 -0.112403 -0.013027 0.052678 0.086469 0.023736 0.021005 -0.000833 -0.069716 -0.066844 0.010649 -0.027622 0.080978 0.079534 0.002007 0.009642
  -0.052167 -0.01671 0.025669 -0.024301 0.050414 0.004979 0.008768 -0.005072 -0.136045 -0.009006 0.040376 -0.004889 0.085282 -0.003126 -0.104563 -0.075257 -0.101359 0.069652 -0.265272 0.136133 -0.014552 0.016109 0.055253 -0.042136 -0.035788 -0.038065 0.028736 0.051542 -0.079692 0.057488 0.031865 -0.035135 -0.016457 -0.025211 0.021365 -0.031133 -0.167461 0.008176 -0.014063 -0.032238 -0.009014 -0.001507 -0.005769 0.044441 0.042012 0.009995 0.036937 -0.137248 -0.002733 -0.023044 0.081789 -0.106431 -0.097131 0.029242 -0.084059 0.079281 0.021747 0.10839 -0.1319 -0.030893 0.108406 0.00392 -0.043943 0.018683 0.074348 -0.023996 0.07329 0.027352 -0.013303 0.125981 0.025709 0.021401 0.039307 -0.020493 -0.028169 -0.013926 -0.032206 -0.012094 0.040976 -0.020427 -0.012956 -0.038084 -0.070996 0.03467 0.040224 -0.106595 0.010128 0.006179 -0.020347 -0.057818 0.061767 -0.061605 0.024909 -0.042614 -0.000344 -0.099153 0.030646 -0.063013 -0.071714 0.027137 -0.056299 -0.009418 0.042356 -0.019494 0.043595 -0.026564 -0.041039 0.026001 -0.074926 0.062686 -0.131337 0.165275 0.046373 -0.154471 -0.092162 -0.091147 0.021542 -0.144491 -0.031165 -0.0063 0.084671 -0.080367 0.028444 0.038756 0.085581 -0.031598 0.023171 -0.083071 -0.07329 -0.061715 0.025439 -0.046359 0.089458 -0.08214 0.047144 0.021676 0.002075 0.049673 0.096319 -0.015927 0.000519 -0.019098 0.176113 -0.005992 -0.028465 0.019856 0.016578 0.007401 0.042661 0.029796 0.008469 0.008178 0.081345 -0.050015 -0.014275 -0.05866 -0.068909 -0.001423 -0.056879 0.055945 0.063945 -0.166697 -0.102607 -0.065917 -0.004582 -0.045492 -0.031361 0.031241 -0.048841 -0.081903 -0.001358 0.118258 0.062568 -0.03645 -0.006743 0.019536 -0.077159 -0.020891 -0.109312 -0.11559 -0.129285 0.01869 0.018022 -0.022828 0.07784 -0.0458 -0.010884 0.058147 0.062978 0.010703 0.016328 -0.117518 0.030439 -0.090891 -0.072115 -0.056559 0.110972 0.074967 -0.016074 -0.0089
  -0.029586 0.006846 -0.028206 0.028495 0.004406 -0.042428 0.037585 -0.024502 -0.007996 0.020608 -0.059746 0.008227 -0.091405 -0.006358 0.00241 0.064002 -0.106933 0.037041 -0.10381 0.088606 0.055938 -0.013656 -0.03627 0.010308 0.026272 0.061258 -0.030263 -0.015237 -0.082589 0.024464 0.029439 -0.11813 0.027668 0.027916 -0.057884 -0.068604 0.026078 -0.088784 -0.032979 0.006388 0.120524 0.001675 -0.027279 0.092154 -0.074604 0.134397 0.126044 -0.065857 -0.066399 -0.017466 0.0264 -0.168844 -0.029462 0.006897 0.078106 0.01411 0.021228 0.10603 0.079853 -0.123582 0.00896 0.027884 0.07804 -0.014572 0.181739 0.048324 -0.029677 -0.032688 -0.104373 0.218995 0.033793 -0.00059 0.019401 0.087613 0.039083 0.018217 -0.000429 -0.005297 0.106822 -0.00339 0.07513 -0.051161 -0.081583 -0.119934 0.017198 0.158647 0.039388 -0.070145 -0.02667 0.000477 0.018688 0.038253 -0.046842 -0.091268 -0.034975 -0.007175 0.050208 0.106409 -0.018425 -0.057595 -0.068009 0.029563 0.077116 0.039584 0.006743 -0.023916 -0.012794 0.042707 0.112454 0.121227 -0.157544 0.027457 0.011755 0.049657 -0.163537 -0.001638 0.029949 -0.001103 0.013617 0.035413 -0.179389 0.006428 -0.026537 0.035266 0.062534 0.0656 -0.015973 -0.042928 -0.147705 -0.009896 -0.040743 0.072374 0.138702 -0.128001 -0.015919 0.055043 -0.001809 0.032217 0.014648 0.008242 -0.048654 0.049216 0.047329 0.017813 0.016869 0.028592 0.024094 -0.03172 -0.026592 -0.034899 0.032748 -0.051101 0.015355 -0.058796 0.090641 -0.172818 0.01787 0.102733 -0.003627 -0.158965 0.005077 0.209153 0.029497 0.056998 -0.03177 0.01676 -0.153849 -0.012797 -0.193738 -0.01371 0.000169 -0.11887 -0.004384 0.057628 -0.009054 -0.054986 -0.104421 -0.067365 -0.063064 0.020652 -0.088508 0.04587 -0.031711 0.002731 0.00448 0.0285 -0.020284 -0.043883 0.030961 -0.029696 -0.009095 -0.036294 0.07456 -0.148981 0.025063 0.056861 0.072574 0.120689 0.03138 0.054808
  -0.021293 -0.106928 0.140374 0.084523 -0.059375 -0.091595 -0.098579 0.034942 -0.156121 -0.016189 -0.086908 0.040254 0.108099 0.030313 -0.173471 0.071644 -0.034724 -0.020093 -0.142614 -0.079757 -0.118857 0.028112 -0.136321 -0.04155 -0.000136 -0.063076 0.052913 0.055308 0.057838 0.015125 0.131919 -0.004345 0.006295 0.088262 0.016793 -0.046753 0.117238 -0.026382 -0.033496 0.137792 -0.040491 0.072397 0.003527 -0.057979 0.014233 -0.131767 -0.04521 0.01887 -0.060433 -0.045912 0.002908 0.020671 0.035841 0.049543 -0.030391 -0.075779 0.046154 -0.108382 -0.046299 -0.013129 0.07863 0.019575 0.145271 0.020958 0.123517 0.138344 0.019595 0.076474 -0.073217 -0.004558 0.093673 0.071211 -0.007984 0.014249 -0.002491 -0.080999 -0.013935 -0.012173 0.067075 0.129214 0.035007 -0.11678 -0.007841 0.044029 -0.050955 0.008818 -0.000257 -0.022833 0.025824 0.018928 0.020157 0.069937 -0.082101 -0.063113 0.01118 0.120791 -0.033609 0.048783 0.013207 -0.02724 0.055959 0.089036 0.003036 -0.009202 0.017696 0.031007 0.029868 0.054102 -0.066673 -0.007211 -0.115902 -0.065949 -0.104695 0.142993 -0.131261 -0.131251 -0.085573 0.085469 0.033618 -0.110912 -0.143472 0.025966 -0.036779 -0.021744 -0.066577 0.049277 0.029189 0.070785 -0.102779 -0.153524 0.038892 0.029888 -0.029349 -0.013563 0.024251 0.015886 0.01708 -0.104757 -0.013283 0.028377 -0.11344 0.040948 0.008355 -0.008995 -0.013881 0.007114 -0.035733 0.075788 -0.083296 -0.040496 0.067092 -0.114087 -0.075685 -0.018368 0.125914 0.083215 -0.03302 -0.120239 -0.091941 -0.160664 -0.005628 0.047132 -0.0155 0.122812 0.100347 0.065338 0.069971 -0.078896 -0.036562 -0.009879 0.035037 -0.2972 0.100005 0.015164 0.072127 0.027208 -0.103898 -0.068028 -0.12257 -0.017282 -0.02033 0.017809 0.060826 -0.002745 -0.121269 -0.068441 0.05069 0.050264 -0.132477 0.00852 0.003451 -0.002655 -0.044812 -0.058464 -0.1194 -0.005539 0.00402 0.12155 -0.02082 0.011391
  -0.068973 0.10809 0.089855 -0.008713 -0.079965 -0.046377 0.118404 0.062586 -0.119657 -0.015526 -0.037957 -0.048881 -0.005386 -0.13982 0.097305 0.065206 0.162887 -0.026647 -0.08208 0.068656 -0.055146 0.022231 0.070234 0.024287 0.080458 0.007486 0.068959 0.070716 -0.135612 -0.008224 -0.020005 0.074768 0.024673 0.107268 -0.051446 -0.123101 0.008834 0.004269 -0.025466 -0.06172 -0.047559 -0.038168 -0.015953 -0.099731 0.038532 -0.042883 0.167785 -0.053728 0.138726 -0.083724 0.00995 0.068507 -0.112628 0.04724 0.076388 -0.024721 -0.009888 0.041913 0.070287 0.013417 0.061041 -0.065295 -0.039084 -0.12129 0.001872 0.077257 -0.023904 -0.03295 0.070745 -0.095843 -0.014308 -0.092469 -0.073909 0.000543 0.007192 -0.090901 -0.007496 0.169073 0.057708 0.088907 -0.157352 0.038751 0.005257 0.097715 -0.08397 0.018254 -0.020784 0.027558 0.014118 0.074201 0.014131 -0.05203 0.097748 -0.150433 0.029313 0.037213 -0.060429 -0.032299 0.004666 0.01098 -0.032375 0.040815 0.108263 -0.059454 0.040556 0.033829 -0.030307 0.071711 -0.002812 -0.051599 -0.133789 0.052896 -0.240923 -0.001483 0.012896 0.004549 -0.020765 0.003715 -0.15482 -0.017273 -0.205877 -0.071922 -0.060403 0.014791 -0.086079 0.044632 -0.013104 0.024915 0.05555 -0.071817 0.042884 -0.113682 0.117323 -0.01062 0.013089 -0.108214 0.012767 -0.024209 0.064473 -0.037703 0.043668 0.052952 -0.111473 0.016201 0.086459 -0.023342 -0.037018 0.041215 0.023526 0.015534 0.069091 -0.018566 -0.09418 -0.03311 0.079049 0.045462 0.02061 0.025134 0.199509 -0.243902 -0.114411 0.081416 0.225279 -0.078449 0.038208 -0.10038 -0.041022 0.021905 0.054518 -0.074443 0.021181 -0.153662 0.048333 -0.051768 0.08502 -0.075453 0.11515 0.032224 0.00893 0.01482 -0.027218 -0.099503 0.020609 -0.028917 0.125599 0.028704 0.045318 0.084316 -0.069711 0.038874 -0.141583 -0.01525 -0.029115 -0.066017 0.108889 0.006438 0.015874 -0.220747 -0.174762 0.072265
  -0.019771 -0.083345 0.067245 -0.042819 -0.037405 0.032369 0.142287 -0.124229 -0.060575 0.018004 -0.099311 0.05793 0.048198 -0.009272 -0.011693 0.016626 0.07465 -0.006143 0.096011 0.034722 -0.095548 0.041219 -0.022803 -0.111522 -0.136221 0.013076 0.055602 -0.202317 -0.15311 0.088561 -0.108074 -0.007399 -0.005403 0.130161 -0.050226 0.01728 -0.120618 0.017204 -0.027485 -0.025456 0.027927 -0.02677 -0.009064 -0.107502 0.082811 -0.020572 0.032815 -0.019192 0.013624 0.07904 0.114215 0.079693 -0.022526 0.0099 -0.218029 0.076174 -0.015058 0.097768 0.010725 0.023172 -0.073487 -0.051779 0.026709 0.007954 0.091058 -0.090916 0.020829 -0.085431 -0.176671 -0.0025 -0.047573 -0.062408 -0.013517 0.08716 -0.08976 0.002208 0.021263 0.059377 -0.042262 0.088918 -0.097096 -0.017149 0.049979 0.092045 0.015472 0.092711 -0.050731 0.143431 -0.030517 -0.261395 -0.009146 -0.061014 0.144086 -0.055481 -0.119517 0.014592 0.020907 0.001378 0.01211 -0.00964 0.110254 -0.057276 0.095943 0.046716 0.135679 -0.094175 -0.088282 0.092325 -0.138222 0.109012 -0.046095 -0.017214 0.11809 0.102423 0.189346 0.041829 0.041048 0.019548 -0.076933 0.020257 -0.130713 0.064056 -0.085027 0.006982 -0.171931 0.075465 0.009266 -0.019835 0.036816 -0.098014 -0.003365 -0.028832 -0.017977 0.019556 -0.027244 -0.05601 -0.072482 0.0598 0.018051 -0.039877 -0.2852 -0.026669 -0.088969 0.005257 0.007883 -0.053448 0.038004 0.036887 0.026428 -0.117878 -0.050306 0.000859 -0.007774 0.045002 -0.074523 0.074593 -0.072182 -0.095622 -0.069224 0.042816 0.022438 0.036149 0.027497 -0.016809 0.047725 -0.020384 -0.107545 -0.07169 -0.025982 0.056076 -0.06304 0.163324 -0.029515 0.079776 0.058801 -0.017324 -0.156551 0.071906 0.046266 0.027681 0.036411 0.066456 0.038507 0.045075 0.025984 0.011044 -0.022782 0.069937 0.183544 -0.033705 0.008375 0.012748 -0.001807 -0.245759 -0.178826 0.093685 -0.014511 0.061863 -0.185897 0.038604
  0.051564 0.021397 -0.076008 -0.030614 0.007134 -0.019652 0.130651 -0.005131 0.198098 0.012892 0.041059 -0.236255 -0.009167 -0.094872 0.021258 0.111644 -0.037994 0.025357 0.027778 -0.1577 -0.025069 0.024851 0.08018 -0.123587 0.087319 0.047265 -0.015702 -0.033306 -0.055573 -0.059383 -0.047829 0.079561 -0.064897 0.064969 -0.03335 -0.189063 0.155028 0.028136 -0.02057 0.108806 -0.034611 0.028496 0.035839 0.056491 -0.119139 -0.104107 0.048273 -0.080309 0.083756 0.003225 0.021201 0.312416 -0.120725 -0.110085 -0.09321 -0.050409 -0.130409 0.185006 0.08938 -0.009924 -0.045412 -0.03544 0.036402 0.115384 0.05232 0.119902 0.034549 0.00316 0.074663 0.031058 0.050302 -0.083261 0.024088 0.006876 0.011515 0.087775 -0.009604 0.100328 -0.016357 0.138094 0.000965 0.054385 -0.020033 -0.028284 -0.045804 0.086328 -0.065124 -0.041265 -0.02613 -0.145936 0.128345 0.04131 0.017428 -0.067182 0.024184 0.041079 -0.053423 0.016004 0.122962 0.050042 -0.058181 0.046537 0.07374 -0.030312 0.126643 -0.024753 0.056954 -0.037334 0.13037 0.030485 -0.001164 -0.025503 -0.154691 -0.148149 -0.062464 0.077832 0.068204 -0.0161 -0.089059 0.058206 -0.181767 0.023044 -0.003228 -0.041834 -0.006473 0.000881 -0.050447 0.019523 -0.021354 -0.039831 0.117327 -0.056558 0.000193 0.134681 -0.020844 -0.029874 -0.041511 -0.034813 -0.12716 0.031091 0.002712 -0.026374 -0.020573 0.042897 0.041371 0.038891 -0.110396 0.039256 -0.090743 0.039103 0.067953 0.021371 0.011661 -0.046866 -0.124842 0.102377 -0.038249 -0.106424 0.073225 -0.139718 -0.063396 -0.125567 -0.004388 0.047123 0.044729 -0.096395 -0.143158 -0.008773 -0.182361 -0.048303 0.00467 0.152819 0.050804 0.036995 -0.005008 -0.105588 -0.057509 0.00436 -0.034637 0.067887 -0.067447 0.072206 -0.026593 -0.091927 0.089133 -0.015211 -0.001446 0.089786 0.032888 0.042698 -0.028269 0.001871 0.079815 0.074126 0.127318 0.053774 0.053667 0.027632 -0.150262 0.009434
  0.070766 -0.126411 0.061048 -0.076903 -0.146271 0.097574 0.048373 -0.044463 -0.06504 -0.012671 -0.072038 -0.121451 -0.075903 0.086259 -0.053914 0.119782 -0.038304 0.148725 -0.014355 -0.013991 -0.084473 -0.068871 0.02165 0.00484 0.023743 -0.009922 -0.041872 -0.160668 0.044218 -0.119079 -0.019596 0.125664 0.041212 -0.002655 -0.05685 -0.046682 0.14299 0.061257 0.153874 0.040847 -0.00677 0.031603 -0.007064 -0.109061 -0.002601 0.034719 0.009243 -0.002794 -0.017071 -0.006463 0.050321 0.112058 0.040376 0.052215 -0.155211 -0.264924 0.078185 0.030368 -0.207385 -0.075465 0.003268 0.043482 0.098491 0.100739 -0.064903 -0.089525 0.131623 0.021175 0.024865 -0.112768 0.031963 0.01271 0.058271 -0.163517 -0.132925 0.029309 -0.071767 -0.08651 0.017616 -0.091104 -0.143968 0.018477 0.056831 -0.09731 -0.043505 0.084008 -0.019883 0.07025 -0.044536 0.116342 0.025882 -0.004099 -0.047096 -0.124911 -0.072837 0.085219 -0.082809 -0.165102 -0.055698 0.049042 0.027981 0.063424 -0.162916 0.06176 0.226232 0.045139 -0.073856 0.015151 -0.095942 -0.106201 0.051675 0.047689 0.109367 -0.060006 -0.101502 0.019444 -0.055819 -0.051731 0.018778 0.003636 -0.027709 -0.008797 -0.072028 0.06231 0.028786 0.053282 0.063155 -0.013237 -0.065277 0.068197 0.083282 -0.000726 -0.026041 0.125811 0.043005 0.042044 0.013644 -0.123307 0.052614 0.067951 0.019081 -0.019397 -0.140653 -0.066465 -0.025649 -0.011241 0.062245 -0.044914 0.038776 -0.049944 0.034886 0.034258 -0.064389 -0.092602 0.045134 0.111619 0.005236 0.076027 -0.037626 -0.093936 -0.054965 0.076821 -0.044342 -0.058968 0.132648 0.080582 0.177723 0.022388 -0.095513 -0.004182 -0.034393 0.058854 -0.02143 0.084754 0.003187 -0.077663 0.058892 -0.036007 0.088747 -0.219724 -0.003586 0.011742 -0.008454 -0.057683 -0.009506 -0.01062 -0.049925 -0.021241 0.12604 0.043359 0.021695 -0.052692 -0.029753 -0.054519 -0.061069 -0.041931 -0.039773 -0.106088 -0.071781 0.025745
  0.072677 0.005707 -0.008011 -0.005559 -0.063723 -0.001212 0.030187 -0.044479 -0.054452 -0.030007 0.04457 -0.052873 -0.159541 0.006368 -0.073711 0.029075 0.190734 0.045225 -0.058345 0.087751 -0.009687 0.02415 0.048024 0.052251 0.035189 0.002354 0.040686 0.06646 0.106877 0.129599 -0.002148 -0.118595 0.055997 0.027471 -0.091027 0.07472 0.09089 -0.055387 -0.015785 -0.016174 -0.079385 0.007859 0.042126 0.019506 0.022363 0.113184 -0.028434 0.093692 -0.047384 0.000628 -0.011747 0.286485 -0.027265 0.000238 -0.09641 -0.049707 0.026115 0.098661 -0.041651 0.051748 0.077574 0.012687 0.029107 -0.04492 0.033418 0.016073 0.03516 0.024 0.023003 -0.015736 0.178881 -0.01495 0.042539 0.00719 -0.023451 0.01561 -0.125382 -0.035802 -0.008212 -0.047856 -0.218299 0.043604 0.027631 0.032633 -0.045887 0.049521 -0.046019 -0.183678 -0.067997 -0.014867 -0.037883 -0.040875 -0.020633 -0.089499 0.032261 0.068379 -0.039666 -0.063003 -0.073426 -0.078034 0.059879 -0.066541 0.021945 -0.024912 -0.038786 0.036301 0.014548 -0.010263 -0.078041 -0.104604 -0.163715 -0.164977 0.043 0.007656 0.131085 -0.01202 -0.051224 -0.010547 0.160885 -0.034438 0.00607 0.074154 -0.027626 0.056812 0.062721 -0.116821 -0.014858 0.097142 -0.018561 0.001544 -0.111733 0.096858 0.048103 0.08727 0.035717 0.001984 -0.01029 0.067029 -0.166721 0.073298 -0.109852 0.107334 0.053748 -0.069031 -0.00453 -0.007408 0.068874 -0.038572 -0.022813 -0.102185 0.010837 0.043216 -0.039948 -0.031384 0.007323 0.104025 -0.00887 0.011571 0.049217 -0.217784 -0.016529 0.084388 0.005703 -0.013631 -0.126136 0.063528 -0.106858 0.050967 -0.069953 -0.099525 0.018949 -0.104777 0.015565 0.071154 0.023461 -0.109082 0.091326 0.01455 -0.018104 0.154164 0.046301 0.052325 0.032178 -0.073393 0.019834 -0.084215 0.116808 0.111897 0.044549 0.000227 -0.072755 0.052465 -0.06759 -0.235004 -0.05046 0.085724 0.023748 0.217496 0.061665 -0.047522
  -0.02572 -0.116492 0.219076 -0.007583 0.040838 0.020439 -0.28774 -0.467084 0.054869 0.033055 -0.081918 -0.087767 -0.140312 -0.047258 -0.338489 -0.056472 0.155675 0.194339 0.151894 -0.088307 0.022674 0.071864 -0.032771 -0.190715 0.026682 0.112007 -0.080575 -0.009957 -0.04413 -0.019596 0.127971 0.095539 -0.016588 -0.059998 0.155599 0.014344 -0.074172 0.262305 -0.056517 -0.051184 -0.058332 0.172347 0.123356 -0.054967 0.055764 -0.014167 -0.063984 -0.04458 0.020581 -0.186031 -0.001108 0.058577 -0.013878 -0.076939 -0.006478 -0.050198 0.140823 0.009242 -0.049146 0.122084 -0.047688 0.065758 0.122806 -0.002404 0.468671 0.119338 0.004397 -0.09043 -0.052233 -0.000572 0.283093 -0.048755 0.031791 -0.038671 -0.002799 0.161671 -0.105533 -0.20604 -0.034019 0.285974 -0.049711 0.094262 -0.420771 -0.114839 -0.060687 -0.030595 -0.352597 0.213261 -0.354472 -0.037165 0.156459 -0.3028 -0.057716 -0.313589 0.183357 -0.016748 0.210851 0.114514 -0.006931 -0.46726 -0.013552 -0.037662 0.028294 -0.075581 -0.635079 -0.199301 0.205521 -0.020331 -0.024114 0.020583 0.093158 -0.005216 -0.137655 0.480425 -0.567365 0.055779 -0.056607 0.418089 -0.067572 0.076517 0.144007 -0.45923 0.191321 0.028448 -0.193478 0.218245 -0.182256 0.038014 0.177534 -0.045095 -0.028707 -0.083276 -0.024357 -0.015721 -0.04558 -0.076356 -0.006185 7.2e-05 0.021945 0.080397 -0.436097 0.098344 0.098514 0.176593 -0.052582 -0.041611 0.126401 0.218662 -0.008848 -0.020368 -0.081868 -0.464826 -0.347103 -0.037073 -0.025539 -0.023582 0.132908 -0.667655 0.060005 0.070184 -0.055583 -0.222519 -0.016017 0.113905 -0.045619 0.207148 -0.060676 -0.05719 -0.129887 -0.025983 -0.002911 0.008107 -0.41438 -0.006601 -0.032157 -0.038685 0.320619 -0.325878 0.031324 -0.004609 -0.055232 0.24483 0.012815 0.1053 0.017813 -0.108004 -0.140154 0.305837 0.090262 -0.080059 -0.003878 -0.068069 -0.388711 -0.047629 0.125711 0.292721 0.333601 0.590609 -0.01194 0.026642
  -0.103028 0.033198 0.169964 -0.093346 0.010183 0.064468 -0.362632 0.095722 -0.070564 0.077173 -0.071751 0.00227 0.080789 0.058863 -0.023671 -0.023971 0.514529 -0.317155 0.013555 0.059399 0.042568 0.172139 -0.032453 0.278042 -0.061489 0.115089 0.00895 0.023415 0.029838 -0.080919 -0.44241 -0.054219 -0.208193 -0.011915 -0.01483 0.023952 -0.026917 -0.100461 0.003758 -0.008164 -0.053686 0.225566 -0.034166 -0.056846 0.208857 -0.036586 -0.080145 -0.029717 -0.00276 0.216808 0.030929 -0.002442 -0.02939 -0.064654 -0.067539 -0.029942 0.040091 -0.062906 0.038092 0.111549 0.039311 -0.034485 0.02516 0.115402 0.191797 0.101048 -0.004759 -0.018798 0.014594 -0.043135 0.131277 0.104801 0.183418 -0.034691 -0.001789 0.063074 0.194691 -0.414661 0.01711 -0.040342 0.081862 0.177753 0.142422 -0.069088 -0.046482 0.011418 0.186565 0.152192 -0.386104 -0.007732 0.090845 -0.342745 -0.010286 0.400594 -0.032142 -0.064955 -0.406569 0.076392 0.026438 0.269177 0.046197 -0.035071 0.057876 0.119982 -0.392949 0.16941 -0.406888 -0.040562 -0.056773 -0.020739 -0.002858 0.01648 0.225177 0.434804 0.166613 0.093141 -0.081864 -0.161181 0.170009 -0.284181 -0.02592 0.250639 -0.42618 -0.018527 0.224655 -0.165815 0.207498 -0.067743 0.194957 0.060672 -0.009203 -0.061989 -0.008285 -0.022746 -0.023492 -0.003811 -0.098425 0.068728 0.015367 0.029013 -0.382119 0.046788 0.053625 -0.191173 0.018806 0.010331 -0.115711 0.339615 0.034105 -0.075292 0.01018 0.157799 -0.347269 0.043357 -0.058124 -0.019258 0.062093 -0.507152 0.034178 0.291283 -0.116787 0.417015 -0.028514 -0.121432 -0.053863 0.18256 -0.052427 -0.059846 -0.065782 0.004359 -0.329618 -0.115898 0.189812 0.003389 0.051276 -0.008405 0.050139 -0.374748 -0.052319 -0.060587 -0.008786 0.170712 0.029788 -0.253208 -0.086708 -0.143824 -0.062367 0.228819 0.031494 0.040621 0.001567 -0.014853 -0.033768 0.039045 -0.219264 -0.490943 0.201446 0.305904 0.031367 -0.10009
  -0.010264 -0.065379 0.036142 -0.378305 -0.027433 -0.07351 -0.297289 0.072505 -0.059879 0.091077 -0.086305 -0.01034 0.015055 0.003965 -0.539457 -0.044114 0.439545 0.208348 0.27369 -0.048543 0.020119 0.078468 -0.07715 0.154908 -0.074977 0.215347 -0.076019 -0.008803 -0.047349 -0.139966 0.194801 0.02557 0.236123 -0.026123 0.105049 -0.03126 -0.019987 0.1773 -0.042071 -0.035116 -0.045685 -0.317606 0.097708 -0.015872 -0.11851 -0.007668 0.049807 -0.066394 -0.011162 0.310544 0.047466 -0.069834 -0.078127 0.01063 -0.049178 0.036587 0.098233 -0.000695 -0.044122 0.183103 -0.007088 -0.041634 -0.036291 0.033836 0.263996 0.300512 0.011893 -0.003402 0.060838 0.128489 0.022145 -0.091569 -0.383427 -0.076244 -0.02364 -0.00464 -0.149581 -0.407087 -0.034308 0.04242 -0.047846 0.136767 -0.325044 -0.08354 0.002273 0.114059 0.177212 0.057804 -0.065478 -0.06162 -0.43167 0.085178 0.009344 0.152066 -0.104748 -0.013746 -0.196215 0.032586 -0.05732 0.074076 0.095643 -0.015215 0.007698 -0.017063 0.059215 0.106327 0.172752 -0.003748 -0.049476 0.006162 -0.029525 -0.020239 -0.448542 -0.230079 0.099743 -0.167621 0.051564 -0.089792 -0.38672 0.240229 -0.020218 -0.576262 -0.260773 0.002668 0.196104 0.256211 0.218511 -0.03243 -0.095434 0.001466 0.0402 0.04114 0.021488 -0.019075 -0.091178 -0.010922 0.19613 0.032515 -0.078292 -0.044557 0.337067 0.175943 -0.120698 0.188748 -0.07589 -0.000991 0.246738 0.158536 -0.008592 0.00778 -0.042267 0.044365 -0.241094 0.023659 0.002022 -0.064519 -0.442285 0.050095 -0.000182 0.054843 -0.002597 0.447672 0.027451 -0.111546 0.067535 0.147145 -0.058237 -0.05063 -0.055843 -0.037381 0.126267 0.042096 -0.414918 0.031222 -0.053531 0.074389 0.362187 -0.057439 0.015654 -0.04211 -0.012777 0.06671 -0.011337 -0.231091 -0.023677 0.090044 -0.095309 -0.101061 -0.031504 -0.0469 -0.062946 -0.022239 -0.281454 -0.042124 -0.016505 0.050408 0.069289 -0.158967 -0.005348 -0.01258
  0.030167 0.172121 -0.223654 -0.008422 -0.058343 0.09687 0.053158 -0.166544 -0.086291 -0.154332 0.012757 0.032283 -0.0741 -0.055098 0.159386 0.01563 -0.000197 -0.213555 0.087516 -0.008632 -0.030296 -0.100007 -0.028818 0.20431 -0.024891 0.033041 0.033241 -0.02181 -0.095991 0.057445 0.089447 0.09467 0.012347 0.020348 0.14262 -0.05419 -0.01075 0.090892 0.05509 -0.060623 -0.021078 -0.220011 0.081426 -0.046549 -0.240592 -0.011744 0.086986 -0.017657 -0.095413 -0.022722 0.039811 0.094608 -0.097862 0.040861 -0.022372 0.026643 -0.200334 0.05542 -0.002923 -0.111183 -0.049059 -0.010278 -0.272264 0.039969 0.181456 0.104651 -0.079338 -0.012366 0.016268 0.076194 0.155988 0.084598 -0.36933 -0.019183 -0.017743 -0.041151 0.094035 0.269605 -0.018298 0.148666 -0.089744 -0.093837 0.116486 0.028488 -0.089877 -0.025494 0.045054 -0.232748 0.027413 -0.027339 -0.020479 0.122441 -0.00117 0.222481 0.093122 -0.0565 -0.195026 -0.025625 0.040155 0.050007 -0.040689 -0.028807 0.080116 -0.040366 -0.391972 0.107691 -0.063379 -0.058871 -0.056459 0.038365 0.047955 -0.096268 -0.279105 -0.146474 -0.553229 -0.074453 0.005028 0.214125 -0.134181 0.062332 -0.065368 0.03254 0.06036 0.058259 0.332899 -0.059956 0.003496 0.079143 0.010001 -0.048205 0.033845 -0.045578 0.02666 -0.032958 0.000787 -0.080572 0.049163 -0.122621 0.067728 -0.074774 0.351929 0.047059 0.00957 0.142759 -0.046106 -0.004834 0.198869 0.035452 -0.004822 -0.053593 0.024776 -0.019101 0.186409 0.042514 -0.013706 -0.01954 -0.034575 -0.040058 -0.013696 0.329961 -0.06762 0.473538 0.032717 0.073277 0.15242 -0.118602 -0.032716 0.014622 -0.088584 -0.015491 0.092338 0.023607 0.148023 0.010251 0.02974 -0.116339 0.065479 -0.210869 -0.028646 0.022498 0.03134 -0.192041 -0.020557 0.004526 -0.090079 0.019815 0.013717 0.122821 -0.045158 0.015693 -0.085977 -0.044173 0.051033 -0.002942 0.257828 -0.185653 0.284433 -0.094408 -0.060454 0.030592
  -0.047654 0.132058 -0.094877 -0.060968 -0.00705 -0.014839 0.253853 0.153092 -0.010788 -0.00805 -0.009563 0.063838 -0.080353 -0.036699 0.197391 0.003335 0.018313 -0.332487 0.181146 0.048526 -0.010591 0.119088 0.033515 0.226527 -0.067847 -0.061997 0.068169 -0.094273 -0.077868 0.024441 -0.423069 -0.023288 0.044878 -0.007532 -0.179689 -0.028961 0.016907 -0.057401 0.07419 -0.090793 0.008853 -0.03056 0.078589 -0.018117 0.208799 -0.1681 0.161023 -0.012599 -0.082129 -0.116465 0.046357 0.194429 -0.040999 0.059377 -0.026222 -0.02469 -0.35109 0.131315 -0.013083 -0.297666 -0.031075 0.062097 0.099954 0.014925 0.275241 -0.027428 -0.038836 0.019345 0.042968 0.162172 -0.235517 0.091687 -0.300878 -0.077626 -0.121265 -0.254297 0.160895 0.321706 -0.002049 -0.264565 -0.06614 -0.039543 0.16957 0.170296 -0.028543 -0.076212 -0.014378 0.116399 0.135303 0.011463 0.091721 -0.196257 -0.041971 -0.089879 -0.09433 0.040448 -0.405585 0.030888 -0.006133 0.026215 -0.072644 -0.010388 0.085279 0.09524 0.006241 0.127734 0.042705 -0.078347 0.020294 0.000364 -0.060994 -0.025863 0.385813 -0.277563 0.092781 -0.115977 -0.050739 0.349538 -0.083499 0.058488 -0.070958 0.212906 0.244995 -0.059787 0.024207 0.306902 -0.069474 0.107227 0.325088 -0.045798 -0.001378 -0.020925 -0.048047 -0.116664 -0.034318 0.029358 0.087963 -0.062344 -0.04065 -0.232041 -0.241171 0.078984 -0.055694 0.226859 -0.046555 0.028755 0.212547 0.157635 -0.055456 -0.041447 0.025868 -0.380747 -0.183952 -0.008578 0.008392 -0.011593 0.058618 0.005004 -0.097075 0.072339 0.00267 0.4331 0.145882 -0.199146 0.140055 -0.270901 0.015294 -0.014698 -0.112854 -0.065436 -0.107216 -0.030265 0.013843 0.033243 0.009609 -0.04865 0.198038 0.141421 -0.014358 0.079071 0.052816 0.097487 -0.049744 0.060316 -0.013328 0.088966 -0.08198 -0.172727 0.02639 -0.031668 -0.082767 -0.017035 0.158069 0.093519 -0.425177 0.226081 -0.255957 0.27973 -0.041642 -0.025859
  -0.106923 0.025701 -0.325523 0.129722 0.058327 -0.04535 0.280044 0.260418 -0.12392 0.018101 0.019618 -0.074534 -0.092187 0.077772 0.150152 -0.020681 0.157985 0.194678 0.217943 -0.015589 0.007085 0.116472 -0.057431 -0.257931 -0.094784 0.084211 0.03319 0.037322 -0.05462 0.018307 -0.401617 0.017104 -0.293207 -0.014445 0.118905 0.020659 -0.042316 0.201476 0.029369 -0.018073 -0.053808 0.056562 -0.115661 -0.019032 0.158233 0.044316 -0.002188 0.018972 -0.010895 -0.009471 0.059732 0.04006 -0.127251 -0.072917 -0.021226 0.028006 0.047257 -0.074997 -0.008043 -0.059955 0.003371 0.005654 -0.205169 0.03055 -0.006432 -0.006026 -0.072139 0.019584 -0.070781 0.020038 0.032862 -0.15721 -0.388131 -0.081519 -0.006976 0.163259 0.114544 0.26448 -0.072526 0.16568 0.009705 -0.379396 -0.240784 0.101663 -0.018543 -0.000402 -0.313132 0.028927 -0.224106 -0.002366 0.154184 0.171099 -0.012274 -0.300724 0.095995 -0.022649 -0.114185 -0.010751 -0.004862 0.138942 0.03079 0.002109 0.01183 -0.245738 0.121482 -0.294964 0.194217 0.014155 -0.051764 0.006377 -0.003478 -0.060758 -0.31975 -0.408799 -0.485116 -0.087343 0.072576 0.320244 0.02738 0.109782 -0.056205 -0.393203 0.294244 0.041441 0.381183 0.259302 -0.018662 0.038729 -0.02688 -0.074907 -0.02927 -0.063099 0.013156 -0.110625 -0.055229 -0.081999 -0.191811 0.021275 -0.003575 0.178463 0.477366 -0.015127 -0.05595 -0.081624 0.034995 -0.038847 -0.181219 0.253099 0.000771 0.000637 0.046898 0.119757 0.25976 -0.008227 -0.028971 -0.043589 -0.201163 0.110591 -0.036599 0.053648 -0.044707 -0.004733 0.143717 0.053888 -0.00621 -0.049522 -0.051867 -0.09337 -0.033189 0.053387 -0.14181 -0.071107 -0.01756 0.009822 -0.054424 0.015927 0.168178 0.046598 0.017452 -0.108553 -0.012513 0.190874 0.046161 0.179691 0.023496 0.116485 -0.028829 0.194426 0.034321 -0.050716 0.005847 -0.059042 -0.01253 -0.085007 0.216709 0.152155 -0.124404 -0.208092 -0.008002 0.010004
  0.079145 -0.012465 0.038606 -0.007236 -0.042676 0.017641 -0.113243 -0.014459 0.249189 0.01775 -0.051323 -0.024307 0.119202 -0.017244 0.016559 -0.001899 -0.002573 -0.012334 -0.039227 0.036551 0.051913 -0.02108 0.06981 0.033036 0.035401 0.004654 0.026276 -0.117125 0.065708 0.034223 0.086702 -0.142483 -0.003173 -0.010275 0.040631 -0.051713 -0.199061 0.039743 0.03939 0.054874 0.000426 -0.075187 0.029523 -0.042226 0.019203 -0.020595 -0.096673 0.03288 0.034104 0.001333 0.024337 0.034323 0.029449 0.043596 -0.026587 -0.012164 0.019863 0.07546 -0.079975 0.024195 0.050801 -0.079804 -0.131317 -0.09581 -0.036673 -0.04752 0.077853 -0.042877 0.078307 0.128233 -0.067372 -0.007483 0.001366 -0.036356 -0.020451 0.01829 0.026586 0.044882 0.103618 -0.135181 -0.071059 -0.006546 -0.035984 -0.031663 -0.017994 0.099595 -0.012021 0.08265 0.015376 -0.096882 -0.098874 0.010671 0.048699 -0.107175 -0.022428 -0.038889 -0.061594 0.144325 -0.106767 0.052372 -0.010738 -0.071459 0.044153 0.041303 -0.070537 0.004201 -0.045241 -0.032678 0.014284 0.04636 0.140612 -0.074891 -0.019803 -0.038183 -0.022454 -0.010917 0.049501 0.035873 0.056316 0.109896 -0.045424 -0.043063 0.073544 0.067999 -0.051932 -0.068805 -0.081247 -0.002098 -0.004832 0.085634 0.08757 0.015484 0.05943 -0.054861 -0.047932 -0.035958 0.045075 0.039869 0.017372 -0.015774 -0.072105 0.045711 -0.007531 0.014455 -0.030731 -0.041515 0.007668 0.087004 -0.02186 0.007722 0.047116 0.036432 0.012421 -0.021085 -0.024342 0.107326 -0.033267 -0.011431 -0.030787 -0.124369 -0.059895 0.055262 -0.094225 0.074393 -0.017643 -0.037418 0.036888 0.125753 -0.110049 0.031993 -0.08588 0.023036 -0.059191 -0.043238 0.057615 -0.168593 -0.006151 0.04849 0.135341 0.002726 -0.008754 0.072958 0.030451 0.023948 -0.077713 0.057928 0.008109 -0.02026 -0.05227 -0.049421 -0.04227 -0.002923 -0.047012 -0.037976 -0.026254 -0.01802 0.06953 -0.066339 0.094185 -0.069938
  0.039868 0.060541 -0.013375 0.03022 -0.047317 0.049169 -0.06695 0.076033 -0.097999 0.033985 0.052086 0.011634 -0.014388 0.133536 -0.005078 0.019356 0.115662 0.024827 0.145624 -0.120888 0.020769 -0.03179 0.034413 -0.048112 -0.080532 -0.027384 -0.021529 -0.115671 0.044565 -0.003835 0.073153 -0.092417 -0.040388 0.006342 0.051577 0.032656 -0.057365 0.020189 -0.175622 0.122753 -0.034413 -0.002382 0.023801 0.058152 -0.008632 0.045586 0.003821 0.096938 0.003494 -0.054299 0.013712 0.060685 -0.02513 0.073994 3.6e-05 -0.036728 0.047445 0.13407 0.025778 -0.084908 0.049717 0.004403 0.010824 0.04526 -0.081838 0.053048 0.024637 0.057163 -0.033853 -0.018802 0.00751 0.041095 -0.062401 0.063543 0.005492 0.023005 -0.044256 -0.102001 0.029129 0.041296 0.047659 -0.021735 -0.046293 -0.142273 -0.068569 -0.173863 0.029581 0.04803 0.065495 0.039365 0.011464 0.011814 0.093703 0.106032 0.038668 0.077016 -0.031712 0.119355 0.04162 -0.009757 -0.054638 -0.060309 0.062426 0.028876 -0.004656 0.053425 -0.002411 -0.036997 -0.212302 -0.029482 0.010573 -0.036605 0.018663 0.022368 -0.145726 -0.060424 0.042951 0.013113 -0.067368 0.008909 0.020778 -0.04322 -0.005643 0.020491 -0.013147 0.147655 -0.001574 -0.013771 -0.040779 -0.102378 0.079416 0.043309 -0.037123 -0.05854 0.020449 0.039464 -0.05106 -0.027858 0.043604 0.105482 0.066872 -0.053439 -0.049787 -0.038105 -0.018166 -0.008625 -0.069477 0.011574 -0.019885 -0.070067 0.06886 -0.078594 -0.000655 0.016234 0.020601 -0.031434 0.03311 -0.123802 -0.023103 -0.039521 0.023012 -0.060932 -0.152636 0.070279 -0.032708 0.023465 -0.032658 -0.026767 -0.001217 -0.091231 0.019935 0.070629 -0.025332 0.024757 0.031053 0.007543 0.097332 -0.013957 -0.102839 -0.060282 -0.020734 0.066564 0.002937 -0.071221 -0.02835 -0.01184 0.061872 -0.008776 -0.012725 -0.020012 -0.061338 0.013144 0.024025 -0.062762 -0.074522 -0.017649 -0.026247 -0.140475 0.006038 -0.053887
  -0.032691 0.015154 -0.086901 0.017182 0.014399 0.053462 -0.164586 0.124851 0.052408 -0.012267 0.039795 -0.060969 -0.000362 -0.034257 -0.044695 0.025733 -0.076079 0.021579 -0.098555 -0.049304 0.006223 -0.050763 0.043835 -0.049148 0.027371 0.006095 0.078239 -0.025342 -0.066963 -0.076846 0.060477 -0.106029 0.015175 0.029473 0.023691 0.010619 0.055384 -0.046022 -0.099543 -0.081777 0.020445 -0.058173 0.001239 0.110076 0.023905 -0.084376 0.035776 0.03767 0.043552 -0.093685 0.040202 -0.05419 0.007468 -0.130712 0.028692 0.089506 -0.005217 -0.0532 0.101679 -0.049186 0.012116 0.074826 0.070131 0.140924 -0.1448 0.014188 0.075329 0.022362 -0.157663 -0.030688 -0.017024 0.070884 -0.021603 0.020219 0.025813 -0.008984 -0.008655 -0.036095 -0.061141 -0.167744 0.041226 0.004768 0.012932 -0.139911 0.008182 0.068278 0.01158 -0.0714 0.048441 -0.303094 0.040363 -0.017446 -0.0869 0.093015 0.016053 -0.006636 0.021732 0.014465 -0.045027 0.010547 -0.175168 0.03294 0.037003 0.05808 -0.105907 0.052883 -0.006136 0.02363 -0.022741 0.012858 0.056469 -0.044058 0.065495 0.030159 0.010036 -0.017636 -0.007185 -0.046377 0.019794 -0.068816 -0.046307 0.007657 -0.014433 -0.107959 0.025796 -0.000531 0.016604 -0.001119 -0.046646 -0.051188 0.026272 -0.053911 -0.082721 0.027175 -0.014422 0.044788 0.001366 -0.042105 0.018391 -0.016018 0.014087 0.01092 -0.019995 0.022324 0.043283 0.028401 -0.0497 -0.10964 0.075603 -0.00359 0.045231 0.008308 -0.045318 -0.056398 0.091861 -0.057627 -0.037342 0.027486 0.033998 0.071831 -0.03759 -0.07279 0.009538 -0.008422 -0.098584 0.057854 0.061966 -0.004972 -0.229369 -0.124185 0.021928 0.004102 -0.098611 -0.048563 -0.001559 -0.089774 0.037729 -0.001308 -0.104555 0.011641 0.003083 0.049377 0.004683 0.028207 0.029121 0.001831 -0.007384 -0.025546 -0.080161 -0.020965 0.03793 0.036788 0.042933 0.02349 -0.153993 -0.035273 -0.051379 -0.037551 0.075292 -0.098703
  -0.014142 0.00648 -0.001521 -0.017282 0.051295 0.048903 -0.06307 0.038741 -0.090211 -0.020669 0.047737 0.044106 0.043331 0.022082 -0.097795 0.005846 0.05623 0.03109 -0.147694 0.103477 0.003085 0.006562 -0.003935 -0.005227 -0.028022 0.041663 -0.001189 -0.011894 -0.052017 0.034368 0.072665 -0.244576 -0.040223 0.055947 0.05999 -0.025668 0.026575 0.001876 -0.102159 0.02407 -0.051772 -0.11251 -0.019263 0.020496 -0.006479 -0.061858 0.011889 -0.041211 -0.081354 0.007773 -0.049423 -0.070985 -0.048907 0.053621 -0.021067 0.075511 0.006651 0.091736 0.153218 0.019956 -0.002461 0.113245 -0.057877 0.112428 -0.005905 0.085843 0.020931 0.044277 -0.091421 0.025208 -0.041128 0.029375 0.006947 -0.093736 0.043038 0.023123 -0.009801 -0.016179 0.018867 0.060743 -0.083455 0.037731 0.005572 0.071753 0.065016 -0.059298 -0.031322 0.040357 -0.001649 0.221102 -0.026406 0.012116 0.083491 -0.049818 -0.0603 0.086717 0.049497 0.057381 -0.105442 0.017118 -0.00326 0.03403 0.01034 -0.007285 0.094204 0.028506 0.003786 0.026708 -0.021299 -0.109577 0.057896 -0.03552 0.05172 0.140516 0.024519 -0.048127 0.035703 -0.053002 -0.024915 0.002772 -0.000745 -0.066473 -0.038126 -0.009223 0.030862 0.032828 -0.105855 0.065036 -0.129356 -0.069268 -0.017339 0.078672 0.028125 -0.075307 0.017508 -0.04391 0.00972 -0.002656 -0.014275 0.019268 0.031879 -0.013269 -0.334114 -0.006401 0.013577 0.007699 0.057627 0.001171 -0.001502 -0.095746 0.035551 0.023165 0.105166 -0.024827 0.02746 -0.058126 -0.072003 0.041323 0.135829 0.048721 0.049498 -0.003863 -0.173012 0.058309 -0.028459 0.03163 0.13152 -0.082463 -0.011496 0.040365 -0.007372 0.148314 -0.054848 -0.056302 0.00963 0.038311 -0.083898 -0.005999 -0.140162 0.103454 -0.020533 -0.055583 -0.042513 0.048978 0.013034 0.050807 -0.202467 0.037432 -0.090233 0.012604 -0.06281 0.020446 0.082681 0.047545 -0.006461 -0.094576 0.023591 -0.132714 -0.081507 -0.120516
  -0.014795 0.044446 0.023525 0.060387 0.090864 0.026504 -0.034958 -0.043219 -0.09836 -0.041524 0.035145 0.108326 -0.158488 0.065976 0.029602 0.046666 -0.05279 -0.006846 -0.009671 -0.201959 -0.087916 -0.059993 0.017272 0.013043 0.100709 -0.050811 0.045389 0.114679 -0.010878 0.067029 0.112284 0.050725 0.034552 0.000109 0.024007 -0.071659 0.102795 0.009935 0.052055 0.114074 -0.059733 -0.059796 0.033536 -0.054652 0.002938 0.059008 0.075104 0.019995 0.021685 0.025583 -0.063933 0.118282 0.034634 0.016919 0.05619 -0.157779 -0.016719 -0.131627 0.125437 0.052268 0.094424 -0.103864 0.011365 -0.086059 0.072227 -0.106265 0.027026 -0.036419 0.092785 -0.020032 0.028025 0.00429 0.043513 -0.15004 0.009309 0.036261 0.029587 0.031421 0.030112 -0.0854 -0.025392 -0.068633 -0.019549 0.041371 0.021414 0.134891 -0.062832 0.003848 0.024453 -0.138037 -0.087395 -0.008883 -0.008473 -0.11476 -0.050688 0.027872 0.038239 0.110124 0.008537 0.074773 -0.042637 -0.035476 -0.006123 -0.053666 -0.208729 0.019757 0.001461 -0.033548 0.062322 -0.008037 0.091988 -0.029615 0.006426 0.052208 0.093273 0.002933 0.001013 0.04911 -0.036043 0.038918 -0.041211 -0.025773 0.040353 0.064674 0.127666 -0.162726 -0.065108 -0.02585 -0.001043 -0.105877 0.017454 -0.116031 0.093399 0.04661 0.031765 0.025633 -0.023672 0.087183 0.014767 -0.04111 -0.072465 0.067954 0.040769 0.063359 0.055107 -0.041388 0.054254 0.081723 0.015579 0.041951 0.015286 0.037924 0.046718 0.0597 -0.024575 -0.028555 -0.040523 0.047964 -0.315152 -0.010965 -0.068615 -0.223881 -0.052563 0.007819 0.118028 -0.021259 0.054244 -0.006339 0.094264 -0.005675 -0.012133 0.011392 -0.016244 -0.002449 0.062938 -0.032023 0.058866 0.071385 0.028451 -0.006555 -0.029302 0.07029 -0.012449 0.052835 -0.033035 -0.056815 -0.156039 -0.087326 -0.01544 -0.026638 0.001495 -0.098488 0.0073 0.046165 0.047393 0.005024 0.093946 0.022055 0.137416 -0.023311
  0.080175 -0.04555 0.022437 0.060652 -0.054267 0.098256 -0.038477 0.091667 0.226558 0.012396 -0.194146 0.113771 0.146797 0.043481 0.084346 0.008242 -0.139265 -0.102225 0.073487 -0.064602 -0.028571 -0.017516 0.020349 0.030943 -0.013537 -0.093082 0.017766 -0.065627 -0.16835 -0.060253 -0.046309 -0.007012 -0.015423 -0.020847 0.100651 -0.004782 0.089838 -0.001232 -0.087743 0.035394 -0.026848 -0.104374 0.016073 -0.123458 -0.022156 0.047408 -0.094054 -0.108824 0.105391 -0.037298 0.019615 -0.130869 0.048426 -0.037251 0.081267 0.187398 0.042342 0.124586 0.020738 -0.030061 0.107131 -0.138029 0.048771 0.047481 0.015337 -0.024491 0.048318 -0.041202 -0.0567 -0.080247 -0.066436 -0.003977 0.030883 -0.117632 0.025005 0.015213 0.070452 -8.3e-05 -0.027623 0.045578 -0.124598 -0.054241 0.083089 -0.028232 0.02217 0.003373 0.035787 0.067794 0.058324 -0.0637 0.03299 -0.031351 0.072215 -0.031042 0.085756 -0.087334 0.03658 -0.050218 -0.007041 0.014547 -0.048807 0.031773 -0.085861 -0.028667 -0.325004 0.022855 0.083957 -0.058111 0.042554 0.094161 0.061709 -0.017962 -0.031162 0.13649 -0.101722 -0.043452 0.017696 0.017033 -0.013906 -0.126169 0.117465 -0.005 0.027838 0.08877 -0.014779 -0.156861 0.046302 0.003502 -0.2215 0.074799 0.084661 -0.033015 0.001015 -0.114006 0.023073 0.006733 -0.015921 0.089497 0.036963 0.044504 -0.168856 0.125349 0.001913 -0.089345 0.00994 0.03929 -0.012111 -0.015114 0.062454 0.040386 0.020863 0.015666 -0.023909 -0.034933 -0.114906 0.016176 -0.080183 0.0675 0.028222 0.02938 -0.023491 -0.091102 -0.078002 0.137535 0.041575 -0.009579 -0.005633 0.083917 0.074102 0.022475 0.029331 -0.032194 -0.086445 -0.074182 0.085371 -0.0195 0.038351 -0.013838 0.104912 -0.083576 -0.010835 0.157382 -0.001342 0.034636 0.067945 -0.020822 0.035144 0.009107 0.091159 -0.06503 -0.015597 -0.003132 0.088277 -0.067911 -0.269881 0.029118 0.039374 0.055961 0.032055 -0.127317
  -0.371164 0.032226 -0.127273 0.01856 0.100877 0.088116 -0.057348 -0.032287 -0.273099 0.019565 0.144329 -0.012973 -0.254788 -0.128413 0.02247 0.115725 -0.045883 -0.090201 -0.02889 -0.006166 -0.102159 0.005685 0.066585 -0.016542 0.156754 -0.031933 0.121083 0.198205 -0.080382 0.170899 -0.071024 0.040542 0.047535 0.058989 0.008979 -0.0105 0.023777 0.029321 0.101327 0.063138 -0.007792 -0.002879 -0.018106 0.085958 -0.03774 -0.160186 -0.084806 0.154812 -0.105665 0.006238 -0.096293 0.005805 -0.004718 0.028688 0.139782 -0.120822 -0.035508 -0.021269 -0.131192 -0.006051 -0.218561 0.107527 -0.026653 -0.095824 -0.085372 -0.122511 -0.258261 0.005704 -0.138562 -0.278579 -0.111809 -0.043422 -0.014503 0.138183 0.131374 0.016341 0.058238 -0.005965 0.143018 -0.223064 0.065977 -0.056818 -0.066426 0.100494 0.018036 0.155977 0.012914 -0.0313 0.028549 0.148117 -0.062102 -0.061006 0.070499 -0.098758 0.032236 0.043849 -0.036217 -0.046812 -0.093633 0.025968 -0.113549 0.138561 -0.115977 -0.029036 -0.020537 0.003623 -0.011462 -0.008859 -0.123241 -0.02597 -0.033114 0.113925 -0.194951 -0.234065 0.077483 -0.025499 0.047255 -0.03858 -0.055243 0.022791 -0.148346 -0.026387 -0.051169 -0.275752 0.056693 -0.113434 -0.070474 0.073411 -0.004706 -0.254317 0.007725 0.023756 -0.089217 0.153706 -0.015471 0.007932 -0.041743 0.030211 0.08806 -0.063451 -0.041526 -0.051159 0.17186 0.023789 0.03078 -0.049539 -0.028932 0.041639 0.101329 0.12266 0.026654 0.025866 -0.043046 -0.07056 0.07157 0.061739 0.0097 -0.008651 -0.016877 0.085077 0.101521 0.101375 0.054931 -0.005175 -0.090211 -0.035127 -0.09099 0.0198 0.011949 -0.018299 -0.045771 -0.040101 -0.024089 0.108797 0.031739 0.053511 -0.004998 0.011138 -0.169373 0.057181 0.122243 0.02656 0.000448 -0.009817 0.118788 -0.029516 0.205518 -0.133428 -0.104353 -0.062069 -0.192442 0.061338 -0.00452 -0.011815 0.071179 -0.131173 -0.02389 -0.116775 -0.280584 0.186672
  0.085659 -0.018979 -0.065303 -0.03852 -0.07527 -0.001395 0.05345 -0.095919 -0.110931 -0.01067 0.019014 -0.200815 0.212319 0.021107 -0.022468 -0.039068 -0.068159 -0.012803 -0.028861 -0.208166 0.037371 0.07299 0.00334 -0.0468 0.090187 -0.062651 -0.011279 -0.153395 -0.017733 0.023413 0.004647 -0.012616 0.051959 0.04425 0.047124 0.127325 -0.245123 0.004526 0.013081 -0.022746 0.051731 -0.042348 -0.047267 -0.009102 -0.015694 -0.07019 -0.091439 0.002887 0.002048 -0.004002 0.015418 -0.215546 0.006893 0.177116 -0.064388 -0.08493 0.017059 -0.105051 -0.101967 0.040024 -0.117925 0.127542 -0.004296 0.010779 -0.056446 -0.074822 0.095896 0.066396 0.121712 0.081199 -0.088801 0.033146 -0.018691 0.09766 -0.14955 0.003809 -0.002902 0.002881 0.033125 -0.038579 0.186239 -0.041437 -0.184776 -0.013001 0.056004 0.079703 -0.00475 0.022816 -0.01306 0.060807 -0.009716 -0.019512 0.02512 -0.17258 -0.040561 0.03473 -0.034255 -0.357692 -0.089639 -0.052841 -0.042372 0.088853 -0.001878 -0.015819 -0.101396 -0.024493 0.011911 0.02383 0.068452 0.029274 -0.201927 0.14508 -0.089171 -0.136924 -0.072345 0.033778 0.03367 -0.127547 -0.056463 0.049199 -0.206581 -0.027773 0.006319 -0.041875 0.104036 -0.048522 -0.11099 -0.106451 0.040265 0.192408 0.157373 -0.016785 -0.053398 0.012585 0.109037 0.029637 0.004675 -0.023833 -0.009381 -0.073808 -0.068095 -0.061049 -0.307132 0.049288 0.044348 0.077093 0.030638 0.105044 0.104667 -0.054607 -0.123642 -0.089269 0.079357 -0.029985 0.038576 -0.05386 -0.027957 0.031521 0.230408 -0.086727 -0.02632 -0.023817 -0.119607 0.020761 -0.116819 -0.069131 0.062967 -0.052831 0.024052 0.090895 -0.011763 0.011774 -0.011837 0.064733 -0.057879 -0.041378 0.11914 0.023843 0.056739 0.114687 0.018218 -0.09695 0.035056 -0.010878 0.053819 -0.008235 0.04165 -0.015302 0.134283 0.110956 0.079896 -0.026555 -0.053721 0.030716 0.07959 -0.061008 -0.053857 -0.040627 -0.094769 0.09195
