PWM_range 0 100
pepL_range 12 21
P1_range -6 6
log_min 1e-04

nn_in_var 270 P1_-1 P1_-2 P1_-3 P1_-4 P1_-5 P1_-6 P1_0 P1_1 P1_2 P1_3 P1_4 P1_5 P1_6 PWM_log AA_-_1 AA_-_10 AA_-_11 AA_-_12 AA_-_2 AA_-_3 AA_A_1 AA_A_10 AA_A_11 AA_A_12 AA_A_2 AA_A_3 AA_A_4 AA_A_5 AA_A_6 AA_A_7 AA_A_8 AA_A_9 AA_C_1 AA_C_10 AA_C_11 AA_C_12 AA_C_2 AA_C_3 AA_C_4 AA_C_5 AA_C_6 AA_C_7 AA_C_8 AA_C_9 AA_D_1 AA_D_10 AA_D_11 AA_D_12 AA_D_2 AA_D_3 AA_D_4 AA_D_5 AA_D_6 AA_D_7 AA_D_8 AA_D_9 AA_E_1 AA_E_10 AA_E_11 AA_E_12 AA_E_2 AA_E_3 AA_E_4 AA_E_5 AA_E_6 AA_E_7 AA_E_8 AA_E_9 AA_F_1 AA_F_10 AA_F_11 AA_F_12 AA_F_2 AA_F_3 AA_F_4 AA_F_5 AA_F_6 AA_F_7 AA_F_8 AA_F_9 AA_G_1 AA_G_10 AA_G_11 AA_G_12 AA_G_2 AA_G_3 AA_G_4 AA_G_5 AA_G_6 AA_G_7 AA_G_8 AA_G_9 AA_H_1 AA_H_10 AA_H_11 AA_H_12 AA_H_2 AA_H_3 AA_H_4 AA_H_5 AA_H_6 AA_H_7 AA_H_8 AA_H_9 AA_I_1 AA_I_10 AA_I_11 AA_I_12 AA_I_2 AA_I_3 AA_I_4 AA_I_5 AA_I_6 AA_I_7 AA_I_8 AA_I_9 AA_K_1 AA_K_10 AA_K_11 AA_K_12 AA_K_2 AA_K_3 AA_K_4 AA_K_5 AA_K_6 AA_K_7 AA_K_8 AA_K_9 AA_L_1 AA_L_10 AA_L_11 AA_L_12 AA_L_2 AA_L_3 AA_L_4 AA_L_5 AA_L_6 AA_L_7 AA_L_8 AA_L_9 AA_M_1 AA_M_10 AA_M_11 AA_M_12 AA_M_2 AA_M_3 AA_M_4 AA_M_5 AA_M_6 AA_M_7 AA_M_8 AA_M_9 AA_N_1 AA_N_10 AA_N_11 AA_N_12 AA_N_2 AA_N_3 AA_N_4 AA_N_5 AA_N_6 AA_N_7 AA_N_8 AA_N_9 AA_P_1 AA_P_10 AA_P_11 AA_P_12 AA_P_2 AA_P_3 AA_P_4 AA_P_5 AA_P_6 AA_P_7 AA_P_8 AA_P_9 AA_Q_1 AA_Q_10 AA_Q_11 AA_Q_12 AA_Q_2 AA_Q_3 AA_Q_4 AA_Q_5 AA_Q_6 AA_Q_7 AA_Q_8 AA_Q_9 AA_R_1 AA_R_10 AA_R_11 AA_R_12 AA_R_2 AA_R_3 AA_R_4 AA_R_5 AA_R_6 AA_R_7 AA_R_8 AA_R_9 AA_S_1 AA_S_10 AA_S_11 AA_S_12 AA_S_2 AA_S_3 AA_S_4 AA_S_5 AA_S_6 AA_S_7 AA_S_8 AA_S_9 AA_T_1 AA_T_10 AA_T_11 AA_T_12 AA_T_2 AA_T_3 AA_T_4 AA_T_5 AA_T_6 AA_T_7 AA_T_8 AA_T_9 AA_V_1 AA_V_10 AA_V_11 AA_V_12 AA_V_2 AA_V_3 AA_V_4 AA_V_5 AA_V_6 AA_V_7 AA_V_8 AA_V_9 AA_W_1 AA_W_10 AA_W_11 AA_W_12 AA_W_2 AA_W_3 AA_W_4 AA_W_5 AA_W_6 AA_W_7 AA_W_8 AA_W_9 AA_Y_1 AA_Y_10 AA_Y_11 AA_Y_12 AA_Y_2 AA_Y_3 AA_Y_4 AA_Y_5 AA_Y_6 AA_Y_7 AA_Y_8 AA_Y_9 pepL_12 pepL_13 pepL_14 pepL_15 pepL_16 pepL_17 pepL_18 pepL_19 pepL_20 pepL_21


N_layers 2

 nnetsWeights  270   200
  -0.036256 0.008744 0.032344 0.132501 -0.072504 -0.152407 0.059831 -0.035021 0.053083 0.128246 -0.021256 0.138172 0.035804 0.042336 0.062743 -0.053781 0.00462 -0.258284 -0.074877 0.034022 0.082039 -0.082646 -0.062917 0.086576 0.055378 0.01434 -0.016066 0.002572 -0.084162 0.067288 0.072352 -0.039245 0.045822 0.101224 0.048381 -0.002623 -0.001874 -0.054197 0.024677 -0.211661 -0.050682 0.012956 0.025679 -0.091294 0.015423 0.081435 0.004115 -0.107672 0.073624 -0.066508 0.002059 -0.046528 -0.044125 0.119939 0.140516 -0.007914 -0.010014 -0.04507 0.170913 0.07785 0.157919 -0.189025 -0.069187 -0.052121 -0.096878 0.012883 -0.063979 -0.082721 0.161729 0.008034 0.03674 -0.035916 0.119217 0.04748 0.052826 0.021247 -0.032039 -0.079102 0.082627 0.04007 -0.091155 0.031013 -0.008822 0.064976 0.093232 -0.23893 0.034214 0.095627 0.108989 -0.070302 0.0036 0.112554 -0.060883 -0.089061 0.030674 0.05901 -0.107836 -0.126528 0.12164 0.124062 -0.019603 0.093438 -0.01022 0.14436 0.063535 -0.206803 0.012141 0.086885 0.021915 -0.027403 -0.011801 0.11357 0.050772 -0.079479 0.000229 0.00692 0.091238 -0.051117 -0.037611 0.105367 0.106264 -0.035765 0.019576 -0.009614 -0.304964 -0.059724 -0.02035 -0.008796 -0.001235 0.062617 -0.039062 0.083148 -0.241903 0.074174 0.001318 0.100333 0.065452 -0.24956 -0.029262 -0.059185 0.160109 -0.360518 0.054919 0.016302 -0.168185 -0.030325 0.002242 0.020025 -0.020997 -0.088028 0.068233 -0.043063 0.068184 -0.035368 -0.06639 0.005657 0.026016 -0.036587 0.026008 0.048978 -0.043719 -0.159984 0.089229 -0.015602 -0.093844 -0.0417 -0.016814 -0.34016 0.057147 -0.039401 -0.033797 -0.04896 -0.146385 0.067091 -0.043643 -0.122898 0.027381 -0.057764 0.123679 -0.047643 -0.029216 -0.077918 -0.024791 0.01594 0.06678 -0.04329 -0.011416 -0.002215 0.094667 -0.056686 0.060862 -0.006592 -0.08235 0.129378 0.08542 0.034396 -0.246626 -0.014548 -0.072655 -0.243671
  -0.073983 0.083585 -0.018079 0.164526 -0.210856 -0.097969 -0.081556 0.002433 0.027396 0.121684 0.103709 -0.115007 -0.031675 -0.020526 0.139105 0.017008 0.161928 0.032033 -0.050827 0.101616 0.196755 -0.189381 -0.260958 0.117596 0.06906 -0.016193 -0.054949 -0.083558 0.136603 0.071277 0.047261 -0.114137 -0.033397 -0.060673 0.004071 0.105554 0.112085 -0.138239 -0.190706 -0.111859 -0.048454 0.061388 -0.02444 0.015907 -0.072299 0.090571 -0.034546 0.053323 0.065202 -0.163047 -0.048974 -0.042035 -0.011311 0.134537 0.097447 0.008112 -0.110284 -0.042891 0.295313 -0.036327 0.015161 0.174278 -0.184069 0.033606 -0.163848 -0.163023 -0.000197 -0.085367 -0.056759 -0.312515 -0.129945 -0.056375 0.02083 0.099502 0.180116 0.019489 -0.157094 -0.043317 -0.002621 -0.083237 0.0658 0.057529 0.080162 0.001102 0.083664 -0.262702 -0.001538 0.080257 0.049252 -0.21379 -0.01675 0.01241 0.022418 0.018375 -0.020765 0.06557 -0.100978 -0.176188 0.108298 0.045036 0.066612 0.110052 -0.11172 0.114372 0.124165 -0.148298 -0.170236 -0.061825 0.009036 0.077281 -0.091928 -0.165114 -0.069405 -0.120992 0.133766 0.044287 -0.085165 -0.173762 0.060522 -0.113351 -0.017301 -0.105452 0.023209 0.05508 -0.235239 -0.288536 -0.084262 -0.17525 0.16455 -0.04938 -0.161328 0.037942 -0.222898 -0.064852 0.018151 0.00847 -0.016854 0.058242 0.041016 -0.166432 0.004014 -0.253986 0.02731 0.111202 -0.07949 -0.025674 0.04017 -0.007034 -0.090008 -0.131054 -0.083529 -0.080669 -0.052187 0.017986 -0.039289 -0.124261 0.037078 -0.014468 0.002503 0.065865 -0.060703 -0.191943 0.054083 0.026954 0.003369 0.071264 -0.164114 -0.112394 0.052072 0.196674 -0.051966 0.119924 -0.030265 0.126457 0.076843 -0.017049 0.031976 -0.034838 -0.004999 -0.127776 0.21205 0.270009 -0.036355 -0.096839 0.065611 -0.121476 -0.033837 0.037506 0.038735 -0.186829 0.107736 0.083207 0.061099 0.175657 -0.042714 -0.188677 -0.1668 0.011818 0.11723 -0.124918
  -0.069932 -0.060596 0.077046 0.064429 0.011178 -0.09449 0.090514 0.121806 0.049209 0.04356 0.162422 -0.117544 0.063583 -0.079545 0.081709 0.090045 -0.031201 -0.114085 -0.044936 -0.040079 0.11462 -0.25001 -0.272808 -0.060312 0.001455 0.071126 -0.052834 -0.009573 0.173232 0.014886 0.069346 0.019569 0.012701 0.018549 -0.009486 0.059483 0.083095 -0.082315 -0.234315 -0.113251 0.034543 -0.000147 -0.110865 -0.261933 -0.011438 0.138824 -0.180825 0.060295 -0.206071 -0.07497 -0.117963 -0.11311 0.032572 0.040179 0.082233 0.096568 -0.201625 -0.047905 0.262836 -0.033167 -0.086214 -0.061049 -0.036151 0.089574 -0.04044 -0.104306 0.053873 -0.001454 0.00461 -0.115606 -0.039136 -0.034146 0.094342 0.119161 0.197647 -0.057055 -0.010301 -0.000622 0.018436 -0.050979 -0.058929 -0.147782 0.006904 0.004431 -0.007786 -0.057059 -0.046453 -0.016965 0.028138 -0.047637 0.090597 -0.080462 0.023752 -0.028563 0.115149 -0.094415 -0.06562 -0.114523 0.016041 -0.022063 -0.006523 0.087562 -0.023281 0.050168 0.155916 -0.093855 -0.101024 -0.023556 0.025811 -0.003501 -0.066578 -0.089698 -0.016499 -0.076704 0.220927 0.066277 -0.034528 -0.040465 0.011985 -0.018784 -0.127257 -0.155657 0.086796 -0.034185 0.026382 -0.12968 -0.191609 -0.072466 0.001618 -0.009838 -0.080527 -0.024646 -0.127438 -0.003921 0.001486 0.082897 0.009827 -0.144504 -0.008545 -0.107554 0.015256 -0.118693 -0.153424 -0.029668 -0.443917 -0.05397 -0.089635 0.013197 -0.309152 -0.133246 -0.001808 -0.065997 -0.027537 0.099425 -0.167922 -0.183212 -0.085962 -0.097206 -0.139396 -0.094384 0.00107 -0.219084 -0.027744 0.132527 -0.02223 0.183746 0.044161 -0.06415 0.072991 -0.084726 -0.050954 0.304254 -0.100095 -0.043671 0.016187 -0.226239 -0.104103 0.04131 0.055492 -0.034695 -0.071467 0.452281 0.004007 -0.106783 0.12078 -0.15399 -0.04702 0.00468 -0.110825 -0.100337 -0.04293 0.163143 0.094165 -0.051786 0.019076 -0.106117 -0.0374 0.072261 -0.111827 -0.07971
  -0.043326 0.068382 0.011282 -0.135246 -0.106939 0.058175 -0.027777 -0.047084 -0.035756 0.010372 0.078257 -0.055043 0.000636 0.117723 -0.030804 -0.031841 -0.071632 0.054656 0.000153 -0.064896 -0.014654 0.012975 -0.025148 -0.064877 -0.039426 0.04208 -0.215669 -0.037183 0.108952 0.005897 -0.011207 0.06547 0.03192 0.000652 -0.006166 0.041232 0.049124 0.046569 -0.194139 -0.048144 0.068027 -0.026555 -0.098616 -0.004985 -0.061578 -0.021993 0.059181 -0.130065 -0.02812 0.006074 0.011979 -0.002355 0.058709 0.026509 -0.05609 -0.064186 -0.049404 -0.052746 0.098815 0.042221 0.050627 0.014228 -0.01856 0.008793 0.054431 -0.076817 0.0879 0.02544 -0.047802 -0.023498 -0.086099 0.044495 -0.073351 0.017335 0.144114 -0.067419 -0.030891 0.126579 0.012128 -0.18687 -0.030408 -0.064915 0.056822 0.103471 -0.087482 -0.097745 -0.1556 -0.061493 -0.09498 -0.179131 -0.012273 -0.008165 -0.088124 -0.015475 0.013499 -0.023262 0.05458 -0.034643 0.075265 0.059169 0.024719 0.123846 0.028502 -0.010151 -0.017351 -0.034116 -0.035885 0.143192 -0.121293 -0.136629 0.05745 -0.017745 0.045439 0.038626 0.006863 0.013206 -0.074238 0.08986 -0.061421 0.013539 -0.085777 -0.191036 0.021775 -0.024721 0.019116 -0.095769 0.032753 0.003413 -0.065854 0.004331 -0.032943 0.072378 -0.093314 0.053594 -0.057672 0.029885 0.017674 -0.025502 -0.02587 0.018214 -0.098937 -0.010996 -0.110187 -0.104456 0.015685 -0.032677 -0.022489 -0.005874 -0.158256 0.100979 0.087618 -0.020316 0.019384 0.095822 0.028039 -0.042556 -0.021484 -0.007557 0.042418 -0.066382 -0.001904 -0.046792 -0.051219 0.077687 -0.069313 0.105923 -0.034417 -0.049385 0.026285 0.099926 -0.007797 0.169922 0.083846 0.07036 0.025055 0.00579 0.053128 0.195411 0.094079 -0.035928 -0.044996 0.467724 -0.073375 0.043031 -0.011486 -0.02626 0.050684 0.026694 -0.20524 -0.028161 0.011859 0.083772 0.372097 0.005393 -0.032646 -0.040422 0.053965 -0.037168 0.199326 -0.067296
  0.075225 0.048162 0.00383 0.087 0.033971 0.024045 -0.007774 -0.009069 -0.014112 0.014933 -0.090974 0.040675 -0.007688 0.021781 0.112917 0.041924 0.060157 -0.109222 0.003005 -0.026956 -0.016176 0.028447 -0.079037 0.094187 -0.046717 -0.043945 0.019034 0.009453 0.259285 0.008359 0.027924 -0.060763 0.080203 -0.032564 0.039444 -0.03468 0.018775 0.043018 -0.116606 0.00628 0.063613 0.015006 -0.068159 0.166346 0.02392 0.046245 0.018473 0.170284 0.015534 -0.027195 0.022991 0.03535 0.002795 -0.014843 -0.147724 0.023957 -0.112097 -0.087874 0.070663 0.014251 0.038348 0.007954 -0.055907 0.025233 0.123497 0.008078 0.062488 0.003747 -0.024277 -0.109817 0.050232 -0.059856 -0.102445 0.040849 0.013603 -0.059772 0.038162 0.034286 -0.062066 -0.072291 -0.015496 -0.087367 0.038035 -0.007038 -0.051513 -0.063076 0.070321 0.042958 -0.022466 0.073014 0.072994 0.022699 -0.005286 0.043939 0.075801 -0.023597 0.027888 -0.084637 0.028737 -0.02704 0.005567 0.048854 0.033651 -0.0482 -0.062737 0.001339 -0.008018 -0.008705 -0.008949 0.06059 -0.101226 0.03943 -0.057916 0.017423 -0.116282 -0.023871 -0.033198 0.055024 0.051081 0.026376 -0.0405 0.00016 -0.034864 -0.012218 0.014969 -0.035623 -0.051016 0.114674 -0.022492 0.055342 0.022673 0.001096 0.037289 0.006356 0.016023 -0.019735 -0.028382 0.005797 -0.004813 0.084263 -0.021093 -0.024887 -0.016937 -0.005467 0.008059 0.031288 -0.008082 0.011558 0.08321 0.003685 -0.04089 -0.063617 -0.013404 0.024528 -0.055018 0.006478 0.011091 -0.02607 0.038919 0.04509 -0.062165 0.035417 -0.103574 0.093184 -0.058692 0.037024 0.019465 -0.005066 -0.089786 -0.0653 -0.015356 -0.051591 0.00973 0.013271 0.039525 -0.073132 0.04598 0.035566 0.035975 -0.005492 0.048519 -0.003661 -0.004613 0.021054 0.025558 0.004419 -0.026784 0.022389 0.132596 -0.018 0.005683 0.01103 -0.082058 -0.01629 -0.043561 0.033706 0.012556 -0.066858 0.023588 -0.042333
  0.005337 0.015064 -0.01005 0.020338 0.035482 0.002215 0.024724 -0.097475 -0.038696 0.043607 -0.029427 0.057222 0.020825 0.038637 0.023014 0.054847 -0.010714 0.054658 -0.040363 0.000844 -0.018096 0.095204 0.052731 0.117355 -0.007407 0.002627 -0.067562 0.016512 0.019777 -0.008629 0.026878 -0.027152 -0.05527 0.018094 0.037983 0.045563 0.010321 -0.022876 -0.024525 0.026705 0.026958 0.044864 -0.048381 0.12763 -0.007629 -0.019211 -0.021437 0.035952 0.066787 0.118913 -0.001346 0.087174 0.035706 0.033447 0.011274 -0.031915 -0.064261 -0.03305 0.119149 0.04355 0.03928 -0.011155 0.067148 0.056731 0.027727 0.023117 0.101845 0.000852 -0.021168 0.034377 -0.007523 -0.050648 0.052209 0.005123 0.029766 -0.048647 0.05387 -0.012178 -0.006752 -0.003717 -0.051322 -0.043376 -0.001536 0.059658 0.073885 -0.059014 0.108929 -0.048077 -0.029194 -0.015641 0.065847 0.043205 -0.008451 -0.040658 -0.029952 -0.024928 0.063155 -0.022067 0.035282 0.008126 0.04073 0.040277 0.037106 0.009154 0.037072 0.042576 0.019726 -0.000156 0.0081 -0.016749 0.038597 0.048442 0.021981 0.04869 -0.004242 0.002524 -0.076674 -0.001887 -0.065003 0.025637 0.028104 0.011531 -0.033201 0.059534 0.014164 -0.026721 0.001879 -0.107252 -0.019209 0.009311 -0.005565 -0.036605 0.027105 -0.026551 0.029171 -0.070516 -0.002201 -0.028378 0.0354 -0.076277 0.052759 -0.023747 0.053906 0.048786 0.014313 -0.028331 4e-05 -0.025505 -0.025362 0.012115 0.059204 -0.096535 0.029119 -0.047431 -0.078097 0.035182 0.00404 0.01867 -0.054751 0.007564 0.014787 0.076485 -0.04281 0.021939 -0.034556 -0.009997 0.045185 0.008602 -0.019737 0.010956 0.030731 -0.045052 -0.070776 0.004028 0.028755 -0.000868 -0.017945 0.005487 -0.072683 -0.061287 0.000448 -0.072065 -0.008103 0.006967 0.002702 -0.009919 -0.03339 0.00775 0.039103 0.013608 -0.020268 -0.034916 -0.068522 -0.015584 -0.004354 0.024838 -0.020333 0.005669 0.002498 -0.014891
  -0.0103 0.008841 0.076399 -0.033476 0.040204 -0.007917 0.062642 0.003726 0.078966 0.021968 -0.004246 0.131041 0.031485 -0.085307 0.001693 -0.079549 -0.090841 -0.143849 -0.170048 0.049739 -0.024866 -0.018329 0.03832 0.070193 0.082021 0.002113 -0.050895 0.026007 -0.007936 -0.014256 0.070214 -0.007267 -0.005091 0.014034 0.043757 0.084548 -0.050335 0.186613 0.133051 0.025056 -0.034248 0.078882 0.059784 0.032358 0.01017 0.046265 0.211102 -0.12418 0.123406 -0.093476 0.047116 -0.080632 0.016241 0.01251 -0.31593 -0.022633 0.085024 -0.052043 8.8e-05 -0.102861 0.106921 0.043749 0.003309 -0.063179 -0.10654 0.090071 -0.057836 -0.072241 0.284499 0.117997 -0.074613 0.13123 0.057017 -0.003182 -0.092689 0.081628 0.025203 -0.04992 0.041892 -0.00295 -0.120356 0.048238 -0.021721 0.09103 -0.024166 0.010691 -0.045865 -0.124939 0.04541 0.055679 -0.019104 0.058043 0.039866 -0.094541 0.030825 0.04594 -0.028106 0.048012 -0.069541 -0.014343 0.097798 0.063577 -0.019584 0.180484 -0.053619 -0.026573 -0.03851 0.173781 0.047778 -0.122074 -0.303348 0.070458 0.018176 -0.14045 0.02768 0.020114 0.119572 0.020988 -0.01368 0.069415 0.068785 0.006857 -0.121542 0.165917 -0.278549 -0.117081 0.064125 0.06847 0.106139 -0.028607 0.10014 -0.040997 -0.098405 0.032089 0.059557 0.204932 0.042052 -0.032099 -0.011916 -0.050751 0.209693 -0.286062 0.020978 0.015868 -0.029303 0.019936 0.066333 0.031102 -0.048682 0.107078 0.077045 -0.100265 -0.161213 -0.025148 -0.076542 0.042837 0.02126 -0.000692 0.171125 0.140379 0.028905 -0.085058 0.10232 0.010659 0.016838 0.058284 -0.183846 -0.021954 -0.071451 -0.149557 0.023359 -0.028776 -0.18076 0.168582 -0.01217 -0.014746 0.021586 -0.038503 0.06131 -0.195429 0.081045 -0.135909 -0.043717 0.044321 0.034086 -0.077222 0.049417 0.032432 0.080575 0.047833 0.068018 -0.099328 -0.156107 0.088163 0.066722 0.118781 -0.01914 0.035967 0.089581 -0.091957
  0.05528 0.065082 0.03859 0.093683 0.0197 0.01651 -0.035364 0.036238 0.034899 0.059112 -0.099178 0.03707 0.00292 -0.068792 -0.043764 -0.083095 0.095241 -0.036265 0.022264 0.074148 -0.124811 0.011226 0.025291 0.02822 -0.042834 -0.074622 0.041604 0.046352 -0.003508 0.081685 0.064179 0.006719 -0.039956 0.068723 0.086882 0.065798 -0.029965 0.036908 -0.042996 0.110251 -0.063321 0.080851 0.083076 0.074532 0.051961 -0.018825 0.205957 -0.025872 0.121686 -0.06126 0.068963 -0.002235 -0.00637 0.019175 -0.081235 -0.039219 0.090579 -0.139881 0.011711 0.050103 -0.042805 0.012716 0.042925 -0.09603 -0.04237 0.018786 -0.111222 -0.058243 -0.091321 0.189619 -0.082 -0.151397 -0.052942 -0.060504 -0.20914 0.080049 0.119587 -0.075205 -0.053366 0.029379 -0.087411 0.077684 -0.026082 0.035625 0.017207 0.065636 -0.021247 -0.113751 0.085701 0.003093 -0.087111 0.002008 0.081177 -0.012106 -0.02565 0.070812 -0.04702 -0.058983 0.058145 0.003518 0.082732 0.02388 0.003102 0.001079 -0.01091 0.105162 0.035242 0.141639 0.035228 -0.135353 0.140299 0.122014 0.074358 -0.006347 0.040945 -0.033292 0.111828 0.043009 -0.020925 0.05902 0.047159 0.072625 -0.026577 -0.053709 -0.058016 0.152209 0.030567 0.087501 0.056541 0.066633 0.077935 -0.130285 0.303204 0.020911 0.052076 -0.056453 -0.026034 -0.085229 -0.009633 -0.037295 -0.02118 0.156579 0.103714 0.010643 0.068023 -0.002405 -0.011879 0.068635 0.043792 0.002456 -0.001822 -0.153749 0.010182 -0.068192 0.006198 0.036175 0.039962 0.044578 -0.045543 -0.016202 0.075038 -0.062748 -0.011144 -0.008874 0.040943 -0.022767 -0.016884 0.100316 -0.076995 -0.11207 0.015399 -0.103528 -0.081573 -0.109408 -0.105254 0.137515 0.054429 0.013694 -0.081454 -0.093994 -0.050953 -0.297778 0.054784 0.029168 0.017004 -0.010378 0.055053 0.055774 0.043355 0.078243 0.030701 0.017098 -0.04026 -0.010103 0.01312 0.0851 0.042729 0.030285 0.0752 0.083746
  0.08948 0.082069 -0.041918 -0.06792 -0.080408 0.010049 -0.028966 -0.038781 0.0264 0.081641 0.004682 -0.046309 -0.027942 -0.191826 0.019459 -0.030407 0.006327 0.054076 0.044679 -0.09482 -0.063364 0.046086 0.109487 -0.032664 -0.017817 -0.042751 0.144857 0.048549 -0.181971 -0.104705 -0.043 0.016475 -0.06405 -0.051323 0.083254 0.025665 0.000175 -0.032743 -0.058803 0.001801 -0.014265 0.001247 0.070761 0.066164 0.004504 -0.06343 0.043998 0.038732 0.010689 -0.049697 0.065286 0.028186 0.005353 0.047762 0.036388 -0.048395 0.082033 0.04285 -0.100488 -0.019487 -0.15139 -0.056587 0.04078 -0.066978 0.030396 0.084695 -0.068009 -0.024827 -0.306834 0.142551 0.066907 0.029511 -0.099782 -0.016425 -0.07981 -0.133103 0.041232 0.05175 -0.114041 0.131788 0.016818 0.097823 -0.028247 -0.022541 0.05507 0.171602 -0.051084 0.048242 -0.061045 0.047055 -0.084565 0.009864 0.064343 0.065652 -0.050601 -0.024578 -0.085061 0.108072 -0.120136 0.061614 -0.038027 -0.078993 0.045395 -0.235501 0.015297 0.113399 0.028065 -0.125962 0.045019 -0.105916 0.087147 0.064924 -0.005286 0.027487 -0.196288 0.024974 -0.140077 0.042924 0.006139 -0.017592 0.014179 0.015919 0.043972 -0.000401 0.205183 0.030903 0.054737 0.132241 -0.133037 -0.070484 0.039621 -0.116268 -0.02957 0.020633 0.072891 -0.204988 -0.047462 -0.038568 -0.012523 -0.041333 -0.202723 0.227358 -0.039208 -0.029153 0.124186 -0.00817 -0.005291 -0.062063 0.157861 0.065674 -0.085404 0.024557 0.022428 -0.074804 0.110655 0.02781 -0.047366 0.133838 -0.110236 0.038677 -0.01601 0.039367 -0.10392 -0.077899 0.044789 -0.048248 0.098132 -0.072514 0.03698 4.3e-05 -0.045167 -0.074896 0.062299 -0.030194 0.01549 -0.007378 0.001789 0.097915 -0.158323 0.101976 -0.068179 -0.175629 0.019424 -0.009722 0.00502 0.01046 0.049254 -0.02809 0.044066 0.007867 -0.06258 0.007628 0.16145 -0.075751 -0.05448 0.061509 0.004869 0.024657 -0.124411 0.136391
  0.067317 0.015258 -0.083125 -0.027722 0.028111 0.023641 -0.00635 0.030066 -0.119535 -0.115722 0.093746 -0.198481 0.004879 0.094093 0.026576 -0.058872 -0.134045 0.228809 0.164388 -0.023862 0.009015 0.101567 0.137545 -0.085356 -0.062636 0.034742 0.134542 0.039068 -0.242875 -0.078179 -0.020137 -0.089759 -0.095707 -0.124206 0.005375 0.071086 -0.016931 -0.064477 -0.041911 0.170279 0.04278 -0.044095 -0.104739 0.008805 0.039769 -0.204202 -0.204041 0.058925 -0.165453 0.079794 0.152468 -0.004838 -0.145939 -0.038269 0.118336 -0.022609 0.016571 0.071127 -0.164249 0.039769 -0.143133 0.029026 0.129556 -0.003547 0.099211 -0.006659 -0.102073 0.022624 -0.126219 -0.082107 0.015741 -0.058219 -0.290105 -0.004841 -0.069404 -0.039584 0.061228 -0.015566 0.005902 0.092044 -0.006187 0.066571 -0.102726 -0.007718 0.073157 0.183901 0.058135 -0.003556 -0.095196 -0.022728 0.119968 -0.155604 -0.021214 0.164849 -0.049714 -0.031787 -0.071973 -0.081514 0.057642 0.109274 -0.058351 0.003547 0.063173 -0.214843 0.059863 0.057704 0.001493 -0.207214 0.000823 0.029239 0.094598 -0.062169 0.009944 0.001373 -0.191103 0.034015 -0.195346 0.101428 0.047442 -0.045263 -0.122574 0.08577 0.022712 -0.009626 0.156364 0.101171 -0.04177 -0.141282 -0.054712 0.019979 -0.191921 -0.108912 -0.137223 -0.018224 0.007704 -0.174455 0.003777 -0.01607 -0.11294 0.099299 -0.183899 0.281883 -0.135492 -0.124241 0.17974 0.093136 0.033658 -0.036935 0.026264 0.093295 -0.191921 0.068217 -0.062754 -0.055551 0.072968 0.096748 0.044645 0.074565 -0.060285 -0.045047 -0.043774 0.173467 -0.152522 0.046079 0.02573 -0.10731 0.020077 0.231452 0.083419 0.003429 0.098228 -0.067941 0.183554 -0.169989 0.036268 -0.137694 -0.075987 0.06476 -0.068235 0.045411 0.190855 -0.070685 0.046653 -0.181799 -0.048397 -0.031018 -0.136113 0.046205 -0.041348 0.007118 -0.192511 0.053343 0.091852 -0.212266 -0.107354 -0.065962 0.066264 -0.118152 -0.105817 0.072196
  0.046508 -0.036542 -0.091284 -0.14586 0.096323 0.10372 -0.016642 0.043467 -0.071356 -0.127358 -0.05176 -0.18569 -0.024488 0.142452 -0.037307 0.056971 -0.087114 0.277111 0.061511 0.034621 -0.069765 0.015313 -0.047955 -0.203572 -0.064079 0.022364 0.085055 0.058473 -0.109678 -0.083774 -0.09314 -0.116361 -0.135373 0.005766 -0.041937 0.021827 0.014679 -0.055295 0.005313 0.060732 0.042607 -0.109353 -0.082851 -0.022576 0.029331 -0.096496 -0.078745 0.150731 -0.237124 0.114374 -0.004416 0.033122 -0.071707 -0.152132 -0.004367 -0.062291 0.141446 0.029167 -0.133123 0.017644 -0.050875 0.096261 -0.006312 -0.012917 0.112566 -0.00618 0.099664 0.084871 -0.120922 0.104545 -0.015526 0.048552 -0.215801 -0.198801 0.037101 -0.020025 -0.062154 0.036875 -0.061663 0.001396 0.052035 0.075789 0.033898 -0.031495 -0.190681 0.190775 -0.02145 -0.042708 -0.147661 -0.010241 0.00207 -0.037055 -0.082184 0.096521 0.004993 -0.0291 -0.001724 -0.026286 -0.173826 -0.069873 -0.049388 -0.052559 0.020133 -0.185321 -0.136622 0.068691 0.013173 -0.070119 -0.051546 0.108363 0.17333 -0.053573 0.056759 -0.019412 -0.092431 0.066598 -0.03198 0.180515 0.11733 -0.046565 -0.123312 -0.064914 -0.000518 -0.037341 0.313988 -0.058812 0.114225 0.194057 -0.120795 0.031845 0.018777 0.074788 -0.062784 -0.036024 0.031245 -0.09234 -0.060222 0.136971 -0.033164 0.036451 -0.146616 0.268258 -0.137047 0.003442 0.340929 0.127477 0.039923 -0.042752 0.021038 -0.002145 -0.0865 0.032408 -0.012071 0.070117 0.206555 -0.15678 -0.027976 -0.058728 -0.047402 -0.027812 0.090477 0.136709 -0.185598 0.041111 -0.001489 -0.060977 -0.072339 0.191972 -0.077225 0.035593 0.1053 0.112811 0.108986 -0.056825 0.018093 -0.05761 -0.043067 0.036783 -0.228524 0.01657 -0.17269 0.047877 -0.026567 -0.00452 -0.057217 0.03295 -0.087188 0.001496 -0.166151 0.071484 -0.038844 -0.103025 -0.048897 -0.214697 0.011871 -0.033415 0.11945 -0.100982 -0.11643 0.039924
  -0.027701 -0.032065 -0.075301 -0.024734 0.065191 0.083234 0.007945 0.035612 0.014797 -0.047406 -0.151512 -0.101158 0.016992 0.038047 -0.133815 -0.053421 -0.002786 0.085928 0.180888 -0.091539 -0.050707 -0.091185 0.152521 -0.123837 -0.049079 0.005579 -0.065282 -0.089996 0.101226 -0.089649 -0.01266 -0.021873 -0.081765 0.035928 -0.055491 -0.060778 -0.050794 -0.041881 -0.050607 0.081765 0.024316 0.089098 -0.122776 0.020054 0.046986 -0.123204 0.011393 0.013431 -0.240396 0.064573 0.034034 0.075241 0.064498 -0.167302 -0.050591 -0.07718 0.059026 -0.006298 -0.033178 -0.079283 -0.013798 -0.046522 -0.029509 0.034319 0.057817 0.020272 0.129223 0.037762 -0.076969 -0.058441 -0.018893 0.000307 -0.12106 -0.069702 -0.038117 -0.03039 -0.090045 0.158764 -0.049833 -0.061254 -0.123037 -0.049641 -0.002746 -0.011982 -0.143786 0.122383 -0.025285 -0.049421 -0.136429 0.009786 -0.002088 0.017783 -0.080306 -0.097991 0.160943 -0.013329 0.012721 0.0475 -0.026454 0.015646 0.024745 -0.083141 0.067242 -0.123899 -0.174913 0.017767 0.005149 0.007942 -0.062421 0.073917 0.095425 -0.044796 0.013561 0.017425 0.014089 -0.052596 -0.025791 0.043456 0.056054 -0.016993 0.060546 -0.036404 -0.010288 -0.057852 0.193719 -0.015626 -0.022303 0.032952 -0.03316 -0.009544 0.043821 0.061643 0.058863 -0.065302 -0.024384 -0.05243 -0.024314 -0.037561 -0.065351 -0.078379 -0.100519 0.218967 -0.003753 -0.059213 0.1005 0.049281 0.013567 -0.015289 0.110126 0.09634 -0.025778 -0.123394 -0.062285 0.088494 -0.016591 -0.024638 0.014501 -0.110615 0.11737 0.020061 -0.040655 -0.022882 0.044469 0.023119 0.127644 -0.078544 0.107673 -0.015427 -0.056548 -0.008953 0.003114 0.153354 0.087921 -0.034916 0.035975 -0.029631 -0.004931 0.151662 -0.002938 0.006501 -0.12612 -0.034124 -0.054133 -0.089073 -0.077329 0.028916 -0.01316 -0.023471 0.060579 0.052168 0.021439 0.113286 -0.026549 -0.243841 0.039091 0.0776 0.069899 -0.070236 0.07721 0.142715
  0.040112 -0.023571 0.039457 -0.000449 -0.015646 -0.016784 -0.0228 0.030173 0.00819 0.002713 0.032714 -0.050123 0.018821 -0.00747 -0.097402 0.015176 0.012087 -0.018486 -0.029686 -0.01008 0.007082 0.009227 0.059931 -0.002333 0.01705 -0.005486 0.067432 0.037481 -0.018957 0.030554 0.033757 0.01267 -0.021945 -0.002816 -0.032997 0.009673 0.018229 -0.02948 0.025402 0.06705 0.02291 0.013694 -0.074011 -0.115564 -0.02575 -0.000177 -0.064738 -0.026301 -0.072746 0.105267 0.085145 0.016936 -0.029181 -0.008969 -0.032725 0.020488 -0.062956 0.019704 -0.058488 -0.023382 0.020492 -0.065119 0.013723 0.02767 -0.054984 -0.002499 0.01631 -0.047011 -0.071585 -0.010233 0.023943 -0.001123 -0.019456 -0.072544 0.023669 -0.007143 0.082767 0.050231 0.014494 0.078576 0.025749 0.037983 -0.008834 0.009204 0.119758 0.124276 0.077951 0.007653 0.000858 0.011693 0.024014 0.002417 -0.053734 0.112221 0.006389 0.016045 0.085428 0.067183 0.04591 0.04319 0.038946 -0.06372 0.071887 -0.003766 0.019009 -0.010304 0.048861 -0.02248 0.05192 0.024323 0.025639 0.043561 -0.014574 7.1e-05 -0.042453 0.055302 -0.002547 -0.049721 -0.065295 0.000846 0.001273 -0.030912 0.01001 -0.048423 0.046848 0.033235 -0.072999 -0.003187 0.03217 -0.053541 -0.004695 -0.07219 0.029285 0.020635 0.008168 0.02124 0.028432 -0.076586 -0.001609 0.091705 0.02777 0.05057 0.078077 -0.116964 -0.031094 -0.024323 -0.034298 -0.027878 0.026605 0.075759 0.044545 -0.024264 0.071977 0.01302 0.043553 -0.017802 -0.001685 -0.031692 -0.05515 -0.008462 -0.054216 0.084549 0.062911 0.048947 -0.021813 0.004594 0.113217 0.001902 -0.15754 -0.039514 0.0836 -0.036596 0.025522 -0.067882 -0.015917 -0.054259 0.01509 -0.008168 0.020745 0.112668 0.093095 0.095783 -0.030466 -0.031763 0.007736 0.033667 0.012343 -0.007428 0.046794 -0.010431 -0.03053 -0.054434 0.059304 -0.064221 0.045781 0.058547 0.063878 0.004193 0.027649 0.063691
  -0.524939 -0.463218 0.38089 -0.234771 0.49561 -0.530904 -0.472011 0.506509 -0.576253 -0.472652 -0.166713 0.420444 0.47906 -0.08435 0.15855 0.376301 -0.384973 0.234508 -0.182368 -0.21156 -0.593969 0.370635 0.273073 0.355204 -0.655122 -0.624706 0.288244 -0.490445 0.203396 -0.440017 -0.514218 0.557336 0.634523 -0.5356 -0.551096 -0.688091 -0.502989 -0.386732 -0.433423 -0.115686 0.414122 -0.415822 0.331762 0.145511 0.55197 0.488936 -0.377994 0.108485 0.306847 0.126639 0.453625 0.496022 -0.51267 -0.359527 -0.534569 0.570071 0.417917 -0.363645 0.124443 -0.085058 -0.220266 0.052282 0.364818 0.427753 0.488378 -0.42951 0.450286 0.452698 -0.443814 0.628791 -0.066332 -0.060054 0.028093 0.375683 0.311895 -0.186617 -0.075523 -0.292185 -0.453248 0.143518 -0.302107 0.274222 -0.406866 -0.5903 0.171801 0.375505 0.285265 -0.090207 0.116151 -0.572582 0.596265 -0.510895 -0.222149 0.244091 0.380143 -0.545994 0.410573 -0.102642 0.046097 -0.159408 -0.528992 0.304277 -0.431326 -0.292347 0.524558 -0.461125 -0.499263 0.268123 -0.554367 0.196003 -0.468355 -0.592807 0.312902 -0.125772 -0.091915 -0.527799 -0.331069 -0.517857 0.433812 -0.327882 0.55259 0.626635 -0.360479 -0.530914 -0.377886 -0.551284 0.466446 0.02085 -0.386745 -0.296829 -0.473813 -0.081167 -0.261054 -0.541823 -0.605362 -0.284004 0.375625 -0.311071 0.56695 0.392036 -0.41059 -0.302317 0.449886 0.355922 0.1628 0.411407 -0.550597 -0.4201 0.49905 -0.116607 0.448032 -0.2983 -0.438844 0.464027 0.105925 0.402465 -0.601659 -0.58701 -0.413014 -0.395727 0.322827 0.403904 0.263724 0.381489 -0.62496 0.514283 0.218478 -0.501625 0.229588 -0.163773 0.353198 0.494528 0.369486 -0.21998 -0.446428 -0.219588 0.502246 -0.703909 -0.274255 -0.281328 -0.161319 0.080866 -0.355323 0.618487 -0.681658 0.578592 -0.541699 -0.545764 0.332328 -0.521579 -0.57727 -0.251954 0.033434 0.340226 -0.460876 -0.483351 -0.266818 -0.553632 0.033588 -0.235369
  -0.05113 -0.024503 -0.133024 -0.007041 0.108581 0.029366 -0.06362 -0.044162 -0.068187 -0.048082 0.136134 0.100204 -0.098238 0.107056 -0.079874 -0.110499 0.084362 0.007768 0.09023 -0.002313 0.062271 -0.065998 -0.060988 -0.082044 -0.036941 -0.044501 0.065598 -0.070933 -0.304921 -0.045674 -0.023184 0.052081 0.020638 0.021126 -0.007292 -0.047873 0.045141 0.032518 -0.124155 -0.159286 0.071527 -0.023471 -0.002901 -0.164659 0.108216 0.040986 0.132932 0.069743 0.106096 -0.053302 -0.003085 -0.022669 0.037147 -0.079341 -0.121108 0.055905 0.073091 -0.064616 -0.062152 -0.008567 0.04471 -0.158881 -0.040212 -0.12723 0.002008 -0.068291 0.077876 -0.060462 -0.008916 0.032023 0.071796 0.080844 -0.016809 0.0606 -0.073876 -0.053011 0.025623 0.059558 0.042089 0.085712 0.084239 0.129822 -0.02281 0.053704 0.131159 0.129638 -0.192998 -0.013771 -0.136231 -0.097634 0.090114 -0.013831 0.094311 -0.071903 0.079903 -0.026174 -0.016462 -0.153408 -0.155276 0.046788 -0.029862 0.033503 -0.070731 -0.104368 -0.156238 -0.100648 -0.021581 -0.228954 -0.048705 -0.232345 -0.046411 -0.023784 -0.10822 0.077534 -0.076655 0.060172 -0.028048 -0.118305 -0.036598 0.038029 0.01991 -0.078367 -0.058597 -0.035319 -0.15208 0.009462 0.050593 0.412326 -0.018431 -0.071136 -0.094096 -0.120383 -0.01626 -0.083105 -0.061151 0.062078 -0.017893 -0.092232 -0.020529 0.075166 -0.081311 -0.028581 -0.17369 0.065578 0.131545 0.046022 -0.044432 0.001564 0.029322 0.079022 0.05157 0.044432 0.103215 0.003773 -0.103603 0.088854 -0.052445 -0.09799 -0.027682 -0.079841 0.078449 -0.19249 0.113449 -0.220242 -0.020251 0.004693 -0.110336 -0.147123 0.005666 0.020982 -0.004597 -0.054468 -0.07292 -0.076508 0.021777 0.02047 -0.041398 -0.009675 0.070877 -0.069068 0.034222 -0.168021 -0.002489 -0.032154 0.004564 0.083453 0.041728 -0.06188 -0.20342 -0.015826 0.0695 0.027665 0.178073 -0.265119 -0.010749 -0.082111 0.079763 -0.041109 -0.255845 -0.06455
  -0.059222 0.128407 -0.115376 -0.067884 0.04382 -0.070151 0.128779 -0.089692 -0.101346 -0.0129 0.280293 -0.092541 0.049208 -0.002177 -0.092142 -0.022285 -0.127082 -0.11521 0.018932 0.136502 -0.031668 -0.036541 0.012885 -0.011611 -0.066747 -0.012753 -0.083883 -0.059633 -0.073967 -0.116738 0.046655 -0.033507 0.014567 -0.020492 0.166236 0.126964 0.075202 -0.066675 -0.21315 -0.121071 -0.049456 -0.115885 -0.066186 -0.00801 -0.059078 0.053721 0.080921 -0.240713 -0.171522 -0.03251 -0.133605 -0.106145 0.122453 0.05844 0.170266 -0.090462 -0.046684 -0.249854 -0.188215 0.183147 0.111194 -0.135781 -0.040006 -0.020056 -0.059563 -0.100333 0.070594 -0.120506 -0.009801 0.070651 0.038632 0.074376 -0.029406 0.038629 -0.045791 -0.001622 0.08645 0.121229 0.04442 -0.202439 -0.273939 -0.076502 0.117142 -0.133058 0.054544 0.027859 -0.145963 -0.06379 -0.050739 -0.203152 -0.026357 -0.063718 -0.139776 -0.091721 -0.015609 -0.12814 0.017582 0.120461 0.011571 -0.136527 -0.105192 -0.000544 0.147853 -0.125997 -0.15663 0.06341 -0.034862 0.025594 0.066302 0.008185 -0.005925 -0.040127 -0.119047 -0.149898 0.071068 -0.020067 -0.116096 0.116513 0.022131 -0.041937 -0.011576 -0.089605 -0.028965 0.166571 0.034392 -0.072298 -0.013987 0.016326 -0.1412 0.124121 -0.053864 -0.014416 -0.145831 -0.034804 -0.027355 0.094505 0.004033 -0.23789 -0.013743 -0.046261 0.155101 -0.032881 -0.049069 -0.038076 -0.056323 0.037237 -0.109404 0.051402 0.02656 -0.162778 -0.05976 -0.010778 0.070794 -0.036681 -0.030921 -0.022137 -0.171361 0.039694 -0.180115 0.044365 0.019441 0.063696 0.029032 -0.024129 -0.088599 0.03249 -0.046474 0.025526 -0.047087 0.058472 0.015205 0.063423 -0.069799 -0.134865 -0.171101 -0.076112 0.118109 0.059406 -0.111129 -0.196621 -0.177447 -0.093034 -0.118451 -0.035375 0.111256 -0.061606 -0.013165 -0.04963 -0.096091 -0.064249 -0.128253 -0.22196 -0.038302 -0.022419 -0.045161 -0.147547 0.110014 -0.106007 0.034236 0.125338
  0.066339 -0.0315 0.042992 -0.04769 -0.113963 -0.001635 0.015099 -0.00634 -0.046367 0.003362 0.111073 0.019113 -0.079468 -0.079133 0.040791 -0.082052 -0.088123 0.035324 -0.122685 -0.023193 0.063251 0.000258 -0.004559 0.0511 -0.003961 -0.072763 0.027096 -0.05377 -0.01384 0.039352 0.033042 0.033634 -0.012486 0.008692 0.038751 0.061149 -0.037977 -0.063079 0.017519 -0.021188 -0.096216 0.003015 0.029168 -0.135985 -0.000559 -0.015995 0.049541 0.06241 0.034745 -0.003968 0.045802 0.012753 0.084434 0.015288 0.042805 -0.028944 0.038648 -0.084117 0.050792 0.060116 0.049839 0.059906 0.040086 -0.036655 -0.04102 0.002353 -0.098869 0.034074 -0.074939 -0.043081 -0.039379 0.052775 0.122905 -0.049938 0.042239 -0.045557 -0.054423 0.069855 0.06438 0.067642 -0.071 0.031212 0.003144 -0.002787 -0.153668 -0.018431 -0.03862 0.031708 -0.05228 -0.0131 -0.041942 0.0196 -0.15998 -0.133175 -0.033882 -0.072612 -0.059473 0.001387 0.027936 -0.016317 -0.102138 -0.0119 0.089885 -0.087182 -0.033963 0.035106 -0.033085 -0.045432 0.04611 -0.060806 0.002161 -0.04859 -0.064849 -0.052694 0.033224 0.042415 -0.075913 0.014678 -0.080995 -0.062199 0.07919 0.023361 -0.117778 0.11439 -0.10547 -0.068441 -0.046166 -0.025775 -0.077751 -0.054035 -0.057943 -0.082729 0.005577 -0.080972 0.001818 0.034097 -0.02001 -0.062769 0.042594 0.016963 0.076043 -0.077234 -0.011313 -0.046644 0.072203 -0.062195 -0.066445 -0.002214 0.024732 -0.007927 0.040027 0.029593 -0.032005 -0.034044 -0.05027 -0.064642 -0.048354 -0.048791 -0.072382 -0.11274 -0.026255 -0.158714 0.000377 -0.016255 -0.025221 -0.048547 -0.028875 -0.008149 0.004986 0.027627 -0.173265 -0.087699 -0.024727 -0.046518 0.029247 -0.088764 -0.134336 -0.020094 0.048279 -0.148067 -0.028054 0.061616 0.000152 0.006622 0.060964 0.000277 0.004296 -0.022749 0.024209 0.003853 -0.149735 -0.047255 0.178426 0.04204 0.022453 0.030206 0.065887 0.030661 0.060983 0.207361
  -0.065822 0.024728 -0.034957 0.144595 -0.080987 -0.045814 0.060077 0.02069 0.087539 -0.007222 0.039138 -0.012283 -0.023719 -0.023362 0.002195 0.019665 -0.059274 0.010841 -0.146349 0.008341 -0.024984 -0.019178 0.036073 0.029014 -0.17429 0.074807 0.000579 0.074201 -0.016469 -0.074417 -0.121262 -0.086585 -0.021558 -0.002873 0.038576 0.002793 0.086815 -0.112023 -0.154576 -0.148029 -0.014756 0.080273 0.029089 -0.092095 -0.067127 -0.009491 -0.038657 -0.042453 0.068627 -0.005157 -0.025982 -0.038472 -0.023151 -0.014309 0.141519 -0.019574 0.018738 -0.195591 0.040472 0.094268 0.20338 0.032053 -0.064204 -0.082717 -0.030656 -0.138894 -0.085389 -0.091011 0.018508 -0.092022 0.044523 0.102639 -0.01198 0.013901 -0.047417 -0.015115 0.12637 0.032664 -0.095417 0.111748 -0.120975 0.093745 0.061844 -0.042964 -0.130098 -0.076802 -0.025227 -0.113491 -0.008343 -0.095046 -0.027725 0.000795 0.11711 -0.091383 -0.006526 -0.056548 -0.03892 0.221381 0.081842 -0.169303 0.028805 0.019312 0.069638 -0.015877 0.010296 0.005404 0.015384 -0.035643 -0.031587 -0.06739 -0.093705 -0.069578 0.010453 -0.156996 0.144715 -0.072599 -0.076533 0.166956 -0.049379 -0.071087 0.017807 0.011195 0.007127 -0.005793 0.078535 0.040817 -0.084626 -0.024503 0.078069 -0.014429 -0.148868 0.003111 -0.147253 -0.013839 -0.024127 -0.140619 -0.028285 -0.076703 -0.068946 -0.036981 0.050367 -0.06093 0.026797 -0.025492 -0.076887 -0.065142 0.008709 -0.087853 0.000233 -0.100801 -0.00117 0.10428 0.079492 -0.050697 0.034465 -0.021078 -0.169456 0.109224 0.118361 0.032679 -0.018616 -0.114551 0.115877 -0.016601 0.032217 0.013088 0.028723 0.063775 -0.002782 -0.042741 -0.071396 -0.059113 -0.00984 -0.04326 -0.061395 -0.201218 -0.088473 0.065958 -0.162852 -0.153937 -0.212039 0.025552 -0.08893 -0.000819 0.034526 0.002119 0.038478 0.077947 -0.010136 0.002879 -0.014873 0.015318 0.030387 -0.012505 -0.074294 -0.068107 0.041654 -0.120754 0.067394 0.025283
  -0.047925 0.087707 -0.049975 0.149619 -0.000587 0.104448 -0.047986 -0.087128 -0.031977 0.059763 0.181104 -0.014893 -0.007316 0.059979 -0.064701 -0.038985 0.069538 -0.080963 0.085239 0.022395 0.032585 -0.013597 0.043278 -0.149446 0.012481 -0.013401 -0.016392 -0.063786 -0.087889 -0.07379 -0.16542 -0.028556 -0.002359 0.041987 0.060615 -0.045344 0.124642 0.128259 -0.154703 -0.135868 0.015297 -0.050056 -0.093079 -0.129396 0.009973 0.002449 0.101046 -0.231368 -0.099471 -0.025383 0.03904 -0.040819 0.086034 -0.219358 -0.142321 -0.047756 -0.034841 -0.108255 -0.039228 -0.15918 -0.21505 -0.113435 0.045298 -0.091212 0.030235 -0.074994 0.005018 0.121377 0.066412 0.104865 0.218783 0.118324 0.02953 -0.064474 -0.052508 -0.068999 0.000506 0.013004 0.104314 0.102932 0.199092 -0.043534 -0.092396 0.028803 -0.055459 -0.105142 -0.009169 -0.101457 -0.134121 -0.134426 -0.004306 0.013424 0.04073 -0.12056 -0.01216 -0.098399 -0.054099 -0.169617 -0.128945 0.162245 -0.0904 0.141963 -0.151525 -0.077725 -0.059251 -0.151979 -0.106259 -0.105517 -0.066225 -0.070915 -0.035188 -0.145035 0.066703 0.05252 -0.20618 0.077797 -0.086852 -0.022759 -0.116698 0.108881 0.089234 0.001653 0.012857 -0.051675 -0.149856 -0.045502 0.021889 0.047615 0.014863 0.044226 -0.016796 -0.09743 -0.047369 -0.105732 -0.050989 0.003201 -0.005722 -0.210154 -0.018914 -0.041034 -0.106926 -0.180292 -0.012545 0.051825 -0.132631 -0.004721 0.036641 -0.068377 0.032203 0.176658 -0.022798 0.10822 0.119751 0.014977 -0.05941 -0.012372 -0.0194 -0.173549 -0.154305 -0.065504 -0.062298 -0.050834 0.041031 0.028487 0.058921 -0.063995 -0.086009 -0.078741 -0.012713 -0.093312 -0.122152 -0.05181 -0.033177 -0.046492 0.136385 0.125867 -0.02813 0.133116 0.055442 -0.172114 -0.053276 -0.058439 0.10624 -0.004795 -0.03871 -0.025142 0.063752 -0.080052 -0.001111 -0.060929 -0.021173 -0.021304 0.112807 -0.03758 -0.021668 -0.143986 0.128497 -0.07537 -0.099757 -0.123822
  0.028205 -0.032285 -0.019159 -0.258137 0.012263 -0.07766 0.024134 0.015267 0.011697 -0.072604 -0.005618 0.043644 0.071683 0.131544 -0.019988 -0.016565 0.084679 -0.019834 -0.008354 0.012932 0.131428 -0.00555 0.053628 -0.049384 -0.001254 0.016926 0.000784 -0.003811 -0.029105 0.042138 0.042242 -0.021223 -0.022305 -0.017755 -0.073832 0.068174 0.022643 0.028569 0.009888 -0.059385 -0.055977 0.011598 0.007981 -0.003139 0.019938 0.022467 -0.130022 -0.036228 0.035483 -0.052921 0.039537 0.138517 -0.064788 0.053061 0.035694 0.015188 -0.029237 -0.053072 0.064252 -0.053046 0.03522 -0.025831 0.006752 -0.029434 -0.03565 -0.027129 -0.08089 -0.030923 -0.212526 0.007639 0.042123 -0.133155 0.101673 0.041819 -0.075663 -0.014278 -0.084713 0.097648 -0.001781 0.083861 0.02745 0.064003 -0.0168 0.026167 -0.056644 -0.001753 -0.079379 -0.04338 -0.003499 0.001107 0.089113 -0.019149 -0.146172 0.003039 0.070204 0.020793 -0.036367 0.049882 -0.029691 -0.102872 -0.027683 -0.011593 0.035396 -0.042615 -0.001157 0.010777 -0.004914 0.023924 0.024306 -0.04519 0.089224 0.034259 0.000878 0.097472 -0.009748 -0.07817 -0.039 -0.082339 -0.058526 -0.119929 -0.035691 0.045539 -0.115793 -0.035251 0.049 -0.008708 0.034848 0.122362 -0.11282 -0.073302 -0.011155 -0.00856 -0.042788 0.045058 0.02565 0.044149 0.004255 0.028083 -0.006651 0.060387 -0.012879 0.016191 -0.024546 -0.121637 0.079811 -0.007558 0.000987 -0.014457 0.061936 -0.143443 -0.081186 -0.136649 -0.025312 -0.002327 -0.076056 0.039684 -0.033968 0.004392 0.08001 -0.064245 -0.078235 -0.102985 -0.100023 -0.061246 -0.03223 -0.053396 0.057903 0.151491 -0.028476 -0.111613 -0.10879 -0.029714 -0.087711 -0.008349 0.076245 -0.073383 0.023951 -0.040475 0.031509 -0.05971 0.230019 -0.050576 -0.031989 -0.005597 0.071084 -0.042956 -0.064923 -0.007185 0.054312 0.076051 -0.073753 0.108606 -0.070352 0.001116 -0.063101 0.044031 -0.018302 -0.026434 -0.011003 0.183704
  0.0432 -0.119497 -0.087917 -0.015637 0.03366 0.045774 -0.037207 0.022942 -0.010264 -0.024843 -0.082075 0.082762 0.037063 -0.13009 0.021257 0.02311 0.0397 0.043072 -0.055448 0.040546 -0.022603 0.060673 0.039887 -0.01666 -0.008218 -0.016593 -0.032708 0.098233 0.082884 -0.129807 -0.086867 0.024595 -0.036421 0.021227 -0.012167 0.051332 -0.040848 -0.037481 0.012293 -0.124889 -0.023821 -0.132023 0.017689 -0.01057 0.004225 -0.047949 -0.054738 -0.141472 0.025734 -0.097731 -0.011844 0.004001 -0.041944 -0.023487 -0.049175 0.030206 -0.033309 0.115086 -0.030752 0.036447 0.025391 0.107444 0.029384 0.004122 0.024909 0.004559 0.044182 -0.012422 0.011935 -0.017095 -0.169352 -0.077426 -0.05793 -0.036421 -0.004766 0.02099 0.048942 -0.032248 0.042221 -0.163643 0.092468 -0.054124 0.019204 0.032564 -0.020841 0.041288 -0.032894 -0.066235 0.008682 -0.02089 -0.040012 -0.006591 -0.12126 -0.056755 -0.012735 0.071662 -0.077262 -0.011485 0.036908 -0.019375 -0.023263 0.000632 -0.052629 0.013198 -0.060982 -0.031574 -0.014828 -0.031623 0.067341 -0.048267 0.061631 -0.03539 -0.013405 -0.025583 0.122317 0.00158 0.078484 0.065072 -0.016649 0.063197 0.004574 0.002983 -0.018942 0.03586 -0.060863 -0.015518 -0.014065 -0.018418 0.047676 0.053033 -0.019447 0.071473 0.031241 0.081993 -0.010987 -0.063843 0.047056 -0.072879 0.011956 -0.043002 0.081595 0.001499 0.010085 0.005613 -0.025639 -0.038446 0.043368 0.114617 0.006469 -0.000321 -0.01288 -0.047838 -0.06755 0.013008 0.064054 0.023891 0.054233 0.061303 -0.155872 0.002556 -0.013994 0.007126 0.056116 -0.040156 -0.000472 -0.001243 0.075214 0.094369 0.026359 -0.053639 -0.050903 -0.05824 0.02183 0.003431 0.033268 0.023705 -7.7e-05 0.197328 0.049278 -0.060538 0.015144 -0.127825 -0.042728 -0.007511 0.015785 -0.021219 -0.002361 0.008483 -0.002323 -0.015464 0.077055 -0.019761 -0.237828 0.038143 -0.131458 -0.041606 -9.4e-05 0.020884 -0.097785 -0.052842
  0.086679 0.042762 -0.021133 -0.050307 -0.006737 0.011401 -0.080777 -0.015786 -0.029664 0.049427 -0.033829 0.024535 -0.065337 0.067434 -0.127228 -0.000622 0.008524 0.065734 -0.098691 0.100539 -0.140416 -0.054077 0.034803 0.075027 -0.052258 0.018802 0.167375 0.023395 0.10405 0.027334 -0.04491 -0.034953 0.005781 0.023399 0.032914 -0.083211 -0.03241 -0.049769 -0.021698 -0.056913 -0.004242 0.036245 -0.002999 -0.031301 -0.02065 -0.019768 0.04946 -0.007528 0.074124 -0.064324 -0.044079 -0.027973 -0.012556 -0.007212 0.010298 0.019452 0.011687 -0.10348 -0.019767 0.102208 -0.141823 -0.02728 0.0162 0.034924 -0.036954 0.02912 -0.039807 -0.075396 -0.106498 0.005188 -0.065334 0.033243 0.049161 -0.009297 0.00725 0.129909 -0.13817 0.040657 0.089596 -0.024167 0.028208 0.003716 0.04081 -0.006795 0.036989 0.053304 -0.00532 0.242583 0.032356 0.032627 0.000492 -0.035766 0.129148 -0.035777 -0.041908 0.021104 -0.009998 -0.00981 0.104795 -0.05194 0.051092 0.032326 0.04216 0.001349 0.001784 0.012542 -0.027367 -0.017512 0.009716 0.025181 0.007465 0.021395 -0.009456 -0.062586 -0.137523 -0.111651 0.067969 -0.001173 -0.000126 0.034877 0.007841 0.007031 0.011586 0.006519 -0.087934 0.060447 0.006331 -0.031632 -0.011383 0.088761 0.017832 0.181025 -0.170718 0.010224 0.000435 0.056683 0.017573 0.029494 -0.004665 0.045645 -0.089444 -0.009461 -0.095283 0.0458 -0.007799 -0.050766 -0.048938 -0.022538 0.061547 0.00345 0.031216 -0.118909 -0.086356 0.021788 0.031912 -0.078019 -0.003858 0.010043 0.070738 0.048965 0.029297 -0.106873 -0.015175 -0.062865 0.055999 -0.019811 -0.064694 0.042897 0.005102 -0.093253 -0.020367 -0.024882 0.00096 -0.051484 -0.006534 -0.066309 -0.003992 0.133438 -0.000253 -0.005544 -0.1106 -0.060053 0.014944 -0.009996 0.025586 0.044491 0.066875 0.060993 -0.113599 0.020389 0.15916 0.122791 -0.043913 0.091751 -0.029191 0.062401 0.111988 0.015339 -0.023985 0.009465
  -0.014957 -0.086272 0.023162 0.102729 0.000494 0.029566 0.043413 -0.050964 -0.000555 0.003788 0.15589 -0.018197 -0.03304 0.144 0.01277 0.041073 0.021219 0.037685 0.05065 -0.067203 -0.011227 -0.044979 0.048546 -0.092197 0.028143 0.030629 0.009477 -0.001878 0.096263 0.031017 0.02196 0.014747 -0.035832 0.009007 0.015367 0.04632 -0.011257 0.017387 0.029168 -0.126933 -0.059525 0.052696 0.004839 -0.005634 0.004189 0.020855 -0.16343 0.059026 -0.006544 -0.041178 -0.001438 -0.00698 -0.011785 -0.034436 -0.081691 0.012694 -0.024459 -0.057538 -0.138352 -0.058052 -0.087107 0.045374 -0.075811 -0.0182 -0.042043 -0.071332 0.015897 -0.018418 -0.035998 0.02549 -0.036465 -0.105029 -0.082103 -0.010911 0.052186 -0.147259 0.047643 0.097512 0.081957 -0.081747 -0.078314 0.049616 0.03297 0.066234 -0.001235 -0.019372 -0.064708 -0.037242 0.03825 -0.050879 -0.099199 0.019031 0.023489 -0.041014 -0.060636 0.046023 0.022478 0.138969 0.037276 -0.140035 0.072685 0.060168 -0.151918 0.060221 0.014708 -0.005986 0.016882 -0.051928 -0.014996 0.035266 0.067243 0.015141 -0.013314 0.0015 -0.049075 0.030197 -0.074121 0.08228 0.086776 -0.072053 -0.054867 0.047211 0.033166 0.021266 0.109435 0.121093 0.008807 0.036726 0.022915 0.061337 0.039878 -0.0262 -0.001759 0.003647 0.018281 -0.016381 0.06218 -0.21041 -0.074929 0.039889 0.053556 -0.030347 -0.064107 0.018092 0.086203 -0.029869 -0.132966 -0.16886 0.043764 0.019593 -0.004178 -0.049957 -0.024841 -0.016444 0.07171 0.016804 -0.022797 -0.044952 0.12145 -0.027528 0.000282 -0.079067 0.028177 -0.020126 0.037726 -0.018297 0.016226 0.072844 0.020512 0.04852 -0.028551 0.071936 -0.008125 0.059726 -0.028476 0.034105 -0.044471 -0.022751 -0.096917 -0.037618 -0.00564 -0.028197 0.077504 -0.010192 -0.015458 -0.017432 -0.04439 0.035193 -0.012293 0.02026 0.087917 0.010183 -0.085643 0.030963 -0.122717 0.033999 0.006501 0.013216 -0.00242 0.004264
  0.015856 -0.019959 0.020289 0.037617 0.012494 0.060182 0.038633 -0.062687 -0.015021 -0.051315 0.07567 0.058197 -0.045945 -0.062099 0.01458 0.062904 -0.044008 -0.010736 0.103705 0.013637 -0.056374 -0.000451 -0.017151 0.03055 -0.009748 0.008755 0.099771 0.007339 0.000719 -0.106984 -0.022013 0.053002 -0.062566 0.024584 -0.004387 0.055901 0.02105 0.110456 0.034027 -0.042702 -0.006939 0.10376 -0.000159 -0.02969 -0.031444 0.012667 0.167826 -0.031087 0.06659 0.02385 -0.007549 0.035262 0.026357 -0.01832 -0.012833 -0.036391 0.064017 0.170142 -0.049164 -0.162327 -0.136033 -0.015299 -0.023299 -0.027426 0.031729 -0.045054 -0.044579 -0.01417 -0.097375 0.069441 -0.19763 -0.064693 -0.110101 -0.026697 0.057234 0.071736 -0.04786 -0.027385 -0.06582 -0.085348 0.044234 0.011932 -0.038723 0.044714 -0.007362 0.065945 -0.057768 -0.076239 -0.000671 0.036 -0.014393 -0.097122 0.065693 0.034642 -0.101767 -0.042522 -0.11836 -0.081378 -0.130319 -0.00653 -0.025478 0.006264 -2.3e-05 -0.068261 -0.028512 -0.000531 -0.027395 0.024246 0.031979 -0.036042 -0.080954 -0.046004 -0.017695 0.010404 -0.03296 0.002539 0.105754 0.055374 0.072703 -0.051791 0.015431 -0.006147 0.029488 0.043635 -0.020785 0.060155 0.001962 -0.047491 -0.025682 0.103901 0.003802 -0.033766 0.018477 0.039139 -0.012834 0.126295 -0.015365 0.019966 -0.050235 -0.058681 -0.064472 0.043463 -0.07724 -0.048606 -0.031754 -0.019929 0.065908 -0.044352 -0.086966 -0.010843 0.009041 0.012339 0.066034 0.00817 -0.024265 0.031141 0.053188 -0.067211 0.045778 -0.106672 0.072253 0.013501 0.024507 0.0273 0.022136 -0.004063 0.077881 0.099611 0.042394 -0.023802 0.015999 0.036953 -0.040782 -0.002304 0.098153 -0.028198 0.012713 -0.000134 -0.03396 -0.170011 0.014875 0.030789 -0.005043 0.028553 -0.021517 0.006368 -0.034504 -0.011731 -0.049501 0.026656 0.020613 -0.006113 0.016701 0.004904 0.073453 0.031499 -0.017028 0.05586 0.033425 0.051042
  0.014147 0.076448 0.016808 0.023702 -0.081386 0.033748 0.038617 0.04488 0.057188 -0.102861 -0.027896 -0.007603 0.014454 0.037567 -0.047819 -0.001198 0.012274 0.080214 -0.101829 -0.009309 0.065474 -0.016254 0.128356 -0.064589 0.050823 0.055954 0.049958 0.009909 0.109428 -0.000462 0.020379 0.019226 -0.020183 -0.033694 0.017664 -0.001297 0.00519 -0.001047 -0.065276 -0.260752 -0.015199 0.029385 -0.015393 -0.004586 -0.004648 -0.052823 -0.029212 -0.040673 0.001776 -0.183575 0.005226 0.012893 -0.031919 -0.107303 0.156541 0.003415 0.063655 -0.161832 -0.100753 -0.039803 -0.09642 -0.016311 0.022447 -0.047384 -0.027519 -0.030877 -0.061234 -0.049342 -0.141116 0.047165 -0.067173 -0.087847 0.060609 -0.019067 -0.00555 0.070775 0.065627 0.081999 0.021114 -0.033829 -0.030648 -0.030096 0.030504 -0.065431 0.001626 0.007106 -0.046378 -0.043934 0.005159 0.026473 0.010072 0.084069 0.001322 -0.006099 -0.061467 0.007467 -0.071826 -0.041604 0.136242 -0.052967 0.049995 -0.055443 0.036265 0.125825 0.056443 -0.029464 0.076437 -0.020783 0.067909 -0.065967 0.034018 -0.026017 0.055253 -0.216166 0.059564 0.027188 -0.018285 -0.041018 0.029226 -0.077147 0.006744 -0.016216 0.117677 -0.075973 0.04315 0.109724 0.051343 -0.106745 -0.088945 -0.028154 -0.003038 -0.027009 0.052016 0.022022 0.054392 0.091089 -0.006468 -0.155768 -0.03827 0.013566 -0.108971 0.016194 -0.005183 -0.043343 0.030263 -0.012247 0.00793 0.006142 -0.000925 -0.125189 -0.026336 0.034229 0.116103 -0.013753 0.00397 -0.080116 0.038261 -0.062116 0.020738 -0.02069 0.01981 0.035823 -0.037632 0.005282 0.033815 0.01942 0.036176 0.056503 0.039324 0.168705 -0.033698 -0.10434 -0.025835 -0.02847 0.036382 -0.126268 -0.032254 -0.069118 0.007846 -0.000808 -0.14221 -0.066353 -0.075139 0.008719 0.11106 -0.006804 0.022476 -0.011268 -0.03107 0.027479 -0.055028 -0.000928 -0.117219 -0.0593 -0.060814 0.003123 0.016602 0.01429 -0.026565 -0.085295
  0.109934 0.090784 0.072486 -0.032613 -0.001162 -0.002416 0.046174 0.036249 0.01684 -0.006212 0.015322 -0.002126 0.000457 -0.207696 -0.065318 -0.061256 0.011483 -0.027505 -0.058002 -0.068476 0.004857 0.007225 0.028984 -0.045182 -0.019396 -0.066038 0.021192 0.026611 -0.031287 0.039064 0.034487 0.031218 0.028352 0.009108 -0.017511 0.017412 -0.095403 3.4e-05 0.097792 0.034586 -0.030373 -0.00917 -0.047696 -0.142349 0.024944 0.020741 0.042266 0.070508 -0.027136 -0.029132 -0.000963 0.061839 -0.054652 -0.087998 0.00086 0.00668 0.017801 -0.007001 -0.113749 -0.045923 -0.013622 -0.006973 -0.029421 -0.051519 0.003046 -0.000107 0.035102 0.002825 -0.059541 -0.008419 -0.00011 -0.025049 0.058942 -0.080907 0.01351 0.016538 -0.12401 -0.017802 -0.005728 0.097684 -0.01812 -0.098239 -0.022204 -0.092852 -0.129455 0.020225 -0.012288 0.001061 0.152789 0.087679 -0.012921 -0.060029 -0.088929 -0.046486 0.018338 -0.022893 -0.038357 -0.096036 0.048311 0.035732 -0.015751 0.028205 -0.023302 0.010028 0.045797 0.097161 0.028641 0.005507 0.050649 0.042271 -0.021709 -0.00432 -0.016014 -0.141358 0.1389 -0.060591 -0.08039 -0.008523 -0.024916 -0.060612 0.001634 -0.002964 0.046059 0.071791 -0.033705 0.042673 -0.009922 0.010427 0.069539 -0.038745 0.065336 0.047791 -0.102915 0.112486 0.037382 -0.016692 -0.029578 0.109176 0.037839 0.018586 0.02936 0.037931 0.012599 0.027065 0.078849 0.018444 0.010489 0.061196 -0.176886 -0.0226 0.024403 0.075843 -0.072155 0.002424 -0.043064 -0.011341 -0.013774 0.097115 -0.182709 -0.048929 0.029225 0.011187 -0.00878 0.032032 -0.011234 -0.024885 0.03426 -0.033884 -0.009158 -0.057172 -0.019564 -0.166109 -0.073129 -0.048236 0.03893 -0.307076 0.045467 -0.013382 -0.106088 -0.00153 0.035348 0.027586 0.033499 -0.026702 -0.067349 0.035148 0.039856 0.048143 -0.023552 -0.001185 -0.039962 0.007693 -0.094607 -0.047682 0.026014 -0.032289 0.076289 0.010236 0.112879 -0.007249
  -0.033403 0.03531 0.034925 0.19912 0.002463 0.140843 0.067484 0.036326 -0.024366 0.083828 0.090552 -0.084094 0.025322 0.025819 0.090562 -0.016762 -0.09886 0.063112 0.102938 -0.070239 -0.076295 0.038545 0.011904 0.010005 -0.002518 0.040719 -0.073571 -0.012324 -0.065232 -0.114566 -0.007573 0.027565 -0.013274 -0.044154 0.061183 -0.052807 0.023312 0.021234 -0.016514 -0.009018 0.002522 0.045664 0.022653 -0.013168 -0.005249 -0.031091 0.071422 0.079917 -0.026129 -0.013952 -0.000218 0.001889 0.106447 -0.112572 -0.013479 0.015637 -0.009208 -0.04441 -0.10872 0.029028 -0.040741 0.066132 -0.028718 -0.038833 0.045182 0.017285 0.056274 0.026841 0.189821 -0.115257 0.068601 0.035236 -0.067933 0.02285 0.088914 0.070725 -0.022303 0.141278 0.044456 -0.002635 0.092346 -0.06791 -0.107025 0.024489 -0.072681 -0.025951 0.00297 -0.119204 -0.023485 -0.056788 -0.003205 0.015651 0.094535 0.010994 -0.051366 -0.062511 -0.066389 -0.028693 0.010688 0.151257 0.03659 -0.03634 0.076253 0.020034 0.086737 -0.083207 0.013713 -0.012895 0.003426 0.08475 0.012216 0.024823 0.038804 -0.081483 -0.041395 -0.026093 0.014355 0.051593 0.108371 0.076618 -0.035675 -0.003907 0.168966 -0.002415 0.093905 0.130126 0.017511 -0.225569 0.016339 0.02896 0.100351 -0.004429 0.174351 0.080122 -0.015445 0.003088 -0.082896 -0.148011 -0.037743 -0.005431 -0.049796 -0.036641 -0.022226 -0.131084 0.060878 0.025409 -0.01775 -0.048634 -0.055803 0.102106 0.020047 -0.053589 -0.038625 -0.041645 0.008347 0.031764 -0.00354 -0.084172 -0.22436 0.028642 -0.019555 0.077305 -0.084584 -0.033738 0.02445 0.03293 0.022599 -0.021014 0.085292 -0.219213 0.040917 0.004263 0.019419 0.142855 -0.07791 0.212043 0.001459 0.096894 -0.032172 -0.081372 0.060934 0.057175 0.060736 0.053428 -0.016215 -0.003104 -0.006508 0.037106 -0.051715 -0.008951 0.004023 -0.01461 0.022551 0.014863 0.041316 -0.05026 0.106619 0.057935 0.080058 -0.122683
  0.015171 -0.058917 0.020613 0.017081 -0.062707 0.049563 -0.020708 -0.001395 0.006406 -0.037618 -0.052831 0.029999 -0.015495 -0.31745 0.022767 -0.067161 -0.048193 -0.004083 0.044128 0.043206 -0.081319 -0.039506 0.02201 -0.034752 -0.034143 0.031086 -0.042059 -0.038828 -0.113619 -0.031588 0.05903 -0.011676 0.064182 0.013726 0.047884 -0.043423 -0.022621 0.064006 0.030485 -0.157726 0.027919 -0.03045 0.080379 -0.112426 0.034307 -0.056689 -0.044231 0.020417 -0.03478 -0.041458 -0.024762 0.007162 0.090637 0.078518 0.091147 -0.008876 0.058601 0.089342 -0.033864 0.023818 0.009964 -0.04684 0.025381 -0.062142 0.114664 -0.045668 0.034757 -0.028369 0.008113 -0.110229 -0.23072 -0.092859 -0.015881 0.013315 -0.071931 -0.003789 0.05485 0.020368 -0.008606 0.088881 -0.202807 0.071898 0.14907 0.042896 -0.080678 -0.019396 0.017865 -0.023458 -0.08275 0.088845 0.032226 0.026899 -0.079986 -0.0312 0.047975 0.015571 0.013623 -0.034274 -0.131789 -0.000982 0.090986 0.027018 -0.078022 0.09425 0.082564 0.074417 0.0293 -0.059766 0.031328 -0.054315 -0.092223 -0.068792 -0.040518 -0.169697 -0.085765 0.08042 0.125862 0.072326 -0.077883 -0.037015 -0.011049 0.000353 0.051961 0.060692 -0.071428 0.013569 0.016082 0.033543 0.060461 -0.112103 0.01298 0.02787 -0.105656 0.057112 0.027134 0.037961 -0.099506 0.02946 0.004953 0.048007 0.089657 0.033008 -0.014244 -0.072405 -0.032343 -0.012386 -0.026513 0.09087 0.025983 0.026671 -0.004768 -0.022551 0.035096 0.005606 -0.054294 0.028564 -0.007526 -0.112719 0.018375 0.103174 -0.0505 -0.037947 -0.029687 -0.063234 0.052173 0.000737 -0.090396 0.080068 0.078143 0.216881 0.029565 -0.049837 -0.073981 -0.203268 -0.106309 -0.235204 -0.01251 -0.017069 0.030295 -0.17608 -0.065856 -0.073844 -0.100874 -0.004996 -0.040817 -0.0181 0.033345 0.014291 -0.060885 -0.01162 0.054864 -0.207331 0.156784 -0.036679 -0.090736 0.034737 0.071601 0.042601 -0.10015 -0.209243
  0.055367 0.039449 -0.011829 0.01188 -0.012392 0.103179 -0.001436 -0.000138 -0.038288 0.072676 -0.167505 0.003647 0.033797 -0.148737 0.107876 0.03996 -0.096005 0.006067 0.023977 -0.057985 -0.095843 -0.018821 -0.064852 0.00146 -0.04378 0.032725 -0.037088 0.033607 0.05421 0.020911 -0.054239 0.003216 -0.039112 -0.080688 0.009092 -0.05764 -0.011481 -0.003219 -0.020403 -0.015123 -0.004264 0.082255 -0.018565 -0.03293 0.005055 -0.015828 -0.09893 0.027781 -0.05182 0.066876 0.0546 -0.030587 -0.016051 -0.04691 -0.107098 0.037987 0.020491 0.022001 0.033453 0.034571 -0.037494 0.126638 0.012781 -0.056046 0.041175 -0.040999 0.036087 -0.002679 0.134885 0.04953 -0.179186 -0.008665 -0.060743 0.029615 0.019583 0.047586 -0.156857 0.075853 0.038223 -0.17994 0.069759 0.095482 0.021261 0.050739 0.048276 0.017352 -0.101295 0.006051 -0.011218 0.001367 -0.009218 -0.112585 0.137269 -0.011548 -0.059084 0.011679 -0.027068 -0.151262 -0.146938 -0.086262 -0.044803 0.081472 0.016711 -0.062556 0.009078 0.015065 0.058792 -0.096365 0.084826 -0.162413 0.012369 -0.024189 -0.045912 -0.050781 0.000473 -0.121473 0.071067 0.07108 0.005153 -0.044188 -0.009616 -0.029594 -0.021456 0.029319 0.008268 -0.061563 0.006644 0.087414 0.019708 0.049827 0.05587 0.185015 0.063709 0.01367 -0.046177 -0.075922 0.070639 0.04233 0.020274 0.002507 0.015132 -0.051535 -0.044088 -0.021746 0.035256 -0.051481 0.00184 0.028581 0.041452 -0.036252 -0.003441 -0.023064 0.008219 0.032701 0.033006 0.005817 0.043299 -0.083676 -0.07343 -0.024937 0.01954 -0.086908 -0.097522 0.003386 0.013022 -0.002414 -0.033154 0.150647 -0.030709 0.07867 -0.001198 0.019837 0.022043 0.033013 0.009839 -0.077508 -0.019263 -0.016474 -0.003538 0.080174 0.096845 0.066238 -0.087456 -0.036967 0.03237 -0.011327 0.004409 0.048909 0.011692 0.02111 -0.075629 -0.006339 -0.037285 0.053251 0.024457 -0.039218 0.06603 -0.007969 -0.034708 -0.052783
  0.062724 -0.000183 -0.040167 -0.019434 -0.036766 -0.034501 -0.043716 -0.04161 0.008266 0.045759 -0.090469 0.011629 -0.002719 0.004274 -0.038367 -0.053392 -0.008457 0.036294 -0.023091 0.152254 -0.004923 0.001867 0.083591 -0.038852 -0.038693 0.038682 -0.14809 0.056856 -0.016214 -0.009339 -0.02264 -0.021793 -0.017034 -0.078228 -0.055187 0.022675 -0.026943 0.050823 0.039161 -0.137014 -0.024913 0.125133 0.018622 0.083171 0.002248 -0.037949 0.042443 0.016078 -0.042915 0.07634 0.003202 0.045637 0.031022 0.015119 0.030174 -0.031526 -0.089378 -0.12349 -0.062322 -0.032735 -0.109898 -0.065668 -0.05511 -0.037638 -0.003355 0.067869 -0.009558 0.019808 0.048095 -0.036716 -0.017637 0.0512 0.068402 0.047583 -0.008646 -0.019982 -0.028376 0.036387 0.04262 0.04931 0.059013 0.062746 0.009619 0.076715 -0.032052 -0.041542 -0.07734 -0.123709 0.013084 0.080575 -0.042101 -0.015778 -0.049668 -0.042891 0.057198 -0.028891 0.028555 -0.003148 -0.131488 0.102876 -0.016762 -0.040943 -0.175384 -0.000791 0.01789 0.03065 0.049459 0.049876 -0.011157 -0.079126 -0.025078 -0.020545 0.028255 0.012911 -0.018305 0.012109 -0.016238 -0.027117 0.025781 0.090208 -0.006747 -0.028109 0.084074 0.027761 -0.088437 -0.058255 -0.01581 -0.044728 -0.019508 0.072219 0.075015 -0.044244 -0.073026 -0.043863 0.029454 -0.002614 0.012682 -0.023029 0.001603 -0.013806 0.055323 -0.084643 0.029121 0.040077 -0.056161 -0.042518 0.013729 -0.020963 0.096782 0.048028 0.018446 0.036438 0.008004 -0.022054 0.096515 0.007604 0.023046 -0.036967 0.083035 0.076291 0.048963 0.058466 -0.060688 0.059813 -0.079999 0.026789 0.012403 0.098333 0.042879 -0.133724 -0.059066 -0.047727 -0.004668 -0.025482 0.079144 0.068115 -0.012326 -0.130072 0.152296 -0.021412 0.016761 0.059784 -0.056519 -0.01391 0.01508 -0.051461 -0.001644 0.051862 0.080345 -0.00639 0.068429 -0.023953 -0.02152 -0.032185 -0.085397 -0.012641 0.074067 0.020871 0.002153 -0.11801
  0.042989 -0.019958 0.021886 -0.120533 -0.076601 0.048371 -0.012334 0.015953 0.015161 -0.005106 -0.062674 -0.017936 -0.002946 -0.106482 -0.011592 -0.046335 0.008807 0.049852 -0.076255 0.060465 -0.167461 0.039985 -0.054377 0.013848 -0.049068 -0.008136 0.038078 -0.101514 0.060371 -0.024789 -0.087344 -0.043238 -0.00537 -0.099888 0.021173 0.047449 0.003828 0.01565 -0.029733 -0.046997 -0.004569 -0.026115 -0.124721 -0.001717 0.012317 -0.031321 0.062624 0.053525 0.027995 0.045437 0.000914 0.016033 0.017021 0.054506 0.002726 0.015519 -0.081018 -0.112182 -0.014198 0.030874 -0.254452 -0.027573 -0.038002 -0.005495 -0.016307 0.04621 -0.057854 0.046069 -0.07024 -0.085948 -0.036361 -0.011036 -0.152348 0.012471 0.015891 -0.055524 0.112328 0.051786 -0.050539 -0.052712 0.080249 -0.160901 -0.00168 0.034085 0.030442 -0.092125 0.003284 -0.095262 -0.003319 0.071603 0.038351 0.048645 0.026136 0.007637 0.000525 0.020305 0.006468 0.001394 0.10049 0.022535 0.041311 -0.081046 -0.304701 -0.040823 0.011512 -0.026702 0.022359 -0.060193 -0.032352 -0.001513 0.065198 0.016798 0.064626 -0.176113 -0.063615 -0.080303 0.086713 0.08267 0.017086 0.064757 -0.030679 0.011994 -0.005166 0.119727 0.007747 0.025326 -0.025077 -0.07831 -0.102698 0.063955 -0.001763 -0.055431 -0.102115 0.050734 0.035629 0.06637 0.008627 -0.132846 0.021875 -0.025502 0.043436 -0.088024 -0.002542 0.013489 -0.149174 -0.064587 -0.01396 0.08505 0.004887 0.163945 0.00676 -0.081302 -0.124348 0.024254 -0.009569 -0.104574 0.061867 0.013123 0.079066 -0.042966 0.054741 0.060838 0.068284 -0.039638 0.027695 0.006765 -0.003705 -0.023308 -0.031408 0.013841 0.012872 0.007148 0.039968 0.11856 -0.005095 0.195974 0.035442 -0.008536 -0.029817 0.00803 0.107766 -0.000811 0.124832 -0.020736 -0.001943 0.029354 0.001306 -0.02653 0.035969 0.015533 0.111747 0.018014 0.169323 -0.118344 -0.154982 0.031847 0.079221 0.006619 0.046993 0.039454
  -0.022817 -0.082202 0.016683 0.068439 0.058099 -0.03322 -0.049807 0.053901 -0.033717 -0.059064 0.199109 0.039229 0.047962 0.12073 0.107243 -0.027385 -0.003069 0.060715 0.010573 0.10008 0.007299 -0.10362 0.108892 -0.016985 -0.035536 -0.03673 -0.133227 -0.059983 0.013715 0.002751 0.026902 0.010125 0.018036 0.015154 0.126004 0.014754 0.030826 -0.035109 -0.208301 -0.120869 0.017162 0.109636 0.006916 -0.003053 -0.027127 -0.019546 0.118298 0.044724 -0.061906 -0.229304 0.00158 -0.014378 0.052809 0.094764 0.141875 0.045808 -0.077067 -0.058244 -0.097548 -0.141115 0.007385 0.065469 0.050253 0.009139 -0.067115 0.02118 0.111856 -0.04424 -0.098641 -0.042198 0.083148 -0.02715 0.041388 -0.059326 0.100189 0.085765 -0.039053 7.5e-05 -0.037107 -0.077472 0.097851 0.032018 0.029802 0.064747 -0.106652 -0.042193 0.045029 0.036432 -0.043898 0.01513 0.083194 -0.085777 0.009191 -0.111129 0.000876 0.081585 -0.039874 0.095788 0.049313 -0.093743 0.101429 -0.036477 0.023328 0.01248 -0.028808 0.045203 0.0615 0.041421 -0.025032 0.040989 -0.023054 0.037547 0.059498 -0.063069 -0.167925 0.039735 0.054045 -0.060663 0.023561 0.112592 0.015268 -0.030309 -0.092893 -0.01844 0.049673 0.009351 -0.000968 0.108847 -0.050148 0.15084 0.069096 0.060229 0.015319 -0.066148 0.025448 0.02256 0.022753 0.06985 -0.011718 -0.031847 -0.012583 -0.168004 -0.027702 -0.013723 0.067192 0.011969 0.009087 -0.061342 -0.095948 -0.055581 -0.056114 0.026004 -0.079689 0.027828 -0.025185 0.011563 0.066753 -0.040783 0.10792 -0.036837 0.038991 -0.019904 0.020888 0.087672 0.009807 -0.007678 0.07195 0.069389 0.10379 -0.129331 -0.019453 -0.022047 0.100008 -0.017293 0.036033 0.122653 -0.054159 -0.037332 -0.05364 -0.167857 -0.067602 0.006553 -0.063735 0.009012 0.080305 -0.017895 -0.075199 0.017178 0.005245 -0.054075 0.140213 -0.146901 0.06372 0.04692 -0.012291 0.012386 0.055126 0.004449 0.023979 0.009889
  0.044814 0.059415 -0.041944 -0.029878 -0.015678 -0.015815 -0.050711 0.053274 0.041088 0.049031 0.074619 0.015555 -0.001088 0.057534 -0.001102 -0.011503 0.052087 0.151917 -0.054193 -0.154209 0.070062 -0.063968 0.001974 -0.139985 0.025193 -0.095215 0.062847 -0.006418 0.093469 0.009213 -0.034892 -0.054658 -0.061789 0.027709 -0.032512 0.017883 -0.010516 -0.020209 0.105101 0.212352 -0.092515 -0.036193 -0.020497 0.047132 -0.017866 -0.002293 0.019354 0.051789 0.096185 -0.037466 0.105458 0.016749 0.017957 0.073451 -0.084891 0.002577 -0.013677 -0.097388 0.033355 -0.086949 -0.074031 -0.036235 0.037656 0.073326 -0.033395 -0.042534 -0.01783 -0.064924 -0.10029 -0.110974 0.007079 0.035545 -0.153982 -0.100716 -0.014038 0.04561 -0.033944 -0.035627 -0.011259 0.015039 0.06606 -0.020825 -0.117816 -0.026247 0.051385 -0.025369 -0.031888 0.059781 -0.028094 -0.055999 0.018102 0.097326 0.128622 0.146505 0.018465 0.045589 0.0144 -0.02081 0.132957 -0.078669 0.007613 -0.098701 0.044281 -0.16135 -0.038361 -0.013739 -0.002323 -0.019398 0.027593 -0.076344 -0.062172 -0.067845 0.082598 -0.012274 0.07541 0.03179 -0.032978 -0.028031 0.012653 0.043592 -0.033098 0.005707 -0.02064 -0.005994 -0.015816 -0.036491 0.077525 -0.126988 0.051138 -0.20899 0.002125 0.111577 0.118266 0.014329 -0.015392 -0.054779 -0.000364 0.049632 -0.007604 0.024677 0.044946 -0.084336 -0.02561 -0.187986 0.068596 -0.028753 -0.000385 0.039538 0.063744 0.04164 -0.035864 -0.018127 -0.050317 -0.039567 0.142785 -0.161478 -0.060824 -0.040891 -0.052916 0.067806 0.124544 -0.006394 0.105999 0.060545 -0.015687 -0.009803 0.017596 -0.083059 0.147366 -0.051286 0.018167 0.042548 0.087199 -0.07209 0.07175 0.06525 0.034589 -0.085935 -0.004787 -0.081997 -0.053469 -0.088276 0.133323 -0.03956 -0.022423 -0.019934 0.056647 -0.000928 0.044761 0.034295 0.158351 0.090949 0.079292 -0.127869 0.099704 -0.045495 0.010251 -0.017127 0.040063 0.018487
  0.022247 -0.020943 0.05753 -0.178334 0.081007 0.075964 0.06076 0.017303 -0.044184 -0.011537 0.122041 0.0081 -0.036574 0.071198 -0.05067 0.008413 0.050553 0.001215 0.052106 -0.093393 0.026932 -0.095551 -0.025454 0.052517 0.064661 -0.067601 -0.031756 0.00253 0.028014 -0.161344 -0.034637 -0.031694 0.041878 -0.038195 -0.044125 0.011772 -0.062626 0.072845 -0.096158 0.035036 0.008919 0.048877 0.040879 0.079252 0.001663 0.000688 0.071071 0.080977 0.114424 -0.145525 -0.022691 -0.006505 0.03998 -0.040029 0.049685 0.018345 -0.002815 0.171083 0.042371 -0.121834 0.038459 -0.033228 0.020523 -0.05988 0.007347 0.056 0.018956 -0.050063 -0.122644 -0.002019 -0.183567 0.055147 0.08009 -0.106645 -0.029402 -0.087448 -0.116186 0.147904 -0.022423 -0.004689 0.058328 0.079231 0.08859 -0.042473 -0.024331 0.00447 0.01979 -0.119643 0.138085 0.061089 -0.010352 -0.101086 0.092306 -0.053394 0.005497 -0.023807 0.036128 -0.008449 0.042649 -0.221052 0.004755 0.012523 0.1197 -0.076633 -0.041937 0.010322 0.005635 0.015213 -0.062046 -0.015587 0.019696 0.017129 -0.052711 0.142504 -0.067055 -0.145352 0.014735 0.093273 -0.049148 -0.021194 -0.027564 -0.031051 -0.022714 0.027056 0.107764 -0.033458 -0.000764 0.068671 -8.2e-05 0.009657 0.087177 -0.029544 -0.163402 0.053006 -0.060203 0.070634 -0.003836 0.010996 -0.019985 -0.004528 -0.033539 0.149531 0.035041 0.042564 0.030333 0.046685 -0.010308 0.011033 0.126343 -0.024926 -0.025327 0.074011 -0.114848 -0.068507 0.029428 0.026707 0.05599 -0.048948 -0.085629 -0.033073 -0.034658 -0.009135 0.015761 -0.035069 0.072095 -0.044903 -0.089245 0.077799 -0.105842 0.19399 0.054343 -0.065263 0.01217 -0.123768 0.084035 -0.011883 -0.027912 0.016445 -0.178152 -0.260541 -0.038209 0.079556 -0.072634 0.016449 -0.067694 -0.092325 0.07304 -0.035676 0.011112 0.083752 0.107342 0.088698 -0.131152 0.142555 0.017647 0.09316 0.006222 -0.085718 0.003875 0.036334
  0.089195 -0.135466 0.025295 -0.135244 0.040756 -0.011892 -0.041401 0.031082 0.060105 -0.022142 0.045794 0.05023 0.050363 0.154416 -0.11586 0.033639 0.005659 -0.010406 0.057201 -0.190341 -0.037232 -0.056126 -0.181584 -0.068945 0.0801 -0.075471 0.011684 -0.023529 0.1563 -0.160134 -0.016431 0.05274 0.015058 0.020795 0.016566 0.088908 -0.042787 -0.13509 -0.076596 -0.029329 0.046457 0.06186 -0.045961 0.020138 -0.035242 -0.00708 -0.004278 0.082467 0.09002 0.055691 -0.059237 0.032196 -0.031912 -0.023125 -0.247052 0.02201 0.070572 0.057683 0.077549 0.075716 -0.032029 0.155021 0.044413 0.033974 0.081194 0.063127 -0.044281 -0.001334 -0.094625 -0.082085 -0.169431 -0.093307 -0.275389 -5.7e-05 0.074867 -0.093117 -0.016757 0.18764 -0.099432 0.007046 -0.105867 -0.123539 -0.04318 0.038748 0.101854 0.001289 -0.007565 -0.1692 0.050015 -0.083838 -0.122479 0.002051 -0.122696 0.076084 0.014539 -0.069497 0.033046 -0.019665 0.014486 -0.09016 0.025124 0.175168 -0.073542 0.008842 0.119395 0.02064 -0.025921 -0.05066 -0.087386 -0.113237 -0.065468 0.09914 -0.033782 0.039562 0.101162 0.017584 0.015684 0.018632 -0.091888 0.05664 0.03619 -0.013058 -0.035676 -0.027154 -0.025724 0.118182 0.003172 -0.182223 -0.090386 -0.178897 0.12151 0.194133 -0.079542 -0.001137 -0.021015 0.044994 -0.042743 0.057412 -0.059213 0.070743 -0.04214 0.052358 0.107771 0.041816 0.095342 0.022869 0.01898 0.087181 -0.174365 0.16906 -0.060136 0.050982 0.029287 0.042463 -0.159647 -0.068942 0.036334 -0.09553 -0.020582 -0.036884 0.020907 0.027474 0.025862 -0.152022 -0.064444 -0.036452 0.028081 -5e-06 -0.073802 -0.004402 -0.044327 -0.085043 0.038875 0.024597 0.025691 0.008035 -0.032717 0.139492 0.104559 -0.045777 -0.177491 -0.071735 -0.046011 0.01901 -0.046899 0.04557 0.04117 -0.105172 -0.108071 0.063819 0.091484 -0.088014 0.04514 0.000129 -0.004062 -0.003717 0.010958 0.006108 -0.081503 0.14236
  0.085174 0.041447 -0.013153 -0.133696 0.105912 0.096437 -0.064547 -0.005891 -0.013591 0.07686 -0.151882 -0.095816 -0.014445 0.131661 -0.067222 0.042474 0.077586 0.038221 0.040011 -0.149473 0.041905 -0.02807 0.065847 0.017299 -0.027015 0.088214 -0.022376 0.045051 0.12966 -0.006738 0.054216 0.02303 0.001103 0.03902 -0.013473 -0.090734 -0.087849 0.125088 -0.10298 0.015144 -0.012871 -0.054359 0.00511 -0.141541 -0.012266 0.001582 -0.016778 0.057038 0.030491 -0.077994 -0.043564 -0.029109 -0.03116 -0.028751 0.019073 0.034627 0.042789 0.000637 0.00948 -0.040384 0.048174 -0.136181 -0.091108 -0.032849 0.090758 0.057968 0.012714 0.034083 0.126 -0.055816 -0.068079 -0.171399 0.200526 0.046463 0.053999 -0.061098 -0.126832 0.101954 0.043464 0.145236 -0.050994 -0.062328 0.072675 0.031042 -0.082215 -0.052199 0.010292 0.05777 -0.054419 -0.041275 -0.032494 -0.012001 0.111066 -0.056338 0.108532 -0.00532 0.030474 -0.117818 -0.129365 -0.238661 -0.000633 -0.036699 0.025256 -0.071081 0.006916 -0.008965 -0.018249 -0.031349 -0.029089 -0.148784 0.044129 -0.064224 -0.062043 -0.011759 0.073303 -0.037897 0.08183 0.138739 -0.020362 0.092239 0.053951 -0.032058 -0.067233 -0.060807 0.0839 -0.011397 -0.03428 -0.188498 -0.102488 -0.097958 0.018365 0.135951 -0.111502 0.012919 -0.052889 0.050526 0.016959 0.251094 0.012717 -0.074201 0.142826 -0.013069 0.03859 -0.040507 0.129048 -0.006653 -0.136726 0.03312 0.02149 -0.134346 -0.049106 -0.039231 -0.047859 0.026684 0.04938 -0.047811 -0.17032 -0.100514 -0.016917 0.08788 -0.010012 -0.02081 -0.013967 -0.037881 0.112645 0.028581 0.085414 0.077742 0.106287 0.099443 0.011343 -0.028774 -0.031467 -0.087564 -0.087914 0.101854 -0.036379 0.092384 0.006431 -0.145064 0.017567 0.137556 0.052288 0.05445 0.021379 -0.032961 -0.023351 -0.103836 -0.013462 0.043284 0.001849 0.00302 -0.143 0.085292 0.046887 0.071368 0.032136 -0.040663 -0.070859 0.114012
  -0.065472 0.081142 -0.039562 -0.03278 0.022993 -0.010559 -0.121645 -0.003382 0.014044 -0.029423 -0.207215 -0.045587 0.05031 0.269393 0.15716 -0.108554 -0.111245 0.069321 0.005226 -0.08815 0.062925 0.022094 -0.142656 0.05785 0.043428 0.06266 -0.097064 0.071702 0.025731 -0.146041 0.003457 0.05251 -0.048517 0.005187 -0.024042 0.040396 -0.011254 -0.167503 0.180733 -0.179306 -0.007159 -0.085569 0.019812 -0.137854 0.024433 -0.02598 0.068584 -0.056389 0.015272 -0.024409 -0.080579 0.001885 0.034401 -0.028493 -0.069888 0.0075 -0.019145 0.030531 0.00192 0.134574 -0.0209 0.222594 -0.008189 0.00502 -0.005746 0.112819 -0.06366 0.013173 0.045739 -0.094273 0.118268 -0.000539 -0.079343 -0.04897 0.15299 -0.111448 0.044318 0.074208 0.055891 0.006051 -0.195992 0.095173 -0.144802 -0.031226 0.019512 0.08145 0.025009 -0.17476 0.005809 -0.062158 -0.01822 0.053144 -0.197146 0.004377 0.004981 -0.115109 -0.055816 0.10867 -0.01601 0.025811 -0.027152 0.033108 0.080441 -0.050408 -0.014927 -0.039621 -0.025007 0.036429 0.008818 0.078741 0.04569 0.054782 0.004565 0.046087 -0.11657 -0.025198 0.030077 -0.106917 0.027578 0.070742 0.009561 -0.009542 -0.191707 -0.012286 -0.043403 -0.008856 0.037452 0.0894 0.019579 -0.016347 -0.004861 -0.192688 0.026342 0.014497 0.027223 0.018497 0.008082 0.105229 -0.052333 -0.034043 0.014454 0.138289 0.071163 -0.02643 -0.164675 -0.030182 0.035542 0.027026 -0.17994 0.085033 0.034178 -0.106784 0.001 0.026384 0.033473 -0.056012 -0.106121 0.064112 -0.061795 0.005597 0.049374 -0.038575 0.015305 -0.00278 0.008516 0.00152 0.048172 -0.089606 0.080212 0.006923 -0.035877 0.100845 0.059309 0.061756 0.04591 -0.106117 0.014002 0.071699 0.151035 0.015213 -0.019229 -0.003317 0.210161 0.014429 0.00669 0.021357 -0.009364 -0.039787 -0.008009 0.096165 0.019525 0.03999 0.047639 0.012162 -0.033482 -0.001655 -0.031218 0.003045 0.022129 0.02863
  0.022446 -0.044885 -0.02355 0.099251 0.020329 0.032093 0.024246 -0.099587 -0.000145 -0.049759 0.038212 0.013257 -0.000866 0.074722 0.149737 -0.016611 0.041193 0.127852 -0.021297 0.055342 0.02222 0.055172 -0.09701 0.09232 0.097744 -0.048643 0.021666 3e-05 -0.01942 -0.049368 0.034834 0.007764 -0.092217 0.003299 -0.015012 -0.011514 0.055792 -0.029116 0.204188 0.079743 0.028395 0.0145 0.09059 0.021715 -0.044805 0.020946 0.016314 -0.06171 0.004692 0.00726 0.108319 0.065786 -0.050269 -0.089646 -0.105206 0.016203 -0.092961 -0.045779 -0.052812 -0.229206 -0.070337 0.161253 0.000473 0.122474 -0.103074 0.095309 -0.037691 0.016887 0.104683 0.001503 0.075542 0.012709 -0.162994 0.0105 0.017906 -0.108931 -0.219454 -0.018842 -0.006413 -0.041052 -0.169182 0.011701 -0.017046 -0.071429 -0.097658 -0.002439 0.010099 -0.119251 0.004024 0.129399 0.012772 -0.012481 -0.119806 0.017865 -0.005761 0.031435 -0.02819 0.154399 -0.007838 -0.086837 -0.022942 -0.033139 0.064209 0.033685 -0.037638 0.035317 -0.078417 -0.132262 0.000612 -0.137465 0.023465 0.110823 0.018355 -0.053041 0.057491 -0.120609 -0.017013 0.113023 0.034255 -0.121527 0.011714 -0.029274 -0.032548 -0.049735 -0.056289 0.027204 -0.0874 0.085321 -0.043555 -0.299355 0.016116 0.036504 0.109463 -0.034967 0.018764 0.032245 0.054674 -0.1828 0.006629 0.078691 0.120322 0.111387 -0.026477 -0.097898 -0.060694 -0.082441 -0.003294 -0.013571 0.108267 0.056721 0.011743 -0.012624 0.00439 0.015906 0.107532 0.00614 0.064796 -0.0204 -0.096699 -0.089828 -0.040189 0.029136 -0.142498 -0.019884 -0.006464 -0.004805 0.052645 0.038465 0.174289 0.057287 -0.028545 -0.000253 0.017087 -0.160295 0.025198 0.148585 -0.045591 -0.235055 -0.149699 0.045702 -0.139766 -0.114875 0.040294 -0.037569 0.053715 0.041201 0.026064 -0.023975 -0.033808 0.02979 0.076801 -0.001502 -0.011865 0.082323 0.009709 -0.002204 -0.084724 0.006735 0.050052 0.156396
  -0.032127 -0.014069 -0.221486 0.012771 -0.565347 -0.025062 -0.003981 0.213154 -0.019958 -0.064716 -0.078533 0.25996 0.046794 -0.079398 -0.172274 -0.284128 0.025539 0.281525 -0.015156 -0.001292 -0.015547 0.214224 0.394377 0.094809 0.020388 -0.045364 0.132985 -0.05136 0.39663 -0.100627 0.017554 -0.170367 0.138697 -0.01265 -0.035212 -0.049505 -0.07603 -0.055768 -0.06149 -0.041877 -0.305339 -0.002 0.174363 0.145811 -0.292328 0.062962 0.07392 0.067287 0.351115 0.432051 0.162442 -0.217355 -0.035689 -0.057114 -0.056041 0.115524 0.209167 -0.032274 -0.143696 0.070418 -0.096029 0.224395 0.180005 0.240323 -0.378774 0.043864 -0.333724 -0.027122 0.03789 -0.06032 -0.028803 -0.010203 0.137173 0.173789 0.130287 0.022997 -0.077818 -0.006028 -0.003791 -0.018474 -0.070057 0.144028 -0.00554 -0.051669 0.358873 -0.451578 0.250424 0.016265 -0.482367 0.021921 -0.026037 0.004788 0.035911 -0.123352 0.065517 -0.032906 0.124783 0.068861 -0.403682 0.096474 -0.016766 -0.232325 -0.031475 0.039989 -0.176197 -0.019445 -0.005633 0.481039 -0.058498 -0.436485 -0.06033 0.036088 -0.006623 -0.014286 0.033802 -0.091665 0.021283 -0.048132 -0.025358 -0.024197 0.134275 0.152554 0.029298 0.005629 -0.055072 -0.014421 0.04819 -0.334601 0.001869 0.028416 0.010666 0.048298 -0.024891 0.00435 -0.022108 -0.037934 0.13197 0.044514 0.123479 0.188521 0.003131 -0.032886 -0.333171 -0.128496 0.705535 0.132371 -0.031858 0.050636 0.337188 0.037241 -0.248954 -0.060991 -0.029068 -0.311037 0.438747 -0.015747 -0.022484 0.004423 -0.124396 -0.02323 0.113093 -0.082391 -0.090387 -0.014112 -0.064265 0.099591 0.074385 -0.040933 0.520106 -0.001812 -0.307115 0.356886 0.116541 -0.033202 -0.080969 -0.022316 -0.132699 0.051734 0.074742 -0.018979 -0.069918 -0.318341 -0.031041 -0.256971 -0.048987 -0.204387 -0.036436 -0.049809 0.196551 0.015873 -0.086235 -0.041021 0.025452 -0.273969 -0.064686 -0.016305 0.003494 -0.023487 -0.265245 -0.003867
  -0.062843 -0.065598 -0.234884 0.010346 0.264875 -0.001432 -0.033041 -0.132509 -0.043511 0.051562 0.02152 0.153538 0.065678 -0.07891 0.215059 -0.418259 0.002762 0.240283 0.0102 -0.032152 -0.046916 0.075748 0.235713 -0.308688 -0.070257 -0.079544 0.243093 -0.041754 -0.346433 -0.021596 0.005055 0.145242 0.15929 0.011272 -0.025808 -0.08167 -0.056096 0.05189 -0.068693 0.053802 -0.211044 0.046317 0.181292 0.413317 0.034643 0.216924 -0.04131 0.115506 -0.275943 0.309413 -0.263743 -0.032132 0.015646 0.051467 0.023194 0.081779 -0.159954 -0.036231 -0.289653 -0.031478 -0.057619 0.511662 0.172359 -0.337536 -0.532519 0.033942 -0.20988 0.031935 0.003798 -0.594503 -0.077703 0.006088 -0.150237 -0.095285 -0.080156 0.025832 -0.023799 -0.000767 -0.023322 0.330953 0.024593 -0.22469 0.019288 0.032456 0.343834 0.147563 -0.061748 0.016046 0.389267 -0.009751 -0.297742 -0.038441 0.050523 -0.029401 -0.169427 0.002089 0.091445 -0.089603 -0.112661 0.034135 -0.007066 0.229073 0.000713 0.011623 -0.499635 -0.000361 -0.01297 0.13956 -0.007517 0.04449 -0.089631 -0.039743 0.0821 0.004923 0.023452 -0.054628 -0.018911 -0.001525 0.186368 0.006625 -0.195801 0.180952 -0.01658 -0.041962 0.040517 0.022019 -0.18309 0.571812 0.005387 0.046387 0.113577 -0.05824 0.074151 0.086673 -0.042225 0.087537 0.19766 -0.041252 0.147966 -0.145968 -0.021092 -0.065379 0.286984 0.07998 0.355316 0.132248 -0.047414 -0.02572 0.049294 -0.02906 0.006055 -0.078285 0.01585 0.143527 0.38647 -0.223865 -0.014517 -0.122394 -0.065013 -0.044228 -0.080056 0.191049 -0.235314 0.220052 0.016727 -0.097942 0.214407 -0.108906 -0.512142 -0.043147 -0.003078 -0.045489 0.102118 -0.033495 -0.043835 0.110856 0.060475 -0.047449 0.001173 0.012225 0.039241 -0.273055 0.049508 -0.107896 -0.017427 0.06112 -0.00785 -0.007486 0.123131 0.005274 0.010714 -0.04614 0.489192 -0.292236 0.020083 0.01926 -0.115516 -0.081242 -0.151801 -0.019637
  0.028888 0.008154 0.13508 -0.131186 -0.383427 0.009009 -0.042004 -0.035784 -0.013199 -0.029266 0.06273 -0.393814 -0.187267 -0.090881 0.142707 -0.392569 0.002268 0.10096 0.004905 -0.016256 -0.024807 0.186783 0.356361 -0.121705 -0.039362 -0.030271 0.118589 0.000441 0.258289 0.023203 -0.031753 0.077071 -0.289883 -0.003635 -0.023532 0.02664 -0.063164 0.025487 -0.002642 0.089349 0.137792 -0.037721 0.281197 -0.419093 -0.349689 0.199006 -0.037622 0.100344 0.17294 -0.190351 0.231581 -0.091986 -0.03287 0.035828 -0.057039 0.071292 0.006497 -0.003385 0.290099 0.126719 -0.035064 0.101913 0.213962 -0.070218 -0.297246 -0.039737 0.020322 0.155106 -0.0368 0.067876 -0.073305 -0.046298 0.072633 0.008901 -0.254476 0.062457 0.127675 0.02964 -0.032249 0.425509 -0.085703 0.250944 -0.053798 -0.069312 0.196579 0.223522 -0.085998 -0.026735 0.25882 -0.017884 -0.348987 -0.003932 -0.009633 -0.036726 0.115403 -0.004885 0.192913 -0.082882 -0.159969 0.017282 0.005037 -0.36235 -0.073836 -0.10134 0.13029 0.045201 -0.020742 0.184741 0.01021 0.101798 0.00419 -0.059976 0.164802 -0.013668 -0.027133 -0.026972 0.053114 0.042311 -0.106406 0.044481 0.052174 -0.00375 -0.046855 -0.03043 -0.144353 0.01974 0.128412 0.315882 0.098674 -0.081544 0.036924 -0.06805 0.101065 0.028846 -0.048238 -0.006782 -0.376233 0.118983 -0.053368 0.126869 0.073638 -0.06631 0.233369 0.019225 -0.395571 -0.140004 -0.007663 -0.010875 -0.100056 0.031045 0.0372 -0.027618 -0.065609 -0.361495 0.108095 0.152377 -0.012022 -0.038896 0.026728 -0.024138 0.125473 0.008191 -0.235286 -0.185762 -0.026635 0.070992 0.321427 -0.002583 0.323476 -0.030724 0.120941 0.163807 0.018835 -0.032922 0.01561 0.045239 -0.427186 -0.000297 0.064145 -0.04904 0.03076 0.107465 -0.040307 0.06614 -0.050836 0.009644 -0.003553 0.017098 -0.362478 -0.015951 0.019921 0.027389 0.620013 0.256166 -0.035553 -0.039614 -0.103139 -0.077099 0.291708 0.027113
  0.015599 0.024851 0.100204 -0.151846 -0.145323 -0.003811 -0.115902 0.124694 -0.041713 -0.049456 0.094348 -0.125397 -0.027944 0.0837 0.188669 0.033851 -0.059393 -0.078268 0.082016 -0.012637 -0.126827 -0.019166 -0.097322 0.02606 -0.00184 0.042918 0.013233 -0.022135 0.259994 -0.112037 0.012154 0.059719 0.019788 -0.000463 0.011137 0.029494 0.012939 -0.020793 -0.001556 0.105335 0.137384 -0.034325 0.079159 0.186803 0.011444 0.071813 0.046364 0.107759 0.109439 -0.326354 0.140094 0.055878 0.016737 -0.047058 -0.123815 -0.227669 -0.033667 -0.100491 0.338821 0.007217 -0.119759 -0.151527 -0.081969 -0.105625 -0.364972 0.002354 0.103358 -0.117706 -0.116642 -0.017663 -0.084026 0.021001 0.544225 -0.02097 0.026677 0.087477 0.121946 -0.03287 -0.046072 -0.098049 -0.070389 0.13599 0.018891 -0.036044 0.245112 -0.130064 0.135143 0.007126 0.199679 -0.046276 0.166735 0.052329 -0.026838 0.067093 -0.130465 -0.024074 -0.191323 -0.077448 0.442995 0.085141 -0.027864 0.071441 0.020065 -0.070177 -0.260244 0.023367 -0.005766 -0.141294 -0.019796 0.206873 0.002734 9e-05 -0.026448 0.029627 -0.021046 0.009155 0.007831 -0.019534 0.001917 -0.019456 -0.040289 0.004299 0.006223 0.0423 0.013186 0.09782 -0.165575 0.4403 0.015538 -0.185397 0.08809 0.049644 0.078944 0.030806 -0.015002 0.050232 -0.010594 0.073068 0.093298 -0.050116 0.03492 0.154106 -0.001464 0.113628 0.006752 -0.10695 0.014611 -0.038235 0.263944 0.106068 0.006114 -0.048531 -0.063874 -0.07706 -0.005112 0.088245 -0.056004 -0.002214 -0.050035 -0.032444 -0.233362 -0.009508 0.234209 0.150118 0.01193 -0.019899 -0.093746 0.067378 0.036639 0.019987 0.139866 -0.210488 -0.145498 -0.114522 -0.046496 0.138657 0.123123 0.07807 -0.009521 -0.035134 0.027841 0.276559 0.044966 0.014969 -0.061086 -0.273638 0.026308 -0.024979 0.134986 0.011063 0.07061 -0.000915 0.354632 0.175545 -0.073071 -0.000531 -0.00955 0.039317 -0.207619 0.185931
  0.045587 0.030129 0.254855 -0.091262 -0.045088 0.010451 -0.019371 -0.242143 -0.048463 -0.009664 -0.057054 0.127721 0.070181 0.006102 -0.07678 -0.478647 0.033338 0.092831 0.064757 -0.031281 -0.081474 -0.426957 0.011409 -0.384068 -0.038728 0.022412 0.165316 -0.044029 -0.184074 -0.03525 -0.083643 -0.174844 0.179436 0.032851 -0.040296 -0.022917 -0.016212 0.007125 -0.062775 0.084616 0.017783 -0.019312 0.202494 -0.125077 0.088974 -0.044395 0.021774 -0.082906 0.260145 -0.120391 -0.208663 -0.069986 0.063626 0.003562 -0.062041 0.004377 0.118845 -0.031127 0.166126 0.048682 -0.048557 0.050939 0.036227 -0.002295 0.072154 0.006071 0.151726 -0.150214 -0.062313 -0.171275 -0.03392 0.041522 -0.237199 0.186498 -0.055302 -0.07114 0.009623 -0.074994 -0.037275 0.049774 0.00131 -0.253056 -0.039781 -0.004857 0.116202 -0.260848 0.25719 -0.010612 0.372414 -0.018071 0.038387 0.012898 0.123377 0.247264 0.151777 -0.016839 0.002287 0.092095 0.536148 -0.08595 -0.065467 0.14266 -0.01531 -0.02663 0.091799 0.049091 -0.024984 0.004454 -0.004683 0.263941 0.016167 0.042932 0.090633 0.160077 -0.097252 -0.068119 -0.031509 0.0179 0.020646 -0.018124 0.038575 0.027881 -0.07285 0.037787 0.01141 -0.059395 0.003742 0.289337 0.011876 -0.035496 -0.001329 -0.101114 0.012786 -0.087681 -0.071448 0.011302 0.182134 0.005282 0.043134 0.15244 -0.116366 0.099748 0.085462 0.174868 0.08138 0.144022 -0.020898 0.015952 0.123337 0.096635 -0.01871 -0.037205 -0.046062 -0.379988 0.042566 0.160251 -0.052026 0.063601 -0.058458 -0.042596 0.228562 -0.497781 -0.348866 -0.119825 0.074372 0.003641 -0.283885 -0.014945 -0.566792 0.042811 -0.056209 -0.106016 0.126637 -0.117157 0.027745 0.088128 -0.107688 0.029923 0.007346 -0.116984 -0.089082 -0.249044 -0.063729 0.037607 -0.016467 0.128221 0.052446 -0.051488 0.074397 0.003032 0.020018 0.030784 -0.073598 0.219391 -0.016135 0.026777 0.062451 0.02599 0.087728 0.016781
  0.034048 -0.015003 0.109868 -0.051719 0.045756 0.021061 -0.008516 0.188593 0.008781 -0.037904 0.033644 -0.068222 0.177324 -0.061314 0.024738 -0.001695 0.003559 0.292976 0.027586 -0.015031 -0.053598 0.266452 -0.150182 0.118103 0.016508 -0.074987 0.098034 -0.02744 -0.081756 0.021974 0.039782 0.038346 0.05638 0.023053 0.046636 -0.047079 -0.063043 0.035736 0.002897 0.023224 -0.226003 0.108165 0.303597 -0.203632 0.125726 -0.307033 -0.042419 0.18104 0.232448 0.033589 -0.063439 0.090815 0.025399 -0.029007 -0.027101 0.085329 0.13199 0.003736 0.427678 0.04398 -0.048455 -0.327117 -0.129756 -0.342723 0.047379 0.016379 -0.442567 0.042597 -0.031374 -0.125296 -0.050275 -0.067748 -0.091595 0.173133 -0.030989 -0.073118 -0.027691 -0.031073 -0.057176 0.141649 -0.077218 0.268177 -0.060175 -0.038894 0.188419 0.1973 0.227015 -0.042834 0.269094 0.03253 0.071253 -0.0793 -0.023596 0.011546 0.231385 -0.02991 -0.226584 -0.062898 -0.216408 0.057038 -0.070815 -0.007794 -0.039134 0.064788 -0.357739 0.010501 -0.01296 0.219049 0.021783 0.222114 0.011614 -0.061695 0.030278 -0.014556 -0.050302 0.013201 -0.023685 0.004875 -0.135362 0.029007 -0.129108 -0.237125 -0.001424 -0.080391 0.020023 0.109449 0.055436 -0.20436 -0.020511 -0.126511 0.04787 0.051476 -0.020874 -0.019331 -0.031199 -0.008196 0.205572 -0.099668 -0.277147 0.167275 -0.000837 0.05705 -0.253972 0.201218 0.079064 -0.137551 0.055964 -0.029481 0.145471 0.035637 -0.0426 0.034818 0.000251 0.120476 -0.250713 0.097361 -0.035924 0.011592 -0.077577 -0.030197 0.291046 -0.236474 0.032114 -0.093224 0.002889 0.132996 0.063008 -0.025245 -0.442683 -0.124375 0.067797 0.307793 -0.263346 -0.093581 0.018438 0.094412 -0.2803 -0.017109 0.022449 0.024847 0.036044 0.370615 0.044979 0.014689 -0.058589 -0.32788 0.000801 -0.016898 0.043548 0.02215 -0.011765 -0.009607 -0.427826 0.115573 -0.036086 -0.014573 -0.017023 0.062601 -0.046355 -0.114852
  -0.00857 0.027532 0.04485 0.125457 -0.097044 -0.043759 0.037144 -0.003243 0.015211 -0.022716 -0.042989 0.002489 -0.042083 0.061685 0.032048 -0.076265 0.092268 -0.026113 0.021081 -0.156799 0.081379 -0.074915 0.030474 0.018339 0.039289 -0.00349 -0.124833 0.006702 -0.023103 -0.016062 0.015556 -0.03523 0.015999 0.142993 -0.035566 -0.063793 -0.058947 0.052196 -0.179232 -0.046665 0.03891 0.020055 0.047169 -0.087632 -0.009659 -0.001742 0.042259 -0.079308 -0.166701 0.061749 -0.045842 -0.012748 0.000573 0.018355 -0.12555 -0.000633 -0.00037 0.037291 0.074718 -0.071645 0.048753 -0.075871 0.108047 -0.001429 0.017028 -0.009145 0.029148 -0.002253 0.061579 -0.020142 0.073316 -0.039653 0.049633 0.030675 -0.048297 -0.05253 -0.166281 -0.032504 -0.008314 -0.070735 -0.023468 0.093773 0.011784 -0.011009 0.03995 -0.012352 0.029584 0.17969 0.070207 -0.001928 0.037647 0.031639 -0.131122 0.03636 0.029971 -0.049294 0.027454 0.077582 -0.057081 0.043556 0.042802 -0.016282 0.096249 -0.00396 0.067517 0.022509 -0.023677 -0.089095 -0.021738 0.119299 -0.019528 0.043417 -0.030281 -0.113813 -0.013791 0.070675 0.06664 -0.036396 -0.039181 0.067777 0.005624 0.005628 0.067701 0.02318 0.02226 0.023245 0.022317 -0.068225 0.00642 -0.12655 0.057892 -0.148199 0.119841 0.011475 -0.004665 -0.077112 0.075767 0.085021 0.017703 0.02119 0.005744 0.05202 0.034194 0.037785 -0.073651 -0.092934 0.021087 -0.079141 0.009161 -0.063077 0.009517 -0.102913 0.089733 0.005595 -0.055664 -0.047264 -0.092702 -0.000445 0.172888 -0.08914 -0.012712 0.071029 -0.045408 -0.01093 0.060797 0.025153 0.083037 -0.079272 -0.10988 -0.061893 0.016506 0.063728 0.027558 0.133063 0.018893 -0.019543 -0.042479 0.008396 -0.063439 0.032599 -0.094364 -0.015974 0.038506 -0.015529 0.011556 -0.012899 0.039159 -0.014154 -0.017442 -0.040906 0.074896 0.038436 0.114258 -0.01691 -0.044772 0.010865 -0.126803 0.106041 -0.079402 0.201173
  -0.030041 -0.030557 -0.036091 0.061312 0.029578 0.004505 0.069108 0.046388 -0.000899 -0.031615 -0.185872 -0.111513 -0.043587 0.009988 0.134505 -0.009115 0.017355 -0.004988 0.009579 0.097707 -0.008775 0.057357 0.023538 0.038795 0.012578 0.004727 0.0243 -0.07009 -0.147891 0.111221 -0.026746 0.031823 0.022295 0.018148 -0.007259 -0.022101 -0.004201 -0.025723 0.082639 -0.001856 -0.03599 -0.031764 0.00944 0.021071 -0.002033 0.026666 0.007825 0.034518 -0.109408 -0.037735 0.008937 0.029424 0.024964 0.02014 -0.002275 0.017116 0.042966 -0.039659 0.039671 -0.016978 -0.213464 -0.121274 -0.04367 0.058928 0.04139 0.025933 -0.006744 0.054795 -0.02314 0.000728 -0.038877 0.156342 0.008326 -0.036885 -0.048089 0.005479 -0.083884 -0.002422 0.137938 0.04463 -0.076273 -0.013736 -0.069368 -0.030582 0.063916 0.02976 0.066539 -0.005217 -0.003741 0.027756 0.024009 0.019731 -0.017021 0.091673 -0.059116 -0.002835 0.06008 0.068808 0.066922 0.095178 0.045274 0.03667 -0.056152 0.047622 0.019401 -0.04324 -0.015577 0.058143 0.031097 0.0269 0.103899 0.046205 0.002245 0.031882 -0.04937 -0.011904 0.064691 -0.019152 -0.034737 0.017853 -0.039854 -0.018595 -0.060359 0.001966 -0.051323 -0.106261 0.049131 -0.059834 -0.044041 -0.070326 0.016781 0.105852 0.182627 0.002711 -0.050253 0.025654 -0.029913 0.015783 0.066613 0.000935 0.022601 -0.023876 -0.123678 0.058681 -0.133782 0.025969 0.00053 -0.01058 -0.04555 -0.011108 0.009375 -0.126529 0.045454 0.004985 0.136776 0.028211 0.068971 -0.029278 0.007418 -0.007909 0.058926 -0.027882 -0.057085 0.018903 0.007063 0.017145 -0.039607 -0.090257 -0.054566 -0.156695 -0.028077 0.024624 0.021117 0.018155 0.0484 0.108848 0.022731 -0.087971 -0.044555 0.061905 -0.097537 -0.04315 0.005952 -0.05782 0.050047 0.005626 0.137542 -0.024328 -0.086362 -0.030817 -0.024874 0.055941 -0.029148 -0.088354 0.032217 -0.011188 -0.119843 0.041129 0.016902 0.059096
  0.065971 -0.083053 -0.08917 0.031504 -0.132645 0.008617 -0.06298 0.020852 -0.023085 0.016499 -0.045366 -0.104753 0.033591 -0.154111 0.085813 0.040408 0.078366 -0.050786 -0.015251 0.095423 -0.040524 0.050391 -0.010302 -0.040115 0.006801 0.035509 -0.101542 -0.064297 -0.058015 -0.041455 0.027045 -0.03111 0.024406 0.014631 -0.006893 0.003974 -0.020369 0.013625 -0.161519 -0.009886 0.032429 0.048721 0.006263 0.03023 0.008816 -0.01122 0.059424 -0.082835 -0.154794 -0.05814 -0.039438 0.01436 0.010832 -0.030244 0.046413 -0.039627 0.067031 0.079441 0.075712 0.003476 -0.049504 -0.143084 -0.077161 -0.015937 0.002411 0.032909 0.026947 0.041316 -0.03156 -0.001997 -0.018794 0.028002 -0.040402 0.019677 -0.040258 0.062503 -0.076166 0.014447 -0.066258 0.009539 0.026331 0.003054 -0.018084 0.076051 0.005425 0.052808 0.061726 0.08121 -0.121648 0.091625 0.028736 -0.027638 0.049993 0.106249 -0.006177 0.022325 -0.007568 0.010392 -0.066897 0.083653 0.013897 -0.075482 -0.035496 -0.028262 0.059967 0.004885 -0.04331 -0.104641 0.057284 0.080117 -0.12714 0.034684 -0.00339 0.051253 0.131913 -0.036427 -0.037894 -0.006845 -0.007243 0.050732 -0.057856 0.040651 -0.081241 0.090513 0.038269 -0.150809 0.071005 -0.052474 0.06278 0.005042 -0.04894 0.051326 0.143014 0.00061 0.024028 -0.035191 -0.058665 -0.106265 0.022178 0.007446 -0.041921 -0.131622 0.004224 0.028232 -0.182848 -0.00837 0.010984 0.041114 0.016531 -0.190966 0.023654 0.008551 -0.069508 0.001357 -0.011708 -0.045905 0.049066 0.050543 -0.062085 -0.026345 -0.010908 -0.058523 -0.060684 0.007007 0.105838 0.00077 -0.031789 0.08 0.014419 0.03562 0.061112 0.056523 0.041565 -0.017192 -0.06173 -0.0126 0.005326 -0.010966 -0.127622 0.091519 -0.046134 0.068066 -0.021086 -0.006325 0.000993 -0.001938 0.049629 0.035241 -0.070621 -0.022228 0.003054 0.057803 0.037328 -0.043935 -0.000958 0.106293 -0.10951 -0.007673 0.088683 -0.104004
  0.07862 0.04927 0.029886 0.060999 -0.052299 0.044673 0.059835 -0.015195 0.019489 0.035988 -0.134553 -0.004286 -0.011739 0.149358 -0.002515 0.044488 0.0288 0.043526 -0.024729 -0.006183 -0.034764 0.063365 0.068424 0.013083 -0.009871 0.09039 -0.089981 -0.007215 0.121072 0.008267 0.016006 -0.00767 0.044814 0.059373 0.019472 -0.031961 0.029004 -0.09655 -0.054019 0.053215 0.012717 -0.160245 -0.007414 0.042281 0.008792 0.041335 -0.036286 0.049776 -0.112235 -0.059643 0.026062 -0.048506 -0.008387 -0.038535 0.061215 0.016622 -0.007692 -0.071271 0.012486 0.113187 -0.038602 -0.009024 0.009694 -0.012647 0.006259 -0.007795 -0.058548 -0.009715 -0.011661 -0.021286 0.037338 -0.051752 0.014215 -0.024336 -0.006735 -0.077225 -0.119578 0.10457 0.034568 -0.020642 0.043181 0.017443 0.001869 0.035047 -0.001096 -0.024654 -0.042774 -0.084646 0.005251 0.005319 -0.004032 0.068686 0.139932 0.038708 0.016165 0.03514 0.022298 -0.050802 -0.051684 -0.082328 0.023955 -0.094085 -0.051456 -0.072996 0.04268 0.02436 -0.024104 -0.03008 -0.025648 0.112357 0.070165 0.057025 -0.08399 -0.018082 0.139959 -0.01803 0.049236 0.023972 -0.011269 0.026124 0.042279 0.00131 -0.05163 -0.014342 0.029511 -0.013922 0.023234 -0.132697 0.013204 0.107014 0.065992 -0.020551 -0.111846 0.079492 -0.011776 0.032963 0.018346 0.049198 -0.041658 -0.089371 0.058324 -0.056025 0.02778 0.019352 -0.089537 0.021453 0.001984 -0.010546 -0.027648 -0.137565 -0.037036 0.098013 -0.16974 0.012949 0.032055 -0.04101 -0.031828 -0.0062 -0.116001 0.055013 -0.049116 0.057769 0.028666 -0.027104 -0.04503 -0.013456 0.144388 -0.135859 -0.134887 -0.096647 0.04645 0.010189 0.035362 0.070628 0.016487 -0.05075 -0.036817 -0.158863 -0.116541 -0.053162 -0.076627 -0.012141 0.044522 -0.038982 0.018155 -0.032668 0.007428 0.023928 -0.072392 -0.041621 -0.026196 -0.01704 0.124201 -0.070927 0.025968 0.018077 -0.004997 0.037815 -0.104339 -0.099951
  0.029747 0.086818 -0.059899 0.100126 -0.064484 0.036547 -0.043828 0.005624 0.050012 -0.003962 0.085562 0.095358 0.002518 -0.087179 0.055036 0.016228 -0.01123 -0.031163 -0.04068 -0.148549 0.012657 0.086902 0.038553 0.121036 0.011591 -0.050811 -0.040404 0.016507 0.008578 0.001314 0.037115 0.033177 0.017037 -0.004247 0.029223 0.000258 -0.093554 -0.009746 -0.088517 -0.034714 0.036913 0.021861 0.045538 -0.018698 0.00898 0.020417 -0.005869 -0.002862 -0.03448 0.00898 -0.075632 -0.009161 0.060198 0.04844 -0.153585 0.027846 -0.014212 -0.04477 0.029393 -0.029593 0.05108 -0.05269 -0.040976 0.015953 -0.007943 -0.029779 -0.076698 -0.016987 0.097325 0.031541 -0.176108 -0.012725 0.127581 -0.014178 0.029031 -0.088048 0.058274 -0.069759 0.013666 0.033901 0.029284 0.012005 0.10421 0.005881 0.024863 -0.039567 0.060778 0.009867 -0.156021 -0.085346 0.019491 0.103473 0.107668 0.014163 0.044393 -0.022153 -0.072708 -0.114697 0.014671 -0.047605 0.079202 -0.010309 0.055381 0.024782 -0.018165 0.073163 0.032938 -0.083712 -0.023112 0.031574 -0.02785 0.03021 0.005151 0.054601 0.078868 -0.064467 0.006434 0.00489 -0.012614 -0.054462 0.017951 -0.022539 0.057666 0.089261 -0.160712 -0.026069 -0.01852 0.002435 0.099628 0.102235 0.00749 0.144303 0.075115 0.009927 0.014931 -0.044938 0.015413 0.145742 -0.008225 0.009784 -0.061073 0.003713 0.044808 0.07705 -0.202586 -0.031579 -0.026648 -0.161018 -0.056763 -0.061965 -0.01603 0.010274 0.058138 0.021317 -0.029173 -0.040663 -0.040223 -0.019959 0.064141 0.02518 0.065233 0.082542 0.079365 0.027248 -0.005864 0.023939 -0.040972 -0.01608 -0.006013 0.063044 0.02784 0.025853 0.049904 0.115656 -0.083444 -0.0543 -0.032877 -0.025829 -0.158235 0.046289 -0.285304 0.006825 0.011137 -0.025377 -0.055139 0.018646 0.054972 0.035338 0.022923 -0.000461 0.101219 0.027265 -0.115972 -0.070001 -0.026539 -0.035546 -0.055741 0.026445 -0.11265 0.139379
  0.031285 0.15849 -0.061937 0.09521 0.044611 -0.049076 -0.014739 -0.055091 0.022876 -0.062489 0.064512 -0.0046 0.056089 0.081584 -0.007985 -0.024309 -0.031135 0.007354 -0.043026 0.080131 0.041221 0.017625 0.075577 0.042445 -0.042178 0.05504 0.079665 -0.044294 -0.180773 -0.075918 0.040159 0.009902 0.040671 0.060372 -0.030182 0.030739 -0.100062 -0.0983 -0.126006 -0.175291 -0.051864 -0.004887 0.030787 0.063844 0.074211 0.033485 0.113483 -0.060766 0.001142 -0.186248 0.027428 -0.016585 -0.014434 -0.0709 -0.137575 -0.023202 -0.05912 0.058372 0.127228 -0.007818 -0.033807 -0.072421 -0.051074 0.048533 0.057078 -0.111947 -0.055284 0.052606 -0.055328 -0.094496 -0.115171 -0.195807 -0.056262 0.03815 0.055048 0.053865 0.050764 0.139225 0.163892 0.077038 -0.093247 -0.06225 0.120771 0.027996 0.094075 -0.104662 0.148988 0.088367 -0.177469 -0.093589 0.07337 0.067305 0.072911 0.094755 0.033571 -0.076241 -0.119083 -0.082836 -0.176869 -0.034503 0.045822 -0.014883 0.020135 0.028692 0.014871 0.01808 -0.013101 -0.211624 -0.039006 0.05622 -0.072955 0.074745 0.027186 0.034843 -0.223937 0.058763 0.066506 0.004367 -0.00693 0.030667 -0.011233 -0.022617 0.067932 0.031645 -0.094331 0.023781 -0.012427 0.019921 -0.059722 -0.046825 0.057063 -0.086356 0.069876 0.019066 0.022318 0.122081 0.046233 -0.039169 -0.031877 -0.152954 0.086109 -0.06228 0.021087 -0.005529 0.043062 0.052186 -0.021654 0.140707 -0.256086 -0.017014 -0.003331 0.08029 0.083732 0.041106 0.028054 0.028323 -0.002097 -0.011346 -0.082842 -0.081071 -0.027133 0.00409 0.016626 0.041871 0.023389 0.018922 0.006258 0.005587 0.007553 0.13797 -0.013656 0.085957 0.030138 -0.004921 -0.005193 -0.187399 0.010809 0.054693 0.084896 -0.251496 0.213477 0.003318 0.088956 -0.054723 0.048301 -0.020114 0.029982 0.033179 0.062081 -0.001579 0.038306 -0.016313 -0.269183 -0.014179 -0.07372 -0.002317 0.125785 0.039326 -0.413866 -0.083994
  0.01556 -0.047031 -0.053628 0.080549 -0.058655 0.099509 0.166047 -0.034729 -0.016327 0.077549 -0.015624 0.106356 -0.009985 -0.050837 -0.010068 -0.083211 0.070718 -0.104435 -0.2494 0.033952 -0.041619 -0.072889 -0.103535 -0.051424 0.135689 0.031158 -0.038443 0.121959 -0.121104 0.037765 0.035491 -0.030482 0.063061 -0.307406 0.044018 0.035323 0.098941 -0.224713 0.216395 0.146539 0.003043 -0.00521 -0.095392 -0.141637 -0.003997 0.018418 -0.228733 -0.146093 -0.082533 -0.019026 -0.064334 -0.065641 -0.000162 -0.090454 -0.03939 0.008112 -0.021112 0.158455 0.012893 0.016978 0.12549 -0.058296 -0.042738 -0.061564 -0.038578 0.049821 -0.007611 0.018643 -0.129187 0.012965 -0.03448 -0.074396 0.054912 0.086448 -0.036412 -0.099248 0.000339 0.071895 0.035662 0.024396 0.117338 -0.023821 0.091634 0.139339 -0.026855 -0.048343 -0.013086 -0.025637 0.035662 0.100432 0.011596 -0.132215 0.105923 -0.097993 -0.012873 0.140336 -0.02486 0.205391 -0.015662 -0.214693 -0.040352 0.013372 -0.424201 -0.148733 -0.062689 0.081314 0.063433 -0.038817 0.058082 0.006089 0.061988 0.048983 0.003826 -0.144207 0.180317 0.021678 0.1137 0.116629 -0.041652 -0.363499 -0.010677 -0.025222 0.075565 -0.115931 0.039057 -0.024865 0.038059 0.05322 0.014802 0.13717 -0.242575 0.22827 -0.168928 -0.436224 -0.01339 -0.102396 -0.032815 0.11902 -0.038396 -0.035261 0.110282 -0.03905 -0.025055 0.029852 -0.129316 -0.062766 0.052548 0.030445 -0.063406 0.122414 0.046204 -0.220714 -0.194631 0.013391 -0.202034 -0.019133 0.115324 0.035049 0.131885 0.070893 0.026686 -0.049935 0.037756 -0.034019 0.020164 0.020119 -0.064204 0.136489 -0.050363 -0.057715 0.061064 -0.011192 -0.095865 -0.008192 0.147891 0.000404 -0.000947 0.004418 -0.148749 0.048567 0.215377 -0.001969 -0.095391 0.063222 0.075779 0.001767 -0.192083 0.003889 -0.049682 0.055635 -0.073237 -0.045877 0.014952 -0.057252 0.038175 0.079522 0.092393 0.088216 -0.006618 0.068661
  -0.056623 0.088914 0.005236 0.036761 -0.099727 -0.035577 0.028083 -0.052772 0.082125 0.070832 0.053361 0.082307 0.000821 0.200356 -0.06811 0.036454 -0.108217 -0.043414 0.129476 -0.064336 0.093392 -0.046044 -0.054431 0.026832 0.033983 0.030549 -0.056552 0.044554 0.006598 -0.021365 0.069835 -0.024875 0.079541 0.063644 -0.079046 0.047682 0.086536 0.050875 0.115547 -0.081568 -0.00398 0.040398 -0.017712 -0.085486 -0.038422 -0.01588 -0.06714 -0.155532 -0.012168 -0.047878 -0.059882 -0.045022 -0.016131 0.047271 0.265866 0.005907 0.001461 0.009785 -0.021177 0.125803 -0.249518 -0.040209 -0.022517 -0.033853 -0.009999 0.015225 -0.013427 -0.060286 0.003005 0.027664 0.134108 -0.217658 0.02511 3.3e-05 0.030578 0.123627 -0.112051 0.064692 -0.185112 -0.074591 -0.058995 0.052273 -0.065262 0.042516 -0.040576 -0.063295 -0.002596 -0.126529 -0.073743 0.064349 -0.003314 -0.157588 0.024577 -0.088677 -0.01554 0.074088 0.017769 0.009062 -0.014281 0.035954 -0.013375 -0.026565 0.047545 0.169691 0.019081 -0.180066 -0.088254 0.043433 0.064869 0.014041 0.020052 0.039577 -0.019845 -0.059225 -0.106342 -0.073059 -0.29627 -0.065528 0.005119 0.096081 0.01899 -0.031099 -0.012128 -0.098428 -0.034596 0.215612 0.0012 -0.086675 0.101472 0.084647 -0.031613 -0.05938 0.166286 0.030998 0.047857 -0.027828 0.003532 -0.003125 0.014191 -0.060359 -0.238096 -0.053351 0.00927 0.012305 -0.117945 -0.035136 0.016578 0.113189 -0.022991 -0.084279 0.018962 0.065252 0.007949 0.001631 -0.135139 0.038878 0.065942 0.027907 0.098337 -0.027624 0.087984 -0.040256 -0.010466 0.03962 0.023029 0.06354 -0.057591 -0.043916 0.016389 -0.117339 0.018822 0.006563 -0.076997 0.07939 0.055323 -0.124302 -0.013378 0.073117 0.029076 0.016458 0.203207 -0.036068 0.171154 -0.003401 0.028462 -0.013667 -0.004657 -0.046079 -0.02235 0.028825 -0.131378 -7.9e-05 0.039792 -0.053093 0.067875 0.102449 -0.041819 -0.118006 0.035982 0.179165
