PWM_range 0 100
pepL_range 12 21
P1_range -6 6
log_min 1e-04

nn_in_var 270 P1_-1 P1_-2 P1_-3 P1_-4 P1_-5 P1_-6 P1_0 P1_1 P1_2 P1_3 P1_4 P1_5 P1_6 PWM_log AA_-_1 AA_-_10 AA_-_11 AA_-_12 AA_-_2 AA_-_3 AA_A_1 AA_A_10 AA_A_11 AA_A_12 AA_A_2 AA_A_3 AA_A_4 AA_A_5 AA_A_6 AA_A_7 AA_A_8 AA_A_9 AA_C_1 AA_C_10 AA_C_11 AA_C_12 AA_C_2 AA_C_3 AA_C_4 AA_C_5 AA_C_6 AA_C_7 AA_C_8 AA_C_9 AA_D_1 AA_D_10 AA_D_11 AA_D_12 AA_D_2 AA_D_3 AA_D_4 AA_D_5 AA_D_6 AA_D_7 AA_D_8 AA_D_9 AA_E_1 AA_E_10 AA_E_11 AA_E_12 AA_E_2 AA_E_3 AA_E_4 AA_E_5 AA_E_6 AA_E_7 AA_E_8 AA_E_9 AA_F_1 AA_F_10 AA_F_11 AA_F_12 AA_F_2 AA_F_3 AA_F_4 AA_F_5 AA_F_6 AA_F_7 AA_F_8 AA_F_9 AA_G_1 AA_G_10 AA_G_11 AA_G_12 AA_G_2 AA_G_3 AA_G_4 AA_G_5 AA_G_6 AA_G_7 AA_G_8 AA_G_9 AA_H_1 AA_H_10 AA_H_11 AA_H_12 AA_H_2 AA_H_3 AA_H_4 AA_H_5 AA_H_6 AA_H_7 AA_H_8 AA_H_9 AA_I_1 AA_I_10 AA_I_11 AA_I_12 AA_I_2 AA_I_3 AA_I_4 AA_I_5 AA_I_6 AA_I_7 AA_I_8 AA_I_9 AA_K_1 AA_K_10 AA_K_11 AA_K_12 AA_K_2 AA_K_3 AA_K_4 AA_K_5 AA_K_6 AA_K_7 AA_K_8 AA_K_9 AA_L_1 AA_L_10 AA_L_11 AA_L_12 AA_L_2 AA_L_3 AA_L_4 AA_L_5 AA_L_6 AA_L_7 AA_L_8 AA_L_9 AA_M_1 AA_M_10 AA_M_11 AA_M_12 AA_M_2 AA_M_3 AA_M_4 AA_M_5 AA_M_6 AA_M_7 AA_M_8 AA_M_9 AA_N_1 AA_N_10 AA_N_11 AA_N_12 AA_N_2 AA_N_3 AA_N_4 AA_N_5 AA_N_6 AA_N_7 AA_N_8 AA_N_9 AA_P_1 AA_P_10 AA_P_11 AA_P_12 AA_P_2 AA_P_3 AA_P_4 AA_P_5 AA_P_6 AA_P_7 AA_P_8 AA_P_9 AA_Q_1 AA_Q_10 AA_Q_11 AA_Q_12 AA_Q_2 AA_Q_3 AA_Q_4 AA_Q_5 AA_Q_6 AA_Q_7 AA_Q_8 AA_Q_9 AA_R_1 AA_R_10 AA_R_11 AA_R_12 AA_R_2 AA_R_3 AA_R_4 AA_R_5 AA_R_6 AA_R_7 AA_R_8 AA_R_9 AA_S_1 AA_S_10 AA_S_11 AA_S_12 AA_S_2 AA_S_3 AA_S_4 AA_S_5 AA_S_6 AA_S_7 AA_S_8 AA_S_9 AA_T_1 AA_T_10 AA_T_11 AA_T_12 AA_T_2 AA_T_3 AA_T_4 AA_T_5 AA_T_6 AA_T_7 AA_T_8 AA_T_9 AA_V_1 AA_V_10 AA_V_11 AA_V_12 AA_V_2 AA_V_3 AA_V_4 AA_V_5 AA_V_6 AA_V_7 AA_V_8 AA_V_9 AA_W_1 AA_W_10 AA_W_11 AA_W_12 AA_W_2 AA_W_3 AA_W_4 AA_W_5 AA_W_6 AA_W_7 AA_W_8 AA_W_9 AA_Y_1 AA_Y_10 AA_Y_11 AA_Y_12 AA_Y_2 AA_Y_3 AA_Y_4 AA_Y_5 AA_Y_6 AA_Y_7 AA_Y_8 AA_Y_9 pepL_12 pepL_13 pepL_14 pepL_15 pepL_16 pepL_17 pepL_18 pepL_19 pepL_20 pepL_21


N_layers 2

 nnetsWeights  270   200
  -0.00487 0.02446 -0.051089 -0.053881 0.021064 0.042023 0.135379 -0.076323 0.143726 -0.094714 0.071944 -0.038505 0.099745 -0.131992 0.048005 0.041688 0.069554 -0.018847 -0.05957 -0.02679 -0.154271 -0.070008 0.000224 0.086999 -0.034648 -0.06562 -0.143976 0.003967 0.028902 0.082859 -0.269006 0.063916 -0.041741 0.021922 -0.093861 -0.075092 -0.228607 -0.036946 0.119885 0.033021 -0.030139 0.036029 0.088036 0.048675 0.02125 0.076419 -0.029843 0.106443 0.022241 0.115047 -0.019427 0.044427 0.099621 -0.06687 0.177665 -0.01303 0.01909 -0.062754 -0.023884 0.065348 0.007388 0.092652 -0.010536 -0.02371 0.000982 0.067357 -0.033585 0.00552 0.122362 0.033751 -0.06478 -0.048112 0.038931 -0.003531 0.023695 -0.165718 -0.057233 0.196513 -0.036941 -0.0158 -0.05741 -0.010034 -0.066139 -0.109726 0.028915 -0.094858 -0.020874 -0.027656 0.123517 -0.072679 -0.081415 -0.074585 -0.097089 -0.091304 -0.129047 -0.076156 0.02643 0.022772 -0.074957 0.164001 0.013759 -0.005365 0.047037 0.186448 0.048141 -0.033464 0.085427 -0.085571 -0.169188 -0.045727 -0.018504 -0.120293 0.083353 -0.049879 -0.04829 0.126192 0.058209 0.063448 0.064848 -0.035611 0.079203 0.021189 -0.068908 0.042373 0.091636 -0.210136 -0.123324 -0.033071 0.026931 0.033438 -0.010523 0.018785 -0.002433 0.133599 -0.103762 0.046844 0.07463 0.02815 0.03658 -0.104064 0.024985 -0.026786 -0.038196 -0.008254 0.165344 -0.016603 -0.111158 0.049976 0.102043 -0.123799 0.044681 0.046908 -0.051123 -0.040495 -0.069337 -0.002127 0.010953 0.034944 0.000472 0.032199 0.01752 0.043311 -0.09439 0.060152 0.031103 -0.034181 -0.038729 0.044464 -0.033609 0.023545 0.062122 0.044578 -0.079138 0.104641 -0.077247 0.022594 0.049821 -0.159889 -0.191239 -0.013204 -0.068371 -0.064169 -0.019376 0.085944 0.054937 -0.132057 -0.00227 0.042008 -0.009702 0.132404 0.082867 0.00582 0.031712 -0.036219 -0.097357 0.018311 0.02449 -0.009938 0.048066 0.069195
  0.016896 0.102118 -0.04356 -0.131719 0.07785 -0.065785 0.126491 -0.030201 0.140134 -0.152117 0.023661 -0.074501 0.05273 -0.115234 0.03001 0.135057 -0.163737 -0.007547 0.065847 0.038081 -0.062868 0.06472 -0.082215 -0.020832 0.04561 -0.021539 -0.129801 0.112821 -0.096863 -0.016016 -0.132668 0.058107 0.129482 -0.057871 -0.056797 -0.132434 -0.272671 0.056189 0.093725 -0.048233 -0.01207 -0.026719 0.101204 -0.003827 -0.159051 0.043787 -0.004622 -0.214388 -0.036166 0.060991 -0.059688 0.069161 0.064545 0.014282 -0.086537 -0.066752 0.041897 -0.21608 0.018004 -0.173657 0.031061 0.049077 -0.086135 -0.075978 -0.014169 -0.004149 -0.195455 -0.257429 0.127137 0.040398 0.017216 0.028571 -0.050401 -0.022208 0.089551 -0.207906 -0.183867 0.200127 -0.099962 -0.040962 -0.034132 0.018404 0.072168 -0.034469 -0.068907 -0.140161 -0.038419 -0.014432 0.015792 0.033957 -0.117489 -0.038137 -0.239676 0.137804 -0.086328 0.053296 -0.003535 0.030288 -0.084947 0.039018 0.147943 -0.057806 0.012544 -0.025421 -0.101073 -0.032055 0.078833 0.045114 -0.08452 -0.125743 -0.085844 -0.076097 0.106143 0.022603 -0.090453 0.117262 0.078365 0.133477 0.007236 0.066481 0.053807 0.021676 -0.006452 -0.013146 -0.031679 -0.128449 -0.218924 0.020697 -0.007672 0.028056 -0.017914 -0.02189 -0.009413 0.09191 -0.117854 0.128809 0.124932 0.068323 -0.071611 -0.013101 0.012937 -0.035611 0.015264 0.037169 0.083549 -0.169984 -0.200795 -0.010414 -0.006351 -0.077425 0.0353 -0.14 -0.116914 -0.024404 -0.017849 0.104897 -0.034757 0.0282 0.104574 0.058578 -0.135955 0.069473 0.003858 0.065611 0.00656 -0.067362 -0.049236 -0.033709 0.056453 -0.079984 0.064568 -0.145093 -0.116667 -0.140353 -0.156996 0.125387 -0.075246 -0.087304 -0.211649 -0.068655 -0.098791 -0.011609 -0.049215 0.033766 0.050389 -0.003395 -0.107087 -0.187839 -0.126686 0.123455 0.132285 -0.009398 0.054643 0.007072 -0.033574 -0.045045 -0.094762 -0.012138 0.013097 -0.189002
  -0.07728 0.093939 0.02631 -0.038779 0.113336 -0.179146 0.16298 -0.104131 0.113416 -0.150344 0.005316 -0.079649 0.019428 -0.170064 0.006833 0.107255 -0.071033 -0.072587 0.081158 -0.040496 0.086597 -0.07332 -0.03782 0.033074 0.014735 -0.025413 -0.041915 0.15485 -0.091824 -0.057606 -0.298556 0.017999 0.053943 0.048779 0.001079 -0.048142 -0.095116 0.068023 0.123644 0.069366 -0.03729 -0.076055 0.099223 -0.034065 -0.108578 -0.031064 0.037239 0.044245 -0.117108 -0.020609 -0.05309 -0.032795 0.03434 -0.117832 0.015757 -0.089964 0.0471 -0.195672 0.084248 -0.024344 -0.004691 0.052864 -0.088833 -0.010606 0.013044 -0.078617 -0.144067 -0.168142 0.061864 -0.03993 -0.041451 0.046853 0.03741 -0.039345 0.042785 -0.133904 -0.062223 0.245375 -0.003847 0.085849 -0.026113 0.034136 -0.009705 0.054038 0.026872 -0.106994 0.03802 -0.107989 -0.058394 0.029017 0.011264 0.027247 -0.331444 0.021371 -0.049005 0.006372 -0.019033 -0.002743 -0.050053 0.064068 0.036602 0.110463 -0.110446 0.045824 -0.044721 0.007251 0.006238 0.032761 -0.147899 -0.078184 -0.086442 -0.071291 0.027823 0.111627 -0.073287 -0.011805 -0.024122 0.005446 0.067038 -0.026841 0.001307 0.104125 -0.096938 -0.121499 0.000673 -0.039484 -0.069802 -0.100771 0.015329 0.000849 0.073299 0.180078 -0.018402 0.025818 -0.246451 -0.006806 0.07503 0.094103 -0.020868 0.005948 -0.018156 -0.031487 -0.030435 -0.088109 -0.02134 -0.007793 -0.110464 0.079679 -0.004171 -0.081789 0.011069 -0.163107 -0.163046 0.048239 -0.132116 0.071656 -0.093236 -0.029536 -0.004594 -0.029246 -0.183679 -0.028685 -0.078024 0.001939 -0.081358 -0.088784 -0.055875 0.055263 -0.066443 -0.070219 0.115835 -0.109144 -0.101617 -0.076269 -0.086752 0.141255 -0.059086 -0.089587 -0.172526 -0.024786 -0.057333 0.001824 0.082966 -0.060484 0.008533 0.204495 0.024932 -0.188266 -0.116644 -0.016238 0.018549 -0.064129 0.000745 -0.126657 -0.018216 0.059154 -0.225627 -0.043853 0.074347 -0.131401
  -0.058687 -0.003359 0.021098 -0.117314 -0.003599 -0.031225 0.107372 -0.030315 0.067984 0.028672 -0.045151 -0.016026 -0.03395 -0.111589 -0.006014 0.064014 -0.017374 0.050748 -0.112751 -0.065709 0.04651 -0.017277 -0.012091 -0.003171 -0.056006 0.19787 -0.0959 -0.038804 -0.169927 -0.050428 -0.13857 -0.070558 0.031454 0.029866 0.053835 0.006499 0.03906 -0.038098 0.004778 -0.033545 -0.141403 -0.169288 -0.106649 -0.105645 -0.102099 -0.030274 0.074617 0.070897 -0.069348 -0.016246 0.00526 -0.005851 0.011002 -0.011962 0.088325 -0.079074 0.043046 -0.041883 -0.057394 -0.030817 -0.007395 -0.013723 0.015975 0.039649 -0.12612 -0.011499 -0.089453 -0.051511 -0.218725 -0.07352 -0.063973 0.099623 -0.101458 0.120011 0.117285 -0.067562 -0.140674 0.062332 0.021315 0.074992 0.113352 0.069231 0.025126 -0.022114 -0.031554 0.087645 -0.07213 -0.048171 -0.096521 0.068141 -0.056828 0.136226 0.02493 -0.063795 0.014932 -0.026212 0.050203 -0.040152 -0.136374 0.021836 0.072042 -0.109744 -0.099684 -0.003639 -0.0713 -0.146756 -0.132549 -0.069089 -0.03563 -0.085408 0.069044 0.072649 0.076141 0.036238 0.106467 -0.03073 -0.058341 0.039781 0.012791 -0.051419 -0.086531 0.032649 -0.024903 -0.081968 -0.062262 0.041487 -0.053006 0.005518 0.103007 0.064805 0.079781 0.069715 0.026611 -0.037496 -0.084569 0.045763 0.077794 0.044665 -0.122768 0.029349 0.051237 0.019765 0.015608 -0.021829 -0.038494 -0.002422 -0.015874 -0.068317 0.011715 -0.030648 -0.094269 -0.024379 0.053079 -0.088603 -0.027674 0.021344 0.017421 0.045945 0.038645 -0.112508 -0.050658 0.044171 -0.053938 0.005928 -0.040446 0.028469 0.079162 -0.070237 0.022753 -0.06658 0.079708 0.023534 -0.043403 0.039979 -0.166967 0.054567 0.003848 -0.036496 0.066095 0.048467 -0.112211 0.045077 -0.053992 0.014592 -0.137525 0.061959 0.037839 -0.032723 -0.008744 -0.084421 -0.052411 -0.003798 -0.07115 0.061179 -0.088878 0.013927 0.014997 0.037094 -0.028588 -0.022267
  -0.027987 0.019914 0.119566 0.078651 0.126645 0.006309 -0.010817 0.145994 0.086148 0.032887 0.029208 0.007622 0.021956 -0.02314 0.024761 0.015136 0.043229 0.050185 0.002827 0.066688 -0.009359 0.02324 0.022896 0.031526 0.01675 0.022644 -0.01096 0.063457 0.125942 -0.025144 0.019079 -0.050409 0.065945 -0.021604 0.027238 0.058694 0.031114 -0.050836 0.045539 0.026132 -0.037593 0.009196 -0.057132 -0.183439 -0.02606 0.068149 -0.115754 0.000804 0.021852 -0.004447 0.020523 0.003921 -0.0096 0.014543 -0.007659 0.008074 0.016901 0.094962 -0.01997 -0.065364 -0.053672 0.037572 -0.022514 -0.00382 -0.055571 -0.022223 -0.005436 0.011638 0.000362 0.023777 0.000128 -0.055524 -0.036401 0.019529 0.072831 0.150732 -0.021739 -0.086562 0.066755 -0.029555 0.004396 -0.077813 -0.051581 0.017431 -0.019537 -0.075104 -0.013525 0.023802 -0.052554 -0.096133 0.018371 0.094131 0.084349 -0.067786 0.018502 -0.081746 -0.042622 0.092724 0.015631 0.048595 0.05433 -0.049346 -0.196677 -0.001507 0.042267 0.073588 0.073242 -0.008056 -0.039522 0.003008 0.08503 0.068915 -0.023166 -0.090199 0.043947 0.066659 0.064675 -0.013606 -0.122035 -0.039761 -0.002564 0.020666 -0.084613 -0.033945 -0.069596 0.043055 -0.013521 0.050228 -0.02811 0.002221 -0.091234 -0.018318 -0.045991 0.009686 0.01329 -0.011458 0.037223 0.008981 -0.020026 -0.001245 -0.036596 0.015414 0.10161 0.032343 -0.005828 -0.030294 -0.011714 -0.021236 0.005125 0.018099 -0.025464 0.070054 -0.058027 -0.008629 -0.062096 0.001404 0.034401 -0.04219 -0.085445 -0.019027 0.033999 -0.002244 0.038884 0.038762 -0.012037 0.024043 -0.053807 0.063877 -0.154718 0.106401 0.001399 -0.026421 0.113625 -0.019989 -0.111269 0.020318 0.041476 0.05461 -0.085385 -0.03215 -0.063229 0.020352 0.10635 -0.026106 0.064148 0.118021 0.127095 0.024757 0.004802 0.052807 0.052599 0.026051 0.079768 -0.006488 -0.010326 0.021593 0.013611 0.073767 -0.073789 -0.025572
  -0.061876 0.053028 0.023986 -0.022916 0.122789 0.050321 0.078012 0.100936 -0.069911 -0.032966 0.013352 0.007847 0.022155 -0.030007 -0.082955 -0.092851 -0.021954 0.04283 -0.08973 -0.031147 -0.046682 0.015924 0.010328 0.016121 0.050064 -0.037065 -0.015768 -0.059076 -0.024328 0.004372 -0.127855 0.044117 -0.008752 -0.056996 -0.007036 0.009068 -0.025268 -0.016535 -0.070145 0.040716 -0.046933 -0.040641 0.070098 0.067739 0.072612 0.006314 0.081311 0.068438 -0.065056 0.000217 0.00462 -0.034626 0.017246 0.147952 -0.017725 0.01687 0.031676 0.039795 0.080221 -0.022254 -0.057111 0.063641 -0.036944 -0.018628 0.071421 -0.025867 0.040704 0.053396 0.091201 -0.046637 0.010324 -0.10964 -0.069814 0.009764 -0.077023 -0.041628 0.047933 -0.073597 0.050136 0.029751 -0.03778 0.073611 -0.006314 0.070627 -0.014338 0.015936 -0.029118 0.02785 -0.038082 0.062986 0.017774 -0.037509 0.018084 0.053195 -0.044346 -0.014993 0.033007 -0.066257 0.007957 -0.064592 0.029957 -0.120061 -0.008395 -0.032457 -0.011792 0.073297 0.089323 -0.015262 0.037593 0.026916 0.023709 0.069992 0.140904 0.067452 0.046546 0.031319 0.047848 -0.018025 0.002737 0.007265 -0.020397 -0.077945 -0.033501 0.016379 0.049192 -0.071568 0.025533 -0.031497 -0.033383 -0.026529 -0.063089 -0.083695 0.059689 0.100603 -0.016547 -0.052835 0.017674 0.084609 0.007364 -0.066208 0.07356 0.089372 -0.012721 0.053591 0.008839 -0.043113 0.025071 -0.019506 -0.028358 -0.018911 0.010635 0.004926 -0.001928 0.063002 0.062165 -0.05313 -0.00645 0.111929 0.002222 -0.000961 0.000903 -0.029262 -0.080793 0.009703 -0.046336 -0.060653 -0.022592 -0.019896 0.007967 -0.016415 -0.039231 0.013114 0.11915 0.020371 0.035332 0.008527 0.119687 0.058715 -0.007424 0.009704 0.087849 -0.00303 -0.000348 0.004004 0.05953 -0.042829 -0.063481 -0.048599 0.030987 0.002783 0.032837 0.017448 -0.050819 -0.035447 0.023152 0.015806 -0.078369 0.001189 0.083547 0.080422
  0.016795 0.035227 -0.08256 0.000846 -0.107895 0.134091 0.034047 -0.147887 0.067769 0.05611 0.052375 -0.101532 0.130867 0.06381 0.054422 -0.028222 0.123655 0.015799 -0.018348 0.07067 -0.13057 -0.103303 0.036224 0.105317 -0.132031 0.041169 0.00599 0.033781 0.057051 0.026009 -0.055646 0.121515 -0.054826 0.068085 -0.058143 -0.028316 -0.014047 0.042935 -0.000751 0.073149 0.002618 -0.003826 0.049377 0.023289 0.128993 0.072507 0.009333 -0.017979 -0.034055 0.132686 -0.037122 0.035057 0.053689 -0.084175 0.152449 0.079693 0.051149 0.091486 -0.035955 0.106104 -0.065785 0.150115 -0.045632 0.011654 0.01008 -0.002194 0.111533 0.023936 0.063632 0.057039 0.013617 -0.018405 0.013139 -0.006578 -0.053571 -0.077327 0.016203 -0.136823 0.00215 0.024523 -0.038109 0.028853 -0.100983 0.050538 -0.059748 0.010843 -0.001634 0.003345 0.15193 0.02768 -0.077566 -0.0211 0.06096 0.037961 -0.138953 -0.033617 -0.092512 -0.005819 0.064272 0.046249 -0.022647 -0.032361 0.051286 0.002107 -0.014354 -0.019126 -0.038936 0.059634 -0.11877 -0.001636 0.012617 -0.032686 0.102181 0.023929 0.022666 0.019038 0.035885 0.024357 -0.052334 -0.022841 -0.022583 0.036029 0.014852 -0.034003 0.035406 0.047237 -0.029364 -0.130379 -0.071959 -0.000778 0.040321 0.057944 -0.052624 0.208193 -0.054464 -0.181849 0.032186 -0.047242 0.077725 0.038969 -0.031002 0.018964 0.049021 -0.004999 0.137713 -0.018158 0.009534 -0.059398 0.05488 0.013172 0.030034 0.053842 -0.030465 -0.085159 -0.054387 0.049828 0.02641 -0.057724 -0.000665 -0.016844 -0.120842 -0.067454 -0.096894 -0.019621 0.044582 -0.007812 0.024988 0.036264 0.004354 -0.073771 0.046688 -0.071341 0.061568 0.028557 0.06802 -0.012582 -0.036476 0.024891 -0.053176 0.019597 -0.069342 0.124045 0.007341 0.102669 0.001046 -0.016563 0.008437 0.230747 0.166414 -0.032271 0.106157 0.147083 -0.057096 -0.150225 -0.034728 0.023166 0.05766 0.027813 0.078537 0.090642
  -0.017331 -0.01439 -0.067267 0.00777 0.048313 0.157817 -0.11212 -0.127946 0.00725 -0.013025 0.050032 -0.008217 0.062357 -0.05342 0.03745 0.001651 0.001142 -0.01632 -0.074544 0.098522 -0.122304 0.091008 -0.003351 -0.057613 0.085904 0.012229 0.061877 0.06203 0.069303 0.085925 0.091132 0.02631 -0.047051 0.042144 -0.051124 -0.050935 0.040617 0.008546 0.05571 -0.029466 -0.075881 -0.05203 0.02177 -0.024478 0.082434 -0.021136 0.030067 0.084517 -0.033035 0.02368 0.032391 0.071702 0.075374 -0.075276 -0.130372 0.025802 -0.021868 0.226305 -0.093583 0.151385 0.046831 -0.06411 0.039115 0.069646 0.073503 0.031066 0.051243 0.133901 0.081201 0.039445 0.014308 0.029501 0.006223 0.03926 -0.060279 0.017861 0.016506 -0.009493 -0.021051 -0.044541 -0.09429 0.001071 0.006873 0.031774 0.076144 0.01889 0.001109 -0.024773 0.042093 0.04598 -0.00691 0.04591 0.135299 0.025681 -0.071093 0.028011 -0.0375 0.007216 0.074879 -0.058103 0.020973 0.008157 0.086532 -0.047941 0.084482 -0.055431 -0.065551 -0.059727 0.039354 0.025297 -0.010373 -0.064993 -0.044569 -0.04676 -0.006703 -0.023894 0.04222 0.008863 0.039838 -0.097487 0.060091 -0.090631 0.084249 -0.024191 0.0618 0.043658 0.124703 0.024904 0.002064 -0.055622 0.045237 -0.041467 -0.011218 0.022362 -0.003929 -0.001223 -0.050803 -0.074525 0.067343 -0.013862 -0.007275 0.010183 0.042638 0.023446 0.023741 0.105276 0.08902 -0.070797 0.005657 -0.079887 0.037452 0.025734 -0.007531 -0.086769 -0.033049 0.054348 0.032774 -0.023699 0.075592 -0.013051 0.033455 -0.025235 -0.011121 -0.043942 -0.046137 -0.034499 0.033633 0.069275 0.054194 0.057526 0.027159 -0.032071 0.021508 0.089539 0.112693 -0.009699 0.142493 0.14058 -0.026547 -0.027031 0.024713 0.075628 -0.02824 0.058843 0.049642 -0.111894 0.04792 0.124412 0.129436 0.012564 0.01332 0.090634 -0.022827 -0.016395 0.017619 0.052492 0.089353 -0.002787 -0.000866 0.07083
  0.005159 -0.054357 0.019873 0.000534 0.058619 0.029634 0.027299 0.126695 -0.072655 0.099741 -0.016325 -0.022926 0.025902 -0.005492 -0.059142 0.002874 0.041875 -0.038324 0.030884 0.050191 -0.044949 -0.028325 -0.015941 0.07616 -0.055288 -0.141728 0.058653 0.032675 -0.029366 0.099352 0.141379 -0.166634 -0.04093 -0.059659 -0.045537 -0.066663 0.094182 0.020423 -0.059156 0.00298 0.104901 0.028071 -0.055443 0.031732 0.037993 -0.070844 0.032843 -0.173233 -0.051642 -0.174212 0.088548 0.001246 0.072373 -0.090859 -0.014216 0.055443 -0.076374 0.077811 -0.045566 -0.032821 0.082232 -0.156591 0.034996 0.068977 0.046987 0.033663 0.069591 0.043701 -0.031869 -0.103094 0.016118 0.059055 0.017057 -0.016993 -0.078961 0.073489 0.041295 0.003643 -0.013744 -0.098855 -0.02493 -0.0308 0.115642 0.039833 -0.011552 -0.000416 0.048179 -0.065463 -0.12308 0.024198 0.063768 -0.035472 0.145312 0.024015 0.029245 0.044688 0.035331 -0.083465 0.017411 -0.04749 0.05149 -0.021512 0.041912 -0.019586 0.038677 0.003682 -0.127845 -0.003719 0.114909 0.086893 0.01245 -0.03506 -0.091147 -0.02228 -0.054087 -0.054093 -0.027322 -0.01488 0.010438 -0.082889 -0.020865 -0.044363 -0.01272 0.058956 0.009769 0.005672 0.080689 0.080743 -0.070187 -0.069447 -0.000222 -0.100101 0.014989 -0.041887 0.138096 -0.075552 0.05112 -0.157311 0.040336 0.013036 0.01678 0.083627 0.100862 0.018152 -0.168544 0.072541 0.073473 -0.011668 -0.046506 0.073259 0.011878 0.02997 0.063649 -0.003622 -0.037249 0.037931 -0.005466 0.054039 0.076126 -0.010493 0.017864 -0.025622 0.006758 0.01436 0.067584 -0.034043 0.021166 0.065509 -0.040911 0.110649 0.002147 0.066069 -0.017503 -0.046626 0.063804 -0.075029 0.007266 0.120246 0.006433 -0.084533 0.003512 -0.050111 -0.015901 -0.186881 0.033026 -0.005651 -0.063998 -0.030107 0.074459 -0.102093 -0.036388 -0.086307 0.091491 0.071571 -0.02288 0.071573 0.020006 -0.132776 -0.04023 -0.090322
  0.062075 -0.030509 0.173804 -0.086316 0.035144 -0.208692 0.081043 0.143568 -0.16761 -0.099274 -0.12748 0.078796 -0.144136 0.024385 -0.004152 0.053292 0.046968 -0.031213 -0.018013 0.047473 0.027348 -0.056097 -0.103828 -0.089129 0.024568 -0.100166 0.07369 -0.089205 -0.164828 -0.049582 0.260579 -0.061789 0.015296 -0.167922 0.109822 -0.091559 0.078318 0.001194 0.067097 -0.002336 0.067274 -0.022239 -0.122027 0.035881 0.077568 -0.07255 -0.124929 -0.147243 0.02298 -0.287443 0.040571 -0.068817 0.067644 0.052718 -0.019093 -0.041946 -0.003055 -0.212513 -0.024667 -0.153616 0.136203 -0.281897 -0.086929 -0.199166 0.134506 0.032429 -0.005941 0.030537 -0.049329 -0.034648 -0.025499 0.024799 -0.080543 0.051352 -0.11902 0.084233 0.111029 -0.126896 0.033481 -0.007674 -0.019524 -0.011501 0.135048 -0.05899 0.106566 -0.071024 0.022891 -0.039412 0.020997 0.019166 -0.018415 -0.193354 0.109168 0.013822 0.044578 0.085288 0.011358 -0.033657 -0.033456 -0.188978 -0.028032 0.069651 -0.00366 0.025829 0.050218 -0.041931 0.026964 0.020499 0.168001 -0.019794 -0.00551 0.010928 -0.013794 -0.025985 0.126158 -0.073033 -0.015477 -0.149284 -0.094087 -0.111137 -0.004011 -0.198108 -0.123705 -0.058916 -0.099108 0.021475 0.110555 0.008836 0.037413 0.01034 -0.035099 0.028491 -0.02459 -0.262784 0.220195 0.082967 0.01998 -0.085563 -0.052386 0.023626 -0.043232 -0.020806 -0.056651 -0.093967 -0.230437 0.049096 0.098532 -0.059064 0.040146 0.112424 -0.018593 0.003861 0.090886 0.029568 0.056059 -0.035343 -0.02121 -0.011289 0.052652 0.002494 0.131633 0.042674 0.118693 -0.0264 0.051716 -0.005189 0.058245 0.101041 -0.086443 0.072782 0.017261 0.012359 -0.055477 -0.108017 -0.043741 -0.026049 0.038046 0.112845 0.074959 -0.003844 0.015666 -0.225106 0.02991 -0.065376 -0.043299 0.017404 -0.101019 -0.122078 -0.196447 -0.163361 -0.05322 -0.109047 -0.009341 0.208295 -0.049208 0.021453 0.019467 -0.14668 -0.038373 -0.03706
  -0.02485 -0.125416 0.041587 0.00907 -0.022735 -0.089434 -0.064989 0.040892 -0.194722 -0.019478 -0.120154 0.000443 0.004976 0.01591 -0.096195 0.044937 -0.067161 -0.022603 -0.054886 0.019505 0.091999 0.030191 -0.030289 -0.12345 0.00504 -0.007701 0.169783 -0.176035 0.01962 -0.150579 -0.022607 -0.138951 -0.013418 -0.158612 0.076432 -0.033788 0.119083 -0.027049 0.073428 -0.016175 0.03128 -0.118796 -0.166226 -0.007739 -0.021949 -0.109547 -0.214434 -0.015443 -0.079186 -0.176264 0.039253 -0.12556 0.037129 0.10556 0.024448 -0.04389 0.027405 -0.072458 0.07559 -0.202865 -0.008495 -0.191192 0.036299 -0.065186 -0.069793 -0.05703 0.033563 -0.000202 -0.122948 -0.141474 -0.012851 0.007564 0.139017 -0.05278 -0.027289 0.006409 0.083677 -0.118208 0.062204 0.072161 0.159168 -0.049422 0.139495 0.029078 0.098869 -0.02306 0.033906 -0.029778 -0.05263 0.082007 0.079495 -0.209011 0.024781 -0.040036 0.032026 0.086886 0.045751 -0.141305 0.018078 -0.213688 0.031348 0.065941 -0.021885 -0.122803 0.028969 -0.125607 -0.067645 0.048849 0.162926 -0.041431 -0.012446 0.060999 0.01235 0.071801 0.056721 -0.006782 -0.168628 0.024233 0.007525 -0.051838 -0.021365 -0.220931 0.039885 0.007665 -0.055597 0.059091 0.06137 0.040739 -0.02626 -0.041128 0.06228 -0.014541 0.023875 -0.123713 0.075102 0.004555 0.031062 -0.068704 -0.100778 0.051598 0.085971 0.061764 0.115807 -0.03775 -0.162088 -0.136584 0.007504 0.053982 -0.011151 0.198438 -0.06064 -0.005449 0.104093 0.020121 0.056426 -0.129112 -0.063774 0.019782 -0.028291 -0.105745 0.115237 -0.033457 0.13211 -0.044687 -0.065929 0.064088 0.106011 0.079699 -0.027118 0.10212 0.060469 0.037027 -0.098769 -0.014578 -0.136569 -0.036883 0.05195 0.12487 0.088664 -0.060099 -0.144573 -0.07266 -0.116436 -0.022277 -0.049697 -0.088758 -0.023344 -0.058127 -0.106652 -0.174151 -0.113062 -0.108244 0.077776 0.223528 -0.103826 0.051776 0.014851 -0.012363 0.052119 -0.137594
  -0.01676 0.056374 0.152786 0.023392 0.019072 -0.027373 0.067694 -0.012718 0.018653 0.027687 -0.079436 0.05866 -0.018448 -0.068709 -0.059677 -0.051759 0.058234 -0.04255 0.120731 0.031569 0.05531 -0.139906 0.045162 -0.040823 0.031817 0.187242 -0.086387 -0.045172 -0.081645 -0.009829 0.010957 -0.10123 -0.161059 -0.106429 -0.095118 -0.093544 0.121062 -0.006938 0.103506 0.000963 0.040911 -0.005106 -0.010835 -0.048763 -0.053522 -0.100467 -0.007462 -0.052136 0.011074 -0.019176 0.078225 0.009565 0.021323 0.0067 -0.08871 0.01885 -0.142285 -0.026135 -0.03464 0.023305 -0.022572 -0.017254 0.053372 -0.137698 0.121516 -0.062773 -0.02659 -0.0036 -0.071896 0.054908 0.004279 0.037348 0.178655 -0.009912 -0.026767 -0.039872 0.044364 0.00174 0.061756 0.020618 0.032761 0.067296 0.073762 0.027282 0.016269 0.07102 0.005802 -0.096881 -0.064437 0.047816 0.016259 0.002685 3e-04 -0.012328 -0.006826 0.076018 0.084046 -0.091562 -0.007386 0.028474 0.1606 0.111997 -0.012959 -0.026009 0.032165 -0.056432 -0.083475 -0.015346 0.024509 0.022696 0.038965 -0.015881 0.035371 0.005245 -0.036641 0.018939 0.029316 -0.051922 -0.036873 0.04139 0.046976 -0.078874 -0.018544 -0.052223 -0.074143 -0.006354 0.035824 0.067611 -0.014944 0.038117 -0.04861 0.059118 -0.006462 -0.164687 0.045859 0.057744 -0.064393 -0.088468 -0.059445 0.05568 0.074533 -0.029199 0.016262 -0.00513 -0.067541 0.013576 0.024394 0.005183 0.063643 0.042107 -0.064001 -0.01099 -0.003244 -0.031324 0.028243 -0.000496 0.046755 0.08627 -0.028867 -0.015779 -0.045932 -0.049307 0.025264 0.01291 0.078185 -0.06773 -0.03792 0.040851 0.160078 -0.03199 -0.085906 0.008689 0.053082 0.014128 -0.014104 0.041516 0.029392 0.103489 0.141298 0.012706 -0.171332 0.111563 0.026229 -0.008606 -0.032313 0.077199 -0.026919 -0.130304 -0.091451 -0.131809 -0.03357 0.039066 0.069761 -0.056442 -0.036011 0.022192 0.083583 -0.023493 0.04048 -0.018825
  -0.0159 -0.00864 -0.070735 -0.021342 0.085587 -0.007832 0.065962 -0.001535 -0.100551 -0.042867 0.037566 -0.113775 0.054875 0.053374 -0.043149 0.085932 -0.100681 0.062873 -0.053015 -0.052211 0.045339 -0.003503 -0.076073 -0.029425 0.042744 0.076158 -0.000409 0.024797 -0.004857 -0.01272 0.059815 -0.051885 -0.01051 0.050523 0.009016 -0.067602 0.020568 -0.017684 -0.045629 0.06043 0.036545 0.006874 -0.082884 -0.054725 -0.025011 0.000837 0.025142 0.008762 -0.035275 -0.019059 0.033417 0.045751 0.014545 0.040841 0.000183 0.036318 -0.038705 0.075627 0.05106 0.038366 -0.051892 0.017059 -0.039287 -0.023977 0.115125 -0.001966 -0.052304 0.0136 0.069215 -0.073694 -0.061921 0.011417 0.052258 0.040091 -0.084707 0.053894 0.104219 -0.004083 0.10892 0.034426 -0.103493 -0.10398 0.037623 -0.083851 -0.073286 0.065459 -0.070493 -0.029617 0.031363 0.02582 0.049189 -0.07575 -0.006546 0.002648 -0.061657 -0.06007 -0.067359 0.011919 0.00891 0.047637 0.058441 -0.029585 -0.060502 -0.119372 -0.074999 0.020288 0.026158 -0.025463 -0.006014 -0.017454 -0.014692 0.06514 0.007304 -0.018793 0.108513 0.02841 -0.036074 -0.018062 0.057171 -0.015234 0.007134 -0.015802 0.004671 0.029389 -0.031966 0.02148 0.047598 0.007456 0.047112 -0.037316 -0.077879 -0.103423 -0.056404 -0.040244 0.011499 0.023762 0.010181 -0.028881 0.0171 0.03807 -0.014722 -0.036126 -0.0478 0.058805 -0.050622 -0.008557 -0.012517 -0.040033 0.046705 -0.063427 -0.028517 0.050355 0.061755 -0.020339 0.017311 0.03793 0.026883 0.03822 -0.059267 0.032263 0.008092 -0.027635 0.085959 -0.010946 -0.005368 -0.026935 -0.069778 0.028479 -0.016236 0.019832 -0.013725 -0.029851 0.050158 0.028652 -0.028756 0.021871 0.031301 0.063081 0.058961 -0.047366 -0.030072 -0.071458 -0.013513 0.037778 0.089934 0.118191 -0.000986 -0.089896 0.06812 -0.06988 0.017725 -0.036801 0.026442 -0.01572 -0.060502 0.019717 -0.011731 0.040264 0.024646 0.033004
  -0.122192 0.575154 0.178101 0.481883 0.228547 -0.338423 -0.702049 0.184326 0.392529 -0.400613 0.492625 -0.144893 -0.514512 -0.440555 0.315217 0.24545 -0.142538 0.569169 -0.20598 0.350576 0.419569 -0.178132 0.562003 -0.420129 -0.106745 0.074531 0.590164 0.009861 0.45945 -0.637392 0.186204 -0.36903 0.372771 0.451297 0.426279 0.589325 -0.44112 -0.687052 -0.225917 -0.57135 -0.243554 -0.063627 0.320428 0.060627 -0.541107 0.448027 0.618471 -0.217016 -0.390086 -0.512194 -0.485078 0.345091 -0.65486 0.058514 -0.173835 -0.440771 -0.574559 -0.548494 0.326114 -0.245319 -0.411155 -0.391056 0.3448 0.316556 0.284905 0.502441 -0.593983 -0.243303 0.329574 -0.004969 -0.501866 0.333106 -0.028767 0.140383 0.544547 0.252865 0.132365 0.033245 0.568573 0.411445 0.314878 0.416337 -0.222514 0.522681 -0.428037 -0.035386 0.567201 -0.48421 -0.298963 0.322386 0.458599 0.065254 0.499168 -0.090978 0.499151 0.184209 -0.303987 0.413728 -0.31091 0.177721 0.040625 0.16674 0.132287 -0.040618 -0.489323 0.268343 0.179077 -0.084438 0.3967 -0.40987 0.364517 0.336649 0.210553 -0.365454 0.413628 0.183914 0.460678 0.242453 0.340522 -0.242255 -0.449255 -0.188452 -0.320533 -0.316841 0.319145 -0.015075 -0.478154 -0.501782 -0.36848 0.388069 0.4212 -0.058897 0.344178 -0.528927 0.076429 -0.106729 -0.635046 0.368839 0.559059 -0.593984 0.110751 0.309365 -0.232762 -0.460786 -0.388336 -0.444819 -0.278976 0.35271 -0.630968 -0.030299 0.48709 -0.420006 0.411254 0.432344 0.503008 -0.487862 0.466519 0.076296 -0.29966 0.469324 0.26334 -0.522365 0.328942 -0.348369 -0.066077 0.540027 -0.566485 -0.455634 0.013462 -0.23441 -0.580159 -0.379121 0.343139 -0.456501 0.399433 -0.613867 -0.258161 -0.37507 0.354168 0.465682 -0.114555 -0.385859 0.256048 -0.176341 0.539918 0.005295 0.438188 -0.169501 -0.340351 -0.037392 -0.407488 -0.374596 -0.064385 0.050171 -0.526884 -0.527154 0.281115 0.385037 -0.297918 0.439691
  0.016368 0.009495 -0.190903 -0.037359 -0.089746 0.014705 0.069242 0.122172 0.004631 0.071495 0.097248 -0.11126 -0.092629 -0.094698 -0.059709 -0.204649 -0.000536 -0.031279 -0.069433 -0.201558 0.031168 0.125916 0.00799 -0.015888 -0.089737 -0.057092 0.053473 -0.121843 0.02584 -0.030655 -0.135854 -0.049319 -0.053733 0.127613 -0.101494 0.05814 -0.03709 0.055306 0.025972 0.030925 0.06289 -0.08041 0.096391 -0.030219 -0.105876 -0.117866 -0.051111 0.04298 0.041597 0.019402 -0.098039 0.096637 -0.067639 -0.125265 -0.073834 0.009877 -0.046108 -0.053515 -0.130041 -0.091153 0.010672 0.056155 -0.13901 0.006331 0.036664 -0.005203 -0.059423 0.071921 -0.02062 -0.042849 0.013424 0.058029 0.067175 -0.166196 0.096917 -0.133226 0.054667 0.00797 -0.13352 -0.080851 0.160716 -0.006487 -0.000854 -0.037411 -0.169505 0.016315 -0.051629 -0.085828 -0.115334 0.091819 -0.019671 -0.068198 0.093578 -0.045266 0.066688 -0.061986 0.129075 0.001016 -0.012396 0.141043 0.027681 0.128103 0.000681 0.00628 -0.08488 -0.082512 0.183667 0.044349 -0.048168 -0.164358 -0.138222 -0.019854 -0.068589 0.024994 0.117232 -0.001614 -0.045436 -0.087697 0.035292 0.028482 -0.019157 0.05149 0.030266 0.037275 -0.108519 -0.043567 0.024345 0.037786 -0.045612 -0.150782 -0.061468 -0.117633 -0.022245 -0.066757 -0.105715 0.131746 -0.02537 -0.07971 0.07007 -0.066106 0.117105 0.008638 -0.109706 -0.039965 0.005437 -0.050326 -0.173152 0.023106 0.092225 -0.057443 0.032024 0.081556 -0.075924 0.078027 -0.033623 -0.036106 0.018792 -0.070741 -0.008224 0.063267 0.025759 -0.090941 0.118565 -0.055451 0.160189 -0.001416 -0.072135 -0.06941 -0.086618 0.017435 0.040588 0.071679 -0.184158 -0.033977 0.105489 -0.023674 0.028821 -0.051624 -0.15248 -0.055287 -0.129371 0.082074 0.007121 0.010181 0.08719 -0.149512 -0.081256 -0.06649 0.033697 -0.08149 -0.002175 -0.103454 0.086523 0.002904 -0.037769 0.043167 0.089592 0.060735 0.056941 -0.024015
  -0.037068 -0.055449 -0.133828 0.025511 -0.103963 0.062604 0.087453 -0.032662 0.001476 0.009764 -0.057964 -0.196604 -0.27674 0.144158 -0.079982 -0.040057 -0.04528 -0.087059 -0.102323 0.033616 0.087735 0.034329 -0.013455 0.119383 0.177082 0.047407 -0.081057 -0.008567 0.001708 -0.306342 -0.015809 -0.017303 -0.094486 -0.019736 -0.058827 -0.084357 0.036343 -0.032335 -0.077829 -0.316609 -0.138093 -0.018564 -0.074682 -0.098298 -0.04661 -0.050598 0.07774 -0.024898 -0.046057 -0.054247 -0.093646 -0.059076 0.094078 0.021068 0.05192 -0.200844 0.030549 0.163532 -0.070547 -0.056931 0.116646 -0.0154 -0.043581 -0.070143 0.016055 -0.081433 0.028511 -0.15343 -0.0405 0.122359 -0.023359 -0.003638 0.060508 -0.059781 0.143072 -0.059358 0.011769 -0.01385 0.003772 -0.027346 0.036231 0.001611 0.014779 0.109491 -0.224933 -0.123747 -0.022002 -0.022149 -0.146006 0.001537 -0.002343 0.001963 0.079382 -0.015418 -0.03192 -0.057197 0.174029 -0.023977 -0.191872 -0.042631 -0.053424 0.117034 -0.076638 -0.021468 0.114551 -0.138277 0.027075 0.111319 -0.057606 0.008979 -0.053783 -0.027539 -0.020598 -0.074836 -0.01114 0.023397 0.009062 -0.032718 0.041786 0.135048 -0.095774 0.105447 -0.246328 -0.207587 -0.105733 0.200165 -0.049856 0.090621 0.12848 -0.045012 -0.019725 0.122487 -0.048212 0.101704 -0.142994 -0.195137 0.106961 -0.052414 -0.022841 -0.083666 -0.012303 -0.070094 0.025157 -0.06314 -0.004839 -0.081339 -0.204844 -0.071862 -0.057695 0.221304 0.006675 -0.1988 0.035311 0.004636 -0.021707 -0.296148 -0.068964 -0.018941 -0.104575 -0.004254 0.035216 -0.051798 -0.046696 -0.003025 -0.039574 0.017906 -0.090967 -0.003777 -0.042685 0.170687 -0.0678 0.085726 0.014149 0.073184 -0.078257 0.102099 -0.162113 -0.105076 -0.036298 -0.091558 0.120866 -0.160378 -0.018431 0.131455 -0.012613 -0.187834 -0.088608 0.117039 -0.047434 0.171479 0.067795 -0.001994 0.094335 -0.108323 0.000486 0.002973 0.027545 -0.065049 -0.032118 -0.073363
  -0.069078 -0.034328 -0.02043 0.027126 0.032843 -0.019877 0.008307 -0.029415 -0.026921 0.032 0.004799 -0.122402 -0.053021 0.00526 0.007853 0.033914 0.034969 -0.016622 -0.052743 -0.10268 0.000489 0.06544 -0.006898 0.023983 0.072452 -0.027588 0.026771 0.136294 -0.049432 -0.090418 -0.001005 -0.043777 0.032303 -0.031711 -0.034238 0.010854 -0.044327 0.051481 -0.106561 -0.027264 -0.069026 -0.061854 0.110228 0.058194 -0.126249 -0.003268 -0.171041 0.052092 -0.058074 -0.062173 -0.011973 -0.011595 0.06631 -0.057957 0.064226 -0.09405 0.102494 0.034159 -0.007438 0.037165 -0.007393 -0.036886 -0.018801 0.038142 -0.06309 -0.007136 0.064795 -0.059892 -0.02416 -0.017001 -0.001086 -0.018981 -0.083386 0.021792 -0.12703 -0.086348 -0.129033 0.011792 -0.052221 -0.002822 -0.069115 0.032162 0.054882 -0.119257 -0.051713 -0.12572 -0.022681 -0.093719 -0.052267 0.059331 -0.037636 0.0174 -0.1344 -0.000117 -0.104099 0.089275 0.130199 0.013596 -0.057328 0.061162 0.019972 0.027057 -0.018195 0.07871 0.03651 -0.007759 -0.046782 0.016517 -0.06375 0.102136 0.018522 0.074001 0.03467 -0.008122 -0.092952 -0.094866 -0.000443 -0.056804 0.035046 0.013797 -0.003039 -0.008862 -0.071635 -0.039712 0.069828 0.038877 0.00983 0.00464 0.015542 -0.022918 -0.074304 0.063498 -0.055264 -0.026717 0.035274 -0.091313 0.009741 0.018363 -0.018699 -0.112749 -0.108975 0.064249 0.104617 0.009173 0.038965 0.052477 -0.061341 -0.05257 -0.086273 0.120197 -0.015289 -0.125453 0.056246 0.017212 -0.018705 -0.02658 0.027331 0.017399 -0.059033 0.006094 -0.004037 -0.051457 -0.081264 0.054261 -0.035965 0.002858 0.026733 0.069015 0.076776 0.066534 -0.03045 0.07201 -0.019726 -0.06483 0.084436 0.046422 -0.074743 -0.078911 0.015839 0.026784 0.123952 -0.139157 0.026017 0.053202 -0.000959 0.154732 0.052405 0.029976 -0.056715 0.069068 0.028438 0.003888 0.02068 0.091191 -0.029819 -0.034456 0.035596 -0.062269 -0.082405 0.078016
  -0.040721 0.006712 -0.065406 -0.036965 -0.074573 0.031023 0.082345 -0.108399 -0.028293 0.070603 0.023853 0.019053 -0.115626 0.029014 0.04353 -0.002929 -0.064921 0.004382 -0.244103 -0.081378 -0.033933 0.031483 -0.006299 0.059622 -0.052734 -0.054801 -0.030939 0.102718 0.048078 -0.159196 -0.080844 0.009658 0.034021 0.045116 -0.048893 -0.004197 0.094792 -0.019745 0.002725 -0.271535 -0.138702 0.099609 0.015504 -0.044117 0.009156 -0.03113 0.036089 0.056461 0.023349 -0.060101 0.005403 0.01981 -0.093605 0.040138 -0.00331 0.042796 -0.068051 0.064403 0.006175 0.016802 0.062379 0.069978 0.093254 0.056586 -0.052108 0.019611 0.122314 -0.024138 -0.0109 0.032522 -0.034291 0.007505 0.078024 0.156163 -0.117637 -0.063835 -0.129311 0.03349 -0.05016 -0.041934 0.013281 -0.05736 0.153852 -0.106671 -0.112878 -0.204455 -0.044138 -0.000421 -0.012727 -0.088502 -0.079763 -0.027814 -0.062493 -0.051912 0.017891 -0.103958 -0.000688 0.026133 -0.10833 0.155535 -0.026814 -0.040851 -0.037728 0.024442 -0.010069 0.070452 0.006722 -0.092262 0.016753 -0.042238 -0.09273 -0.06468 0.018826 0.077269 -0.045029 -0.037747 0.034818 -0.085256 -0.04076 0.090051 -0.092506 -0.055198 -0.193879 -0.133669 -0.039457 0.141393 -0.029171 0.046384 0.112918 0.014144 0.012417 0.045957 0.071357 0.033274 0.089571 -0.073552 0.048453 0.021952 0.048208 0.03612 0.034895 -0.00468 0.067355 -0.138095 0.064994 -0.037307 -0.119862 0.021137 -0.012631 -0.03776 0.029567 -0.072231 -0.072523 -0.079157 0.017975 -0.12209 -0.064619 0.032118 -0.069551 -0.009183 -0.115279 -0.022631 -0.093823 0.064215 0.008988 0.024624 -0.032698 -0.112328 -0.025251 0.095051 -0.014001 -0.124231 -0.028339 0.091355 0.058889 0.059517 -0.065031 -0.041952 0.010387 -0.039153 0.11295 -0.07841 -0.045089 -0.014207 -0.022129 0.073172 -0.056925 -0.040536 0.063127 -0.055503 0.036542 0.041266 0.120254 -0.026315 0.010317 0.039542 -0.016781 0.023855 -0.08409 0.005101
  0.052026 -0.100793 -0.033945 -0.096718 -0.072878 0.04918 0.092449 -0.062517 -0.091915 0.167985 0.031873 -0.106407 -0.129485 -0.12353 -0.025218 0.111821 -0.13512 -0.085357 -0.150571 0.003404 0.060359 0.042964 0.034966 0.060048 -0.106772 -0.086399 0.0871 0.017097 -0.016937 -0.176199 -0.122947 0.108146 0.026266 -0.071524 -0.11521 0.058445 0.058099 0.045776 0.075358 0.183603 0.019977 -0.130388 -0.081803 0.038465 -0.191046 0.031652 0.143405 0.107549 -0.008799 0.064585 -0.203248 -0.050282 -0.060641 -0.141807 -0.160733 0.010182 -0.073495 -0.208051 0.012703 -0.213642 -0.090216 0.079636 0.001296 -0.064472 0.001022 0.028781 -0.062148 0.012327 -0.033323 -0.068897 0.11741 0.021544 -0.083624 -0.016597 -0.029112 -0.032281 -0.13999 0.012628 -0.094238 0.00458 0.038712 0.077852 0.077747 -0.039219 -0.041221 0.066907 -0.022189 -0.02173 -0.046215 -0.093164 -0.035916 -0.033979 -0.044929 0.089336 0.090773 -0.105174 0.075998 -0.028457 -0.21282 -0.111827 -0.047165 0.011779 -0.003047 -0.033499 -0.029281 -0.131766 -0.005983 0.187382 0.016267 -0.264347 0.005571 -0.076259 -0.080867 0.141618 -0.027152 -0.127522 -0.063097 -0.099132 0.099526 0.095375 -0.149546 0.160042 0.040152 0.107154 0.038013 0.05749 0.029923 0.006697 0.069323 0.005725 -0.129066 -0.026732 0.013576 -0.182531 -0.045914 0.205099 -0.075805 -0.061722 -0.001256 -0.135011 -0.077739 -0.096713 -0.126524 -0.118463 -0.148617 -0.042274 -0.112143 -0.044919 0.112909 0.035381 0.029182 0.029854 0.028276 0.033307 -0.067776 -0.139965 -0.020957 -0.037951 -0.006865 -0.104831 -0.017476 -0.100191 -0.019492 -0.097533 0.121609 0.001689 -0.017771 -0.117991 -0.07506 -0.022377 0.065854 0.050125 -0.026301 -0.1186 -0.101892 0.08378 -0.021274 -0.063474 -0.019429 -0.108156 -0.127056 0.083774 -0.143857 -0.105834 0.001113 -0.029983 0.069994 -0.182149 0.099999 -0.047417 0.048746 -0.085139 0.068342 -0.071349 -0.047603 0.111496 -0.08746 -0.118079 0.129647 0.043537
  0.089656 -0.042546 0.008312 -0.026567 0.047539 -0.030929 0.042944 -0.143416 -0.079322 -0.056481 0.031738 -0.065911 0.05156 -0.001794 -0.105863 -0.10374 -0.003346 -0.160359 0.029742 -0.013159 0.014288 -0.016196 -0.018773 -0.080362 -0.049983 0.052436 0.079972 -0.03081 0.028391 -0.016024 -0.03117 -0.164856 0.058545 -0.076777 -0.057542 -0.035359 -0.030605 -0.130814 -0.020872 -0.029525 0.015378 -0.085006 -0.131672 -0.091808 0.105588 -0.076221 0.017641 0.010911 0.013439 -0.033362 0.128313 0.016046 0.132917 -0.16613 -0.02188 -0.056224 0.035216 -0.019335 -0.044453 0.009519 -0.053702 0.09833 0.056661 0.036897 0.002607 -0.127467 -0.01796 -0.085017 -0.035582 -0.074555 -0.038863 0.072215 0.109947 -0.062095 -0.015597 -0.126976 0.069304 0.054177 -0.080439 -0.012053 -0.046711 0.028525 -0.014024 0.061102 0.014877 0.071743 0.059296 0.002936 -0.057572 0.073036 -0.058676 -0.118147 0.010709 0.083423 -0.025504 -0.044203 0.061867 -0.047655 0.022084 -0.05103 -0.025858 0.0903 -0.013887 -0.109888 0.039237 0.021911 0.062421 0.014214 -0.011215 0.052247 0.023202 -0.026995 0.01591 0.039723 0.030172 0.064953 -0.032563 -0.003906 0.014138 -0.040281 -0.035911 -0.132441 0.056926 0.040377 0.061016 0.079318 -0.072496 -0.003648 0.016026 -0.062038 0.004045 -0.136442 0.057257 -0.004826 -0.007118 -0.059053 -0.018316 -0.033457 0.087226 0.066898 0.046589 0.053612 -0.008234 -0.009579 -0.040165 -0.013936 0.066321 0.117351 0.024561 -0.141286 0.038277 -0.146821 0.050262 -0.012432 -0.104925 -0.00971 0.003443 -0.078206 -0.039491 0.01762 0.050569 0.067752 0.018186 0.104407 -0.00649 0.042778 0.080937 0.089165 0.016213 0.016612 -0.047485 0.016644 0.013695 -0.07029 0.076199 0.011627 0.035906 0.014964 -0.06408 0.004979 -0.031825 -0.101504 -0.08702 -0.078122 -0.011351 -0.008569 0.050254 -0.025913 -0.016222 0.024742 0.007844 0.055932 0.062023 0.060674 0.012128 -0.032399 0.016561 -0.037888 0.05552 -0.005227
  -0.105762 0.039956 0.017149 0.03908 0.102806 0.065121 0.016507 -0.014821 -0.049545 -0.039873 -0.041252 -0.04195 -1.2e-05 0.052713 -0.0255 -0.011259 0.020202 -0.018694 -0.063891 0.001944 0.003756 0.093965 0.003983 -0.018127 0.057179 0.034076 -0.064533 -0.017765 -0.021254 0.077666 0.064787 -0.046983 -0.030304 0.01828 -0.018757 0.030592 -0.008492 0.029792 -0.059002 0.046407 -0.049172 -0.027057 -0.01411 -0.062121 0.11638 -0.029485 -0.016555 -0.016475 -0.005293 -0.037208 -0.059992 0.002001 -0.039944 -0.093362 -0.020976 -0.001329 -0.033612 -0.102489 -0.059326 -0.014365 0.022313 0.095875 0.015727 -0.07177 -0.051825 0.024432 0.037379 -0.096342 -0.001378 0.057108 0.048879 -0.050713 0.032171 0.115227 0.019845 0.03277 -0.027288 0.072281 -0.059495 0.026621 0.025201 0.008579 0.049581 -0.001895 -0.066684 -0.074549 -0.010902 0.02084 0.032521 0.000284 -0.020513 0.061455 0.044077 0.047106 -0.045434 0.043005 -0.043225 0.060784 -0.014634 -0.020838 0.027186 -0.047989 0.079036 0.024547 0.074443 0.029437 -0.02476 0.014971 -0.000929 0.033741 0.017408 -0.035414 0.017704 0.014853 -0.012844 -0.06403 -0.055429 -0.048644 -0.002917 -0.036253 -0.008076 0.062934 -0.043349 0.022796 -0.058101 -0.099796 0.031283 -0.027439 -0.010661 -0.004534 -0.00865 -0.115965 0.02602 -0.05508 -0.022933 0.029365 -6.7e-05 -0.033472 -0.001769 0.046347 -0.014992 0.041811 0.026529 -0.066604 0.043613 0.034879 0.060829 -0.030406 0.050522 -0.080126 -0.010862 0.021579 0.008644 0.042703 -0.026519 0.063419 0.025146 0.043817 0.040315 -0.020135 0.056022 -0.003789 -0.061932 0.07042 -0.044691 -0.023355 0.026757 0.003689 -0.019102 0.048069 0.011781 0.109956 0.009674 0.042066 0.00312 -0.040025 -0.014555 0.000859 0.047301 -0.000143 -0.045879 0.071848 -0.058915 0.040834 -0.017916 -0.094027 -0.059323 0.035908 -0.020155 0.006799 0.025318 -0.002278 0.143531 0.003966 -0.033042 0.017949 0.039383 0.007445 0.091566 -0.049703
  -0.109636 -0.016498 -0.062814 0.050667 0.04086 -0.008904 0.011243 0.007089 0.031059 -0.040457 0.032635 -0.0426 -0.030697 -0.033922 0.011606 -0.045056 -0.151991 0.006092 -0.03679 -0.009739 -0.02728 0.071925 0.020594 -0.003386 0.171197 -0.041418 -0.021526 0.000109 0.035095 0.043001 0.146203 0.023223 -0.023201 -0.012552 0.001253 -0.027293 0.072512 -0.064542 -0.059483 0.038531 -0.041965 -0.010609 0.026607 0.011287 -0.030264 0.019047 -0.079239 -0.034515 0.022362 0.062382 -0.003615 -0.013334 0.031026 -0.074751 -0.167598 0.019705 0.015779 -0.015029 0.010135 0.117378 0.062865 0.006787 -0.004512 -0.006694 -0.074351 -0.01224 0.034739 -0.069659 0.058176 0.000873 0.029928 0.044288 -0.03571 0.011635 0.011279 -0.010074 -0.037651 0.049288 -0.046231 -0.017263 0.005051 -0.030583 -0.007598 0.028249 -0.019296 0.178851 -0.027602 0.004951 -0.026762 0.044357 0.031031 0.028742 0.005926 -0.014541 -0.008252 -0.058765 0.110238 0.008506 -0.063292 0.048956 -0.002198 -0.047748 0.029444 -0.095099 0.005175 0.011214 -0.072574 0.084665 -0.03542 -0.019033 -0.050355 -0.006837 0.076827 0.024598 -0.003792 -0.000393 -0.000306 0.013886 0.008251 -0.146928 0.066495 0.120911 -0.045401 0.050251 -0.070144 -0.023251 0.025464 0.015171 0.085688 -0.01021 0.035874 -0.114482 0.006102 0.017899 0.040577 -0.017473 -0.027216 0.038107 -0.021704 -0.009727 -0.086447 -0.058247 0.052479 0.015085 0.024268 -0.020117 0.067483 -0.041625 -0.003972 0.007024 0.029842 -0.011492 -0.038877 -0.008268 0.059784 0.110359 -0.030415 -0.020805 0.069932 0.001312 -0.072339 0.00482 -0.018402 0.050903 -0.076837 0.059756 0.064823 0.044367 0.055656 0.118172 0.047712 0.01403 0.049229 -0.066851 0.02373 -0.023773 0.087661 0.045289 0.042977 0.003129 0.042443 -0.00474 0.002343 -0.00429 -0.013077 -0.080686 -0.016759 0.006786 -0.047129 0.072125 0.029639 0.062467 0.030759 0.033569 0.009925 0.006159 0.010998 0.024173 0.07112 0.046714
  0.070026 0.007111 0.004656 0.01354 -0.090768 -0.096824 0.059167 -0.051626 -0.041253 0.094192 -0.014723 -0.075334 0.017454 -0.084087 0.002494 -0.084377 0.054159 0.00258 0.09598 -0.032141 -0.00799 -0.024495 0.002944 0.056861 -0.013514 0.006161 -0.000591 0.064464 0.03586 -0.019794 0.074969 0.006383 0.02415 -0.001327 -0.021968 -0.007551 -0.005916 -0.017015 0.007915 -0.008966 -0.037203 -0.05023 -0.018696 0.111087 -0.084787 -0.046106 -0.084423 -0.078603 -0.087906 -0.003087 0.061124 -0.040004 -0.000323 -0.047434 -0.041258 0.00824 -0.043556 0.056024 0.057276 0.064745 0.032723 -0.09215 -0.049307 -0.074913 0.006021 -0.057226 -0.006077 -0.075368 0.018168 -0.101224 -0.016334 -0.038594 -0.006872 -0.120661 0.000227 0.023617 -0.012064 -0.011241 -0.008336 -0.046901 -0.050739 0.004343 0.016834 -0.001909 -0.010913 -0.116435 0.02664 -0.019093 0.04643 -0.040742 -0.043748 0.075631 0.001524 0.047332 -0.009561 -0.015128 -0.039904 0.001349 -0.073519 0.027752 -0.021744 -0.002159 -0.042673 -0.097927 -0.023664 0.079534 0.012799 0.098167 0.015515 0.090185 -0.019725 -0.004667 0.002868 -0.008885 -0.039529 -0.064854 -0.051057 -0.007761 -0.074955 -0.03408 0.043646 0.05027 -0.026146 -0.021774 -0.038503 -0.098706 0.043536 -0.060903 0.037603 -0.007084 -0.018178 -0.112707 0.058376 0.026797 0.064047 0.051241 0.023816 0.008396 0.03202 0.024849 0.031913 0.059791 0.028847 0.000752 0.001584 0.025602 -0.047751 -0.043454 0.005848 0.169343 0.005852 -0.037558 -0.046842 0.017123 0.011903 0.062917 -0.001671 0.032761 -0.061125 -0.048457 0.05136 0.043834 -0.028738 0.08115 -0.037708 0.013942 0.025959 0.083369 0.088064 -0.016985 0.05609 0.05716 -0.077412 0.037975 0.013729 0.071253 0.102962 0.034444 -0.031501 0.005164 -0.110953 0.082195 0.058273 -0.020103 -0.036216 -0.102775 -0.000345 0.000701 0.075594 -0.061725 0.015148 -0.007115 0.003478 0.022962 0.028736 0.024304 0.09066 -0.030116 0.061292 0.032318
  0.046299 -0.014191 -0.036955 -0.006715 0.022425 0.074264 -0.05826 -0.009851 -0.05877 -0.052865 0.051569 -0.078033 0.000684 0.065545 -0.062784 0.002078 -0.016079 -0.011675 -0.017431 0.005921 -0.027332 -0.032398 -0.004202 0.023478 0.02355 -0.103312 0.006498 -0.022066 0.031336 -0.006277 0.039091 0.061995 -0.063936 0.021482 0.015243 0.02245 0.053871 0.001226 0.105911 0.029068 0.008672 0.02924 -0.000297 0.016904 -0.025164 -0.055926 0.056464 -0.093575 0.062933 -0.022562 0.027256 -0.041771 -0.015984 -0.022221 -0.100328 0.010926 0.028022 -0.075674 0.026911 -0.052153 -0.057637 -0.038561 0.041099 -0.049817 -0.018517 -0.082109 -0.004698 -0.035969 -0.003584 -0.10577 -0.038279 -0.032109 -0.121942 0.00368 -0.034767 0.048136 -0.058817 -0.015314 0.005569 -0.088217 -0.03273 -0.013207 0.079874 0.018848 0.088307 0.159136 0.010626 0.006793 -0.038888 -0.040179 0.006368 0.036133 0.068696 -0.036672 -0.02169 -0.010753 -0.067328 0.02245 -0.038453 0.046964 -0.062365 0.03226 -0.018768 -0.008556 0.070992 0.022824 -0.078259 0.050544 0.031885 0.085598 0.003306 0.001935 -0.086395 0.044197 -0.014293 -0.069651 0.05542 -0.011023 -0.054087 -0.09136 -0.017292 0.052443 0.001856 0.057541 0.024788 -0.020938 0.020348 0.058101 -0.024833 0.026656 -0.019661 0.066839 -0.010384 0.029341 0.006303 0.066634 0.039971 -0.042462 0.03083 -0.023713 -0.022849 -0.059846 -0.038803 0.082552 -0.048418 0.025194 0.002578 -0.091725 -0.026514 0.033202 -0.030438 -0.008663 -0.027816 0.011635 -0.002126 -0.065771 -0.024688 -0.08382 -0.024905 0.021655 0.108301 0.02377 0.054099 -0.097084 -0.010143 0.011232 0.044165 0.066273 0.03092 0.097888 -0.001981 -0.008247 0.007215 -0.037365 0.059501 0.054326 -0.012555 -0.068965 0.03416 0.009116 -0.053071 0.033603 0.012944 -0.012406 0.016298 -0.033948 0.024186 0.039751 0.026572 -0.082746 0.060564 0.060749 0.043287 0.059139 -0.011957 0.02126 -0.030054 0.021303 0.032786 -0.029216
  -0.037259 -0.024493 -0.005089 0.004846 0.055697 -0.010607 0.05848 0.036194 -0.02944 -0.062191 0.006933 0.011665 0.061989 0.109636 -0.038631 -0.077555 -0.081843 0.009787 -0.076728 -0.024163 -0.029329 -0.080016 -0.001703 0.005359 0.006743 -0.006142 0.01098 0.01901 -0.000137 -0.064472 0.023962 -0.000388 -0.057779 0.023585 -0.038279 -0.044739 -0.007345 -0.035126 -0.1782 0.069909 0.112683 0.023447 -0.019784 -0.071688 -0.043174 -0.01327 0.013896 -0.100588 0.025861 0.015008 0.095409 0.01271 0.050415 -0.037169 0.060892 -0.082171 -0.021135 0.052831 -0.034117 -0.019166 -0.006574 0.019694 0.005019 -0.038833 -0.073074 -0.006872 0.050487 -0.010045 -0.03519 -0.012141 -0.016017 0.056063 -0.03527 0.034743 -0.079441 0.011705 0.034928 0.054138 -0.000355 0.00995 0.036996 0.0192 0.071714 0.004942 -0.021788 -0.12737 -0.012083 -0.001589 0.003869 -0.049215 0.023738 0.090287 0.086034 0.058406 -0.053191 -0.087069 0.10634 -0.020112 0.047873 0.09974 0.069867 -0.002127 0.104029 -0.083349 -0.021398 0.066318 -0.024196 0.017349 0.005278 0.004776 -0.000425 -0.052937 -0.073833 0.057122 -0.008684 -0.105286 -0.043339 -0.056969 0.001176 -0.073618 -0.013678 -0.101609 0.056045 -0.009756 -0.022204 0.075365 0.021412 0.081441 0.076783 -0.024648 0.025763 -0.068055 0.006924 0.042122 0.025053 -0.009948 0.0929 -0.071957 -0.002643 0.043099 -0.101544 0.047339 -0.014587 -0.075178 0.084951 -0.028316 -0.003563 -0.020854 0.03291 0.057634 0.006669 0.04293 -0.054517 -0.049978 -0.011823 0.095676 -0.031172 0.008028 0.055107 -0.039723 -0.032831 0.031689 -0.044195 0.017064 -0.086388 0.021599 0.095113 -0.016867 -0.063155 -0.043887 0.046315 -0.049363 -0.018182 0.065478 0.073999 0.095013 0.048584 0.052533 0.064343 0.021825 -0.086383 0.062692 -0.089667 0.05167 0.017952 0.066222 0.013919 -0.04064 -0.007438 -0.057627 -0.020482 -0.057032 -0.083043 0.016364 0.028471 -0.030409 0.065265 0.014168 -0.059087 0.055388
  -0.020243 0.067719 -0.046382 -0.022305 0.059671 -0.02072 -0.017609 -0.002783 -0.008253 -0.008317 0.018011 -0.011399 -0.006473 -0.037866 0.046715 -0.058508 -0.055695 -0.009705 -0.011914 -0.028611 -0.006273 0.043828 0.026047 0.046079 0.092973 0.087662 0.039383 0.116371 0.009089 -0.012004 0.073838 -0.005454 -0.042006 -0.020419 -0.016582 -0.049983 -0.036261 0.021091 -0.098505 0.066924 0.004679 0.01337 -0.053485 -0.081044 0.078209 -0.027301 -0.054766 -0.020477 -0.039554 -0.027776 0.056727 -0.027661 0.023349 0.045225 0.042184 -0.011726 0.012924 0.012397 -0.073309 0.066951 0.065905 0.002143 0.02083 0.022565 0.046032 -0.096933 0.013084 -0.056197 0.020799 -0.078299 0.060587 -0.000616 -0.116703 -0.114051 -0.076852 -0.009487 0.014277 -0.096696 0.000766 -0.036595 -0.056287 0.050906 0.060401 0.109251 0.062927 0.030917 -0.021059 0.053191 0.01833 0.036227 -0.026112 0.063151 0.040065 -0.0813 0.019824 -0.054465 -0.170869 0.018659 -0.029714 -0.014788 -0.038733 0.06313 0.034505 0.027498 -0.005385 -0.023811 -0.009913 -0.044562 -0.024374 0.057809 0.070882 0.029982 -0.021459 0.007648 0.017309 0.016299 -0.004455 0.069924 -0.027685 0.071267 -0.008808 0.024923 0.067154 0.067904 -0.016734 0.051344 0.072343 -0.033256 0.024503 0.020917 -0.021134 0.023768 -0.083887 -0.006278 0.054249 0.01523 0.023237 0.010608 0.052758 -0.062053 0.092504 -0.023962 -0.061525 0.049835 0.002786 0.029148 0.006702 -0.032002 0.018715 -0.004405 0.016793 0.01393 -0.052368 -0.010588 -0.007569 -0.099111 0.030665 0.036528 0.108121 -0.02495 0.057745 0.014332 0.046051 0.055107 -0.023996 0.012677 0.057336 0.075096 -0.028155 -0.019413 -0.039881 0.031299 -0.031784 -0.043472 0.025644 -0.021743 -0.079554 0.033496 0.043334 0.04056 -0.103907 0.032794 0.010311 -0.019397 -0.000116 -0.014914 -0.036861 0.054935 0.008593 -0.121047 -0.04985 0.049241 0.087573 -0.057494 0.08727 -0.033347 -0.095131 0.015303 -0.006337 -0.029967
  -0.003624 0.007599 -0.054351 -0.012535 -0.089909 0.055113 0.05172 0.031368 -0.035033 0.128417 0.005972 0.009102 -0.01338 0.075047 0.011945 -0.053927 -0.083488 0.003736 -0.042069 0.049843 -0.014947 0.070363 -0.017045 0.095917 0.065703 -0.080526 -0.001405 -0.070714 -0.004814 0.040504 -0.059266 0.045798 -0.058951 -0.032974 0.043837 -0.029746 0.021415 0.028224 0.031413 0.113672 0.08299 -0.117529 -0.077046 0.011558 0.080272 -0.000661 -0.021269 0.019906 0.09064 -0.024895 -0.055946 -0.029178 -0.004678 0.138276 -0.000819 0.063117 -0.038068 0.026015 -0.055583 -0.028358 -0.061418 -0.062468 -0.028239 -0.06 -0.049517 -0.052627 0.097555 0.067358 -0.143741 -0.010979 -0.006714 -0.087729 0.001331 -0.035174 -0.010024 0.017858 -0.004118 -0.084225 0.0428 -0.067131 0.02952 -0.019334 0.008897 0.030999 -0.021326 0.083921 0.034996 -0.006039 0.023632 -0.005318 0.033186 -0.049451 0.049511 -0.114574 -0.026021 0.026793 0.072953 0.029629 -0.055328 -0.095874 -0.079183 0.017581 0.008515 -0.009534 0.116244 0.011473 0.062968 -0.00847 0.024223 -0.024942 0.048352 0.047205 0.029211 0.088589 -0.002548 0.010181 0.019497 0.002404 -0.042163 0.149198 -0.018524 0.042258 -0.063135 0.043741 -0.044632 -0.06167 0.056996 -0.009073 -0.030158 -0.013621 -0.009396 0.085582 0.035079 -0.00768 0.018457 -0.074137 -0.048114 0.017281 -0.036211 0.032598 0.026737 0.032903 -0.113244 0.060935 -0.084559 0.044877 0.008139 0.033273 0.055801 -0.017625 0.009061 0.10602 0.037781 -0.026773 0.026614 -0.034586 0.004825 0.038472 -0.023903 0.043057 0.000524 -0.074528 0.032854 0.000257 -0.137429 0.016263 -0.026079 -0.054092 0.015034 -0.12397 0.000293 0.007842 0.016271 -0.021432 -0.008466 0.07498 0.018592 0.023136 -0.026194 -0.011577 -0.117452 -0.031802 -0.028744 0.074747 0.046509 0.051164 -0.025448 0.062561 -0.009972 0.129723 -0.102455 0.04395 0.06931 -0.063262 0.058027 0.055667 -0.04289 0.014008 0.125127 -0.04958
  -0.123413 0.005051 -0.028273 -0.008469 -0.098038 0.011674 -0.041675 0.028883 -0.059926 -0.049107 0.032975 -0.056264 0.015626 0.098531 -0.045328 -0.080212 -0.076078 -0.007638 0.080094 0.004394 0.026442 0.123815 -0.012247 -0.054547 0.154426 -0.065029 0.049115 0.028322 0.017044 0.015727 -0.112444 -0.021081 -0.02168 -0.00955 -0.025381 -0.019807 0.050834 0.121474 0.080793 0.081359 -0.07884 0.096167 -0.043109 0.001608 0.004064 -0.0533 -0.017009 -0.006657 0.022347 0.086074 -0.027846 -0.001584 -0.005359 -0.030669 -0.041441 -0.070038 0.038427 0.010618 0.027997 -0.03219 -0.011634 0.080761 0.042154 -0.094576 0.063456 -0.032397 0.033868 0.000599 0.021162 -0.02249 0.02351 -0.031796 0.057447 -0.145091 0.013916 -0.018317 -0.017281 -0.119984 0.006697 -0.064907 -0.099843 0.001434 0.010518 -0.021018 -0.082666 -0.085038 0.013438 -0.030716 -0.03089 -0.022579 0.008718 -0.12323 0.002429 -0.008315 0.06825 -0.061335 -0.02355 -0.077371 0.024272 -0.09841 -0.119851 -0.022389 -0.076718 -0.015944 -0.017654 -0.049935 -0.026848 -0.146042 -0.032118 0.067558 0.001647 -0.009098 -0.030913 -0.110898 -0.005171 -0.025518 -0.00367 -0.041524 0.069886 -0.105235 0.00179 0.057428 -0.016213 -0.017767 -0.034436 -0.053475 0.02314 -0.029657 -0.0257 -0.005299 -0.039842 0.078359 -0.004036 0.137493 0.061291 -0.033537 0.06045 0.003108 -0.007684 0.014247 0.038088 0.012006 0.067748 0.061411 0.051677 0.009484 0.029432 0.008398 0.077015 0.081789 0.020324 0.076663 0.03271 -0.010285 0.035468 0.00997 -0.008434 0.067305 0.030158 0.061249 0.003179 0.011785 0.032521 -0.057495 0.047267 -0.026974 -0.034601 -0.025639 -0.066057 -0.059617 0.011634 0.075902 -0.060711 0.006728 0.033855 0.01681 -0.012416 0.000323 -0.007789 -0.036734 0.033584 0.051548 -0.025248 0.126972 0.005181 -0.111944 0.022144 0.017061 -0.051643 -0.057484 0.030015 -0.126554 -0.063577 -0.065891 -0.022628 -0.032254 0.020709 -0.05129 0.056203 -0.052256
  -0.162101 -0.031822 -0.013321 0.041349 -0.113034 0.031901 0.017109 -0.058512 -0.102776 0.018229 -0.0038 -0.045434 0.008406 -0.010247 -0.043998 -0.016164 -0.059358 0.010251 0.114707 0.041721 0.034842 -0.050322 -0.050038 0.024607 0.153416 0.028684 -0.000833 -0.007474 -0.052548 0.04241 -0.117988 -0.044634 -0.085316 0.041882 -0.01728 0.013996 -0.015895 -0.010225 -0.078184 0.014995 0.050736 0.097858 0.009096 0.08471 -0.017679 -0.000778 0.022427 0.007105 0.020041 -0.036842 0.063406 0.001432 -0.080905 0.013007 -0.096982 0.027688 -0.010886 0.02005 0.00714 0.063666 0.03322 -0.046277 -0.049916 0.028184 0.038096 -0.047361 0.062819 -0.047196 -0.02384 -0.100353 -0.013864 0.056211 0.002596 0.074252 0.012356 -0.050639 -0.07424 -0.102046 0.032288 -0.00312 0.048775 0.022617 -0.046854 -0.00639 -0.009349 0.008403 0.045538 0.062126 0.068576 -0.066282 0.022231 -0.084045 0.046688 -0.009969 -0.006592 0.035941 0.020063 0.045973 -0.040632 -0.101235 0.030002 0.117342 0.008037 -0.00981 0.001972 -0.043553 -0.086366 0.059493 0.012539 -0.006057 0.011309 -0.01744 -0.061521 0.045346 -0.046188 -0.009128 0.025092 -0.042671 -0.040831 -0.016953 0.007265 -0.084978 -0.031696 -0.019402 0.025714 0.044396 0.08918 -0.103048 0.001047 -0.051067 0.015724 0.008731 0.005133 0.066334 -0.103321 0.02508 -0.053172 -0.022236 -0.068422 0.024062 0.040415 -0.119554 0.082234 0.041419 -0.029541 0.009881 -0.0323 0.013741 0.063567 0.093264 -0.006474 0.09781 0.00687 0.00868 -0.008598 0.000964 -0.004846 0.047632 -0.055726 0.003677 -0.07476 -0.048162 -0.033914 0 -0.092253 0.024533 0.012626 0.03157 0.034143 -0.043262 -0.042091 -0.044512 -0.037476 -0.102841 0.000878 -0.018069 0.053645 -0.012313 0.029766 -0.042205 -0.084243 -0.077886 0.05162 0.02461 -0.0429 -0.041441 0.048262 0.008098 -0.032229 -0.002698 -0.05844 0.018245 -0.078231 -0.050421 0.025101 0.018693 0.027862 0.01077 -0.035508 -0.060793
  0.048614 -0.035331 0.017612 -0.01346 0.06735 0.023943 -0.021072 -0.050301 -0.02068 0.047217 0.008121 -0.122709 0.007522 0.09445 0.004035 0.024295 0.06994 -0.018891 0.067659 -0.02666 0.008479 -0.025694 0.026985 -0.075407 0.068683 -0.012252 0.004399 -0.022522 -0.000804 -0.011165 0.031041 -0.022959 -0.033993 0.011729 0.062473 0.020255 0.00777 -0.016924 0.112242 -0.032314 0.08664 -0.036299 -0.003104 -0.03477 -0.006585 0.025605 -0.019104 -0.073557 -0.117139 0.050717 -0.037445 -0.036214 -0.017461 0.013836 -0.023498 0.010856 0.007664 -0.12407 -0.017032 -0.063367 0.065746 -0.002879 -0.028075 0.028145 -0.038625 0.021783 0.036969 0.079285 -0.059777 -0.0772 0.04801 0.042983 0.007791 -0.088504 0.035605 0.010958 -0.036432 0.157315 0.005921 -0.038187 -6.3e-05 -0.017563 -0.021199 0.058633 0.019348 0.003204 0.004208 0.078067 0.07732 -0.052621 -0.006818 0.066609 -0.021157 -0.09341 0.005888 0.030118 0.096937 -0.013545 0.074587 0.025686 -0.004467 -0.027022 0.08 -0.080155 0.042587 -0.060541 0.03538 0.03048 0.034059 -0.036982 -0.050733 -0.016586 0.076102 0.057125 -0.04071 0.03041 -0.008589 -0.083227 0.016525 -0.053291 0.028713 0.156438 0.057476 -0.002754 0.000938 0.008964 0.085543 -0.052112 -0.071231 0.010709 0.011243 0.052149 -0.020832 0.073222 0.015579 -0.045463 0.016666 -0.016521 0.022189 0.051445 0.061215 0.054543 -0.045868 0.023708 0.104853 -0.051155 0.01844 0.00195 0.063515 -0.043246 -0.036068 0.063977 -0.030877 -0.026142 0.004527 -0.094503 -0.023606 -0.04888 -0.033326 0.01514 0.020384 0.055818 -0.037252 0.002523 -0.059647 -0.012866 0.042071 0.03971 -0.116726 0.071759 -0.017532 -0.092075 0.002427 -0.033467 -0.060173 -0.088608 0.030734 0.00027 0.036903 -0.00284 0.028606 0.019441 0.007658 0.033321 0.006184 0.021008 0.039913 0.07338 0.042596 -0.051231 0.012327 -0.01781 0.031788 0.028331 -0.019456 0.003031 0.035818 0.011219 0.008296 -0.002957
  -0.160168 0.063077 -0.019264 -0.021617 -0.050827 0.107321 -0.000962 -0.005848 -0.015148 -0.09775 0.026194 -0.048258 -0.051952 0.086578 -0.013307 0.05951 -0.01049 -0.00378 -0.004965 -0.005865 -0.017166 0.039889 -0.01372 -0.086916 0.036691 0.060805 -0.023153 0.018981 -0.052977 0.014541 -0.045849 0.046817 -0.009893 0.033616 -0.018735 -0.035676 0.005522 -0.023017 0.030383 0.004749 0.007046 0.036936 0.039057 -0.071867 0.067723 -0.00032 0.051021 -0.043111 -0.147344 0.02537 -0.020936 -0.059912 -0.002055 0.069834 0.012965 0.008713 -0.014948 0.019465 0.005952 0.070821 0.064035 0.045676 -0.006114 -0.016505 0.015424 0.043729 0.023401 -0.053307 0.035473 -0.059593 -0.028085 0.019832 0.056773 0.017164 0.002036 0.084224 -0.019697 0.133827 -0.020717 0.019344 -0.006078 -0.02109 0.124109 -0.043835 -0.062222 0.07956 -0.012157 0.014345 0.06913 -0.00738 0.06056 -0.099871 -0.049027 -0.03856 -0.010429 -0.014273 -0.026421 0.019885 -0.094268 0.085521 -0.008022 -0.020647 -0.16801 -0.180622 -0.02065 0.021369 0.061463 0.05992 0.001936 0.025556 0.000168 -0.003919 -0.082359 0.056683 0.006105 -0.040096 -0.007395 -0.0138 0.026071 -0.05008 0.032311 -0.006907 0.004868 0.04985 0.038484 -0.052776 0.057429 0.009874 -0.013768 -0.048669 -0.045977 0.048845 0.038094 0.066481 0.108398 -0.022795 -0.010606 -0.040887 -0.009149 0.026975 -0.034538 -0.02677 -0.044254 -0.012929 -0.017888 0.049743 0.016253 0.010917 -0.020907 0.061543 -0.042121 -0.013934 -0.054727 -0.028754 0.007046 0.040049 -0.004376 0.090685 0.054043 0.029032 0.032595 0.014863 0.02137 0.06121 0.014378 0.008838 0.043804 -0.042497 0.09986 0.09032 0.022432 0.021953 -0.035079 0.002147 -0.017804 -0.026397 0.027363 -0.021382 -0.018957 -0.011701 -0.078034 0.102355 -0.016585 -0.010429 -0.080895 0.105773 -0.067251 0.067398 0.034825 0.115304 -0.097506 0.039582 -0.076117 -0.085529 -0.043363 0.033089 0.08926 0.062339 0.002117 -0.008806
  -0.031939 0.035557 -0.032621 -0.006264 0.020703 0.015481 -0.02827 -0.008529 0.007628 0.076969 0.021563 -0.136758 -0.007278 -0.070659 0.034194 -0.066111 -0.002594 -0.003095 -0.002061 -0.018969 0.018318 0.071968 -0.001167 -0.056989 -0.028024 0.024433 -0.015396 0.052322 0.036533 -0.098383 -0.002075 0.00101 -0.059282 0.00868 -0.00944 -0.030636 0.060472 -0.095174 -0.019166 0.025617 -0.020936 -0.060779 0.018349 0.009928 0.013946 0.024187 0.001927 0.035326 -9.6e-05 0.04512 -0.026127 0.061159 -0.025606 0.056528 -0.020695 0.057078 0.05081 0.069067 -0.03236 -0.159764 0.057572 -0.049888 0.003599 -0.026312 -0.114182 0.020522 0.004877 -0.072392 0.014658 0.060199 0.050569 -0.020507 0.049161 0.040717 0.066598 -0.025746 -0.006541 -0.053107 0.04509 0.063491 0.024235 -0.062574 -0.067384 -0.044804 0.116961 0.127151 -0.017275 0.003931 -0.052219 -0.024152 0.032152 -0.052446 0.017938 -0.047109 0.012241 -0.012762 0.074491 0.038221 0.081857 0.099446 -0.072515 -0.005295 -0.002441 -0.134221 0.03882 0.100052 0.0592 0.075062 -0.05719 0.019552 -0.008292 -0.058932 0.148789 0.091336 0.044342 -0.017779 -0.022382 -0.042242 -0.008037 0.090814 0.035362 0.065395 -0.082226 0.033272 0.047317 -0.047049 0.112953 0.034859 0.025804 -0.017208 0.020126 0.015379 0.017155 0.069383 0.111843 0.066907 -0.015378 0.034214 -0.066565 0.004428 -0.088098 -0.020239 0.005465 -0.014912 0.069732 -0.086296 -0.101799 -0.001486 -0.00663 -0.088797 0.006447 0.014832 -0.006525 0.02926 -0.0379 0.032427 -0.042647 -0.006239 0.058169 0.036522 -0.107835 0.076894 0.02789 -0.028245 -0.008193 0.047651 -0.045461 0.021498 0.060052 0.004336 0.010468 -0.01228 -0.027383 -0.005739 0.030543 -0.073735 -0.008583 0.00713 0.013608 0.001326 -0.030222 0.071981 0.016327 0.030643 -0.062374 0.035372 -0.043467 0.013211 0.033544 0.102327 0.023902 0.033823 -0.043057 0.014625 -0.051595 -0.006531 -0.034097 -0.046286 0.050671 0.029805
  0.103604 0.013229 0.103069 -0.005657 -0.076548 -0.029942 -0.073404 -0.064446 -0.039498 -0.004639 0.047253 0.046812 -0.040485 0.056975 0.022393 -0.022122 -0.021042 0.002898 0.029411 0.046015 -0.011197 0.101364 -0.039802 0.004059 -0.097831 0.031649 -0.075809 0.005073 0.021004 0.026576 0.18837 -0.03596 0.031081 0.055223 -0.027117 0.004764 -0.058309 0.049792 0.064242 0.009409 0.090129 -0.027205 -0.075486 0.019483 -0.054771 -0.056431 -0.01064 0.110881 0.002987 -0.016018 0.077871 0.053193 0.015706 -0.094971 -0.09474 0.02129 0.027281 0.101938 -0.033954 -0.081982 -0.037267 0.057025 -0.051255 -0.044969 0.034557 0.044501 -0.087044 0.068518 0.109956 0.130499 0.075916 -0.044442 0.145631 0.109965 -0.046116 -0.04925 0.049093 0.117486 -0.031153 -0.026925 -0.218174 -0.009368 0.051888 -0.034734 0.056946 0.01808 -0.023757 -0.01121 0.033795 -0.104907 0.016168 0.006737 0.104147 0.028585 0.030642 -0.020437 -0.180799 -0.002532 0.100016 0.055952 0.118382 0.018043 -0.014195 -0.077164 0.020516 0.075609 0.112985 -0.001132 0.057085 0.02206 -0.006895 0.029245 0.021567 -0.006583 0.028469 -0.015338 -0.092282 0.032445 0.023616 0.096001 -0.037366 0.001696 -0.056767 -0.09574 0.003385 -0.03397 0.047865 -0.000716 -0.034122 -0.091265 0.005653 -0.022871 0.041762 -0.090961 0.077679 0.099981 -0.079076 -0.056227 0.028713 -0.044235 0.028442 0.002042 -0.058191 0.069969 0.052387 0.073208 -0.007135 0.028309 -0.01784 0.000586 -0.035642 0.012887 -0.035427 -0.032996 0.04142 -0.065301 -0.022191 0.018369 0.047238 0.020081 -0.066454 -0.049816 -0.028641 0.034906 -0.076981 -0.013613 -0.180502 0.05286 0.023687 0.082341 -0.068561 0.020087 0.019836 0.067234 0.038436 0.036944 -0.070875 -0.020883 0.077809 0.045262 0.064748 0.092865 -0.033265 -0.04443 -0.029946 0.160117 -0.069994 0.039081 0.020273 -0.134896 0.044784 -0.024895 0.061157 0.007055 0.067623 -0.0463 0.113031 0.035798 0.002166 -0.011099
  0.058324 0.012694 0.0377 -0.004245 -0.037318 -0.050691 -0.043387 -0.044724 -0.042477 0.069203 -0.060672 0.057316 -0.171965 -0.042231 0.020567 0.085709 -0.044488 0.014968 0.064915 -0.039258 0.041641 0.060034 0.00695 -0.009136 0.108326 0.130328 0.010728 0.069397 0.057068 -0.005523 0.020854 -0.185706 0.001966 -0.01447 0.025507 0.035153 0.082696 0.06686 -0.030687 0.052917 3.5e-05 -0.202595 0.018017 0.083836 -0.010415 -0.056252 -0.067308 -0.117909 -0.005727 0.038622 0.029215 -0.006271 0.038493 -0.059841 -0.214267 0.018401 -0.03719 0.053574 0.024412 0.075031 0.021112 -0.025675 -0.003887 0.045756 0.01799 0.027802 0.094555 -0.031274 -0.085626 0.039125 -0.004463 0.059101 -0.091292 -0.099489 -0.004753 -0.002716 0.143565 0.015584 -0.036495 -0.012512 0.015427 -0.047728 0.073284 -0.025518 0.07951 0.072953 -0.027947 0.041115 -0.104656 -0.01275 0.036304 0.032777 0.002495 -0.011087 0.038563 0.035142 -0.020175 -0.031282 -0.031798 -0.058009 -0.073126 -0.000227 0.149194 -0.214868 -0.056844 0.018993 0.006251 -0.102476 -0.074708 0.012811 0.062416 -0.041732 0.000104 0.034634 -0.10237 -0.039557 0.043666 0.004594 -0.030052 0.010927 -0.015997 0.007512 -0.076099 0.116817 -0.02485 0.056503 0.025746 0.020056 -0.012143 0.03626 -0.029123 -0.109954 -0.003571 0.002726 0.104826 0.079281 0.078892 -0.087048 0.004925 0.089333 -0.029976 -0.060718 -0.108825 0.04763 -0.116855 0.079945 -0.005188 -0.007958 0.033072 -0.007518 -0.003269 0.066404 0.028553 0.014238 -0.051087 -0.020874 -0.019058 0.051066 0.094089 0.027825 0.033404 -0.025681 -0.019369 -0.106626 -0.014955 0.01555 -0.047522 0.120778 0.035582 0.163 -0.016602 0.022091 0.010441 0.051304 0.024751 -0.113509 0.040613 -0.02404 -0.050593 0.005213 -0.068375 -0.006374 0.014292 0.006712 0.006612 -0.070795 -0.016244 -0.028599 0.032965 -0.026879 -0.043348 0.019624 0.000109 -0.009527 -0.041897 -0.017988 -0.066037 0.004355 0.095187 0.046219
  0.072341 -0.041197 0.049407 0.002426 0.050333 -0.0507 -0.142219 0.005361 -0.030707 0.011047 -0.046845 -0.066869 0.019173 0.067385 -0.006691 -0.06502 0.081154 0.040432 -0.022595 -0.019284 -0.08714 -0.02057 0.005407 -0.088278 -0.053123 0.054211 -0.005139 -0.126545 -0.013578 -0.081799 -0.011796 -0.109213 0.055884 -0.017381 0.045091 0.03128 0.039372 -0.018981 0.048349 -0.001407 0.014646 -0.202423 0.005973 0.00391 0.037228 0.009076 -0.085148 -0.000231 -0.04588 -0.023843 0.070881 0.014898 0.032163 -0.00254 -0.053919 -0.018577 -0.06297 -0.113984 -9.6e-05 0.106493 -0.023359 0.065452 0.000933 0.041667 -0.054017 0.011446 0.008218 0.03685 0.003808 -0.124498 0.044878 0.006076 -0.010965 -0.047747 0.010706 0.023884 -0.051907 -0.098433 0.031145 0.046674 0.011201 -0.046015 -0.101612 0.015385 -0.109301 0.094103 0.055531 -0.037396 -0.026824 0.065604 -0.007523 0.018117 -0.015849 -0.039313 0.035751 0.016566 0.040439 0.029618 -0.027227 -0.039727 0.045895 -0.057454 0.066906 0.049164 -0.009261 0.080835 -0.057931 -0.015278 -0.044788 0.026281 0.01573 -0.06053 -0.107235 -0.040065 -0.091788 0.058429 0.009529 -0.016877 -0.034637 -0.039804 -0.014587 0.01186 0.134992 -0.043364 -0.015956 -0.188535 -0.03239 0.073219 -0.025827 -0.015513 -0.065578 0.07611 -0.012849 -0.046514 0.075678 -0.070436 0.081089 0.045963 0.003833 0.057997 -0.016521 -0.062027 -0.06462 0.037609 0.002189 0.035401 -0.029633 -0.011636 0.049605 0.050301 0.02118 -0.007582 -0.012023 0.001361 -0.021753 0.031501 -0.041377 0.054976 0.027572 -0.002602 0.065423 -0.002393 0.035895 0.124479 0.067527 -0.016359 0.044932 0.052224 0.004932 0.129786 -0.003389 0.010445 -0.027331 0.019562 0.071054 -0.151199 0.047114 0.014318 -0.078103 0.009035 0.099284 0.015245 -0.041142 -0.11276 0.000998 -0.051298 -0.040466 -0.071956 0.092737 -0.058965 -0.131182 0.082782 -0.109801 -0.019732 0.010056 0.04215 -0.033001 0.049237 0.064163 -0.023465
  -0.162617 -0.058355 0.061077 -0.02091 0.105794 0.065437 -0.029907 0.003976 0.050749 -0.130294 -0.016164 -0.015409 -0.070426 0.095757 0.016895 -0.097075 0.068441 0.046393 0.045045 -0.06347 0.022151 0.069218 -0.00192 -0.087308 0.113647 0.152476 -0.07033 -0.109493 0.016847 -0.030004 -0.07623 0.001759 -0.021859 0.007839 0.02808 0.065398 -0.037634 0.010495 -0.09998 0.07011 0.109841 -0.06872 0.067528 -0.006053 -0.003532 -0.024136 -0.024087 -0.057129 0.021634 0.043197 -0.03362 -0.033686 0.027418 -0.054395 -0.140773 0.044148 -0.066623 -0.046865 0.02537 0.099608 -0.056386 0.089957 0.002003 0.030409 0.034926 0.052341 -0.075632 -0.044302 -0.024067 -0.066341 -0.066981 0.006272 0.068725 -0.101853 0.001627 -0.03982 0.03108 0.036346 -0.049028 -0.032095 -0.061019 0.016715 -0.032207 0.041672 0.035369 -0.123937 0.008454 0.001779 -0.030846 -0.003708 0.00718 0.089545 -0.006238 0.00521 0.007319 0.111021 0.011158 0.027174 -0.000903 -0.101927 -0.118292 0.005536 0.07055 0.027908 0.019573 -0.034847 0.023105 0.039089 0.014888 0.030605 -0.036563 0.054763 0.058353 -0.014486 0.052754 0.032228 -0.089145 0.008179 0.057935 0.061189 0.062256 -0.082304 -0.144588 0.007933 -0.000749 -0.064316 -0.112134 0.013292 0.068568 0.053299 -0.041735 0.093596 -0.008931 0.064413 -0.029766 -0.129453 0.04707 0.032122 0.008813 0.036066 0.060934 0.061179 0.016533 -0.027399 -0.088175 0.046541 0.03658 -0.059024 0.06633 0.083857 0.036481 -0.042996 0.003375 -0.008833 0.016768 0.00477 0.009348 -0.110824 0.08659 0.022687 0.016044 -0.04042 0.020959 0.006992 0.023974 -0.002718 -0.071089 0.0219 -0.031011 0.080271 -0.009298 0.085432 0.004696 0.115256 -0.005044 0.067197 0.001899 0.026949 -0.045509 -0.001052 0.020813 0.076336 0.00235 0.105092 0.028747 -0.015229 -0.040064 0.10661 -0.073952 0.164132 0.076499 0.08569 -0.084139 0.022279 0.027034 0.005417 -0.004646 0.024741 0.034091 -0.043746
  0.056414 -0.008701 -0.085454 -0.017813 -0.025432 -0.014059 -0.080468 0.0159 -0.034584 -0.131054 0.025819 0.036757 0.010868 0.057309 0.000234 -0.03617 0.19116 -0.054796 0.007379 0.03424 0.000556 -0.103772 0.006591 -0.046475 -0.033613 -0.002611 0.02665 -0.05053 0.007241 -0.069407 0.092979 0.013817 -0.027667 -0.023055 0.008666 0.015356 -0.043863 0.08291 -0.083879 -0.02941 0.122231 0.017284 0.000273 -0.008344 0.022892 0.025716 0.006298 0.043292 0.011021 -0.020963 0.008332 0.041372 0.028314 0.07052 -0.050407 0.045504 -0.043595 0.030577 -0.010185 0.003899 0.018833 0.014558 0.005605 -0.050357 0.026394 -0.063876 0.110985 0.001807 -0.016548 0.06349 -0.037152 -0.120481 0.132551 0.198208 -0.007524 -0.020249 0.002277 -0.111324 0.01831 0.041228 -0.00476 -0.073193 0.056024 0.045312 -0.1771 -0.049887 -0.014438 -0.025599 0.020879 0.035968 -0.049889 -0.035765 0.081833 0.024872 -0.019141 -0.019541 -0.040423 -0.020248 0.123824 0.045949 -0.023696 0.027707 -0.06801 0.140141 -0.025061 -0.044549 -0.054324 0.0999 0.002292 0.007044 -0.015829 -0.048081 0.06196 -0.017275 -0.129763 0.028457 0.0585 0.056772 -0.057591 -0.027785 -0.05663 -0.069472 -0.019925 0.018658 0.008176 0.06058 -0.00767 0.01131 -0.027276 0.029184 0.018696 0.048687 0.03138 -0.099011 0.042194 -0.234549 0.027247 0.024002 -0.037906 0.014063 0.018221 0.020603 -0.076088 0.017531 0.050747 0.129116 0.089865 -0.002284 0.083578 -0.202395 0.017004 0.007564 -0.035396 0.034997 0.047645 0.08261 -0.008044 -0.148577 0.053179 0.007576 -0.026874 0.073719 0.09664 0.011992 0.045867 0.012526 -0.109374 -0.013799 0.008172 0.057163 0.015616 0.012836 0.065116 0.038041 -0.010979 0.021027 0.00497 0.066703 0.060643 -0.006412 -0.036833 -0.079304 0.003631 0.014471 0.012383 -0.141385 0.036679 -0.03762 0.01959 -0.09254 -0.096128 -0.078482 -0.05318 -0.159546 0.044091 0.069545 -0.067909 0.000172 0.068787 -0.016744
  0.043384 0.02818 -0.041766 0.03851 -0.149891 0.078534 0.013074 0.036938 -0.031404 0.078214 -0.0131 0.078753 -0.00696 -0.002747 -0.07892 -0.078678 0.090572 -0.060014 0.056055 0.002455 0.004333 0.096396 0.028627 -0.029712 0.029359 0.064621 0.023551 0.03597 -0.030631 0.065163 0.069451 0.015357 0.020767 -0.02933 0.016185 -0.024698 0.038502 -0.00698 0.017408 -0.044791 0.133387 -0.09013 0.005641 -0.042472 -0.030771 -0.024004 -0.054514 0.101306 0.051371 -0.01366 0.055396 0.021467 0.036223 -0.088885 0.074864 -0.013462 -0.002878 0.0017 0.032027 0.09403 -0.107846 0.04524 -0.004442 0.023956 -0.014091 -0.01567 0.062011 0.076073 0.068623 -0.122668 -0.046012 -0.031819 0.043086 0.093299 0.019094 0.033176 0.102187 -0.125931 0.020592 -0.025892 0.033721 0.056884 0.026696 -0.03725 -0.104893 0.072962 0.046084 0.025476 -0.02109 -0.050066 0.05073 0.117762 0.07554 -0.089301 0.030933 -0.006567 0.02451 0.000498 0.113043 0.041506 -0.016137 0.023459 0.008406 -0.059553 0.015597 0.000978 -0.018586 0.043575 0.013414 0.016788 0.032143 -0.023539 -0.020173 0.059187 -0.027251 0.016184 -0.06977 0.104243 -0.043146 0.003908 0.029536 -0.102724 -0.044358 -0.077241 -0.005024 -0.076119 -0.036307 0.023971 -0.10468 0.049639 0.045499 0.010386 -0.054843 -0.07436 0.002285 -0.056437 0.019455 -0.036127 0.001726 -0.037382 0.076484 -0.038721 -0.106169 -0.027637 -0.042539 0.046014 0.000114 0.011455 0.027568 0.028912 0.016225 0.050095 -0.003074 0.030608 0.027187 -0.088258 -0.015256 0.023265 0.02602 -0.030182 -0.134335 -0.042763 0.044755 0.056048 -0.10521 0.024491 0.050075 -0.038175 0.008511 0.003696 -0.103408 -0.091798 0.036756 0.013307 0.021345 -0.012618 0.094553 -0.028547 0.036354 0.008225 0.089979 0.062501 0.008746 -0.135875 -0.005707 0.009325 -0.092343 0.104082 0.066011 -0.150244 0.008167 0.038366 0.055543 0.018084 0.015738 -0.036618 0.027063 -0.015395 0.086998 -0.008068
  0.003736 0.132043 0.328887 0.08985 -0.057075 0.027494 -6e-04 -0.198704 -0.377734 -0.053777 0.186544 -0.010231 0.023997 0.028322 -0.071333 0.420481 0.003018 -0.03884 -0.005419 0.179561 -0.236744 0.013469 -0.181389 -0.022382 -0.001221 0.605253 -0.22741 0.570374 -0.298913 0.038045 0.476687 -0.024174 0.218509 0.038508 0.130584 0.129039 -0.001455 -0.039803 -0.02428 -0.026093 0.018551 0.04564 0.245452 -0.065987 -0.008757 0.085803 0.148307 -0.006992 0.038556 -0.029061 -0.008659 -0.301308 -0.012138 -0.019942 0.022023 -0.022799 -0.024046 0.002786 -0.077353 0.016404 -0.071328 -0.048237 -0.166362 0.165529 0.312739 0.019693 -0.036947 -0.013609 0.327675 0.134867 -0.023096 0.046211 0.12444 0.54223 -0.542284 -0.201903 -0.361366 0.452633 0.091854 0.065484 -0.532245 0.07615 -0.055492 -0.742778 -0.055225 -0.004974 0.043078 -0.001704 -0.016356 -0.169767 0.170378 0.115258 0.207232 0.473376 0.051557 0.348439 -0.002971 0.129244 -0.047893 0.420347 0.021504 -0.255386 0.327084 0.03335 -0.020983 0.258517 0.110298 0.016495 0.058417 -0.027413 0.155454 -0.291983 -0.032117 -0.017529 -0.144446 0.08566 -0.229471 -0.67487 0.094754 -0.019567 0.010246 -0.057343 0.000958 -0.034822 -0.363269 -0.040712 -0.066032 -0.049914 -0.041146 0.154513 0.040304 0.279647 0.003013 -0.002062 0.267203 -0.018686 -0.003479 -0.03512 0.1057 -0.000627 0.138338 -0.003661 0.009747 0.009042 0.0207 -0.004583 -0.006552 0.223835 -0.004405 -0.04404 0.062209 0.020454 0.139076 -0.137644 0.039656 -0.016204 -0.05131 0.255387 0.000304 0.183793 0.001611 -0.034018 0.197431 0.018445 0.050407 -0.055856 0.015669 -0.025616 0.168025 -0.036513 -0.021688 0.014558 -0.245281 -0.02595 -0.031806 0.043947 0.004291 -0.016756 0.020998 0.051182 -0.04911 0.01436 0.096347 -0.033464 -0.321592 0.227602 -0.403771 0.076947 0.004278 0.009676 -0.061862 0.027058 -0.028108 0.266802 0.000462 -0.030504 0.17133 0.138303 -0.015922 -0.388359
  -0.03575 0.171531 -0.356873 0.154223 0.174349 -0.010462 -0.024231 0.385159 0.223491 -0.028663 0.064253 0.032677 0.034818 -0.009997 -0.003728 -0.298982 0.003496 -0.45935 -0.014855 0.12755 0.162349 -0.033853 0.112503 -0.017049 -0.047029 -0.224149 -0.419515 0.365648 0.09746 0.004145 0.513243 0.034911 0.206108 0.107405 0.220804 0.018924 0.012565 0.063854 -0.01877 0.035874 -0.067701 0.009908 -0.162464 0.328586 0.034985 0.031506 -0.142489 0.018101 -0.032739 0.07234 0.00254 0.237444 -0.001611 0.312315 -0.025 -0.032975 0.02916 -0.004557 -0.208363 0.018703 -0.023895 -0.005452 0.151336 0.194941 -0.095534 -0.338718 -0.004595 0.045387 0.338604 -0.292877 -0.010878 0.164693 -0.01153 0.296551 -0.014133 0.007018 0.039801 0.214729 -0.108795 0.143775 0.399943 -0.309106 -0.057623 -0.015859 -0.017423 0.033321 0.000351 -0.013225 0.032496 0.092604 -0.071242 0.433268 0.154492 -0.126164 0.112517 -0.38506 0.006068 0.042732 0.012749 0.150036 0.282127 0.086709 0.401806 0.009851 -0.046861 -0.124108 -0.06285 -0.048908 0.185794 0.03116 0.061194 0.162835 0.118514 -0.005176 -0.379761 0.236896 0.067098 0.37037 0.176596 0.015151 -0.00494 0.069726 0.012621 0.027753 0.068755 0.02933 -0.008977 -0.0164 -0.0271 -0.001754 0.17764 -0.088756 -0.204878 0.040467 -0.030701 -0.00913 -0.052304 -0.304886 -0.167879 -0.028958 -0.026092 0.15111 -0.045022 0.032017 -0.028444 0.018271 -0.023676 -0.055962 -0.007758 0.011207 -0.371046 0.027601 0.116053 0.131802 -0.234278 -0.002891 -0.331217 0.078039 -0.021968 -0.450875 0.154488 8.6e-05 -0.092534 0.045407 0.135421 0.078941 0.026112 -0.0336 0.067153 -0.030929 0.029051 0.00314 -0.011688 0.010013 0.274891 -0.074694 0.01736 -0.025537 0.029138 -0.291196 -0.011114 0.068864 0.237314 -0.006507 0.09546 -0.035462 -0.111345 0.03633 0.030215 -0.027651 -0.015602 -0.000813 -0.051226 -0.01388 0.009591 -0.02573 0.220562 0.099931 -0.012577 0.094696
  -0.042651 -0.519011 -0.201729 -0.493191 -0.308465 -0.015126 -0.042458 0.215782 0.093053 -0.047948 0.017916 -0.016841 -0.010956 -0.031799 -0.027456 0.188475 0.018561 -0.015322 0.003885 0.147866 0.119184 0.027605 0.097644 -0.021679 -0.009292 -0.004758 -0.356879 0.399663 0.007439 -0.022917 -0.453656 -0.047556 -0.071566 -0.113844 -0.182885 -0.46657 -0.049031 0.013074 0.025863 0.008695 -0.032749 0.02463 0.176464 0.186412 -0.029321 0.164925 0.172874 -0.011135 -0.00086 -0.009328 -0.033775 0.11897 -0.006211 0.097634 -0.025447 -0.031972 0.004333 -0.01466 0.013182 0.047956 0.017457 -0.020601 0.200597 -0.016217 0.05348 0.015668 -0.043314 -0.010215 0.129488 0.267395 0.01103 0.147907 0.138562 -0.373082 0.102715 0.196146 -0.035552 0.118637 -0.004207 -0.311987 0.333396 0.14506 -0.036159 -0.535264 -0.079965 -0.067588 -0.454717 -0.00461 0.004505 0.175875 -0.203928 0.378325 0.082439 -0.054174 0.102289 -0.08336 -0.039816 0.09471 0.012652 0.320973 -0.161429 0.01846 -0.380324 -0.039316 0.031358 0.122123 0.157468 -0.016967 -0.188624 -0.002531 0.074477 0.117891 -0.299112 -0.04662 0.10848 0.10552 -0.286671 0.317771 0.169745 0.019468 -0.035565 0.026749 0.001352 -0.061739 0.079177 -0.070249 -0.015257 -0.053263 -0.029298 0.06074 0.171408 0.050317 -0.006831 -0.032674 0.285804 -0.046937 -0.053727 -0.364377 0.003735 -0.032958 0.216306 0.177952 -0.047194 0.016453 0.006203 0.002314 -0.04724 0.039297 -0.039229 -0.015199 0.139816 0.031883 0.15583 0.080308 0.037566 -0.021536 -0.107255 -0.203108 -0.009334 -0.349572 0.067607 -0.031443 -0.025228 -0.029326 0.004021 0.126312 0.044614 -0.024705 -0.002193 0.031458 -0.00346 -0.043777 0.226765 0.024384 0.154662 -0.041953 -0.021562 -0.024793 -0.004758 0.025627 0.008039 -0.005352 0.112856 0.025826 0.115286 0.062868 0.090913 0.000477 -0.006571 0.028362 -0.051515 0.020333 -0.049721 0.159609 0.022994 -0.04539 -0.140636 -0.101353 -0.036518 0.17657
  0.064462 0.057991 0.13396 -0.136723 0.180499 0.033363 -0.094148 0.014543 0.168459 -0.018378 -0.130421 -0.050943 -0.022492 0.000809 -0.028689 0.252666 -0.019782 0.014989 0.051162 0.070399 0.078971 -0.021844 -0.267635 -0.048076 0.041349 -0.180394 -0.359502 0.345606 0.009516 -0.042327 -0.257717 -0.102642 0.115114 0.152006 0.035835 -0.142081 0.069252 0.019906 -0.006476 0.014089 0.030019 -0.010467 -0.026956 0.323961 -0.002541 0.080774 -0.015523 0.044773 -0.032454 -0.056569 -0.009986 0.06349 -0.004115 0.171617 -0.109497 0.015037 -0.022142 -0.005651 0.032179 -0.016466 -0.012415 0.035521 -0.078043 0.08023 -0.00901 0.015823 0.034922 0.004748 0.146949 0.392103 0.012932 0.084295 -0.037109 0.0391 -0.00556 -0.125465 0.125882 0.157386 -0.031366 0.086545 -0.002175 0.142683 -0.061549 -0.378768 -0.004506 0.13332 -0.324464 -0.018023 -0.015426 -0.11318 -0.159796 -0.040331 0.018765 -0.110202 0.097788 -0.11034 0.0418 0.095496 0.030831 0.321647 0.223522 0.044951 0.262758 0.001124 -0.005918 0.113453 0.026669 0.049948 -0.132441 -0.021946 0.082788 0.108639 0.007827 0.001104 0.212366 0.19062 0.118817 0.156631 0.15347 -0.053149 -0.007405 0.000892 0.070205 0.012303 0.143725 0.048151 0.008034 -0.000427 -0.035433 0.068935 -0.071045 0.045964 0.055963 -0.036952 -0.001145 -0.037483 -0.056845 -0.059505 -0.118721 0.029832 -0.119984 0.148267 0.007626 -0.010677 -0.022668 0.062852 0.043975 0.062725 -0.048049 -0.060909 0.078488 0.002994 0.076231 -0.125453 -0.187021 0.013013 0.05081 0.242346 -0.015356 0.016605 0.132184 0.036662 0.054112 0.033463 -0.019294 -0.098079 0.048037 0.04081 0.024826 0.048589 -0.005177 0.018329 0.089387 0.04327 -0.144136 -0.071622 0.043839 0.029751 -0.073564 0.093083 0.061896 0.025477 0.147635 -0.109832 0.097795 0.151443 -0.049902 0.016955 0.066093 -0.014185 -0.084336 0.025379 -0.059984 0.134617 0.022985 0.019856 0.090853 0.09972 -0.03394 -0.122206
  0.025188 -0.088064 0.041263 -0.109698 0.069013 0.041629 -0.006265 -0.308001 -0.054215 0.006658 -0.12028 0.058134 -0.013776 -0.001186 0.140056 -0.015121 -0.009846 0.090229 -0.014073 0.1256 0.076783 0.007835 0.072854 0.007541 0.020671 0.423519 -0.08451 -0.126069 -0.064535 0.017304 0.305359 -0.087555 0.103829 0.139036 0.101874 -0.048052 0.063535 0.001664 -0.021129 -0.026644 0.022055 -0.036615 0.219986 -0.198384 -0.014674 0.083755 -0.204751 -0.007392 -0.052076 0.024042 -0.020745 0.10524 0.011391 0.207026 -0.026009 0.011459 -0.048162 0.045574 0.171578 -0.043501 0.010733 0.008766 0.144437 -0.21836 -0.01451 0.112103 -0.033302 0.059469 0.181488 0.302914 0.012867 0.119999 -0.045812 -0.18014 0.09826 -0.214888 0.221766 0.074482 -0.296377 0.02045 0.245788 -0.107309 0.032805 -0.054426 0.005873 0.053063 -0.238904 -0.017646 -0.068939 0.097209 -0.188546 -0.208647 0.162459 -0.13264 0.146781 -0.142267 0.057622 -0.20192 0.010705 0.010997 0.354723 -0.130376 0.364829 0.043128 -0.01707 0.170048 0.109217 -0.017874 -0.129064 9.7e-05 -0.093573 -0.267249 0.109395 -0.02007 0.08529 0.094593 0.085819 0.020358 -0.016624 -0.093902 -0.027303 -0.016685 -0.067061 -0.068606 -0.042733 0.034108 -0.017376 0.020582 -0.03901 0.006392 0.015561 0.202378 0.173311 -0.018217 0.179243 -0.042265 -0.07007 0.152657 -0.162201 0.040156 0.02507 0.048924 -0.034762 -0.044477 -0.087734 0.044572 0.046578 0.21675 -0.028773 -0.034058 0.091901 -0.005006 0.10975 0.11069 -0.193835 -0.008176 -0.027388 0.312155 -0.045401 -0.288562 0.194653 0.000875 0.140898 -0.014699 0.060207 -0.095566 -0.011875 -0.025516 0.033982 0.044755 -0.014409 0.051449 -0.24569 0.021345 0.197339 0.004433 -0.035753 -0.011683 -0.131938 -0.009299 -0.024898 0.094952 -0.272531 -0.024474 0.055421 -0.030971 0.175065 0.052244 0.082284 -0.004515 0.013656 -0.012493 0.052203 0.213436 -0.028115 0.015885 0.064995 0.091492 -0.061212 0.04274
  -0.000204 -0.219916 0.280553 0.172248 -0.356147 0.0546 -0.03654 0.211694 -0.08251 0.010725 0.171832 -0.023569 -0.019184 -0.002258 -0.097637 0.336064 0.039651 0.112802 0.024284 -0.216269 0.172053 -0.02878 -0.261495 0.016091 0.011241 -0.124799 -0.043399 0.335453 0.157444 0.049528 -0.323068 0.018579 0.148027 0.029781 0.148133 0.004682 0.001755 0.02061 -0.015105 -0.001932 0.005653 -0.012173 0.048242 0.2047 0.035229 -0.142828 0.010806 0.066816 -0.045125 -0.000235 0.001623 0.116337 -0.038307 0.063521 -0.027723 0.05205 -0.021722 0.056689 0.193188 -0.000233 -0.004439 -0.019121 0.117473 0.136578 0.137283 -0.056093 -0.004839 0.085624 -0.459856 -0.086723 0.043224 -0.044793 0.054391 0.612644 -0.167157 -0.132766 0.354132 0.258332 -0.466602 -0.081679 0.155969 0.040118 -0.036713 -0.309941 0.034283 0.038103 0.116306 -0.023113 0.039018 0.161356 -0.256476 -0.228743 -0.176332 -0.050213 -0.329883 0.280918 0.022152 -0.21196 0.00953 0.084168 -0.036742 0.00349 -0.106646 0.070907 -0.031511 0.126394 -0.140451 -0.011759 0.113949 0.0245 -0.174815 0.090214 0.234425 0.040605 -0.186878 0.103106 0.136254 -0.031259 0.115201 -0.036515 -0.008047 0.01258 0.016442 -0.009388 -0.22752 -0.024496 0.023988 0.049924 -0.064694 -0.013253 -0.081275 -0.021709 0.017178 0.013798 -0.121668 0.041752 -0.030532 0.170985 -0.033827 -0.029344 0.20268 0.069753 -0.034655 0.034471 -0.010779 0.044815 -0.023913 0.177225 -0.009399 -0.008234 0.006847 0.022419 0.141878 0.090848 -0.061303 -0.054617 -0.005855 0.107128 -0.036201 -0.291954 0.192185 -0.022975 0.112734 0.010775 0.095969 0.007 -0.031643 0.006845 -0.006528 -0.059264 -0.00685 -0.037257 0.17839 -0.061596 0.142572 -0.087736 -0.008817 0.011669 -0.385135 0.101332 -0.057267 -0.013964 0.063929 -0.044204 0.023731 0.168466 0.209491 -0.024832 0.061262 -0.032577 -0.061847 0.032904 0.013501 0.288709 -0.027105 0.000574 0.239929 0.126105 -0.004865 0.112924
  0.138124 0.009124 -0.049679 -0.025802 -0.026062 0.03564 -0.019518 0.027834 0.014763 0.019944 -0.006683 0.034897 0.003218 0.035926 -0.008016 0.026687 -0.082651 -0.030293 -0.050076 -0.014693 0.032746 0.028969 -0.001641 0.027577 -0.068321 -0.023584 0.011251 0.040134 0.002394 -0.043271 -0.092848 0.021282 0.044327 -0.052745 -0.00901 -0.002269 -0.053245 -0.035089 0.061561 0.057268 -0.066388 -0.125297 0.005028 -0.072211 -0.036146 0.020516 0.063425 0.143503 -0.045302 0.050225 -0.017297 0.005917 0.014815 -0.011784 0.107763 0.027157 -0.022524 0.078733 0.023286 -0.017163 0.004671 0.104046 -0.008505 0.042924 -0.001765 -0.019875 -0.051985 0.009076 -0.014047 0.043227 0.000545 -0.024006 -0.052334 -0.031222 0.046281 -0.008257 -0.093418 -0.047311 -0.043618 -0.040746 0.12507 0.033577 -0.112777 -0.081576 -0.079257 0.041606 -0.014439 -0.033446 -0.108736 0.030802 -0.010012 -0.083065 -0.052132 -0.0117 0.016077 -0.068299 -0.007145 0.012856 0.013198 0.059733 0.024759 -0.050152 -0.078844 0.017645 0.06906 0.018347 0.034499 0.170217 0.017507 0.002755 -0.010739 0.047384 0.044055 0.097706 -0.059343 0.034773 0.032901 0.046312 0.035366 -0.057575 0.048237 -0.023701 0.098589 0.111798 -0.013381 -0.003064 -0.029689 -0.049075 0.017116 -0.021682 -0.035114 0.097325 0.051589 0.046856 -0.023708 -0.005362 0.004502 0.006566 -0.029604 0.056139 -0.029385 -0.043181 -0.050693 -0.02696 0.01122 -0.019914 -0.075977 0.018759 0.041794 0.07691 -0.003307 0.064324 0.044987 0.046738 -0.037345 0.067223 0.007165 -0.00986 0.030166 0.008778 0.026633 -0.015566 0.038639 0.02579 0.008757 -0.07464 -0.100149 0.02401 -0.091594 0.007277 0.021186 0.059981 -0.018503 0.023758 -0.012795 0.076495 -0.023203 0.01073 0.022472 -0.035012 -0.044027 0.096372 -0.051145 -0.040034 -0.007221 -0.004659 0.079879 0.056891 0.051187 0.01305 -0.009986 0.088085 0.030171 0.000118 0.011256 -0.04689 -0.072137 0.016634 0.013276 -0.038763
  0.149606 0.008076 0.03451 -0.016007 0.055661 0.00658 0.002557 0.018097 0.017982 0.052784 0.005892 0.000135 0.024613 0.076655 -0.006181 0.109653 -0.017487 -0.005921 0.153328 0.036141 0.012055 -0.015576 -0.009398 0.060338 0.048502 -0.013488 -0.071277 0.096146 -0.027606 0.010382 0.03823 0.081162 -0.009477 -0.022179 -0.000891 0.032753 0.013143 -0.017733 -0.032837 -0.027252 0.019352 0.073476 0.006005 -0.091743 -0.034686 -0.009284 0.006011 0.110338 0.021702 0.001548 0.003204 0.017728 0.000108 -0.042651 -0.055081 0.029496 0.016878 0.001111 0.01231 -0.004903 -0.090731 0.035301 0.092535 0.020622 0.06335 0.038155 -0.016984 -0.013201 0.00627 0.131082 0.017444 0.049605 -0.116399 0.049406 0.008974 0.052345 0.000248 0.130719 -0.011007 -0.007063 -0.0646 0.005213 -0.023455 0.012398 0.021508 0.049802 -0.016359 0.037696 -0.028202 0.077045 -0.060363 0.032849 -0.014449 -0.048513 0.006093 0.027183 0.023642 0.015019 0.056944 -0.095509 0.042869 -0.047414 -0.012591 0.096663 0.002711 -0.017051 0.054885 -0.031177 -0.018629 -0.018684 -0.051569 0.046519 -0.026817 -0.016756 -0.023246 -0.0671 0.008232 -0.057656 0.042047 -0.01127 0.028235 0.092478 0.050027 -0.014419 0.035926 -0.02226 -0.041194 0.008985 -0.034366 -0.046444 0.03776 0.052215 0.037877 -0.040128 -0.145919 0.002984 -0.041905 -0.022256 0.030512 0.028039 -0.061673 -0.025469 -0.080441 0.035098 -0.03863 0.077733 -0.003849 0.051839 -0.029645 -0.012761 0.01026 0.042221 0.04643 0.016619 0.03195 0.051804 0.037534 -0.058157 -0.059141 0.053644 0.020483 -0.061349 0.001909 -0.10511 -0.12668 0.045628 0.002403 -0.04057 -0.041035 0.076838 0.008246 -0.056803 0.042131 0.067218 -0.001633 0.045863 0.107831 0.015219 0.025034 -0.007473 -0.049967 0.03408 0.002506 0.042126 0.024469 -0.087784 0.028667 -0.042057 0.08154 -0.109388 0.036842 0.16249 0.023929 0.089459 0.034366 -0.030838 -0.109344 -0.015143 0.077461 -0.000888
  -0.036308 0.018701 0.019148 -0.072562 0.043021 0.04484 -0.030272 0.014507 -0.001583 -0.019494 -0.030014 0.060331 0.007843 -0.025455 -0.098818 -0.021666 -0.072873 -0.002015 -0.027691 -0.064691 0.032982 -0.082406 -0.000325 -0.004594 0.055858 -0.122709 -0.021885 -0.139776 0.021295 0.012389 0.064044 -0.001079 0.050548 -0.017859 -0.02826 -0.001228 -0.046504 0.019411 -0.092879 0.052934 -0.023617 0.049011 -0.088771 -0.044432 -0.022582 0.00856 0.009794 -0.045425 -0.008082 0.013171 0.016769 0.004591 -0.028864 -0.0064 0.006408 0.031418 -0.023121 -0.060763 -0.007918 -0.046609 0.023831 -0.02503 0.036227 -0.109313 0.058845 -0.026427 0.012735 -0.055596 -0.021054 0.084729 0.031917 0.025109 -0.091308 -0.032531 0.064695 -0.002955 -0.0536 -0.089292 0.017199 -0.006247 0.038655 -0.037259 -0.049998 -0.019808 -0.004855 0.063359 -0.035632 0.034932 0.001694 0.013112 -0.067511 0.005372 0.013261 -0.095267 -0.000474 0.01653 0.068168 -0.035169 -0.046343 -0.021868 0.010585 0.044571 -0.019141 -0.00138 -0.042751 0.000362 -0.036108 -0.103429 0.020812 0.051024 0.05433 0.00415 -0.108648 0.012506 -0.051033 -0.036765 -0.006146 -0.059381 0.069479 -0.08511 0.046672 0.017679 0.00534 -0.06498 -0.003417 0.041911 0.030543 -0.019139 0.058356 -0.019135 -0.040188 -0.04474 0.029586 -0.06069 -0.050055 0.002446 -0.099005 -0.010697 0.023228 0.040515 -0.10556 0.078597 0.106813 -0.063694 -0.018047 0.044526 0.027422 0.05351 0.031839 -0.081932 0.014389 0.071848 0.022242 0.012248 0.006382 0.080113 0.00394 -0.120947 -0.066552 0.012174 0.016706 -0.006656 0.034899 -0.001739 0.0284 0.014791 0.06372 0.055683 -0.04135 0.059771 0.071073 0.062397 0.018074 -0.065119 -0.103597 -0.023661 0.052273 0.044111 0.081485 0.002008 -0.023677 -0.004371 0.031191 -0.072756 -0.032762 0.040766 -0.014682 0.004497 0.034356 -0.092276 0.024858 0.026113 0.084168 -0.011138 0.026507 -0.009333 -0.079886 -0.083742 0.033568 0.016526
  -0.101546 0.033687 -0.084238 -0.056935 -0.019567 0.094423 0.012103 0.083475 -0.00146 -0.087342 0.036448 0.015586 0.029736 -0.078828 0.099449 0.024829 0.086253 -0.025051 -0.114028 0.007318 0.007953 -0.025933 0.0107 0.03873 0.090495 -0.025491 0.005424 0.016452 0.045792 0.008369 -0.036529 -0.046423 -0.048513 0.01188 -0.055609 0.021471 -0.013712 0.010044 0.045413 0.070524 -0.004861 0.076967 0.003023 -0.012867 0.020757 -0.029108 0.010855 -0.004017 0.055606 -0.004655 -0.040455 0.011612 0.037324 0.005337 0.071148 0.002722 0.029373 0.052986 -0.047437 0.07154 -0.057449 -0.040049 -0.024024 0.044159 0.077665 0.063245 0.06669 -0.00473 -0.000763 -0.024637 0.020613 0.031756 -0.014399 0.012607 0.010817 0.002479 0.005156 0.009124 0.038245 -0.001771 0.078372 -0.00554 0.047274 -0.000909 -0.051907 0.042282 -0.045154 -0.048872 0.010544 0.029936 0.016997 -0.045801 0.003332 0.077335 0.023102 -0.033988 0.070275 -0.020927 -0.038003 0.013879 -0.064717 -0.084947 -0.101214 -0.176025 -0.016387 0.003485 0.005962 -0.133943 0.033034 0.049484 0.001785 0.046117 0.020815 -0.021429 -0.025804 -0.038271 0.028323 0.006667 -0.014635 -0.071339 -0.005552 0.0057 0.042487 -0.056098 -0.028696 0.038788 -0.005636 0.013165 0.041907 0.007568 -0.024067 -0.074301 -0.006804 0.045621 0.009969 -0.051018 -0.014562 0.029469 0.042341 -0.02418 -0.025305 0.053671 -0.02076 -0.020403 0.006046 0.093073 -0.055385 -0.03481 0.081295 -0.018129 0.008841 -0.027059 0.053913 -0.003608 -0.036683 -0.009623 0.012695 0.111875 -0.026438 0.058738 -0.005386 0.074362 0.027573 0.038491 0.083044 -0.051747 0.073233 0.019423 0.02094 0.013323 -0.046117 0.056756 0.021735 0.004771 0.002757 -0.047813 -0.007794 -0.026134 -0.014689 0.018513 0.024908 0.029831 0.045739 0.094048 -0.001876 -0.112578 0.003627 0.043437 -0.037401 -0.108975 0.027533 0.109304 -0.088947 0.062111 0.017882 0.060649 -0.036407 0.001719 0.065362 -0.036797
  0.085627 0.024375 0.00257 0.006143 0.06455 0.005054 -0.059869 0.034681 0.070009 0.097681 0.027051 0.075785 0.026442 0.007965 0.022641 0.078911 0.085098 -0.010932 -0.121075 -0.002365 -0.024904 -0.070689 -0.018553 -0.015209 0.054096 -0.079412 0.010053 0.050881 -0.025595 0.048023 -0.113537 -0.029609 0.053753 -0.041587 -0.02957 0.005345 0.044906 0.041713 0.01989 0.03284 0.072222 -0.032673 -0.02321 0.065384 0.025692 0.018643 0.045861 -0.072471 -0.073529 0.068107 0.005649 0.007975 -0.023319 0.053465 -0.089718 0.076705 -0.078116 0.118563 0.007371 -0.019303 0.038218 0.031061 -0.040765 0.015191 0.081829 0.012452 -0.018076 0.085641 0.051344 0.04356 -0.051517 -0.001706 -0.120611 -0.061988 -0.006487 -0.039395 -0.015544 -0.062223 -0.005228 -0.009918 0.003757 -0.001352 0.048071 -0.046029 -0.026073 0.02349 -0.008599 0.029465 -0.036997 0.029723 -0.009226 -0.123642 -0.060462 0.061377 0.02704 -0.034585 -0.055226 -0.007573 -0.012687 0.075347 0.091561 -0.079075 -0.006834 0.0382 0.08583 -0.000762 0.056094 0.030695 0.012351 0.017063 0.053641 0.019559 0.021666 0.091912 -0.064135 -0.015324 0.055484 -0.009876 0.030085 0.103021 -0.011629 0.028006 0.039652 0.025044 0.05045 -0.00478 -0.068805 -0.07929 -0.039739 0.009959 0.025593 -0.043175 -0.032031 0.083781 0.023179 0.004017 -0.036771 0.057977 -0.027012 0.055217 -0.081104 0.013357 -0.007673 0.097465 0.059448 0.033383 -0.097775 0.047096 -0.012633 -0.062524 0.025685 -0.005803 0.031397 0.01333 -0.001476 0.072213 -0.008355 0.054677 0.033761 0.048725 -0.053541 0.043756 -0.03231 -0.036842 0.011574 -0.008872 -0.080099 0.006239 -0.100843 -0.056598 -0.021437 -0.006515 0.006548 -0.008474 -0.028393 -0.078019 0.001918 -0.060629 -0.01033 -0.012651 0.026257 -0.065971 -0.098654 -0.013603 0.036128 -0.060811 0.004472 0.136285 0.068386 -0.108229 -0.005754 0.07183 -0.076247 0.151971 0.051231 -0.013903 -0.107734 -0.005018 0.022983 -0.00829
  0.092358 0.057242 0.059444 -0.039267 0.073188 0.062432 0.034675 0.022236 -0.02822 0.04676 0.030586 0.026257 0.02022 0.118609 -0.072053 0.084708 0.015527 0.017557 -0.023254 -0.011482 -0.002835 -0.061755 -0.001362 0.080689 -0.002702 -0.163833 -0.080498 -0.11464 0.038975 -0.008956 -0.20265 -0.016543 0.08147 -0.030969 0.033198 0.077807 -0.043083 0.076284 -0.045776 -1e-06 -0.123429 -0.150899 -0.115432 -0.046344 -0.092282 -0.013206 0.027546 -0.190166 -0.076411 0.076574 -0.025588 0.07928 0.045006 0.034782 -0.031326 -0.029803 0.028235 -0.047076 0.052372 -0.03603 -0.008901 0.083802 -0.12161 -0.008022 0.081033 -0.038946 0.04635 0.029125 0.03761 -0.081249 0.091179 -0.023252 0.05311 0.048094 0.013782 -0.004032 0.018911 -0.086471 -0.023664 0.032389 -0.039181 0.038818 0.099438 0.024378 -0.124144 0.085399 -0.000367 -0.003203 0.028267 0.026184 -0.018652 -0.051509 -0.027549 0.014445 0.114938 0.014985 -0.006017 -0.005832 -0.068643 -0.09285 0.010307 -0.086835 -0.014041 0.118077 0.008315 -0.033148 0.021687 -0.034019 0.002225 0.087095 0.04156 -0.006258 -0.072164 0.041077 0.100668 0.033552 -0.012385 0.066394 0.079098 -0.059151 0.02392 0.118051 0.050884 0.038389 -0.044323 0.17172 -0.054957 -0.017036 0.028902 0.044619 -0.054537 -0.093205 -0.044995 0.041938 -0.065712 -0.175999 0.073447 -0.025052 0.053539 -0.061614 -0.019467 -0.061541 0.001012 -0.091202 0.04486 -0.009471 -0.103121 -0.026667 0.068719 -0.047569 0.015873 -0.00848 0.026375 0.067673 -0.025818 0.070968 -0.049321 -0.085213 -0.084859 0.042971 0.056226 -0.009128 0.104691 -0.028081 -0.002409 -0.013743 -0.005119 0.052162 -0.109377 0.054215 0.009829 -0.05383 -0.026252 0.007438 -0.072252 0.086095 0.0469 0.003785 -0.057392 0.042024 0.096708 0.055922 -0.069905 0.106536 0.032675 -0.039777 -0.063725 0.067181 0.096972 -0.142095 -0.09505 0.011217 -0.117335 0.074686 0.031513 0.002046 -0.078434 0.005528 -0.047918 -0.019902
  -0.279982 0.042045 -0.092054 0.000454 -0.098877 0.006051 0.098851 -0.06599 0.117891 0.023915 0.006765 -0.104909 0.09273 0.003911 0.053201 -0.004096 0.03534 -0.028116 0.138008 -0.024011 -0.012643 0.163353 -0.002427 -0.067318 0.099449 -0.089796 0.043887 -0.047972 0.020701 0.138298 -0.151992 -0.022721 -0.051196 -0.036998 -0.121701 -0.030326 0.098986 -0.00139 0.023761 -0.148721 -0.063154 0.121415 -0.042658 -0.059401 -0.127099 -0.001543 0.026579 -0.030088 0.102889 -0.120914 0.044516 -0.03221 -0.01012 -0.086531 -0.175717 -0.014907 0.064594 0.102934 -0.045659 0.101569 0.041394 0.03039 -0.035352 0.009473 -0.01633 -0.051769 0.027797 -0.085421 -0.015678 0.015114 0.131442 0.021892 -0.039847 0.028108 0.01234 -0.135677 -0.138235 -0.021838 -0.041186 -0.042099 0.14271 0.016332 -0.018538 -0.065071 -0.060991 0.032871 0.005395 0.073652 0.078891 0.001094 -0.083952 -0.06191 -0.078271 -0.051762 -0.048918 -0.10396 -0.088281 -0.019675 -0.031666 0.07656 0.011519 0.072315 -0.007206 -0.117414 -0.050042 -0.036076 0.060103 -0.019734 -0.050554 0.101169 -0.028205 -0.025583 0.013212 0.027017 -0.028334 0.006678 -0.001699 -0.013191 0.016041 0.013732 -0.044652 -0.044615 -0.040561 0.02085 0.049584 0.013925 0.077536 0.069245 0.115283 -0.057065 -0.00348 -0.042582 -0.014065 0.111526 -0.119957 0.159754 0.144952 0.039922 -0.018661 0.109384 -0.003174 -0.009677 0.170716 0.055046 0.051938 -0.024833 0.113218 0.040101 0.056332 0.061756 -0.037005 -0.102752 -0.018661 -0.009673 -0.071797 0.025922 -0.013079 -0.078634 0.096417 -0.05089 -0.040412 -0.030384 -0.068969 0.064352 -0.005588 -0.005085 0.049674 -0.04684 -0.098291 0.013019 0.016666 -0.006232 -0.06731 -0.031148 -0.070961 0.080488 -0.05848 0.106173 -0.0238 -0.035736 0.09088 -0.164081 -0.073103 -0.005494 0.055473 -0.02694 0.045069 0.063919 -0.200982 -0.118304 0.106738 -0.120177 0.143993 -0.049646 0.037862 0.058409 0.007152 -0.015091 0.129579 0.026404
  0.038112 0.061975 -0.135696 0.007042 0.063123 -0.1664 -0.145955 -0.142181 0.036 -0.156563 -0.006589 0.013967 0.039235 -0.124725 0.079428 -0.018914 0.09477 -0.007537 0.098797 -0.002299 -0.02256 0.070122 0.000338 0.077602 -0.097475 -0.053231 0.014603 0.021773 -0.004341 -0.072462 -0.060202 -0.019414 -0.044891 -0.010328 -0.011402 -0.018967 0.020249 -0.135198 -0.034653 0.0241 -0.008211 -0.149939 0.028699 0.038087 0.090577 0.02071 0.019815 -0.11832 -0.032005 0.032732 0.078343 -0.017561 0.078915 -0.03492 0.100268 0.037593 0.07231 0.088735 0.011829 0.129758 0.069782 -0.099826 -0.018674 0.042953 -0.00713 0.040869 0.047814 0.013141 -0.113498 0.006538 -0.017511 -0.001656 -0.057159 -0.046084 -0.042488 -0.076906 -0.147303 0.053484 -0.019299 -0.029656 0.025158 -0.041382 -0.042929 -0.081785 0.027823 -0.187346 -0.000154 0.026536 0.123659 -0.021617 -0.016592 -0.019096 -0.12827 -0.018461 -0.116069 -0.03145 -0.134947 -0.012246 0.013546 0.07065 -0.041865 -0.098295 -0.053641 -0.01204 0.10197 -0.038237 0.009751 0.107803 -0.03342 0.000826 -0.016441 0.039087 0.015943 -0.013804 0.009601 -0.141216 0.042651 -0.057136 0.007989 0.001938 0.010769 0.084332 0.035362 -0.036599 -0.01079 0.049901 0.054774 0.114556 0.098546 0.011334 0.021091 -0.070635 -0.023258 -0.136134 0.004794 -0.083883 0.009661 -0.001297 0.017236 -0.001004 -0.041487 -0.053812 0.013259 0.027497 0.029996 0.095575 0.07938 0.048936 0.001266 -0.085319 -0.005749 -0.041709 -0.022223 0.007029 0.005725 -0.065641 0.011074 0.090441 0.105475 0.03818 -0.076492 0.077462 -0.090764 0.086467 -0.091733 -0.042225 0.088414 -0.026632 -0.095329 0.09472 0.071882 0.082825 -0.03841 0.07322 -0.069121 0.098094 0.089773 0.007421 -0.042028 0.028141 -0.008021 0.13598 -0.024681 0.050821 -0.023229 -0.076682 -0.009452 -0.275221 -0.185402 0.160077 0.060171 -0.103459 0.080432 0.011178 0.056249 0.029801 0.009993 0.011924 0.054669 0.014982
