PWM_range 0 100
pepL_range 12 21
P1_range -6 6
log_min 1e-04

nn_in_var 270 P1_-1 P1_-2 P1_-3 P1_-4 P1_-5 P1_-6 P1_0 P1_1 P1_2 P1_3 P1_4 P1_5 P1_6 PWM_log AA_-_1 AA_-_10 AA_-_11 AA_-_12 AA_-_2 AA_-_3 AA_A_1 AA_A_10 AA_A_11 AA_A_12 AA_A_2 AA_A_3 AA_A_4 AA_A_5 AA_A_6 AA_A_7 AA_A_8 AA_A_9 AA_C_1 AA_C_10 AA_C_11 AA_C_12 AA_C_2 AA_C_3 AA_C_4 AA_C_5 AA_C_6 AA_C_7 AA_C_8 AA_C_9 AA_D_1 AA_D_10 AA_D_11 AA_D_12 AA_D_2 AA_D_3 AA_D_4 AA_D_5 AA_D_6 AA_D_7 AA_D_8 AA_D_9 AA_E_1 AA_E_10 AA_E_11 AA_E_12 AA_E_2 AA_E_3 AA_E_4 AA_E_5 AA_E_6 AA_E_7 AA_E_8 AA_E_9 AA_F_1 AA_F_10 AA_F_11 AA_F_12 AA_F_2 AA_F_3 AA_F_4 AA_F_5 AA_F_6 AA_F_7 AA_F_8 AA_F_9 AA_G_1 AA_G_10 AA_G_11 AA_G_12 AA_G_2 AA_G_3 AA_G_4 AA_G_5 AA_G_6 AA_G_7 AA_G_8 AA_G_9 AA_H_1 AA_H_10 AA_H_11 AA_H_12 AA_H_2 AA_H_3 AA_H_4 AA_H_5 AA_H_6 AA_H_7 AA_H_8 AA_H_9 AA_I_1 AA_I_10 AA_I_11 AA_I_12 AA_I_2 AA_I_3 AA_I_4 AA_I_5 AA_I_6 AA_I_7 AA_I_8 AA_I_9 AA_K_1 AA_K_10 AA_K_11 AA_K_12 AA_K_2 AA_K_3 AA_K_4 AA_K_5 AA_K_6 AA_K_7 AA_K_8 AA_K_9 AA_L_1 AA_L_10 AA_L_11 AA_L_12 AA_L_2 AA_L_3 AA_L_4 AA_L_5 AA_L_6 AA_L_7 AA_L_8 AA_L_9 AA_M_1 AA_M_10 AA_M_11 AA_M_12 AA_M_2 AA_M_3 AA_M_4 AA_M_5 AA_M_6 AA_M_7 AA_M_8 AA_M_9 AA_N_1 AA_N_10 AA_N_11 AA_N_12 AA_N_2 AA_N_3 AA_N_4 AA_N_5 AA_N_6 AA_N_7 AA_N_8 AA_N_9 AA_P_1 AA_P_10 AA_P_11 AA_P_12 AA_P_2 AA_P_3 AA_P_4 AA_P_5 AA_P_6 AA_P_7 AA_P_8 AA_P_9 AA_Q_1 AA_Q_10 AA_Q_11 AA_Q_12 AA_Q_2 AA_Q_3 AA_Q_4 AA_Q_5 AA_Q_6 AA_Q_7 AA_Q_8 AA_Q_9 AA_R_1 AA_R_10 AA_R_11 AA_R_12 AA_R_2 AA_R_3 AA_R_4 AA_R_5 AA_R_6 AA_R_7 AA_R_8 AA_R_9 AA_S_1 AA_S_10 AA_S_11 AA_S_12 AA_S_2 AA_S_3 AA_S_4 AA_S_5 AA_S_6 AA_S_7 AA_S_8 AA_S_9 AA_T_1 AA_T_10 AA_T_11 AA_T_12 AA_T_2 AA_T_3 AA_T_4 AA_T_5 AA_T_6 AA_T_7 AA_T_8 AA_T_9 AA_V_1 AA_V_10 AA_V_11 AA_V_12 AA_V_2 AA_V_3 AA_V_4 AA_V_5 AA_V_6 AA_V_7 AA_V_8 AA_V_9 AA_W_1 AA_W_10 AA_W_11 AA_W_12 AA_W_2 AA_W_3 AA_W_4 AA_W_5 AA_W_6 AA_W_7 AA_W_8 AA_W_9 AA_Y_1 AA_Y_10 AA_Y_11 AA_Y_12 AA_Y_2 AA_Y_3 AA_Y_4 AA_Y_5 AA_Y_6 AA_Y_7 AA_Y_8 AA_Y_9 pepL_12 pepL_13 pepL_14 pepL_15 pepL_16 pepL_17 pepL_18 pepL_19 pepL_20 pepL_21


N_layers 2

 nnetsWeights  270   200
  -0.045711 -0.012296 0.03193 0.043705 0.122905 -0.069622 0.00133 0.121535 -0.019158 0.068528 0.061998 -0.060617 -0.043232 -0.121722 0.027744 -0.089124 -0.023324 0.082417 -0.145265 0.150634 -0.011236 0.052597 0.008703 -0.027831 -0.001455 -0.049381 0.137309 0.006636 -0.092178 0.06193 0.096088 -0.078665 -0.077562 0.195551 -0.11919 0.01855 0.145418 0.065342 -0.135846 -0.077063 0.078668 0.112871 -0.030079 0.118436 -0.070871 0.022799 0.047466 0.057034 0.009772 0.034904 0.200678 0.014093 0.08397 0.053103 -0.001196 -0.015623 0.036469 0.017255 -0.094933 -0.056881 0.060371 -0.02429 -0.095199 0.085413 0.036098 -0.164485 -0.024516 0.077338 0.094242 0.041859 -0.019216 0.019289 -0.05039 0.020238 -0.014235 -0.246189 -0.107627 0.049275 -0.110188 -0.282469 -0.063066 0.03393 -0.000393 -0.034929 -0.077836 -0.040078 -0.095881 0.119632 -0.06313 0.096921 -0.055876 0.072751 -0.004687 -0.142745 0.042581 0.042095 -0.041705 -0.078061 -0.430676 -0.013515 -0.223777 0.038662 -0.036344 0.058898 0.102601 0.05825 -0.045854 0.086978 0.043782 0.033295 -0.021403 0.091818 0.100297 0.009275 -0.083536 -0.045064 0.04388 -0.020249 -0.133411 0.105773 -0.040225 -0.120166 0.083462 0.088045 0.059046 -0.094155 -0.000172 0.030268 -0.010211 0.110197 0.04218 -0.016239 -0.036239 -0.023951 -0.044625 0.001229 0.026549 -0.294047 0.082741 0.052296 0.124465 -0.108854 0.0471 -0.001465 0.005573 0.152318 0.077263 -0.053913 0.045737 0.07529 -0.041693 0.064206 0.009117 -0.067317 0.100805 0.006235 0.145579 0.064578 -0.03582 -0.033382 -0.045079 -0.074432 -0.044975 0.049437 -0.016445 0.03059 -0.004418 -0.049064 -0.014854 -0.047194 0.052457 0.046299 -0.001998 0.118916 0.048556 -0.146081 0.004653 0.023778 0.120404 0.067437 0.107815 -0.126027 -0.063713 -0.012351 0.048249 -0.051923 0.013866 -0.033802 -0.047194 0.099598 0.062101 -0.096309 0.096265 -0.114309 0.033003 0.113657 -0.0113 0.011902 0.01633 -0.042777
  -0.157336 -0.067775 0.068221 -0.022516 0.071932 -0.061747 0.018055 -0.031329 -0.072361 0.060071 0.112183 -0.063417 -0.04301 -0.149083 0.106143 0.03941 0.096748 0.06171 -0.037368 0.134079 0.210699 0.074226 0.025147 -0.094094 -0.000457 -0.072389 -0.071544 0.092322 -0.160837 -0.013502 0.001798 -0.189182 0.003529 0.191971 -0.170757 -0.003361 0.106352 -0.145696 0.082182 0.036479 0.095187 0.085422 -0.07907 0.055323 -0.050147 0.092761 -0.008923 0.072359 -0.087834 0.056703 0.138864 0.12123 -0.051625 0.071222 -0.002828 -0.133106 -0.096892 0.065228 -0.057397 -0.088393 -0.048325 0.08959 0.143009 0.012966 -0.004341 -0.112025 -0.114369 0.052484 -0.034849 -0.051135 0.01159 0.066905 0.040697 -0.007117 -0.099381 -0.265524 -0.119344 0.043341 -0.052338 -0.258284 -0.017379 -0.132433 -0.038973 -0.038434 -0.077924 -0.089502 -0.059706 -0.179111 -0.027064 0.011308 -0.075445 -0.024793 0.05067 -0.030793 -0.062542 0.013757 0.019518 0.031852 -0.315622 0.176874 -0.204614 0.178136 -0.159965 -0.070146 -0.188062 0.002118 0.045384 -0.013349 0.119142 -0.140996 -0.021695 -0.034565 0.072778 0.089683 0.015129 -0.030709 -0.016325 -0.015909 -0.172796 0.044095 -0.01391 0.074134 0.055862 0.00775 0.04094 0.075363 0.019851 0.013215 -0.152569 0.174387 -0.05332 0.06239 0.008867 0.052223 0.024832 0.005385 -0.117961 0.013347 -0.037922 0.004642 -0.041224 -0.049789 0.054915 -0.051688 -0.042397 0.058855 -0.033556 -0.025583 -0.160457 0.136467 -0.029528 0.088522 0.045004 -0.181447 -0.029043 -0.05956 -0.066683 0.04352 0.039241 0.028318 -0.213228 -0.07947 0.004452 0.022494 0.060649 0.101416 0.133899 -0.042918 -0.090051 -0.088449 -0.038785 0.062067 -0.052796 0.159651 0.048748 0.046004 -0.023542 -0.093167 -0.086106 -0.198611 0.070304 -0.151742 -0.02213 0.003765 -0.069654 -0.025087 -0.120062 0.013056 -0.189619 0.021113 -0.159874 -0.069536 -0.078436 -0.079973 0.078923 0.031375 -0.06056 -0.106207 -0.022392 0.05031
  -0.014649 -0.069039 -0.075787 -0.06393 -0.091941 -0.169491 0.094686 -0.161437 -0.186338 -0.0104 0.051092 0.033587 -0.011795 -0.132684 0.130499 0.111768 0.006265 0.056308 -0.169433 -0.029045 0.145758 0.128226 0.088077 -0.091844 0.036157 -0.042601 -0.059091 -0.161997 -0.269014 0.004547 0.032475 -0.140238 -0.10137 0.052955 -0.041804 0.086829 0.028984 -0.267586 0.068003 0.048608 -0.024218 0.030668 -0.099156 -0.076608 -0.033192 0.064878 -0.137376 0.008909 -0.16064 0.118674 0.120007 0.032952 -0.084401 -0.035847 -0.101518 -0.051721 0.032385 0.091534 0.029852 -0.142704 0.085963 -0.067452 -0.003573 -0.015977 -0.05466 -0.193863 -0.176818 0.01877 0.036314 -0.085563 -0.049336 -0.020452 -0.000525 -0.076736 -0.10844 -0.108585 0.024451 0.04796 0.07714 -0.207771 -0.221501 -0.035443 0.052967 0.10229 -0.143441 -0.219401 -0.083793 -0.03333 5.2e-05 0.00071 -0.09374 0.037037 -0.03578 -0.111542 -0.135698 0.002157 0.002066 0.081199 -0.157183 0.054055 0.025741 0.117738 -0.045168 -0.146526 -0.112752 -0.011732 -0.176892 0.082423 0.010399 -0.118226 -0.013868 0.006093 -0.01395 -0.101638 0.071099 -0.022708 0.132828 0.098799 -0.134779 0.037795 0.098424 -0.030192 -0.002568 0.008195 -0.020673 0.107723 0.11186 -0.038442 0.056827 0.059927 -0.035126 0.024356 0.080501 -0.032455 0.026647 -0.120883 -0.101985 0.121142 -0.08694 -0.029202 0.03842 0.100205 -0.008786 0.008854 0.041369 0.008385 -0.057631 -0.02522 -0.229199 0.018383 0.089241 0.113942 0.042573 -0.058749 -0.073319 -0.192961 -0.107086 0.010383 0.209448 0.04954 -0.271563 -0.029877 -0.120317 0.026071 -0.079804 0.14592 0.161572 0.075307 -0.055272 -0.092011 -0.023076 0.010572 -0.150364 0.076855 0.052035 -0.005066 0.027631 -0.05384 -0.037808 -0.107027 0.072969 -0.014186 0.027588 -0.042921 -0.1841 0.038429 -0.14268 -0.013749 -0.142843 0.019995 -0.18117 0.019338 -0.01861 0.001998 0.056635 -0.154022 0.03143 -0.050091 -0.032944 0.021512
  0.060069 0.072527 -0.092631 0.029796 0.032261 0.015583 0.038531 -0.050883 0.003378 0.003656 0.016221 -0.040089 0.08618 -0.086831 0.068054 -0.031909 0.095806 0.164392 0.159535 0.149825 0.066075 0.061034 0.09003 0.001237 0.004134 -0.002842 0.151362 -0.021121 -0.075766 -0.029996 -0.032529 -0.000653 -0.043504 -0.064923 -0.070581 0.034339 -0.109863 -0.135455 -0.09126 -0.029735 0.110473 0.012367 0.111791 -0.122615 0.039583 0.042667 -0.148222 -0.054078 -0.100484 0.065816 -0.139915 0.063489 -0.062437 -0.032129 -0.00511 0.018375 -0.135388 -0.054488 -0.073144 -0.03461 -0.111859 0.045552 0.013985 -0.046992 0.069338 -0.07259 -0.121824 -0.025619 0.074443 -0.098173 0.036241 -0.089282 0.124722 0.000155 0.02652 -0.041672 0.072701 -0.072186 -0.047542 -0.050366 0.023193 0.084315 -0.076792 0.138738 -0.102914 -0.047695 0.016593 -0.04441 -0.142645 0.06203 -0.060113 -0.042814 -0.053189 -0.009138 0.162052 -0.006353 -0.113392 -0.110826 -0.033922 -0.074733 0.114053 0.093685 -0.087785 -0.190624 -0.061026 0.036103 0.065232 -0.011283 0.0813 0.004951 -0.097056 -0.065629 0.057818 -0.082621 -0.10572 -0.037219 0.033887 -0.002021 -0.029287 -0.017049 0.065879 -0.041561 0.029556 -0.002565 -0.021236 -0.024968 0.00375 -0.055802 -0.004589 0.091899 0.055768 -0.018755 -0.008684 0.012086 0.080666 -0.184231 0.073135 0.198033 -0.091773 0.091646 0.147626 -0.036184 -0.046721 -0.018618 0.068844 -0.036187 -0.118972 -0.118046 -0.164431 -0.016954 0.040729 -0.02328 0.029484 -0.034893 -0.004039 -0.114138 -0.055315 -0.045408 0.053158 0.025779 -0.077001 -0.029746 0.122613 0.120377 -0.090194 0.114289 0.084231 0.062672 0.019638 0.02201 -0.067658 -0.06255 -0.121213 0.011152 0.095572 0.023671 0.034277 0.031733 -0.049102 0.005501 0.08278 -0.008554 0.056156 0.013096 0.107128 0.056425 -0.130609 -0.094569 -0.068162 -0.070891 -0.088692 0.031551 0.029982 0.034692 0.082756 -0.005601 -0.049269 -0.082553 -0.096553 0.03719
  0.085768 0.058677 0.078743 -0.008615 0.0202 0.046308 -0.006065 0.047058 0.089578 0.043336 -0.07495 -0.083012 -0.10651 -0.00244 0.040285 -0.019788 0.070276 -0.127701 0.059295 -0.029136 0.001321 -0.044138 0.03559 0.015068 0.053205 0.128118 -0.055642 0.028007 0.015355 -0.061023 0.12357 -0.00204 -0.037271 -0.018994 0.005425 -0.030926 0.067228 0.022759 -0.050929 -0.03029 -0.151723 -0.010043 0.005313 0.114403 0.028501 -0.048163 -0.055199 0.032435 0.094807 0.030599 -0.146039 -0.023698 0.024904 -0.079877 -0.006111 0.088011 -0.073434 0.006637 -0.004763 -0.042772 -0.122985 0.071638 0.002545 -0.034847 -0.132027 -0.113265 0.11897 0.065163 0.006968 0.007238 0.05795 0.013862 0.021633 -0.036021 -0.011224 0.035923 0.003589 0.02242 0.035725 0.136927 -0.085619 -0.025592 -0.004724 0.050855 0.007123 -0.024548 -0.006493 -0.035844 -0.037885 0.001843 0.020688 0.068344 -0.00547 -0.058131 -0.103622 0.017199 0.034302 -0.042704 0.01118 0.017373 0.091505 0.070197 -0.034981 -0.007038 0.018492 -0.027041 0.012474 0.010315 0.156781 -0.073016 0.017164 -0.078 -0.047949 -0.007327 -0.003357 0.03963 0.042283 -0.062037 -0.029549 -0.04199 0.038806 0.051841 0.05061 0.024705 0.034482 -0.065196 -0.033597 -0.019357 0.007873 -0.060848 0.029505 -0.056289 0.034527 -0.008412 -0.00371 -0.020744 -0.037245 -0.022413 0.01826 -0.064626 -0.042396 0.033132 -0.056758 0.010276 -0.008002 0.056837 -0.013461 -0.012554 -0.032609 0.017892 0.04431 0.157031 0.042917 -0.026642 0.020481 -0.118657 -0.005776 0.037144 -0.06253 0.010639 0.083041 0.036609 -0.023835 0.04539 -0.0113 0.001398 0.083446 -0.053244 0.00199 0.027823 0.014754 -0.117998 0.048665 0.024766 0.068607 -0.002289 0.001391 0.021392 -0.018651 -0.036562 0.032699 0.021048 0.007293 0.052331 -0.064871 0.023864 0.038439 0.043902 -0.000397 -0.017862 -0.05595 0.074651 0.091513 -0.035046 0.026837 -0.004476 -0.00988 -0.050441 0.010817 0.050645
  -0.008329 0.02932 0.059782 0.035089 -0.010438 -0.026207 -0.021283 0.003552 0.052518 0.025611 0.010213 0.000101 0.126282 -0.033608 0.041985 -0.00468 -0.058644 -0.00333 -0.040283 0.011288 0.005111 -0.0248 -0.006375 0.000166 0.097161 -0.074399 -0.036451 0.057821 -0.050241 -0.01245 -0.012119 0.043861 -0.012566 -0.021807 0.059682 0.067751 0.009288 0.101969 0.024279 0.02386 0.044444 0.034865 -0.021874 0.097668 0.013335 -0.03182 0.038122 -0.056113 0.140531 0.018717 0.018673 -0.019952 -0.002897 -0.001474 -0.019747 0.048116 0.019071 -0.038351 0.012955 -0.109885 0.090171 0.003705 -0.00578 0.018622 -0.031634 -0.159569 -0.017091 -0.073074 -0.065877 0.005748 -0.010029 0.020621 0.027939 0.065822 -0.009085 -0.031248 -0.022277 -0.011978 -0.030077 0.0661 0.033128 0.013586 -6.4e-05 0.174078 0.024106 -0.03702 0.050742 -0.032521 0.00088 0.027955 0.08282 0.007718 0.005235 0.055269 -0.026895 0.014317 0.03385 -0.112772 0.026712 0.041621 -0.008671 -0.009346 0.02819 -0.006231 -0.047154 -0.005329 -0.001395 -0.009447 0.068828 0.062076 -0.000896 0.041795 0.01275 0.000294 -0.020081 -0.029015 -0.05578 0.027534 0.019879 -0.021933 0.038346 0.018211 0.054212 0.020515 0.070166 -0.071393 -0.037277 0.03254 -0.021686 0.023606 -0.054751 -0.024377 -0.062619 -0.097207 -0.040573 0.072332 -0.007292 0.056239 0.007011 0.084179 0.040203 -0.042452 0.024114 0.100947 -0.035819 -0.04725 -0.050513 -0.028728 0.02818 0.04449 0.028402 0.001704 0.03926 -0.019236 -0.044806 -0.130476 0.010898 0.036363 -0.012823 -0.01735 -0.035633 0.061258 -0.027303 0.053755 -0.06223 -0.068015 0.02434 -0.04419 0.01693 0.021031 0.057092 0.010993 0.057508 0.029605 -0.045647 0.020476 0.007826 0.069078 0.063257 0.011019 -0.032897 0.024912 -0.122161 0.010164 -0.01424 0.020641 -0.01401 -0.043152 0.045326 0.009247 0.041502 0.061241 0.074605 -0.000123 0.072831 -0.02094 0.023189 0.014376 -0.006981 -0.014744
  -0.066974 0.090579 0.024643 0.023954 0.079588 -0.033217 -0.002315 0.11024 -0.077459 0.023014 -0.01427 -0.017527 -0.042377 -0.042455 -0.032665 -0.043506 -0.103129 0.110155 -0.391008 0.185417 -0.34864 0.020583 0.019259 0.069678 -0.03662 0.13115 -0.025651 -0.036887 -0.070395 0.063049 0.06055 0.034894 0.042351 0.137079 0.111034 -0.030954 0.057255 0.103787 -0.131893 -0.0717 -0.048039 0.089088 0.049595 0.064503 -0.048689 0.078419 0.086807 -0.057681 -0.033013 -0.026576 0.140276 -0.127754 0.06145 -0.012394 0.020463 0.070967 0.128879 0.084548 -0.063066 0.033719 -0.030013 -0.067783 -0.044276 0.057946 0.082289 -0.048436 -0.058958 0.01972 0.072981 0.00598 0.082237 0.081422 -0.097386 0.087074 0.100048 0.121427 -0.053709 0.071718 -0.110811 -0.170522 0.01746 0.039507 -0.205137 -0.064052 0.056096 0.000554 0.099493 0.074653 -0.05991 0.06496 -0.004272 0.064616 0.101022 -0.164854 -0.09985 -0.013629 -0.043523 0.00584 -0.073007 -0.078302 -0.162997 0.094251 -0.109001 0.119612 0.201592 -0.013683 0.004994 0.11744 -0.109066 0.075506 0.036443 0.075332 -0.060475 -0.036099 0.083622 0.172242 -0.053223 -0.006312 -0.022221 0.065184 -0.033434 0.116924 0.104355 0.073951 -0.140209 0.01462 0.025391 0.10013 -0.049638 0.0122 0.0787 0.038008 -0.029892 0.054881 0.019056 0.010023 0.00654 -0.415846 0.116256 0.11072 0.078892 -0.029932 0.067788 -0.016985 0.035914 0.107899 0.088607 -0.033498 0.109747 0.034928 -0.03095 0.022734 -0.016668 -0.067993 -0.01535 -0.026508 0.176523 0.063017 -0.003897 0.062799 0.040348 -0.074232 0.145259 0.017918 0.029387 0.058534 0.068847 0.016186 0.029858 -0.044324 0.067422 0.082533 -0.294354 0.119129 -0.013612 -0.094798 0.038008 0.060152 -0.044291 0.034913 0.037542 -0.006987 0.178364 0.041051 0.066524 -0.058586 0.038294 0.014975 0.119241 -0.139911 0.09669 -0.102382 0.104194 -0.092436 -0.032658 0.091063 -0.04249 0.030719 0.084676 -0.003068
  -0.027844 0.032874 0.002467 0.01348 0.023174 0.06576 -0.005835 0.084114 -0.005128 0.070724 -0.080869 -0.067719 -0.066177 0.046541 -0.035436 -0.021523 -0.082865 0.037524 0.176306 0.005103 -0.066253 0.0294 -0.00069 0.049177 -0.094259 0.076536 0.067497 -0.040548 0.035336 0.11526 -0.09833 0.05565 0.102333 -0.154528 0.151266 -0.05679 0.018337 0.151783 -0.012388 -0.038564 -0.048607 -0.085905 -0.008301 0.004917 -0.038284 -0.063095 0.032259 -0.009865 0.050966 -0.068016 0.026964 -0.035196 0.096574 -0.01337 0.013127 0.114404 0.049918 0.008086 0.002903 0.062826 -0.012787 0.003682 -0.099987 0.060274 0.091315 0.033703 -0.003632 0.034683 0.021337 0.115188 0.020131 0.058219 -0.011509 0.026399 0.064322 0.077025 -0.045431 0.059716 -0.155183 0.011061 0.05004 -0.028567 -0.005404 0.055272 0.11195 0.066081 0.024303 0.091288 0.018559 -0.031964 -0.010191 0.059443 -0.003782 0.077155 0.026274 0.017554 -0.014078 -0.064924 0.126782 -0.068935 -0.084412 -0.050903 0.056697 0.102513 -0.016724 0.047646 0.005752 0.022325 -0.084569 0.07734 -0.012529 0.126581 -0.023927 -0.076393 -0.042237 -0.084096 -0.057209 0.059188 0.069176 0.036887 -0.067882 0.10357 0.144181 0.0637 0.061596 -0.022152 -0.063571 -0.023375 0.01099 -0.045614 0.111283 -0.10466 -0.00517 0.048652 0.003307 0.079846 0.04621 0.012913 0.047003 0.064228 0.012996 -0.008854 0.021537 -0.072313 -0.044333 0.049365 -0.045532 -0.005023 0.055458 -0.080277 -0.0895 -0.082857 -0.006919 -0.017894 -0.107629 0.030057 0.149731 -0.010208 -0.126553 -0.001694 0.088579 0.014737 -0.035019 0.013888 -0.041887 -0.013462 0.014938 -0.125591 0.043501 -0.034686 0.027326 0.054385 0.169746 0.049654 -0.034403 -0.060632 0.017601 0.045989 0.147977 0.087305 -0.048591 -0.008325 0.0352 0.085303 -0.076031 -0.068533 0.140741 -0.017461 0.126365 -0.059746 0.101296 -0.062602 0.058135 -0.011008 -0.020689 -0.014933 -0.031582 0.073809 0.045667 -0.016244
  0.01873 0.074721 -0.058492 0.002662 0.051375 0.010001 0.025562 0.087465 0.080153 0.019672 -0.12138 0.036709 -0.049215 -0.00084 0.001516 -0.049448 0.042281 -0.049311 0.232387 -0.041025 -0.02474 -0.027305 -0.037144 0.120315 -0.03893 -0.01761 -0.042086 0.032922 0.031635 -0.028673 -0.156231 0.089676 0.115503 -0.182363 0.082903 -0.076934 -0.004437 0.092495 -0.002018 0.035552 0.095395 -0.127251 -0.027438 -0.053203 -0.078596 0.051499 -0.019515 0.045651 -0.028359 -0.067722 0.004959 -0.031598 0.069738 -0.151588 0.013463 -0.008145 -0.003335 -0.051341 -0.007423 -0.016213 -0.070203 -0.020236 0.031665 -0.057396 -0.013719 0.173381 0.02968 -0.043615 -0.106423 0.073961 0.03226 -0.00017 -0.0308 -0.015048 -0.001345 0.151803 -0.03366 -0.045661 0.008082 0.146883 0.053149 0.035892 0.029403 0.05586 0.164001 0.030525 0.111551 0.026408 0.033731 0.086609 0.039826 -0.047522 0.014078 -0.059975 -0.047478 0.031469 0.044614 -0.057494 0.08922 -0.054737 -0.006972 -0.065022 0.132879 0.056097 -0.121811 -0.006316 -0.007138 -0.002545 0.05787 0.006386 0.026015 0.03037 -0.120661 0.057039 -0.021669 -0.012772 -0.129012 0.054222 0.029796 -0.136403 0.012434 -0.009437 -0.081561 -0.041482 0.071627 0.024119 -0.08992 -0.108837 -0.01121 -0.015346 -0.12668 -0.105276 -0.013628 0.046145 -0.1034 -0.041504 0.071992 0.060393 0.040675 -0.091832 -0.023174 -0.004572 0.027308 0.005045 -0.053155 -0.139578 -0.157533 0.075999 0.006492 -0.035274 -0.061603 -0.136753 -0.050437 0.08094 0.06503 0.069532 -0.323288 -0.066896 -0.131412 0.035787 0.074496 -0.001481 -0.07236 -0.054593 -0.065775 -0.10252 -0.030791 -0.098243 0.014511 -0.033211 0.049042 0.008744 0.030334 -0.200716 -0.055079 0.054758 -0.066837 -0.000263 -0.102474 0.118326 -0.157485 0.033192 -0.1828 0.028623 -0.271244 0.003432 0.092419 -0.017172 0.096739 0.034351 0.101894 -0.032133 0.06329 0.038178 -0.054417 -0.00515 -0.021169 -8e-06 -0.052251 -0.024781
  0.061011 0.033692 0.039254 0.0396 -0.138427 0.093965 -0.024879 -0.168096 0.108827 0.003261 -0.093224 0.169811 -0.004206 0.048739 -0.032121 -0.002696 0.068864 -0.153884 -0.140084 -0.09432 0.176039 -0.057733 0.009206 -0.010502 -0.111186 -0.08202 0.059717 0.079432 0.164203 -0.058745 -0.124533 0.073188 0.14428 -0.113578 0.093596 0.023926 -0.226221 -0.08886 0.081401 0.068819 -0.036105 -0.129033 0.067918 -0.037916 -0.06829 0.143284 0.015957 -0.020502 0.049079 -0.20964 -0.228899 0.080131 -0.103223 -0.03711 0.015747 -0.133745 -0.156465 -0.052415 0.107484 0.054641 0.022982 -0.124537 -0.012842 -0.127418 -0.031229 0.138649 0.008116 -0.140858 -0.20874 0.052729 0.023647 -0.044858 0.016643 -0.085715 0.019716 0.173029 0.042178 -0.109572 0.108543 0.174577 -0.004089 -0.068182 0.043322 -0.100507 -0.026517 0.056099 -0.036984 -0.030945 -0.058897 -0.068807 0.037685 0.00407 -0.096861 0.024703 0.018904 0.023199 0.037555 0.024048 0.091085 -0.015495 0.291713 -0.043138 0.031777 -0.123198 -0.044433 -0.127479 0.073401 -0.094603 -0.019444 0.003945 -0.006123 -0.025902 0.037706 0.201813 0.082661 -0.010632 -0.139223 -0.02393 0.167187 -0.03911 -0.05628 -0.067105 -0.093426 -0.152291 -0.012545 -0.014664 -0.100445 -0.056923 -0.070423 0.073349 -0.22728 -0.17276 0.124165 0.030178 -0.040991 0.139649 0.043838 0.316051 -0.01023 -0.091525 0.015742 -0.00725 0.047074 0.115707 -0.063577 -0.114182 -0.128909 0.115704 -0.001261 0.081474 0.052001 -0.211318 0.101321 0.125494 -0.062682 0.181292 -0.241808 -0.13816 0.084987 0.022983 0.001957 0.094452 0.040576 -0.17466 -0.140423 -0.230754 -0.14532 -0.012344 -0.040247 0.004463 -0.00349 -0.080164 0.084137 -0.09776 0.119057 0.197927 0.032553 0.017202 -0.053794 0.032547 -0.098775 0.080209 0.085703 -0.069384 -0.083914 -0.027854 -0.042925 -0.013935 0.00101 0.010737 -0.110661 -0.037091 0.037885 0.055751 -0.188089 -0.008974 -0.063179 -0.033965 -0.150378 -0.082349
  -0.014935 -0.01193 0.000581 -0.12155 -0.103962 0.135536 -0.056764 -0.20588 0.079671 0.000164 -0.035759 0.092448 0.051054 -0.000895 -0.073668 0.030699 0.079116 -0.170122 0.145997 -0.057176 0.216077 -0.031656 0.009508 0.169154 -0.031436 -0.113933 -0.057009 0.052644 0.053414 -0.125894 -0.058229 0.024367 -0.052558 -0.323456 0.023442 0.055832 -0.171168 -0.191453 -0.008225 -0.019669 -0.197771 -0.198616 0.200531 -0.131658 0.029201 0.133246 0.010447 -0.004768 -0.11138 -0.056106 -0.233735 -0.035027 -0.017149 0.000923 0.005931 -0.196186 -0.236598 -0.067247 0.098272 -0.044951 -0.023452 -0.015786 -0.013244 -0.087403 -0.163654 0.054592 -0.050154 -0.082426 -0.029247 0.078775 0.080103 -0.050762 0.17587 -0.035617 -0.043872 0.229127 0.126956 0.027047 0.114023 0.175958 0.046421 0.00364 0.069644 -0.104888 -0.048131 0.069777 0.068001 -0.015458 0.001171 0.003281 0.098229 -0.058096 -0.020767 0.15768 0.020885 0.007252 -0.040002 -0.174539 0.142464 0.032584 0.175383 -0.023187 0.044255 -0.123914 -0.05324 0.001159 0.004653 -0.015499 0.020322 0.006775 -0.031828 -0.096942 -0.136536 -0.017959 -0.029506 0.013668 0.004103 0.05485 0.138403 -0.096684 -0.053904 -0.04806 -0.104721 -0.051176 -0.071476 -0.088963 0.054321 -0.06693 -0.025125 0.061749 -0.001309 -0.173709 0.096769 0.079303 -0.080416 -0.011167 0.044571 0.272566 -0.080014 0.003703 -0.064587 0.100768 -0.110622 0.032013 -0.112701 -0.145456 -0.082346 -0.013537 -0.03879 0.093816 0.091603 -0.20505 0.12549 0.084297 -0.034454 0.151455 -0.171697 -0.091273 0.106025 0.061007 0.010122 0.039455 -0.021391 -0.128432 -0.046088 -0.064167 -0.097284 -0.020205 0.041268 -0.025053 -0.010568 -0.032023 0.082096 -0.083147 0.110995 0.098358 0.009308 -0.077369 -0.141599 -0.130926 -0.191975 0.14283 0.10919 -0.019338 -0.060523 0.038275 -0.026597 0.002211 -0.001219 -0.04228 -0.190076 0.017288 -0.048883 0.084928 -0.006845 -0.023902 -0.101955 0.071747 -0.232281 -0.009556
  0.015587 0.109768 -0.0633 -0.142715 0.076877 0.058372 -0.011096 -0.145563 0.042163 -0.019188 -0.005877 0.016316 -0.020607 -0.008111 -0.160747 -0.02999 -0.000913 0.004127 0.034267 -0.050961 0.1339 -0.01245 -0.044587 0.065808 0.105505 0.111423 0.002782 -0.020809 0.03727 -0.085099 0.003049 0.006338 0.004979 -0.134136 0.019894 -0.151749 -0.064322 -0.071045 -0.076993 -0.059686 -0.075713 -0.062676 0.023206 -0.097766 -0.004818 0.075604 -0.09419 -0.04191 -0.154693 -0.10884 -0.054215 -0.077354 -0.062937 -0.113956 0.03644 -0.038409 -0.037256 -0.00915 -0.013378 0.057681 -0.00034 -0.186996 0.031584 -0.028996 -0.096257 0.156514 0.053054 -0.116327 0.069462 0.071008 0.067586 0.009749 0.118073 -0.024603 -0.054048 0.164402 0.057066 -0.021069 0.115929 0.060345 -0.021237 -0.029845 0.030478 -0.010143 -0.059561 0.06526 0.018188 -0.071785 0.002401 0.037667 -0.105451 -0.046949 -0.033145 0.086929 0.13963 -0.000238 0.060857 0.093804 0.13764 -0.181239 0.25071 0.063127 0.04495 -0.004325 0.065976 0.084464 0.238594 -0.000996 0.006172 -0.051476 -0.032061 -0.00897 0.183595 -0.116705 -0.034984 0.067853 -0.064684 0.088591 0.058698 -0.031598 -0.042321 -0.130574 -0.048844 -0.007144 -0.002834 -0.106046 -0.030756 -0.07878 0.010576 -0.102797 0.003231 0.047275 0.114742 0.061202 0.074051 -0.046708 -0.031255 0.101676 0.040061 0.070738 -0.031007 -0.034771 -0.083345 -0.061098 -0.051635 0.018715 -0.118929 0.040429 0.003775 -0.00203 0.035798 0.107484 0.065009 0.057812 0.074075 -0.052672 -0.124914 0.011612 0.118938 0.04335 0.00503 0.045734 -0.014365 -0.006107 -0.013688 0.052074 0.018663 -0.01393 -0.01006 -0.009529 -0.026018 -0.008192 0.040536 -0.086521 0.096171 0.145473 -0.051276 -0.046725 -0.009352 0.059824 -0.143603 0.057833 -0.058688 0.010596 -0.003348 -0.003126 0.039627 0.172962 -0.042838 0.070486 -0.068207 -0.03098 0.095144 0.088598 -0.104388 -0.06588 0.028004 0.105329 0.04047 0.000751
  0.070599 -0.036345 -0.027149 0.004068 -0.06102 -0.110584 -0.001768 -0.033667 0.027646 -0.013693 -0.02293 0.044302 0.01325 0.045773 -0.091269 -0.054144 0.02275 0.016314 0.02027 -0.029888 -0.010326 -0.010763 -0.03687 0.059462 0.075935 0.057545 -0.073428 0.005221 0.112255 -0.052219 -0.042085 0.021774 0.024079 -0.039054 0.057508 -0.05269 0.035218 -0.01113 -0.005777 0.002562 0.072379 -0.090853 -0.068286 -0.061015 0.004524 -0.084607 0.00276 -0.006193 0.060738 0.008499 0.01679 -0.024635 0.022032 0.014247 0.016221 0.046155 0.035886 0.019457 0.05517 0.044985 0.083445 -0.106892 -0.006504 -0.087444 -0.018904 -0.052807 0.056848 -0.005676 0.001303 0.013898 -0.001664 -0.014046 -0.083129 0.050232 -0.007839 -0.056724 -0.040769 0.015001 0.04157 -0.028596 0.006692 0.061682 0.068751 -0.007831 -0.016287 0.061479 -0.033056 -0.07297 -0.022913 -0.086368 -0.042333 -0.068939 0.018431 -0.024395 0.096017 0.018177 0.051572 -0.034414 -0.04593 -0.030939 0.049634 -0.003091 0.052836 -0.077419 0.002862 -0.050431 0.018335 0.0887 0.071799 -0.068304 -0.023812 0.035877 -0.048246 0.153801 -0.115284 -0.027214 -0.010856 -0.023918 0.011154 -0.057032 -0.055885 0.018288 0.044232 0.010428 0.090603 -0.00423 -0.028559 0.035284 0.011351 -0.206184 -0.06343 0.016492 0.037378 -0.182046 0.110405 -0.0084 0.019574 0.10489 0.049104 -0.007237 0.089355 -0.030412 0.006542 -0.031027 -0.013738 -0.07219 -0.073918 0.017237 -0.005098 0.066086 0.047685 -0.029016 -0.057306 0.024329 -0.054456 0.021154 -0.029513 -0.018169 0.053493 0.028319 0.033054 0.026277 0.053579 0.061015 0.016092 -0.047197 -0.004665 -0.046643 0.034075 -0.01325 0.04064 -0.083674 0.004458 0.020834 0.064641 -0.027129 -0.029433 -0.025991 -0.007818 0.050017 0.035945 0.080007 -0.033496 -0.013211 -0.044932 -0.056796 0.012491 -0.019526 0.025345 0.013333 -0.067571 -0.002072 -0.012493 -0.032425 0.00877 0.013761 0.084391 -0.14341 0.042549 -0.002219
  0.438739 -0.557342 0.382545 0.371015 -0.423345 -0.162553 -0.586241 0.372285 0.372063 0.39054 0.469138 0.329686 0.00737 -0.507464 0.294574 0.342288 0.290563 0.426705 -0.553907 -0.583593 -0.643335 0.398155 0.497511 -0.413485 0.253208 0.372693 -0.027409 0.299187 0.349275 -0.194723 0.109375 0.47586 -0.293982 -0.354892 -0.728848 0.346804 0.260568 0.306046 -0.424189 -0.383973 0.459291 -0.254622 -0.005 0.359871 0.516593 -0.154495 -0.620049 -0.439367 -0.02304 0.415726 0.532439 -0.337969 -0.622886 -0.367744 -0.573494 0.390549 -0.142778 -0.589283 0.407502 0.409937 0.223326 0.141753 -0.38206 -0.403712 0.294927 0.113246 0.276585 0.279576 -0.178019 -0.318855 -0.466376 -0.344211 0.116185 0.288588 0.651048 -0.401492 0.57396 -0.522478 0.320671 0.310091 0.543665 -0.700897 -0.538948 0.046974 -0.288349 0.42939 -0.289717 -0.425951 0.275076 -0.520931 0.422846 0.331691 -0.489932 -0.411823 0.309891 -0.506513 0.344633 -0.044978 -0.27623 0.266805 0.127079 -0.743718 -0.128095 0.446858 -0.107569 -0.489813 0.275926 -0.542489 0.261558 0.341377 -0.518093 -0.323254 -0.048692 0.148796 -0.0722 -0.448635 0.398368 0.476608 -0.279014 -0.219383 0.497578 -0.240375 -0.370801 -0.525263 -0.384434 -0.732745 0.461257 -0.313706 -0.41897 0.182791 -0.260907 -0.286158 0.148242 0.567807 0.437979 0.09318 -0.48731 -0.207306 -0.33597 0.292873 -0.267964 0.390346 -0.343505 0.169659 -0.208786 0.412543 -0.156078 0.336229 0.445916 -0.265642 0.420273 0.319476 0.28855 -0.432219 -0.10692 0.339214 -0.37673 -0.421568 0.118862 -0.757195 0.628236 0.276964 -0.171339 -0.335867 -0.288705 0.650292 0.415482 -0.178082 -0.550612 0.537188 -0.557753 0.346375 -0.19815 -0.316574 0.257904 0.221385 -0.366427 -0.493031 -0.309394 -0.111885 0.37069 0.42326 -0.220835 -0.458692 -0.123371 0.547325 -0.540758 -0.057423 -0.585903 -0.544238 0.608402 0.383009 -0.693576 0.461135 0.370579 -0.546447 0.460381 0.175944 0.389112 -0.520181
  -0.159442 -0.071406 -0.040261 -0.034379 0.072031 -0.044807 -0.041237 -0.000562 -0.036857 0.09834 -0.014602 0.008118 0.122922 -0.064583 -0.026707 -0.087051 -0.086209 -0.112366 -0.029207 0.003634 0.086162 -0.048174 -0.062075 0.091277 -0.159164 -0.061711 -0.058416 -0.124326 0.106285 -0.082284 0.10261 -0.015764 0.002409 -0.069622 -0.055747 -0.008449 0.053506 0.158361 0.00645 0.013096 -0.03765 0.008057 -0.116232 0.012564 -0.08773 0.05258 -0.039535 -0.051852 -0.15471 -0.062143 0.074756 0.006552 -0.017792 -0.028482 -0.066361 0.076021 0.05054 -0.078112 -0.123086 0.043053 -0.023831 -0.111234 -0.135973 0.065086 0.085155 0.285455 -0.174113 0.00309 0.119726 -0.017247 -0.126382 -0.132922 0.056773 -0.129058 0.019117 -0.04762 -0.10751 -0.048314 -0.088891 -0.088307 0.028833 0.056138 -0.048845 0.114091 -0.170707 0.101559 0.036516 -0.05802 -0.009779 0.051488 0.100073 -0.050562 0.037588 -0.049806 0.058418 -0.08779 -0.132242 0.023589 -0.114686 -0.154753 -0.171629 0.035676 -0.062792 0.040328 0.003973 -0.063979 -0.021368 -0.046828 -0.018919 -0.122834 0.01242 -0.025217 -0.087733 -0.125914 0.040916 -0.004386 0.016976 0.052439 -0.025257 -0.02007 0.109302 -0.019309 -0.040413 0.038786 0.031259 0.02589 0.052185 -0.090488 -0.017903 0.01686 0.061288 0.023753 -0.103251 0.025026 0.052114 -0.192462 -0.005968 0.179871 -0.075896 -0.205489 0.072684 -0.041584 -0.092272 -0.107449 -0.087928 -0.191568 -0.112044 -0.199414 0.107827 -0.045123 0.148473 -0.1228 -0.133616 -0.067029 -0.109324 0.019096 -0.109849 0.016256 -0.047436 0.084633 -0.000725 0.008639 -0.004793 0.182221 -0.079769 0.096269 -0.124418 -0.003811 -0.049189 -0.163017 -0.084375 0.103746 -0.100361 -0.006719 0.03231 0.043163 -0.087525 0.020495 -0.004305 0.126385 -0.146438 -0.00393 -0.117666 -0.07554 -0.020013 0.034442 -0.036622 0.143907 -0.083236 -0.021664 0.035075 0.011529 -0.054395 0.065086 -0.010053 -0.101935 -0.003152 0.194113 -0.004703 0.062193
  -0.042318 0.106948 0.052586 -0.007778 -0.23389 0.177454 -0.110898 -0.081864 -0.085937 -0.057972 -0.057156 -0.014967 0.003607 -0.096163 -0.040731 -0.001186 -0.08808 0.062601 -0.211219 -0.248454 0.211203 -0.076163 -0.005402 -0.074283 0.026515 -0.180932 0.04895 -0.045156 0.068396 -0.0769 -0.22858 -0.035266 -0.099355 -0.319241 -0.125276 0.098525 -0.016804 -0.049307 0.093668 -0.148324 -0.009731 0.022435 -0.056487 0.066296 0.025331 0.181185 -0.193477 -0.00187 0.055714 -0.061068 0.033752 -0.028654 -0.001572 -0.212999 0.007838 -0.041031 -0.109574 0.104153 -0.026499 -0.066114 -0.021884 -0.277538 0.033271 -0.110516 -0.013386 -0.057484 -0.065661 -0.032607 -0.003701 0.070706 -0.200505 0.061788 -0.007066 0.001972 -0.045189 -0.068636 -0.068779 -0.111935 0.008125 -0.058837 -0.037607 0.141302 -0.111788 -0.062599 -0.226733 0.019766 0.136644 0.090937 -0.107684 0.123909 -0.113153 -0.062272 0.043343 0.146048 -0.091869 0.116419 -0.096589 0.165531 -0.095066 -0.070295 0.123909 0.12635 -0.010269 -0.021042 -0.041748 -0.144279 -0.011015 0.047434 0.038602 0.017639 0.109591 -0.051026 -0.189885 -0.099136 0.074683 0.074386 -0.018833 -0.00473 0.147852 -0.067365 0.027074 -0.285816 -0.156525 -0.078182 0.056954 0.03065 -0.042768 0.110947 0.138168 -0.092057 -0.0998 -0.159272 -0.176716 -0.049618 0.018963 -0.111484 -0.069888 -0.016281 -0.022341 -0.016122 0.083849 -0.007924 0.095517 -0.069148 -0.072376 0.005035 -0.158846 -0.019806 0.044775 0.221719 -0.000212 -0.041737 0.053526 -0.168682 0.074174 -0.065055 -0.027365 0.184992 -0.077805 -0.151537 -0.069571 -0.076474 0.04586 0.096502 0.097752 -0.065325 -0.007995 -0.252906 -0.038869 -0.054276 -0.054693 -0.010515 -0.187561 0.137763 -0.024068 -0.09706 -0.123934 0.160106 -0.01505 -0.105492 -0.018771 -0.073071 0.110172 -0.058547 -0.186073 -0.057522 -0.094247 -0.041646 0.099438 -0.059813 -0.035475 -0.072431 0.054109 -0.011559 -0.040342 -0.124537 0.025675 -0.050391 0.015017 -0.132505
  -0.057518 0.006813 -0.033025 -0.134276 -0.093123 0.074095 -0.000871 0.018454 -0.039426 0.017229 -0.043301 -0.116356 -0.101448 -0.087509 -0.086655 -0.122581 0.008275 0.017347 -0.011702 -0.09594 0.076855 -0.017758 -0.064664 -0.055713 0.07373 -0.067221 -0.029539 -0.134401 -0.097094 0.062493 0.075642 -0.033702 -0.06964 -0.1517 -0.058127 0.008629 -0.013364 -0.027784 0.011706 -0.07684 0.135986 0.002037 -0.094671 0.01147 -0.080547 0.046894 -0.021898 -0.035122 -0.011944 -0.000113 -0.078731 -0.061885 0.091805 0.006741 -0.046992 0.058636 -0.090989 0.011518 -0.031967 0.021011 -0.170617 0.065242 0.053119 0.001077 -0.021281 0.151109 -0.007174 0.029915 -0.063306 0.062774 0.015031 0.011778 0.092665 0.026943 -0.050327 -0.076256 -0.0077 -0.051378 -0.048783 0.018157 0.020202 0.018888 -0.089018 0.064587 -0.074509 -0.088807 0.149115 -0.051963 -0.031741 0.060887 0.049166 -0.018651 -0.001352 0.112264 0.049212 -0.017251 -0.033685 -0.006647 0.028318 -0.15329 -0.06164 0.122206 -0.053834 0.0048 -0.130497 -0.056316 -0.027661 0.048269 0.037011 -0.091061 0.021323 -0.027193 -0.003525 0.066913 0.0956 0.047455 0.039093 0.035072 -0.003096 -0.180352 -0.047588 -0.120708 -0.084615 -0.098221 -0.011375 0.036653 -0.047153 0.009207 0.076272 0.033281 -0.110208 0.024652 -0.009026 0.057801 -0.08548 -0.027971 0.006929 -0.217364 0.007512 0.090997 0.013386 -0.002123 0.028239 -0.042382 -0.096238 -0.08711 -0.041097 -0.011611 -0.034895 0.112017 -0.056643 0.022443 -0.083095 -0.090354 0.087718 -0.01924 -0.033613 0.029606 0.087724 -0.014315 -0.016305 -0.127936 -0.030635 0.031938 0.072379 0.008614 0.030785 -0.140451 -0.029056 0.000757 -0.011277 -0.048956 -0.141776 -0.008637 0.002544 0.065999 -0.021215 0.037115 -0.038767 -0.057521 0.022747 -0.02847 0.125993 -0.041501 -0.10643 0.009978 -0.016253 -0.054947 0.020791 -0.008323 0.009734 -0.079804 -0.017525 -0.026881 -0.082523 -0.087804 -0.05378 0.033479 0.030194 0.024117
  -0.134458 0.11657 -0.033494 -0.040945 -0.165775 0.055769 -0.140121 -0.003095 -0.096017 0.034267 0.009176 -0.09261 -0.154842 -0.115896 -0.155388 -0.092851 -0.078243 0.006339 -0.149512 -0.101491 0.007956 -0.023678 -0.029646 0.09878 0.085737 -0.062185 0.113847 -0.118335 -0.102166 0.067478 0.188718 -0.038818 -0.060934 -0.026387 0.08125 -0.089381 0.010355 -0.054328 0.131387 -0.156773 0.000122 -0.001361 -0.022618 -0.006007 -0.026324 0.070283 -0.213438 0.092365 0.03338 -0.031578 -0.042865 -0.033092 -0.022627 -0.20811 0.037475 -0.030582 -0.036436 0.100476 -0.041295 0.062834 -0.03803 -0.004668 0.026343 -0.024332 0.063011 0.056676 0.013906 -0.013442 -0.034379 -0.035322 -0.10106 0.052874 0.04825 -0.033074 -0.024992 0.006819 -0.074055 0.026905 -0.042865 -0.061574 -0.029087 0.059516 0.087618 -0.037579 -0.032019 -0.074347 -0.066905 0.017925 0.007157 -0.023431 -0.015289 0.064511 -0.160744 -0.007535 0.111733 0.117448 0.035556 0.190578 -0.081419 -0.036409 -0.000142 0.033109 0.147509 0.018709 -0.119499 -0.054578 -0.022085 0.030186 -0.018779 -0.164538 0.047197 0.042075 0.093345 0.028772 0.07851 0.11807 -0.040915 -0.001472 -0.066991 0.018007 -0.038972 -0.305758 -0.065106 -0.00636 0.0086 0.024993 0.014519 0.127668 -0.012871 0.05845 -0.102717 -0.058579 0.084308 0.088949 -0.046994 0.087083 -0.069278 0.115389 -0.130563 -0.021387 0.108505 -0.024051 0.052981 -0.086769 -0.054873 0.062096 0.075126 0.037743 -0.036845 -0.040771 -0.086604 -0.054557 -0.058299 0.019222 -0.018285 0.025628 -0.066016 0.023949 0.091906 -0.07395 -0.071324 0.036961 -0.089314 -0.032946 -0.06607 -0.005534 0.034179 0.038311 0.066613 -0.07229 -0.085166 0.008087 -0.099909 0.111369 -0.072629 -0.05804 -0.193228 0.039669 0.027361 -0.070544 0.033276 -0.138639 0.044056 0.025719 -0.132161 -0.00453 -0.098088 -0.056663 -0.050541 -0.085445 -0.064188 -0.031089 -0.026654 -0.005021 -0.009343 0.0057 0.004541 0.053343 -0.006095 0.032398
  0.036015 -0.105265 -0.103603 -0.04581 0.172594 -0.129292 -0.040139 0.019065 -0.053221 0.034279 -0.056218 -0.089642 -0.155389 -0.074653 -0.067784 0.068198 0.073807 0.041413 0.089607 0.087019 0.182713 -0.039963 -0.031521 0.049058 -0.12352 -0.116001 0.09371 -0.045478 0.029072 0.052441 -0.161083 -0.002946 -0.070915 -0.222499 0.004486 -0.078239 0.065748 -0.028445 0.074452 0.137357 -0.006302 0.120854 -0.064571 -0.01191 0.027923 0.173644 -0.152389 -0.095106 -0.032305 0.041559 0.107944 0.093898 -0.140573 -0.068539 -0.11705 -0.07564 0.164853 -0.046335 -0.035369 -0.150941 -0.12186 -0.092048 -0.109585 0.117241 -0.098296 -0.089336 -0.007288 0.019865 0.117979 -0.204721 0.09103 -0.106888 -0.089843 -0.049994 -0.066619 -0.021637 0.047683 -0.146401 -0.022023 0.019887 0.012632 0.094158 -0.050907 0.167228 -0.212277 -0.020058 0.126061 0.029002 0.013883 0.115535 0.052683 -0.066901 0.110637 -0.229918 -0.017113 -0.048092 -0.055603 0.080491 -0.155146 -0.04528 -0.040236 0.043747 -0.147086 -0.074197 0.12418 -0.10879 0.003548 -0.109375 -0.11115 1e-05 -0.052746 -0.074702 -0.091127 -0.0364 0.05561 0.123873 -0.122361 -0.012867 -0.065758 -0.201945 -0.031032 0.123603 -0.098016 0.03446 0.048458 0.030573 0.0755 -0.121539 -0.053616 0.124147 0.013829 0.044558 -0.044645 0.022754 -0.040418 -0.090351 0.105725 0.11332 -0.094781 -0.017322 0.07402 0.040063 -0.170512 -0.021066 -0.064103 -0.029918 -0.176695 -0.093451 0.095115 0.00244 0.031163 -0.075194 0.094934 -0.004114 -0.160487 -0.065633 -0.090151 0.096902 -0.080942 -0.009516 -0.066125 0.016631 0.090149 0.142251 -0.127708 -0.000518 -0.125747 0.197964 0.005424 0.015175 -0.029214 -0.0735 -0.151701 -0.100272 -0.053427 -0.203208 -0.054573 -0.026825 -0.021292 0.112651 -0.109462 0.021812 0.013611 -0.058943 0.093412 -0.094331 -0.114982 0.118227 -0.140948 -0.059263 -0.057082 -0.140885 -0.092267 -0.030983 -0.00876 -0.132999 -0.023657 0.052401 -0.000388 -0.083192
  -0.014444 0.033792 0.065899 0.083307 -0.12726 -0.095655 0.103236 0.053866 0.113579 0.02283 0.004415 0.060526 -0.002749 0.110119 -0.011591 0.017994 -0.061961 0.132177 0.079557 0.013348 0.082341 0.05232 -0.054211 -0.158249 0.045803 -0.031553 -0.041277 0.070744 -0.006272 -0.134495 -0.125931 -0.011211 0.110015 -0.094821 -0.057319 0.077205 -0.094099 0.004084 0.003953 -0.031576 0.060289 -0.160917 -0.015833 0.071673 -0.046426 -0.034856 0.052305 0.068863 -0.011686 -0.065547 0.053174 -0.018935 0.028424 -0.066958 -0.005904 0.147909 -0.031187 0.045152 -0.050225 -0.055922 -0.031506 -0.132586 0.030251 -0.117393 -0.131861 -0.235714 -0.0258 0.047036 -0.032889 0.116886 -0.1126 0.02374 -0.014813 0.000501 0.043585 -0.077868 -0.023986 0.070164 -0.067685 -0.09358 -0.003336 -0.080926 -0.07713 0.069012 0.074552 0.000148 -0.097155 -0.098267 -0.050133 -0.104139 -0.037245 -0.054963 -0.064398 -0.038462 0.038678 0.049234 -0.045481 -0.001947 0.039408 -0.122142 -0.046439 0.021764 -0.01779 0.026292 -0.153813 -0.068604 0.073311 -0.044053 -0.054466 -0.030423 -0.064795 0.073395 -0.071032 0.073026 0.259717 -0.005524 -0.022955 0.033268 0.015834 -0.026667 -0.082581 0.016569 -0.012244 -0.001466 0.080198 0.000691 0.014962 -0.068203 -0.077274 -0.04661 0.019801 0.025197 -0.035335 0.086933 0.067022 -0.128213 0.021542 0.120682 -0.08422 0.032138 0.040002 0.049733 0.021824 -0.000871 -0.00737 -0.04512 0.04685 -0.007138 0.000543 0.071514 0.044429 0.159117 -0.104818 0.012731 0.032784 -0.076905 -0.022048 -0.042142 -0.110604 -0.084193 -0.019545 -0.068624 0.007061 0.048573 -0.048864 -0.008756 -0.083399 0.083424 -0.005805 -0.020136 -0.015364 0.000717 0.068679 0.058081 0.088966 -0.083905 -0.018668 0.025647 -0.035576 -0.0505 -0.004903 0.034255 -0.063974 0.044215 0.080267 0.014443 -0.009647 0.132482 0.050881 0.069833 0.00115 -0.003989 0.007138 -0.022521 -0.102355 0.032098 0.038531 -0.060162 0.045685 -0.031447
  0.004597 0.03091 -0.01586 0.049515 -0.019466 0.146331 -0.021795 0.027428 0.035112 0.007503 -0.047095 -0.023781 -0.007546 0.018227 -0.001079 0.00756 0.018058 -0.077392 0.040416 -0.032541 0.004975 -0.059604 -0.002977 0.017266 -0.027096 0.025102 -0.077 -0.01505 0.032518 -0.12872 0.078759 -0.002718 -0.00611 0.02627 -0.012082 -0.061869 -0.00299 -0.002607 0.023097 0.004147 0.00323 0.032751 -0.122745 -0.009225 0.032018 -0.067081 0.013605 0.01314 0.032578 -0.055384 0.058969 0.039685 0.003184 0.013034 0.033932 0.012157 0.041515 0.05931 0.010755 0.038101 -0.013771 0.051856 0.033086 -0.038239 0.052011 0.055287 -0.014066 -0.090772 0.049453 -0.081936 -0.048906 0.018179 -0.111986 0.025995 -0.021374 -0.028631 0.009503 0.057328 -0.003977 0.003413 -0.003596 0.0456 -0.046185 -0.071486 -0.075727 0.019999 0.043067 0.000739 -0.006716 0.043189 -0.043409 0.024392 0.039209 0.082199 -0.06291 0.041484 -0.013336 -0.135284 0.037767 -0.052302 0.012346 -0.002997 -0.024935 0.017147 -0.093535 0.007862 -0.071244 0.014932 0.015091 -0.034121 0.039748 0.016611 -0.094339 -0.077087 -0.114814 -0.010999 -0.08293 -0.027117 0.032033 -0.136038 -0.027129 -0.115557 0.026722 -0.074847 -0.03424 0.010746 -0.030097 0.035737 -0.019777 -0.011153 0.103547 -0.011732 -0.019616 0.012775 0.007204 -0.05486 -0.012486 -0.159141 0.073617 0.059506 0.038523 0.014401 0.000419 -0.103076 0.017925 -0.000779 0.021277 -0.048358 -0.040387 0.10323 -0.054464 -0.131914 0.004194 -0.120303 0.098096 -0.077654 0.026007 -0.017223 0.08177 -0.005678 0.017996 -0.010185 0.022778 -7.7e-05 0.000391 0.032707 0.013923 -0.076291 -0.012117 -0.005493 0.087528 0.003789 0.111243 0.036408 0.018871 -0.010284 -0.054255 0.019488 -0.0254 -0.013662 -0.041412 -0.031314 0.010148 -0.014228 -0.1079 -0.004644 -0.048353 0.082723 -0.07095 0.032086 0.01825 -0.006863 0.006457 -0.032534 0.008247 0.095361 0.008601 -0.044478 0.045984 -0.11261
  -0.004506 0.042092 0.000298 -0.0247 0.069829 0.15483 0.005695 -0.02664 0.037683 0.01027 0.030423 -0.106917 0.001176 -0.063069 0.009851 -0.072401 0.073592 0.03548 0.122894 -0.036945 0.037544 0.000239 0.011576 -0.040447 0.050156 0.037942 0.127644 -0.095301 -0.050543 0.066256 0.005692 -0.071743 -0.02419 0.036745 -0.034918 0.001763 0.002537 -0.033067 -0.039847 0.041506 0.03349 -0.060095 0.031766 -0.029352 0.015514 -0.015603 -0.015957 0.013662 0.051025 -0.033562 0.014142 0.054208 -0.075128 0.034126 0.036562 -0.078307 -0.123696 -1.6e-05 -0.022645 0.011674 -0.009184 -0.089717 -0.059669 0.009426 0.057372 0.023753 -0.105309 0.004421 -0.02773 0.014943 -0.128331 0.060591 -0.008412 0.054296 -0.00115 0.133302 -0.002125 -0.053626 -0.038389 0.005307 -0.005853 -0.053781 6.8e-05 -0.099828 0.023535 -0.022847 -0.039722 -0.057827 -0.07672 -0.006374 -0.003126 0.063634 0.021086 0.111873 -0.013297 0.00271 -0.040756 -0.127094 0.134624 -0.042845 0.139848 -0.004864 -0.019458 0.010902 0.017378 0.104411 -0.026686 -0.020625 0.061973 -0.004888 -0.015109 -0.073536 -0.048619 -0.024962 0.080364 -0.142809 -0.061705 -0.014936 0.050804 0.087267 0.027677 0.083176 0.013806 0.045211 -0.052769 0.031386 -0.026856 -0.037544 -0.000273 -0.087527 0.088317 0.003055 0.002093 0.025422 0.021035 -0.0164 0.089674 0.106217 -0.10299 -0.05144 0.034074 0.074442 -0.051016 0.011181 -0.072785 -0.008527 0.05029 0.076585 0.020907 -0.019921 -0.010553 -0.017485 -0.113893 0.02105 -0.008321 0.017672 0.078496 0.012169 0.092221 -0.002435 -0.026068 0.018995 -0.081674 0.020579 -0.044456 0.001689 -0.021525 -0.05448 0.036084 0.012495 -0.062368 -0.043446 0.139151 0.115198 0.001335 0.084416 0.03716 0.053601 0.033955 -0.027038 0.021827 -0.058788 0.085304 0.104733 -0.174605 -0.020215 0.068429 0.032082 -0.038668 0.009367 0.010856 -0.028908 0.022606 -0.025807 -0.034335 0.015103 0.010002 -0.007607 0.071312 -0.068353
  -0.007508 -0.050654 -0.003035 -0.018205 -0.005976 -0.025548 0.072852 -0.019613 -0.058821 -0.040683 0.017486 -0.058531 -0.12024 -0.037999 -0.028658 0.020354 0.010558 0.072003 0.083192 0.003096 0.044078 0.007446 0.013011 0.032499 0.11119 0.024655 -0.02505 -6e-06 0.007743 -0.090855 0.086927 -0.018842 0.102391 -0.034535 0.023276 0.00306 0.080471 0.028511 0.033374 0.03458 0.007619 -0.06103 0.041061 -0.089991 0.024115 -0.058033 -0.025714 0.017413 -0.004248 0.034278 -0.009551 0.023775 -0.07948 -0.010902 0.06505 -0.001888 -0.067776 -0.004112 -0.002237 0.02531 -0.014302 -0.083778 0.084947 -0.057183 0.046162 0.02091 0.057985 -0.05965 0.000134 -0.035291 0.10654 -0.08249 -0.058223 -0.019265 -0.011567 -0.029325 0.008431 0.071777 -0.013347 -0.045589 0.021403 -0.046584 0.000489 -0.018171 0.076521 0.031961 0.060724 -0.034727 -0.06049 -0.049895 -0.025516 -0.027137 -0.027092 -0.031858 -0.054178 0.048717 -0.024425 0.0487 -0.016348 -0.056571 -0.07302 0.031981 -0.091788 -0.018552 -0.106936 0.016909 0.00907 -0.027401 -0.012304 -0.016126 0.014825 0.100911 -0.026292 0.001654 -0.058291 -0.05203 0.001557 -0.041392 -0.056977 0.024195 -0.070159 0.106468 0.049553 0.004786 -0.044415 0.052122 -0.021219 -0.023832 0.013613 -0.011955 -0.034617 -0.046478 0.035374 -0.002374 -0.011609 -0.08731 -0.011899 0.046998 0.079988 -0.028935 0.016704 -2e-06 0.021908 0.005902 0.111804 0.043527 -0.086425 -0.016566 -0.023862 -0.107717 -0.00821 -0.022855 -0.016441 -0.00066 -0.088149 -0.024663 -0.03487 0.068552 0.04603 -0.05941 0.027742 0.001493 0.012676 -0.045732 0.070979 0.004115 0.013589 -0.028714 -0.002808 0.011736 -0.009251 0.015845 -0.043578 0.012228 0.048859 -0.013137 0.060897 0.032783 0.073761 0.041915 -0.006297 -0.024216 0.087638 0.015824 -0.00501 2.9e-05 0.046511 0.036378 -0.002618 -0.011332 -0.006783 -0.009711 0.010143 -0.012044 0.008115 -0.040089 -0.003128 -0.021625 0.066529 0.023854
  0.025891 -0.103135 -0.000304 -0.057292 0.0178 -0.001448 -0.00852 0.001992 -0.011776 0.023091 0.003335 0.000848 0.08022 0.004195 0.038467 -0.035826 -0.022216 -0.049913 -0.092144 0.021969 0.023825 0.002929 0.037022 -0.020174 -0.026055 -0.00388 -0.100771 -0.018649 0.049032 0.032663 0.035713 0.035882 0.063106 -0.214847 0.066666 -0.019943 -0.004024 -0.040955 -0.109982 -0.002562 0.1035 -0.110626 -0.038811 -0.055951 -0.012611 0.054149 -0.036594 -0.041668 -0.027986 -0.061545 -0.044308 0.084094 -0.041132 -0.000793 0.056611 -0.060168 0.026037 0.03231 -0.032261 0.111048 -0.037323 0.012435 0.043981 -0.088862 0.031191 0.070023 -0.025048 -0.072962 0.223012 0.071213 0.019809 -0.098597 -0.050662 0.003075 0.011939 0.10629 0.023049 0.012198 0.020718 0.060738 0.027619 0.010498 -0.034582 -0.127543 -0.172755 -0.001833 0.008855 -0.064523 0.005687 0.047135 -0.027434 0.030051 0.028525 0.009824 -0.025168 0.027948 -0.051372 0.132536 0.01934 0.045312 0.007655 0.011153 0.025125 0.031349 0.011289 0.001277 -0.030677 -0.015722 0.040476 -0.02062 -0.008891 0.040965 -0.034971 -0.071904 0.026548 -0.076659 -0.022505 -0.036964 0.013547 0.056163 0.050615 -0.112464 -0.018643 0.049274 -0.027035 0.048623 -0.073855 0.007827 -0.014288 0.064543 0.113699 0.000426 -0.071696 0.013908 0.015489 -0.072947 0.0573 0.006551 -0.140243 0.007446 0.072659 0.034094 -0.005262 -0.13101 0.091289 -0.053199 0.124135 -0.031605 -0.061487 0.074919 -0.01713 -0.073206 0.035694 0.030911 0.075913 0.026625 -0.014186 -0.055419 0.042923 0.101263 0.039144 0.052964 0.065231 0.020088 -0.04853 -0.010703 -0.032487 0.005462 0.060194 0.004031 -0.022342 0.005511 -0.021429 -0.051764 -0.011122 -0.181046 -0.005495 -0.051788 -0.119414 -0.037145 -0.038927 -0.056452 -0.1487 -0.049393 0.031857 0.058212 0.018789 0.048993 0.030161 0.021458 0.036544 -0.002123 0.00472 0.011435 -0.075624 0.017968 -0.015693 0.027189 -0.006931 0.084073
  -0.006938 0.012908 -0.024271 0.045452 -0.032592 -0.027085 0.025627 0.024876 0.040906 -0.076484 -0.017228 0.047394 -0.001613 -0.006134 -0.005669 -0.035752 -0.055362 -0.08891 -0.017239 0.05156 -0.019679 -0.025766 -0.011935 0.060077 -3e-04 0.00186 -0.024575 -0.015528 -0.028063 -0.119135 0.051353 0.013191 0.041364 -0.080905 -0.019245 -0.007034 0.040989 -0.034529 -0.013034 0.033546 0.047776 -0.071843 0.040529 -0.005051 -0.021944 0.031781 -0.054936 0.087172 -0.046489 -0.062996 -0.048722 -0.08113 0.088795 0.02469 0.024985 0.08475 -0.117251 0.066527 0.016769 0.06808 -0.009631 -0.093277 0.019091 -0.065001 0.11123 0.066977 -0.107089 0.002703 -0.003708 -0.106268 0.071083 -0.002344 0.024741 0.019604 0.033636 -0.081155 -0.011755 0.004047 -0.007546 -0.007265 -0.000883 -0.078918 0.036772 -0.035145 0.011638 -0.073543 0.02065 -0.015632 0.034498 -0.138223 0.026118 -0.015694 0.003251 0.055561 -0.068548 -0.001541 -0.048359 -0.083425 -0.023619 -0.062468 0.074507 0.008743 0.077081 0.023933 -0.039998 -0.057046 -0.110706 0.127375 0.050382 0.021962 -0.037267 0.11714 -0.019376 -0.086356 -0.029237 0.002651 -0.030634 0.026758 -0.091894 0.030601 0.005182 0.12875 0.012036 0.068416 0.074478 -0.006204 -0.080897 -0.029973 -0.05205 -0.080064 -0.094645 0.153139 0.075468 0.017843 -0.044177 0.073578 -0.015206 -0.079219 0.11539 0.030053 -0.117759 0.056059 -0.003602 -0.105165 0.026336 -0.035475 -0.073478 0.008566 -0.045466 0.063409 -0.030997 0.041349 -0.017406 0.006487 0.015073 -0.018767 -0.06366 0.037786 -0.02134 0.031069 -0.012216 0.024283 -0.165358 0.073043 -0.025396 -0.038818 -0.004861 -0.078859 0.037089 -0.031866 -0.008097 0.017806 0.07961 0.064699 -0.025149 0.084723 -0.026064 0.051372 -0.019188 -0.020222 -0.005948 -0.057697 -0.164507 0.039936 0.082707 -0.005981 -0.036363 -0.114841 -0.027356 -0.038264 0.011061 0.015182 0.019337 -0.097875 -0.060125 -0.006398 -0.004347 0.012714 -0.002324 0.087146
  -0.003969 0.03825 0.003993 -0.08386 0.00519 0.032001 0.011642 0.026298 -0.00211 0.003495 0.005557 0.018004 0.056765 0.029665 -0.036037 0.003409 -0.004104 -0.036454 0.086732 -0.024593 -0.014512 0.038038 -0.006787 0.012382 -0.059339 0.007455 -0.095675 -0.094156 0.060238 0.023183 -0.011123 0.012199 -0.00054 -0.021032 0.046635 0.016399 -0.009796 -0.000141 0.013385 -0.053016 0.140883 0.006818 0.074673 -0.009799 -0.026902 0.101137 0.044861 -0.040297 0.013184 -0.045916 -0.090736 0.026097 -0.045101 0.018833 0.001106 0.072362 0.1135 -0.031834 0.006077 0.077286 0.034291 -0.070446 0.032538 0.002391 -0.002798 0.085895 0.019409 0.016227 -0.077962 -0.045414 0.038516 0.017557 0.152952 0.05158 0.02516 0.026912 -0.02435 -0.03386 -0.041474 -0.052449 0.034437 0.005233 0.033906 -0.048308 0.140084 -0.001606 -0.098233 -0.002664 0.048339 0.000856 0.008919 0.059208 -0.065546 0.058081 0.083052 0.057391 -0.007608 0.002891 0.044611 0.109159 -0.019698 -0.023264 0.109204 0.006107 -0.101169 0.031614 0.010276 -0.08752 -0.001508 0.006732 -0.040697 0.024871 -0.073004 -0.140031 -0.061352 0.019686 0.026864 0.074727 0.016821 0.016019 0.027116 0.044334 -7.1e-05 -0.024026 -0.059817 0.020655 -0.009054 0.049697 0.061795 -0.117949 -0.072513 0.009424 0.051492 -0.002416 -0.033185 -0.024646 -0.002123 0.028476 0.075273 0.061869 -0.102242 0.031126 -0.004532 -0.136475 -0.015076 -0.06433 0.019381 -0.056149 -0.025756 0.033052 -0.032637 -0.075533 -0.214808 -0.002366 -0.036846 -0.009075 0.054624 0.029977 0.053911 0.011551 0.021917 0.017511 0.018894 -0.016172 -0.104537 0.000799 0.049859 -0.046689 -0.003247 -0.016946 0.015111 0.002234 -0.069484 0.063901 0.025275 0.088499 -0.089668 -0.028173 -0.022842 -0.063495 -0.039224 0.03458 -0.06255 -0.003523 -0.088868 -0.002115 0.059488 0.130887 0.052207 0.0761 0.003663 0.06568 0.072976 0.033634 0.012678 0.043832 -0.025769 0.124401 -0.030894 -0.039439
  0.033159 -0.048234 -0.032853 -0.009571 0.134119 0.063909 0.005023 -0.014814 0.035282 0.002162 -0.039822 0.089757 -0.025499 0.032075 -0.07543 -0.056113 0.081341 0.01232 -0.076181 0.004989 0.029356 -0.00267 -0.018698 0.049236 -0.021721 -0.075749 -0.120683 0.007665 0.080212 -0.127383 -0.067712 -0.026398 0.026623 -0.221595 0.038922 0.07698 -0.115198 -0.10862 0.0613 0.018146 0.062758 0.067027 0.084113 -0.023402 0.000541 0.00707 0.024615 -0.041551 -0.061248 9.4e-05 0.00592 0.116537 0.013518 -0.051882 0.090787 -0.027466 0.040215 -0.001364 -0.029098 0.07455 0.005981 -0.039068 -0.020075 0.048433 -0.042889 -0.054958 0.035646 -0.021283 0.07526 -0.11208 0.120841 -0.070156 0.086832 -0.000708 0.02899 0.043377 0.016995 0.016807 0.035892 -0.02084 0.05307 -0.141518 -0.019149 -0.030829 -0.066763 -0.011478 0.145491 0.158072 0.02211 0.1011 0.048118 -0.005091 0.063314 -0.087102 -0.106526 -0.03875 0.039939 -0.026944 0.001275 0.039511 -0.010408 0.075893 -0.101813 -0.019717 0.119266 -0.069538 -0.005649 -0.098041 0.061152 0.080104 0.022795 0.097023 -0.010725 0.054952 -0.030091 0.101392 -0.028985 -0.058286 0.085023 -0.245803 -0.03114 -0.089632 0.01901 0.039843 -0.056741 0.025793 0.003742 -0.013545 -0.08844 0.029953 -0.02951 0.115834 0.082904 -0.040853 -0.083005 -0.019297 0.057911 0.004805 0.083358 0.040525 0.049676 -0.034943 -0.061922 -0.007845 0.146131 0.034022 -0.084167 0.011577 -0.033541 0.164555 -0.01415 -0.024454 -0.161965 -0.042979 -0.049291 0.032844 0.052007 -0.110744 0.115738 0.009784 -0.039297 -0.024484 -0.034967 0.014117 0.079526 0.001481 0.013133 -0.125966 0.031553 -0.023126 0.022576 -0.050594 0.087122 0.035027 -0.01949 -0.018653 -0.062983 -0.005091 -0.003371 0.082363 -0.029626 0.027171 0.025238 -0.017956 -0.16614 -0.010506 0.1035 -0.069749 0.099518 0.068159 -0.044634 0.029174 0.035045 0.019899 0.029215 0.047061 -0.065967 -0.051398 -0.107523 -0.159613
  -0.023588 -0.057459 -0.01969 0.001841 0.003816 -0.076854 -0.069495 0.03642 0.03309 0.020892 -0.032844 0.135201 0.018539 0.023974 -0.063531 -0.026627 0.024382 0.051702 -0.093538 0.068546 0.060674 -0.023396 -0.060997 -0.016214 -0.057817 -0.170172 0.04074 -0.02346 -0.012913 0.040821 -0.026782 -0.003575 -0.004792 -0.046821 0.054662 -0.005821 -0.132107 0.071766 -0.026819 0.063254 0.030841 0.022434 0.040674 0.010551 -0.059197 -0.127795 0.007851 -0.051884 -0.006012 -0.011245 -0.02683 0.022137 0.059799 -0.000491 0.015003 0.009229 0.088664 0.03234 -0.021435 0.018837 -0.094566 0.064201 0.058939 -0.003018 -0.049041 0.041775 -0.041161 0.020021 0.085673 -0.030198 -0.009111 -0.04316 0.004597 0.004758 -0.012249 -0.026206 0.00401 -0.020367 0.012119 0.000799 0.02361 0.038818 0.016252 0.016987 -0.059796 -0.000868 0.098387 -0.001175 -0.011805 0.047013 0.08838 -0.07809 0.062791 0.07212 -0.024792 -0.074017 -0.081088 0.052964 0.107943 0.024083 0.054345 -0.013711 0.082799 0.053631 0.059228 0.10906 0.053878 0.168521 0.06753 0.092816 -0.007978 0.006719 -0.091617 -0.073906 0.091626 -0.030043 -0.030166 -0.059252 -0.158348 -0.04887 0.000534 0.086262 -0.019879 -0.007837 -0.124248 -0.002754 0.038849 0.100476 0.08324 0.005015 0.113677 -0.127503 0.024778 0.039081 0.021525 -0.02582 0.005715 -0.173194 0.093744 -0.046921 -0.164536 -0.063876 0.025659 0.001198 -0.048711 -0.00502 -0.046669 0.006505 0.033639 0.06422 0.029572 0.072017 -0.072048 -0.01494 -0.055106 0.040411 0.016512 0.09116 0.065028 0.066021 -0.014094 0.04098 -0.117903 0.117348 0.104673 0.001233 -0.055983 -0.01657 0.00636 -0.048877 -0.041296 0.006269 0.057785 0.057869 0.058187 -0.027507 0.070168 0.0126 -0.031692 -0.083559 -0.106002 0.041224 0.142417 -0.00025 -0.119051 -0.015492 0.043639 0.078752 -0.066799 -0.125979 -0.019859 -0.031442 0.038268 0.04714 -0.029055 0.018233 0.020926 -0.029478 -0.087681 0.069328
  -0.09038 0.044809 0.035502 -0.072007 -0.009494 -0.079611 -0.06738 -0.111139 -0.025436 -0.08686 -0.04276 -0.018729 0.013341 0.085883 0.055953 0.013134 0.023647 0.021389 0.102667 -0.054634 0.091916 -0.027492 0.019148 -0.029968 0.040417 -0.028111 -0.061005 -0.027313 0.050107 -0.04026 -0.00277 0.070018 -0.039874 0.0216 -0.037289 0.030292 -0.004978 -0.015244 0.002554 -0.037602 -0.035723 0.035812 -0.048074 -0.09951 -0.028737 -0.03785 0.056044 0.100187 0.014404 0.012755 0.036881 -0.017555 0.08739 -0.025335 0.101676 -0.064363 -0.087087 -0.031421 -0.00278 0.005258 -0.022209 -0.100694 -0.055086 -0.047445 -0.057401 -0.035209 -0.047461 0.03386 -0.046328 0.046296 0.060273 -0.048823 0.026578 -0.021506 0.016066 0.011181 0.050364 -0.072293 -0.028246 0.033066 0.003055 -0.063627 -0.003081 0.085533 -0.132257 -0.081858 0.074004 0.022465 0.027972 -0.062963 0.006215 0.025502 0.058522 0.037839 -0.122005 0.064048 -0.00208 -0.124507 0.018059 0.022384 -0.012947 0.029018 0.060475 0.028613 -0.031816 0.021317 -0.020104 0.039406 -0.097808 -0.040458 0.016653 0.017456 0.046743 -0.129818 0.039593 -0.068994 0.015673 0.03265 0.074559 0.055355 -0.041795 -0.1277 0.070567 -0.024145 -0.102468 -0.04469 -0.037171 0.064795 -0.042971 -0.030947 0.062073 0.129136 -0.082267 0.035822 0.077933 -0.13435 -0.042408 0.011947 0.018659 -0.025626 -0.024202 0.062831 -0.011834 -0.003118 0.031503 -0.0116 -0.087406 0.044313 -0.07729 -0.017596 0.025432 -0.108875 0.033897 -0.000508 -0.08277 -0.023691 -0.026729 -0.087764 -0.054017 0.070776 0.050069 -0.050224 -0.069581 0.030802 -0.103988 0.022478 -0.050987 -0.211034 0.047795 0.021938 -0.00329 0.051073 0.002283 0.058567 0.01594 -0.017964 -0.015125 -0.16736 -0.02339 -0.026695 -0.080696 -0.062993 -0.06027 0.071116 -0.05822 0.038641 0.078639 0.075751 0.004857 0.010998 -0.034625 -0.016664 0.045742 0.02034 0.002671 0.043393 0.001962 -0.050843 -0.034747 -0.168147
  0.013503 -0.017362 -0.001058 0.019394 0.007722 0.039297 -0.079808 0.007962 -0.005818 0.017131 -0.00342 0.025343 0.015162 -0.042411 0.000535 -0.095964 0.038723 0.009437 -0.125331 0.018584 -0.020903 0.022841 -0.023261 0.007435 0.024504 -0.026011 -0.046921 -0.022328 -0.010888 0.035669 -0.025805 0.032507 0.025208 0.167965 0.008297 -0.041057 0.08165 0.006558 0.135779 0.026357 0.039794 -0.05525 0.040876 0.00899 -0.007099 -0.160658 0.069542 0.045107 -0.152385 -0.012039 0.025216 -0.050409 0.052718 0.029228 -0.024541 0.033184 0.038228 0.034966 -0.007627 -0.013258 0.015098 0.050607 -0.073126 -0.009073 0.039991 -0.03069 0.039667 0.002686 0.088673 0.029175 -0.050795 -0.064281 -0.026616 0.028964 0.001834 0.101473 0.003132 -0.033508 0.012328 -0.042111 -0.026146 -0.081689 -0.009401 0.046181 -0.072903 -0.071555 0.10374 -0.002032 0.053487 -0.027459 0.010791 -0.036506 0.075006 -0.090463 -0.089646 0.03449 -0.05533 0.001384 0.009548 -0.035205 -0.008874 0.041537 0.041918 -0.01734 0.046099 0.014817 -0.084363 0.026635 0.047351 -0.008487 0.045454 0.028777 0.077004 0.104809 0.061411 0.010982 0.048137 -0.003669 0.078195 -0.039688 -0.010118 0.024396 0.004166 0.051702 0.03772 -0.128652 -0.002478 0.057888 -0.003773 0.100526 -0.039901 0.09805 -0.102813 0.020062 0.000445 -0.009456 0.098312 -0.063291 -0.062962 -0.025873 -0.035359 -0.009262 0.050463 -0.063241 -0.140545 -0.100121 -0.005958 -0.017494 -0.016883 0.010305 0.038439 0.020007 -0.12517 -0.029775 -0.15067 -0.059814 0.087882 -0.051867 -0.015697 0.074833 0.013093 -0.042247 -0.148439 0.0099 -0.139386 -0.0146 0.031904 -0.063295 0.023415 0.002676 0.001275 -0.030301 -0.041092 0.054914 -0.018531 -0.048491 0.01697 0.080684 0.08108 0.034707 -0.086172 -0.016724 0.076862 -0.028923 -0.013328 0.013156 0.037183 -0.112375 0.001752 0.031946 0.014871 -0.031949 0.036114 0.01009 0.020646 0.053103 -0.028087 -0.038214 -0.023852 -0.033859
  0.008286 -0.011213 0.064237 0.00695 -0.043122 0.091524 -0.041344 0.070591 -0.103593 -0.009747 0.006342 0.039791 0.005469 -0.061475 0.068476 -0.105047 0.077325 -0.016436 0.145623 0.129688 -0.105341 -0.00278 0.005589 0.006594 0.072032 0.024629 -0.096994 -0.023438 0.020097 0.026873 0.072207 -0.007198 0.072672 -0.074559 0.041965 -0.056875 0.047243 -0.076432 -0.079824 0.064084 0.058907 -0.123509 0.053989 -0.055782 0.001876 -0.022399 -0.029237 0.013626 -0.006243 0.006327 -0.037877 -0.055001 0.086737 -0.011458 -0.008415 -0.022632 0.043909 0.014141 0.056371 -0.057708 0.021092 -0.084732 0.03235 -0.105286 0.004055 -0.048774 0.051945 0.028256 0.096538 0.013209 0.01565 -0.031413 0.017609 -0.036052 -0.051361 0.074495 -0.004016 -0.006079 0.057366 -0.029085 -0.055689 -0.017005 -0.066674 -0.045699 -0.013619 -0.027672 0.169 -0.017034 -2.1e-05 -0.028647 -0.01319 0.033136 0.041067 0.052021 0.01535 0.031064 -0.014404 0.004408 0.119813 0.007909 0.028863 -0.008647 -0.015332 -0.059153 0.014897 0.023965 0.051693 -0.047888 0.066869 0.059753 0.009564 -0.063155 0.014804 0.103829 0.045511 0.028702 -0.010597 0.018427 -0.038353 0.031956 0.045928 -0.063058 0.000642 0.025195 0.061958 0.019912 0.015708 0.031871 -0.049554 -0.070077 0.068903 0.03052 0.020689 -0.000166 0.0558 -0.025524 -0.028576 -0.174383 -0.03005 -0.037663 -0.022862 -0.001609 0.049946 -0.040136 0.038659 -0.020965 -0.03531 -0.006846 0.014557 0.09488 0.029775 0.013537 -0.012938 -0.059965 0.02837 0.048136 0.081227 -0.08918 -0.104443 0.086835 -0.061521 -0.030296 0.066411 -0.012114 -0.082875 -0.00259 -0.030389 -0.012907 -0.00834 -0.025162 0.03282 -0.060538 0.10645 0.024231 -0.008564 0.061079 -0.075021 0.027022 -0.034805 0.021732 -0.018315 -0.025898 0.005094 0.061122 0.082475 0.001474 -0.041101 -0.121655 -0.005954 0.047174 0.001701 -0.014338 -0.080779 0.000496 0.023016 0.008782 0.002851 0.056841 -0.009783 -0.006152
  -0.011872 0.005646 -0.022336 -0.069907 0.026098 -0.01856 -0.026204 -0.042257 0.041898 -0.062737 0.024777 0.035671 -0.173475 0.025889 -0.112395 0.007436 0.055888 0.038412 -0.008851 0.026784 -0.035253 0.02445 -0.00949 0.041633 0.07718 -0.025389 -0.010003 -0.022873 -0.177662 -0.074365 0.158828 -0.012007 -0.00048 -0.161289 -0.049951 -0.016479 0.107535 -0.060402 0.039203 -0.000569 -0.063443 -0.008386 0.11558 -0.009959 0.002331 0.110579 -0.01298 -0.006878 -0.056272 0.019144 -0.019821 0.070061 -0.004661 -0.021208 -0.002076 0.04558 -0.143009 -0.06779 -0.009493 -0.016039 0.022083 -0.061733 0.014518 0.005011 0.058869 0.035304 0.000476 0.001643 0.061535 -0.024328 -0.114785 -1.1e-05 -0.066763 0.017774 -0.087843 0.099181 -0.031176 0.024123 -0.073627 0.05643 -0.017766 -0.037802 -0.072684 -0.092807 -0.143023 0.109055 -0.099732 0.075622 -0.011268 -0.004033 -0.029042 0.027936 0.040175 0.069446 0.016966 0.017753 -0.016298 0.037138 0.021664 0.031518 0.001026 0.022075 -0.009962 -0.007701 0.005764 0.098155 -0.087607 -0.069789 0.095806 0.051598 0.063559 -0.12304 -0.037213 -0.070612 0.039847 -0.247123 -0.090299 -0.01221 0.033624 0.05541 0.000753 -0.000684 -0.004131 0.046461 0.023055 0.091426 0.00165 -0.063409 -0.121072 -0.156426 0.03839 0.036146 0.041162 -0.047474 -0.038894 0.034071 0.026332 -0.241281 -0.111017 -0.09864 -0.025999 0.013907 0.009798 0.03438 -0.052948 0.029113 0.07139 0.029413 0.006726 0.159127 0.030584 0.054891 -0.009667 -0.029791 -0.043278 -0.130798 0.004767 -0.013076 -0.034587 0.039458 0.012903 0.015536 0.080291 0.026294 -0.075166 0.001091 -0.01532 0.03101 0.041384 0.049109 0.089464 -0.03714 0.099807 0.09255 0.04256 0.141541 0.037812 0.051533 0.09055 0.01024 0.050433 0.085998 -0.072988 -0.000859 0.007738 0.013004 0.071956 0.046032 0.068019 0.013956 0.036158 0.013029 -0.035951 -0.053611 -0.034846 0.012834 0.009242 -0.029487 0.036656 -0.03598
  -0.017333 0.024156 0.049012 -0.041278 -0.049005 0.055787 0.015995 0.015874 0.043082 -0.019535 -0.098 0.071624 0.18032 -0.00811 -0.012343 -0.052232 3.6e-05 0.030422 -0.052985 -0.056644 -0.172781 0.049995 -0.008111 -0.02562 0.059277 -0.015869 0.032665 0.024546 0.034649 0.087579 -0.156657 0.045283 -0.042525 0.038012 0.004284 -0.052524 -0.070748 0.064808 -0.075873 -0.009779 -0.006656 -0.048431 0.207714 -0.058388 -0.039777 0.12895 0.057336 0.015506 0.073803 -0.011876 -0.025416 -0.019307 0.021417 0.029918 0.019123 0.112249 -0.034704 -0.026738 0.055882 0.122474 0.036495 -0.086772 -0.008876 -0.023685 0.061765 -0.029836 -0.007609 -0.044366 -0.131675 -0.035383 -0.05805 0.008974 0.124929 -0.071541 -0.009024 -0.222902 0.055651 0.049849 -0.083696 0.090914 -0.062833 -0.030362 0.04507 0.025091 0.019579 -0.030247 -0.107136 -0.070403 -0.053925 -0.075982 0.034593 0.025575 0.036535 -0.083065 -0.050137 0.036849 0.035547 0.003536 0.017623 0.06922 0.024981 -0.031633 -0.108093 0.005262 0.11996 0.081424 -0.146259 -0.046891 0.090573 -0.040387 0.027496 0.106583 -0.087488 0.167734 -0.109494 -0.006615 0.029042 0.019784 0.025648 -0.036547 -0.095334 0.042243 -0.019548 -0.006631 -0.003534 0.017991 -0.087247 0.01692 -0.029961 -0.069601 -0.033175 -0.04771 -0.016878 -0.00807 0.0105 0.155586 -0.046468 0.04077 -0.003094 -0.071845 0.108266 -0.008377 0.028613 -0.016411 0.048322 0.086081 -0.02493 0.126303 -0.018627 0.083299 -0.089033 0.12975 -0.041716 0.099164 0.017241 0.021475 0.031805 0.079822 -0.107215 -0.006874 0.061725 0.045041 0.033518 -0.095612 0.113926 -0.066244 -0.057935 -0.168659 0.002636 -0.01843 -0.051549 -0.060951 0.121207 -0.099881 0.004969 0.14396 -0.028271 0.027811 -0.013496 0.170684 0.016282 0.04498 0.109372 -0.00352 0.109865 -0.009551 0.118942 -0.05764 0.039673 -0.004722 0.023786 -0.115976 -0.025619 -0.030326 -0.117303 0.026683 -0.014185 0.184625 0.00992 0.075862
  -0.002908 -0.083307 0.02535 0.040051 0.114304 -0.060134 0.011211 0.050183 0.029555 -0.023761 0.012019 0.074745 -0.01854 0.040839 0.05252 0.059339 -0.09407 -0.008348 0.006958 0.020926 0.027664 -0.083342 -0.051523 0.066297 -0.116256 0.105773 -0.073774 0.022246 -0.049986 -0.035445 0.042242 -0.017709 0.1251 -0.157082 0.084894 0.013825 0.009005 0.024257 -0.012064 -0.092614 -0.098689 -0.109226 -0.008088 0.030072 0.007175 0.083566 -0.019422 -0.062754 -0.003013 -0.051372 0.007657 0.112724 -0.100016 -0.148172 0.05081 0.018714 -0.041056 -0.011743 -0.011892 -0.0892 -0.089676 0.209861 -0.048146 0.015353 -0.022632 -0.095322 -0.090282 0.043851 0.018732 0.121993 -0.064815 -0.03915 0.042037 0.012003 -0.032862 -0.047443 -0.036788 -0.101634 -0.01514 0.025695 -0.015993 0.009841 -0.051973 0.125774 0.046636 0.04727 -0.19148 -0.096476 -0.020147 -0.012264 -0.004555 -0.076909 -0.0399 0.115468 -0.148581 -0.084809 -0.010648 -0.110316 0.112605 -0.004766 -0.118278 -0.128358 -0.006062 0.045533 0.025013 -0.038273 -0.077086 -0.042968 0.089612 -0.099034 0.007362 -0.034121 0.006359 -0.030784 0.043864 0.022764 -0.025178 -0.026179 0.149999 0.08115 -0.033359 -0.079151 -0.085284 -0.054333 -0.064942 0.056256 0.041614 -0.013921 0.154431 -0.008047 -0.048399 0.021668 0.151429 -0.036638 -0.059937 0.123859 0.10378 -0.133402 0.054496 -0.01702 0.087814 0.067645 0.026193 0.010905 -0.029415 -0.14464 -0.198579 -0.070142 0.036838 0.087903 0.042776 0.092472 -0.017483 0.14867 0.095757 -0.0061 -0.072764 0.056382 -0.083409 0.081042 -0.04251 -0.054257 -0.046714 -0.00762 0.032075 -0.023806 0.035503 -0.025682 0.084549 0.050022 -0.059497 0.058343 -0.165481 -0.053147 -0.001727 0.074091 -0.04434 0.094705 0.022666 0.117479 0.041376 -0.004486 -0.061325 0.039894 0.017345 -0.02563 0.059308 -0.095406 -0.085502 0.05435 0.014406 -0.028434 0.127291 -0.021329 -0.102278 -0.110073 0.013544 -0.148644 -0.026948 0.11335
  0.084231 -0.032292 -0.000285 -0.029939 0.002374 -0.029365 -0.002236 0.042032 -0.023736 -0.128975 -0.007508 -0.069312 -0.093361 -0.023735 0.030861 0.10304 -0.013539 -0.056679 0.117217 0.00406 0.051282 -0.005439 0.016503 0.028794 -0.030655 0.086603 0.112824 0.016008 0.024762 -0.103335 0.081131 -0.047645 0.041217 -0.112624 0.045727 -0.006105 -0.142552 0.108423 -0.025439 -0.063957 -0.13423 -0.122674 0.146029 -0.055726 -0.012996 -0.216099 -0.053688 -0.037839 0.064951 -0.003546 0.09725 -0.080755 -0.073786 -0.029999 -0.023005 -0.06707 0.016895 0.016925 0.037442 -0.022523 0.004972 -0.01438 -0.109912 0.069741 0.008567 0.103221 -0.067091 0.085719 0.140052 0.021743 0.010914 0.056206 -0.011038 0.000628 0.029185 0.069072 0.010036 0.038238 -0.084194 -0.002847 0.016164 0.125397 -0.054799 0.033006 -0.201235 0.018375 -0.00563 0.114554 -0.063814 -0.096003 -0.111664 0.008741 -0.060656 0.026159 0.069403 0.037322 0.045032 -0.015169 0.079775 0.048564 -0.05363 -0.184065 -0.03677 -0.029958 -0.099492 -0.002007 -0.099354 0.016694 -0.126141 -0.076902 -0.031875 0.107458 0.135787 0.000329 -0.109831 -0.081931 0.000241 -0.013914 -0.021029 0.017269 -0.095799 -0.07404 -0.016253 -0.00666 0.035378 -0.150622 0.002645 -0.024044 -0.027353 0.007668 -0.028285 -0.101213 -0.240889 -0.030168 0.011452 0.101548 0.070723 -0.121053 0.072855 -0.01288 -0.043607 -0.036623 -0.011451 0.100959 -0.249569 -0.048487 0.054138 -0.082143 -0.091484 0.036182 -0.061382 -0.014097 -1e-05 0.113959 0.033661 0.07702 0.019722 0.12067 0.0139 0.094632 -0.031955 0.113264 -0.240971 0.062442 0.097872 -0.032666 0.023266 -0.07141 -0.010609 -0.055501 -0.069581 -0.103735 0.037552 -0.112741 -0.001617 -0.145209 -0.082276 0.111474 -0.091975 -0.031863 0.053602 -0.03413 0.096432 0.001816 0.033611 -0.003577 0.018906 -0.05101 -0.010739 0.041034 -0.034603 0.038224 0.10223 -0.070126 0.040983 0.114003 0.062764 -0.000769 0.025412 0.058723
  0.003402 0.01617 0.051904 -0.027809 0.147642 -0.188148 -0.020874 -0.006484 0.014279 0.074788 -0.018969 -0.007536 -0.023267 0.021529 -0.026209 -0.08701 0.001958 -0.065669 -0.052404 0.008644 0.08915 -0.009291 -0.002764 0.033709 0.040627 0.008374 -0.131948 -0.013649 -0.027236 0.007555 0.131401 0.013557 0.00854 0.028967 -0.013089 -0.012394 -0.017453 0.033375 0.05741 -0.120559 -0.066642 -0.019807 0.150653 -0.07883 -0.057054 0.034828 -0.001796 0.034006 -0.156581 0.00091 0.000908 0.129324 0.015819 -0.100589 0.028749 0.047993 0.006844 0.039169 0.045172 0.011182 -0.072253 0.065791 -0.104314 0.015058 -0.003095 -0.089501 -0.038689 0.019762 -0.028913 -0.009394 -0.025824 0.097224 0.065678 -0.046107 0.011873 -0.031631 0.062454 -0.03468 -0.100027 0.038773 0.02043 0.010449 -0.043983 -0.070015 0.00307 -0.004947 0.063765 0.079156 0.04632 -0.073305 0.038519 -0.050286 -0.11712 0.106438 -0.161349 -0.059402 -0.014424 -0.10721 0.009333 0.034225 -0.114116 -0.007886 -0.09223 0.012787 -0.032979 0.119058 -0.055897 -0.022532 0.058384 -0.024654 -0.032078 -0.124035 -0.135145 -0.012678 -0.014515 0.01294 -0.069928 0.013353 0.029972 -0.038083 -0.043431 -0.041921 -0.030757 0.023431 -0.000941 0.015258 0.027274 -0.005714 -0.034842 0.149887 0.11542 0.047743 0.03484 0.063852 -0.049423 -0.181596 -0.030631 -0.131817 0.036187 0.03342 0.131038 -0.04279 -0.001232 -0.017618 0.087079 0.003878 -0.046212 -0.016087 0.033131 0.100059 0.071808 -0.131303 0.026961 -0.000367 -0.005642 -0.090653 -0.000441 0.110523 -0.003011 0.039444 -0.087897 0.062241 0.053684 -0.041646 -0.001492 -0.00441 0.002881 -0.043719 0.022923 0.003158 -0.034181 0.017999 0.005769 -0.0462 0.06866 -0.10678 -0.114569 -0.046597 -0.106892 -0.03293 0.018128 -0.02441 0.009515 0.154491 -0.025416 0.071958 0.142019 -0.036446 -0.015821 0.029238 0.010556 0.067226 0.024292 -0.018936 0.024352 0.078604 0.01093 0.027926 0.028298 0.061952
  0.015194 -0.024287 0.014152 0.01421 0.028165 0.093355 0.061008 -0.012568 0.060097 -0.091917 0.024802 0.014791 0.12871 -0.000347 0.051589 -0.137762 0.038434 0.060816 0.160227 0.019943 -0.061512 0.010672 0.017755 0.0239 -0.077125 -0.124842 0.071217 0.038913 -0.021166 0.148933 -0.158404 -0.030299 0.122489 0.056063 0.055972 -0.048506 0.030018 -0.02338 0.049937 -0.066427 0.026004 0.039752 0.071713 0.098117 -0.005965 -0.030416 0.058929 0.047063 0.000312 0.01912 -0.002962 -0.234587 0.013903 -0.197345 -0.034095 -0.045668 -0.097826 0.058572 -0.06511 0.027647 -0.115688 -0.013448 -0.021036 0.049479 0.081003 -0.1969 0.090047 0.000326 -0.095158 0.084496 0.132411 -0.033715 0.063154 0.053636 0.000919 0.066129 -0.054711 -0.004913 -0.009675 -0.028244 -0.002878 0.090789 0.008002 0.06578 0.036549 -0.039197 -0.176753 -0.040148 0.032179 -0.084046 -0.03225 0.009548 -0.051309 -0.079377 -2.1e-05 0.062193 0.043774 0.00324 -0.030415 0.03797 -0.141433 -0.036743 -0.125257 -0.044056 -0.156719 -0.06774 -0.044244 0.013579 -0.013171 0.074575 0.01161 -0.010565 0.017124 -0.065012 -0.020109 0.031691 0.006883 -0.082139 -0.035271 -0.082545 0.006906 0.005316 0.084456 -0.065969 0.081297 0.014916 0.013104 0.036938 -0.076395 -0.22098 -0.013575 0.046666 0.118599 -0.040681 0.030202 -0.01499 0.07166 -0.225348 -0.012029 -0.032325 -0.007313 0.044647 0.122152 -0.018007 0.081839 0.026983 0.03712 0.018655 -0.071693 -0.103327 -0.084337 0.044263 -0.051652 0.041279 -0.032187 0.063517 -0.083702 0.008529 0.017035 -0.012161 0.068571 0.068746 -0.156633 -0.110369 0.13812 3.7e-05 -0.006898 -0.211697 -0.070439 -0.004783 -0.002545 -0.114883 0.094939 -0.108711 -0.016809 0.032984 0.046484 0.053548 -0.104263 0.212988 0.056186 0.003856 -0.127136 -0.021134 0.120009 0.013499 -0.098352 -0.048719 0.022296 0.109082 -0.003064 0.050016 -0.040515 -0.061387 0.019889 -0.002615 0.015834 0.063383 0.046077 0.016193
  -0.009962 -0.073681 -0.047767 -0.056881 -0.095059 0.145423 0.041992 -0.050642 0.021864 -0.004073 -0.036513 0.039072 0.027669 0.02967 0.007597 -0.119407 0.03404 -0.001084 0.120343 -0.109874 -0.061797 -0.002373 0.031102 -0.026355 0.134179 -0.035979 -0.007342 0.016186 0.095337 0.011827 -0.162763 0.023278 0.005134 0.04185 0.047701 0.003327 -0.163798 0.045129 0.040472 0.088586 0.009128 -0.025218 -0.056222 -0.088191 0.001887 0.084526 0.116795 -0.000472 0.159922 -0.06423 -0.014597 -0.181013 -0.030981 -0.207881 -0.155563 0.090544 0.100052 0.089081 -0.023698 0.140258 0.073409 -0.162162 0.038258 0.175851 0.057877 0.036949 -0.052807 -0.047878 -0.006925 -0.002971 -0.09743 -0.065993 0.08117 -0.07401 0.018768 -0.005705 -0.006948 0.050149 0.074037 -0.018739 -0.016487 0.069328 8e-06 0.07516 0.114682 -0.103272 -0.167597 -0.024477 0.012443 -0.031012 0.021077 0.087646 -0.048748 -0.036194 -0.069339 0.026266 0.024137 0.079717 0.002724 0.052283 -0.113159 -0.043012 0.002101 0.017196 0.046895 -0.130984 0.011332 0.015027 -0.000173 0.019413 0.098299 -0.096103 -0.052517 -0.171668 -0.055578 0.045712 -0.049032 0.021519 0.016351 0.032267 -0.056223 -0.097349 0.043292 0.025825 -0.001718 -0.009555 -0.025272 -0.07177 0.04242 -0.064775 -0.010746 -0.122528 -0.117091 -0.001908 -0.007181 -0.131033 -0.079004 -0.054461 -0.087223 -0.032396 0.07245 0.036728 -0.027606 0.075187 -0.224797 0.035882 -0.056943 0.066224 -0.043715 -0.029594 0.013236 -0.107405 0.047731 0.023305 0.008616 0.002334 -0.00155 0.045427 -0.043697 0.015515 0.098849 -0.043474 0.059111 -0.120605 0.002541 0.004881 0.006387 0.212887 0.014173 -0.013759 0.033533 0.034952 -0.082453 -0.192559 0.021527 0.103661 -0.050892 0.048208 0.045276 0.057158 -0.00013 -0.047233 -0.033605 -0.016939 -0.069751 0.015369 0.037335 0.153896 -0.019965 0.020926 -0.040277 0.011345 0.073303 -0.074261 0.02994 -0.118304 -0.033867 0.018967 0.037251 0.073643
  -0.282466 -0.034345 0.169225 -0.124466 0.007126 -0.024418 -0.041738 0.318314 -0.160136 -0.08064 0.123352 0.038924 0.251484 -0.012314 0.186035 -0.319823 -0.014141 -0.131425 0.013852 0.002644 -0.083394 -0.054537 0.101829 -0.083566 0.310057 0.21443 0.3391 0.179963 -0.400955 -0.026088 -0.177463 0.163308 0.020913 -0.02476 -0.013771 -0.478991 0.036088 0.178234 0.001375 -0.097957 -0.747863 0.047411 0.014687 0.36962 -0.049747 -0.093717 -0.030905 -0.061748 0.197113 0.103087 0.142444 0.038822 -0.057892 0.035765 -0.116688 0.295429 0.025279 -0.016321 0.223095 -0.267764 -0.314374 -0.118165 -0.035267 0.05092 0.221981 0.440067 -0.270412 -0.352706 0.020289 -0.017718 -0.035966 -0.023627 -0.069225 -0.051199 0.081717 -0.04723 0.040935 -0.052984 0.017834 -0.135348 -0.390972 -0.004727 -0.028696 -0.017656 0.036195 -0.473224 0.010698 0.016544 -0.125028 -0.089327 0.110465 0.164567 -0.036718 -0.031428 -0.143713 0.008159 0.124473 -0.022128 -0.021863 0.187252 0.381074 -0.032939 -0.038743 -0.051769 -0.007761 -0.022978 -0.315688 -0.05843 -0.023863 0.227157 -0.002676 -0.00466 -0.10663 0.488166 -0.136758 -0.082124 0.036643 -0.388834 0.018198 -0.076138 -0.113561 -0.043845 0.011414 -0.040821 -0.049692 -0.055118 -0.369355 -0.007984 0.038079 0.241184 -0.02012 -0.03143 -0.443568 -0.152272 -0.039779 -0.425282 -0.033057 0.004838 0.030184 -0.331109 0.018867 -0.369975 -0.022495 0.035828 0.048358 -0.456948 0.076617 0.26607 0.182158 -0.051188 0.105893 -0.021311 0.34891 0.017478 0.068373 0.259834 -0.019266 -0.074695 0.128818 -0.012382 0.233991 0.116919 0.034599 -0.011543 -0.034345 -0.192392 0.181047 0.057447 -0.027241 0.035659 -0.057619 0.201653 -0.043021 -0.002889 -0.04309 0.30161 -0.018474 0.003245 0.004536 -0.020182 0.158724 0.125348 -0.074437 -0.008417 -0.017235 0.118558 -0.000185 0.007804 0.027038 -0.00574 0.032475 -0.210483 0.028064 -0.044784 -0.366495 0.024624 0.146003 0.304184 0.264077 -0.066778
  0.064182 0.037498 0.080509 0.171988 0.076196 -0.091189 -0.078455 -0.513791 -0.003519 -0.38808 -0.338169 -0.030067 -0.08157 -0.043656 0.189956 0.116678 0.225714 -0.154299 -0.062184 0.075085 -6e-05 0.136037 -0.062744 -0.017164 -0.35961 -0.628983 -0.027875 0.094997 0.316638 -0.073049 0.132272 -0.188763 -0.026937 0.052028 0.01495 0.253392 0.09247 0.203877 -0.08384 0.031056 -0.060401 0.002116 -0.02197 0.173008 0.020422 -0.087935 -0.015036 -0.024485 0.350794 -0.093325 0.19335 -0.05459 -0.002161 -0.034532 -0.022429 0.220905 0.06148 -0.040026 -0.027587 0.274086 -0.187859 0.277933 -0.045025 -0.001544 -0.100388 0.296846 0.241329 0.205321 -0.005706 0.011221 -0.010694 0.015212 0.415584 0.238597 -0.071872 -0.057948 -0.441932 -0.027419 -0.316996 0.153723 0.101995 -0.044263 -0.018943 0.068631 -0.008913 -0.14631 -0.026251 -0.00484 0.033148 -0.001889 0.206911 0.159459 0.006935 -0.021229 0.275474 -0.024886 0.12104 0.020295 -0.020699 -0.025977 0.093901 -0.031972 -0.086893 -0.436296 0.080594 -0.014432 0.163759 0.013078 0.145042 -0.113999 -0.076593 -0.059957 0.22249 -0.307733 0.164258 -0.061736 -0.352325 0.153708 0.003912 -0.01523 -0.009833 0.008149 0.019758 0.083013 0.010953 -0.012458 -0.0128 -0.008233 -0.036261 -0.455725 0.007884 0.047403 -0.113405 0.138662 0.081911 0.019803 -0.06409 -0.103262 0.042096 -0.081216 -0.054789 0.107735 0.000906 -0.343545 0.02013 -0.294152 0.06044 0.180758 0.112122 9.8e-05 -0.28168 -0.09627 -0.132963 -0.015704 -0.042068 0.281235 -0.007724 -0.030381 0.020586 0.019449 0.285718 0.21375 -0.015421 0.005449 -0.014118 -0.046964 0.097409 0.04339 0.004177 0.123064 0.01187 0.038326 -0.009311 0.094377 0.065918 0.443436 -0.059847 -0.067596 -0.084372 -0.093742 0.109677 0.204814 0.060012 -0.018171 0.059814 0.066689 0.013242 -0.113304 0.020892 0.008622 0.046947 -0.321749 -0.000398 -0.051752 -0.124407 -0.005564 -0.071158 0.481198 0.232995 0.035476
  0.064781 0.008999 -0.440301 -0.004997 0.021979 -0.007854 -0.026999 0.255987 0.115334 -0.267848 0.121375 0.166294 0.145492 -0.009785 -0.386697 -0.264191 0.072814 0.009173 -0.004185 -0.017819 -0.080785 0.035683 -0.015301 -0.071173 -0.229996 0.279679 -0.027624 -0.20467 0.043708 -0.085664 -0.045606 0.086727 -0.019379 0.033358 0.0246 0.000606 0.248629 0.230475 -0.035562 0.005177 0.163333 0.019467 -0.027019 -0.043373 -0.11212 -0.078259 0.001906 -0.017621 0.275726 0.13958 -0.229777 -0.078725 0.047338 -0.00324 -0.041242 0.280036 0.018566 0.059334 0.091904 0.229945 0.143643 0.384143 -0.048921 0.005335 0.146531 0.381781 0.109838 0.087648 0.017761 0.002951 0.02368 0.007494 0.170565 -0.231164 -0.347884 -0.06429 -0.168026 -0.039845 0.129402 -0.134984 -0.303034 -0.063117 -0.02147 0.283234 -0.043715 0.16583 -0.085742 0.019592 0.078361 -0.034969 0.1688 -0.115803 -0.028053 0.065337 0.29884 -0.027132 -0.073313 0.002133 -0.001087 0.102813 -0.369996 -0.060522 -0.077955 -0.082164 0.082252 -0.007985 -0.108911 0.055438 -0.051408 0.313893 -0.008428 0.027743 0.46041 0.238459 -0.129553 0.019187 0.178877 -0.14134 0.021346 -0.040713 0.006913 0.003291 0.008731 -0.03018 0.00356 -0.068425 0.104236 -0.029937 -0.016398 -0.097672 0.024504 0.019631 -0.21514 0.022824 -0.438235 -0.401755 0.065726 -0.130328 0.011524 -0.249157 0.033403 0.024058 -0.030788 0.198938 -0.04963 0.185229 -0.014864 0.170569 0.052825 0.046468 -0.00515 -0.511699 0.18569 -0.013607 -0.025382 0.155954 0.037083 -0.015462 -0.410591 -0.022464 -0.445715 0.209147 -0.007473 0.020083 0.008511 -0.076012 0.107783 -0.009644 0.024321 0.091952 -0.019093 0.134084 0.042197 -0.039623 -0.060266 0.290371 0.032698 -0.116404 -0.0203 -0.053413 -0.038035 -0.009171 -0.007804 -0.012093 -0.056768 0.012848 -0.051038 -0.108218 0.01347 -0.014936 -0.346606 0.119712 -0.045569 0.201883 -0.306279 -0.013222 -0.14286 0.43932 0.112538 0.002908
  -0.197492 0.016814 0.0532 0.071666 0.097296 0.023855 0.023454 0.220118 0.085399 0.182192 0.111922 0.159455 -0.146266 0.047286 0.18383 0.163798 -0.220734 -0.003152 0.103382 -0.063632 -0.15593 -0.048351 -0.174812 -0.024697 -0.034281 0.125576 -0.052847 0.196331 -0.026215 0.001064 0.18726 -0.189321 0.079912 -0.186895 0.054765 0.092567 0.206707 -0.072491 -0.003607 -0.035132 0.236558 -0.029455 -0.283628 0.002162 -0.062643 -0.060093 -0.063604 -0.037567 0.110289 -0.045647 0.125092 -0.058064 0.017041 -0.122548 0.014971 0.029624 -0.050963 0.037392 -0.094932 -0.275 -0.252825 0.232372 -0.034911 -0.021843 0.039692 0.128525 0.004373 0.113611 0.001402 -0.008406 -0.036034 0.019256 0.272361 0.0635 -0.146462 0.025868 -0.285646 -0.031144 0.131815 -0.013555 0.00796 -0.026645 -0.015535 -0.195741 -0.009175 -0.204757 0.041582 -0.003206 0.12908 -0.063106 0.149185 0.039414 0.024521 0.048311 0.034856 0.041719 -0.007219 -0.018972 0.128912 0.064549 0.016819 -0.037601 -0.039077 -0.075573 -0.133194 -0.042294 0.123275 0.022663 0.127685 0.060656 -0.019739 0.002058 0.088684 -0.154261 -0.072083 -0.046064 -0.00786 0.078691 0.040285 -0.053795 0.083102 0.083865 0.046592 0.012015 -0.030569 -0.075534 -0.097234 -0.080756 -0.038877 0.073307 0.034696 -0.061278 0.166203 0.054396 0.076507 0.07395 0.004439 -0.026364 0.016578 0.1841 -0.059769 0.032313 0.032469 0.091607 -0.01714 0.146013 -0.02851 -0.157728 0.09165 0.006015 0.045833 0.179382 -0.007214 0.028699 -0.030827 -0.207144 -0.075552 0.044946 -0.175789 0.003577 -0.417824 -0.196137 -0.048092 0.061706 -0.030752 -0.007396 0.053718 -0.061146 0.011148 0.015622 -0.064916 0.176566 -0.004569 -0.080356 0.165949 0.193563 0.013627 0.040039 0.026146 0.032442 0.073405 0.137331 0.039629 -0.039272 0.023009 -0.125049 0.030175 -0.178275 0.029888 0.015186 0.019402 0.030471 0.054825 0.060203 7.7e-05 -0.005414 0.048122 -0.214639 -0.013262 0.024968
  -0.075513 -0.01339 0.12771 0.056355 0.033893 -0.08326 -0.024969 0.149121 0.010498 -0.293189 0.018957 0.29 -0.290497 -0.006987 -0.148329 0.10012 0.017617 0.128532 0.120097 -0.06098 -0.06485 0.016526 0.058747 0.005787 0.009836 0.019656 -0.003015 0.099584 -0.126052 -0.016499 0.145185 -0.230844 0.089058 -0.224152 0.047905 0.053247 -0.014226 0.076439 -0.019783 -0.015678 -0.560569 -0.108383 0.264997 0.240304 0.005419 0.000148 -0.054563 0.087628 0.516359 0.078812 -0.0358 -0.033405 -0.014476 -0.049677 -0.058101 -0.204219 -0.014324 0.022878 0.09917 -0.10825 0.080181 -0.116052 -0.00415 0.009675 0.141796 0.128593 -0.008964 0.140069 0.021266 -0.001208 -0.059332 -0.054536 0.132996 0.13031 -0.026812 0.017003 -0.358509 -0.091817 -0.272622 0.131345 0.046882 0.014076 0.009567 0.061213 0.103536 0.084464 0.061335 -0.067493 -0.131833 0.00832 -0.090254 0.099832 0.00403 -0.112943 0.071782 0.048835 0.067105 -0.059594 0.103028 0.049324 -0.408984 -0.030586 -0.035425 0.140013 -0.05108 -0.056361 -0.056743 -0.00984 -0.040222 0.049746 0.065858 -0.068528 0.038956 0.290381 0.015253 -0.034014 -0.122999 0.059314 0.067666 -0.044487 -0.253253 -0.100561 -0.009892 -0.027123 0.012944 0.031452 0.117367 -0.091828 -0.016333 0.068116 0.091916 -0.045743 0.240724 -0.387005 -0.019127 0.33002 -0.053486 0.109265 -0.07478 -0.1052 -0.043577 0.012029 -0.039259 0.23112 0.014705 -0.060764 -0.060662 -0.143405 -0.278038 -0.066499 -0.077105 0.022311 -0.149197 0.022054 0.032925 0.118447 -0.058024 0.052704 0.100462 0.026628 -0.060948 0.247531 -0.0188 0.055898 0.003009 0.031472 -0.043017 -0.014635 -0.039924 -0.174699 -0.07428 -0.296831 -0.078523 -0.068816 0.146574 0.380665 -0.050577 -0.020521 -0.059374 0.040289 0.180711 0.065252 -0.02154 -0.013616 0.064715 -0.29147 -0.019114 0.038546 -0.033298 -0.011025 0.036925 0.054984 -0.030698 -0.046026 0.114745 -0.072298 0.00038 -0.113231 0.232855 -0.042631
  0.153407 -0.018418 0.131621 0.097642 0.01863 -0.073839 -0.043761 0.222692 -0.033283 0.222779 -0.350067 -0.309604 0.212186 0.051876 0.213552 -0.018779 0.165169 0.190905 0.113182 -0.026036 -0.072299 -0.093633 0.03197 -0.007394 -0.10613 -0.523097 -0.083874 0.128082 -0.369351 0.001628 0.279992 0.081338 -0.06672 -0.15471 0.01636 0.210408 0.211793 0.092503 -0.009001 -0.051622 0.173425 -0.052107 -0.079053 -0.142358 0.014122 -0.080171 -0.043654 -0.069771 -0.095613 -0.055471 -0.561962 -0.062458 0.056134 0.031167 -0.074189 0.158161 0.02452 -0.010661 0.0138 -0.183521 -0.018003 0.429039 -0.029324 0.052035 -0.050384 -0.021621 0.186398 0.182099 0.039596 0.016251 0.006987 -0.049328 -0.260191 0.208536 0.089371 -0.029508 0.012732 0.006763 -0.174317 0.146034 -0.162321 -0.003394 0.009659 -0.148365 0.010318 0.025574 0.014719 0.073712 0.130399 -0.020063 -0.224676 -0.197784 -0.029768 -0.079899 -0.354657 0.029416 -0.040633 0.006531 0.007244 0.104132 0.225488 -0.061109 0.026935 0.082618 0.01484 -0.031822 0.083752 0.005926 0.152998 0.028269 -0.01312 -0.077724 -0.086839 0.368444 0.102122 -0.064707 0.076437 0.162758 -0.021074 -0.017116 0.013415 2.9e-05 0.036386 -0.014723 -0.041973 0.017356 0.168792 -0.017398 0.09493 -0.08437 0.046193 0.01037 -0.188428 0.092458 0.094347 0.184717 -0.070665 0.031112 0.092221 -0.106717 -0.046894 0.023558 0.007179 0.083185 0.008917 0.312762 -0.090592 -0.147846 0.001951 -0.01748 0.064314 0.272107 0.244443 0.037033 0.019402 -0.027837 0.011002 -0.023793 0.206593 0.060089 -0.466341 0.187737 -0.068272 0.0784 0.043486 -0.036139 -0.28585 -0.047223 -0.017425 -0.14108 -0.056203 -0.002457 -0.082703 0.011129 0.164982 -0.068043 0.013527 -0.002262 -0.046416 0.052143 0.165255 -0.377597 -0.072141 -0.072122 -0.022912 0.021892 0.068935 -0.083173 -0.000222 -0.033139 -0.49936 -0.138422 -0.012437 0.169061 -0.351214 0.00435 0.10557 0.449096 0.149497 -0.070544
  0.013189 0.052745 0.038682 0.019377 0.116022 0.01696 0.053476 -0.066501 0.0354 0.054246 0.057308 -0.086008 -0.116586 0.036894 -0.00993 0.106705 -0.022643 -0.008735 -0.064197 0.011191 -0.113191 -0.075083 -0.008717 0.068081 -0.083222 -0.073749 -0.006407 0.002497 -0.034954 0.008023 -0.031904 -0.028331 0.03206 -0.050349 -0.031763 0.033941 0.054814 0.024351 0.028782 -0.010322 0.033417 0.100861 -0.132713 0.086758 0.010387 -0.059188 -0.021218 -0.004436 0.11194 0.002548 0.04331 -0.018103 -0.077923 0.022409 0.042386 -0.01521 0.084624 0.053587 0.005204 -0.156791 -0.02593 -0.025625 0.11972 -0.066586 -0.059655 -0.015184 0.010168 0.046542 0.096497 -0.093364 0.022455 0.001525 -0.10681 -0.000145 -0.024296 0.049143 -0.030751 0.029468 -0.00136 0.042031 -0.020511 -0.04948 -0.024791 0.029434 0.034805 0.021584 0.005664 -0.089524 -0.016641 -0.028845 0.008611 0.04009 -0.015832 -0.045905 0.08398 0.050472 -0.007894 -0.077574 0.029443 0.053028 0.06705 0.019397 -0.021741 -0.017917 0.071881 -0.063188 0.078403 0.012235 -0.068154 0.016037 -0.006601 0.046268 0.039983 0.024534 -0.044864 0.013697 0.032844 -0.044103 -0.132181 -0.111605 0.017546 0.066008 0.022523 0.074727 0.078734 0.039973 -0.003448 -0.099386 -0.080727 0.038349 -0.00165 0.018249 0.018034 0.014538 0.004952 -0.068237 0.055274 -0.167498 -0.04158 -0.061196 0.005311 -0.067224 0.013633 0.022015 -0.022844 0.049182 -0.038686 0.012837 -0.050714 0.128042 -0.04621 -0.099129 -0.017343 -0.044794 0.064248 -0.028826 0.071032 0.097175 -0.010558 -0.049714 -0.015283 0.004949 -0.000741 0.052904 -0.014082 0.002741 0.00595 -0.00534 0.030059 0.019051 -0.017513 -0.01689 -0.019796 -0.009665 -0.015543 -0.13486 -0.107773 -0.035403 -0.053433 0.075041 0.036099 -0.02036 0.078755 0.008231 0.105333 -0.020445 0.029862 -0.046967 -0.05105 0.038527 -0.049406 0.032696 -0.022423 0.063294 -0.00194 -0.056596 0.016099 -0.044145 -0.047527 0.080348
  0.037737 0.04373 -0.058578 0.024918 0.143366 0.036239 -0.037332 -0.008821 0.009656 -0.006516 0.004522 -0.03465 0.033278 0.015465 0.016795 -0.018697 0.049248 -0.053956 -0.007097 0.03489 0.013298 0.020912 0.008583 -0.074646 -0.071459 -0.015424 -0.064172 -0.061495 0.044023 0.064189 -0.055036 0.006518 0.011569 0.038986 0.055629 0.019369 -0.021544 -0.047803 -0.195319 0.02712 0.060031 0.011152 -0.080808 -0.002174 0.002786 -0.046859 0.027533 0.085914 -0.013266 0.031251 -0.006087 -0.055534 -0.027584 -0.021233 0.014968 -0.021962 -0.022518 0.004763 0.031799 -0.017615 -0.097681 0.069942 -0.10919 0.087141 -0.084937 -0.077186 -0.067981 0.078384 0.10101 0.026763 -0.073756 -0.071256 -0.027636 0.052009 -0.066511 0.043096 0.039528 0.03918 0.023218 0.048027 -0.020006 -0.009381 0.029277 0.016672 -0.009892 0.00888 -0.081105 0.043673 0.01679 -0.062392 -0.018525 0.037427 0.067161 -0.018444 0.031518 0.047456 0.047388 0.103165 0.059994 -0.039946 0.154212 0.031548 -0.032429 -0.006413 0.058998 -0.038057 -0.00086 -0.023861 -0.034245 -0.042225 0.011436 0.006948 -0.072617 0.104164 -0.120532 0.005842 0.062581 -0.029917 0.01612 0.023219 0.03713 0.044288 0.028415 0.015468 -0.001447 -0.043829 0.003418 -0.046644 -0.060829 0.016818 0.021831 -0.039252 -0.010534 0.020456 -0.007868 0.053854 0.055862 0.050353 -0.109892 -0.03266 0.01524 0.030173 0.023385 0.041265 0.050679 -0.012773 0.113295 0.128588 0.020729 -0.153728 -0.001627 -0.066043 0.006682 -0.084177 -0.077904 -0.082589 0.021155 -0.01742 0.105552 0.023796 0.022205 -0.004408 0.040806 -0.101505 0.129383 -0.033219 -0.030009 0.001227 0.019453 0.018595 -0.015931 -0.002912 0.011294 -0.095968 -0.102567 0.153787 -0.002742 -0.024342 -0.028588 0.008774 0.016267 0.015989 0.050241 0.004828 -0.220543 -0.006851 -0.06133 -0.038283 -0.023084 0.040725 -0.001133 -0.050555 0.066962 0.036043 0.011549 0.092157 -0.006728 0.082735 -0.077342 -0.001808
  0.036642 0.058695 0.038858 0.025702 0.016067 -0.071651 -0.026046 0.022895 -0.009284 -0.060123 0.006023 -0.035501 0.079746 0.012521 -0.083203 0.054719 0.046489 0.002681 0.053046 -0.006888 0.040831 -0.018721 0.025246 0.008391 -0.089455 -0.038016 -0.140367 -0.001126 -0.012935 -0.059261 -0.067483 0.024649 0.071508 -0.164642 0.041472 -0.094198 -0.007891 0.015787 0.017648 -0.07956 0.050876 0.017535 -0.003977 0.038582 0.045071 -0.224366 0.043911 -0.002581 -0.157393 0.030027 -0.038353 0.064434 0.002808 -0.009772 0.008605 0.000108 0.030349 -0.016258 0.024056 0.060434 -0.015742 0.011641 -0.010496 0.042861 -0.036511 -0.096055 0.017278 0.028176 -0.039355 0.008376 -0.032616 0.066759 -0.014587 -0.042314 -0.061529 0.040786 0.041662 -0.009875 0.046326 -0.04095 -0.001075 0.024181 0.010393 0.023329 -0.001958 0.004106 -0.019442 -0.129123 0.033419 -0.174875 -0.013614 -0.007981 -0.020744 -0.003089 -0.009263 0.018167 -0.019244 -0.036026 0.046614 0.027971 0.074082 0.056476 -0.022493 -0.034343 -0.077192 0.072731 0.044166 -0.043551 -0.068202 0.027642 0.034602 -0.037845 -0.075753 0.071892 -0.130145 -0.181475 0.016927 -0.036926 -0.04841 -0.017986 0.043582 0.081984 -0.02563 0.068191 -0.039392 0.079636 -0.007913 0.051647 -0.072357 0.063657 0.07257 0.154268 0.077372 -0.079323 -0.008036 -0.028713 -0.031468 -0.04747 0.083228 -0.028295 -0.021801 -0.02603 -0.084636 -0.046967 0.082696 0.013704 0.068992 0.073154 0.029186 0.001001 -0.069207 0.039508 0.047126 0.068401 0.116063 -0.144598 -0.010135 -0.024062 0.046452 0.072921 0.022122 0.0284 -0.110735 -0.047725 0.06007 -0.050188 0.004158 0.08684 0.000489 -0.008417 0.020279 -0.021864 -0.019932 0.063293 -0.073101 0.009553 0.015721 0.002197 -0.02573 -0.021377 0.029799 0.068642 -0.163884 0.064813 -0.067895 0.021722 -0.082214 -0.089586 0.057626 0.083237 -0.01369 0.008375 0.043737 0.015758 0.072934 -0.020738 -0.017802 -0.033392 -0.149491 -0.006589
  0.01811 0.003835 0.036925 0.010748 0.097517 -0.001015 -0.025881 -0.066749 -0.008232 0.045228 -0.023202 0.002082 0.033748 0.025695 -0.080845 0.016209 -0.047676 -0.068373 0.050398 0.006873 0.08039 -0.033461 0.011273 0.006219 -0.03229 0.011979 0.093513 -0.060715 -0.015104 -0.033668 -0.036773 -0.056726 0.022566 -0.017517 -0.080451 8.4e-05 -0.050945 -0.028948 -0.015035 -0.02631 0.072153 -0.200459 -0.075318 -0.009096 0.017741 0.062208 0.043462 -0.05513 0.013688 -0.018356 -0.003646 -0.17476 0.073992 -0.002749 -0.030233 -0.043106 0.080057 0.025148 -0.023025 0.00575 -0.107736 -0.010601 -0.045908 0.04199 -0.037335 -0.011191 0.032634 -0.001921 0.007024 -0.009585 0.124266 0.040336 -0.044733 -0.001994 -0.023323 0.064444 -0.018029 0.019012 0.056702 0.080634 0.005393 -0.042614 0.041148 -0.006957 0.054917 0.017631 0.091485 0.017026 -0.001095 0.007127 0.01717 -0.010043 0.0078 0.009054 0.029658 0.033474 0.013791 -0.101753 -0.076362 0.02303 0.044452 0.056173 -0.032609 0.004357 0.005435 0.087106 0.024894 -0.021608 0.00284 0.067894 -0.055884 -0.027312 -0.110912 0.011034 -0.067955 0.02698 -0.044826 0.010744 0.026825 0.090403 0.045551 0.020989 -0.017175 -0.026172 0.025852 0.038034 -0.001108 -0.02303 0.060027 -0.024324 0.101824 -0.014287 0.10355 -0.014487 -0.004341 -0.091246 0.02943 0.036178 -0.050319 0.003018 -0.036428 -0.047077 0.06373 0.018286 -0.114851 0.01087 -0.01754 -0.045429 0.008161 -0.016669 -0.017273 -0.00321 0.020301 0.000618 -0.003889 -0.086564 -0.006066 0.050484 -0.052882 0.010946 -0.001288 0.034331 -0.082101 -0.09556 0.058416 -0.019701 -0.005317 -0.145754 -0.055698 0.011559 0.003842 -0.042132 0.022079 0.029674 -0.057835 0.137595 0.064512 -0.025825 0.073448 -0.097582 -0.019533 -0.002743 -0.008503 -0.058783 -0.169292 -0.016689 -0.050458 -0.077907 -0.08336 0.039517 -0.001169 0.008377 0.076325 0.032188 0.022807 0.050207 0.033224 -0.095226 -0.007967 -0.007725
  -0.05011 -0.018901 0.026071 0.00829 0.097282 0.066148 -0.00385 -0.004786 0.059354 0.071977 0.107315 -0.078522 -0.00798 -0.01556 0.066041 0.029431 0.047277 -0.031827 0.010354 -0.05242 -0.114188 -0.065121 0.014246 0.073491 0.058156 -0.035092 0.087585 0.050426 -0.067975 -0.031591 -0.071826 -0.042886 -0.02316 0.047451 0.0568 0.044383 0.124272 0.016143 0.016198 -0.022157 -0.043167 0.083904 -0.124764 0.070051 0.002283 0.022077 -0.072569 0.0263 0.046292 0.023723 -0.004797 0.034597 -0.012703 -0.022503 0.068997 -0.080352 0.147628 -0.019325 -0.000212 -0.190708 0.109261 -0.048416 -0.042146 0.003922 -0.044274 -0.137883 0.068216 0.051204 0.00042 0.093965 0.058659 0.01184 -0.036236 -0.028819 -0.023496 0.004077 -0.016485 -0.007909 0.040506 0.043058 -0.015204 -0.032348 0.001183 -0.124104 0.079692 0.023068 -0.114244 0.011132 0.018154 0.060101 0.004504 -0.029576 0.032314 0.033217 0.097434 -0.062453 -0.026752 -0.086823 -0.002835 -0.040897 0.064941 0.032305 -0.057264 -0.015734 -0.025535 0.001959 0.065189 -0.016833 -0.090317 0.014588 0.060696 -0.06124 -0.1099 0.102507 -0.134209 0.003929 0.036642 0.017423 -0.108862 0.025113 0.048002 0.117195 0.077444 0.035482 -0.071148 0.035211 0.00078 0.002594 -0.016757 -0.002839 0.010342 -0.087956 -0.146622 0.011657 0.083573 0.062873 -0.002857 -0.066354 -0.009223 -0.051332 0.079181 0.001498 0.035909 0.058438 0.053127 0.020677 -0.136245 0.036523 -0.012261 0.013119 -0.025474 -0.050845 0.068625 0.008192 0.075697 -0.014593 0.034876 0.051909 -0.179189 0.081514 0.020795 0.027084 -0.02469 0.081271 0.034233 -0.02464 0.009638 -0.262121 0.013817 -0.020351 0.000872 -0.022619 -0.153942 0.039626 -0.048739 -0.112134 0.003981 0.045091 0.046815 0.035789 0.035973 0.038108 0.100458 -0.008837 -0.051567 -0.029359 0.033606 -0.09908 -0.035524 -0.0773 -2e-04 0.008971 0.102154 -0.007185 0.032125 0.06829 -0.006573 -0.11699 -0.084779 0.07179
  0.00464 0.00879 0.035477 0.062594 0.012946 0.111453 0.001221 -0.030161 0.026607 0.073187 0.016255 0.117231 0.048646 -0.110485 -0.022685 0.082415 -0.042328 -0.128113 -0.211286 0.039593 0.045462 0.047203 0.028959 0.028622 -0.007352 -0.061651 0.030892 0.058673 0.002476 -0.001527 0.049481 -0.050126 0.082409 0.034094 0.039322 0.117536 0.078262 0.020444 -0.047742 0.003811 -0.020211 0.070814 0.081824 -0.015692 -0.007326 -0.14352 -0.037781 -0.155663 -0.064602 0.036371 0.052819 0.087015 0.016499 0.013335 0.018022 -0.132226 0.085648 0.03012 0.033103 0.017706 0.02962 -0.045081 0.025488 0.009404 -0.142821 -0.238693 0.014448 -0.158 0.018552 -0.1662 -0.03482 0.007149 -0.151973 -0.072598 0.003589 0.059014 -0.000483 -0.115858 0.066986 0.015597 0.008544 -0.034191 -0.086238 -0.155526 -0.033145 -0.008075 -0.006985 -0.047247 -0.016122 -0.044327 0.099143 -0.045148 0.053936 0.121471 0.002144 0.034877 -0.024116 -0.045381 0.019212 0.102071 -0.025466 0.112157 0.02706 -0.02454 -0.146935 -0.074396 -0.075847 0.026737 0.013536 0.009346 -0.015842 0.071386 0.035092 0.097119 -0.077664 0.062928 -0.02317 0.030172 0.050644 -0.124748 -0.008794 0.1815 0.114556 0.089872 0.067991 0.026896 0.0308 0.036466 0.111792 0.085968 -0.02012 0.021327 -0.213503 -0.021572 -0.03324 0.095892 -0.059788 -0.062217 0.017484 -0.162415 0.0509 -0.083732 -0.059179 -0.092115 -0.039592 -0.012458 -0.041662 0.039149 0.079828 0.027496 -0.054049 0.018979 0.011281 -0.081867 0.002979 0.018568 0.008348 0.086436 -0.050065 0.000917 0.047596 0.095384 -0.059294 0.097624 0.100271 -0.035541 -0.074533 0.020717 -0.026038 -0.013065 -0.066771 0.030811 0.045409 0.076103 0.037848 -0.108348 -0.007735 0.046865 0.043021 -0.17025 0.045002 0.053732 0.170157 -0.005986 0.026423 -0.0017 -0.11862 0.055127 -0.059768 0.059815 -0.032019 -0.081469 0.077001 -0.037087 -0.034187 -0.067674 -0.01636 -0.15516 -0.166103 0.044409
  -0.048008 -0.04511 -0.057791 -0.003558 -0.420998 0.064455 0.043239 -0.034527 -0.028008 0.050269 0.003137 0.014031 -0.076338 0.132118 -0.046084 -0.009255 -0.072006 -0.012526 0.015937 -0.055707 0.151576 -0.031785 -0.020218 0.013605 -0.05385 -0.143673 0.054655 -0.071522 -0.088234 0.099177 0.016606 -0.039674 -0.119182 0.191519 -0.078456 0.097012 0.053673 -0.054515 0.029867 0.100872 0.053838 -0.151139 -0.043457 0.053393 0.013939 0.083784 0.083023 0.115237 -0.001281 0.048271 0.015993 0.137667 0.106975 0.146717 0.109546 0.01151 -0.157881 0.109873 -0.07144 -0.104184 -0.040216 -0.042211 -0.023604 0.114203 -0.041888 -0.088991 0.045407 0.027945 0.041122 0.023342 -0.049106 0.165441 -0.003163 0.014128 0.008979 -0.069321 -0.022958 0.158977 0.003411 -0.101652 -0.013508 0.100998 -0.014505 0.004868 -0.339275 -0.015545 0.147329 -0.211211 0.037221 -0.138184 0.005632 -0.027013 0.008091 0.006827 0.090445 -0.136657 -0.093901 -0.122554 0.062184 -0.065834 -0.0152 0.096711 0.167037 -0.031579 -0.043286 0.11246 0.034022 -0.076313 -0.078614 0.01075 0.045733 0.001691 -0.016953 -0.073518 -0.067563 0.061598 0.024778 0.006258 0.13298 0.118687 0.028996 -0.103957 -0.139518 -0.121636 0.089272 0.039636 0.054938 0.083172 0.13792 0.012599 -0.013413 -0.188091 -0.110734 0.028285 -0.030812 -0.071323 -0.033302 0.164691 0.080713 -0.044506 -0.027886 -0.03306 0.062791 -0.022464 0.05866 0.014421 -0.047197 -0.056678 -0.008602 -0.007141 0.006199 -0.021126 0.026564 -0.083753 0.004665 -0.009291 -0.166334 -0.009353 -0.056353 0.055437 -0.033614 -0.044221 0.062795 -0.035346 0.029462 0.031974 0.002642 0.105531 0.063045 -0.047223 0.11528 -0.004407 0.078732 0.076757 0.001001 -0.088863 -0.015095 -0.111507 0.008505 -0.052585 -0.013301 -0.013211 -0.344077 0.088956 -0.140716 -0.035728 0.127622 0.043849 0.110216 -0.178763 -0.035187 -0.068052 -0.054334 -0.054079 0.001904 0.115188 0.000112 0.021425 -0.034117 0.097452
  -0.01611 -0.016788 0.005333 -0.001546 0.049465 -0.006501 0.023526 0.01021 -0.032206 -0.002154 0.049438 -0.011294 -0.072689 -0.196806 -0.021982 0.010608 -0.031305 0.013423 0.124404 0.020282 0.038134 -0.025786 -0.014487 0.00429 0.041366 -0.003961 0.009206 -0.114893 -0.155313 0.099993 -0.018084 -0.068031 0.094892 0.224584 0.042268 -0.01223 -0.004081 -0.045595 0.092325 0.05259 -0.019859 -0.139649 -0.163847 0.040374 -0.010089 0.097734 0.024873 0.085624 -0.034464 0.023025 0.019693 0.126928 0.051911 0.027242 -0.002232 0.03351 -0.04757 0.091707 -0.013093 -0.011282 -0.047237 -0.114087 0.12344 -0.017374 -0.059271 0.021546 0.03261 0.046607 0.089697 -0.028668 0.03985 0.077255 -0.020535 0.011779 -0.021425 0.103189 -0.004399 0.154521 -0.030635 -0.077634 -0.00119 0.06241 -0.023215 -0.138529 0.052355 -0.013498 -0.089894 0.056051 0.011309 0.071911 -0.009235 -0.015107 -0.076641 -0.118507 0.041036 0.091764 -0.045471 0.046125 0.000742 -0.10818 0.013563 -0.126555 0.005315 0.029974 -0.294742 0.038485 0.014325 0.036861 -0.065004 0.125523 -0.089951 -0.087903 -0.065893 -0.029128 -0.040835 0.019956 0.046049 -0.03514 -0.000334 -0.030638 0.037996 0.059642 -0.08315 0.038518 0.125577 -0.002505 0.001133 0.066886 -0.05806 -0.010625 -0.088636 0.231251 -0.112948 0.011427 0.045255 -0.116261 0.020359 -0.040045 0.094139 0.009777 0.056091 -0.053209 0.080273 -0.008323 0.132511 0.015065 0.021029 -0.004315 -0.00455 -0.125428 -0.040876 -0.001136 0.025584 0.099803 -0.042931 -0.000862 -0.056372 -0.149014 0.087335 -0.026833 -0.042084 -0.062613 -0.135095 -0.05265 -0.041413 0.004399 0.034747 0.037066 0.071187 -0.019077 0.087276 -0.003565 0.170916 0.073701 -0.046231 -0.035226 0.12823 0.036875 0.077442 -0.049153 -0.08839 -0.033367 -0.240637 -0.009416 -0.004553 -0.005486 0.113152 0.075354 0.053921 0.118461 -0.012251 -0.01034 -0.268371 -0.035456 0.025217 0.000345 0.019799 -0.025704 -0.008172 0.11029
