PWM_range 0 100
pepL_range 12 21
P1_range -6 6
log_min 1e-04

nn_in_var 270 P1_-1 P1_-2 P1_-3 P1_-4 P1_-5 P1_-6 P1_0 P1_1 P1_2 P1_3 P1_4 P1_5 P1_6 PWM_log AA_-_1 AA_-_10 AA_-_11 AA_-_12 AA_-_2 AA_-_3 AA_A_1 AA_A_10 AA_A_11 AA_A_12 AA_A_2 AA_A_3 AA_A_4 AA_A_5 AA_A_6 AA_A_7 AA_A_8 AA_A_9 AA_C_1 AA_C_10 AA_C_11 AA_C_12 AA_C_2 AA_C_3 AA_C_4 AA_C_5 AA_C_6 AA_C_7 AA_C_8 AA_C_9 AA_D_1 AA_D_10 AA_D_11 AA_D_12 AA_D_2 AA_D_3 AA_D_4 AA_D_5 AA_D_6 AA_D_7 AA_D_8 AA_D_9 AA_E_1 AA_E_10 AA_E_11 AA_E_12 AA_E_2 AA_E_3 AA_E_4 AA_E_5 AA_E_6 AA_E_7 AA_E_8 AA_E_9 AA_F_1 AA_F_10 AA_F_11 AA_F_12 AA_F_2 AA_F_3 AA_F_4 AA_F_5 AA_F_6 AA_F_7 AA_F_8 AA_F_9 AA_G_1 AA_G_10 AA_G_11 AA_G_12 AA_G_2 AA_G_3 AA_G_4 AA_G_5 AA_G_6 AA_G_7 AA_G_8 AA_G_9 AA_H_1 AA_H_10 AA_H_11 AA_H_12 AA_H_2 AA_H_3 AA_H_4 AA_H_5 AA_H_6 AA_H_7 AA_H_8 AA_H_9 AA_I_1 AA_I_10 AA_I_11 AA_I_12 AA_I_2 AA_I_3 AA_I_4 AA_I_5 AA_I_6 AA_I_7 AA_I_8 AA_I_9 AA_K_1 AA_K_10 AA_K_11 AA_K_12 AA_K_2 AA_K_3 AA_K_4 AA_K_5 AA_K_6 AA_K_7 AA_K_8 AA_K_9 AA_L_1 AA_L_10 AA_L_11 AA_L_12 AA_L_2 AA_L_3 AA_L_4 AA_L_5 AA_L_6 AA_L_7 AA_L_8 AA_L_9 AA_M_1 AA_M_10 AA_M_11 AA_M_12 AA_M_2 AA_M_3 AA_M_4 AA_M_5 AA_M_6 AA_M_7 AA_M_8 AA_M_9 AA_N_1 AA_N_10 AA_N_11 AA_N_12 AA_N_2 AA_N_3 AA_N_4 AA_N_5 AA_N_6 AA_N_7 AA_N_8 AA_N_9 AA_P_1 AA_P_10 AA_P_11 AA_P_12 AA_P_2 AA_P_3 AA_P_4 AA_P_5 AA_P_6 AA_P_7 AA_P_8 AA_P_9 AA_Q_1 AA_Q_10 AA_Q_11 AA_Q_12 AA_Q_2 AA_Q_3 AA_Q_4 AA_Q_5 AA_Q_6 AA_Q_7 AA_Q_8 AA_Q_9 AA_R_1 AA_R_10 AA_R_11 AA_R_12 AA_R_2 AA_R_3 AA_R_4 AA_R_5 AA_R_6 AA_R_7 AA_R_8 AA_R_9 AA_S_1 AA_S_10 AA_S_11 AA_S_12 AA_S_2 AA_S_3 AA_S_4 AA_S_5 AA_S_6 AA_S_7 AA_S_8 AA_S_9 AA_T_1 AA_T_10 AA_T_11 AA_T_12 AA_T_2 AA_T_3 AA_T_4 AA_T_5 AA_T_6 AA_T_7 AA_T_8 AA_T_9 AA_V_1 AA_V_10 AA_V_11 AA_V_12 AA_V_2 AA_V_3 AA_V_4 AA_V_5 AA_V_6 AA_V_7 AA_V_8 AA_V_9 AA_W_1 AA_W_10 AA_W_11 AA_W_12 AA_W_2 AA_W_3 AA_W_4 AA_W_5 AA_W_6 AA_W_7 AA_W_8 AA_W_9 AA_Y_1 AA_Y_10 AA_Y_11 AA_Y_12 AA_Y_2 AA_Y_3 AA_Y_4 AA_Y_5 AA_Y_6 AA_Y_7 AA_Y_8 AA_Y_9 pepL_12 pepL_13 pepL_14 pepL_15 pepL_16 pepL_17 pepL_18 pepL_19 pepL_20 pepL_21


N_layers 2

 nnetsWeights  270   200
  0.061955 0.074239 0.096707 0.00843 0.078312 0.016479 -0.086289 0.028649 0.087934 0.095774 -0.219825 0.060308 0.067284 0.003173 0.113241 -0.018171 0.024865 0.117158 0.043811 0.109148 0.03886 0.118718 -0.164217 -0.013302 -0.122777 -0.191922 0.001585 0.031567 0.069275 0.007814 -0.010269 0.084831 0.038803 0.116108 -0.006684 0.042988 -0.003072 0.104868 0.060855 0.001813 -0.013352 -0.039944 -0.027598 0.010983 0.068275 -0.019423 -0.229643 0.084502 -0.042461 -0.004187 0.046055 -0.12585 -0.0728 -0.02179 0.023032 0.040285 -0.03577 0.019397 -0.045407 -0.065002 0.033082 0.01031 0.000149 -0.132735 0.129028 0.010644 0.018164 0.040429 -0.258965 0.102542 -0.06493 -0.07314 0.023964 0.069281 -0.069524 0.038716 0.009574 -0.068254 -0.161945 0.070439 -0.058638 -0.068813 -0.007715 0.100801 -0.00306 0.024506 -0.03046 -0.060421 -0.015276 -0.1414 -0.013639 0.080231 -0.040681 0.04064 0.094121 -0.016301 -0.032853 -0.095329 0.098804 0.056921 -0.027954 0.076812 -0.002096 0.045514 -0.074119 0.09737 0.044165 -0.145125 0.023224 0.025771 0.002661 0.03983 0.038024 -0.143518 -0.167315 -0.031966 -0.070454 0.216594 0.02685 -0.10859 -0.184547 -0.033237 0.037226 0.047941 -0.166306 0.013882 0.044986 -0.039866 0.10906 0.030034 0.017888 -0.020168 -0.111482 0.003109 0.055535 0.092617 -0.024123 -0.030577 -0.008388 0.00458 -0.197135 -0.029963 -0.058272 0.043157 -0.081123 -0.140804 -0.016063 0.086597 -0.032332 0.065076 -0.018438 -0.099083 -0.049268 -0.098685 -0.101427 -0.024599 0.158174 0.108794 -0.056347 -0.023533 0.202429 0.115522 -0.16695 -0.000467 0.150224 -0.066182 -0.125645 -0.097233 -0.046671 0.000165 -0.018155 0.048749 -0.079254 -0.087294 0.00482 0.00545 -0.215704 -0.131233 -0.005737 9.1e-05 0.012783 -0.138752 -0.050929 -0.058031 0.069467 -0.076959 0.059433 0.161897 -0.012709 -0.000695 0.10409 0.136532 0.128825 0.022442 0.028614 -0.141469 0.049826 0.069149 -0.121096 0.00858
  0.007913 -0.124995 0.051095 -0.14841 0.078443 0.071698 0.081362 0.030818 -0.011728 0.099983 -0.116909 -0.010518 -0.02224 0.068281 0.133705 -0.136972 -0.099191 0.091432 -0.016327 0.004428 -0.017671 0.008724 -0.300611 0.056696 -0.060122 -0.246296 -0.006758 0.079295 0.063763 -0.044437 -0.141473 0.102922 0.006384 -0.040135 -0.113841 0.09624 0.027716 -0.048391 -0.134142 0.024888 -0.093398 -0.160187 -0.054143 -0.025434 0.019575 0.066119 -0.250407 0.129017 0.026507 -0.002475 0.157003 0.085902 -0.099416 -0.014242 0.038082 0.036665 -0.001948 -0.045087 -0.027357 -0.031167 0.180962 -0.118869 0.074885 0.003064 0.101045 -0.116706 -0.111328 0.054321 -0.123419 -0.004681 -0.131128 -0.019712 0.158357 -0.246368 0.054919 -0.058731 -0.043218 -0.105765 -0.122538 0.016072 -0.09873 -0.003296 -0.019383 0.163565 0.032633 -0.08418 0.079646 -0.03341 -0.143145 -0.113004 -0.235154 0.09973 0.049569 -0.054805 0.000691 -0.174971 -0.124092 -0.080545 0.149885 0.1507 -0.052978 0.067171 -0.004115 -0.029667 -0.033571 0.008198 0.032256 -0.107367 0.017592 0.021946 -0.027675 -0.031851 -0.063058 -0.13032 -0.181613 0.021246 -0.007024 -0.09712 -0.052243 -0.05999 -0.119953 -0.005758 -0.119277 0.00422 0.027526 -0.034336 0.085343 -0.011599 0.056943 0.03119 0.044529 0.117406 -0.061693 0.018085 0.098437 0.057585 0.073768 0.070537 0.011632 0.01357 0.102127 -0.065899 -0.048025 0.060637 -0.006798 0.114127 -0.183298 0.06692 0.067564 0.102864 -0.087124 0.028376 -0.044998 -0.166538 -0.212183 -0.184267 0.036584 -0.170265 -0.068224 0.000815 -0.051299 0.085365 -0.090054 -0.093044 0.229267 -0.173408 -0.131997 -0.20468 -0.062938 -0.230425 -0.069415 0.036609 -0.13003 -0.036285 -0.062465 0.04892 -0.048553 0.020463 0.057002 -0.036857 0.022361 -0.073173 -0.10365 0.002765 -0.031954 -0.097963 0.116133 0.1412 0.072902 -0.184323 -0.022312 -0.028309 -0.037309 -0.184671 0.209407 -0.012687 0.100866 0.067857 -0.000374 -0.16021
  -0.100813 -0.004357 -0.097073 -0.005819 -0.018061 -0.021212 0.000917 -0.086931 0.022191 -0.018303 0.12217 -0.03201 -0.097437 0.037878 0.050233 0.026954 -0.189957 0.062582 -0.071962 -0.024744 -0.00617 0.061917 -0.022317 0.035648 -0.00464 -0.13532 -0.039276 -0.134319 -0.122453 0.002161 -0.048197 -0.019458 0.115775 0.063848 0.031085 -0.007268 -0.054264 -0.025731 -0.11338 -0.061912 -0.059355 -0.044 -0.007159 -0.054765 0.018996 0.002939 -0.143859 0.070696 -0.047179 -0.037564 0.164463 0.03212 -0.173517 0.087944 0.064039 0.09444 -0.028007 -0.027294 0.010464 -0.028715 0.108467 -0.090095 -0.048898 0.018019 -0.078067 -0.155268 -0.030236 0.077087 -0.141952 0.062022 -0.091146 0.040415 -0.020132 -0.163983 -0.063662 -0.033863 0.021523 0.025925 -0.1678 0.067036 -0.060917 -0.007775 0.003914 0.138797 0.129554 0.006785 -0.115165 -0.021606 -0.08979 0.047163 -0.112797 0.037778 -0.003273 -0.007268 -0.051007 -0.042529 -0.110542 -0.225035 0.176215 0.077796 -0.117191 0.000823 0.016023 -0.043136 -0.025052 -0.008027 -0.02208 -0.119919 -0.016076 0.06667 0.102336 -0.051632 0.018172 -0.120648 -0.058729 0.002823 0.015584 -0.058494 -0.045291 -0.019272 -0.059099 0.07218 -0.067027 0.09419 0.047382 -0.103589 0.173613 -0.151611 -0.046996 0.087516 0.072114 -0.0902 -0.081261 0.009116 0.048344 -0.037436 -0.066915 -0.029246 -0.022371 0.162238 -0.099164 0.014225 -0.11952 0.02586 0.005429 -0.090886 -0.281063 0.094321 -0.005585 -0.027133 -0.098489 0.003987 -0.079996 -0.002749 -0.176529 -0.066637 -0.113067 -0.149297 0.052866 0.09239 -0.061327 0.089121 -0.131042 -0.037379 0.099942 -0.028032 -0.046996 -0.092689 -0.048682 0.081228 -0.050041 -0.06431 0.09669 -0.037172 0.001479 -0.032458 -0.070782 0.021522 0.056052 -0.045848 0.047979 0.054215 -0.063586 -0.02633 -0.137472 0.003657 -0.016523 0.201189 -0.023655 -0.125487 -0.066627 -0.04624 0.096959 -0.108068 0.051001 -0.022924 -0.083227 -0.026066 0.070467 -0.043258
  -0.080788 -0.107518 0.013485 -0.081607 0.002828 0.008375 -0.080242 0.195113 -0.091717 -0.174354 -0.109726 -0.057498 0.013691 -0.088222 0.078753 -0.036012 -0.145059 0.007927 -0.02912 -0.023787 -0.007702 -0.146918 -0.012332 0.008696 -0.075064 -0.045114 0.019964 -0.028054 0.002505 0.048858 -0.129033 -0.048051 0.021817 0.035458 -0.062385 -0.077912 -0.009158 -0.039956 -0.074341 -0.023901 -0.061429 -0.102572 0.057918 -0.018209 0.017559 -0.005945 0.035986 0.12606 -0.065193 0.011399 -0.029073 0.064305 0.037966 0.001008 -0.047497 -0.010995 0.023688 0.016949 -0.012944 0.001972 0.10443 -0.001378 0.026353 0.000718 -0.014911 0.025398 -0.083961 0.022964 -0.065877 -0.040946 0.04577 0.095651 -0.001341 -0.069009 -0.060886 -0.035189 -0.018919 -0.036597 -0.033626 -0.024046 -0.060898 0.036699 -0.027392 0.053708 0.128969 0.050985 -0.178353 0.077927 -0.058237 -0.094206 -0.085413 0.093621 -0.004987 -0.065385 -0.132918 0.051805 -0.040881 -0.066258 0.135531 0.077854 0.001001 -0.12143 0.031969 -0.085889 0.005834 -0.031286 0.071983 -0.063414 -0.049876 0.019169 -0.034134 -0.028619 -0.070558 -0.010581 0.051714 0.109269 -0.019586 0.006102 -0.055933 -0.132621 0.008878 0.032772 0.017259 -0.068902 0.153911 -0.089147 0.068401 -0.043457 -0.168093 -0.011132 -0.049517 0.066274 -0.077931 -0.042358 -0.081657 -0.059559 -0.011537 -0.02609 0.007906 -0.007667 -0.007238 -0.016772 0.030971 -0.036947 -0.043089 0.072676 0.022151 0.033743 -0.058417 -0.047551 -0.016938 -0.041862 0.020924 -0.150056 -0.039577 -0.026315 -0.107291 -0.141601 -0.004055 0.086849 -0.011422 -0.088421 0.003942 -0.083346 0.11557 -0.029592 -0.010919 -0.101692 -0.014058 0.033006 0.044672 -0.108445 -0.05773 -0.060149 0.050339 0.03767 -0.020764 -0.023893 0.046201 -0.107536 0.004494 0.040115 -0.074258 -0.064416 -0.047947 0.023069 0.023875 0.163768 0.001948 0.062555 -0.145956 -0.071439 0.016561 0.028678 0.059661 0.123326 -0.026789 -0.024266 0.081208 -0.064168
  -0.077849 0.204789 -0.066659 -0.011045 -0.008785 0.072885 0.023044 0.041147 -0.051823 -0.121238 0.023364 -0.014216 0.001081 0.044577 -0.080832 -0.021638 0.003891 0.003575 0.045876 0.05259 -0.034391 -0.051397 0.028042 -0.015743 -0.17814 -0.011757 -0.08963 -0.056148 0.053025 0.010807 0.087471 0.025724 0.063957 0.090254 0.154012 0.029319 0.002226 0.051453 0.019051 0.046596 0.012612 0.019715 -0.018254 0.035628 -0.085152 0.088734 -0.059395 0.031761 -0.033474 0.125947 0.054517 0.00029 0.144138 0.093756 0.02604 -0.069436 -0.035292 -0.027678 0.004719 0.010571 0.089433 -0.01722 0.11017 0.012252 0.026507 -0.023747 -0.034694 0.001236 -0.010078 -0.059745 -0.048085 0.084574 -0.028478 0.002328 -0.024387 0.026365 -0.01366 0.017821 -0.024087 0.021332 -0.034421 -0.019125 -0.041202 -0.014504 0.035711 -0.049523 -0.076021 -0.018392 0.037417 -0.035567 0.055485 0.074069 -0.013455 -0.002302 0.043327 -0.066326 0.021573 -0.061578 0.016829 0.034511 -0.020425 0.027953 -0.009662 -0.099435 -0.069532 0.017439 0.12993 0.023921 0.0268 -0.005481 0.1137 0.028108 -0.146321 -0.029048 0.036765 0.053287 0.05978 0.134366 0.062359 -0.00957 -0.088572 -0.002472 0.018192 0.008596 0.044915 -0.016521 -0.054078 -0.00722 -0.016898 -0.013697 -0.093567 0.135341 0.062347 0.123125 0.059519 0.030277 0.025861 -0.095928 0.021105 -0.033452 -0.038052 0.073848 0.063658 -0.044869 0.067395 -0.040134 -0.040484 0.002781 -0.050026 0.004875 -0.005673 -0.031508 0.083595 -0.011031 0.074379 -0.070447 -0.110845 -0.139751 0.02579 -0.028895 0.017834 0.003225 -0.013461 -0.056513 -0.138447 0.041439 0.022244 -0.003709 0.028908 0.013364 0.033231 -0.001802 -0.115044 0.042744 0.003976 -0.013973 0.002893 -0.013505 -0.023374 0.013265 0.014442 0.060128 0.010492 0.003418 0.000906 -0.021261 -0.005668 -0.051308 -0.061403 -0.028475 -0.117125 -0.050077 -0.038459 0.08425 0.068151 -0.023789 0.038424 0.12099 0.153077 0.057142
  -0.029878 0.0178 0.007453 -0.018286 -0.027428 0.087822 -0.003435 -0.003688 0.000291 -0.038572 0.058197 0.025925 0.013556 -0.12839 0.048878 0.062988 0.057619 -0.008134 -0.030469 0.061316 -0.015813 0.015275 -0.004915 0.016641 -0.042485 -0.006857 -0.102551 0.029043 0.001352 0.010866 -0.026417 0.017129 0.055855 -0.003367 -0.022599 -0.027078 -0.050614 -0.054475 -0.007094 0.036727 -0.101355 -0.017275 -0.051604 -0.00772 -0.056719 -0.079949 0.05534 0.00788 -0.040376 -0.02493 -0.022445 0.032067 0.009916 -0.033094 -0.027247 -0.055161 0.07985 0.013683 0.048889 0.084778 0.019046 0.04316 0.055053 0.035158 0.065737 0.011968 -0.020232 0.055605 -0.04413 0.043058 0.042237 0.01536 -0.068457 0.027145 -0.022236 -0.061145 0.065881 -0.09248 0.018733 0.011168 0.033036 -0.014048 -0.013259 0.027878 -0.004446 0.015126 -0.036752 0.074691 0.019524 0.068492 0.025171 -0.000908 -0.033169 0.039959 0.077544 0.029376 0.022741 0.139148 0.016381 -0.040247 0.079114 0.023785 -0.019977 -0.104721 0.049637 -0.001685 -0.034139 0.034754 0.041394 -0.030412 0.075771 0.00968 0.139209 0.026143 -0.016903 -0.0327 -0.044397 0.034418 -0.006906 -0.053289 0.039523 0.009991 0.005285 -0.058115 -0.003061 0.034856 -0.077242 0.083781 0.024817 0.029164 -0.078905 0.108894 0.008393 -0.001518 -0.049719 0.022016 0.065526 -0.034254 -0.046927 0.039155 -0.001417 -0.029068 -0.111709 -0.025553 0.007477 -0.010897 -0.028502 0.077824 -0.074169 0.008798 -0.02528 -0.006132 -0.035643 0.076491 -0.032463 0.089233 0.02565 -0.041372 0.023528 -0.075026 0.026171 0.040424 0.037587 0.014658 -0.027102 0.114052 -0.076262 0.042954 -0.000832 0.006901 0.098627 -0.026804 0.049244 0.065876 -0.039385 -0.064674 -0.000219 0.081919 0.001507 0.089823 0.007663 -0.073226 -0.060749 0.030984 0.006487 -0.033232 0.065468 0.026946 0.028593 0.07769 0.017073 -0.011099 0.00309 0.020095 0.081329 -0.009573 0.003055 0.03811 0.020562 0.060998
  0.011434 0.009002 0.098619 0.061662 0.074417 -0.071093 -0.03261 0.069889 0.072025 0.114876 -0.042374 0.110133 0.064394 0.043953 0.162559 -0.042017 0.072188 -0.088949 0.045916 -0.024869 -0.251654 0.15646 -0.007464 0.022024 -0.011148 0.028393 -0.003159 0.067368 0.070149 0.02515 -0.024111 0.15105 0.058225 0.071786 -0.106018 0.028895 -0.020861 0.051579 0.100239 -0.027265 -0.005267 -0.316204 0.054828 0.019328 0.00854 -0.018819 -0.040521 -0.230967 0.047962 0.040164 -0.079786 -0.217303 0.016566 -0.075015 -0.022201 0.040132 0.037742 -0.026023 0.056067 0.106587 -0.104097 0.050829 -0.015181 -0.011979 0.131665 0.097969 -0.090992 0.056669 -0.193343 0.164144 -0.048241 -0.055029 -0.036472 0.027197 0.030808 0.074812 0.042091 0.065837 -0.096071 0.039102 -0.029848 -0.041519 0.066354 0.063472 0.006106 -0.027645 0.018422 -0.054352 0.039436 -0.039775 -0.037353 0.10239 0.094855 -0.13579 0.045534 -0.004575 0.121884 -0.039058 0.087322 -0.024519 0.039825 0.06691 0.018706 0.010067 0.026235 0.038471 0.07359 0.06326 -0.054114 -0.016707 0.105015 0.08623 0.132631 -0.112778 0.024905 -0.244349 0.014572 -0.167755 -0.067432 -0.059266 -0.131065 -0.026171 0.095333 -0.094348 0.089451 -0.082157 -0.006777 -0.166351 0.128894 0.062771 0.033928 0.024259 -0.081972 -0.032794 -0.039083 0.131356 -0.006716 -0.110645 0.13421 0.042558 0.08794 -0.018687 -0.000968 -0.007628 -0.04578 -0.165095 0.015474 -0.010786 -0.014881 0.051755 0.031731 0.011649 -0.052375 -0.020747 0.06173 0.088438 0.293475 0.105463 -0.097493 0.041087 0.192371 -0.098036 -0.174629 0.021556 0.122148 0.124517 -0.010897 0.01235 0.047516 -0.015962 -0.048677 -0.00235 -0.006325 -0.097567 -0.040402 -0.123862 0.062772 -0.267289 0.028559 -0.04464 0.064835 -0.015969 0.165921 0.032019 0.022847 -0.060238 0.010366 0.008047 0.006208 0.036838 0.126468 0.066192 0.226007 -0.108545 -0.144824 -0.085758 0.052927 -0.023324 -0.115072 -0.0417
  0.01764 -0.066165 0.080607 0.040748 0.070223 -0.013839 -0.054494 -0.035634 0.075648 0.021321 -0.079276 0.00596 0.091645 -0.005848 -0.099541 -0.02121 0.075926 -0.058071 -0.002932 -0.039385 0.000503 0.00381 0.092437 0.024294 -0.023051 0.015165 0.024847 -0.033385 0.094131 -0.08378 0.10094 0.083532 0.032484 0.063472 0.017957 -0.036451 -0.01386 0.006141 0.11804 -0.067594 0.022567 0.10417 0.033139 0.032911 -0.011674 -0.008832 0.094149 -0.080505 0.004753 0.027112 -0.042915 0.076294 0.105045 -0.092202 -0.039954 0.001639 -0.05544 -0.096741 0.068599 0.011964 -0.070737 0.070733 0.034406 0.004631 0.036194 0.080292 -0.036396 0.029918 0.115344 -0.000487 0.04563 -0.052314 -0.048618 0.096614 0.065264 -0.119355 -0.076755 -0.086895 0.085608 0.018601 0.077377 -0.015964 0.083873 -0.093947 -0.089303 -0.08454 0.06437 -0.05203 0.081625 -0.016813 0.062826 -0.032631 -0.041294 -0.022842 0.008439 0.043093 0.097987 0.058451 -0.058979 -0.037227 0.055188 0.032313 0.008092 0.022069 0.052511 0.152512 -0.003397 0.017067 0.001779 -0.070603 -0.055408 0.080984 0.001845 -0.048361 0.072144 0.047415 0.030314 -0.076009 -0.014769 0.05408 -0.149751 -0.024671 0.053062 -0.067281 -0.01108 0.019929 -0.031467 -0.067431 0.074183 -0.085307 -0.035763 -0.05409 -0.008076 -0.121028 -0.009388 0.057623 -0.030444 -0.063564 0.095048 -0.039023 -0.02064 -0.035541 -0.01803 -0.012959 -0.027495 -0.053134 0.11233 0.004105 0.015678 0.027853 0.054832 -0.007262 0.030878 0.008337 0.062375 0.012277 0.032182 0.126359 -0.078616 -0.024174 0.149805 -0.044231 -0.075152 -0.03261 0.01028 -0.043688 0.004667 0.100677 0.070936 0.06836 0.044612 0.105928 -0.047608 -0.064681 0.025705 -0.020881 0.111627 -0.095451 0.002217 0.046589 0.032311 -0.063561 0.065259 0.044944 0.104128 -0.020961 -0.128129 -0.060297 0.009774 -0.037685 0.109997 -0.002363 0.182477 0.088119 -0.208411 -0.073957 -0.027976 -0.029794 -0.089329 0.071652
  -0.001261 -0.157384 0.031152 0.057669 -0.003776 0.008449 -0.005136 0.047359 -0.107648 -0.028898 0.049665 -0.051729 0.074818 -0.016052 -0.090299 -0.036499 0.073212 -0.022147 -0.060643 -0.071536 -0.065632 -0.052424 0.117163 -0.003468 -0.044846 0.001795 0.017316 -0.109972 0.015405 -0.071326 0.056549 -0.068559 -0.001565 -0.105888 0.047207 0.041079 -0.088228 0.07558 -0.022069 0.034637 0.071751 0.032759 -0.023225 0.076897 0.027557 -0.081834 0.024542 -0.096681 -0.020062 0.036629 -0.040795 0.096274 0.028839 -0.063511 -0.045683 -0.126758 0.069345 -0.089281 0.034113 0.032787 -0.101394 -0.033377 0.026371 -0.015756 -0.028662 -0.062498 -0.003836 0.012964 0.136054 -0.110086 0.128699 -0.005317 -0.058295 0.020085 0.032258 -0.125863 -0.043331 0.04643 0.133497 -0.051235 0.0788 -0.062212 -0.045594 -0.086829 -0.013767 -0.198552 0.041281 -0.148847 0.090235 -0.030385 0.07667 -0.036039 -0.081054 0.034783 0.087064 0.045849 0.143091 0.121987 -0.136303 -0.06768 -0.010517 -0.028108 -0.000996 0.015059 0.012273 -0.197814 -0.104631 0.036917 -0.000427 0.028345 -0.051006 0.0434 -0.094217 -0.022439 0.059674 0.057798 0.040604 0.0912 -0.022596 0.099884 -0.014532 -0.044092 0.03836 0.04061 -0.022212 0.194486 -0.077648 0.026744 0.032547 0.042486 0.015648 -0.158179 0.037778 -0.124049 0.069382 -0.008622 -0.012304 -0.023142 -0.128123 0.002756 -0.052858 -0.05705 -0.020574 -0.020159 -0.02156 -0.114467 0.117316 -0.079582 0.057629 -0.00559 0.037254 -0.052689 0.151154 0.044046 0.047644 0.000472 -0.178683 0.087677 -0.065106 -0.119425 -0.262269 -0.018895 0.106199 0.053338 -0.116625 -0.006617 0.05363 0.099225 0.035586 0.015465 0.036956 -0.114585 -0.051363 0.041477 -0.033338 -0.000593 0.095885 0.168141 0.030509 -0.031933 -0.000385 -0.023709 0.054861 0.080839 -0.00486 -0.023549 -0.097046 -0.185037 -0.029636 0.084886 0.008834 -0.020474 -0.096933 0.145352 -0.184521 0.06009 -0.086685 0.024448 -0.023471 0.019853
  0.066263 -0.093481 -0.021683 0.102641 -0.026145 0.009962 0.037378 -0.057269 -0.142191 -0.206964 0.13772 -0.1171 -0.074677 -0.018551 -0.027151 -0.115359 -0.052867 -0.076488 -0.031802 -0.112751 0.07601 -0.164556 -0.020955 -0.098098 0.10941 0.043712 -0.076725 -0.132689 -0.151955 0.020435 0.093061 -0.175074 -0.112853 -0.100437 0.116877 -0.043141 -0.123934 -0.04521 -0.129535 0.029341 0.072711 0.090126 -0.032888 0.028047 0.00101 -0.083733 -0.02278 -0.060845 0.02205 -0.004231 -0.075199 0.181172 0.006018 -0.035251 -0.004339 -0.12421 0.055098 -0.012873 -0.067282 -0.057394 0.158899 -0.108894 -0.046871 0.002862 -0.099416 -0.051978 -0.019089 0.051557 -0.016269 -0.124874 0.207156 -0.014399 -0.07205 0.033898 -0.097505 0.090907 0.052849 -0.04704 0.149781 -0.183532 0.11168 -0.090226 -0.01245 -0.187462 0.001587 -0.131498 -0.123332 -0.066352 0.049107 0.13636 -0.000572 -0.041037 -0.082854 0.039259 -0.084527 0.027755 0.023606 0.07075 -0.188478 0.025456 0.053048 -0.21229 0.00713 0.055173 0.054276 -0.134374 -0.11417 0.098322 -0.048724 0.060666 -0.052839 -0.10063 -0.18975 0.134963 0.036453 -0.062615 0.137568 0.072788 0.023333 0.088922 0.114058 -0.026231 -0.011825 0.116593 -0.24485 0.126402 -0.094269 0.066033 -0.199725 -0.000511 -0.088074 -0.11929 0.034118 0.138734 -0.024709 0.024119 0.034079 -0.049787 -0.058465 0.011205 0.093631 0.006446 -0.035351 0.051153 0.035275 -0.040802 0.171325 -0.065237 0.037441 0.003435 0.036114 0.044072 0.05992 0.103267 0.072584 -0.075537 -0.17855 0.046217 0.051261 -0.271838 -0.205328 0.04787 0.073419 0.020211 -0.279834 0.124114 -0.052119 0.10816 -0.049618 0.022102 0.158145 -0.079286 -0.028724 0.034 -0.018759 -0.033954 0.085975 0.177741 0.055208 0.004905 0.015044 0.057925 0.066038 -0.03302 -0.084412 -0.001856 -0.09891 -0.18175 -0.086097 0.121555 -0.102989 -0.013817 -0.227034 0.068156 0.041604 0.101326 -0.105333 -0.06359 -0.044315 -0.045658
  0.086247 0.159495 -0.118739 0.000977 -0.038698 0.069732 0.054863 -0.085655 -0.07668 -0.210328 0.142808 -0.163112 -0.069212 0.037441 -0.135841 -0.04894 -0.09444 0.006447 0.058391 -0.189399 0.084653 -0.105796 -0.027977 -0.020987 0.087592 0.100303 -0.09879 -0.063916 -0.048498 0.007185 -0.097003 -0.113396 -0.081517 0.018613 0.167332 -0.035278 -0.106697 -0.127618 -0.058997 0.017231 0.017353 0.067587 -0.004651 0.046222 -0.06022 0.018222 -0.008744 0.178322 -0.014959 -0.002795 -0.104262 0.181603 0.009798 0.074235 0.062803 -0.086079 0.023271 0.015128 -0.022258 -0.042346 0.121236 -0.0481 -0.049577 0.053036 -0.189966 -0.107233 -0.060255 -0.008613 0.095132 -0.085537 0.128619 0.015002 -0.025456 -0.032934 -0.038807 0.024457 0.037946 -0.064728 0.080604 -0.143598 0.079762 -0.075433 -0.065276 -0.065391 0.082072 0.037392 -0.139675 -0.038267 0.023164 0.085574 -0.039428 -0.038057 -0.018608 -0.00354 0.016399 -0.024237 -0.081764 0.007632 -0.188054 0.000559 -0.009049 -0.169725 0.055367 -0.09652 0.030883 -0.11486 -0.071067 0.15939 0.029505 -0.028748 -0.019787 -0.050395 -0.220613 0.178946 0.142956 0.045218 0.153224 -0.00443 0.056402 0.168014 0.181891 0.003176 -0.008423 0.064746 -0.03078 0.052288 -0.111383 0.07904 -0.237113 -0.019943 0.021884 -0.038788 0.085806 -0.012152 -0.104821 0.006864 -0.054899 -0.042456 -0.211476 -0.03613 -0.000401 0.100923 0.076323 -0.026848 -0.012095 0.033808 -0.121134 -0.0175 -0.11195 -0.016753 0.01978 -0.056383 -0.086803 -0.00564 0.126335 -0.025497 -0.126831 -0.072604 0.008274 -0.036559 -0.104528 -0.035298 0.045951 0.025757 -0.336283 0.077992 -0.035618 0.056836 0.012423 0.136229 0.099418 0.076606 0.071778 0.012008 0.011019 -0.01289 0.007082 0.212021 -0.004929 0.191502 0.004117 0.074607 0.083242 -0.04202 -0.022856 0.018912 0.010689 -0.271128 -0.090071 0.012671 -0.079229 -0.087666 -0.176912 0.009915 0.021627 0.243751 -0.043007 -0.151043 0.070186 0.14612
  -0.014593 -0.07136 -0.108271 -0.036391 -0.006538 0.024483 0.000746 0.090431 -0.042001 -0.206899 0.061036 -0.139581 -0.021309 0.045953 -0.100386 0.005014 -0.108333 -0.070279 -0.02921 -0.160839 0.0136 -0.088346 0.0151 0.035777 0.024718 0.115102 -0.011991 0.022372 0.071786 -0.024719 -0.001037 -0.054654 -0.08115 -0.077951 -0.058889 0.036293 0.02253 -0.138251 -0.00402 -0.020749 0.021512 0.109066 -0.025876 0.022441 0.032578 -0.100713 -0.016135 -0.0676 0.000943 0.0102 -0.019129 0.062535 0.102577 0.062273 -0.034199 -0.095524 -0.090132 0.004506 -0.002357 0.010335 0.006226 -0.052563 -0.117613 -0.05392 0.077428 -0.009857 0.015769 0.007143 0.113341 -0.044689 0.058055 0.024208 -0.057337 0.027023 -0.040097 0.050606 -0.01136 -0.01082 0.035474 -0.060837 -0.005852 -0.014859 -0.096824 -0.011078 0.020098 0.078593 -0.086892 -0.029846 0.023299 0.053253 -0.027618 -0.027848 -0.088333 -0.073321 0.061315 0.072194 0.013999 0.092581 0.049127 -0.063686 -0.058993 -0.041068 -0.024079 0.022718 -0.001374 -0.089888 -0.035639 0.024953 -0.1092 -0.011673 0.100889 -0.035122 0.049666 0.119419 0.068567 -0.000852 0.066344 -0.045034 0.057757 0.02971 0.209577 0.058567 0.005471 -0.048382 -0.046478 0.024748 0.017257 0.119094 0.057364 0.005367 0.04608 -0.161015 -0.006498 -0.004004 -0.048367 -0.066687 -0.008617 -0.125645 0.00533 0.046649 -0.007295 0.000235 -0.049381 0.014552 -0.027513 0.00677 0.032342 0.021083 -0.002857 -0.01978 0.041748 -0.03428 -0.035192 -0.038634 0.061373 -0.06279 -0.106642 0.03683 -0.033621 -0.021477 0.012412 -0.064231 -0.02108 0.066212 -0.132703 -0.032582 -0.018796 -0.041218 0.028914 0.117455 0.069744 -0.07119 0.059987 0.055488 -0.012372 0.053758 -0.022687 0.083495 -0.054198 0.182711 -0.036796 -0.002503 -0.141591 -0.005949 0.089868 -0.036944 -0.076555 -0.116276 0.0587 0.126543 -0.164293 0.04144 -0.100227 0.004063 -0.064085 0.141778 0.071528 0.012545 -0.000424 -0.108353
  -0.00374 0.041925 -0.030013 -0.01496 -0.041865 -0.04267 0.000979 0.046797 -0.063594 -0.047881 0.074525 -0.015414 0.034726 0.026015 -0.032196 0.012997 0.09671 -0.025506 0.037538 -0.053067 0.036229 -0.010825 -0.013822 0.012265 0.012312 0.01606 0.001296 0.010817 -0.002867 -0.001353 0.063425 -0.050049 0.043311 -0.090534 0.046139 0.012339 -0.002172 0.017039 0.081417 0.018152 0.050857 0.014897 -0.019745 0.00423 0.017674 -0.081973 -0.030282 -0.018574 -0.010506 -0.011786 0.06276 -0.0391 -0.060484 0.041424 0.018131 -0.007598 -0.023238 0.037219 -0.008508 -0.052104 0.030635 -0.060643 0.0235 0.003956 -0.013622 0.011925 0.02288 0.005031 0.020458 0.006945 -0.065424 -0.015606 -0.027226 0.028862 -0.000406 0.057917 -0.001371 -0.027173 0.023528 0.052189 0.089022 0.039137 -0.070938 0.026878 -0.00815 0.001703 0.021997 0.00108 -0.000373 0.074365 0.000575 0.013454 0.110429 0.011982 -0.034479 -0.033812 0.020736 -0.097941 -0.04714 0.078252 0.085913 -0.054057 0.008791 -0.051776 -0.015736 -0.037349 0.024 -0.014892 0.065271 0.00637 0.001593 0.025297 -0.01659 -0.013436 0.021008 -0.014194 -0.033058 0.001816 -0.112974 0.047065 -0.0063 -0.096716 0.070184 0.022442 0.014763 0.006424 0.028268 0.075367 -0.019748 0.02835 0.021192 -0.05056 0.040357 0.089531 -0.001268 0.009607 -0.110284 -0.058871 -0.027295 -0.041273 -0.024613 0.034377 0.060198 0.013233 0.013949 -0.056394 0.09887 0.005941 0.052946 0.006039 -0.00146 0.030255 0.043584 0.005161 -0.060313 0.02505 -0.042108 -0.044034 -0.032557 -0.016804 -0.049377 -0.015045 -0.033058 0.028062 -0.05343 -0.020283 -0.044654 0.070584 -0.042378 0.039906 0.012862 -0.02104 -0.072055 -0.045705 0.018912 0.001512 0.066888 0.040841 0.017021 0.069575 -0.076899 -0.090921 0.047692 0.013096 -0.0038 0.02128 0.016987 -0.05819 -0.023536 0.005364 -0.103724 -0.073843 -0.045436 -0.017953 0.055551 -0.090149 -0.060244 0.098351 0.02712 -0.093494
  0.326877 0.071396 0.392325 0.433478 -0.459586 0.466581 -0.346637 -0.25513 -0.139179 0.212841 0.095697 -0.16537 -0.490788 0.423341 -0.277397 0.449556 0.456625 -0.3971 -0.47103 -0.481209 -0.023805 -0.556713 -0.366595 0.223274 0.014583 -0.515555 0.464053 0.402773 -0.360861 -0.37677 0.290689 -0.447116 0.431835 0.314853 0.240446 -0.439037 0.411856 -0.000344 -0.56528 -0.395696 0.390855 -0.336748 -0.516966 -0.602331 0.512831 0.404839 -0.351742 -0.116233 -0.55828 0.347318 0.325344 -0.472132 0.368997 0.557915 0.329717 -0.380804 0.400776 0.253185 -0.428574 -0.457807 0.052166 0.499326 0.290646 -0.553261 -0.18012 0.336097 -0.328266 -0.652025 -0.145997 -0.206681 0.075383 0.482621 -0.247796 -0.475172 -0.182951 -0.034729 -0.47803 -0.06821 0.189316 -0.631664 -0.384258 -0.376084 0.193827 -0.455687 0.397409 -0.291672 0.174113 0.453959 -0.644694 0.27239 -0.530569 -0.363843 0.362014 -0.398455 -0.229895 0.43535 -0.422896 0.063614 0.308605 0.395619 0.475648 0.532915 -0.536991 0.2827 0.57424 -0.327839 0.418633 -0.55007 0.384338 -0.434276 -0.042657 -0.539227 0.170337 0.37969 -0.441013 -0.302195 0.422234 -0.104588 0.342051 0.438306 0.028823 0.544655 -0.428751 -0.293138 -0.100341 0.110309 0.621438 0.160203 0.28275 -0.461069 0.384887 0.23235 0.422256 0.104588 -0.48712 -0.510691 0.302908 -0.325399 0.123077 -0.361903 -0.111115 0.443177 0.234253 -0.622676 0.502319 -0.035717 0.182814 0.366698 0.529291 -0.46199 -0.4024 -0.408872 0.277008 0.535949 0.456278 -0.157699 -0.192957 0.297271 0.517022 0.622198 -0.337762 -0.432484 0.372643 -0.392686 0.1609 -0.111199 -0.222193 0.336391 -0.452133 -0.401673 0.081449 -0.159797 0.323875 0.302837 -0.472507 -0.558843 -0.436472 -0.097649 -0.54887 -0.068307 -0.48577 0.02016 -0.184198 -0.553914 -0.387687 0.568393 -0.083012 0.285743 -0.463261 -0.269647 0.54633 -0.347833 -0.48533 -0.349379 0.142786 0.37844 0.308063 0.368657 0.393551 0.344961
  -0.094726 0.049438 0.032947 0.048595 -0.03113 -0.189818 -0.096011 0.16656 -0.006252 0.128225 0.199545 -0.016645 0.062183 0.06969 -0.064453 -0.013449 0.048054 0.028952 0.011053 -0.072872 0.062577 -0.092603 -0.021137 0.076311 0.230134 -0.023185 -0.013175 -0.018325 0.118669 0.103526 0.023221 -0.027139 0.04223 -0.177808 -0.009211 -0.044063 -0.064614 0.294681 -0.072204 0.027046 0.023346 -0.00706 -0.076491 -0.087713 -0.056233 0.070152 0.01328 0.083241 0.024205 -0.110299 -0.117306 -0.039033 -0.010679 0.083827 -0.012618 -0.020791 0.078795 0.0725 -0.067501 0.014543 -0.106419 -0.008965 -0.040311 0.125688 -0.146683 -0.063524 -0.108442 -0.032609 -0.005431 -0.064189 -0.070635 -0.156032 -0.080436 -0.027339 -0.039424 0.025404 -0.027809 0.102408 0.002927 0.090934 0.039752 0.01957 -0.016779 0.094968 -0.027761 -0.152427 -0.259092 0.014863 -0.039291 -0.101948 -0.040218 0.079672 -0.072389 0.020973 -0.05698 0.053665 -0.0732 0.063109 -0.029469 -0.073476 -0.048464 -0.060999 0.050681 -0.154239 0.090606 0.020208 -0.054883 -0.014895 -0.095906 -0.004252 0.190063 -0.001958 0.208462 -0.189154 0.012571 0.050548 0.107558 -0.165319 0.03832 -0.031209 -0.113302 -0.045437 0.060396 -0.002975 0.069404 0.08267 -0.04181 -0.103375 -0.04156 -0.032922 -0.062213 -0.192256 -0.137783 0.097055 0.007085 -0.019077 0.017479 -0.03804 -0.052405 -0.100041 0.004877 -0.145604 -0.174652 -0.020162 0.012428 0.068192 -0.175523 -0.160654 -0.049912 0.009622 -0.063911 -0.102769 0.038519 -0.122498 -0.010654 -0.062563 -0.120254 0.085817 -0.137605 -0.083687 -0.082757 -0.087703 0.079942 -0.044313 -0.055037 -0.130673 -0.137826 0.128112 0.014445 -0.090484 0.022776 -0.091447 -0.142722 -0.016024 -0.026203 0.051611 0.005504 0.156839 -0.015934 -0.039145 -0.025419 0.126753 -0.048295 -0.03691 0.033849 0.075937 0.040218 -0.034616 -0.028281 -0.092601 0.04565 -0.050531 -0.029336 -0.082465 -0.113093 0.057498 0.142318 0.101955 -0.004861 -0.068153
  -0.069729 -0.095933 -0.001422 0.035711 -0.111017 -0.096893 0.124242 0.01717 0.14386 0.044698 0.017585 0.098509 -0.075152 -0.084566 0.113059 -0.143755 -0.030756 -0.014929 -0.027475 0.124771 -0.129728 0.003731 0.044879 -0.085545 -0.055906 -0.205043 0.012688 -0.04693 0.034147 -0.181358 -0.050164 0.01086 0.001973 -0.03995 0.018876 0.03924 -0.047531 0.115914 -0.112249 -0.200607 -0.034325 0.134876 -0.170345 -0.004303 -0.118574 -0.051341 0.086594 0.063628 0.087455 -0.072661 -0.092966 0.00671 -0.015827 -0.006565 -0.091768 -0.103367 -0.020126 -0.059396 0.051085 0.111596 -0.003375 -0.014236 0.03924 0.097762 -0.142163 -0.001202 -0.105596 -0.142651 -0.198464 0.160291 -0.112091 -0.083951 -0.068353 0.034872 0.093476 -0.155665 0.061857 -0.049858 -0.103925 -0.076161 0.054674 -0.075699 -0.010044 0.136897 0.044517 0.143921 0.028315 -0.111249 -0.098167 0.06577 -0.135143 -0.155124 -0.042863 -0.210154 0.154932 -0.083944 0.03686 -0.030187 -0.06551 0.055586 0.038026 -0.108095 0.079933 -0.1003 0.039194 -0.173331 -0.043963 0.113377 -0.003513 -0.06757 -0.066204 -0.027026 0.091564 0.002917 -0.037643 0.105377 -0.001315 -0.173659 -0.007828 -0.123841 -0.046786 0.016833 -0.047363 -0.028409 0.001388 -0.009476 0.066007 -0.054057 0.062016 -0.031511 -0.063781 -0.142637 -0.052669 -0.033558 -0.159569 -0.082281 -0.012583 -0.172652 -0.159654 0.158195 -0.000907 0.006759 0.0117 -0.148757 -0.051805 -0.19755 -0.071381 0.138162 -0.096209 -0.018959 0.000212 -0.014891 -0.056945 -0.035228 -0.036123 0.153207 0.107259 -0.069322 -0.07405 0.024374 -0.208263 0.136116 -0.05368 0.015459 0.098923 -0.119119 -0.068501 0.014307 -0.136095 0.105849 -0.063328 0.007647 -0.088146 0.01934 -0.009172 0.077275 -0.156695 -0.130059 -0.019761 0.15207 0.129664 -0.020431 -0.176949 -0.022098 -0.023203 0.009237 -0.041455 -0.027675 -0.074554 0.045155 -0.052551 -0.033882 -0.10287 -0.000523 -0.075525 -0.016988 -0.042065 -0.066542 0.059581 -0.012483
  0.068394 0.045189 -0.046098 -0.018479 -0.037386 0.087252 0.013916 -0.053528 -0.02458 -0.006831 -0.037679 -0.007039 -0.030665 0.086529 -0.023927 -0.005264 -0.021386 -0.007114 -0.059929 0.00599 -0.220608 -0.017457 0.024091 -0.028648 0.075495 -0.095054 -0.008043 -0.071874 -0.036469 -0.014435 -0.001883 -0.02716 -0.002482 0.005682 -0.144273 0.027512 -0.020462 0.086285 -0.018193 -0.08823 -0.05655 0.084475 -0.053318 -0.029636 0.048342 -0.009724 0.090217 0.091851 0.05772 0.104426 -0.001978 0.017445 0.033486 -0.006388 0.042201 -0.139686 0.015182 -0.127493 -0.011385 0.029511 0.032884 -0.045 -0.068768 0.03445 -0.089905 -0.05204 -0.017699 -0.028794 0.027249 0.137779 0.038143 -0.057882 -0.082438 -0.027736 -0.015971 -0.119564 0.051411 -0.035505 0.128136 0.002464 -0.075905 -0.040631 0.020547 0.021835 -0.060829 0.048075 -0.088263 -0.013666 -0.004919 -0.088531 -0.028962 -0.067147 0.002297 0.006646 0.104429 -0.022988 -0.054507 -0.127341 0.036093 -0.065 -0.063924 0.003296 0.07558 -0.028936 -0.021746 -0.063442 0.038089 -0.010234 -0.101038 0.006311 -0.022528 -0.044747 0.083199 -0.092702 -0.06094 0.078394 -0.103725 -0.047049 -0.076634 -0.033336 0.041237 -0.057121 0.011309 -0.03282 0.03162 -0.070304 -0.00921 0.019307 -0.026655 -0.009224 -0.019322 0.00522 -0.004132 0.01491 -0.072912 -0.007615 -0.00273 -0.020706 0.144257 0.004828 0.096027 -0.140102 0.080078 -0.043581 -0.00181 -0.045646 0.019962 -0.085927 -0.036828 -0.029924 -0.140937 -0.019062 0.212517 -0.020951 0.054027 0.017249 0.029598 -0.018684 -0.035713 -0.091878 -0.038539 0.067954 -0.012663 0.030789 -0.003113 -0.08642 -0.034358 0.032417 -0.019024 0.023423 -0.019774 -0.017804 -0.080808 -0.122523 0.056741 0.043277 -0.068269 -0.228823 0.042408 0.055221 0.005306 0.016083 -0.025658 -0.009084 0.014423 -0.023686 0.012713 -0.020391 0.01708 0.040382 0.021774 -0.068125 -0.106029 0.062929 -0.054729 -0.073877 0.11292 0.001793 -0.050044 -0.103168
  -0.012601 -0.015226 -0.023204 -0.079718 -0.088796 -0.064634 0.155654 -0.139958 0.156879 0.006161 -0.033081 0.065793 0.024193 -0.037153 0.126716 0.055403 0.020792 -0.023742 -0.002454 0.112084 -0.053142 -0.009897 -0.014215 -0.012347 0.007909 -0.202168 0.058916 -0.014428 -0.08926 -0.201686 0.030087 0.03277 -0.065874 -0.020194 -0.029253 0.044584 -0.034878 0.076268 -0.037917 -0.120763 -0.053377 -0.015417 0.00037 -0.108934 -0.017379 0.045421 -0.02757 -0.010481 0.045961 -0.011994 -0.096021 -0.040185 -0.065511 -0.007759 0.046441 -0.023059 0.010767 -0.037164 0.138553 0.04686 -0.027927 -0.036169 0.002139 0.058255 -0.192106 -0.099299 -0.02336 0.02875 -0.199941 -0.023947 0.035428 -6.1e-05 -0.007237 0.007434 0.15242 -0.103333 0.049614 -0.086256 0.003843 0.030328 0.050612 0.069731 -0.030117 -0.003196 -0.03871 0.215206 -0.087486 -0.041896 -0.036863 -0.111092 -0.106417 -0.165592 0.026542 -0.016616 -0.051383 -0.014346 0.057853 -0.026663 0.028377 -0.089134 -0.089558 -0.002478 -0.079237 -0.049382 -0.069308 -0.130991 -0.026416 0.112648 -0.052223 -0.050212 -0.076286 0.026127 -0.024924 -0.077023 0.047863 0.062051 -0.062996 -0.097738 -0.04553 -0.039147 -0.050073 -0.055376 -0.081223 -0.110165 0.053204 -0.012922 -0.045932 0.036038 -0.094146 0.00768 0.066399 0.071924 -0.055907 0.067075 0.057775 -0.081386 -0.153666 -0.10966 0.145742 0.017043 -0.112894 0.030044 0.060079 -0.005452 0.032063 -0.096406 -0.0255 -0.050416 0.038697 -0.041158 0.00453 -0.076563 0.029453 -0.042485 -0.068154 0.094544 0.054104 -0.017055 0.035534 -0.05506 -0.082026 0.073839 0.012889 0.083175 -0.040489 -0.089715 0.035332 -0.004162 0.038691 0.000433 0.002476 -0.182562 0.015 -0.143224 -0.055098 -0.029508 -0.077485 -0.013653 -0.038089 0.089835 0.008379 -0.072108 -0.045731 -0.055135 -0.038408 -0.025959 -0.031087 0.047752 0.022345 0.00625 0.027774 -0.07055 -0.064203 -0.115803 -0.065933 -0.06232 0.109081 0.002895 -0.01614 0.054652
  -0.101537 -0.122496 0.015643 0.025787 -0.126813 -0.029618 -0.111706 0.131812 -0.068991 -0.024755 -0.009252 0.148954 0.027497 0.117268 -0.101652 0.043823 -0.105747 0.110455 0.113008 -0.156097 0.061718 -0.1287 -0.140486 -0.114304 -0.105506 -0.091177 -0.003647 -0.081642 0.09285 0.094628 0.061666 -0.108444 -0.059892 -0.067038 -0.043952 -0.082494 -0.139155 0.073734 -0.123415 0.086492 0.094574 -0.110915 -0.004441 -0.111556 -0.025225 0.033348 0.129771 -0.032548 0.028816 -0.01663 -0.132797 0.083531 -0.123055 0.024774 -0.028003 -0.108221 -0.043158 -0.092928 0.022558 0.090921 -0.061765 0.011204 -0.108825 0.042468 -0.127371 -0.088757 -0.047419 0.053553 -0.113548 -0.019955 -0.049897 -0.031909 -0.137722 -0.092149 -0.072024 0.033439 -0.042077 -0.140735 -0.115144 0.022735 0.022144 0.116371 0.074672 0.125542 0.013967 -0.241482 0.003321 0.022951 -0.108984 -0.001696 -0.059356 0.138253 -0.03677 -0.228091 -0.164071 0.039746 -0.131453 0.073535 -0.01114 0.027381 -0.041711 0.047561 0.0415 -0.037618 -0.040404 0.009282 -0.014919 -0.082456 -0.064042 0.000431 -0.01161 0.043104 0.025592 0.009953 -0.12038 -0.007839 0.000526 -0.145772 -0.093821 -0.123465 -0.146954 -0.082243 0.117663 -0.234606 0.051938 -0.071089 0.071793 -0.084659 -0.140665 -0.127427 -0.039417 -0.112593 -0.079717 -0.120744 -0.036172 -0.09676 0.026035 0.035795 -0.103903 -0.10387 0.302525 -0.01477 -0.095384 0.033256 -0.026825 0.151187 -0.161645 0.010579 -0.074183 0.10045 -0.135451 -0.098931 0.021951 -0.104262 0.048507 -0.190537 -0.004254 0.027893 -0.031489 0.122699 -0.090114 -0.10049 0.07068 -0.054022 -0.190118 -0.014009 -0.037734 -0.056329 -0.117482 -0.100535 -0.044867 -0.164689 -0.015815 -0.079595 0.009614 0.047221 -0.126274 0.122286 0.027432 0.031864 -0.088469 -0.096419 -0.009353 0.083409 -0.072858 -0.036883 -0.04705 -0.19335 0.059114 -0.138162 -0.012481 -0.080147 -0.026352 -0.021885 0.043895 -0.067145 -0.073888 -0.097898 -0.19241 -0.046621
  -0.0442 -0.193274 0.085545 0.002517 -0.004641 0.000813 0.061494 -0.060224 -0.128795 0.085843 0.050567 -0.228386 -0.080582 0.044521 -0.03489 0.026817 0.041142 0.001556 -0.046713 0.009336 0.165124 -0.031094 0.027566 -0.117011 0.03149 -0.018167 0.055993 0.199237 -0.013763 0.049267 0.086295 0.001502 0.035495 -0.040161 -0.0877 -0.054144 -0.066264 0.004707 -0.01726 -0.029992 0.015875 0.063419 0.010054 -0.019161 -0.070474 0.004643 -0.125332 0.054833 0.010613 0.055262 -0.030276 0.017134 0.004676 0.013168 0.033876 -0.068495 0.010949 0.019987 0.008524 -0.049321 -0.104781 0.023397 0.049246 0.008765 0.039186 -0.060788 -0.008125 -0.013151 -0.061895 -0.036186 -0.066812 -0.057803 0.025537 0.032121 0.009105 0.139469 -0.006001 -0.0285 -0.07677 0.054526 -0.025275 0.02098 -0.068477 -0.016967 0.034753 0.000322 0.048351 -0.06989 0.009028 -0.037613 0.007861 -0.025187 -0.117658 0.0592 -0.072272 0.04497 -0.006921 0.127953 -0.161179 -0.095842 -0.052179 -0.020571 -0.032968 0.007718 0.03095 -0.16819 -0.04218 0.014257 -0.027423 -0.082517 0.088032 -0.087142 0.075667 0.025061 0.02277 0.062038 0.066884 -0.029146 0.035883 -0.054816 -0.046302 0.007016 0.034191 0.035015 0.212435 0.093548 0.069647 0.014372 0.041272 0.052346 -0.069513 -0.05812 0.059786 -0.171802 0.070432 0.019749 0.098208 0.012195 -0.033072 0.001868 0.057091 0.038432 -0.087956 0.069589 0.013091 -0.181171 -0.018125 0.019792 -0.03144 -0.040377 0.095758 -0.028111 0.044624 -0.076293 -0.067113 0.024381 -0.133624 0.144978 -0.043496 -0.019506 0.023385 0.014295 -0.023214 -0.0585 -0.112781 -0.081214 0.004099 -0.064587 0.02889 0.159833 0.044205 0.021439 -0.043472 -0.07308 -0.032721 -0.007653 -0.000977 -0.05232 0.086774 -0.095035 0.044146 -0.119872 -0.041288 -0.104407 0.046861 -0.005595 0.110723 -0.079573 -0.003699 -0.081177 0.03498 -0.020568 -0.079274 -0.005394 -0.005457 -0.068345 0.096808 -0.030854 -0.07578 0.038406
  0.053365 -0.097137 0.001951 -0.031074 -0.002571 0.020865 0.007485 0.035351 0.032975 0.022751 -0.042183 -0.025071 0.029942 -0.00151 0.074564 -0.017885 0.030301 0.031858 0.053596 0.005019 -0.162801 0.00484 -0.025437 0.092805 -0.091292 0.064437 0.025998 -0.069657 -0.077083 0.007296 0.078019 0.068809 0.000411 -0.05169 -0.04486 0.038166 0.027574 -0.025459 -0.030689 0.075871 -0.026444 -0.121529 0.025259 -0.020286 0.006228 -0.132155 0.007402 0.127079 -0.026115 -0.032266 -0.065276 0.043698 0.005943 0.039687 -0.001665 -0.000674 -0.009828 0.025153 0.033619 -0.002085 -0.022235 -0.04109 0.026535 0.074734 -0.072724 0.023886 0.047682 0.027634 0.126171 0.090615 0.080347 0.06841 -0.025485 -0.020351 -0.110075 0.047134 0.00919 0.112064 -0.048729 0.026381 -0.041994 -0.079977 -0.030417 0.023207 0.021309 -0.061815 0.054469 -0.034973 0.00049 -0.027895 0.013295 -0.036341 0.057008 0.013165 0.079756 -0.030823 -0.010906 -0.132545 -0.014351 -0.068976 -0.000224 0.014681 0.042805 0.054612 -0.060961 -0.027974 -0.056979 -0.058989 -0.013097 -0.055724 -0.062774 0.036548 -0.062292 0.027383 0.033763 -0.072723 0.004385 -0.065636 0.074504 0.01051 -0.003344 0.02247 -0.099918 -0.227406 -0.146896 -0.006458 -0.016725 -0.040227 -0.007263 0.022683 -0.035929 -0.029191 0.014508 -0.009635 -0.034384 -0.019907 -0.049792 0.081594 0.110777 -0.061152 -0.089625 -0.000943 -0.016758 0.029646 0.00748 -0.08866 0.040276 -0.007434 -0.027705 0.001358 0.032483 -0.034091 -0.122858 0.041368 0.025091 0.027715 0.000448 0.037152 -0.00851 0.004011 0.120498 -0.081357 -0.06552 0.049471 0.036087 -0.137829 0.094003 0.019077 0.041402 -0.055272 -0.014348 -0.020774 0.007885 -0.038899 -0.035379 0.065141 0.044729 0.087068 0.034386 0.149215 0.041509 0.009361 -0.042813 -0.017984 -0.035775 -0.01114 0.121485 0.022961 -0.099332 0.057438 0.012627 0.024716 -0.040979 -0.042528 -0.118177 -5.6e-05 -0.038922 -0.02318 0.019162 -0.059019
  0.07687 -0.082241 0.007035 -0.075527 -0.027022 -0.000635 0.005906 0.067791 0.060059 0.07675 0.082207 -0.015759 -0.044704 -0.01326 0.016 -0.025202 0.03718 -0.032769 -0.053865 0.01099 -0.1604 -0.022281 0.056777 -0.036494 -0.06857 -0.000499 0.027516 0.015779 0.027616 -0.030908 -0.083551 0.019705 0.037871 -0.005414 -0.052642 -0.057945 -0.03699 0.026567 0.019693 0.021704 0.011238 0.069308 0.066286 0.098658 0.025819 -0.001785 -0.001576 0.066716 0.082371 0.019323 -0.003796 0.050065 0.033567 0.035873 -0.003574 -0.09785 0.010591 0.03805 -0.025562 0.003945 0.020517 0.010509 0.003943 0.044452 0.026547 0.058506 -0.010848 0.000428 0.034219 0.048052 0.107712 0.013783 -0.039549 0.007571 0.087226 -0.100708 -0.062847 -0.011747 0.073088 0.019077 0.054054 0.053676 0.070715 0.054146 -0.005485 0.046155 0.034869 -0.054473 0.002296 -0.138864 0.068956 -0.007784 0.041134 0.017173 -0.044281 -0.075875 0.056954 -0.126674 0.009174 -0.039472 0.009608 0.021028 0.020922 0.016923 -0.019558 0.03228 -0.039159 -0.02767 -0.000892 0.03927 -0.022245 -0.012431 0.098448 0.001493 0.015905 0.060498 -0.058343 0.098838 0.012315 -0.015736 0.008994 -0.024055 -0.014945 -0.140748 -0.135157 -0.021493 -0.04571 -0.01013 0.064805 -0.031978 -0.011334 -0.050616 0.010191 -0.010043 0.060842 -0.061919 -0.018552 -0.004332 0.02592 0.063784 0.054656 -0.070246 -0.092305 0.001733 0.046338 -0.219569 -0.048019 -0.026567 -0.044778 0.035804 0.036958 -0.022395 -0.067736 0.03286 -0.020378 -0.060884 -0.105149 -0.013516 0.013786 -0.033203 0.084376 0.019331 -0.061215 0.065088 0.06328 -0.132372 0.096834 -0.000804 0.05798 0.004542 -0.098496 -0.044602 0.017152 -0.017173 -0.029207 0.003476 0.013642 -0.067265 0.025381 0.111985 -0.03078 0.021825 -0.177565 0.010907 0.055232 0.042517 0.096421 -0.036046 -0.026569 -0.023099 -0.022751 0.025985 -0.020995 0.08507 -0.029433 -0.073549 -0.048304 -0.016153 0.06807 0.000404
  -0.071557 -0.034152 0.017188 -0.014865 -0.011972 -0.003233 0.090193 -0.040991 -0.082068 -0.018068 0.068361 -0.156578 0.024328 -0.037705 0.035557 0.02126 -0.031532 -0.039174 0.01281 0.000876 -0.098249 0.06867 -0.002014 -0.020669 -0.002295 -0.001767 -0.057844 -0.039622 0.01527 -0.010591 0.0107 -0.005249 -0.025313 -0.028179 0.000944 -0.035724 -0.042339 -0.094178 0.015274 -0.047238 0.035589 0.037246 0.047343 0.064694 0.045365 -0.033803 0.061345 0.017074 0.042651 -0.008637 -0.020687 0.026215 0.025401 0.015266 -0.013058 0.056455 -0.053219 -0.056496 0.008349 -0.087419 0.07479 -0.062729 -0.021257 0.010088 0.055287 -0.005943 0.047944 0.042095 -0.054955 0.098864 -0.049923 -0.018451 0.140425 0.054307 0.07809 -0.103215 0.084843 0.032254 0.030896 -0.01867 -0.011402 0.001495 0.006342 -0.039705 0.016475 -0.041568 0.085704 -0.024887 0.025755 -0.063303 -0.044329 0.043729 0.028565 0.010373 0.101481 0.013029 0.038306 -0.084652 0.048255 -0.013554 0.002378 0.055859 0.011059 0.0431 0.015965 0.0667 -0.0082 -0.022788 -0.012178 0.031017 -0.044626 0.017198 0.066552 -0.04046 -0.000382 0.039544 -0.000141 0.114342 0.03464 0.040741 0.040377 0.050052 -0.051212 0.035105 -0.008831 0.133364 -0.016672 0.043237 0.035376 -0.039141 0.011165 -0.070801 -0.034529 0.086425 0.102822 -0.069891 0.044444 -0.118119 0.063686 0.043815 -0.162585 0.002757 0.005174 -0.02919 0.000151 -0.047771 -0.045435 0.009514 -0.02783 -0.017947 -0.021446 0.081029 -0.039587 0.035903 -0.012395 -0.113954 0.02523 0.043975 0.021549 -0.009863 0.011895 -0.024481 -0.044699 0.02036 -0.028679 0.097048 0.085103 -0.012058 -0.038335 0.103575 0.078615 -0.073608 -0.041761 -0.030271 0.066377 0.010841 0.020165 -0.021985 0.027838 -0.144399 -0.103173 0.041656 -0.062133 0.034186 0.038411 -0.015988 0.077716 -0.017711 -0.006912 -0.076191 0.01709 -0.036522 -0.034511 0.028117 -0.14434 0.065212 0.019011 0.037642 0.017725 0.006061
  -0.020894 -0.274844 -0.03223 -0.027634 0.00749 0.043069 -0.050132 -0.026807 -0.024071 -0.021804 0.089897 -0.089914 -0.037048 0.022464 0.048489 0.002148 -0.035387 0.068148 0.036672 -0.076912 -0.051012 -0.019547 0.011044 -0.028179 -0.033596 0.074427 0.069609 -0.049753 0.010126 -0.02528 0.024116 0.005894 -0.034702 -0.054557 0.000341 -0.083988 0.012134 -0.122899 -0.077101 0.032611 0.015321 0.06211 0.063854 0.059809 0.000283 0.034282 -0.018158 0.099907 0.075706 -0.00139 -0.04729 -0.007587 0.028704 -0.06379 0.036338 0.014243 0.034519 0.035238 0.070289 0.012126 -0.022708 0.009905 -0.078733 0.004596 -0.099293 -0.024386 0.075145 -0.008343 0.110373 -0.169396 -0.030983 -0.043902 -0.040652 0.050211 0.012094 0.113507 0.023505 0.043852 0.003317 0.032821 0.018856 0.062909 -0.037444 -0.106278 -0.006991 -0.002127 -0.003552 -0.072175 -0.004821 -0.039107 -0.140969 0.089197 0.045917 0.101168 -0.082861 -0.008543 -0.076687 -0.05458 0.024285 -0.019311 0.042825 0.051677 0.020756 0.068129 0.020886 -0.024471 -0.059255 0.092995 0.027441 -0.030248 -0.045006 0.038978 0.056024 -0.022579 0.057646 -0.106754 -0.031609 -0.021786 -0.020605 0.032034 0.042151 -0.007552 0.065331 -0.003502 0.167691 0.192654 -0.026965 -0.005259 -0.027318 -0.040215 0.006889 -0.067309 0.004348 -0.008159 -0.021206 0.016853 0.0416 0.030361 0.103695 -0.117025 0.063983 -0.041309 -0.021368 0.039741 0.00312 -0.24121 0.0424 -0.075814 -0.006086 -0.032895 -0.043467 -0.069722 0.031352 -0.031939 0.020343 -0.10736 0.004277 -0.074084 0.01657 -0.02066 -0.026407 0.018973 -0.022065 -0.060593 0.060063 -0.075773 -0.086616 -0.007158 0.066698 -0.045253 0.043633 0.058875 0.027877 0.010261 0.01622 -0.026514 -0.048022 -0.056451 0.040601 0.068057 0.036184 -0.068123 0.064914 0.077561 -0.014814 0.017818 -0.0164 0.034862 0.052794 -0.031817 -0.02142 -0.00339 0.052114 -0.003965 -0.032944 0.023343 -0.095233 0.019742 0.036062 0.031729
  0.033796 -0.040363 -0.02347 -0.046096 0.025069 -0.029306 -0.002682 -0.010632 0.041292 0.021967 -0.095703 0.037526 0.066312 -0.003162 0.077384 0.022733 0.047126 -0.025995 0.085393 0.070803 -0.03618 0.053069 -0.032776 0.093047 -0.063772 0.010106 0.033565 -0.031681 0.073807 0.068248 -0.073205 -0.032325 0.019183 0.04593 -0.002523 0.034351 -0.005748 -0.061445 0.034319 -0.030778 0.003715 -0.004679 -0.012033 -0.024172 -0.026471 -0.029537 -0.210855 0.141307 0.061616 0.02347 -0.095135 0.145292 0.010342 -0.019088 0.030768 -0.011117 0.006434 0.011655 0.037142 -0.055258 0.003014 -0.024878 -0.078469 -0.01847 -0.058907 0.037083 -0.030791 -0.013575 -0.029964 -0.043178 0.024957 0.033517 0.076118 0.013121 0.062455 -0.005688 0.040314 0.006098 0.075596 0.023829 -0.00904 0.028813 0.0182 -0.02715 -0.024296 -0.118686 0.037832 -0.051361 -0.063347 -0.038475 -0.007679 -0.064816 -0.031834 0.085096 0.055412 -0.000618 -0.102028 -0.158269 0.001709 -0.010446 0.018667 -0.03536 -0.001936 0.071926 0.01597 0.002123 -0.071882 0.104403 -0.010265 0.022536 -0.096601 0.041326 0.093293 0.026036 -0.002652 0.033634 -0.015779 -0.189768 -0.028154 0.039756 -0.099878 -4e-04 -0.044232 0.098678 0.002672 0.117658 -0.023462 -0.08735 -0.022256 -0.045013 0.031971 -0.117856 0.045463 0.052332 0.014149 0.010841 0.008572 -0.017368 0.113973 0.086693 -0.04975 0.03356 0.003803 0.008103 -0.02415 -0.003795 0.134471 -0.061852 -0.020245 0.012351 0.043196 0.029115 -0.071258 0.050038 -0.012868 -0.01525 -0.001667 -0.031343 -0.011866 -0.00906 -0.063418 0.031732 -0.038609 0.0302 0.04599 0.076757 -0.059024 0.018176 0.077084 0.092013 -0.050218 0.141291 0.016858 0.004015 -0.015824 0.028127 0.085004 -0.104707 0.04382 -0.021524 -0.02363 -0.081319 0.055747 -0.011441 0.019725 -0.011902 0.106448 -0.045736 0.08006 -0.095386 -0.020835 -0.036398 -0.05985 -0.014243 -0.036967 0.045517 0.05033 0.00368 0.016436 -0.060816
  -0.02469 -0.001317 -0.011209 -0.10213 0.038673 -0.001668 0.039232 -0.023164 0.064654 -0.043766 0.088965 -0.159949 0.002145 -0.000681 0.023104 0.033653 0.063481 0.020752 0.017004 -0.001969 -0.010668 -0.050589 -0.096953 0.010674 0.11039 0.102092 0.017065 -0.057144 0.015108 -0.020456 -0.03462 -0.048596 -0.032415 -0.044876 0.057153 0.041349 0.079002 0.12211 -0.000415 -0.01534 0.058244 0.027553 -0.01193 0.066307 0.038419 -0.038771 -0.078392 0.023431 0.051328 -0.052121 -0.027741 0.027392 0.030775 -0.01251 -0.011419 -0.002322 -0.007425 -0.016068 -0.048261 -0.009833 0.092628 0.023711 -0.07382 -0.004179 0.044647 0.07261 0.091984 0.008216 0.131532 -0.067546 -0.102566 0.023164 -0.038002 0.056413 -0.050293 0.117859 -0.000873 -0.0605 -0.037208 -0.04163 -0.044146 -0.000222 0.056733 0.004691 -0.042739 -0.045744 -0.065597 0.06037 -0.014618 0.002294 0.045271 0.056878 -0.044524 -0.000201 0.015691 -0.093297 0.089153 0.055914 -0.036502 -0.032144 0.009958 0.101262 -0.010629 0.071558 0.018086 0.00443 0.033784 0.014754 -0.016378 -0.004228 -0.038772 0.020855 0.051987 -0.015351 0.024161 -0.109906 -0.040824 -0.171634 -0.000939 0.108894 -0.011949 0.000779 0.028902 -0.130998 0.014832 0.116407 -0.013717 0.049632 0.016919 0.017548 -0.019995 -0.121661 0.001294 0.023281 -0.011225 0.063482 -0.047903 -0.049439 0.043197 0.069237 -0.106968 -0.068024 -0.026078 -0.034011 -0.018962 -0.068185 0.069238 0.014337 -0.069298 -0.043731 0.034639 0.002805 -0.07401 0.085802 -0.026558 0.116962 0.013286 0.06805 -0.028642 -0.0266 -0.063302 0.030795 -0.006178 0.044684 -0.099833 0.072971 -0.008109 -0.031998 0.024357 -0.123218 -0.09224 0.002379 0.038195 -0.028884 -0.007636 -0.041687 0.103659 -0.047135 0.023018 0.07706 0.052855 0.11125 -0.017647 -0.080983 0.022547 -0.003507 -0.156628 -0.13718 -0.002821 0.078461 0.038929 0.049436 -0.10753 0.080944 -0.042093 -0.006952 0.11001 -0.041816 0.02044 0.029529
  0.018957 -0.125631 -0.076192 -0.078136 0.070803 0.024709 0.042115 0.149306 0.106502 -0.044346 -0.020707 0.152098 0.003223 0.047381 -0.079187 0.025236 -0.017554 -0.052948 -0.030798 -0.035433 -0.170432 -0.034223 -0.114944 -0.022754 0.05515 0.033472 -0.007955 -0.045954 0.015392 0.08355 -0.098102 0.027866 -0.010572 0.027016 0.036187 -0.002118 0.041115 -0.038509 0.03648 -0.072745 0.034893 -0.177732 0.039914 0.042187 0.034161 -0.043894 0.08886 0.099228 0.097451 0.001281 0.01148 0.054023 0.010792 -0.055827 0.008109 0.067758 -0.015431 -0.028238 0.03299 0.095282 -0.04686 -0.061636 0.015389 0.034722 0.032681 -0.01244 -0.003298 0.093683 0.039442 0.056328 0.043033 -0.011043 0.016895 0.002826 0.014214 0.028624 -0.045618 -0.060742 0.036446 -0.024379 -0.055509 -0.065413 -0.147641 -0.040181 0.001249 0.062145 -0.050395 -0.084568 0.094951 0.022526 -0.002264 0.008944 0.095062 -0.035358 -0.058084 -0.017095 -0.049688 -0.004372 -0.04329 -0.028399 0.029889 -0.06933 0.051248 -0.049812 -0.00938 0.092946 -5.3e-05 0.04501 0.003785 0.042605 -0.026363 0.018796 -0.090402 0.011245 0.027329 -0.065491 -0.023369 0.132056 0.003125 0.032999 -0.130621 -0.002384 0.092842 -0.175957 -0.174862 0.14019 -0.054896 -0.079127 -0.030254 -0.004809 0.028225 -0.013982 0.067607 0.011829 -0.111893 -0.036862 3.8e-05 -0.075529 0.074128 -0.04742 0.155519 -0.03095 0.055152 0.003064 -0.015027 0.000152 0.077467 0.040274 -0.04239 0.072399 -0.001297 -0.027534 -0.047882 0.048622 0.033719 -0.072634 -0.079112 -0.024132 -0.019527 -0.029451 -0.001611 -0.101718 0.045272 0.004492 -0.118282 -0.05698 0.052816 -0.002949 0.027373 -0.11116 0.074237 -0.217025 0.055569 0.015168 0.062573 0.069603 -0.029381 0.170452 -0.067044 0.144507 -0.057192 -0.058144 0.047258 0.112846 -0.030155 -0.052246 -0.148167 -0.000729 0.104638 -0.034412 -0.069842 0.09522 -0.151286 -0.07856 -0.006775 0.033773 -0.00606 -0.009549 0.012699 -0.036949
  -0.047777 0.048615 -0.038749 0.032361 0.015132 -0.012493 0.045085 -0.039241 -0.013847 -0.023742 0.035715 0.0369 0.07366 0.021372 0.038263 0.000697 -0.0627 -0.041036 0.0703 0.070961 -0.221986 0.081558 0.061424 -0.049257 0.151561 0.088959 0.004632 0.094394 0.051551 0.013987 0.038227 -0.0321 -0.050832 -0.07906 0.034952 0.085092 -0.022781 0.061214 0.061165 0.027225 0.049692 -0.113398 -0.094285 0.092287 0.039285 0.015601 -0.237452 0.157839 -0.027933 0.011452 -0.029994 0.077128 -0.04841 0.030728 0.019142 0.028811 0.038911 0.033583 0.089772 -0.029014 -0.041295 -0.010169 -0.003615 0.062587 -0.030958 -0.072785 0.042007 0.016172 -0.066359 0.039451 -0.086021 0.000658 0.124534 -0.033511 -0.093322 -0.009051 -0.009216 0.001909 -0.059023 0.015903 -0.023788 0.048864 -0.093853 0.044478 -0.024271 -0.049118 -0.159067 0.036022 0.011033 -0.036642 -0.00238 -0.000389 -0.025551 0.072067 0.126236 0.026548 -0.004487 0.143004 0.018947 -0.013654 -0.006698 -0.062618 -0.004477 -0.103779 0.032431 0.077177 0.00509 -0.023527 -0.064421 -0.002889 -0.075377 0.044651 0.080372 0.035933 0.04973 -0.085068 0.019593 -0.016196 -0.016503 -0.067393 -0.07425 0.02593 -0.068511 -0.092891 -0.037784 0.014577 0.017775 0.002681 0.03644 -0.013237 -0.05435 0.060077 -0.004514 -0.067791 -0.12797 0.002321 -0.033287 -0.072067 0.099579 0.120128 -0.126895 -0.037815 -0.057612 -0.05543 0.03297 0.054542 0.007081 -0.085532 -0.044368 -0.002142 -0.056433 0.043395 -0.010385 0.007464 -0.006558 -0.006367 0.140917 0.054468 -0.018773 -0.00617 0.043378 0.016571 0.025254 -0.111636 -0.123397 0.028691 0.108302 0.119233 -0.024989 -0.083316 0.035177 -0.004055 -0.054558 0.0256 -0.007189 0.036152 -0.009186 -0.120745 0.017012 0.000435 0.057574 0.054414 -0.032535 -0.074578 0.026553 -0.009211 -0.121679 -0.093212 0.058439 -0.019932 0.008396 -0.007413 0.082154 -0.02094 -0.022021 0.024257 -0.080838 0.035464 -0.085116 -0.060121
  -0.024228 0.039998 -0.016227 -0.059515 0.027902 -0.048066 -0.004861 0.019894 0.119939 -0.066676 -0.00059 -0.088041 -0.059734 0.010108 0.051914 0.000874 -0.09652 0.052357 -0.014643 0.115052 -0.095211 -0.023837 -0.078249 0.017505 0.005901 0.15127 0.033838 -0.052447 0.00752 -0.079215 0.103267 -0.064775 0.068393 -0.0544 -0.113617 0.043483 0.030552 -0.051088 -0.051139 0.046727 -0.016616 0.061763 0.007731 0.089987 -0.081213 -0.003192 -0.028464 0.077553 0.109576 0.030988 -0.012802 0.084996 0.058843 0.018194 -0.045219 -0.069061 -0.047886 -0.015848 0.055564 0.048911 -0.060987 -0.053542 -0.010684 -0.020932 -0.016862 -0.098484 0.0458 -0.02018 0.037307 -0.024749 0.021523 -0.02243 0.112262 0.055506 0.029462 0.051041 -0.005303 0.074931 0.017089 -0.024549 -0.103847 -0.042524 -0.102626 -0.035447 -0.009626 -0.060329 0.074193 -0.050094 0.041515 -0.008076 0.020085 -0.006864 -0.054598 -0.130311 0.020786 0.04948 -0.010245 -0.047293 0.029558 0.028177 -0.001836 -0.022026 0.007297 -0.020684 0.057956 0.064729 -0.028905 -0.004553 -0.025713 0.020865 -0.066437 -0.066249 0.083301 -0.053393 -0.002515 -0.021699 -0.010422 -0.067774 -0.066822 -0.046634 -0.034911 -0.010461 0.008818 -0.042752 -0.141885 0.054855 0.069987 -0.093868 0.059551 -0.053024 -0.0334 0.06862 0.052826 0.1385 -0.070247 -0.025672 0.026042 -0.098668 -0.15292 -0.117942 -0.093239 0.016878 0.012925 -0.055837 -0.002529 -0.115692 0.052573 -0.013976 -0.03113 -0.007963 0.087867 0.047569 0.06815 -0.007244 0.002292 -0.155008 -0.046418 -0.011867 -0.027843 0.046962 -0.013779 0.07474 0.077257 0.047305 0.015103 0.041867 0.041325 0.016868 -0.045839 -0.05412 0.077391 -0.092495 -0.050054 0.038064 0.013099 0.025541 0.024791 0.03722 -0.043387 0.093579 0.015007 -0.135018 -0.038695 0.092356 -0.041357 0.035629 0.01145 0.113716 0.073258 -0.023384 0.006004 0.087819 -0.092238 0.012613 -0.04812 0.076883 -0.182105 -0.015894 0.044859 -0.022886
  -0.031942 -0.006699 0.042942 -0.034158 0.015298 0.043804 0.080184 -0.024 0.160071 -0.089817 -0.13553 -0.139814 0.020154 -0.056233 -0.031497 0.001362 -0.030138 0.005057 0.054677 -0.030034 0.047634 -0.017994 0.030413 -0.015084 -0.06949 0.039832 0.037759 -0.015193 -0.061857 0.008696 -0.018461 -0.019769 0.014224 -0.003494 -0.007061 -0.012564 -0.009425 -0.115362 0.037755 0.028034 -0.004611 -0.064095 0.05628 -0.043849 -0.080439 -0.034815 0.025327 0.001667 0.054207 0.02172 -0.004635 -0.091093 -0.047245 -0.037396 0.003092 -0.183165 -0.066302 0.008764 0.011521 0.072569 -0.031534 0.008361 -0.011214 0.038779 0.133111 -0.021038 0.063982 -0.002957 -0.11404 0.125599 0.023759 -0.011363 -0.011599 0.034995 0.132619 -0.09455 -0.037494 0.003659 -0.015356 0.020485 -0.075073 -0.035568 0.093238 -0.05915 0.002471 -0.014242 -0.033831 0.013329 0.023783 -0.075007 0.002271 0.026283 -0.066885 -0.121136 -0.04785 -0.020057 0.001446 0.079803 -0.065994 -0.01635 0.021662 -0.007831 -0.026048 0.039797 -0.002357 0.058521 0.011432 -0.042629 0.057074 0.054509 -0.036298 0.045501 -0.038288 -0.051421 0.064148 -0.046894 -0.008226 -0.12139 0.01634 -0.008769 0.003387 -0.028277 0.044249 -0.023848 -0.094764 0.044844 -0.012016 -0.074506 -0.004698 -0.058979 -0.065842 0.003469 -0.004467 -0.047043 -0.057871 -0.005649 -0.009109 0.007866 0.143446 -0.044097 0.024429 -0.017686 0.005764 -0.012433 -0.026477 -0.055267 0.074136 -0.022247 -0.007949 0.060757 -0.028923 0.046461 -0.034897 -0.016966 0.015174 0.027494 -0.062579 0.017366 -0.016327 0.007315 0.054845 0.05766 0.008861 -0.011084 -0.011533 -0.039003 0.0366 -0.023051 0.085983 -0.070226 -0.04093 -0.120499 0.019118 0.000168 -0.005901 -0.08546 0.040105 0.062153 0.032989 -0.043376 0.041063 -0.128743 0.024199 -0.030779 0.016416 -0.048949 0.052839 0.038748 0.053854 -0.011582 -0.028692 0.11874 0.115971 -0.106385 -0.078985 0.03297 0.047321 -0.033789 -0.026343 0.006379
  -0.075832 -0.008109 0.009032 -0.00367 0.086838 0.033979 -0.022159 0.094298 -0.037669 -0.103312 -0.074622 -0.008268 0.054091 -0.078752 -0.028414 -0.048221 -0.019528 0.017672 0.107945 0.045314 -0.185399 0.007412 -0.032148 -0.012405 -0.192397 -0.063417 -0.020028 -0.000972 -0.022396 0.014817 0.028996 0.065905 0.03155 0.002981 -0.039391 -0.105311 0.014236 -0.161835 -0.024217 0.027573 0.016161 -0.027557 0.007886 0.055518 0.056076 0.001566 0.077441 0.107158 -0.020353 -0.068381 0.064518 -0.090391 0.060668 -0.031101 -0.002777 -0.105253 0.004013 0.089251 -0.045971 0.023394 -0.043784 -0.01845 0.013275 0.038568 -0.080465 0.016986 0.056654 0.000596 0.055115 -0.068532 -0.074672 0.008029 -0.004254 0.011132 0.075523 -0.011784 0.012801 0.172078 0.020045 -0.009692 -0.057243 0.00165 0.072524 -0.128745 -0.033549 0.039325 -0.075666 0.038138 -0.021591 -0.062929 0.049371 -0.046989 -0.048234 -0.092975 0.085808 0.018329 -0.007297 0.041047 0.112876 0.009896 -0.107941 -0.0223 -0.006282 0.002591 -0.012992 0.029596 0.016468 0.037173 -0.012899 -0.014456 -0.023305 0.040034 0.055762 0.026475 0.012901 -0.143142 -0.031208 -0.002679 -0.110087 -0.032524 -0.024977 -0.017579 -0.046503 -0.01506 -0.169371 0.047778 -0.031004 0.036577 0.029355 -0.057878 0.037648 0.040841 0.013014 0.008557 -0.075607 0.010105 0.037594 -0.028268 0.038182 0.00927 0.097509 0.006558 0.164548 -0.050429 0.017282 -0.090744 -0.024861 -0.0468 0.041133 0.03746 -0.01432 0.048348 -0.041772 -0.089299 -0.01819 0.00248 -0.075617 -0.067908 0.032779 -0.079251 -0.033884 -0.054342 0.024281 -0.054996 0.016163 0.050553 0.090694 -0.049541 0.013468 0.015539 -0.045035 -0.043338 -0.006265 0.033185 -0.054044 -0.011905 0.081458 -0.117481 0.029599 -0.001777 0.001551 -0.071342 -0.085044 0.051568 -0.008578 0.003396 0.11154 0.019961 0.075492 -0.060949 -0.066442 0.012446 0.052554 -0.048566 0.029743 0.026022 -0.014976 0.001459 0.003531 -0.066103
  0.031449 -0.127701 -0.014415 -0.073071 -0.009469 -0.019652 0.051628 0.002787 -0.114131 0.013275 0.007682 -0.100839 -3.7e-05 0.054087 0.14431 -0.002462 -0.089836 0.016868 -0.034116 0.051747 -0.083127 -0.027346 -0.039317 0.009106 -0.159555 -0.004496 0.032363 0.045298 0.055432 0.006312 -0.018772 0.056667 0.02746 0.075773 0.032025 -0.006156 -0.016285 -0.093769 0.001501 0.013345 0.025784 -0.064294 0.005394 -0.005927 -0.003999 0.018004 0.082457 -0.152253 0.036853 0.017954 -0.013623 -0.066006 -0.046738 0.006927 0.038909 0.009371 0.06192 0.0016 0.017913 0.043558 0.014945 -0.047953 -0.125848 0.059127 -0.020317 0.063186 -0.092088 -0.061788 0.050837 0.089282 -0.06808 -0.009591 -0.07051 0.050387 0.135532 -0.187235 -0.048789 0.082598 -0.025848 0.016124 -0.037857 0.001993 0.040555 0.087369 0.03204 -0.099053 -0.026705 -0.05149 -0.022053 -0.034322 0.005599 -0.012689 -0.055172 -0.071765 0.073787 -0.104773 0.00518 0.021951 -0.02489 0.024464 -0.042235 -0.018557 0.054074 0.06058 0.010769 0.135593 0.008642 -0.003107 -0.060461 -0.022215 -0.047715 0.00312 -0.056179 0.024079 -0.068433 -0.040618 -0.023899 -0.096686 0.05894 -0.052556 -0.060538 0.004114 -0.027372 -0.00305 -0.072703 0.052994 0.020948 -0.063227 0.019504 -0.003399 -0.060401 -0.073617 0.045201 -0.111054 -0.001938 0.00372 0.007517 -0.018204 0.022724 -0.065963 0.002126 -0.022752 -0.003887 -0.026376 0.00926 -0.102876 0.058372 -0.003448 -0.02102 0.039114 -0.100938 0.025791 0.099661 0.060088 0.004176 -0.056923 0.051754 -0.031859 0.017103 -0.007996 -0.069798 -0.014752 -0.007066 -0.124325 0.092827 -0.044938 0.017242 0.071716 0.065254 0.092485 0.010787 0.0438 0.044457 -0.036072 0.030195 0.018507 0.069529 -0.012624 0.020106 0.122208 0.050041 0.171475 0.003229 0.05844 0.03247 0.007399 0.023012 -0.154246 0.051778 -0.097165 0.040175 -0.068681 0.063908 -0.040807 -0.108752 -0.00261 0.12476 -0.001419 0.04099 0.02649
  -0.003766 0.100166 0.076663 -0.007117 0.029517 -0.029009 -0.085597 -0.077686 0.001246 0.021205 -0.137136 0.084995 0.043207 0.052563 -0.05035 -0.04407 0.058959 -0.038969 0.032775 -0.005447 -0.105696 0.000463 -0.023755 -0.016038 -0.100329 -0.058859 0.009714 0.004194 0.026868 -0.078785 -0.045122 0.088499 0.076992 0.065243 -0.017603 -0.010364 -0.074594 -0.182723 0.121299 0.110373 0.017179 -0.005496 0.019833 0.033072 -0.131419 0.016503 -0.025904 -0.103298 -0.003131 0.067298 -0.041693 -0.012525 0.079541 -0.049633 -0.040071 0.007058 0.043156 0.02257 0.041337 0.038199 -0.043888 -0.049046 -0.101399 -0.033075 0.165159 -0.037498 0.016203 -0.054087 0.092967 -0.028766 -0.025912 0.008424 0.056076 -0.068484 0.065241 -0.202408 0.038855 -0.079868 0.164882 0.026256 -0.016017 -0.069704 0.077704 -0.029933 -0.08081 0.053794 -0.059588 -0.014875 -0.00425 0.028089 -0.025764 -0.004537 -0.115775 0.090387 0.045734 -0.016683 0.031054 0.197644 0.025422 -0.007272 -0.110518 -0.057517 -0.025283 0.026892 0.025541 -0.142429 -0.025411 -0.069463 0.013618 0.032035 -0.202763 0.007914 -0.059082 0.053157 -0.028131 -0.104274 -0.005788 0.003933 0.055017 -0.050695 0.03207 -0.026021 0.074661 0.001296 -0.145634 -0.004333 0.038132 0.027825 0.025603 0.118875 0.005412 -0.105609 0.055417 -0.074687 0.093247 0.037975 -0.038925 0.000559 0.163996 -0.085454 0.004502 -0.096975 0.129913 -0.009314 0.022676 0.059721 -0.005362 -0.011071 0.044705 0.011435 0.114782 -0.149958 -0.000349 0.106735 -0.030146 0.019823 -0.039785 -0.019368 0.035177 -0.045881 -0.045983 -0.092878 0.032131 -0.091474 0.055489 -0.152809 -0.08488 0.038743 -0.01828 -0.012516 0.007656 0.114941 -0.001596 0.014644 0.04982 -0.000734 -0.07801 -0.038396 -0.066139 0.116683 0.018595 -0.108567 0.107657 0.02017 0.013568 0.010545 -0.163574 -0.042976 -0.037981 0.115633 -0.02253 -0.053907 -0.0716 -0.018532 -0.016851 -0.008024 -0.020364 0.010485 0.040766 0.045997
  -0.033739 0.165888 -0.070284 0.048531 -0.055459 0.024426 0.037384 0.086387 -0.231605 0.160641 -0.025295 -0.070113 0.00698 -0.03756 -0.072188 0.018544 -0.090049 -0.019342 -0.022278 0.025254 -0.199882 -0.118383 0.015693 0.016263 0.018637 0.076445 0.017871 0.014269 0.004959 0.048538 0.033699 -0.024293 0.031848 0.00479 -0.158049 0.057812 -0.004545 -0.103578 -0.05682 0.109995 0.024752 0.061605 -0.005713 -0.025769 0.038634 0.064202 -0.015191 0.1383 -0.065132 -0.007508 0.052761 0.026132 0.031526 -0.013953 0.003972 0.133157 0.009707 -0.080722 0.076631 -0.011305 0.005054 0.018928 0.003844 0.01706 -0.011044 -0.005441 0.014013 0.034577 -0.063916 -0.12618 -0.045148 0.008982 -0.059352 -0.014212 -0.029833 0.022923 0.006198 0.186027 -0.009803 -0.095355 0.101691 0.072293 0.039832 -0.052261 -0.033271 0.064655 0.122123 0.028858 0.013525 -0.05472 0.012615 0.087241 0.012386 0.050895 -0.061234 -0.077243 0.084279 -0.220684 -0.079104 0.001009 0.024662 -0.111425 0.036277 -0.109109 -0.062411 0.055767 0.023902 0.050698 -0.036567 0.035295 -0.00559 0.02491 0.07425 -0.007484 0.06337 0.029378 0.031953 -0.210155 -0.025197 0.006532 -0.042219 -0.037445 -0.021084 -0.267 0.014096 -0.032207 -0.060724 -0.032952 -0.047176 -0.01581 -0.085849 -0.020759 0.044052 -0.087218 0.101035 0.005227 -0.048432 -0.18517 -0.118108 -0.035796 -0.184904 0.068 -0.192767 0.023303 -0.011703 0.051489 -0.155644 -0.006092 -0.044379 0.018768 0.031021 -0.058102 0.050977 -0.032895 0.042174 -0.146974 -0.006285 0.070153 -0.007937 -0.000146 -0.086029 0.028887 0.023851 -0.053686 0.073648 -0.126018 0.133558 0.071954 0.066404 0.005512 0.002205 0.036918 -0.08897 0.015499 -0.150601 -0.04724 0.11301 0.044108 -0.041402 0.23241 0.031972 -0.025392 0.058413 -0.004955 -0.098548 -0.018468 -0.226409 0.00483 0.044867 0.067303 0.045956 -0.056531 -0.068374 0.10177 0.024559 -0.087121 0.111433 0.049223 0.02165 0.055031
  -0.002946 0.195088 -0.017649 0.118868 0.028148 -0.075056 -0.042606 0.155408 -0.031508 0.098764 -0.078814 0.04369 0.078308 -0.049159 -0.079983 0.019812 0.038973 -0.073521 -0.003672 -0.103681 0.065947 0.017421 0.04152 0.127516 0.086611 -0.054619 -0.142326 -0.01389 -0.023027 -0.025913 -0.069352 0.033044 -0.100709 -0.049569 0.108582 -0.09661 -0.016059 -0.160801 -0.028789 0.0379 -0.113002 -0.085107 -0.016836 0.028119 0.037722 0.025544 -0.109839 0.077437 0.030253 -0.025019 0.08504 -0.061062 0.059394 -0.022657 -0.017781 -0.001164 -0.008405 0.059973 0.040783 0.033084 -0.117574 0.01415 0.000214 0.055908 0.145986 -0.023613 0.05359 -0.077538 0.03557 0.042833 -0.083112 -0.020274 0.045748 -0.010526 0.126511 0.015127 0.10202 -0.093289 0.029721 -0.003136 0.04019 -0.012353 0.048679 -0.074369 -0.007533 0.005891 -0.023942 0.049973 0.082456 -0.055372 0.022883 -0.176471 -0.015188 -0.130147 0.102233 0.068417 0.060249 0.040551 0.01986 -0.053312 -0.026367 0.019553 -0.014007 0.001093 0.057234 -0.113566 0.038231 -0.034279 -0.005413 0.016396 -0.038088 0.01664 0.064385 0.00375 -0.055309 0.047434 -0.067763 0.000587 -0.115703 0.09235 -0.013903 0.027229 0.033291 -0.087102 0.006668 0.116335 -0.035472 -0.063891 -0.117615 -0.007261 -0.031134 0.125659 -0.023368 0.115346 0.051998 0.041781 0.059625 0.084877 0.236859 -0.090962 -0.2369 0.029515 -0.007553 -0.047292 0.040868 -0.118313 0.104398 -0.116764 0.001955 -0.05993 0.002802 0.02021 0.098059 0.003659 -0.046953 0.099099 -0.194946 0.007299 0.017372 -0.001477 -0.140754 0.046568 -0.066049 -0.030738 0.032387 -0.113685 -0.033176 -0.114278 0.052432 0.063204 0.057971 0.0142 0.047483 0.044435 -0.002405 0.037694 -0.044413 -0.101223 0.04937 0.12589 0.005074 0.008519 0.087876 -0.162231 0.08392 -0.000298 -0.242137 0.032779 0.086282 -0.055344 0.013147 -0.027999 0.025292 0.047917 0.022977 -0.10698 -0.215195 -0.016599 -0.030336 -0.079055
  -0.030433 0.020007 0.027211 0.045543 0.070428 -0.027327 -0.03122 0.193158 0.06231 0.104474 -0.112301 -0.14404 -0.027346 0.034709 -0.044241 0.076678 0.012849 -0.046941 0.012742 0.068363 -0.154934 -0.060533 0.029887 0.105172 0.135741 0.099171 0.003994 -0.044832 -0.059715 -0.020664 -0.128677 -0.00281 -0.02116 -0.082769 -0.028703 0.016059 0.0156 0.072717 0.032027 0.026044 0.052728 0.038923 -0.088243 0.162998 0.02437 -0.04515 -0.003969 -0.139373 0.070122 0.021117 -0.031713 0.025565 0.019208 -0.007451 0.035733 0.100968 0.0437 0.045007 0.106019 0.090063 -0.063109 0.055815 -0.019657 -0.077454 0.120571 0.019597 0.03567 -0.028043 -0.067701 -0.145107 0.084901 -0.000686 -0.065664 -0.0999 -0.047681 0.036655 -0.005897 0.214427 -0.099289 0.005792 -0.108084 0.033232 -0.059455 -0.049524 0.049279 0.159844 -0.017283 0.039145 0.031884 0.039856 -0.003595 -0.091471 -0.004032 0.018643 0.012871 0.041475 0.010024 -0.180712 -0.020549 -0.007781 -0.076928 0.022977 -0.019198 -0.049998 -0.075868 0.000393 0.058824 0.063619 -0.056552 -0.007107 -0.041775 0.020237 -0.042835 -0.074529 -0.030244 0.089843 0.003104 -0.02712 0.035545 0.087922 -0.072533 0.019818 -0.050801 -0.069301 0.082554 0.068948 0.043883 -0.001697 -0.109565 0.022886 -0.044826 -0.082582 0.000492 0.117503 -0.029432 0.055766 0.047127 0.051895 0.041644 0.036692 -0.03794 -0.017948 -0.085729 -0.01075 -0.027811 -0.032325 -0.125778 0.053112 -0.04598 0.014501 0.058958 -0.020109 0.020553 0.031843 -0.020144 -0.109109 0.080091 -0.013777 0.004388 -0.001092 -0.037802 0.033421 -0.017028 -0.066029 0.068065 -0.005318 0.064041 -0.027737 0.057921 0.030424 -0.213394 0.023876 -0.050168 0.001695 -0.021672 0.034524 -0.0088 -0.205052 -0.056179 0.090428 -0.067783 0.087162 -0.113732 0.027821 0.000161 -0.034721 -0.074238 -0.065007 0.074164 0.120454 0.069074 -0.057251 -0.059718 0.018222 -0.009153 0.011904 0.027836 -0.025665 0.067842 0.050906
  0.023737 -0.152548 0.080875 -0.069695 -0.09559 0.032658 0.058266 0.074496 -0.011228 -0.099906 -0.01059 -0.088036 -0.001311 0.054081 -0.282657 -0.012563 -0.004397 -0.071077 0.108989 -0.037285 -0.065814 0.053596 -0.023916 0.034742 -0.025721 -0.004023 0.044524 -0.029771 -0.07544 0.067958 -0.036092 -0.026932 0.04994 -0.044091 0.031494 -0.012701 0.010608 -0.102593 0.0742 -0.077106 -0.119739 -0.112821 -0.042877 0.107505 -0.029744 -0.049816 0.128713 -0.057347 -0.066757 0.01275 0.038602 -0.155842 -0.011692 -0.010812 -0.024051 -0.003598 0.048685 -0.008006 -0.005828 0.032256 0.002325 -0.05945 -0.015153 -0.020277 0.035005 0.014961 0.048451 -0.050559 -0.066962 -0.029841 -0.185648 -0.000951 0.016516 0.042886 -0.135256 -0.015704 0.078127 -0.062356 -0.064829 0.013721 -0.023192 0.054171 0.015082 0.023514 -0.001939 0.148019 -0.135654 -0.015762 0.022513 -0.031272 0.045509 -0.203311 -0.045247 0.028862 0.00576 -0.028172 0.045261 -0.032444 0.111559 0.028867 -0.013745 0.007287 0.00554 -0.07209 0.082354 0.009036 -0.059113 0.002955 -0.013196 0.02679 0.08597 0.005898 0.03084 -0.014023 -0.07661 -0.05649 -0.042912 0.062845 -0.066632 0.021771 -0.008925 0.047984 -0.029249 0.065617 -0.097927 0.094525 -0.064272 0.026955 0.11876 0.053337 -0.013936 -0.063129 0.045845 -0.056532 -0.04044 0.017607 0.017302 -0.029182 -0.078975 -0.091064 -0.125255 -0.109917 0.063595 0.000951 0.010886 0.010314 -0.019416 0.062257 0.031109 -0.005088 0.054705 -0.117815 0.093263 0.007871 -0.045007 0.09509 0.049381 -0.015147 0.028891 -0.021859 -0.003808 0.058725 0.052306 0.033446 0.046872 -0.01836 -0.086698 -0.0445 -0.004038 0.01566 0.010831 0.055024 0.011227 -0.011999 0.076605 -0.032544 0.083107 0.107444 -0.006868 -0.095419 -0.02338 0.017417 0.00695 -0.013767 0.09412 0.006271 -0.101082 -0.014179 0.041035 0.113742 -0.086816 -0.05747 0.05886 0.059067 0.021609 0.001026 -0.05554 -0.009515 -0.008351 -0.033555
  0.051229 -0.075456 0.075335 -0.030387 -0.106629 0.041689 -0.043676 -0.089933 -0.07499 -0.122429 0.002901 0.026774 0.106829 -0.027918 -0.189225 -0.023754 -0.019774 -0.067513 0.093502 -0.014865 0.040131 0.076882 0.068085 -0.099999 -0.049402 -0.000799 -0.025256 -0.024249 0.097599 -0.121262 0.050041 -0.015383 0.039574 0.007953 0.040202 -0.055668 0.003553 -0.063908 -0.014113 -0.062549 0.022724 -0.062123 -0.104742 -0.074187 0.025966 -0.090477 0.111664 -0.087313 0.019877 -0.028837 -0.026622 -0.140852 0.04335 -0.002793 0.032537 0.034036 -0.062392 -0.010564 0.034752 -0.116939 -0.055542 -0.059816 0.079994 0.017467 -0.065707 0.001975 0.020011 -0.066605 0.006696 -0.025948 0.034169 0.055417 -0.071589 0.093144 -0.041836 0.023503 0.054018 -0.054527 0.201526 -0.031811 -0.037591 -0.035935 -0.07267 -0.011324 0.048422 0.113509 0.001437 -0.040883 0.057441 0.064046 0.072331 0.005404 -0.066813 -0.182058 -0.066219 0.01934 0.014783 -0.073369 -0.010475 -0.117665 0.05881 0.003985 0.001981 0.048351 -0.006232 0.078686 -0.054136 0.022536 0.031835 0.057579 0.044461 -0.006144 0.022365 0.028803 0.005392 0.041895 -0.087278 0.172511 -0.040631 0.030815 -0.060831 -0.022144 -0.025043 0.152486 0.185215 -0.136693 -0.01791 -0.176728 -0.023969 0.124796 0.050361 0.008625 0.049343 0.102457 0.048243 -0.004474 0.067438 0.019996 0.020348 0.019042 -0.032624 -0.090412 0.087853 0.004632 -0.003556 0.22528 -0.066054 0.14151 -0.006423 -0.026652 0.028881 0.020444 0.067174 0.036384 -0.037014 -0.067835 -0.002749 -0.019323 0.01737 -0.058526 -0.017599 0.010319 0.042649 -0.033677 0.047319 0.045457 -0.026115 0.050968 -0.071743 0.078667 0.064864 0.022733 -0.179514 -6.3e-05 -0.007087 -0.069481 0.028415 -0.023119 0.019701 -0.198726 0.035063 -0.104905 0.065328 -0.063791 -0.005921 0.020699 -0.023545 -0.014105 0.065177 0.019101 -0.006382 0.074627 0.043924 -0.030422 -0.107597 0.037811 -0.0621 0.031533 0.04819 0.018919
  0.088461 0.152025 0.087642 0.124422 0.02573 -0.543908 -0.00619 -0.046281 0.03917 0.192713 0.243927 -0.003459 0.021315 0.164577 0.047466 -0.153477 0.178896 -0.030362 -0.043728 0.014466 0.025581 -0.034206 -0.006773 -0.054396 -0.092485 0.022651 0.119958 0.34903 0.007952 -0.002647 0.139965 0.00676 -0.106524 0.06449 -0.187475 -0.00349 -0.391458 -0.077555 0.054708 -0.010398 -0.450295 0.016301 -0.050946 -0.059366 0.120144 0.230493 0.021237 0.040351 -0.012896 0.129258 -0.335098 -0.005727 0.065805 0.12344 -0.447015 -0.021237 0.104306 -0.114183 0.008305 -0.03611 0.241286 0.134457 -0.327523 -0.054057 0.040494 0.143882 -0.003103 -0.011721 -0.067387 -0.074882 0.461237 0.120028 -0.097859 0.038494 -0.076598 0.052714 -0.041249 -0.002258 -0.160846 -0.003634 0.032077 -0.04338 0.161235 -0.028492 -0.362988 0.038093 0.399652 0.062996 -0.01937 0.299594 0.010472 -0.004634 -0.435295 -0.024808 0.001944 0.160346 -0.01722 0.115914 0.121874 0.110897 -0.474969 -0.242372 -0.064354 -0.094277 -0.077049 0.001406 0.063933 -0.009486 0.058465 -0.022829 -0.097005 0.022039 0.290487 -0.048905 -0.033068 0.033234 -0.24048 -0.057897 0.060858 -0.158137 0.484447 -0.247571 0.095912 -0.068679 0.057092 0.350057 0.132875 -0.02466 -0.135488 -0.007132 0.00418 0.555727 0.082015 0.432416 -0.054032 -0.078272 -0.269746 0.015227 0.134075 -0.009801 -0.016963 0.16664 0.332471 -0.044689 0.162626 0.026232 0.390917 0.154283 -0.009545 -0.009869 0.042186 -0.005625 0.010761 0.136108 -0.495026 -0.048166 -0.031911 -0.30529 -0.030128 -0.268624 0.067093 0.029985 -0.220621 0.006873 0.367752 -0.059584 -0.041432 0.136511 -0.000644 0.001815 -0.206291 0.01707 -0.319209 0.253101 -0.005197 -0.083061 -0.006437 0.028409 -0.020802 0.002839 -0.049393 -0.011316 -0.02783 -0.068134 0.015349 0.048394 0.017859 -0.273005 0.007654 -0.060104 0.127662 0.031141 -0.047572 -0.001568 -0.320091 0.318943 -0.154374 0.081724 0.199204 0.214268
  0.152393 -0.058817 0.175949 0.0056 0.025181 0.081966 -0.033307 -0.012198 0.022436 -0.077594 -0.018696 -0.021621 0.033563 -0.063916 -0.083494 -0.188052 0.130109 0.086641 0.04253 0.028553 -0.034554 0.009233 0.005197 0.053551 -0.127944 -0.017722 -0.161838 -0.310252 0.038734 -0.011559 0.106193 0.018936 0.055732 0.233732 0.010252 0.005129 -0.085972 0.007375 0.054862 -0.032113 -0.402938 -0.069054 0.033371 0.046459 -0.223709 0.199232 0.096636 -0.077645 -0.050313 -0.053833 -0.010346 -0.004884 0.198402 0.096689 -0.198607 -0.007893 0.071886 -0.434314 -0.000859 0.003357 -0.118225 -0.341082 -0.10325 -0.006156 0.074395 0.183499 -0.001938 0.048795 -0.018729 -0.00968 -0.167302 0.079941 -0.058676 -0.01819 -0.013207 -0.028365 -0.083805 0.019028 0.322566 0.004927 -0.068429 0.010304 0.382821 -0.003076 -0.050326 -0.024837 0.110171 -0.176892 -0.03891 -0.075125 0.002501 0.016315 0.142583 -0.022051 -0.039655 0.164945 -0.022347 0.48729 -0.15548 0.106061 -0.17829 0.114223 -0.025856 0.038294 0.064173 0.028078 -0.290425 -0.083111 0.207006 -0.042202 0.120066 0.022082 0.010929 0.188443 0.029331 -0.066978 0.183286 -0.006066 0.184286 0.085402 0.107874 -0.418509 0.033744 -0.068046 0.001053 0.067309 -0.386924 -0.424106 0.290087 -0.078858 -0.12059 0.119723 0.205058 0.464878 -0.046825 -0.017353 -0.178986 -0.054687 0.28574 -0.023315 0.020451 -0.002861 0.346921 -0.02678 0.00586 -0.011436 -0.143447 0.224606 0.100714 -0.011719 0.025463 -0.03561 0.355903 0.125545 0.201007 -0.024384 -0.001879 0.269726 0.117046 -0.325998 0.001859 -0.024835 0.156028 -0.064493 0.2961 0.005263 0.0147 0.207449 0.007467 0.042662 0.171224 0.0309 0.217216 -0.525775 -0.012185 -0.031949 -0.018431 0.001966 -0.021843 -0.037856 -0.049906 0.29537 0.001814 0.006334 -0.005474 -0.015222 -0.021669 -0.160685 0.058032 0.009651 -0.343081 0.036374 0.077868 -0.009411 0.402698 0.148179 -0.106675 -0.148713 0.083883 0.112307
  0.042281 0.201932 0.118143 -0.181109 0.023041 -0.418899 -0.048292 -0.009192 0.03576 -0.262388 0.162362 -0.034822 0.027671 0.142603 -0.074632 -0.069185 0.096502 -0.039923 0.009038 -0.00672 -0.098949 -0.038029 -0.052044 -0.08855 -0.105976 -0.022194 0.164047 0.256398 -0.018074 -0.018138 0.07544 -0.046937 -0.300876 0.198012 0.212812 -0.043452 -0.018291 0.236337 0.021397 0.040052 0.09104 0.024521 -0.031345 -0.003753 0.072982 0.134965 0.023629 -0.016296 0.008102 0.154489 0.217561 -0.064683 0.080349 0.00061 0.098564 -0.035908 0.061117 0.259826 -0.042536 0.003918 0.233445 0.023828 0.206625 0.044783 0.044857 0.199376 0.01523 -0.039479 0.066428 -0.005299 0.004917 0.09948 0.006998 -0.057329 -0.008017 0.100669 -0.024047 0.006673 0.311239 -0.033513 -0.024312 -0.033253 -0.161374 -0.037967 -0.270707 -0.04549 0.379373 0.141422 -0.041972 0.238754 0.012382 -0.017135 0.139758 -0.02077 -0.017148 0.215255 -0.004555 0.338519 0.04414 -0.058801 -0.384549 -0.485615 -0.038232 0.165115 -0.254253 -0.019733 -0.476003 -0.065736 0.123656 0.007217 -0.026691 0.010374 0.477635 -0.068068 -0.029572 -0.006046 0.181641 -0.002717 -0.150927 0.168322 -0.007484 -0.32872 -0.010185 -0.035772 0.016509 -0.004669 -0.603415 0.179523 -0.315549 -0.021179 0.138849 0.170006 0.078993 -0.032696 0.02158 -0.042255 -0.187314 -0.024211 -0.316505 -0.053027 -0.032485 -0.177295 -0.287172 -0.062506 0.126532 -0.051043 -0.011104 0.017648 0.037826 0.005085 -0.021705 0.029946 -0.036471 0.078243 -0.23287 0.023626 -0.051272 0.116571 0.044887 0.071198 -0.004598 -0.060627 -0.131175 0.001858 0.033492 -0.035761 -0.017366 -0.001969 -0.035488 -0.092597 0.177342 -0.062025 0.174496 -0.38704 -0.031547 -0.039245 0.048638 -0.053932 -0.014743 0.038975 -0.055988 -0.108707 -0.01729 -0.014556 0.010617 0.112605 0.045284 -0.21433 -0.001076 -0.007519 0.097215 -0.006642 -0.025206 0.024741 -0.266252 -0.266703 0.384126 0.139115 0.210685 -0.131434
  -0.047871 0.31098 -0.28076 0.029596 -0.029164 0.022278 -0.078067 0.03613 0.043807 0.168945 -0.218646 -0.01722 0.002013 -0.012447 -0.080689 0.025072 0.08129 0.008743 -0.022796 -0.127776 -0.064584 0.046816 0.067742 -0.116609 0.304077 -0.086834 0.051586 -0.102604 0.047103 0.041599 0.147105 -0.056533 0.003725 0.162662 -0.292114 -0.044774 0.03977 0.181829 0.026352 0.021146 0.098074 0.048074 -0.016544 0.009739 0.070821 0.127701 0.008612 0.094682 -0.015478 0.148007 0.08754 -0.016746 -0.100473 -0.173922 0.032646 -0.040406 0.103353 -0.033086 -0.066977 0.045362 0.217224 0.068852 0.099291 0.039226 0.045757 -0.015733 0.063074 -0.029673 0.131813 -0.088525 -0.061624 0.079857 -0.041493 0.066916 0.056034 -0.032242 -0.01477 -0.006455 -0.148852 -0.018652 -0.049301 0.000436 0.187518 -0.050898 0.05841 0.060235 0.141855 -0.02541 0.020024 0.027124 -0.048049 -0.026749 0.198721 -0.024857 -0.035666 -0.306728 0.063002 0.184102 0.028414 0.046487 0.129371 -0.012109 0.022109 0.069394 -0.372485 0.031214 0.007211 -0.065812 -0.217479 -0.031724 0.10881 0.043482 -0.079674 0.078334 0.044946 0.01071 0.056153 -0.057174 0.135763 -0.138289 -0.173572 -0.158368 -0.002433 -0.045981 0.071101 -0.016281 0.052756 0.182593 0.081983 -0.051513 -0.119366 0.257228 -0.025461 -0.280135 -0.019224 0.001122 0.158744 -0.055348 0.142288 -0.01545 0.033733 0.108756 -0.191434 -0.072878 -0.134204 -0.04953 0.010534 0.130551 0.096938 -0.021894 0.000951 -0.063876 -0.213243 -0.087187 -0.216063 0.009432 -0.015679 0.156863 -0.165959 -0.074174 -0.066848 -0.053115 0.10537 -0.042443 0.228915 0.008175 0.035503 0.086287 0.036392 0.013304 0.038393 0.054699 0.162667 -0.165088 0.039984 -0.015632 0.074692 0.094801 0.067728 -0.005105 0.004125 -0.183475 0.039554 -0.070792 0.012832 0.013359 -0.080046 0.099262 0.075861 0.019554 0.086726 9.4e-05 0.051079 0.096392 0.311065 -0.108438 0.383316 0.090632 0.033582 0.043587
  0.168547 0.39484 -0.268623 0.175367 -0.066415 -0.215787 -0.028229 0.057663 -0.056659 0.291818 -0.096148 -0.024239 -0.032106 0.10557 -0.031261 0.142082 -0.227104 -0.046826 0.004146 -0.099841 -0.027444 -0.051231 0.128979 0.1759 -0.169522 0.071634 -0.222848 0.118859 0.024286 -0.001572 -0.27742 -0.046014 0.058705 -0.115258 0.211941 0.02298 -0.245413 0.021289 0.027564 0.049554 0.144508 0.067969 -0.05399 -0.015654 0.064929 0.069008 0.090847 0.018311 -0.019985 0.124931 0.140551 -0.022158 0.128292 0.11623 -0.143177 -0.067729 -0.034258 -0.143486 -0.002935 0.050315 -0.108009 0.118617 0.138279 0.017045 -0.0335 -0.29644 0.019671 -0.028021 0.098172 -0.159032 -0.194857 -0.051353 -0.02938 -0.019465 -0.01461 0.015524 0.024596 0.130485 0.010224 -0.045785 0.03376 -0.041362 0.355739 -0.022804 0.087272 0.03211 0.317458 0.024543 0.018408 -0.212239 0.013652 -0.064066 -0.154214 0.05382 -0.042085 0.153625 -0.026555 -0.275535 0.174354 0.131241 0.1965 -0.23092 -0.006689 -0.16267 0.077997 -0.006267 0.073328 0.024737 0.043085 0.007582 -0.121763 0.002065 0.133084 0.079741 0.031893 0.139842 0.001514 -0.027518 0.138022 -0.094736 0.113887 -0.029197 0.019693 -0.023463 0.062987 0.177192 -0.004604 0.05193 -0.141794 -0.036216 -0.261421 0.140063 -0.166457 0.157248 -0.042603 -0.024024 -0.160268 -0.00442 0.149299 0.003936 0.033796 0.171777 -0.217867 0.028982 0.041175 0.042287 0.225497 -0.547531 -0.337894 -0.020702 0.034662 -0.007474 0.091066 0.146049 -0.258547 -0.096929 -0.015784 0.089029 0.048186 0.044281 -0.10804 -0.100333 -0.015672 -0.007348 0.309384 0.041004 0.010241 0.174568 -0.028536 -0.007521 0.304745 0.107887 0.175906 -0.015775 -0.044196 -0.040556 0.040793 0.125563 -0.02925 -0.011754 -0.039137 0.099014 -0.040777 0.020571 0.036298 0.030133 0.013024 -0.041677 0.021068 0.028159 0.124466 -0.100964 -0.007367 0.06129 0.04509 -0.320544 0.180029 -0.053209 -0.012961 -0.026453
  0.137672 0.279199 -0.191216 0.187575 -0.045134 -0.20503 -0.026134 -0.09063 -0.005965 0.182537 -0.216877 -0.03107 0.053675 -0.281513 -0.048556 0.13659 0.116819 -0.042765 0.010241 0.070972 0.074898 0.00186 0.025427 0.212161 0.385339 -0.028212 -0.0212 0.264648 -0.022542 0.016702 0.07101 -0.063404 0.132549 0.05917 -0.216063 -0.04534 0.108522 0.127349 0.001077 -0.023821 -0.510569 0.001796 -0.028743 0.01713 0.165586 0.246637 -0.009043 -0.126632 0.010824 0.132998 0.133337 0.052463 -0.260837 -0.332455 0.107547 -0.08942 0.019353 0.015397 -0.013415 -0.001528 -0.202575 0.152317 0.293426 -0.005166 0.087452 0.176692 0.034534 -0.039612 0.013655 -0.06656 -0.116562 -0.127512 -0.036292 0.031886 0.027005 -0.020852 -0.052458 0.046823 0.1321 -0.004615 0.046765 -0.0846 -0.297087 -0.087556 0.122299 -0.050795 0.313068 -0.007552 0.007746 0.269797 0.020719 -0.049375 0.17334 -0.023944 0.054983 0.111329 0.005255 -0.129044 0.281788 0.13206 -0.110691 -0.190111 -0.035119 -0.292076 -0.00568 0.044682 -0.319733 -0.018589 -0.317578 -0.018488 0.134045 0.061868 0.002343 -0.094405 0.058974 -0.041071 0.189442 0.083146 0.179234 -0.240455 0.033978 -0.208327 0.006782 -0.018954 -0.004315 0.108646 0.136057 0.151252 -0.043578 0.004074 -0.219309 -0.355188 -0.379503 0.343044 -0.042133 -0.06258 0.064323 0.003446 0.466233 -0.033956 -0.014791 -0.103831 -0.090431 0.001039 -0.300601 0.009201 0.053068 0.001621 0.076065 -0.052306 -0.000946 -0.042488 -0.379813 0.06392 0.191606 -0.047992 0.025996 -0.255701 -0.000145 -0.061417 -0.020155 -0.061367 0.085792 -0.016286 0.113008 0.000694 -0.021054 0.270233 -0.025032 -0.013096 -0.04523 -0.102365 -0.134683 -0.244433 0.009479 -0.03941 -0.056429 0.074843 -0.075963 -0.063794 0.003 -0.280488 -0.047031 -0.006585 -0.021103 0.050951 -0.013269 0.215586 0.000625 -0.011359 0.106055 -0.034397 0.067533 0.051982 0.125001 -0.041003 -0.086979 0.166578 0.097037 0.137168
  -0.020892 -0.078256 0.000464 0.002766 0.004949 -0.053488 -0.119028 -0.00143 -0.001856 0.004709 -0.00515 -0.041678 0.05546 -0.009709 -0.227937 0.010695 -0.042638 0.062439 0.011931 -0.072973 -0.313448 0.035223 -0.046917 0.00181 0.017237 0.007814 0.045644 0.064283 0.051515 0.090058 0.009734 0.014963 -0.015164 -0.003455 -0.17481 -0.057998 -0.05263 -0.001781 -0.012729 -0.017365 -0.059589 -0.012533 -0.065288 -0.012573 -0.003085 0.026646 0.020177 -0.111279 0.051853 0.00522 0.062272 0.024699 -0.12228 0.016489 0.011827 0.015785 -0.062669 -0.002394 -0.004428 -0.031174 0.038 0.028421 0.038664 0.017675 0.134903 -0.059124 -0.036644 -0.038416 -0.126716 0.002648 0.054094 0.021417 0.048366 -0.057292 -0.010791 -0.103744 -0.005955 -0.032608 0.052194 0.073644 -0.042823 -0.054692 -0.011435 0.037736 0.029332 0.095848 0.040008 -0.028427 0.02611 0.051806 0.046672 -0.025071 -0.003012 -0.056804 0.041726 -0.025045 0.028503 -0.056041 -0.051917 0.034602 -0.015933 -0.043964 0.04391 -0.11764 -0.004912 -0.014725 -0.036081 0.057255 -0.003441 -0.044564 -0.032239 0.05034 -0.100439 -0.038788 0.010983 0.056293 0.004252 0.14263 0.029921 -0.110803 0.061748 -0.001358 0.038426 -0.08564 0.173332 -0.066058 0.045428 0.008275 0.045274 0.034946 0.021791 0.224018 -0.025354 -0.116551 0.080166 0.015579 -0.050171 0.051919 -0.070025 0.094733 -0.037883 0.039503 -0.008404 0.009816 0.039707 -0.103516 -0.062137 -0.063659 0.030782 -0.006047 -0.118564 -0.035932 0.02929 0.008822 -0.002382 0.080361 -0.0922 0.010003 -0.026261 0.027643 0.094901 -0.069642 0.025254 -0.077975 -0.011599 0.18028 0.074376 -0.030024 0.007943 -0.095241 0.089338 0.08508 0.080749 0.002224 -0.004368 0.026937 -0.066675 -0.09919 0.009465 0.072299 0.024734 0.016995 -0.066468 0.015617 0.072218 -0.035398 0.078001 0.026873 -0.065029 0.026099 -0.016716 0.009059 0.100429 -0.027241 -0.009554 0.029584 0.072882 0.00833 -0.03905 -0.011834
  -0.01925 -0.019152 -0.004336 -0.026615 -0.032733 0.035709 -0.042495 -0.048717 0.072041 -0.059482 0.087934 0.136636 -0.008921 0.029826 0.025329 0.066355 0.06946 -0.092305 -0.003627 -0.111328 -0.068584 0.037027 -0.036454 -0.050155 0.01387 0.052263 0.009526 0.002598 0.079787 -0.016279 0.026299 -0.019675 0.055551 0.065375 0.021585 -0.063296 0.030818 0.16381 0.037015 -0.0732 -0.014163 0.005627 0.046459 0.008332 0.017423 0.068612 0.027667 0.004819 -5e-06 -0.032575 0.026684 -0.026171 0.030918 0.023746 -0.011124 0.017996 0.046448 0.050469 -0.002832 -0.045423 -0.09218 0.009838 0.059856 0.074747 -0.063758 -0.018797 -0.001637 0.010617 0.030204 0.022861 0.010983 0.003405 0.126037 0.000552 -0.058186 0.149426 -0.088887 -0.094533 0.033113 -0.00217 0.008762 0.021697 -0.011658 -0.003854 -0.02403 0.001195 -0.145303 -0.025908 -0.013069 0.051739 0.038413 -0.015647 -0.023659 -0.081744 -0.12858 0.036185 0.005338 0.028508 0.00757 0.09468 -0.003463 -0.066388 -0.014242 0.059073 0.019428 0.033712 -0.047741 0.057401 0.039568 -0.021849 0.046737 -0.033386 -0.032401 0.016995 0.025721 0.048236 0.020782 -0.039595 -0.017661 0.006873 -0.070721 -0.008404 0.079858 0.030529 -0.018389 -0.08125 -0.000944 0.032666 0.044838 0.016674 -0.054752 -0.114914 -0.005074 0.020239 -0.015904 -0.037827 0.052203 -0.069593 -0.136264 -0.009098 -0.13758 0.079177 -0.015017 0.030978 0.000958 0.036036 -0.040929 0.040923 -0.005718 0.047848 0.034329 0.033685 0.044288 0.005779 0.026061 0.007371 0.088948 -0.049516 0.026761 -0.002521 0.030983 -0.015627 -0.013778 -0.008891 -0.063738 0.02777 0.061711 -0.019623 0.012302 -0.056657 -0.029725 0.064572 0.02257 -0.030729 0.018644 0.004085 0.028428 0.010426 0.040465 -0.209839 -0.002292 -0.012897 -0.092683 0.06696 0.004016 0.023656 -0.00314 0.007405 0.011938 0.013639 -0.029857 0.058525 0.07011 0.034619 0.041661 -0.001119 -0.089387 0.001716 0.032394 0.073097
  -0.028742 -0.075951 0.012324 0.08414 0.042116 0.040868 0.017757 0.129823 0.114541 -0.095413 0.093019 -0.018078 -0.11299 0.028732 -0.122791 -0.015216 0.012858 -0.001374 -0.00431 -0.023009 -0.112261 -0.05753 0.0309 -0.031476 -0.072684 0.110464 -0.017229 0.005256 -0.000522 -0.136913 -0.011634 0.025436 -0.061943 0.012248 -0.042683 -0.007381 -0.020614 -0.115685 0.039441 0.015378 0.051938 0.026842 0.024833 0.054382 0.027455 0.0756 0.064168 -0.159274 0.085825 0.043965 0.014878 0.115772 -0.064149 -0.039404 0.015618 0.000528 -0.071771 0.082757 0.027127 0.064334 -0.062238 0.057788 0.060396 0.011972 0.00391 -0.015755 0.037557 0.016192 -0.001064 -0.132908 -0.088215 0.003991 -0.071502 0.001564 0.126378 -0.047056 0.016707 0.170854 0.013145 -0.066778 -0.03375 -0.029012 -0.009934 0.076095 -0.021634 -0.081574 -0.162992 0.00723 0.02851 0.048131 -0.057882 0.014174 0.037696 0.035151 0.049809 0.033402 0.025671 -0.02111 -0.054847 -0.034811 0.02898 -0.023941 -0.027898 -0.024438 -0.044653 0.084368 -0.026656 -0.088225 0.060477 -0.006057 -0.040686 -0.003145 -0.055141 -0.015624 0.015667 0.03935 0.043233 -0.119356 -0.003533 0.089236 0.039256 -0.002462 0.023707 -0.042704 -0.094103 -0.029109 -0.022024 -0.003028 0.020224 -0.034683 0.046184 0.001819 -0.009049 -0.172686 -0.047322 -0.038513 0.081673 -0.026965 -0.040829 -0.061066 0.076117 -0.01578 0.024492 0.004714 -0.030175 -0.094928 -0.033225 -0.007973 -0.052182 0.053886 0.012034 0.125631 -0.029872 0.000249 -0.028032 0.006723 -0.067835 -0.030965 0.024392 0.027638 -0.020268 -0.023304 -0.014529 -0.04007 -0.121952 -0.055671 0.010861 0.024207 -0.097874 0.008781 -0.009068 0.130152 0.042998 0.001653 0.04477 0.041524 0.025742 -0.018132 -0.034168 -0.013866 -0.014591 -0.07802 -0.053514 0.056826 0.065994 -0.02845 0.086574 -0.034713 -0.03985 -0.090375 -0.043585 0.016923 0.105516 -0.058676 -0.038804 0.039083 -0.115438 -0.025936 -0.011502 0.020416
  -0.044665 -0.042844 -0.007107 -0.044212 0.053144 -0.026893 -0.029188 -0.016565 0.058623 -0.005891 0.138974 -0.087636 -0.023448 0.054061 -0.004483 0.060783 -0.009007 -0.005712 0.082819 0.085407 0.164955 -0.041001 0.001393 0.021781 0.086137 -0.038724 0.055348 -0.070219 -0.012507 -0.061418 0.029794 -0.004879 0.014954 0.018996 -0.094823 0.063512 -0.001275 -0.093341 -0.000635 0.01452 0.011249 -0.063497 -0.018035 0.070618 0.030643 0.055561 0.015863 -0.134206 -0.047154 -0.00219 0.034395 0.050691 -0.050852 -0.036252 0.027037 -0.054339 -0.02458 0.024602 -0.028682 0.056972 0.00614 0.011166 0.047963 -0.047813 0.015869 0.003032 -0.079846 0.057032 0.082584 0.003076 0.084264 0.017365 0.186823 -0.042781 0.043576 0.038656 -0.010905 0.043713 0.008246 -0.012677 -0.104016 0.056086 -0.051951 0.00032 0.023928 -0.025639 -0.042664 0.028211 -0.049766 0.027255 0.011229 0.029381 -0.106075 0.077131 0.018509 -0.012917 -0.017266 -0.144143 0.043463 0.040793 -0.067129 -0.022602 -0.057201 -0.002321 -0.020117 0.039862 0.004477 -0.020728 0.007477 0.005089 0.001706 0.031425 -0.077244 0.042638 -0.013296 -0.045912 0.032055 -0.021323 -0.03867 0.004287 0.014219 0.020147 0.062154 0.099287 0.083035 -0.038842 0.023602 0.013542 -0.024354 0.020799 0.064365 0.051616 0.00862 -0.11885 -0.017054 0.009182 0.093283 -0.061882 -0.062196 0.064285 -0.064193 0.048811 0.085691 0.022736 -0.005309 0.010824 -0.114686 -0.018029 -0.009868 -0.082817 -0.01783 0.008966 -0.071678 -0.004256 -0.01839 0.045042 0.098459 -0.006756 0.022481 -0.055675 -0.052994 -0.030889 0.001637 0.0329 -0.030098 0.160617 0.037997 -0.035851 0.026514 0.088262 0.034815 -0.113716 0.050825 0.042916 0.011787 -0.025347 0.037683 -0.061814 -0.073797 -0.064336 0.023302 -0.116851 -0.117911 0.050331 0.016424 0.012489 -0.102581 -0.049918 -0.004341 0.043516 -0.040537 -0.055326 0.019387 -0.143316 -0.067324 0.008798 0.03428 -0.057212 0.029953 0.013763
  0.05558 -0.02595 0.055423 -0.001443 0.013184 -0.021843 0.133264 0.093736 0.063727 0.075745 -0.046056 -0.034716 0.014027 0.022631 -0.043653 -0.00925 0.001584 0.016502 0.046336 0.147318 -0.103932 -0.03671 0.029789 -0.036331 -0.073467 0.090896 0.057807 0.019024 0.090739 -0.101519 -0.009872 0.041394 -0.002225 -0.023924 -0.022894 0.095089 -0.025309 -0.008137 0.111583 0.03418 -0.086544 0.002835 -0.060861 -0.00546 0.009874 0.029643 -0.004775 -0.056897 0.018647 0.022877 0.045378 -0.044907 -0.073173 -0.001465 0.067613 0.029385 -0.029689 0.032787 -0.018469 -0.062278 -0.011575 0.016724 -0.036153 0.013966 -0.156134 -0.091017 -0.048535 -0.068032 -0.093947 0.026159 -0.025635 -0.035717 0.018812 -0.011452 0.043857 -0.165151 -0.084386 0.025941 -0.077476 0.001183 -0.046858 -0.052641 -0.003929 -0.042353 0.014197 0.10135 -0.077291 0.05453 0.038459 0.039968 -0.00913 0.024028 -0.09613 0.018378 0.023599 -0.00486 0.136163 -0.022901 -0.005505 0.060781 -0.031133 -0.028055 0.06079 -0.113547 0.009247 -0.08322 0.044832 -0.052154 0.034324 -0.077371 -0.111633 0.041459 -0.105467 -0.028795 0.03983 -0.014722 -0.027618 0.131463 -0.006419 -0.063874 0.098514 0.034126 0.023283 -0.039626 -0.036729 -0.167299 -0.007904 0.017728 0.018238 -0.019417 0.01385 0.17076 -0.062903 -0.027072 -0.006036 0.023083 -0.020279 0.014025 0.029643 -0.070591 -0.034469 0.045055 0.007941 -0.007109 -0.034769 0.150571 0.037119 0.09606 0.02779 0.021765 -0.040726 0.00653 0.054948 -0.049433 -0.010458 0.073442 0.037972 -0.015682 0.002807 0.016792 -0.054978 -0.037644 0.019081 -0.013239 -0.078454 -0.091387 0.048885 -0.016102 0.035339 -0.087661 0.063985 -0.115674 0.003425 0.047784 0.007785 0.037896 -0.037274 -0.001468 0.028102 -0.004041 0.04097 -0.0396 -0.021092 -0.028923 -0.077123 0.022984 0.085689 -0.044606 0.070446 -0.077628 -0.008579 -0.003895 0.089963 0.082511 0.043898 -0.005991 0.089466 0.050456 -0.065533 0.028094
  0.040277 -0.061211 0.001337 0.092276 0.072838 -0.06624 0.026655 0.036976 0.127745 0.026955 -0.093358 0.155915 -0.013466 0.083307 0.009979 0.032766 0.02622 -0.038083 0.115678 -0.054938 -0.029693 -0.00219 0.088615 0.014642 -0.055604 0.003185 -0.003682 -0.071468 0.005114 0.120564 0.022938 -0.013981 0.076609 -0.022031 0.049352 0.046403 0.009155 0.031521 -0.040925 -0.066439 0.038923 -0.019062 -0.053176 0.011452 0.031381 0.053963 -0.108387 0.074076 -0.026583 -0.041896 0.018631 0.011926 -0.089772 0.011053 0.007876 0.043737 0.026241 0.083331 -0.055876 -0.033442 -0.003274 -0.018627 -0.014915 0.01014 0.124064 -0.040656 0.109859 0.038012 0.007755 0.134733 -0.086029 0.003415 -0.004765 0.004179 -0.085697 0.099001 -0.002596 -0.06496 -0.138643 0.023861 0.009602 0.062499 -0.05411 0.060336 3.6e-05 0.066471 -0.107855 0.09342 -0.002574 -0.026655 -0.133414 -0.005398 -0.14784 0.166399 0.030016 0.010397 0.00549 0.090124 0.008445 0.102372 -0.019779 0.052237 0.002228 0.023095 -0.005586 0.039383 -0.004807 0.044485 0.094675 -0.018145 -0.093745 0.032298 -0.228704 0.011698 -0.04166 0.015311 -0.023555 -0.134282 0.107913 -0.081711 0.201404 -0.055094 0.041126 -0.090879 -0.082868 0.006345 0.081533 0.00504 -0.0414 -0.211633 -0.02736 -0.159893 -0.000249 0.042558 -0.032973 0.042017 0.005178 -0.188989 0.024172 0.12963 0.112195 0.008843 -0.042283 -0.128058 -0.0791 -0.074618 -0.154286 0.056116 0.040538 0.047059 -0.117044 0.006623 0.090879 0.029739 -0.003492 -0.038259 -0.094308 0.024472 0.068827 -0.025981 0.007655 0.020831 0.045651 -0.036001 -0.047704 -0.012244 -0.065235 -0.052224 0.086662 -0.029391 0.104291 0.159864 -0.037074 0.059282 -0.083179 -0.000796 0.059886 -0.065429 0.087758 0.128972 0.030673 -0.014588 -0.14542 -0.065372 0.027254 0.013653 0.080546 -0.046561 0.00451 -0.100006 -0.060635 0.013066 0.127055 0.037312 0.114622 -0.032798 -0.14565 0.096461 -0.099444 -0.004255
  -0.02494 0.032949 0.035054 -0.031916 0.004992 -0.030813 0.13863 -0.337895 -0.205747 0.001393 0.003937 -0.078134 0.001884 -0.007161 0.21059 -0.012321 0.015432 0.025448 -0.09535 0.033916 0.095483 0.083822 -0.054204 -0.043507 -0.108511 0.001103 -0.011808 -0.005677 -0.01709 -0.332531 -0.060636 0.03823 0.004191 0.061564 -0.009334 0.110785 0.030114 -0.010312 0.107772 0.101272 0.012388 0.156556 0.047471 -0.031359 -0.00156 0.068113 -0.000696 0.177631 0.119435 -0.060032 -0.037237 0.043684 -0.091592 -0.009794 0.017558 -0.132102 -0.00307 -0.005984 0.138391 0.05111 0.030426 5e-04 0.017645 -0.14858 -0.289259 -0.03284 0.139626 0.08171 0.07078 0.136299 -0.154708 -0.062694 0.069218 0.029073 0.033328 -0.093676 0.02494 -0.124184 -0.016626 0.026012 0.102712 0.062321 0.004038 0.093956 0.023116 0.04729 -0.100459 -0.006402 0.047615 -0.020262 0.04095 0.138362 0.056809 -0.160445 0.094761 -0.016579 0.087361 -0.070894 -0.019453 0.019243 -0.049786 -0.000662 -0.064679 -0.090078 0.003487 0.035972 0.005744 0.023169 0.003266 0.055285 -0.128819 -0.085566 0.052388 -0.13263 -0.031212 0.16509 -0.059166 -0.066083 -0.024721 -0.042254 -0.062262 -0.014695 0.057536 0.051248 -0.249461 -0.00418 0.040572 -0.031606 0.03311 0.106042 -0.037829 -0.034504 -0.072199 -0.051944 0.020212 -0.013605 -0.078807 0.178587 -0.023709 0.13152 0.022441 -0.030897 -0.031923 0.020429 -0.069872 -0.369387 -0.033622 0.047696 -0.064229 -0.259496 0.047248 0.056747 -0.098479 -0.03141 0.040456 -0.089054 0.009124 0.019514 -0.057013 0.031648 -0.019496 0.146817 -0.062006 0.04874 -0.015685 -0.148634 -0.125159 -0.071373 0.075209 0.067728 -0.039997 0.072929 0.034974 -0.114183 0.066825 -0.014162 0.069631 0.03956 0.0035 -0.072196 0.084809 0.074212 0.096681 0.068549 -0.1215 -0.030711 0.028189 0.005871 -0.072519 -0.123518 0.000617 0.074437 -0.12045 -0.029526 0.042577 -0.033827 0.029694 0.048666 -0.082828 -0.043497
  -0.015948 -0.000261 -0.024704 -0.034175 -0.001359 -0.047237 0.159592 0.065117 -0.153238 0.009633 -0.051029 -0.139282 -0.021485 -0.056638 -0.197231 -0.009295 -0.076562 0.062366 -0.010484 -0.09341 0.108349 -0.040791 -0.066923 -0.046461 0.003887 -0.265429 0.03379 0.108757 -0.069797 0.094163 -0.068979 0.084826 -0.064884 0.050292 -0.026161 -0.133338 0.061471 0.019935 -0.066888 -0.006826 -0.065193 -0.042552 0.104161 0.080705 0.034323 0.00857 0.173845 -0.025063 -0.207452 0.002452 -0.002867 0.028689 -0.041328 -0.014696 -0.005996 0.099375 -0.008281 -0.00432 0.0355 0.073132 -0.014757 0.029294 0.012991 0.034117 0.050303 -0.001769 0.050783 0.07824 0.004881 0.014025 -0.083045 -0.060268 0.130689 0.040153 0.103168 0.054607 0.089461 -0.135225 -0.056614 0.015324 0.068613 0.061935 -0.051189 0.004307 0.020459 -0.092051 -0.055061 -0.013127 -0.003599 0.050514 0.108134 -0.015028 -0.008338 0.054079 0.082917 -0.042277 -0.107762 -0.032613 0.004537 -0.02031 -0.038981 -0.006142 -0.016426 -0.088813 -0.000991 0.122147 0.014254 0.031674 -0.024581 0.049163 -0.122927 -0.004443 0.070399 -0.09748 0.065434 -0.063894 -0.052297 -0.051936 -0.063082 -0.079979 -0.079831 0.006479 -0.172983 -0.068514 0.066666 -0.020023 0.02879 -0.069477 0.0192 0.047696 0.079351 0.116445 -0.058856 0.010133 0.018995 -0.001774 -0.055296 0.078812 -0.048292 0.144679 -0.138296 -0.018527 0.023012 0.042626 -0.005842 -0.184838 -0.066247 -0.037683 -0.022012 0.002115 0.021329 -0.055102 -0.127533 -0.058969 0.002907 0.14247 -0.030458 -0.038731 -0.016135 0.059581 -0.041582 0.084162 -0.119882 -0.017628 -0.018244 0.0441 0.057843 -0.064138 0.079829 0.095275 0.016598 0.068385 0.019179 0.007007 0.038664 0.049726 -0.016815 0.031763 -0.002817 -0.129584 0.007069 0.096299 -0.25161 0.120832 0.044193 -0.029043 -0.166249 0.012063 0.094914 -0.056926 0.033445 0.0069 0.023332 0.059246 -0.021258 0.015079 0.141006 0.052862 -0.053682 -0.048027
